// Neural Network File Format by Kyle Julian, Stanford 2016
8,5,5,50,
5,5,50,50,50,50,50,50,5,
0,
-3.4028235e+38,-3.4028235e+38,-3.4028235e+38,-3.4028235e+38,-3.4028235e+38,
3.4028235e+38,3.4028235e+38,3.4028235e+38,3.4028235e+38,3.4028235e+38,
0.0,0.0,0.0,0.0,0.0,0.0,
1.0,1.0,1.0,1.0,1.0,1.0,
1.000000000,0.000000000,0.000000000,0.000000000,0.000000000,
0.000000000,1.000000000,0.000000000,0.000000000,0.000000000,
0.000000000,0.000000000,1.000000000,0.000000000,0.000000000,
0.000000000,0.000000000,0.000000000,1.000000000,0.000000000,
0.000000000,0.000000000,0.000000000,0.000000000,1.000000000,
-0.000000000,
-0.000000000,
-0.000000000,
-0.000000000,
-0.000000000,
-0.039501801,-1.418470025,1.475170016,0.135736004,0.038971700,
0.012021600,0.199366003,-0.216711000,-0.035301600,0.316365987,
0.056533001,-0.225589007,0.380374014,-0.037709098,0.440564007,
0.684328020,-0.001330110,0.002637730,0.011618900,-0.012947400,
-0.494969010,-0.188058004,-0.118510000,-0.008658820,0.184430003,
-0.008403250,-0.420832992,-0.087479196,-0.349877000,0.488326997,
0.033789400,-0.931442022,0.926132977,0.138986006,-0.011651400,
-0.783106029,0.100605004,-0.250243992,0.114133000,-0.133819997,
0.018087100,0.903798997,-0.888916016,0.147683993,-0.020008100,
0.511952996,0.153047994,0.200532004,0.169218004,-0.382741988,
0.068467699,-0.320412993,-0.626049995,-0.267176002,-0.336843014,
-0.221222997,-0.155735001,0.079669699,0.353886008,-0.507040024,
0.060674101,0.041769899,-0.011882100,-0.861796021,0.128878996,
-0.764391005,0.000336967,0.013641000,-0.262111992,0.079861604,
0.768360019,-0.006018500,0.000350357,0.002908870,0.002064220,
0.211742997,-1.516319990,0.056515701,0.067299001,-0.168310001,
-0.148700997,-0.118536003,-1.055590034,0.061880302,0.340344012,
-0.010819900,0.886403978,-0.780938983,0.064807899,0.011416600,
0.024680700,0.935522020,-0.905057013,0.105351999,0.001596910,
-0.126133993,0.046608798,1.521460056,0.121802002,-0.054792501,
0.488195986,0.256808996,0.418449014,-0.076142497,-0.007827540,
-0.420787990,0.047229499,0.158398002,0.094120003,-0.614287972,
-1.062350035,0.002215720,-0.008506440,0.176503003,0.205158994,
-0.048825100,-0.967274010,-0.896857977,0.476251990,-0.011091400,
0.414606005,-0.047398999,-0.223370001,0.245017007,-0.339442015,
-0.701973021,0.013731200,0.045895599,-0.276719004,0.034836002,
-0.012647900,0.019350000,0.014861700,-0.414703012,0.016165299,
-0.063504800,-0.130184993,-0.049740698,0.154390007,-0.150240004,
0.062500097,0.656028986,-0.963450015,0.259981006,-0.538317978,
-0.045316398,0.532377005,0.252941012,0.335110992,0.020567100,
-0.031849802,-0.041412398,-2.062350035,0.042694401,-0.018868400,
0.174076006,-0.642233014,0.100180998,0.232883006,-0.015166600,
0.065786801,0.884326994,1.053439975,0.549857020,-0.092064202,
-0.086098902,0.080922700,-0.066815600,-0.548491001,0.613772988,
-1.008370042,0.001253320,-0.000852931,0.004190600,-0.003641440,
0.115093000,-0.980594993,-0.433916986,0.360358000,0.005150810,
0.039888602,1.483469963,0.070629701,0.178293005,-0.206753999,
0.233331993,-0.567322016,-0.046130098,0.372628987,-0.642212987,
-0.346693009,0.587292016,0.620236993,0.091451503,0.224343002,
0.065574400,0.019924900,-0.047563799,-0.169779003,-1.207350016,
-0.655623972,0.293637991,-0.317236990,0.125208005,0.213678002,
-0.115206003,-0.004228380,0.072223596,-0.175088003,0.507115006,
0.122804999,-0.050163899,0.022231000,-0.846306980,-0.230277002,
-0.903587997,-0.124324001,0.141175002,0.024362700,0.014305900,
0.430909991,0.006837240,-0.000388599,0.166859999,-0.133292004,
0.092280403,-1.533820033,0.023105299,0.190254003,-0.524981976,
0.097707398,0.518127024,0.206567004,0.057509601,0.004873710,
0.400786996,0.025777400,0.002137680,0.042091101,-0.775050998,
-0.101256996,1.000749946,0.630065978,0.667963982,0.045499198,
0.751964986,-0.232683003,0.048139900,-0.046590898,0.027015099,
-0.369372994,
0.003151850,
0.003017830,
0.221022993,
-0.075308703,
-0.026249900,
-0.345649004,
-0.154741004,
-0.273819000,
0.173577994,
-0.265224993,
0.000613303,
-0.306726992,
-0.279695988,
0.251845986,
0.094910800,
0.077824302,
-0.166489005,
-0.351361990,
-0.004800220,
0.115561999,
-0.255650997,
-0.109777004,
-0.163727999,
0.144825995,
-0.192058995,
0.083848603,
0.041894302,
-0.214746997,
0.072219498,
0.053901002,
0.001138970,
-0.176407993,
-0.024985399,
-0.281221002,
0.115408003,
0.030775800,
0.000826755,
-0.094383702,
-0.513369024,
-0.237884998,
0.078093700,
-0.309060007,
-0.181298003,
0.163018003,
-0.135047004,
0.095432296,
-0.082848199,
-0.130237997,
0.165064007,
-2.019929886,-0.833151996,-0.548497021,-0.274300009,0.146238998,0.668856978,-4.319729805,-0.094444998,-0.712179005,-0.152717993,-0.276524991,0.280243009,-0.312702000,-0.043077901,-0.234523997,0.420668989,-0.179003999,-0.650548995,0.273391992,-0.686594009,0.417100996,0.731140971,0.256220996,1.200919986,0.123297997,-0.468037993,0.163633004,-0.466937006,-0.118639000,-0.122800998,-0.112458996,-0.677905023,2.112309933,0.660412014,0.458469003,0.320484012,-0.119893998,0.179142997,-0.050537799,0.337386996,-0.293808997,0.104597002,0.221845001,-0.647709012,0.176623002,0.005405380,0.053889699,0.662836015,-0.297244996,-0.064489998,
0.185148001,-0.573047996,0.222546995,0.146893993,-0.210568994,0.184315994,-1.532610059,0.413587004,-0.321123004,-0.598088980,0.081546500,-0.074579597,-0.373625994,-0.338692009,0.229967996,0.124766998,0.053050298,0.452033013,-0.323096007,-0.094065197,-0.331093997,0.192570999,0.126723006,0.616008997,-0.176976994,-0.336519986,0.668649971,0.134696007,-0.092179701,0.072400600,-0.459468991,0.211468995,-0.094829403,-0.117299996,0.634154975,-0.126283005,0.329295009,0.159512997,0.075635701,-1.219419956,0.330285013,-0.054731298,0.140908003,0.185944006,0.149742007,-0.319653988,-0.023994600,-0.165817007,-0.109697998,0.025219699,
0.665319979,0.301977992,1.198119998,0.122309998,0.248292997,-0.544866025,-0.040439699,0.683420002,0.360502988,-0.083973601,-0.150077999,-0.102422997,-0.094528802,1.135830045,0.100045003,-1.279790044,-0.310304999,-0.040439699,-0.571752012,-0.207816005,0.121122003,0.530520976,-0.494735003,0.369787991,0.411471009,0.469253987,0.418175012,0.517969012,-0.089861698,-0.376062006,0.281367004,-0.567952991,0.205329001,-0.569742978,0.392758995,-0.559742987,0.104501002,0.976006985,0.258410990,0.283937007,0.761916995,-0.371441007,0.085598603,-0.126323000,0.051281098,-0.295773000,-0.231875002,0.418433011,-0.126401007,-0.015216200,
0.159672007,-0.504678011,-0.837740004,0.157048002,0.055553701,0.172948003,-3.755059958,-0.469422996,-1.629680037,-0.395159006,-0.030984599,-0.854920030,-0.162924007,0.422334999,0.144863993,0.482019991,0.271930993,0.969785988,-2.772809982,-0.034850098,-0.001682280,-1.565690041,-0.069725402,-0.297917008,-0.224356994,0.328824013,0.444330990,-0.393420994,0.211065993,-0.164122000,-0.091258802,0.069630601,0.955924988,0.755047023,1.005630016,0.188776001,0.386325985,-0.464033008,0.763005972,0.048204601,-0.079556003,0.322759002,1.103500009,0.876519978,-0.065717302,0.131124005,0.415728003,0.288753003,0.126773000,0.355830014,
0.823559999,-0.528587997,-0.230675995,0.350935012,0.574078977,0.020853501,-2.504339933,-0.977383971,-1.372760057,0.079816997,-0.000054863,-0.187234998,0.539250016,-0.364116013,0.171527997,0.397664994,-0.405519992,0.745398998,-3.599390030,-0.219830006,1.018090010,-0.058788098,-0.462384999,1.051470041,0.869969010,-0.089275002,0.492199987,-0.092847601,-0.138399005,0.258644998,0.438944995,0.484012991,0.025187399,0.993897021,1.594740033,0.191721007,-0.231502995,0.097159199,0.175079003,0.218186006,0.538183987,-0.135224000,0.379581004,-0.209131002,0.398007989,-0.618286014,1.164870024,-0.169633999,0.523357987,-0.819229007,
-0.141487002,-0.602455020,-0.139664993,-0.308014005,0.337242007,0.251177996,0.165041000,0.486869007,-0.352223992,0.086728200,0.388195008,-0.172261000,0.177521005,0.066093102,-0.578020990,0.244966000,-0.251235992,-0.092804201,-1.289219975,-0.100221999,-0.037739899,0.241736993,0.813530982,0.205451995,-0.574136019,-0.053534102,0.284391999,0.009158330,-1.117329955,0.152511999,-3.293790102,-0.101005003,-0.353736013,0.355255991,1.959779978,0.113789998,0.836255014,-0.102367997,0.042862300,-0.986708999,-0.491333008,-0.113426000,-0.111822002,0.073601201,-0.508588016,0.075708203,0.259346992,-0.531354010,0.370716006,0.247265995,
1.003739953,0.640519023,0.834976017,-0.129335999,0.322580010,-0.660474002,0.317019999,0.581220984,-0.113669999,0.569368005,-0.281183988,0.167152002,-0.581166029,-0.022193300,-0.166457996,-1.171489954,0.196190000,-0.604056001,-0.717229009,0.237106994,-0.531422973,0.157582000,0.115254000,-0.425689012,0.635339022,-0.219730005,-0.358754992,0.390123010,-0.074833401,-0.338138014,0.194330007,-0.348255992,-0.022537099,0.151541993,-0.493276000,-0.489172012,0.763567984,0.303923994,-0.651129007,1.027330041,-0.238993004,-0.845398009,0.083839998,-0.416940004,0.650111020,-0.527198017,-0.284217000,0.295212001,-0.334903002,-0.550096989,
-0.297455013,0.398084998,0.595354021,0.174287006,0.320510000,0.381141007,0.502546012,-0.553532004,0.289779991,0.167526007,1.492869973,0.397092998,-0.376991987,-1.198760033,0.361405998,-0.093688004,0.459686011,-0.102582999,0.599314988,-0.538296998,-0.489208013,-0.683264971,0.145997003,-0.169115007,0.071543798,-1.876739979,0.100009002,0.259279996,-0.186156005,0.225749999,-0.528896987,0.182187006,0.963380992,0.798512995,-1.432090044,0.418321013,0.488483995,0.953544021,0.356952012,0.067660503,-0.489818990,-0.044192199,-0.107107997,-0.077976100,0.629701972,-0.066144302,0.189761996,-0.023187499,0.117541000,-0.448785007,
0.243336007,-0.548005998,-0.747071028,-0.500966012,-0.100760996,-0.314294010,-0.994499981,-0.340743989,1.004480004,-0.317869008,-0.424861997,-0.748777986,0.103681996,-0.108097002,-0.413405001,0.173023000,0.110800996,0.827866971,-0.915380001,0.859615028,-0.053567801,-0.458561987,0.480376989,0.177239999,-0.012655600,0.063073903,0.193883002,-0.355271995,-0.520509005,0.102790996,0.773549020,-0.434374005,-0.115950003,0.633184016,0.766310990,-0.173149005,-0.103304997,-0.344989985,-0.504097998,-3.878099918,0.430509001,0.324589014,0.404347986,0.146587998,1.067909956,0.249989003,-0.447526008,-1.038280010,-0.344621986,0.656395018,
-0.238113999,0.279146999,0.903846979,-0.909924984,-0.310422987,0.151456997,-0.366643012,-0.081033200,0.187696993,0.045701500,-0.253111988,0.511170983,-0.389113009,0.510147989,-1.909250021,-0.281524003,-0.133047998,0.260607004,0.521604002,0.408349991,-0.235531002,-0.184742004,0.389950007,0.308905989,0.154251993,0.228891999,-0.032152802,0.258758992,0.013525500,0.385105014,0.224254996,-0.240027994,0.248166993,-0.524492979,3.490950108,-0.233769000,0.086603299,0.077435002,-0.122635998,0.116154000,-0.247088999,-0.054753501,-0.072660401,0.123816997,0.584365010,-0.205979005,0.210996002,0.128340006,0.007830570,0.532593012,
0.239118993,-0.088992298,0.427801996,-0.236606002,-0.549516976,-0.181950003,0.094849497,-0.285376012,-0.006041190,0.586528003,0.271939993,-0.417912006,0.044763401,0.843162000,0.152388006,0.155947000,-0.059746802,-0.169230998,-0.128576994,0.184279993,-0.124507003,0.399004996,-0.114872001,-0.098736502,0.834412992,-0.039914101,0.538966000,-0.244182006,-0.061831899,0.001164020,0.567731977,0.256898999,0.091445297,0.495974004,-1.752150059,-0.244760007,-0.091099598,-0.340314001,-0.040005799,1.012429953,-0.546544015,0.003356680,0.301995009,0.199025005,0.854259014,-0.005221210,0.441210985,0.351417005,-0.137652993,-0.649290025,
-0.293852001,0.049279802,0.053001300,-0.078433901,-0.031464301,-0.124940999,0.064430602,-0.353154004,-0.101240002,-0.072305001,0.110958003,-0.057916701,-0.154232994,0.163166001,-0.100013003,0.046597701,-0.028910600,0.054826699,-0.721578002,-0.068362802,-0.302729011,0.146612003,0.059259899,0.200195000,0.162925005,-0.165900007,0.285136014,-0.053898700,-0.174789995,0.046639699,-0.137520999,-0.015703499,0.103892997,-0.108871996,0.069821700,-0.048347902,-0.116669998,-0.121946000,-0.072414801,0.030571699,0.210326999,-0.096777201,-0.010031400,-0.029583599,0.336811006,-0.186095998,-0.079504304,0.034985099,0.079941198,0.031910598,
0.659371018,0.562981009,1.042799950,0.178978994,-0.517951012,0.470595002,-0.772798002,0.134583995,1.179810047,0.341197997,0.091582403,0.633886993,-0.008296840,-0.983304977,0.371692985,0.235651001,-0.189741999,0.871935010,0.131234005,0.173673004,-0.662721992,-0.130524993,0.017718300,-0.114072002,0.096551299,0.006808070,-0.619663000,-0.291229010,0.306048006,-0.687730014,-0.095265500,-0.271845996,-0.070252202,-0.786742985,-3.838759899,-0.106202997,0.067711800,0.112645999,0.098211102,0.313035995,0.223671004,-0.520780981,-0.123949997,-0.273052007,-0.293330997,0.518149972,0.318973005,0.454338998,-0.011354200,-0.394003004,
-0.028275199,0.020719100,0.018368701,-0.033484701,-0.023744700,-0.026995599,0.010661400,-0.022797700,0.010679200,-0.033625599,-0.030061999,0.032343902,-0.044658899,-0.026387500,0.007076770,-0.052905500,-0.063773699,0.029495001,-0.048607800,0.032748301,0.042966601,0.011309700,-0.008238930,0.016927401,0.001652140,-0.035971399,-0.025616501,-0.027628699,-0.025132900,-0.001825190,0.019788099,0.034235600,-0.003364430,-0.022373300,0.003387500,-0.017612999,0.018539701,-0.025698001,-0.034673899,0.037319299,0.013515400,-0.029104600,-0.025243800,0.022786699,-0.008869460,-0.019536201,-0.046008300,0.019051200,-0.037630200,0.042391900,
0.143031001,0.270889014,0.194520995,-0.928178012,-0.196002007,0.182974994,-0.814179003,0.486315995,-0.081836700,0.092397302,-0.028736699,0.092900902,-0.896327019,-0.643698990,0.622364998,-0.167155996,-0.112168998,0.189979002,0.198767006,-0.038685501,-0.215874001,-0.180942997,-0.368200988,0.264432997,-0.193572000,0.263631999,0.355755001,-0.187185004,-0.117360003,-0.337083995,0.099244498,0.633785009,0.267809004,-0.100671001,-1.851930022,-0.224225000,-0.013339500,0.327437013,0.066003300,-0.398817986,0.486665994,-0.152007997,-0.049661800,0.108317003,0.354842991,0.083297700,0.176127002,-0.237666994,0.051401000,0.023167601,
-0.415556997,-0.705259979,-0.746571004,0.226676002,0.364603013,0.831008971,4.351250172,-0.427713007,-0.229378000,-1.054520011,1.438449979,-0.557349026,0.772816002,0.953031003,0.340274990,-0.301382005,-0.424919993,-1.278810024,2.784300089,-0.176350996,-0.215788007,-0.615929008,0.009496590,0.357809007,-0.349501997,0.476345986,1.024559975,-0.552959979,-0.181682006,0.048952900,-0.487594992,-0.090305001,0.526840985,0.529600978,-0.154915005,0.013132200,-0.589568973,-0.868807971,0.461346000,-2.296979904,-0.082384698,0.566179991,0.251024008,-0.009662260,0.936809003,-0.996760011,-0.072342403,0.050380699,0.105774999,-0.073267899,
-0.929354012,-0.163597003,0.135836005,0.341966003,-0.022570901,0.339462012,-2.982840061,-0.255035996,2.266520023,0.111382999,-0.104438998,-0.217649996,-0.298669994,-0.095721804,0.469689012,-0.257766992,-0.129124999,0.105810001,2.623980045,-0.084572501,0.326155990,-0.169012994,0.039142702,-0.858973980,0.035223499,-0.124701999,-0.229330003,-0.242508993,0.356034994,0.698607981,-0.419907004,-0.988465011,-0.229279995,0.101875998,-2.580440044,-0.362109989,0.430198997,-0.463205993,-0.261860013,-1.825009942,-0.200394005,0.161901996,0.477952003,0.389203012,0.004567320,0.397206992,0.159860000,-0.311154991,0.077734597,-0.577723980,
-0.062231399,0.020149801,0.018422900,0.018835001,0.017017201,-0.026519099,0.004653470,-0.053951301,-0.022760900,-0.026487799,-0.024341200,-0.004481830,-0.038548201,0.021093599,-0.033820499,0.029441200,-0.056297000,-0.049783099,-0.044624001,0.027479401,-0.060768001,-0.043399800,0.027006600,-0.051923901,0.018203700,-0.015320600,-0.046061300,-0.035007600,0.014128400,-0.040129900,0.005948620,0.033385001,0.012533000,-0.047636800,-0.017908201,0.031783000,0.003190090,0.020028399,0.003648850,-0.002383480,-0.019184699,-0.010843700,0.009109320,-0.009893940,0.021931401,-0.029039200,-0.041639999,-0.047777601,0.023312500,0.025365099,
0.040704198,0.034049101,-0.042922199,-0.062256999,-0.000419719,0.021814801,-0.039349400,-0.025237000,-0.020998800,0.019460101,-0.018584900,0.011498200,0.029261099,0.035645701,-0.000534781,0.019639401,0.020922201,0.043487102,-0.028791200,-0.006359260,0.029057899,-0.009408830,-0.057875302,-0.054809701,-0.007151590,0.030671500,-0.051791299,0.017883200,-0.011332600,-0.009934030,-0.047060098,-0.001259260,-0.022795700,-0.047527999,-0.039508998,-0.046761300,0.025053401,0.005906160,0.035850499,0.007736670,-0.037873700,-0.020456100,0.036168199,0.001129210,-0.046824198,-0.051891401,-0.051119100,-0.019259300,0.015700901,-0.045675199,
-0.020849301,-0.055107299,-0.020263899,-0.019466300,0.032721400,0.031011000,0.041742001,0.017159900,-0.038425401,-0.048864398,0.042329300,0.012787700,-0.000781155,-0.012298600,-0.053664099,-0.024032200,-0.025574001,-0.010014700,0.040068701,-0.023414399,-0.048369501,-0.013752500,0.038206998,-0.012881500,0.017832000,-0.023431500,-0.051463500,0.033561800,-0.035509199,-0.019782800,-0.051997900,-0.054322299,-0.033242200,0.026895000,0.010425800,-0.039120801,-0.049821898,0.032293402,-0.029221799,-0.041834202,0.009409790,0.018241800,0.012380900,0.031250902,-0.001278700,-0.035906501,0.030720500,-0.050683301,0.017792899,0.000092479,
-0.000076672,-0.017471099,0.026868099,-0.003185380,0.014798100,-0.010692300,-0.039099399,0.003577690,0.025397100,-0.055500001,0.045902800,0.039279699,0.024986301,-0.034952000,-0.036732499,0.018766699,0.013757900,0.020704200,-0.001518870,0.014780300,-0.010428200,-0.052012000,0.000339312,0.006622620,-0.028913099,0.012690500,-0.047366299,0.018743601,0.024978600,0.003830150,-0.050630599,-0.028829301,-0.003262510,-0.016003100,-0.046401601,0.000512946,-0.005060760,-0.007612400,0.018866500,0.015527600,-0.028143700,-0.047426499,0.003514640,-0.044150300,-0.020835301,-0.012639600,-0.012158700,0.010447300,-0.055744700,-0.022682300,
0.467022985,-0.240227997,0.238057002,-0.159226000,-0.347166985,0.297026008,1.226300001,0.029893300,-0.199527994,0.378044993,-0.183094993,0.351368994,-0.268954009,-0.308968008,0.194261998,-0.290944993,0.455107003,-0.115477003,0.401071995,-1.028040051,-0.206220999,0.383060008,-0.368505001,-0.094323702,0.170607001,-0.313270003,-0.292952001,-0.082824901,-0.294263989,0.372857988,0.136344001,-0.202272996,-0.706748009,-0.206827000,-0.672924995,-0.128168002,-0.147395000,-0.403997004,0.149479002,0.095126703,-0.002470180,-0.173113003,0.147354007,-0.794202983,0.993848026,0.191483006,-0.106266998,0.187462002,0.231784999,-0.180969998,
0.182677999,0.378275007,-0.801109016,0.279087007,0.120751001,-0.121899001,-0.374980003,-0.262892008,-0.628017008,0.416235000,0.301887989,0.457657993,0.101331003,-0.501221001,0.543605983,-0.272832006,0.375149012,0.032319900,-1.779389977,0.087904997,-0.341845989,0.446231991,-0.167199001,-0.932021022,0.319144994,0.611014009,0.201537997,0.537377000,-0.330769986,0.170294002,-0.092723101,-0.895623028,-0.513572991,0.490027994,0.068240397,0.178241998,-0.983759999,0.586408019,-0.491865993,0.134110004,-0.283793986,0.217012003,0.454524010,0.414380014,0.369266987,-0.163378000,0.382156998,-0.004762870,-0.268319994,-0.268099010,
0.162431002,0.031725399,-0.201278999,0.887807012,0.234069005,0.013708600,0.183245003,0.457363993,0.132075995,0.218869999,-0.030626500,-0.201759994,-0.460880995,0.451541990,-0.415957987,-0.131925002,-0.300047010,-0.730544984,0.235251993,-0.115781002,-0.088129804,0.320374995,0.141790003,0.378089011,0.259999007,0.575550020,0.205391005,-0.181558996,0.209233999,0.030450700,0.043854501,0.105654001,-0.102101997,-0.198900998,0.960343003,0.023274200,0.209700003,0.057821099,-0.134109005,0.487511009,-0.119263001,-0.228556007,0.572821021,-0.282866001,-2.533960104,0.014180900,-0.000497087,0.325919986,0.379615992,-0.143020004,
-1.066599965,-0.420186996,0.177429006,0.205558002,0.148153007,0.127681002,-1.623170018,-0.853393018,-0.909705997,0.395920008,-0.506075025,-0.128215000,-0.296930999,-0.070702098,0.532756984,-0.167922005,0.104286999,-0.643197000,-2.060859919,0.019022100,0.029859301,-0.391824007,-0.496284008,0.226184994,-0.362747997,0.156103000,0.190243006,0.015324900,0.196703002,0.202268004,-0.007867520,0.595309019,-0.513522029,-0.159874007,-2.380429983,0.494877011,-0.059080299,-0.461208999,0.220228001,-0.705662012,-0.262246013,-0.047142599,-0.394165993,-0.787404001,0.222427994,-0.113725998,0.372096002,0.028149201,0.038671002,-0.341284007,
0.237314999,0.496652007,-0.550679028,-0.268267006,0.136810005,-0.017776201,-0.108101003,-0.218116000,0.273424000,0.388547003,0.252168000,0.280387998,0.157542005,-0.473253995,0.276262999,-0.075688101,0.086160399,0.682784975,-0.124891996,-0.297297001,-0.127084002,-0.305447996,-0.318623006,-0.622040987,0.203730002,0.188677996,-0.334217012,0.130854994,0.247535005,0.292095989,-1.357830048,0.813102007,-0.569808006,0.009017470,-0.570289016,0.194125995,0.210144997,-0.194763005,-0.301144987,0.173563004,-0.307224005,0.204003006,-0.088822097,-0.038159300,0.604287028,-0.177318007,0.158280998,-0.247978002,-0.198318005,-0.713874996,
0.350183994,0.844712019,0.244616002,0.156599000,-0.653025985,-1.133340001,0.249270007,0.155631006,-2.456749916,0.296526015,0.477766991,-0.317862988,-0.599065006,0.062823802,0.174492002,0.413888007,0.833199024,-0.726270020,-4.549779892,-0.212359995,-0.098512799,0.478302002,-0.201808006,0.872888982,0.532630980,-0.244543999,-0.274742007,0.513693988,-0.878368974,-0.310416013,0.383123994,-0.133708999,0.189703003,0.434085011,-2.709880114,-0.007762150,-1.225589991,0.560823023,0.087242797,0.931342006,0.500518978,-0.536059976,-0.258022994,-0.211997002,0.545276999,-0.014435700,-0.534712017,-0.341987014,-0.315012008,-0.448570013,
-0.215070993,0.011523100,-0.389463991,0.169687003,0.196092993,0.120807998,0.193629995,-0.119090997,0.485347003,0.488164008,0.591472983,0.321211994,0.312240005,-0.673770010,0.078845002,0.161641002,-0.459984988,0.856364012,0.569413006,0.474564999,0.210830003,0.197236001,-0.205532998,0.541131020,-0.357975990,0.112737000,0.340463012,0.284678996,-0.305759013,-0.423988998,-0.320318013,-0.655287981,-0.060800400,0.334031999,-2.646189928,0.328969002,-0.146238998,-0.224454999,0.471491009,0.394901007,-0.416384012,0.111124001,0.503151000,0.103675999,-0.077695101,-0.199011996,-0.472456992,0.329304993,0.236713007,-0.008227280,
-1.128430009,-0.639451981,-0.722863972,0.395864993,0.214449003,-0.871334016,3.879050016,-0.702825010,-3.394030094,-0.834190011,0.035097498,-1.327870011,-0.087390698,0.853828013,0.523298025,-0.364327013,0.377831012,-1.781499982,-5.976069927,-0.377543986,0.183549002,-1.087839961,-0.214771003,0.232072994,-0.163136005,0.906781018,0.785000026,0.091397002,-0.525619984,0.171278998,-0.076635599,-0.760468006,0.273182005,0.760061979,-1.999609947,0.679060996,-0.497938991,0.345566005,0.196952000,-2.188879967,0.661471009,0.489479989,0.961350977,0.648075998,-0.154121995,-0.719510019,-0.538272977,-0.101751998,-0.028512301,-0.193499997,
0.141837999,-0.234683007,-0.754077017,-1.260740042,-0.095056698,-0.194496006,-0.517167985,-0.153876007,0.247006997,-0.049683399,-0.000960545,-0.263262004,-0.014388400,0.396192014,-1.016170025,0.009862020,-0.165883005,0.226012006,-0.315091997,0.101401001,0.062380001,0.186726004,1.254130006,0.013369300,0.260087013,0.020350900,-0.144514993,0.191799998,0.079706803,-0.153610006,-0.005389120,-0.181796998,0.300958008,0.478834003,2.183340073,-0.041722201,-0.274387985,0.007774510,0.086889602,-0.641619980,-0.431167006,0.317912012,-0.877385974,0.055902701,0.503866017,-0.081639498,-0.106200002,-0.363198996,-0.206545994,-0.568346977,
0.840270996,0.250458986,-0.289342999,-0.006382550,0.226129994,0.277574986,3.857249975,0.226482004,1.195330024,-0.076774903,-0.318482995,0.455628991,0.170628995,-0.330778003,-0.259371012,0.451822013,0.041287299,0.613955975,1.066460013,-0.260490000,0.254878014,0.237004995,0.458422989,-0.860876977,0.210611001,-0.305914998,0.037048101,0.249285996,-0.551038027,-0.387046993,0.103969000,0.659321010,-0.806424975,0.099920899,0.560187995,-0.144829005,0.546299994,-0.216649994,-0.252819002,0.693441987,0.038474198,-0.388859987,-0.298747003,0.280106008,0.419212997,0.355569005,-0.104442999,-0.110840000,-0.139477000,0.033529501,
0.208451003,1.160549998,0.657608986,0.088066198,-0.180035993,0.071378998,2.756459951,0.203740999,-0.361752003,0.635670006,0.273139000,0.090589501,0.139703006,-0.992116988,-0.036626000,0.119001001,-0.308039010,0.409222990,-0.084655799,0.780894995,0.190529004,0.568418980,-0.705609977,-0.221459001,-0.237853006,-0.353980988,-1.029770017,0.306046009,0.212096006,-0.281278998,0.243389994,0.004528110,0.381249994,-0.196377993,-0.332390994,-0.340268999,-0.239567995,0.714555979,0.269760996,1.139019966,0.017353799,-0.383614004,-0.250833005,0.398683012,0.132912993,-0.212409005,0.162724003,0.485469997,-0.182303995,-0.743586004,
0.168740004,-0.273539007,-0.621941984,1.292099953,-0.013636600,-0.221624002,-1.408220053,-0.335447997,0.310541987,0.022846000,0.758092999,0.053102698,0.228028998,-1.166329980,1.383880019,0.180281997,-0.020922299,-0.262306988,0.556743026,-0.065026499,-0.185012996,0.460433990,-1.201480031,-0.405422002,-0.551509976,-0.591557026,0.130475000,-0.485680997,0.119924001,-0.201012999,-0.295787990,0.377613008,-0.651040018,-0.188081995,-2.264060020,-0.008505220,0.107189000,-0.046402499,-0.451375991,0.610410988,-1.200760007,0.097306900,0.555036008,-0.135070994,-0.199892998,0.505913019,0.419494987,0.429132015,0.975862026,-0.306805015,
-0.043891400,0.044206198,-0.019266199,-0.045034900,0.012240700,-0.046325300,0.002230910,-0.047546498,0.015758701,0.011350300,0.000930343,-0.038096700,0.031230900,-0.052172199,-0.004257390,0.002400090,0.033552401,-0.016295001,0.042958900,0.003174710,-0.016555000,-0.042245399,-0.050561599,-0.019486601,-0.042638499,0.008155590,0.022112800,0.030180300,-0.030348601,0.036445100,-0.044093199,-0.041304100,-0.026878500,-0.000769164,-0.034446601,-0.024755100,0.010640000,-0.018814700,-0.028313100,-0.029170500,-0.041706901,-0.000226867,-0.044486798,0.037198398,-0.048408501,0.001976470,-0.041464601,-0.019474600,-0.011434000,0.038394500,
-1.146759987,-0.174787000,0.900232017,0.281964988,-0.233642995,-0.171891004,-2.862649918,-0.347135007,0.390854001,0.057646800,0.838151991,0.232019007,-1.018880010,-0.265195012,0.427271008,-0.675175011,-0.362643003,-0.181103006,-1.544389963,0.388666987,0.103125997,0.223232001,-0.168849006,0.155610994,0.195953995,0.020677799,-0.640868008,0.027247099,1.070260048,-0.194243997,-0.384678990,-0.337601006,0.180287004,-0.374051005,-0.577575028,-0.540861011,0.093229502,0.398380011,0.360514998,-0.542060971,-0.844579995,0.415024996,-0.170181006,0.734400988,0.235635996,-1.656589985,0.188829005,-0.352362990,0.245985001,-0.366326988,
0.033620600,0.000776554,0.014905700,-0.031562202,0.029335599,-0.045551401,-0.024069499,0.004752950,0.010550800,-0.021554399,-0.019722000,-0.015889701,0.018782100,-0.046441901,-0.042937201,-0.012055200,0.033375300,-0.014494300,0.022988500,0.018749300,0.031703699,-0.041568201,-0.054999001,-0.058875099,-0.023331100,-0.036625300,0.034750398,0.025401101,-0.042657599,-0.019695800,0.003257580,0.008702750,-0.010030800,0.027270701,0.003028220,-0.030680200,0.000420784,-0.009776520,-0.018978000,0.010519800,-0.014037000,-0.030878300,-0.023581300,0.025419399,-0.042654000,-0.043873500,-0.023746399,0.017250599,0.025254700,-0.036828000,
0.067119598,-0.295228004,0.269645989,-0.710951984,0.233168006,0.164469004,0.074864797,-0.229794994,-0.079795197,-0.067438498,-0.232598007,0.367875010,0.023345400,-0.031615298,-0.086430699,-0.117677003,-0.063227899,-0.007257350,0.132403001,0.052399099,-0.225235000,0.530623972,1.650470018,0.126166999,0.583558023,-0.177708998,-0.444117993,0.062752403,-0.011117500,0.221239001,0.076136500,0.090053499,0.154447004,0.399991006,-1.494459987,0.070904396,-0.050115999,0.136065006,-0.090328403,0.048364598,0.450904995,0.427783996,-0.618300021,0.047023602,1.314880013,-0.144913003,0.071786597,-0.292513013,0.134066999,-0.322753012,
-0.006313580,0.091162197,-0.043882299,1.892619967,0.046342701,0.000457365,0.367172986,-0.111970000,0.088877201,0.040659200,-0.048222300,-0.041322500,-0.077290997,-0.071487002,4.567709923,-0.010200800,-0.027657401,-0.029867699,0.155936003,-0.022597700,0.140799999,-0.078879900,-0.028406501,0.037885800,0.091659598,-0.023324899,0.045051701,0.056696098,-0.010269900,0.006766750,0.024093101,-0.006241370,0.016591899,0.008357620,-2.816129923,-0.063028902,0.018789001,-0.053345799,-0.011367700,-0.006757270,-0.172344998,0.064174101,0.047131300,-0.201077998,0.298218995,0.038628500,-0.053299200,0.041891798,-0.032744899,-0.050681401,
-1.495550036,-0.286495000,-0.591363013,0.388841987,0.026702199,0.076063797,-1.488669991,-0.702265978,-1.872660041,0.127070993,1.098899961,-0.454569012,0.032483801,-0.227163002,0.561852992,-0.503208995,-0.289211988,-0.572880983,-3.091439962,0.021671100,0.123199001,-0.092130497,0.065514401,0.453011990,-0.048159100,-0.117017999,0.466161013,-0.129023999,-0.118731000,0.053867199,-0.904953003,-0.133304998,0.766223013,0.404671997,-2.755670071,0.093887299,-0.070836797,-0.292558014,0.259730995,-0.237057999,-0.412934005,0.185629994,0.423808992,-0.149423003,0.149847999,-0.726280987,0.030813400,0.110490002,0.430898994,-0.471771002,
-0.774599016,-0.237754002,-0.063229904,-0.538213015,-0.479227990,-0.155718997,0.353713989,0.086252399,-0.776512980,-0.388467014,0.207797006,0.118431002,-0.103047997,-0.259552985,-1.084650040,0.416352987,-0.084920101,0.251825005,0.445524991,0.568502009,0.049513102,0.119085997,-0.372743011,-0.284355998,0.019783899,-0.100497000,-0.053027701,0.149286002,0.124154001,0.148836002,0.171629995,0.179299995,0.055685401,0.164877996,2.783370018,-0.102147996,0.091671601,-0.102209002,-0.346803993,-0.111172996,-0.447616011,0.284963995,0.201664999,-0.293056995,0.234785005,0.044179399,-0.134405002,-0.277352989,-0.094059996,-0.814159989,
0.015814699,0.006607500,-0.053089902,-0.023064800,0.032836501,0.043369099,-0.051820401,0.016948400,-0.015320900,-0.044065699,-0.037331000,-0.035425499,0.011999800,-0.012576600,-0.037712701,-0.044492699,-0.057562102,0.021811301,-0.041460901,-0.016886501,-0.015560900,0.038945500,-0.050953101,-0.015215400,0.007824710,-0.003283860,-0.004758510,0.005411780,0.018557200,-0.001736300,0.020541601,0.019644801,0.028687499,-0.002466060,-0.021760300,0.035732999,-0.037684999,-0.005917350,0.031307898,-0.052860100,-0.006588220,-0.039225701,-0.040204398,-0.056191001,-0.025984500,-0.034084700,-0.019862300,0.008946800,-0.020682100,0.034976900,
0.424876988,-0.643541992,-0.378412008,0.108686998,-0.189399004,2.131220102,0.616325974,0.182104006,-1.049049973,0.679329991,0.672125995,0.280564994,-0.111291997,-0.855413020,0.046380501,-1.296470046,-0.694207013,-0.303267986,-1.426239967,-0.086419404,-0.330720007,0.446204007,-0.344624996,0.234072998,0.383215994,0.310279012,-0.204068005,0.046291601,0.668316007,0.255544007,0.062305100,-0.539528012,-0.093844898,-1.924129963,-0.488058001,-0.142528996,0.908177972,-0.643299997,0.165108994,1.112030029,0.152471006,0.884374022,-0.527440012,-0.553902984,0.525485992,-1.019870043,0.277653009,0.967402995,-0.201712996,-0.393916994,
-0.607105970,-0.060651999,-0.344049990,0.131966993,0.209215999,-0.073093101,-4.232580185,0.136374995,-1.554489970,-0.426618010,-0.355802000,-0.142112002,-0.101759002,-0.525587022,0.375182003,-0.120269001,0.045303501,-1.336820006,-1.059340000,-1.952209949,0.233631998,-0.737142026,0.250349998,0.075013399,0.111740999,-0.093673997,0.396369994,0.018956801,-0.076439403,0.492662996,-0.243644997,-0.340606987,-0.678677976,-0.119824998,-2.521430016,0.278706014,-0.013236000,-0.264142990,-0.095264003,-2.686739922,0.038187198,0.044298999,0.687250972,-0.708262026,-0.114119999,-0.204359993,-0.142857999,-0.345995009,0.536170006,0.185301006,
-0.028158899,-0.038072702,0.017099900,-0.045507699,0.017923500,-0.046649799,-0.051083598,0.024323000,-0.055644300,0.034973800,-0.058282800,-0.044665702,-0.036939200,0.009818790,-0.025863100,-0.016183101,0.035664901,-0.001238230,-0.032212000,0.001268540,-0.012325000,-0.012485600,-0.052793499,-0.050501201,-0.006853400,0.033905100,0.029085800,-0.042456601,0.008625310,-0.021387300,0.003143450,-0.043958601,-0.011617900,-0.023673400,-0.018950701,0.021253601,0.002221610,0.002491830,-0.036299501,-0.049780000,0.039992001,0.035857301,-0.003948860,-0.041679099,-0.048487399,0.023320900,0.002096530,0.000077470,-0.043275900,-0.014477000,
-0.185865998,-0.334403008,-0.223516002,1.089849949,-0.334596992,-0.160818994,0.516781986,-0.520272017,0.038863402,0.021101199,0.110604003,-0.228741005,-0.080509901,0.164592996,1.692870021,0.126804993,-0.033552900,-0.272390008,0.256799996,-0.065299399,0.038696200,-0.059886798,-0.239482999,-0.013809900,0.017599899,-0.319840014,0.142865002,-0.153806999,0.161114007,0.293880999,0.048896398,-0.035944201,0.391916990,-0.278887004,-2.292210102,-0.094815500,0.255598009,-0.137977004,-0.175586998,0.537653983,0.049322199,-0.227147996,0.325874001,-0.421086997,-1.762899995,0.131938994,-0.160383999,0.784581006,-0.636166990,0.252568990,
-0.014888700,-1.005849957,0.177460000,0.293870986,-0.045096599,0.655550003,2.263449907,-0.010311900,0.358505011,-0.629806995,0.436177999,0.232721999,-0.787527025,0.766813993,0.770271003,0.131483003,-0.209756002,-0.705688000,0.116006002,-1.779099941,-0.135330006,-0.445470989,0.034459401,0.277164012,-0.446518987,-0.095550202,-0.304841012,-0.195734993,0.228308007,0.024503799,0.131199002,-0.220171005,0.876511991,-0.617604971,0.201506004,-0.201183006,0.047711499,-0.274284005,1.011780024,-0.122524999,-0.831031978,0.593984008,-0.177653000,-0.240422994,-0.365496010,-0.135720000,0.089718200,-0.518117011,0.045480501,0.208719000,
-0.118221998,-0.343973994,0.038423900,-1.580960035,-0.045670800,-0.034090400,-0.367852986,-0.185642004,0.278021008,-0.307723999,0.306970000,0.180971995,-0.328456014,0.524003029,-4.525090218,0.028095800,0.075167097,-0.304154009,0.623775005,0.042913102,0.136429995,0.364598989,-0.020953599,0.205451995,-0.109932996,0.268889993,0.055677999,-0.182794005,0.188254997,0.589093029,-0.151436001,-0.055454802,-0.151240006,-1.063040018,1.228770018,0.033991300,-0.229821995,0.191070005,0.022320000,0.614618003,-0.091782100,-0.544157028,0.652167022,0.092530601,-2.719399929,0.029325800,-0.041032799,0.453570992,0.393281996,-0.426867992,
-0.654139996,-0.243105993,0.081113704,0.300498992,0.035768598,-0.098472103,2.120140076,-0.554666996,0.995795012,-0.058334000,0.015352700,-0.177285001,0.720763981,-0.425695986,0.385789007,0.084183402,0.056500100,-0.392150015,1.023020029,-0.659304976,0.100126997,-0.236811996,-0.175980002,0.287070990,0.144746006,0.107037999,0.243002996,0.260242999,-0.299544990,0.350719988,-0.032379400,0.464612991,-0.503005028,0.541016996,-3.605849981,-0.050243501,-0.599399984,0.297486007,0.508925021,-0.864125013,0.560983002,-0.232473001,-0.129538998,-0.574608982,-0.049493801,0.313488007,-0.874809980,0.556217015,0.206622005,-0.233352005,
0.125505999,0.961412013,-0.502400994,-0.249148995,0.375687987,0.169830993,-0.304538012,0.191184998,0.542337000,0.082883097,-1.268499970,-0.230325997,0.116919003,0.162295997,-0.127052993,0.185058996,0.094846003,0.612083972,-0.363056004,0.048911002,0.613527000,-0.286168009,0.420368999,0.449993998,0.974802017,0.458115995,-0.076353297,0.193338007,0.226901993,-0.331037998,-0.591283977,-0.339235991,0.767318010,-0.396142006,-0.478650987,-0.201969996,-0.181005999,-0.070078596,0.330303997,-0.682751000,1.275419950,-0.072806098,0.010275100,0.523177981,-0.302864999,-0.107311003,-1.000409961,0.256446987,-0.615339994,0.409370989,
0.250095993,0.651444972,-0.173498005,0.026152000,-0.083748199,0.181002006,-0.535585999,0.399742991,-0.133536994,0.055701900,0.401668996,0.258118987,0.831510007,-0.163791999,0.091248497,0.361519009,-0.197382003,0.728765011,-1.650040030,-0.116130002,-0.146316007,0.421023011,-0.197898000,0.140454993,-0.481301993,0.442874014,-0.251747996,-0.008970490,0.242414996,0.150011003,0.023778601,0.268260002,0.127811000,0.284099996,1.417700052,-0.285351008,0.696060002,0.184990004,-0.181532994,-1.136829972,0.090738900,-0.359030992,-0.149455994,0.699730992,0.135783002,-0.307536989,0.250012994,-0.279588014,0.097245999,0.017769800,
0.382169008,
0.001662480,
-0.137998000,
-0.244854003,
-0.325385004,
-0.024527200,
-0.110760003,
-0.445537001,
-0.085071899,
0.105576999,
-0.423913002,
0.115091003,
0.065576300,
-0.016203800,
0.000240604,
0.275272995,
0.254595011,
-0.022207901,
-0.014056600,
-0.014699100,
-0.008749180,
0.213732004,
0.064714402,
-0.034360100,
0.285369992,
0.251248986,
0.145391002,
-0.264349014,
0.310180008,
0.218686000,
-0.197984993,
0.203644007,
0.006213900,
-0.010577700,
0.254698008,
-0.020695901,
0.138987005,
0.119722001,
0.457022011,
0.124880999,
-0.004474180,
-0.225507006,
0.618990004,
-0.017492000,
-0.086852498,
0.264633000,
-0.042414598,
0.160821006,
0.036690298,
-0.061099000,
-0.169828996,0.342705011,-0.002823110,-0.019345300,-0.076816700,-0.112314001,0.015319200,-0.129008994,0.361025006,-0.381985009,0.236715004,-1.432479978,0.454944998,-0.046738900,0.131147996,-0.630443990,0.043169301,-0.015740300,-0.045755301,0.050257701,-0.029144701,0.023078701,-0.216204002,0.194524005,0.066437297,0.128684998,-0.551172972,0.108460002,-1.526460052,0.222206995,-0.178004995,0.086361200,-0.081731699,-0.011326500,0.452603996,0.011490100,0.048006900,-0.091348499,-1.543130040,-0.329766989,0.026967000,-0.403658003,-0.193985000,0.021149900,0.122933999,0.220511004,0.940514982,-0.279074013,0.173995003,0.147961006,
-0.475293994,-0.826891005,-0.390154004,-0.017088801,0.110656001,-1.608139992,0.648792028,-0.626142979,0.824837983,0.938040972,-1.069779992,-2.541909933,-0.440981001,-0.035450298,-0.247592002,-0.199718997,-0.270123005,0.018464999,-0.026247799,0.001496640,0.043460600,0.757133007,-0.290331006,-0.656355977,-1.061579943,-1.110640049,-0.662461996,-1.279940009,0.252781004,0.467893004,0.336842000,-0.120090000,1.194290042,0.009932930,0.479155988,-0.045487199,0.794731021,-0.715638995,-0.747264981,-0.219888002,0.007501240,0.803743005,-0.724026024,0.034425400,-0.243391007,-0.413551003,0.202527002,-0.977147996,-0.785956025,0.283609003,
-0.033933301,-0.019029800,0.382124990,-0.469543010,-0.287045002,0.046294600,0.055415601,-0.053656898,-0.703076005,0.044152200,-0.050323501,-0.681016982,0.239886999,0.016540101,0.412436008,-0.440802991,0.138761997,-0.018944100,0.006572430,-0.044749100,-0.018235100,-0.295107991,0.091378897,-0.255041987,0.009719590,-0.044878300,0.104978003,-0.289510995,-0.574639976,0.670617998,-0.198583007,0.203338996,0.141445994,-0.013259600,0.543214023,-0.020842999,-0.080862500,0.078963600,1.387330055,-1.235100031,-0.044821300,-0.295843005,0.089685597,-0.016853400,0.190551996,-0.280025989,-0.767949998,0.517602980,-0.735659003,-0.443123996,
0.147337005,0.266236991,-0.284258991,0.668941975,-0.072691999,0.757677972,0.072243102,0.074060999,0.388199002,-0.060555600,-1.167999983,0.325906008,0.110261001,-0.039684702,0.034238800,-0.075586200,0.239577994,0.047525998,-0.006677920,0.005806800,0.036907800,0.482912987,0.128931999,0.420590997,-0.297297001,-0.347362012,0.790849984,0.998547018,0.827808976,0.533012986,0.198523000,0.091156401,0.354707003,0.005227840,0.286107987,0.005042590,-0.558387995,-0.358440012,-0.778524995,-0.047505200,-0.018597500,-0.112278000,-0.190817997,0.009410890,0.324198991,0.426831990,0.133176997,-0.199239999,0.125064000,0.328280985,
0.124438003,0.003534040,-0.100227997,0.305727005,-0.174501002,-0.389061004,-0.307740986,-0.026445800,-1.026340008,-0.559083998,0.148981005,-0.606594026,0.326905012,0.010090500,-0.244498998,-0.537622988,0.238148004,0.015114700,0.032386001,-0.052082900,-0.043230601,0.342265993,0.281859994,-0.374576002,0.102986000,-0.063654602,0.431026012,0.227329999,-0.138003007,-0.048471499,0.089457601,-0.097156197,-0.091620103,0.017260101,-0.322014987,0.025434401,0.143840998,-0.111983001,0.375474006,-0.316487014,0.022109700,0.703397989,0.197020993,0.027587200,0.283764005,0.634616017,0.268626004,-0.405535996,0.013638100,-0.483947009,
0.047452401,-0.105439998,0.155522004,-0.138122007,-0.071847700,0.423231006,0.366833001,-0.030192301,-0.032476701,-0.144979998,-0.155248001,-0.405465007,0.157280996,-0.015963800,-0.242601007,0.045389399,0.384871006,-0.019486099,-0.046033200,-0.035915300,0.046572398,0.333373010,-0.041338000,-0.125616997,-0.292010993,-0.092569500,0.240006998,0.127930000,0.268166006,0.157322004,0.019860500,0.085769199,0.074361503,0.013436500,0.140148997,0.028779799,0.116269998,-0.058587000,-0.188502997,-0.024480300,0.026245801,0.109724000,0.219303995,0.032195199,0.078670397,0.299001992,-0.340299010,0.002839050,-0.006470620,-0.269360989,
0.181832001,-0.200418994,-0.222224995,-0.341078997,-0.299423993,-0.245819002,0.212130994,-0.059613500,0.112644002,-0.244378999,-0.334928989,0.241603002,0.060182001,0.009278360,0.201389000,0.468820006,0.125438005,0.004938780,-0.007236510,-0.005923880,0.034336001,0.804874003,0.283315003,0.300493985,-0.241383001,0.461874992,-0.706979990,0.294357985,-0.061440401,0.395568997,-0.033514801,-0.585850000,-0.229660004,0.031377301,0.356110007,-0.004764120,0.059576001,-0.401520014,-0.482955992,0.336405009,-0.016773000,-0.655593991,-0.327506006,-0.037957601,0.204292998,0.219143003,-0.133319005,0.158171996,-0.131400004,-0.059285998,
-0.182528004,0.004054730,0.389822006,-0.190761000,0.011145700,-0.296077996,0.004930830,0.121702999,0.471098006,-0.211901993,0.004497400,1.349159956,-0.478808999,0.047005199,-0.021168699,0.077916101,-0.586605012,-0.041359399,-0.006390700,-0.000249146,0.042908099,1.099149942,0.106137000,-0.127984002,-0.299962014,0.372346997,-0.292261004,0.258356988,-0.346412987,0.500918984,-0.963640988,0.829209983,-0.090784997,0.047181301,0.255214989,-0.018780900,0.330294013,0.285555989,-0.187619999,0.266851008,-0.029182499,-1.144860029,0.157722995,0.030085100,0.516880989,-0.283024997,-0.574483991,-0.308239013,-0.056886598,-0.446833998,
-0.063439302,0.322575003,0.068116002,-0.032606501,-0.314651012,0.076028503,-0.106661998,-0.337540001,0.117193997,0.040771101,0.554060996,0.107274003,-0.106376000,0.016063200,-0.317692012,-0.093312599,-0.008653830,0.026400400,0.025382601,0.021227101,0.036268700,-0.377299011,-0.131118000,0.654658973,-0.227059007,-0.167742997,0.052722700,0.360753000,0.200558007,0.025274901,0.253724992,-0.259956002,0.034481600,-0.035546299,-0.053823300,-0.044860698,-1.639770031,-1.057189941,0.182631999,-0.043513000,0.044785101,0.242606997,0.183523998,-0.036102802,-0.021177599,0.047634698,0.241236001,0.059889998,0.176902995,-0.015219800,
-0.174707994,1.390529990,-0.324129999,0.189448997,-0.053050999,-0.145071000,0.781157017,0.394360989,0.175497994,0.006706780,-0.807233989,1.160500050,-0.306140989,0.010515100,-0.053033601,-0.471711993,0.377447009,0.005563830,-0.029846000,0.019207999,-0.009998790,0.222379997,-0.106706001,0.210090995,-0.167737007,-0.107047997,-0.227048993,1.034070015,0.078038499,0.579680979,0.347806007,-1.313009977,0.511868000,-0.028934499,-0.043576900,0.009602980,0.094053701,-0.405568004,-0.527209997,-0.169909000,0.031302501,0.060789999,0.190956995,-0.045762401,-0.276329994,0.032388099,0.088252001,0.700510025,-0.386316001,0.489448011,
-0.046509799,-0.049640600,-0.012014700,-0.006103580,0.032577600,-0.020495700,0.022027699,-0.050019499,0.035212100,0.013904000,0.041063800,-0.039315902,-0.018770101,0.002209980,-0.045535900,-0.024970099,-0.037724402,-0.037596099,-0.011127400,-0.030372500,0.013290400,0.041485202,-0.035456300,0.029040100,-0.048358802,-0.014152700,-0.016443700,-0.023646099,0.036155902,-0.000995733,-0.042381000,0.011654400,-0.041096400,0.009446720,0.032166898,-0.045874499,-0.052973200,-0.043748599,-0.004592860,-0.038661499,0.021096800,-0.005952360,-0.012600800,0.026169000,-0.035176001,-0.040793099,-0.022382099,-0.005482080,0.020023501,-0.043372601,
0.225869000,0.028992601,-0.180847004,-0.142691001,-0.141381994,-0.094507799,-0.136189997,0.037690900,0.321682990,-0.020067800,-0.195906997,-0.593420029,0.356151998,0.039321300,0.326844007,0.426919997,0.446707010,-0.037973002,0.034366298,-0.041254800,-0.034666300,0.181216002,-0.245353997,-0.237957001,0.068367504,0.636231005,0.301429987,0.226677001,0.387470990,-0.227505997,0.534820020,0.343405992,-0.005627670,-0.009309540,0.540537000,-0.005070880,0.447118014,0.556684017,0.614829004,-0.225043997,-0.000843373,0.272175014,0.255421013,-0.022190999,0.219151005,0.128570005,-0.328615993,0.037362199,-0.017434200,-0.269876003,
-0.140323997,0.235649005,-0.058936901,-0.014062700,0.378600001,-0.743821025,-0.731693983,0.373616993,-0.863713026,0.128747001,-0.420179009,0.162842005,0.158828005,-0.030813901,-0.264185011,-0.110428996,0.143822998,-0.006409170,0.013376000,-0.015381000,-0.023253901,-0.847709000,-0.088173203,0.485653996,-0.364879996,-0.426918000,0.136004999,-0.199045002,0.324817985,0.791369021,0.478222013,-0.362237990,-0.195936993,0.026798001,0.249025002,0.021037901,-0.175323993,-0.799045980,0.208958000,-0.225106999,0.000063692,0.375133991,0.056344900,-0.007638790,0.034402899,0.759756982,-0.133754000,0.253913999,0.244129002,-0.309056014,
-0.096736103,0.572072983,0.219153002,0.427071989,-0.107088998,-0.019804399,0.376738995,-0.021288499,0.162648007,-0.312330991,-0.084630698,0.162990004,0.274688989,0.007299120,0.077246197,-0.121522002,-0.317779988,-0.022509400,-0.047931399,0.043483399,0.039193898,-0.707903981,0.099856101,-0.019478001,-0.138422996,0.465694010,-0.221340999,-0.188849002,-0.784013987,0.095175102,-0.361470014,-0.104961999,-0.047623001,0.002075760,0.063108899,0.032983199,0.216837004,0.319716990,0.147782996,0.254227996,-0.034990601,-0.168543994,0.396403015,-0.027279800,-0.224114999,-0.117400996,0.471778005,0.045113999,0.157405004,-0.076650202,
-0.032404002,0.022171101,0.025151100,-0.035598300,-0.001805400,-0.038010601,0.017472900,0.011188800,0.026966101,0.012719800,-0.060734101,-0.027945301,-0.035354398,-0.030361500,-0.017655700,-0.020439900,-0.031631801,0.011936600,-0.021077801,-0.044426400,-0.018852400,-0.018465200,-0.039820101,0.003738710,0.025081901,-0.047099799,-0.009568650,0.011857600,-0.011984600,-0.026322600,0.007115590,-0.038579699,0.022988699,0.022291901,0.026848000,0.032755502,-0.029089000,0.007266440,0.001847660,-0.048656002,0.045301698,-0.027589399,-0.005517190,-0.039123598,0.006585380,-0.025243901,-0.003017900,-0.019586399,0.004949400,-0.035100099,
-0.026785901,-0.000033720,0.450089991,0.083431497,0.045617599,-0.569275975,0.453738004,-0.066806100,0.135527000,-0.376044989,0.272130996,0.751327991,0.264014989,0.044747699,0.442043990,-0.077708900,-0.392035991,-0.037650499,-0.037622001,-0.038348299,0.020013601,-0.413028002,0.283050001,-0.819199026,-0.077491902,0.432754010,-0.224625006,0.510608017,-0.128177002,-0.717622995,-0.170307994,-0.219606996,-0.018888900,0.021813899,0.183451995,-0.050392400,0.174287006,0.100777999,0.342155010,-0.608332992,0.037775900,-0.420367986,0.066679701,-0.023632299,0.641969025,0.452437997,0.264766991,-0.006699440,-0.137959003,0.191532001,
0.209444001,-1.354390025,0.116420999,-0.092269503,0.321310997,-0.283403993,0.552408993,0.017049100,-0.794063985,-0.095080800,0.790733993,1.177299976,-0.159241006,0.018069800,-0.040372699,-1.331500053,-0.255113006,0.016748300,0.005860240,0.007877750,-0.036458898,0.782679021,-0.064709298,-0.390020013,-0.448264003,-0.444218993,-0.157373995,0.745984972,-0.098581798,2.354490042,0.109546997,-0.085031502,0.879315019,-0.028599801,-0.525397003,0.044994600,-2.747070074,-0.186406001,0.286761999,0.217852995,0.001779080,0.677273989,-0.545104980,-0.021704599,1.028509974,-0.924485028,-1.490739942,0.155386001,0.885075986,0.408800006,
0.216270000,-0.603785992,-0.277619988,-0.017087700,0.006197760,0.316379994,0.166434005,-0.411864012,0.511031985,0.609429002,-0.507520974,-0.667953014,0.104923002,-0.008287640,-0.410117000,0.344864994,-0.085072502,-0.013237900,-0.014879700,0.036546301,-0.002597830,0.127654001,-0.156769007,-0.021558000,-0.094131202,0.019590501,0.135489002,-0.680123985,0.057610199,0.274417996,0.368131995,0.165756002,-0.394553989,0.017481901,0.112395003,-0.035512101,0.333056003,-4.109859943,-0.280308992,0.207233995,0.000596300,-0.052570499,-0.223097995,0.013423500,-0.498488009,-0.422861993,0.253430009,-0.211989999,0.022563500,0.059201598,
0.033220001,0.759742022,0.095801502,0.110781997,-0.531313002,-0.036484402,-0.104221001,-0.971418023,0.227634996,-0.199092999,0.039445799,1.330620050,0.209338993,-0.025146000,0.105255000,-0.087788701,0.094614699,-0.040054601,-0.005914980,0.014494500,-0.032891799,0.111054003,0.357778013,0.292162001,-0.326157987,-0.135594994,0.090157203,0.134609997,-0.351143986,-0.636336982,-0.039203301,0.219352007,-0.144039005,0.042780299,0.582150996,-0.011972300,-0.754176021,-0.021725001,0.238371000,0.257824987,0.011475900,-0.300938010,0.319815010,0.032074399,-1.596930027,0.556554019,-0.138648003,-0.151637003,0.662109971,0.234289005,
0.191277996,-1.248389959,-0.540500998,0.495790005,-0.022616399,-0.006885210,0.140557006,-1.041820049,1.390349984,0.897346973,-1.423740029,-1.478320003,0.210591003,0.015851701,-0.749436975,0.546832979,-0.007227400,0.025924901,0.011156500,0.034914099,-0.042659301,-0.333584011,-0.366773009,-0.690521002,-0.242869005,-0.448190004,0.214810997,-1.692289948,0.043474600,0.207460999,-0.076871097,0.610194027,-0.322044998,-0.033952001,-0.023996299,-0.043006700,1.013210058,-1.579030037,0.038353801,0.073277898,-0.003015650,-0.200158998,-0.675520003,0.040062800,0.028024700,-0.597150981,-0.245866999,-0.358936995,-1.220229983,-0.218795002,
-0.299515009,-0.075985402,-0.042484999,0.159908995,0.262425005,-0.136975005,0.626536012,0.040725999,0.757652998,-0.518912017,-0.231105000,-0.393213987,0.290426999,-0.042237300,-0.607602000,0.422428012,0.274569988,-0.004093500,-0.017781099,-0.035607800,0.032246899,0.193850994,0.232409999,0.419656992,-0.610204995,-0.764312983,-0.387129009,-0.148859993,0.459255993,-0.790335000,-0.785934985,-0.027943101,0.038109701,-0.046498802,1.120740056,0.044408601,-0.097685799,-0.155469999,-0.763180017,0.922698975,-0.024328800,-0.414462000,-0.109264001,0.031223100,-0.097973503,0.625240982,-0.266135991,0.097698100,0.494760007,0.283410996,
0.306318998,-0.475032985,-0.194516003,-0.479416013,-0.533295989,1.628260016,0.467830002,-0.165664002,0.260232002,0.033963401,0.165913001,0.222081006,0.144667000,-0.020560900,-0.195920005,0.138945997,0.470844001,0.028887600,-0.047172301,0.033942401,0.043721098,0.422129005,-0.170844004,-0.337610990,0.244537994,-0.281962991,0.139603004,-0.508296013,0.800984979,-0.298902988,0.133158997,-0.029558200,-0.148216993,0.002221500,1.266039968,-0.020512801,0.231033996,0.048151899,-0.890142024,0.115048997,-0.011403800,-0.076569296,-0.222948000,-0.001714530,0.228027999,-1.042140007,0.216938004,-0.072242700,0.499051005,-0.866756022,
-0.026954699,0.032561801,0.010387200,0.025835101,-0.049199201,0.016362600,0.010466300,0.012934000,0.012970000,-0.028543400,0.019811301,-0.047881398,-0.017874300,-0.034214199,0.011712500,0.023296300,-0.001663310,-0.026560500,-0.003064030,-0.035864402,-0.012133400,-0.050113201,-0.028374700,-0.035470098,-0.053695299,-0.047243100,0.036977299,-0.026236501,0.015030100,-0.051380400,-0.022175400,0.004446760,-0.052457102,-0.036057401,-0.023001000,0.005684560,-0.041856900,0.004748250,-0.034885399,-0.001834200,0.038050100,0.031951901,-0.049293399,0.006474450,0.026175100,-0.045760799,0.029582400,0.030880600,-0.034108799,-0.051809799,
0.173829004,-0.144383997,0.526418984,0.166400999,0.065878697,-0.094628803,0.118625000,-0.296999991,0.325562000,0.053465001,0.034695800,0.744845986,-0.103220999,0.001319540,0.733424008,-0.060323101,0.089200102,-0.034240801,0.006581570,0.012286000,-0.004940420,0.234338000,0.041472498,0.091922097,0.157777995,0.362702012,-0.156620994,0.656899989,-0.079151802,-1.151219964,-0.190886006,0.492228001,-0.157141000,0.050955400,-0.139638007,-0.039857998,-0.200260997,-0.584439993,-0.087819099,0.110430002,0.021830400,-0.065622903,0.147163004,-0.009174180,-0.559973001,0.527400970,-0.403239012,-0.003643240,0.163798004,0.352916002,
0.527134001,0.204043001,-0.118585996,-0.292694002,-0.695613980,0.191170007,-0.318675011,-0.613631010,1.542629957,0.000011821,-0.598284006,-1.074020028,1.269979954,0.065824397,0.937919021,1.773460031,0.507897973,0.011009000,0.039465901,0.013169300,-0.009451390,0.306948006,-0.825973988,-0.370056987,0.366418004,0.338535994,0.758580983,-0.375075012,1.088350058,0.324986011,1.080500007,0.508840978,0.028994700,0.008256390,1.297600031,-0.010363500,0.852894008,-2.920150042,1.265439987,-0.646544993,0.022465600,0.741608024,0.645839989,0.035426501,2.055190086,-0.811080992,0.397536993,-0.327650994,-0.674789011,0.066504702,
-0.595381021,0.354146987,-0.384858996,0.259140998,0.174319997,0.374042004,0.322205991,0.004785980,0.252065003,0.665458024,0.065500699,0.035837799,-0.141973004,0.044856399,0.331845999,0.149138004,-0.476419985,-0.020224800,-0.040018398,0.001910490,0.017918600,0.411484003,0.478994995,0.035083801,-1.158560038,0.382061005,-0.161908001,-0.053909998,-0.137448996,0.038983401,0.870653987,-0.476164997,0.126313999,-0.052835699,0.697633028,0.036597699,-0.208156005,0.014186600,-3.041160107,-0.354640007,-0.035304599,-1.758620024,-1.169180036,0.026008001,-0.092191301,0.339718014,0.343888998,1.013339996,-0.821950972,-0.776308000,
1.203320026,-0.280032992,-1.537220001,-0.185753003,-0.985702991,0.291987985,-0.700949013,0.229287997,-0.473917007,-0.200782001,0.395639002,-0.697095990,-0.023329800,0.003039180,-0.164497003,0.297416002,0.466197997,-0.025940901,-0.001861010,-0.039297499,0.031977899,-0.466888011,-0.418832988,-0.151205003,0.249367997,0.695120990,-0.119533002,1.037410021,0.773631990,-0.498746008,-0.274024010,-0.192709997,-0.177493006,0.033865500,0.481213003,-0.039187200,-0.549709022,-0.035548400,0.199389994,-0.109846003,0.041650899,0.103129998,-0.302345008,0.008461150,0.605139971,0.254738986,-1.262989998,0.961205006,-0.375548005,-0.559493005,
0.284240007,-0.828417003,0.033051200,-0.126526996,-0.393251002,0.239883006,0.226018995,-0.381334990,0.342050999,-0.145457000,-0.232803002,-0.007853900,0.453045994,-0.026860300,0.605970025,0.642404974,0.610230982,-0.008832350,-0.000132084,0.014975200,0.043629099,-0.437732011,-0.789599001,-0.447551996,-0.056439500,0.582383990,0.418179989,0.781490982,0.716076016,-0.432175010,0.182711005,0.162306994,0.226935998,-0.041313700,0.515667021,-0.017926499,0.297073990,0.271670997,-0.799341977,-0.856229007,0.016502300,0.263190001,-0.327015013,-0.011792500,0.720301986,-1.084100008,-0.776811004,-0.194279000,-0.374473006,0.077436797,
0.006386890,-0.166535005,0.592921972,0.582108974,0.506523013,0.682383001,0.273920000,-0.214585006,0.065459996,0.198482007,-0.623637021,0.507416010,-0.183029994,-0.018124100,-0.722097993,-0.192692995,-0.341702014,-0.001389540,0.010966700,0.041389398,-0.040257599,-0.628275990,0.116509996,0.176339000,-0.030235000,-0.012314100,-0.527137995,0.059140600,-0.263669014,-0.311935991,0.572925985,-0.880473018,-0.333575994,0.021170201,-0.292407006,-0.029459801,0.302460998,-0.154543996,-0.809755981,-0.081367500,-0.021219401,-1.285240054,-0.318648994,-0.032200299,0.173821002,-0.056601599,0.256016999,-0.402588993,0.267484993,-0.220523000,
0.318659008,-0.449360996,0.234164998,0.091938399,0.059595101,-0.207574993,0.128551006,-0.541561007,0.821617007,-0.002027370,-0.266424000,-1.254500031,-0.303649992,-0.014496700,0.237816006,0.852388024,0.308602005,0.050904199,0.055916499,-0.011919500,0.041234799,-0.371897012,0.324402988,-0.221766993,-0.005365490,-0.685226977,0.167513996,-0.707515001,-0.042310201,-0.043247599,0.143570006,0.301869988,0.191823006,-0.045553900,0.034741402,-0.038406800,0.179893002,-0.189438000,0.295071989,-0.629612029,-0.020058500,-0.211008996,0.398245007,-0.033906601,0.304012001,0.112498999,-0.286978990,-0.007965880,-1.095430017,-0.176229998,
0.145501003,0.022666400,0.022482600,0.000341592,-0.191777006,0.024224300,-0.179523006,-0.143958002,-0.537257016,0.272334009,-0.144893005,0.591533005,0.149983004,-0.026779400,0.355704010,0.191430002,-0.146441996,0.025660500,0.042796399,0.041499000,-0.012603100,1.178249955,0.473630995,0.003634230,-0.026177600,0.303449988,0.154079005,0.031236600,-0.268427998,0.406796008,-0.214600995,-0.165557995,0.046788499,0.012604600,-0.094196603,-0.043050900,-0.209031999,-0.264833003,0.197405994,-0.361658007,0.038070101,0.198405996,0.112651996,-0.048775800,-0.484001011,0.142587006,-0.121494003,-0.896978974,0.556617975,0.416943997,
0.661553025,-1.025550008,0.482538015,1.553470016,0.128543004,0.151536003,-0.918488979,-0.399426997,-0.683607996,-1.165799975,-0.713046014,0.387513012,0.029259400,-0.039670900,-0.321043015,-0.277989000,-0.792062998,-0.013382900,0.041466400,0.007967110,0.007739180,-0.226208001,0.564028978,-1.107190013,0.917369008,0.011437400,0.665338993,0.687955976,0.658582985,-1.151800036,-3.068500042,-2.414210081,0.083905600,0.050641201,0.385239005,0.001600740,-0.069515102,0.517858982,0.441163987,-1.577800035,0.000562206,-1.277539968,0.561837018,-0.011306900,-0.817794025,0.075305201,0.821682990,-0.325513005,0.755586982,-0.826255977,
-0.335922986,0.411419988,-0.117017999,0.842127025,0.008452960,-0.729395986,-0.620907009,0.295749009,0.264073014,0.008723260,-0.078886300,-0.871662974,-1.047449946,-0.023203000,0.230721995,-0.375530005,0.132497996,-0.042632300,-0.010280800,-0.024233600,0.011030100,0.450307995,0.450823009,-0.871672988,0.032436300,-0.104567997,0.070034899,-0.255840003,0.074537501,0.561393976,0.315829992,-0.238178998,0.466702014,-0.040775701,0.105870999,0.030131700,-0.161452994,-0.554077029,-0.252099007,-0.953253984,0.014102500,0.177175999,-0.353242993,-0.021767501,-0.441082001,0.087531097,0.828152001,0.012310900,-0.345844001,0.284503013,
0.072112501,0.376477987,-0.282707006,0.177063003,-0.164459005,-0.091728501,0.908487022,-0.084801197,0.271596014,-0.605000019,-0.316109002,0.111210003,-0.190540001,-0.042271800,-1.856379986,0.482145995,0.064901501,-0.045782901,0.018865900,-0.013128200,0.033716600,-0.297206998,0.009478560,-0.130796999,-0.816468000,0.038609698,0.394185007,1.465680003,0.001618600,-0.021264501,0.089507200,-0.169737995,-0.607752979,-0.044977698,-0.038948700,-0.029966600,-0.373903990,-0.901410997,0.000859762,-0.082540900,-0.003189870,0.525460005,0.471428990,0.008743560,-0.429010987,0.704640985,0.316289991,0.375862986,-0.141268000,0.314402997,
-0.142959997,0.243480995,0.228955999,-0.368279010,-0.282839000,-0.163490996,0.419696987,0.287395000,0.005636750,-0.478255004,0.843092978,0.010267500,0.294762999,-0.051994201,0.453242987,0.106755003,0.825767994,-0.006311100,-0.015626900,-0.011601700,-0.040609501,0.517256975,-0.033085700,0.086896002,0.199359000,-0.157655999,-0.787819982,-0.477443010,0.569097996,-0.885936975,0.017692599,-0.187212005,0.338616997,-0.020982601,0.892323971,0.018474801,-0.152421996,0.143702000,1.880370021,-0.521351993,-0.022408700,0.959182978,0.056483898,-0.007123050,0.360017002,0.207491994,-0.659987986,0.281493008,0.261732012,0.039619200,
-1.064239979,0.665409029,0.220829993,-0.382425994,-0.496412009,0.177763999,1.467280030,0.088836402,0.204914004,-0.358348012,-0.270810992,-0.829985976,0.373600990,-0.029412599,-0.225731999,-0.378706008,0.150105000,0.026479101,-0.001286750,-0.001817430,-0.029685499,-0.054713801,0.270478010,-0.287506014,-0.181099996,-0.077161901,-0.977108002,-0.512753010,0.280209988,0.127486005,0.226293996,-0.415767014,-0.202316999,0.013667500,0.518213987,-0.025864501,0.270833999,0.123899996,2.246850014,0.426566005,0.047679301,0.638399005,-1.197909951,-0.033120699,-0.261572003,-0.010073000,-0.429666996,0.270920008,0.524806023,0.063485600,
-0.504472971,0.530951977,0.189294994,0.249348998,0.342435986,0.335777998,0.775573015,0.266209990,0.018398199,0.185178995,-0.233946994,-0.491066009,0.257919997,0.015793500,-0.349537998,-0.181566998,-0.204143003,-0.039920799,-0.010125700,-0.036690999,-0.013040500,-0.211014003,0.052148301,0.145035997,0.286484987,0.246349007,-0.500941992,-0.829991996,-0.484863013,0.304663986,-0.309944004,0.181639999,-0.668031991,-0.049574200,0.064818598,-0.027376300,-0.102592997,-0.074838802,1.579789996,-0.519801974,0.030332699,0.003067520,0.522606015,-0.023983801,0.320178002,-0.025409400,0.421160012,0.434902996,0.237608001,0.130796000,
-0.247012004,0.477865994,0.419411004,-0.372240990,-0.449009001,0.193314999,-0.495251000,0.540461004,-0.108129002,-0.545495987,0.335137010,1.031990051,0.336216986,-0.016689200,0.797284007,0.402402014,0.048846599,0.009150860,-0.015466500,0.011817300,-0.029709000,0.728910983,-0.354568988,-0.852855980,0.583811998,0.325280994,0.557762980,0.781336010,0.064809300,0.651461005,0.136792004,-0.121338002,-0.377550989,-0.005217970,-0.451615006,0.048755001,-0.086538501,0.138384998,1.204450011,0.467624009,0.037268501,0.898679018,-0.465532005,0.059390400,-0.352212012,-0.036920901,-0.056062099,-0.574353993,0.497608989,-0.162931994,
0.361827999,-0.240915999,0.332576990,-0.169599995,-0.092361704,-0.135704994,0.375382990,-0.161910996,0.073674202,-0.026492000,-0.822098970,-0.354654998,0.254972994,0.021612599,-1.046749949,0.036341399,0.583621979,0.043093499,0.044763099,-0.035331201,0.002929320,-1.530619979,0.507144988,0.461703986,0.156647995,0.219484001,0.274677992,0.382613003,-3.253750086,0.867416024,0.000177026,0.095664002,0.039898299,-0.014340400,0.201700002,-0.047316000,-0.183485001,0.134114996,-0.092976302,0.447560012,-0.039886799,0.276369989,0.213136002,-0.017037001,0.254247010,0.455211014,-0.517534018,-1.631870031,-0.762754977,-0.254521996,
0.386810988,-0.651803017,0.291408002,-0.678309977,-0.032218300,-0.303470999,0.215035006,0.362627000,0.009557280,0.676267028,0.142385006,-0.517902017,0.212919995,0.002613080,-0.070133299,0.108310997,0.298101008,0.007571610,-0.046424601,0.022487300,-0.035583802,0.780507028,0.289081991,-0.456472993,0.160845995,0.119294003,0.326002002,0.145195007,0.667524993,0.183174998,0.369286001,0.237760007,-0.357109010,0.040635601,0.332675993,-0.004748030,-0.503831029,-0.577732980,0.572315991,-0.555390000,0.034243401,-0.189630002,0.004127080,0.016719600,0.178537995,-0.643858016,0.303440988,0.297569007,-0.214506999,-1.091320038,
0.108240001,0.189394996,0.338101000,0.182791993,0.306912005,0.038439900,-0.293253988,0.694212019,-0.443870991,0.151144996,0.048094299,0.300785005,-0.267756999,-0.040386401,-0.560406983,-0.690375984,-0.099395998,-0.009707330,-0.021486200,0.002788200,-0.019675300,0.206195995,0.225648999,0.189799994,-0.464350998,0.053650901,-0.149950996,-0.190705001,-1.048400044,-0.461223990,-0.004643840,-0.043809000,0.132532001,-0.024026999,-0.109333001,-0.023599800,-2.415899992,-0.280725986,-0.321364999,0.113536000,0.031201400,0.033748701,-0.212504998,-0.037224099,-0.543390989,-0.487704009,0.591381013,-0.215597004,-0.020325899,0.049524799,
-0.341156989,0.202785999,0.338970006,0.317903012,0.356905013,0.142607003,0.355432987,0.353298008,0.312454998,-0.505680978,-0.008861630,0.288087010,-0.263776004,-0.026003201,0.427019000,0.066674300,0.118378997,0.030776100,-0.045408100,-0.023448201,-0.006147250,-0.222645998,-0.230899006,0.029027600,-0.178173006,1.049499989,0.410126001,0.133004993,0.047307801,0.417113990,0.001872090,-0.489374995,0.132991999,0.050358701,-0.377081007,0.026055001,-0.253755987,0.127417997,-0.516937971,-0.489327997,-0.000428748,0.077289097,0.062690198,0.007869330,-0.186812997,-0.428249002,-2.976289988,-0.874813974,-0.133190006,0.196988001,
0.515639007,-0.840785980,-0.147522002,0.506410003,0.035143401,-0.726320028,-0.800867021,-0.286641002,0.002592910,-0.380295992,0.189418003,0.167530999,0.163745999,-0.015378400,-0.146781996,0.052310400,-1.565760016,0.020415500,0.022499001,-0.015521400,-0.015520400,-0.171636000,1.018980026,-0.253849000,-0.193275005,-0.372758001,0.727307975,-0.157652006,-0.547056019,0.254207999,-0.237552002,0.441056013,-0.131754994,-0.020647001,-0.962028980,-0.005442490,0.217122003,0.049844101,-0.932986975,-0.055310000,-0.039567500,-2.493959904,1.784780025,0.009939990,0.081273697,0.411785990,-0.002503090,0.201460004,-0.100105003,-0.609901011,
-0.000787193,0.002834700,0.034775998,-0.010835200,0.023444099,-0.011830600,-0.001455370,-0.015797000,-0.038402598,-0.017782200,-0.021168200,-0.036019500,-0.034162998,-0.028399900,-0.012039500,-0.009574620,-0.009608510,-0.042904101,0.042727999,-0.028142700,-0.050609801,0.033668101,-0.017287601,-0.030768899,-0.044499099,0.026549200,0.025843900,0.019186901,-0.028168401,-0.051952600,-0.042838201,-0.004575510,-0.005014060,-0.037186202,0.034517199,-0.013613700,-0.027505200,-0.004396260,-0.042406600,-0.007202960,-0.035911199,0.002723400,-0.021875300,0.011136300,-0.034350500,-0.043556999,-0.051926099,-0.028333399,0.019845400,0.001385120,
0.569451988,-0.666297972,-0.400813997,-0.974680007,-0.090006799,-0.819389999,0.048972499,-0.134975001,-0.034319699,-0.424046010,0.259611011,-1.776149988,0.945738018,0.011045700,0.183862001,0.339697987,0.606181979,-0.033611700,0.001512280,-0.019083999,-0.037740100,-1.214249969,-0.073620997,0.173947006,-0.399697989,0.939815998,-0.052118201,0.285055012,1.362470031,-0.323514998,0.555145979,0.010352800,-0.097073600,-0.027217099,0.004372530,-0.018239301,-0.068369098,0.246529996,-1.040539980,0.032028802,0.014402100,0.023059299,0.033443499,-0.045820199,-0.562067986,0.145867005,0.384907007,-0.089664496,0.007243670,-0.171204001,
-0.032946501,0.021777701,-0.079933800,0.057909399,-0.113141999,-0.089838803,-0.119341001,0.150464997,-1.861639977,0.177057996,-0.083305098,-0.118124001,-0.179556996,-0.026366100,-0.290410012,0.095520601,0.042536199,-0.044710599,0.030911500,0.001989170,0.008288070,-0.097138301,-0.332228005,0.314251006,-0.997703016,-0.064985096,0.004024060,-0.067369603,-0.251201987,-0.109783001,0.245207995,0.006123960,-0.304349989,0.000934194,-0.119746000,0.048198801,-0.664116979,-3.148030043,-0.090818197,0.053990599,0.025543200,0.001380180,0.623669982,0.054640599,-0.718600988,-0.396241009,0.866090000,-0.153137997,-0.085684597,-0.071650900,
0.402514994,0.739924014,0.470708013,-0.000008334,-0.920780003,0.255899996,0.313376009,0.118968002,0.779322028,-0.216220006,0.302603990,2.243989944,0.811308980,-0.006707980,0.271378011,0.025703801,-0.515757978,-0.011570600,0.031004099,-0.039340701,0.044395600,-0.420475990,0.278127998,-0.154246002,0.131779000,0.857190013,0.155369997,0.590061009,0.214674994,0.150258005,-0.459136009,0.023070101,-0.075461999,-0.005819960,0.644890010,0.004445700,-0.130971000,-0.061141800,0.760868013,0.077671699,0.014988800,0.144152001,-0.035701402,-0.001433060,-0.187413007,-0.090150900,0.863725007,0.829831004,0.747916996,-0.507018030,
0.394798994,-0.076856099,-0.486690015,-1.518149972,-0.646827996,-0.626771986,-0.219818994,0.238589004,-0.656481028,-0.492765009,0.305530012,-0.653786004,0.522224009,0.030808700,-0.110825002,0.451025993,0.731419027,-0.013094200,0.057286698,-0.010522300,-0.049318701,-0.730436027,0.098354504,0.067436904,-0.443823010,-0.191700995,1.307430029,0.632151008,0.576506972,-0.122174002,0.667777002,-0.361680001,0.741466999,0.012166600,0.326664001,-0.032561500,-0.340355992,0.585121989,-0.265269995,-0.768186986,0.039358601,-0.436908990,0.296299994,0.003335840,-0.485749990,-0.024492100,-0.030719001,0.637938976,0.440295994,-0.705694973,
0.096310601,0.429212004,-0.769012988,0.087926500,-0.003033160,-0.414546996,0.396892995,0.269596994,0.156011999,0.626905978,0.018085999,0.418123007,0.353480011,0.004808440,0.137958005,-0.261554986,-0.745163977,0.041963600,0.001458470,0.004646500,-0.030533001,0.007580650,-0.505973995,-1.050770044,0.464390993,-0.330033004,0.292854995,-0.564276993,-0.132049993,-1.243870020,-0.005057290,-0.923744977,-0.220963001,-0.027713001,0.237644002,0.038165100,0.204043999,0.018979600,0.144611001,0.307576001,-0.040713999,0.043154899,-0.605323970,0.054295901,0.196926996,0.413273007,-2.791209936,0.179553002,0.349739999,-0.025680101,
-0.143731996,0.525509000,-0.160983995,-0.626881003,-0.472436011,0.424115986,-1.082599998,0.084462397,0.003722510,0.238826007,-0.050997499,-0.727770984,1.024620056,0.057434700,-0.246808007,0.128925994,-0.743158996,-0.039610099,0.032181699,-0.027256999,0.016988801,-0.793033004,-0.091321498,-0.003764240,-0.813763022,0.438470006,0.292796999,-0.330224007,-1.070940018,0.151629999,0.202090994,-0.080702201,-0.079203904,0.025463000,-2.121350050,0.046706099,0.148833007,0.265955001,-3.099189997,0.269427001,-0.014618800,-3.820770025,-0.265296012,-0.015624400,0.339152992,-0.879320979,0.428344011,-0.804207027,0.554534018,0.059216101,
0.006895820,
0.952468991,
0.529649973,
-0.628441989,
-0.202114001,
-0.052532900,
-0.001451830,
0.152732998,
0.123389997,
0.015124800,
-0.018701900,
0.247583002,
0.061732601,
-0.079444997,
-0.017059101,
-0.027471600,
-0.487533003,
-0.039202701,
0.346100003,
0.875896990,
-0.026036700,
0.071524203,
-0.016593400,
0.109650999,
0.098565698,
-0.211419001,
0.217096001,
0.025820101,
0.161871001,
-0.006496030,
-0.353837013,
0.434845001,
0.078130402,
-0.245891005,
-0.339401007,
0.376278996,
-0.120906003,
-0.093779102,
-0.470905989,
-0.461100012,
0.085237898,
-0.145894006,
0.029137000,
-0.008438130,
-0.116457999,
-0.132918000,
-0.976486981,
-0.065247700,
-0.110021003,
-0.305489987,
0.266716987,0.054571301,-0.203999996,-0.412822992,0.416873991,-0.119741000,-0.154034004,-0.230600998,0.011095300,-0.014783100,0.043709099,-0.144594997,-0.622151017,-0.360383004,-0.018560501,-0.956421018,1.245079994,0.388494998,0.158340007,0.154835001,0.071861498,-0.203106999,-0.038466599,-0.292914003,0.205209002,0.049578998,0.956341028,0.294346988,-0.377611995,0.023735100,0.324927002,0.554262996,0.626810014,0.111368999,0.585596979,0.680868030,-0.184367999,-0.392989010,-0.409628004,-1.255859971,0.542815983,-1.454560041,-0.352548987,0.005500420,0.819840014,-2.313220024,-0.353466988,0.272671998,-0.349029005,0.380968988,
0.008174600,0.051472101,0.167017996,0.315730006,-0.025018901,0.708966970,-0.498634994,0.536809981,0.403510988,-0.031656500,-0.017701199,-0.208787993,-1.104359984,-0.190999001,-0.033153400,0.518038988,-0.246327996,0.157473996,-0.345495999,-0.243689001,-1.119459987,0.549515009,0.028063100,0.382952005,0.035611801,-0.032151502,-0.610926986,-1.113029957,0.720064998,0.297841012,-0.665745974,0.369235992,-0.905313015,-0.234477997,-0.016336000,-0.222965002,0.411870986,0.907648027,0.534581006,0.248209998,0.645851016,-0.686703980,-0.071367398,0.009885350,0.176631004,2.380670071,0.119998001,0.279619008,0.274592996,0.478989005,
-0.211595997,0.283349007,-0.080707803,-0.605521977,0.653894007,-0.494369000,0.352907002,0.376632988,0.418220997,0.091943003,0.045987699,-0.078342497,-0.216714993,0.006550000,-0.024531599,-0.175435007,-0.095080301,-0.062829100,-0.032842901,-0.201021999,0.017211899,0.100855000,-0.001998950,-0.240685999,-0.170208007,-0.446213990,0.253830999,0.316992998,-0.265747011,-0.288358986,-0.189410999,0.265998989,-0.054019202,1.055109978,0.121074997,-0.413280010,-0.543232024,-0.496847004,0.534500003,-0.039385200,0.042962000,0.655004025,0.743137002,0.010864000,-0.112011001,0.378311008,-1.018210053,-0.548340023,-0.098672800,1.504299998,
-0.076904297,0.020272600,-0.046724699,0.288933992,0.068393201,-0.087050602,-0.063894600,-0.043077599,0.095079601,0.088230900,0.042701200,-0.216032997,0.168212995,-0.010966900,0.000640957,-0.136948004,0.034436300,-0.202757001,0.367372006,-0.097097598,-0.051898200,0.115276001,0.018193400,0.357493013,0.038087200,-0.006973420,-0.017570101,-0.048771199,-0.121746004,0.066000096,-0.078094997,0.007458820,-0.222119004,-0.301708996,-0.014497400,0.025484599,-0.093025997,0.062145099,0.030685600,0.201354995,0.411388993,0.224320993,-0.030464800,-0.014025900,0.180088997,-1.025619984,0.100608997,0.036142699,-0.124550000,0.049738500,
-0.119445004,0.244570002,-0.661094010,-0.147683993,-0.276690990,0.603267014,-0.314772993,-0.058497000,0.391833007,0.447239012,-0.020745400,-0.046553101,0.195645005,0.302417010,-0.026360299,-0.782580972,-0.059739701,-0.053063001,-0.104163997,0.250023991,-0.112066999,0.402736992,0.040491901,0.169165999,-0.252885014,-0.003627270,0.538119018,0.084555097,0.105397999,0.247252002,0.795840979,-0.287386000,-0.137084007,-0.306948006,-0.064011604,-0.080948703,0.006712890,-0.208322003,-0.038456101,-0.576040983,0.142892003,0.013381100,0.464749008,-0.009629160,0.126570001,-2.109869957,0.032305099,0.528326988,-0.360523999,0.179673001,
-0.007807290,0.000301838,0.021247100,0.025531899,-0.004532810,0.003785720,-0.009814030,-0.037695300,0.027802000,-0.031536698,-0.004785960,-0.053689301,0.002100860,0.029924700,-0.032717202,-0.017086500,-0.025312999,0.013221400,-0.024650600,-0.032595299,0.025737001,-0.024543799,0.028033299,-0.044343401,-0.052939001,0.022933999,0.019170601,-0.045810901,-0.033681199,-0.033115301,-0.029254099,-0.041359700,0.017884700,0.034143101,0.034327298,0.029589901,-0.048616100,-0.009897630,-0.031044399,0.007195310,-0.025796900,0.048415199,-0.002990170,0.032200299,-0.002903030,0.018120799,-0.036185101,0.021322900,-0.049081199,-0.041703701,
0.232183993,-0.124269001,0.307893991,-0.714625001,-0.431035995,0.405977011,0.461807013,-0.860028982,-8.005559921,-0.223157004,-0.002813140,0.658731997,-0.656184971,-1.239510059,0.022497300,-0.260125011,0.720640004,-1.491490006,-0.554489017,0.303552985,0.045452401,-0.162663996,-0.047994401,-0.259189993,-0.161379993,0.172143996,-0.082760297,0.674655974,-0.204609007,0.654192984,-0.676935971,0.153019994,-0.493476987,-0.072781198,0.136643007,0.602337003,0.519092023,0.244534001,-0.855578005,-0.553247988,-4.802849770,-0.447445005,0.657142997,-0.006915310,0.382423013,-0.058780700,0.073849298,0.186391994,-0.177139997,0.246492997,
0.024235999,0.025126601,-0.003731230,0.041144200,-0.014067600,0.026918700,-0.034138002,0.001740440,0.016724100,-0.013867100,-0.024211301,-0.027931999,0.012952200,-0.003606280,0.033773601,0.006500410,0.035220101,-0.014041300,-0.015562700,-0.048847899,-0.046197899,-0.034607299,-0.025919400,-0.015890701,-0.030407300,-0.012436700,-0.010288200,0.000991742,0.024370100,-0.022683000,0.001035010,-0.030133300,0.028392199,0.019386100,-0.025240300,-0.032400500,-0.034174401,0.027949600,-0.043178901,-0.036194898,0.022393901,0.023221901,-0.028502000,-0.019225501,-0.020430099,-0.034634400,-0.036287900,-0.014768200,0.004561530,-0.001752830,
0.285030991,-0.041161198,-0.063069299,-0.011172700,-0.078958400,-0.109002002,0.263668001,0.204852998,0.162194997,-0.306820989,-0.039315801,0.106356002,-0.477851987,-0.305092007,0.019296700,0.528860986,0.432117999,-0.157518998,0.168222994,0.107528999,0.186186001,0.146736994,0.029933600,0.063472100,-0.003900710,-0.029347500,-0.482809007,-0.254296005,0.376828015,0.039771002,0.560496986,-0.101754002,0.039188899,0.443576008,-0.375373989,0.323413014,-0.088652700,-0.106964000,0.012677600,0.072594903,-0.137927994,0.636500001,0.137303993,-0.041392799,-0.193702996,0.837879002,0.425199986,-0.192301005,-0.501066029,0.069483601,
-0.014532900,-0.048485901,-0.033387400,0.022289401,-0.012641200,-0.035248801,-0.011118300,-0.044127598,-0.004050060,-0.042031601,-0.004910160,0.008346930,-0.032714400,-0.018847600,0.031679802,-0.035200700,0.023412701,-0.034020402,-0.026917201,0.030236401,0.000362845,-0.018505700,-0.013878800,0.042892501,-0.012315300,0.033638000,-0.052406900,-0.004377690,-0.010057100,-0.022201700,0.037454799,0.009586050,0.001731920,0.000366346,0.026716899,-0.004738620,-0.040096801,-0.050669599,0.004562550,-0.001745850,-0.018708801,-0.046312399,-0.025981599,0.022293201,-0.038254600,0.014010100,0.004804740,-0.007088990,0.018902799,0.009356210,
0.264732003,-0.036274001,0.124003999,-0.190908000,0.158622995,-0.675352991,-0.095661201,-0.294342011,0.487426996,-0.049065400,0.020808600,0.275806010,0.281006008,0.055476900,0.013957100,-0.418044001,0.359973013,-0.631649971,0.179639995,0.270240009,-0.221254006,0.072880700,-0.037316900,-0.247004002,0.291500986,-0.214237005,0.236591995,-0.183661997,-0.178745002,0.118387997,0.013895800,0.133523002,-0.000635130,-0.546687007,-0.229118004,0.220778003,0.324043006,-0.010656700,-0.323262006,-0.226372004,0.247657999,-0.574576020,0.066813901,0.033446800,0.391095996,-1.098709941,-0.048720799,0.222415999,0.691110015,0.455895990,
-0.031230900,0.462779999,-0.428158998,0.742924988,-0.360060006,0.497078001,-0.024396200,0.552070975,0.233115003,-0.136521995,-0.036691502,-0.525312006,-0.031467199,-0.351720989,-0.024870301,0.743613005,0.002148870,0.460357010,-0.093927599,0.072479904,-0.120146997,0.223892003,-0.041117001,0.243266001,-0.107665002,-1.133980036,0.046658400,0.051774599,0.205484003,-0.035067100,0.566375017,-0.923932016,0.193297997,0.001386790,-0.093769997,-0.358072013,0.326754987,0.383906007,0.464630991,0.124439999,-0.025207700,-0.205403998,-0.132603005,0.003940900,0.212208003,-1.032580018,0.712552011,-0.165043995,-0.267333001,0.378396004,
-0.061167601,-0.060966000,-0.266977996,0.233680993,-0.192172006,0.224060997,-0.166767001,0.394425005,-0.040770199,-0.302129000,-0.049750101,-0.351264000,0.434534997,0.347624987,-0.006192720,0.048942000,0.339852989,0.598627985,-0.292064995,0.399879992,0.280651987,-0.210978001,-0.028129600,0.239522994,-0.124582998,0.355791003,-0.001800110,-0.019843001,0.173506007,-0.145933002,0.330615997,0.199955001,-0.310211003,0.003003040,0.511415005,0.009534150,-0.100850999,-0.219951004,0.041133799,0.381260991,0.426519006,0.274616987,-0.295363992,-0.004300630,0.344687015,2.921679974,0.601858974,0.324117005,-0.275669008,0.071768999,
0.422064990,-0.174564004,0.385614991,0.232748002,-0.677935004,0.057180099,-0.129368007,-0.040101901,-0.353709012,-0.252653986,-0.004165870,0.093399398,0.366248012,-0.524149001,-0.010977800,-0.469191015,0.036103699,-0.046864200,0.018030001,0.380266994,-0.286808014,0.009189100,-0.004380710,0.202332005,0.106338002,0.203058004,-0.029318400,-0.289085001,-0.201784000,0.492525011,-0.020380100,0.484165996,-0.380921006,-0.050748900,0.260347009,0.491513014,0.199166000,-0.067173101,-0.257340997,-0.166526005,-0.689037979,0.021591499,0.391611010,0.021344701,-0.045814801,-2.518150091,-0.375768989,-0.156443998,0.429078996,0.136213005,
-0.173273996,0.364609987,-0.084424697,-0.523854971,0.179955006,0.525404990,0.103027999,0.067281701,0.043583602,0.789941013,0.002004770,-0.796117008,0.412416995,-0.600528002,-0.021457801,0.491569996,0.146400005,-0.224364996,0.244773000,-0.319353014,0.439532012,-0.006052260,-0.019738300,0.075290501,0.133770004,0.099883400,0.162089005,-0.145935997,0.390147001,0.176758006,-0.013906200,0.204393998,-0.065828197,0.518709004,0.183570996,0.045533098,0.143598005,0.424829006,0.432862997,-0.526787996,-0.182745993,-0.241662994,0.448024988,-0.021255201,0.014053900,0.244243994,-0.616418004,0.078811802,0.467776000,-0.762637973,
1.045830011,0.014905500,-0.006750340,0.110757999,0.074407801,-0.285423011,1.757200003,0.873824000,-0.762785017,-0.054202199,-0.048429102,-0.261631995,-0.664008021,0.017416200,-0.036373299,1.017570019,-0.022708301,-1.733240008,0.284794986,0.449817002,-0.018727900,0.182150006,-0.036211401,-0.895088971,-0.087448902,-0.263577998,0.115542002,-0.197189003,0.645088971,-0.238232002,-0.442169994,0.228894994,0.338815004,-1.346570015,-0.058046199,-0.411089987,0.418572992,-0.065860897,0.367895007,0.247474998,0.228946999,0.963536978,-0.141654998,-0.042624898,-1.244230032,0.049816199,-0.375119001,-0.123781003,0.040903401,0.826960981,
0.304940999,-0.157469004,0.088532500,-0.051442299,-0.221318007,-0.038904902,0.316680998,-0.474435002,-0.007616460,0.193140000,0.014465200,0.017192099,0.556019008,0.359955996,-0.012028700,0.416444004,-0.274408996,2.182729959,0.098735899,-0.461883008,-0.886427999,-0.400070012,-0.005677650,-0.258511990,0.004831000,-0.018436501,0.132282004,-0.366645992,-0.815815985,0.350457996,-0.277898014,0.299407989,-0.479088992,0.208894998,0.277974010,-0.154290006,0.060456999,-0.680732012,-0.370301992,0.035545599,-0.001559070,0.558275998,-0.153254002,-0.008663190,0.096808203,2.002969980,-0.343760997,-0.227262005,0.042026900,-0.357585996,
-0.381377995,-0.442050993,0.197423995,0.247743994,-0.869135976,-1.096670032,0.877484977,0.278221995,0.450394988,0.271952987,-0.014124500,-0.292495996,0.281253994,0.409188986,0.001665150,-0.546500027,-0.375366986,-0.963549972,-0.108750001,-0.367543995,-0.312099010,0.178963006,-0.036391500,-0.290001988,0.041019201,-0.666311979,0.202842996,-0.312631011,0.769222021,0.911494017,-1.150609970,0.533847988,-0.217277005,-0.539031029,0.008964450,0.243010998,0.371832013,-0.236873999,0.375790000,0.069689900,0.108635001,0.486079991,-0.071527801,0.022352001,-0.177369997,-0.347508013,-0.750496984,0.216656998,-0.283814996,0.888224006,
-0.132935002,0.092636101,0.156826004,-0.006239980,-0.048119299,0.346484989,0.074508801,0.134689003,-0.347977012,0.407287002,-0.010173100,-0.168188006,0.425929993,-0.152974993,0.038731799,0.420578003,-0.058345102,0.198706999,0.081011899,0.427924007,-0.020846101,0.002993120,0.032096501,0.110518999,0.083884701,0.104157001,0.239934996,-0.228829995,0.052789699,-0.222210005,0.475178987,0.048091002,-0.065198101,-0.258345008,-0.240641996,-0.033374902,0.137136996,0.265538007,0.172756001,0.208783999,-0.321139991,0.109283000,-0.021664400,0.056664199,0.197310999,-0.050370399,-0.231828004,0.000310850,0.032346901,-0.366046011,
-0.019232901,0.355751008,0.774465024,0.301885992,-0.231154993,0.557052016,0.120794997,-0.331674010,0.255295008,0.222047001,0.007030760,-0.369498998,-0.800298989,0.146837994,-0.008824330,-0.787126005,0.750782013,-0.026172200,-0.022835299,-0.132596001,0.537532985,0.057790600,0.037697800,0.076723203,-0.047830600,0.676180005,0.156165004,-0.143410996,-0.227836996,-0.509432018,-0.238626003,0.014738100,1.172739983,-0.447946012,-0.029242000,0.148629993,0.147781000,-0.678155005,0.260372013,0.304149985,0.242846996,0.836956024,0.183945999,-0.016893500,0.270839989,-0.876372993,0.034030601,-0.196467996,1.342049956,0.900041997,
0.281194001,0.094279803,-0.426685005,-0.065382101,0.418924004,0.154102996,-0.179563001,-0.930561006,0.271248013,-0.146364003,-0.017990399,0.329349995,-0.642216027,-1.147789955,0.011672500,-0.489472002,-0.108778998,-0.563102007,0.121847004,0.220002994,-0.261018008,-0.476316005,-0.028027801,-0.372296005,0.030258700,-0.106343001,-0.360964000,0.646354973,-1.034549952,-0.224886999,0.040938102,0.343578994,-0.643471003,0.343735993,-0.139148995,0.116311997,-0.197936997,-0.245795995,-0.363754004,-0.330879003,0.138271004,-1.052510023,0.321487010,0.036064699,0.379236996,-1.066959977,0.283511013,0.181235999,-0.009254570,-0.183730006,
-0.070784599,0.785290003,0.398010999,-0.363929987,-0.001381280,-0.143978000,-0.961988986,-1.093780041,-0.451160997,-0.146454006,0.034568999,0.506249011,-0.748391986,-0.581228018,0.022471899,1.007900000,0.363469988,0.201343000,0.100440003,0.172037005,-0.739584982,-0.899455011,0.045506898,-0.456032008,0.391505003,0.137759000,0.114510998,-0.310853988,-1.152340055,0.550660014,-0.050983600,0.507466018,0.174772993,-0.034916501,-0.096297897,-0.569032013,-0.208680004,-0.804274023,-0.823741972,-0.078378700,-0.772853971,-0.819204986,0.657244027,0.010795900,0.603025019,-1.181890011,-0.114137001,0.542729974,0.310920000,-0.587221980,
-0.139351994,0.350050986,-0.092236497,-0.613765001,-0.507813990,0.376598001,0.124545999,0.519204974,-0.776609004,-0.571204007,-0.023894601,0.003340870,-3.628319979,-0.702326000,0.027831700,0.818750978,-0.113006003,-0.685697019,0.106491998,0.424295992,0.215088993,0.081450999,-0.024296500,0.452629000,-0.318426013,-0.051375601,0.165327996,0.003620930,-0.469871998,0.370247990,-0.501654029,0.071121298,0.398562998,0.894092977,-0.092469797,-0.496268988,0.115518004,0.459675997,0.197806999,-0.425130993,0.404399008,-0.031382799,-0.174485996,-0.007364910,-0.240154997,0.022167301,0.309942007,-0.303663999,0.325940013,0.268808991,
-0.400932014,-0.359142989,0.129834995,0.106156997,-0.168208003,-0.817068994,2.676409960,0.639389992,0.194076002,-0.482515007,0.000437677,-0.557134986,-0.852128029,0.283746004,-0.023917999,0.403225005,0.368600011,-0.203810006,-0.381594986,-0.986320019,0.591032982,0.035871200,-0.052602101,0.222014993,0.322250009,-0.406314999,0.262418002,0.456667006,1.217339993,0.159289002,-0.394189000,-0.435126007,1.252380013,-1.076719999,-1.185590029,-0.554799974,-0.538245976,0.476065010,0.042365201,-0.234381005,0.537763000,1.881440043,0.259178996,-0.011471400,0.825587988,0.417259991,1.317020059,0.515532970,0.895497978,-0.353251010,
-0.333878011,-0.020822600,0.128095999,-0.027275400,-0.859779000,0.453965008,-0.725995004,0.563116014,0.381814003,1.767429948,-0.049104098,-0.347454995,0.965309024,0.101352997,0.006394080,-0.904798985,-1.131690025,-0.224699005,0.376406997,-0.194579005,0.419997990,-0.820258975,0.031877801,0.420787990,-0.314781994,-0.234824002,0.008515740,-0.268676996,0.577153981,0.714016020,-0.809386015,-0.378966004,0.013375100,-0.713944018,-0.711067975,-0.455513000,-0.726182997,-0.152943999,-0.853917003,1.058670044,0.626129985,-0.555873990,0.262757987,-0.021721300,1.023560047,-1.288730025,0.861283004,0.489156008,1.090010047,-0.240948007,
-0.286053985,1.083529949,0.012013700,-0.129618004,-0.903226018,0.316320002,-0.824038982,-0.100224003,-0.038292501,0.539003015,0.001222140,0.356658995,-0.394326001,-1.277189970,0.019394200,-1.179110050,-0.420037001,-0.105821997,-0.222932994,-0.356465995,-1.297060013,-0.992366016,-0.035815500,-0.310391009,0.082207598,-1.393980026,0.448751986,-0.114400998,-0.273564011,-0.032175701,-0.097786203,0.172839001,-0.283152014,-0.657130003,-1.184470057,-0.282635987,-0.627551973,-0.341619015,0.368658990,0.467238009,0.297048002,0.825384974,1.696889997,0.047489598,1.547270060,-0.396874011,0.194865003,0.975161016,1.182790041,-0.316134989,
0.551608980,0.189116001,0.235161006,-0.165105000,-0.193729997,0.842022002,-0.241356000,-0.303932011,-0.296696991,0.040224198,0.007174930,0.484660000,0.104691997,-0.027664701,0.032158099,0.235137999,0.612968028,0.024626700,-0.113761000,0.450132996,-0.026039200,0.238029003,0.004393440,0.053952999,0.153747007,-0.041893002,0.064579301,-0.076950699,-0.258044004,0.023497900,-0.316118985,0.274030000,-0.063675299,0.600547016,0.418410987,0.274500012,0.056060500,0.306151986,-0.180819005,-0.280505002,-0.021877401,-0.153625995,0.298835993,-0.018906400,0.169680998,-0.943718016,-0.199893996,0.262118012,-0.009849700,0.326460004,
0.944060028,-0.581995010,0.794619977,-0.124819003,0.262387007,1.842890024,-0.340072989,0.048119999,-0.117073998,0.285463989,-0.025198501,0.225755006,-0.754240990,-0.508341014,0.027141800,-0.183271006,0.222969994,0.653266013,0.196199000,-0.604537010,-0.822566986,-0.837517977,0.014749200,-0.551939011,0.080863297,-0.415776014,0.413327008,0.339807004,-0.011822200,0.030436300,-1.767480016,-0.046523899,-1.118630052,1.107900023,-0.197878003,-0.677680016,0.490922004,0.484026998,-0.067341998,-0.781839013,2.044950008,-0.202689007,-0.103462003,0.038529702,0.048027501,-0.756908000,-0.030573100,0.484490007,0.234142005,-0.547218025,
0.368138999,0.343638003,-0.210585997,-0.340561002,-0.370498002,-1.022959948,-0.123317003,-0.272154003,0.700984001,0.357450008,-0.015341300,-0.136122003,-0.638423026,-0.125863001,-0.017044200,-3.862890005,0.130136997,-0.959704995,0.127685994,0.096219398,0.268685013,-1.045869946,0.012434800,-0.396544009,0.271232992,-0.066353999,-0.502874017,0.418682009,-0.433744997,0.676122010,-0.478098989,-0.010621800,0.259113997,0.320948988,-0.639262021,0.468520999,0.259310007,-0.003494160,0.188760996,0.868809998,-0.908569992,-0.371329993,0.416521996,0.013753100,0.009574630,-0.582536995,0.592031002,-0.324155986,0.188236997,0.025809400,
0.068285897,-0.113200001,-0.044452999,-0.106206000,-0.134544000,-0.081283100,0.418137997,0.066997901,-0.660197020,0.001902610,0.017265899,0.045874000,-0.465346992,0.219303995,-0.049972501,-1.114989996,0.444135994,0.089323297,0.097918198,-0.186447993,-0.324530005,0.198057994,0.036104798,0.094052397,-0.045779500,-0.051387101,-0.071472801,0.010918300,0.233318999,0.244271994,-0.159605995,0.036876898,0.120917000,0.223863006,0.182549000,0.049910899,0.351390004,0.194881007,0.017379301,-0.314781010,-0.019963400,0.157003000,0.052069400,0.040940601,0.344613999,0.947414994,0.203835994,0.080612801,-0.084365100,0.293572009,
0.375088006,-0.061164100,0.290208995,-0.091766901,0.417187989,-0.042711001,0.783474982,-0.245219007,-0.033062700,-0.476554990,-0.019890999,0.055658098,-0.505559027,0.145429999,-0.037783802,-0.212551996,-0.138860002,-0.124596998,0.258855999,-0.144606993,0.211853996,0.070564099,-0.029865200,0.261590987,0.032774501,1.370769978,-0.446810007,0.095844999,-0.496868998,-0.095146902,0.178112000,-0.327046990,-0.166021004,-0.227773994,0.679656029,0.277312011,0.232001007,0.081460901,0.016918000,0.220979005,-0.091060400,-0.470050991,-0.841089010,0.031195600,-0.510233998,0.433064014,-0.503440976,-0.189263999,-1.404440045,-0.228025004,
-0.214845002,0.801904976,0.319099993,-0.546086013,-0.054872200,0.435440987,-0.619670987,0.093573503,0.217347994,0.468650013,0.020564601,0.252752006,-0.627131999,0.169792995,0.003564470,-0.917334974,-0.041733298,1.797799945,0.133188993,-0.471385002,-0.674606025,0.298622996,-0.017937601,-0.178255007,-0.029823700,-0.154567003,-0.003175690,-0.354934007,-0.413502008,0.253502995,-0.137346998,0.412984014,-0.127171993,0.524667978,-0.201622993,-0.322849005,-0.358263999,-0.159272999,-0.861545980,-0.757942021,-0.258868992,-1.133509994,0.373463005,0.049986701,0.674063027,2.421080112,0.586911976,0.087434597,0.500859022,-0.836498022,
0.011455300,0.369239986,0.237580001,0.010815300,-0.576928020,-0.116903000,-0.376121998,-0.615644991,0.220468000,0.124614000,0.032479402,-0.053882800,-1.001240015,-0.137125999,0.034057099,0.055051800,-0.134042993,-0.001426860,-0.012160500,0.050748698,0.055112299,-0.813638985,0.027904600,-0.795812011,0.155865997,0.940403998,0.233114004,-0.055879600,-0.390792012,-0.281352997,-0.123822004,0.470090985,0.496805012,0.147591993,-0.482955009,-0.146080002,-0.420747012,0.237049997,-0.385488987,0.167533994,0.519629002,-0.307844996,0.317155004,0.013392300,0.534274995,0.992170990,-0.538124025,0.183955997,0.738783002,-0.176746994,
-1.075129986,0.154492006,-0.633632004,0.516619027,0.141398996,-0.914870024,0.144068003,0.301627010,0.061993901,-0.714166999,-0.028135000,0.264876992,-0.972774029,-1.144930005,0.043477301,-0.129973993,-2.553450108,0.284586012,-0.078117102,0.734583974,-0.549236000,-0.138139993,0.043235201,-0.236915007,0.168543994,-0.039084300,-0.433845997,0.281682998,0.199375004,-0.250690997,0.193985000,-0.288545012,0.961695015,0.707756996,-0.583826005,0.148328006,0.012543400,-0.278019011,0.399351001,0.674979985,-0.419818997,0.277092993,-0.352218002,-0.023400500,0.234715998,-1.637730002,-0.038015101,0.192242995,-0.610345006,0.692152023,
0.554413974,-0.031500399,0.110261999,-0.449660987,0.090689696,0.295632988,0.665571988,-0.662392974,0.389744014,0.091033801,0.036626801,-0.028292401,-0.363267988,-0.662033021,0.038571700,0.134094998,0.543560028,-3.389329910,-0.260405004,-0.721002996,-0.582583010,-0.331425011,-0.013947200,-0.222163007,-0.045017902,-0.039889101,0.358411014,0.641842008,0.089645997,0.523872018,-0.690189004,0.290809005,-0.593906999,-1.050109982,0.138967007,0.123746000,0.646142006,-0.233036995,-0.312965989,-0.642148018,-0.087642901,-0.549840987,0.281058013,-0.004036390,0.312065005,-0.468030006,-0.309670001,0.295711994,0.069381103,0.431789994,
0.055314001,0.118061997,0.638114989,-0.660162985,-0.426955014,-0.115924999,0.860789001,0.748978019,0.455491006,0.988062024,0.044419002,-0.830959976,0.161370993,0.583438993,0.018720400,1.104310036,0.415237993,0.396710008,0.051187400,-0.134019002,0.152384996,0.386260986,-0.010002700,0.163773999,-0.052167200,0.927627981,0.022569500,-0.247211993,-0.107428998,0.576322973,0.054268301,0.659141004,-0.461549014,0.081579499,-0.097999401,-0.706722021,0.594313979,0.351462990,0.265680999,0.277128011,0.829964995,-0.855441988,0.060514100,0.044558700,0.387638986,-0.242891997,0.046013702,-0.354279011,0.767960012,0.694909990,
0.086777501,0.291837007,-0.105737001,0.013570000,-0.346765995,-0.090762503,0.675297022,0.087838903,0.208561003,0.080183603,-0.035728801,0.136818007,-0.036632501,-0.239951998,-0.036218200,0.201054007,-0.109226003,-0.221936002,-0.051131200,0.108929999,0.131598994,0.194940001,0.039600201,-0.171955004,-0.040077899,0.447492987,0.055590201,-0.223683998,-0.254817992,0.015240500,0.585756004,-0.046662599,-0.093256898,0.977177978,0.263092995,0.273856997,-0.014847900,-0.332632989,-0.030642601,0.017565999,0.145576000,0.014669800,-2.130860090,-0.013872200,-0.316673994,-3.640419960,-0.431897014,-0.080036603,-0.551208019,-0.345618010,
-0.209538996,-0.181546003,-0.142790005,-0.324122012,0.789503992,0.555123985,-0.403504014,0.010877000,-0.200452000,0.686369002,0.031956300,0.747780979,-0.826125026,-1.388129950,-0.046831399,-0.980892003,0.343185008,-0.120880000,0.323711991,0.486618996,-0.765416026,-0.720897973,-0.014281700,-0.433645010,0.096219003,-0.235309005,-0.303243995,0.159383997,-0.238722995,-0.506258011,-0.701228023,0.665966988,0.758436978,0.593586981,-0.009751740,-0.646215022,-1.170840025,-0.366030991,-0.627884984,-0.730533004,0.203171998,-0.988038003,0.933194995,-0.029182700,0.439350992,-0.190620005,0.312893003,0.123402998,0.746608973,-0.218320996,
1.035660028,-0.229923993,0.361826986,-0.335431010,-0.229599997,0.045179501,-1.906630039,0.645049989,0.557606995,-0.343228996,0.008415420,-0.603721023,0.234625995,0.850426018,-0.032827500,0.934065998,0.657275021,0.406812996,-0.029621899,0.110725999,-0.374341995,-0.330563992,-0.009035340,0.258946002,0.139654994,0.529838026,0.526260018,0.279965997,0.061894398,-0.119586997,0.266077012,-0.273164988,0.888260007,0.977842987,-0.640344977,0.685433984,0.020044399,0.081978403,-0.046149202,0.239810005,0.190590993,0.840508997,0.117402002,-0.008010140,0.169674993,-1.230939984,-0.145344004,0.104516998,1.156039953,0.102364004,
0.490967989,-0.004541810,0.162001997,-0.303214014,0.109563001,0.431986004,0.175549999,-0.296330005,0.385962993,0.026371799,-0.008574920,-0.763001978,0.207049996,-0.288195997,0.000444461,-3.204629898,0.047986399,1.074219942,0.060621601,-0.141124994,-0.329275012,-0.095700398,0.022223800,0.031847399,0.540943027,-0.116116002,0.279101998,0.072737299,-0.079205200,-0.201679006,0.113759004,0.066524602,0.313634992,0.233444005,-0.042884901,0.427554011,0.162856996,0.001212700,-0.208048999,-0.420931011,-0.111860000,-0.580438018,0.405898005,-0.024753500,0.320537001,0.313786000,-0.134799004,0.057805099,0.290179998,0.345362008,
-0.032948099,0.010125400,0.001571320,-0.036422402,-0.045520999,-0.052392401,-0.017633401,0.031068999,-0.002737880,-0.031353399,-0.033714000,-0.053138498,0.017928099,-0.015723201,-0.037340201,0.003065720,-0.004824600,0.028071901,-0.017021200,0.003101540,0.035232801,-0.044572800,0.000256041,-0.013062000,-0.043677900,0.018903401,-0.049421702,0.027726401,-0.036915202,-0.020127000,0.011089300,-0.009698830,-0.048356500,-0.047395401,0.034914099,-0.050867699,-0.019672001,0.006604320,0.033769399,0.022276800,-0.012103000,0.021905901,-0.040997799,0.022766201,0.027077001,0.041363299,0.000953159,-0.047076099,-0.022172799,0.013217100,
-0.388208985,0.004138750,-0.573023021,0.469675004,-0.130282998,0.024672801,-0.513691008,-0.248998001,-0.170537993,-0.264807999,-0.037258800,-0.101545997,-0.148035005,-0.686019003,0.028084600,-0.544525981,0.169737995,-0.595844984,-0.531255007,0.368297994,0.407855004,-0.170591995,0.036701500,0.132548004,0.145615995,-0.584361017,-0.074809000,-0.214164004,0.514357984,0.674758017,-0.464130998,-1.110810041,-0.343133003,0.293835998,0.352746010,0.065938801,0.532679021,-0.247829005,-0.052364599,0.357051998,0.047193900,0.497599006,0.459867001,-0.005603850,-0.184114993,0.339543015,1.250880003,-0.015878500,0.106783003,0.034314599,
0.462841988,0.446316004,-0.289357990,-1.283049941,-0.060019501,-0.748006999,0.104744002,-0.263455003,0.608274996,0.315800011,-0.024478400,0.162677005,0.888378978,0.945116997,0.004163540,0.219668001,0.495719999,0.447324991,0.141581997,-1.583080053,-0.111156002,-0.109327003,0.004454740,0.145942003,0.283066988,-0.371930003,1.399510026,0.711076021,-0.644264996,-0.478675008,0.050591700,-0.088298202,-1.184409976,-0.757439971,-0.968991995,-1.215479970,-0.826045990,-0.307803005,-1.016600013,-0.858862996,-0.062338699,0.383273005,1.370980024,0.027629800,0.412786990,0.234844998,0.583392978,-0.080686398,1.445590019,0.392634004,
0.487298995,-0.069823302,-0.388884991,-0.027277499,0.253257990,-0.406010002,-0.769608974,-0.722806990,0.378504992,0.052345499,0.024889000,0.060835801,0.143314004,-0.237905994,-0.012243600,0.077724703,-0.976624012,0.082115598,-0.078883201,0.887664020,0.438217014,-0.957834005,0.021087000,0.556295991,0.188663006,0.614512980,-0.026743000,0.624814987,-0.338122010,-0.421274990,-0.660739005,0.070570402,0.303703010,0.450049013,-0.148381993,0.351410002,-0.558879018,0.160018995,0.142230004,0.139054000,-0.263592988,-0.250575989,-0.519415021,-0.032214198,-0.406412989,1.253450036,-0.201793000,-0.099486999,-0.479121000,-0.172767997,
0.464866012,-0.168165997,0.059802100,-0.762638986,0.299089998,0.080278598,-0.661840022,-0.032063700,-0.505753994,0.210953996,0.028636800,-0.381375015,-0.185929999,0.214366004,-0.043595299,0.286201000,-0.109136000,-0.519721985,-0.119055003,0.413329989,0.806464016,-0.256902009,-0.016700700,0.454275012,-0.003099100,0.615435004,0.225807995,0.791440010,-0.498454005,-0.649291992,0.697539985,-0.020839499,-0.191826999,0.700515985,0.200483993,0.385776997,-0.065278202,0.216371000,0.296225011,-0.184267998,0.257405013,0.784376979,-0.363388002,0.032428201,0.299418002,0.089519396,0.420756996,-0.025501899,-1.087180018,0.916041970,
0.429957986,0.486189008,0.103697002,-0.382544011,0.668985009,0.165975004,-1.496420026,0.489466995,0.755304992,0.819921017,0.002681090,0.102333002,1.160290003,-1.261520028,-0.030980401,-1.104799986,-0.541462004,1.164800048,0.229742005,0.018856401,-0.878121018,-0.449487001,-0.036825199,0.467296988,0.028248500,0.439763993,0.358732998,0.325114012,-0.826748013,0.960268021,-0.062239900,-0.446520001,0.096203998,0.694656014,0.332313001,-0.310764998,0.357134014,-0.136849001,-0.424136013,0.317941993,0.139613003,0.212274998,0.691196978,0.012816100,0.163999006,1.323369980,0.338043988,-0.061847299,0.642107010,-0.463492006,
0.828229010,0.391808987,1.606860042,-0.000436629,-0.220176995,0.140526995,-0.973514020,-0.229325995,0.619684994,-0.933448970,0.028398400,0.164465994,-1.842790008,-2.215549946,-0.042443000,0.070361398,0.530993998,0.381063014,-0.546155989,-0.337770998,-1.916149974,-0.119264998,0.025124200,-0.768675029,0.270458996,-0.235530004,0.184357002,-0.726203978,-1.923539996,-0.928556025,1.429149985,0.546909988,0.360004008,0.343910992,0.666333973,-0.219328001,0.733545005,-0.622734010,-0.312267989,-0.639639974,0.409386992,-1.461300015,0.903512001,0.027307400,1.755329967,-3.382230043,-1.145799994,0.091299698,1.043949962,-0.713051021,
0.793739021,-0.303025991,0.235646993,0.825128019,0.300500989,0.479501992,0.781634986,0.442615986,1.397359967,-0.611828983,0.014924600,0.214650005,0.447661996,-1.020390034,-0.034550600,-0.882248998,1.368020058,0.892844021,0.311787009,0.873520970,0.038564701,0.330612004,0.025053900,0.687147021,0.293583006,0.322905988,-0.060103498,0.013187300,0.270801008,-0.360478014,0.292077005,0.112466000,-0.075867496,0.275914997,0.104289003,0.678839982,0.509496987,0.017288400,-0.023543900,0.709861994,0.875420988,0.594456017,-0.316107005,-0.000053975,0.354707003,1.210029960,-0.037921801,-0.213519007,-0.574584007,0.542432010,
0.395406991,0.220059007,0.043393601,0.202258006,0.534282982,0.054970700,-0.002244160,0.599518001,-0.085289001,-0.433968008,0.010943600,-0.270099014,-0.292874008,-0.418511003,-0.043374602,0.560621977,0.057412598,0.182860002,-0.265246987,0.537609994,0.120718002,-0.031431399,0.026280399,-0.362583011,-0.575101972,-0.202894002,0.217206001,-0.047362100,0.444074988,-0.163023993,0.565451980,0.000772458,0.080807298,1.089419961,0.667846978,-1.874760032,-1.369750023,0.679202020,0.070118800,0.499626994,0.628450990,0.620701015,0.020547500,0.028916100,0.408145010,-1.177880049,0.453213006,-0.449214011,0.281351000,-1.864369988,
-0.196449995,0.067653000,-0.032998700,0.326312989,0.093504898,0.300341994,0.075772397,0.049271900,-0.011246100,0.091660298,-0.032014899,0.127901003,-0.180558994,-0.368788004,0.035711098,-0.471899986,0.329744995,0.103182003,-0.011436300,-0.082757801,0.114194997,0.031015500,0.019378200,-0.018095000,-0.080214500,-0.269351006,0.040830299,0.333952010,0.030179599,0.010743300,0.366279006,-0.113349997,0.115592003,0.199048996,-0.100758001,-0.020042300,-0.012448800,-0.156238005,-0.227687001,-0.132225007,-0.390935004,-0.217974007,0.051921599,0.012579600,0.379478008,-1.879830003,0.326481014,-0.056116100,0.057691999,0.137032002,
0.015534700,
-0.631072998,
-0.048659500,
0.335438997,
-0.888915002,
-0.013774800,
-1.691290021,
-0.012756000,
-0.000522399,
-0.015696000,
-0.251987010,
-0.196713999,
-0.530207992,
-0.293496013,
-0.553785980,
-0.147319004,
