// Neural Network File Format by Kyle Julian, Stanford 2016
8,5,5,50,
5,5,50,50,50,50,50,50,5,
0,
-3.4028235e+38,-3.4028235e+38,-3.4028235e+38,-3.4028235e+38,-3.4028235e+38,
3.4028235e+38,3.4028235e+38,3.4028235e+38,3.4028235e+38,3.4028235e+38,
0.0,0.0,0.0,0.0,0.0,0.0,
1.0,1.0,1.0,1.0,1.0,1.0,
1.000000000,0.000000000,0.000000000,0.000000000,0.000000000,
0.000000000,1.000000000,0.000000000,0.000000000,0.000000000,
0.000000000,0.000000000,1.000000000,0.000000000,0.000000000,
0.000000000,0.000000000,0.000000000,1.000000000,0.000000000,
0.000000000,0.000000000,0.000000000,0.000000000,1.000000000,
-0.000000000,
-0.000000000,
-0.000000000,
-0.000000000,
-0.000000000,
-0.029943701,-0.754824996,-1.867580056,-0.154351994,0.354842007,
0.045315400,1.248540044,1.272940040,0.845993996,-0.021530000,
-0.189939007,1.002060056,-1.055940032,0.043104701,-0.318899989,
-0.038631599,0.602401018,-0.566887021,0.091611199,-0.192923993,
-0.001892190,-1.585469961,-0.060415000,0.250514001,-0.335303009,
0.188420996,1.018039942,-0.912451982,0.289335012,-0.308079988,
-0.001800120,0.010214600,0.017038001,-0.002368530,0.004676350,
0.219365999,-0.266597003,-0.063732900,-0.254164994,-0.173123002,
-0.008721170,1.891360044,0.539780974,0.067643799,-0.081949897,
0.039815899,-1.046049953,1.190629959,-0.356575996,0.415039986,
0.189576000,-0.978039980,0.787976980,-0.015372200,0.083474003,
0.079830103,-1.172719955,-0.849707007,0.568349004,-0.287856996,
-2.238130093,-0.051234700,-0.080159299,0.086422600,-0.137713000,
0.105497003,0.766530991,-1.141489983,0.107003003,-0.102099001,
0.012800300,0.745127976,0.273470998,-0.298312992,0.105705999,
0.003154000,-0.021852599,-0.001285900,0.021131700,0.004301620,
-0.085878797,0.705610991,-0.831680000,-0.091948599,0.342491001,
0.019047599,0.013781500,-2.826719999,0.176424995,-0.047039598,
0.849159002,-0.083013900,0.018075900,0.084064201,-0.075571999,
0.036888100,-0.000678283,-0.013911500,-0.116806000,-1.610319972,
0.010751300,0.333718985,-0.386559010,-0.318307012,0.353444993,
0.067280002,0.117555998,0.021870300,-0.020863200,0.717617989,
0.210042998,-0.680519998,0.601384997,0.154793993,-0.005779350,
-0.122429997,-1.458619952,1.656720042,-0.241807997,0.435950994,
0.206621006,-1.398149967,-0.535986006,0.045286600,-0.157679006,
0.036650602,0.964738011,-1.384860039,0.021347400,-0.384763002,
0.026726900,0.993435979,-1.171190023,-0.196992993,0.331726015,
-0.011474100,-0.379824013,-0.752291024,-0.695339978,0.712364018,
0.058561500,0.073169999,-0.113043003,0.717135012,-0.376260996,
0.020975700,0.843533993,-1.030069947,-0.117280997,0.316058993,
0.104741998,-1.124740005,0.693672001,0.185089007,-0.380418986,
-0.033764701,0.673741996,0.147281006,0.097163498,0.112714000,
-0.278335005,0.444602996,0.016990000,-1.710119963,1.999879956,
0.361249000,1.110470057,0.036325999,0.066576503,-0.633768022,
0.070788100,-0.098385699,1.370260000,0.348430991,-0.386799991,
-0.000828603,0.146421999,-0.677550018,0.210174993,-0.371309012,
-0.012499000,0.087103702,0.252121001,-1.438730001,0.280708998,
-0.143876001,-0.576337993,-0.043384399,0.141244993,0.086974300,
-0.220312998,-1.434319973,1.577659965,-0.389883012,0.710865974,
0.048953202,-0.054796498,0.061976299,0.129491001,-0.974034011,
0.373499990,0.313353986,-0.376170993,-0.072384901,0.170711994,
0.034372199,1.014150023,-1.242319942,-0.069655597,0.442699999,
-0.008775350,-1.496780038,1.187209964,0.265049011,-0.159489006,
-0.185778007,-1.556589961,1.346619964,0.072135299,-0.449653000,
-0.150183007,-0.680848002,0.599606991,0.226010993,-0.236314997,
0.248442993,-0.643634021,-0.013305900,0.082145900,-0.386011004,
0.057631101,-0.716166019,0.010909100,0.200333998,-0.326716989,
0.166407004,1.224519968,-0.004806940,0.600641012,-0.700796008,
1.885149956,-0.001722890,0.002113580,-0.005905160,0.000107929,
0.091739804,1.993090034,0.130805999,0.417270988,-0.393195003,
0.025853699,
-0.153658003,
-0.095790200,
0.019538499,
-0.000513158,
-0.256687999,
-0.020458300,
0.015036200,
-0.194086000,
-0.637207985,
-0.398885012,
0.005516600,
-0.219252005,
-0.322757006,
0.192376003,
-0.026621200,
-0.147606000,
0.159336999,
0.371367991,
-0.673584998,
0.063894801,
-0.143840998,
-0.248917997,
-0.592006028,
0.127654001,
-0.253425986,
-0.587635994,
0.029080000,
0.291184992,
-0.419734001,
-0.153424993,
0.121844001,
0.306863010,
-0.286255985,
0.083001003,
0.062581502,
-0.410203010,
0.082929596,
-0.364758015,
-0.210281000,
0.081920996,
-0.380869001,
-0.368250996,
-0.060613200,
0.082246996,
-0.164178997,
-0.107911997,
-0.274877995,
0.520431995,
0.027086800,
0.670130014,0.038410898,-0.994373977,-0.724201977,0.678852022,-0.092843100,0.030285999,-0.168000996,0.080283903,-0.173600003,1.134899974,0.193976998,0.162542999,-0.627191007,0.446678996,0.001989440,1.044219971,-1.121770024,0.297459990,-0.154592007,0.819570005,0.367155999,1.596570015,-0.773422003,0.490655005,0.364877999,0.132238999,-0.999958992,0.794206977,-0.495377988,0.382472008,0.158766001,0.027775699,-0.221597999,-0.821569026,-1.772709966,-0.854725003,0.140406996,-0.767673016,-0.977788985,-0.285863996,0.585054994,-1.104429960,0.161552995,-1.263689995,0.828866005,-0.193380997,0.296537995,0.063950099,0.022857500,
-0.247623995,0.159665003,0.868950009,0.421651989,-2.355030060,0.788528979,0.044800099,0.026713300,0.258381993,2.191989899,-0.538482010,-1.105139971,-0.595353007,0.675890028,-0.273029000,-0.008947780,0.867684007,-0.796498001,0.109673999,1.428910017,-0.307633996,-0.056012399,-1.339879990,0.289813995,-0.727361023,1.720239997,1.877709985,-0.175301000,0.673850000,2.856790066,-1.317710042,0.176478997,-0.613597989,1.351709962,1.253630042,-0.111179002,-0.339877993,-1.040779948,0.565907001,0.808550000,-0.470171005,2.315200090,-1.038390040,-1.290660024,0.090253897,-2.239049911,-2.415369987,1.344670057,0.004955530,0.788415015,
0.213713005,0.111277997,1.196730018,0.329838991,0.789444029,-0.853115976,0.038440801,-0.070195198,0.203988999,-0.533774972,-1.557549953,0.208528996,-0.293664992,0.184039995,0.384294987,-0.035002001,0.694148004,0.135914996,0.179697007,-2.771600008,-0.530571997,-0.111381002,-0.369830012,-0.188305005,-0.003878660,-0.468858004,-1.024909973,-0.233949006,-0.919385016,-0.352811992,0.067328103,0.706318974,0.490630001,0.527715027,-1.083189964,-0.585759997,0.565696001,0.076500699,0.189456999,-0.005269450,-1.092450023,-0.333454013,-0.068516403,0.571614027,0.334284008,1.398790002,0.527990997,-0.771322012,0.674309015,0.295486003,
0.137006998,-0.435386002,-1.378960013,-2.501790047,1.115239978,-0.018413199,-0.016680900,-1.211599946,0.000003981,1.269799948,-0.447982013,0.682583988,-0.305061996,-4.609799862,0.217945993,-0.023050601,-1.306519985,-0.304380000,0.011612400,-0.453487992,-1.478770018,0.663205981,-1.858739972,-1.758299947,0.958962977,0.906304002,-0.022944501,0.505923986,-0.767089009,-0.299733013,0.016156700,-0.812003016,-0.174500003,-0.614677012,-1.349570036,-0.382418990,-1.569910049,1.085479975,-1.219040036,-0.448985994,0.507628024,-1.971099973,-0.286958009,-0.353787988,-0.481162995,-0.160330996,1.048689961,-4.190110207,0.158111006,-0.347092986,
0.003464830,-0.048972800,-0.013221200,-0.062749900,-0.040940601,-0.017066000,0.015387100,0.017965101,-0.004145250,-0.036325399,0.022217300,0.040492199,0.014093200,-0.014575900,-0.053846799,0.027477400,-0.019060900,-0.012009800,0.001380350,0.023984300,-0.022042900,0.029205799,0.027357999,0.011918000,-0.012824200,0.020050000,0.030420300,0.018811500,-0.035561699,0.000673889,-0.024548700,-0.031637099,-0.003811030,-0.032552902,-0.051276900,-0.033864800,0.017291600,-0.024873801,-0.031865999,0.017679101,-0.031582300,-0.013067000,0.020776900,0.026830601,0.027980400,-0.038346700,0.027526800,-0.034157801,-0.038451001,-0.020199699,
-0.021493601,-0.033120301,-0.019231800,-0.003810920,-0.054230802,0.028700300,-0.020255901,-0.052925300,0.002394220,-0.043778799,0.018152900,-0.016620001,-0.012776400,0.027782699,-0.002791960,-0.045445599,-0.022691101,-0.046638601,0.041421399,-0.007084450,-0.046411399,-0.013478300,0.046969298,-0.004031160,-0.020550100,0.005799940,-0.031559601,-0.036777399,-0.033520501,0.038790200,-0.037594002,0.012107800,0.019180501,-0.032998201,0.020572500,-0.023793200,-0.015866600,0.031233400,0.021711500,0.013732000,-0.040391199,0.038251400,-0.003623670,0.024831200,-0.058335800,-0.025607901,0.015328300,-0.014667200,-0.015266300,0.022819299,
-0.048711300,-0.054618299,-0.034067400,-0.008740550,-0.016136000,-0.049786299,-0.006958370,0.016689301,0.038832501,0.004760210,-0.012184500,-0.000107864,-0.047937602,-0.042901099,-0.057267401,-0.024338700,0.011280300,0.019559801,0.022545701,-0.055958800,0.009241420,-0.028472601,-0.055204999,0.009762890,-0.032440301,0.026251299,-0.032079201,-0.031461600,-0.056086302,-0.026482999,0.029490400,0.028874800,-0.052894000,0.009519530,-0.021896400,0.020048801,0.019465100,-0.037979599,-0.016965499,0.012932500,-0.033657700,-0.022107599,-0.029550301,0.033363201,-0.045368001,-0.003039220,0.007027540,-0.048847198,0.016093900,-0.027895100,
0.411505014,0.486404985,-0.188571006,0.562678993,-0.320327997,-0.039712399,0.000128826,1.226930022,0.297298998,-1.828670025,-0.990880013,-0.246123001,0.902772009,0.172356993,-0.110789001,-0.003470130,-0.188746005,0.708489001,-0.096854597,-2.091919899,1.010660052,1.062139988,0.365402997,-0.156386003,-0.789408982,-1.002159953,1.111490011,-0.669210970,-0.195522994,0.710686982,0.980836987,1.710379958,-0.274493992,-1.237759948,0.202698007,1.064219952,0.806051016,1.168280005,-0.843322992,-0.547329009,0.348989010,-2.606169939,1.045420051,0.231861994,0.302827001,1.556339979,-0.624122977,-0.361324996,0.477703989,-0.259797007,
-0.007550720,0.017111501,0.164331004,-0.013176000,0.075319201,0.194533005,-0.028326200,0.597769976,0.386456013,-2.073800087,0.141159996,-0.438986987,0.567727983,0.309772015,0.926878989,0.022247599,-0.702434003,-0.087933101,-0.143316999,1.343840003,-0.425926000,-0.912648976,-0.978972971,0.375544012,-0.168592006,0.217280999,-3.484829903,0.745522976,-0.427841008,-1.883499980,0.489318997,0.479885995,-0.438802987,-0.217222005,-0.416963995,0.166073993,-1.899539948,0.386961997,0.204018995,-1.141280055,-0.160922006,0.235093996,0.053069100,0.651992023,-0.715777993,0.881913006,0.584810019,-0.147909001,0.117379002,0.086651601,
-0.052279599,-0.019866500,0.191939995,0.575316012,-0.072856501,-0.337211013,-0.026373200,-0.406385005,-0.278542012,-0.674540997,-0.701808989,-0.110887997,-3.480449915,-0.077508301,0.195755005,-0.032778800,-0.113233998,0.059876699,0.974116981,0.016069099,-0.201591998,-0.326923013,-0.317885995,0.402693003,0.359578997,0.009037790,-0.577216029,0.028605700,0.098539598,-0.025849801,0.115144998,-0.148231000,-0.020274900,-0.050730702,-0.094391599,-0.182843998,-0.008991300,0.033805300,-0.361696005,0.264658004,-0.680499017,0.207783997,-0.129342005,0.160724998,0.072559699,0.189916000,-0.284202993,-0.076580897,2.153259993,0.177681997,
-0.049263299,-0.048016801,-0.041904598,-0.014903600,-0.066158198,-0.051742099,-0.047142200,-0.027989401,-0.006302910,-0.034880102,0.010525900,0.002173030,0.028637299,0.016066199,0.006812180,-0.042127501,-0.015499300,-0.041268401,-0.018938100,0.028410699,0.010421700,-0.051631499,-0.016396901,0.009514060,-0.071538597,0.029904099,0.034618702,-0.031778000,-0.005669090,0.013219800,-0.009072710,-0.062015899,0.005704020,-0.049317800,0.010052400,-0.045009699,-0.019458599,0.010249800,-0.055431101,-0.005884780,-0.007222760,-0.006170550,0.038934801,0.032587599,-0.057856899,-0.046154499,0.016329300,-0.020119401,-0.007143640,0.018092200,
0.933161974,0.191007003,-2.235399961,-1.229359984,-1.382329941,-1.899440050,-0.030689500,-0.137103006,0.220467001,-6.594970226,-3.950200081,2.281559944,-0.719514012,-2.471669912,0.262273014,-0.012170400,-1.998960018,0.838077009,0.343926013,-10.801099777,-0.595404983,1.103819966,-2.136709929,-1.896610022,1.149670005,-1.506369948,-5.040349960,-0.203244999,-3.538079977,-4.662630081,-0.965143025,0.301526010,0.954488993,0.131577000,-2.391890049,-0.996594012,1.865380049,0.099912703,-0.629088998,-2.011009932,-0.192909002,-2.873810053,-2.942709923,0.177380994,-3.089299917,-0.563170016,-0.868516028,-0.942963004,0.202122003,-0.600531995,
1.283210039,1.229259968,-2.079799891,-1.695209980,0.320661992,-0.068374202,0.026898500,0.870573997,0.132935002,0.489565998,-3.339699984,1.360110044,-0.177201003,-0.052381601,0.851159990,-0.004994800,-2.005219936,-0.357930988,0.422087997,1.408290029,0.615585029,0.174507007,-1.443500042,-0.688374996,0.398977011,-1.207069993,-2.849129915,-0.918101013,-0.741370976,-2.179100037,-0.250135988,-0.461625993,0.288071990,-1.467779994,-0.363231003,-0.535045981,0.982246995,-0.004986220,-2.127219915,-1.787870049,0.180046007,-2.362890005,-0.274636000,-0.530564010,-2.749150038,1.779080033,2.915649891,0.898714006,-0.082566097,-0.736127973,
0.046681002,0.289912999,0.789964974,0.577395022,0.811878979,-0.713352978,-0.033437900,0.152296007,-0.074910201,-2.925800085,-0.038325801,-0.387333006,-0.081990898,0.606846988,-0.148201004,0.002410000,1.383890033,-0.381821990,0.468315989,-0.468591988,-2.226560116,-1.505759954,-0.710098028,0.271174014,-0.159917995,0.377245009,-0.091110602,-0.413837999,0.154875994,1.624950051,-0.059867602,0.730579019,-1.415979981,1.079130054,-0.098804899,0.019274600,-0.109550998,1.154889941,0.120113000,1.394160032,-0.463414997,-0.900831997,-0.399152011,-0.061071701,0.345880002,-0.786638021,0.416447014,-0.317326993,0.198115006,0.170395002,
-0.273355007,0.126592994,0.380216986,1.004050016,-0.189367995,0.166970000,0.004415420,-0.240705997,-0.105048001,-0.359331995,-0.620356977,0.112861000,-0.377050012,-0.510043025,-0.456111997,0.019788900,0.892086029,-0.338461012,0.111041002,-0.459847003,-0.517269015,-0.209049001,-1.233039975,0.118395999,0.416307986,0.330590010,-0.408946007,-0.009292590,-0.384218991,0.031545199,-0.370566010,-0.108540997,0.135455996,0.347023010,0.450513989,-0.880438030,0.090134397,0.227512002,-0.112079002,-0.317575008,0.266409993,-0.147505999,-0.008714730,-0.228667006,0.753700018,0.391229004,-0.620763004,0.270826995,-0.030531900,-0.277929008,
0.191130996,0.069993101,-0.283681005,0.039105900,0.402684003,0.342056006,0.004327590,-0.753670990,-0.170130998,0.558957994,0.558274984,-0.213940993,0.101499997,0.223326996,0.794844985,-0.039627101,-0.061371800,-0.231322005,0.383763999,0.639940977,-0.196785003,0.923340023,0.661988974,0.059419699,0.152170002,-0.039639801,-0.175864995,-0.144242004,0.043676201,0.554288030,0.592408001,0.587006986,-0.506442010,-0.014558900,-0.423931986,0.639384985,0.484158009,0.436942011,-0.575569987,0.983671010,-0.582632005,0.136568993,0.075701803,-0.063114397,-0.117302999,-1.709069967,-0.832190990,-0.033244502,-0.307619005,-0.151518002,
-0.000461610,0.040335398,-0.058310200,-0.000625095,0.019346200,-0.019755900,-0.003055900,-0.018647900,-0.050845399,0.035494301,-0.001441680,0.000973397,-0.034011599,-0.036689200,-0.045081701,0.002129360,0.027369199,0.011337200,-0.006920290,-0.047897302,-0.010650400,-0.049822100,-0.004036420,-0.005930970,0.021827100,0.017258000,0.020361600,-0.029925499,-0.000262934,-0.048877802,-0.034449100,-0.036718398,0.010625300,-0.034018598,-0.012023700,0.001927520,-0.023977101,-0.038645100,-0.003334620,0.022430200,-0.033440400,-0.048314400,-0.040585998,-0.056931801,0.020506000,-0.048699301,-0.006937260,-0.002034440,-0.039119501,0.022811700,
-0.088030398,-0.006494680,0.393326014,0.163145006,0.607065976,-0.906206012,-0.037519202,-0.281911999,0.002237720,-0.108240999,0.313050985,0.086662300,0.437353998,-0.486838013,0.295222998,0.057324301,-0.967685997,0.445015997,-0.317696005,0.426963001,0.341780990,2.034369946,-2.450160027,0.155742005,-0.348630995,0.338802993,-0.247618005,-0.428061008,-1.138640046,-2.288170099,0.137657002,0.937205970,-0.412723005,0.889087021,-0.479966998,-0.633265972,0.798923016,-0.628666997,0.235320002,1.118540049,0.778914988,-1.160770059,0.197628006,0.082427397,-0.045775000,1.061959982,1.319249988,0.070055597,0.579361022,-0.225894004,
0.613125026,0.154174998,-0.240222007,0.048610099,-0.019077299,-0.640448987,-0.008828250,-1.161900043,-0.167536005,-0.316745996,-1.390050054,0.043182999,-0.521207988,-0.442339003,-1.046129942,0.009734440,0.802506983,-0.010629600,-0.310285985,-0.079074800,-0.237143993,0.875513971,-1.513139963,-0.182475999,-0.708455026,0.461602986,-0.028531700,-0.271571010,0.394764990,-0.452008992,0.171397999,1.301300049,-0.296038985,1.255489945,0.199141994,-0.361088008,0.393312007,0.524724007,1.122519970,-0.424281001,0.851032019,0.414783001,-0.309489012,0.400774986,-1.012380004,1.523110032,-0.224861994,-0.341390014,0.372887999,-0.059614699,
-0.010259200,-0.080833197,-1.908750057,-3.012439966,1.135750055,0.513707995,0.006321700,-0.873372972,0.668924987,-9.127599716,1.459030032,0.938247025,1.732190013,-1.494359970,0.256011009,0.000682754,-1.625540018,-0.608325005,-0.564444005,-4.556200027,-0.095680498,0.149715006,-3.808549881,-1.909240007,1.119660020,-0.869858980,-10.835399628,0.545885026,-0.043990001,-4.151790142,-1.898720026,-0.617874980,0.232761994,-0.167675003,-1.725729942,-0.857904017,0.411828011,-1.193799973,-1.194880009,0.309495986,-2.624130011,-1.492519975,1.063609958,-1.695090055,-1.529590011,-1.251880050,0.778752983,0.972801983,-3.732709885,1.569300056,
-0.072816998,0.254734993,0.508270025,0.099707603,-1.722440004,0.486400008,0.052952800,-0.440317005,-1.478760004,-0.585673988,-0.987946987,-0.791329026,-0.762987018,-0.427363992,-0.246575996,-0.028076001,-1.731119990,-0.265136987,0.249266997,-2.170000076,0.798686981,-0.173100993,-1.834980011,-1.601289988,-0.347862005,1.214589953,-1.668490052,-0.223675996,0.193035007,0.121979997,-0.715923011,0.759759009,0.615483999,2.862760067,-0.427460015,-0.694768012,-0.327484012,-0.547302008,-0.909166992,-0.979574978,-0.917988002,-0.551279008,-0.970220983,-0.296999007,-0.745689988,-3.945620060,-2.377929926,0.468589991,0.215617001,0.981207013,
0.021485901,-0.018940300,-0.047930200,-0.049270499,-0.000018785,-0.002071000,-0.021451401,0.002495520,-0.052290801,0.038379099,-0.026454600,-0.037382200,0.013284800,-0.029402399,-0.049894601,0.045694899,0.032182399,-0.011687000,0.021537799,-0.052243300,0.041241400,0.021049799,0.002936260,0.018786101,-0.019939300,0.003252440,0.027147200,-0.020983800,-0.047968801,0.019990200,-0.023394000,0.031539001,-0.053013001,0.027637299,-0.003061270,0.008792850,0.019401100,-0.040897999,-0.054783899,-0.024124499,-0.049078599,-0.053739700,0.000688754,-0.039882701,-0.022444900,-0.026089299,0.000791708,0.016485000,-0.025969600,-0.044375900,
0.052743699,0.017546700,-0.049196400,-0.059880398,0.004836040,-0.014629400,0.041528799,-0.008951250,0.019704500,-0.013618400,-0.000043570,-0.007231990,-0.013100300,-0.025647501,-0.007077030,-0.015127700,0.026038200,0.006656820,-0.016239800,0.014357700,-0.019098800,0.001249840,0.022411400,-0.011150100,-0.025536601,-0.001556810,-0.037413798,-0.060934398,-0.025141500,0.002509200,-0.008899890,-0.035695098,0.027086500,-0.035433199,-0.008488610,-0.010711300,0.017275300,-0.021948799,-0.010260400,-0.052723002,-0.032183100,-0.059582900,0.001228000,0.013282600,-0.066515297,0.029649301,0.017903000,0.016397299,-0.013487300,-0.040499199,
-0.874391019,1.318799973,-0.360888004,0.825026989,1.216860056,-1.143450022,-0.020067301,-1.404379964,1.151929975,-0.383150995,-1.195009947,-0.824501991,-0.417816997,-3.313810110,-0.107233003,-0.033744499,0.622465014,-1.564080000,-0.457942009,0.314148992,0.581312001,0.076109298,0.807062984,-0.809090972,-0.496250004,0.233039007,-0.585079014,-0.668604016,-0.222681001,-0.378827989,1.644060016,0.849983990,-0.298283011,1.251760006,-0.787671983,-0.612775981,0.015110900,0.268400013,0.708939016,-1.529180050,1.198979974,-2.163579941,-0.506749988,0.233401999,-1.054399967,-1.723000050,-1.728260040,-0.411588997,0.574590981,-0.231828004,
-0.142083004,0.022332201,-0.028290700,-0.094986498,-0.400375992,0.241676003,-0.032583799,-0.190616995,-0.065931097,-0.592984021,-0.007459000,-0.260710001,-1.221809983,-0.035907701,-0.453997999,0.010957300,-0.329878002,-0.047111802,0.868103027,-0.181668997,0.323175997,-0.468151003,0.004181870,-0.033764701,0.042358998,0.053616699,-0.314862013,-0.390047014,0.203095004,-0.122422002,-0.353215992,-0.513634026,0.299488991,-0.211739004,0.162811995,0.515870988,-0.232813001,0.256377995,-0.348109990,0.242017999,-0.070775397,0.610419989,-0.088752002,0.181180000,-0.192493007,0.047830999,-0.929720998,0.202696994,-0.616325974,-0.455547988,
-0.781816006,0.434437007,-0.337518007,0.418715000,-0.020226000,0.559976995,0.024308899,-0.062255200,0.542882979,0.911684990,0.191820994,0.412770003,0.249725997,0.700691998,0.577082992,-0.006986360,-0.371919990,-0.205859005,-0.199094996,-0.758673012,-0.209749997,-0.501064003,-0.301697999,0.148526996,0.469581991,-1.009930015,0.173068002,-0.505438983,0.261810988,-0.630455971,-0.397285998,-0.925085008,-0.322100013,0.521270990,-0.724533021,-0.567825973,-0.921527982,-0.463616014,0.578177989,-0.698068023,0.528222024,-1.824390054,0.326321006,0.405963987,-0.634361982,1.106019974,0.209105000,-0.494850010,0.554472983,0.398701012,
-1.886299968,-0.149419993,-1.478749990,-0.480479985,0.006686670,0.882544994,0.010450800,-0.207202002,-6.321109772,-0.264833987,1.010370016,0.597101986,-0.672065020,0.063466400,-2.506510019,0.024990801,-0.030760201,-0.759992003,0.446826011,2.031140089,1.978330016,0.237728998,0.522795022,-0.037090302,0.343409002,1.791389942,-0.016362600,-1.903399944,0.027301800,-0.023386501,0.226583004,-2.880399942,0.079805598,-0.130355999,0.088481501,0.287501991,-0.701077998,-0.477430999,0.663892984,2.159640074,-1.633630037,-0.042442799,1.087239981,0.178424999,0.595035970,0.025934100,0.214518994,-0.894810021,0.008706590,-1.865200043,
-0.841925025,-1.131629944,-0.011784400,0.174880996,0.421310008,0.064757802,0.032465201,-0.583832979,-3.873169899,2.007440090,1.813189983,-0.885857999,-1.160930037,-0.019326800,-2.018059969,-0.039997298,-0.011831200,-5.848750114,0.237949997,-6.834449768,-1.033669949,0.779649019,0.837316990,1.422099948,-0.499781996,0.060611300,0.049171399,-0.545849025,0.224420995,0.046848800,1.059460044,-1.503059983,-0.379988015,-0.748975992,0.423191011,0.088769399,0.322872996,-0.146103993,0.901642025,-1.210330009,-1.892279983,-0.033723298,2.451760054,0.853311002,0.586413980,-0.704141021,-0.086788297,-0.657199979,0.318210989,-0.248211995,
0.028209500,-0.014657500,-0.029603001,0.023275800,-0.025509700,0.022765201,0.009261110,0.024187099,-0.034382001,-0.000612575,-0.045487799,-0.000194142,-0.020724799,-0.057235900,-0.027582800,-0.009312980,0.016904401,0.001659880,-0.010299900,-0.003607570,-0.012608200,-0.004809860,-0.017312400,0.017050700,-0.048928101,-0.029132700,0.013049300,-0.021007299,0.007514350,-0.025582200,-0.046845902,-0.037314799,0.009985530,-0.004988130,-0.011444200,-0.057608899,0.034528300,-0.050658099,-0.008075630,0.038738701,0.010950800,-0.014546300,0.032247800,-0.004183070,0.002419010,-0.045058899,-0.057837099,-0.053407300,-0.010155300,0.025925100,
-0.261687994,0.157585993,-0.278059006,-0.203463003,-0.561959982,1.387539983,-0.031155400,0.259752005,-0.237097993,0.887912989,-0.245360002,0.362607002,-0.574756026,0.238529995,-0.417346001,0.038301200,-0.402646989,-0.162641004,-0.207405999,-1.008759975,-0.078565300,-0.973192990,-0.147725999,0.498039007,-0.393348008,0.125110999,2.042999983,-0.173247993,0.071869500,-0.174992993,0.173981994,0.124821000,0.621132016,-0.278571010,-0.078159302,0.341006994,0.478873014,0.272130996,-0.966708004,-2.386590004,0.215901002,0.226618007,0.613394976,0.050532401,0.415107012,-1.017179966,-0.096520297,0.304906994,0.446043998,-0.389418989,
1.170019984,-0.001984120,-2.991389990,-1.475849986,-0.008788980,-1.299970031,-0.014899500,-0.378636003,0.050245699,0.078643098,-7.115769863,1.977190018,-1.208549976,-1.727309942,-0.727647007,-0.005607510,-1.996889949,0.963877022,0.269778013,-2.967720032,1.507779956,-0.489506006,-1.360620022,-3.481940031,1.002179980,-2.698980093,2.361399889,0.399383992,0.223361000,-0.778988004,0.612498999,-2.808650017,-0.792138994,-1.541499972,-2.256759882,0.869602978,-3.964370012,-0.715605021,-4.267049789,1.355419993,0.812250018,-2.920010090,0.715053022,0.197532997,-0.356256008,-1.802039981,2.458570004,-0.703509986,-0.182402000,-1.696969986,
-0.030705700,-0.028342500,-0.019910600,0.018791400,-0.053916000,0.030532900,-0.003425980,0.034061700,0.035143401,0.045468401,0.029721700,-0.019184200,-0.017208001,0.028939599,-0.028661400,0.041878901,-0.029166700,-0.002175530,0.018916201,0.011442300,-0.022014000,-0.021996500,0.023986099,-0.001614790,0.011663300,-0.043517001,-0.005027710,0.031495601,0.038657401,-0.033990201,-0.023608601,-0.008609150,-0.049198098,-0.026031001,-0.004327090,-0.006483490,-0.006021580,-0.053058401,0.048475701,-0.044847600,-0.001971660,0.010831300,0.011069600,-0.012170200,-0.019438900,-0.010815100,-0.018662799,0.002575060,-0.037724301,0.001625480,
0.451050997,-0.241623998,0.840137005,0.923183024,0.536212981,0.221986994,0.036526501,-0.258666992,-0.434154004,0.886425972,0.154450998,-0.168440998,-1.261749983,-0.099563301,-0.172009006,-0.001043850,0.080181301,-0.253926009,0.587430000,-4.626679897,0.275142014,-0.022804299,1.065289974,-0.094619498,0.008194420,-0.700693011,-0.106526002,0.170148998,0.542244017,-0.898185015,0.126322001,0.561646998,0.053508300,-1.048529983,0.979025006,1.029989958,0.467812002,-0.577786982,-0.051446401,-1.388499975,-0.082569800,-0.580416024,-0.529446006,0.128597006,0.105961002,0.013601900,-0.251619995,-0.782541990,-0.454953015,0.201022997,
-0.257748991,0.007769120,0.546539009,0.217324004,-0.321857989,-0.621312976,0.029488901,0.270711988,-0.297587991,-0.441866010,-1.812989950,0.136443004,0.285223007,-0.255151004,-0.341962010,-0.020564400,1.056720018,-0.098099902,-0.149066001,0.641879976,0.089954302,-0.070552200,-0.523364007,-0.140873000,-0.013606400,0.217264995,-1.026870012,0.087214597,0.303355008,-0.282667994,-0.078288503,-0.514405012,0.180104002,-1.175639987,0.451849014,0.660983980,-0.107170999,-0.369293004,0.444319993,0.759917974,-0.010868600,0.422134995,-0.117514998,0.109251998,0.562837005,-0.189557999,-1.089709997,-0.145578995,-1.258859992,-0.077339202,
-0.067987397,0.259909004,0.271899015,-0.799516976,-0.154063001,0.202140003,0.042335000,-0.764442980,0.064630501,-3.722769976,-2.185669899,0.138714001,0.031659499,0.576072991,-0.329295009,0.029420299,-0.057888400,0.089139998,0.097627401,0.226138994,0.138151005,1.206670046,0.875369012,-4.339230061,-0.165662006,-0.068117797,-1.094640017,0.965016007,-0.786303997,-3.815429926,0.283327997,0.229682997,0.141942993,1.319190025,-0.499103010,-0.517888010,0.832678974,-0.887425005,-1.160120010,1.539890051,-1.762869954,-3.346169949,-0.081006803,-0.819350004,-0.540409982,3.125619888,0.179996997,-0.554998994,0.628933012,0.182285994,
0.770374000,-0.215565994,-1.754619956,-2.478869915,2.003410101,-0.721525013,0.015258200,-0.283924997,1.175840020,-0.398952991,1.441939950,0.747895002,-0.217286006,-0.839312971,0.335283011,0.021712299,-1.648280025,0.576234996,-0.115875997,-2.393520117,0.814855993,-0.281515002,0.974672019,0.420008004,1.159459949,-0.986707985,-2.236569881,-0.259048015,-0.176360995,-2.161459923,0.458366990,0.444759995,0.387216002,-0.884072006,-0.264889985,-1.135480046,0.433301002,0.968544006,-0.988681972,-0.362266988,0.667078972,-1.279819965,0.350041002,0.006000540,-0.137502000,1.454460025,1.140550017,-0.474914998,-0.030710200,-1.045510054,
0.304704010,0.132604003,-0.823462009,0.185249999,-0.869023979,-2.305670023,-0.000779010,-1.695260048,-0.538825989,-3.453850031,-0.862352014,0.216622993,-0.110928997,-3.567739964,-0.923492014,-0.054800499,-0.384797007,0.300469995,-0.765390992,-2.360949993,0.160003006,0.113179997,-2.911629915,-0.034958899,-0.732563972,0.648643970,-1.346660018,0.463140011,0.184288993,-2.667700052,-1.650290012,0.889259994,0.257712990,0.184098005,0.505786002,-0.179602996,-0.079070203,-0.150935993,-0.388612002,-1.312960029,-0.451932013,-2.320940018,-2.769049883,-0.855194986,-0.065929100,3.497279882,2.500890017,1.119860053,-0.225273997,-0.058556698,
0.444323003,0.882416010,0.254180014,-0.378888011,-2.710170031,0.694127023,-0.002828680,-0.027485400,-2.125689983,1.617349982,1.539440036,0.630231977,0.696444988,-0.406266004,0.653692007,-0.026508400,0.630424976,-0.042395402,-0.308923990,1.965770006,0.418531001,-0.087714098,1.216310024,0.704831004,0.440450013,-0.182264000,0.240371004,0.212677002,0.220811993,0.713458002,-1.397680044,0.635464013,-0.939215004,-0.211088002,0.459841996,-0.302370995,0.839964986,0.677410007,0.250687987,1.172500014,0.143160000,0.512437999,-1.320109963,0.064741999,0.159086004,0.704572976,-0.079739101,0.852972984,0.214212000,-0.769840002,
-0.411163986,0.022888100,0.006601950,0.192049995,-0.328579009,-0.031024899,0.026473500,1.164029956,0.040665802,-2.016259909,2.511300087,0.043209299,0.047641698,-0.304040998,0.675009012,-0.039407901,0.185121998,-0.061374400,-0.222250998,0.016057899,-0.729907990,-0.021827800,-1.847959995,-0.030078100,0.216794997,0.325282007,0.118596002,-0.128755003,-0.842930019,-0.025323501,1.097779989,-0.150389001,-0.004479670,-1.134809971,-0.349343985,0.124067999,0.552133977,-0.159636006,-0.414710999,-0.183939993,-0.498268992,0.240107000,0.062474199,-0.103727996,-0.559473991,-1.248430014,-0.774572015,0.417728007,0.199057996,0.464163005,
1.175519943,0.935158014,-0.860886991,-3.389379978,-0.849021971,-5.580890179,0.028946299,0.271712989,-0.007122230,-4.153289795,-2.885270119,-0.944450021,-1.250530005,-7.217490196,0.558941007,-0.008677660,-3.819730043,-4.481329918,0.358375996,-6.762070179,-0.898576975,-0.099276498,-2.627739906,-2.826539993,-0.986338973,-1.010149956,-7.391640186,1.941930056,-1.569820046,-2.430510044,-1.190060019,2.026319981,1.070340037,0.124109998,1.004999995,-5.047959805,-0.521016002,0.021336099,-1.669759989,-1.594619989,-1.025650024,-3.151540041,-3.113019943,-2.207230091,-0.109258004,-1.258170009,-3.574779987,1.946089983,0.369042993,1.718170047,
-0.099325001,0.315548003,0.964266002,0.888089001,0.069967397,-0.817479014,-0.036222201,0.065832302,-0.002109530,-0.367341012,-0.020461001,-0.032207400,-0.079037197,-0.720422983,-0.451994985,-0.016210500,0.267789990,-0.519050002,0.052777302,-2.159049988,-0.395307988,0.272601992,-1.424139977,-0.321404994,0.312256008,-0.049783301,-0.063660800,0.081931002,-0.424775004,-0.260309994,-0.250604004,-0.216658995,0.184076995,0.174044997,-0.529449999,-1.454879999,-0.136620998,0.219612002,0.186513007,-0.550620019,0.274946004,0.031228701,-0.589924991,0.763257980,0.482102990,-0.567530990,-0.354689986,0.226922005,0.326848000,0.515870988,
0.277960986,-0.195605993,-2.284149885,-0.816565990,0.946003973,0.130998001,0.037527200,0.834612012,-0.077765800,-0.008237630,-2.430890083,0.417645007,0.271494001,1.676069975,0.404215991,-0.009304070,-0.710559011,0.031562701,0.196822003,-2.851340055,0.382560998,1.061079979,0.638819993,-0.771555007,-0.411309004,-0.282301992,-1.897690058,-0.634159982,-0.789406002,1.330250025,1.174829960,0.326766014,0.258302987,0.796642005,-0.265610009,-0.388925999,-1.178500056,-0.155965000,-0.664031029,0.808364987,-1.267429948,-1.255239964,0.109048001,-0.916561007,-0.184442997,-1.236969948,0.445293009,0.574078977,0.456535012,0.104195997,
-0.078977004,0.175733998,-0.201821998,-1.983350039,-0.454557002,1.317860007,-0.002199610,-0.319357991,-0.390269995,-1.732800007,-0.109172001,0.584493995,-0.152172998,0.699424982,0.363276005,0.034543902,-4.154170036,-0.314254999,0.219547004,-2.078999996,-0.898359001,-0.274042010,1.429700017,-1.225559950,0.469736010,0.853902996,0.525757015,0.696125984,-0.847171009,-0.053297698,-1.811079979,-0.205403000,0.140389994,0.522538006,-0.883679986,-0.871895015,0.581972003,0.453402013,-1.156900048,-0.946675003,-1.458699942,-0.996177018,-1.251270056,-0.729031980,-0.439103991,-0.446527988,-3.981659889,-0.921316028,0.212640002,0.219037995,
-0.082384303,0.244139999,0.692247987,0.617725015,-0.079527199,-0.683525026,-0.042204700,-1.605509996,-0.264562011,0.350515991,-0.197919995,-0.462924987,1.283210039,-0.501169980,-0.837683022,0.055383701,1.750319958,0.409590989,-0.780973971,-1.122439981,0.163525999,-0.743643999,-0.229470000,-0.040991500,-0.402678013,-0.272547990,0.233025998,-0.442366987,0.983758986,-0.396973997,-1.244510055,0.414099991,0.207912996,0.049958501,0.717302978,0.427848995,-0.057853799,1.475190043,1.053410053,-0.134894997,-0.103361003,0.651573002,-0.620015979,0.612241983,0.163620993,1.838799953,-0.464767992,-0.251417011,-0.654070020,-0.439821988,
0.128414005,-0.034014098,0.329017997,-0.605395019,0.524792016,0.610711992,-0.014646500,-0.244682997,-0.037072498,0.828643024,1.299489975,0.234409004,-0.246202007,-0.494525999,-0.103044003,-0.008376640,0.304984003,0.457673013,-0.331149995,1.184710026,0.199777007,-0.106967002,0.415286005,0.120402999,0.470854014,-0.689733982,-0.730894983,-0.288201988,-0.019111199,0.671728015,-0.160585001,-0.144602001,0.040082201,0.937853992,0.247484997,0.092466302,-0.298871011,0.649695992,-0.109947003,0.512495995,0.927524984,-0.539910972,0.410724998,-0.150582001,0.724620998,1.743499994,0.761548996,-0.558625996,0.099039197,0.357607991,
0.568571985,-0.672335982,0.953872025,0.670127988,0.566438019,0.015817400,-0.000557854,0.616301000,0.130131006,-1.265490055,-0.542334020,0.840408027,-0.322136015,-0.906440020,-0.182871997,-0.046578299,1.200479984,0.264102012,0.060885798,-3.024990082,-1.267300010,-0.379779994,1.757429957,1.113669991,0.431033999,0.236132994,-0.288915992,-0.362895995,-1.493209958,0.844330013,-0.092207201,-0.458593994,0.204083994,-2.284630060,0.889101028,-0.939466000,1.080600023,0.904047012,0.638092995,1.927170038,-2.380850077,0.566534996,-0.301108003,-0.094016403,-0.088715501,0.787114024,0.227388993,0.051342402,0.327277988,0.132239997,
-0.043363500,0.069107398,0.360154986,0.481225997,0.512753010,-0.432076991,0.027577600,0.629580975,0.087504603,-0.041314900,-1.103150010,-0.425534993,0.080918401,0.794762015,0.900245011,-0.011113800,0.279642999,0.072655998,0.003045030,-0.481889993,0.078557499,0.024786601,-0.367505014,-0.415003002,0.597893000,-0.003436010,-0.825154006,0.596476018,-0.224910006,-0.296375006,0.330287009,-0.473695993,-0.184235007,0.617029011,0.069486499,0.583680987,0.900547028,-0.322515011,0.079209700,-0.628207982,-0.343387008,-0.768414974,-0.047046799,0.617794991,0.339937001,0.264416993,1.523689985,-0.506461978,-0.124444000,-0.060050301,
-0.238049999,0.183927998,0.887615979,-0.062139198,-1.742349982,1.307919979,0.009118930,-0.584867001,-0.060176000,0.159134999,-2.575680017,-0.186995000,-0.547357023,2.588740110,0.248780996,0.023051400,0.348996997,-0.862848997,0.268552005,-3.046020031,-0.745049000,0.095280103,-0.974337995,-1.599120021,-0.570674002,1.511659980,0.610947013,-0.102165997,-0.285905987,1.004179955,-1.975810051,0.023179701,0.015544500,-0.048052199,1.942149997,-0.687691987,0.216326997,-0.667801023,0.094033897,0.891149998,-0.621170998,1.288499951,-1.356989980,-1.091670036,0.018852200,-1.152899981,-1.816869974,0.486909986,0.042261101,0.787464976,
-0.041964300,0.175050005,-0.110549003,-1.425289989,-1.063130021,0.862149000,-0.005324680,-0.875036001,-0.297053009,-1.383559942,1.186900020,-0.419963986,0.148690999,0.283324987,-0.324151009,0.035768300,-0.968465984,-0.184264004,-0.291296005,-2.529429913,-0.107081003,-1.162549973,1.278880000,0.257084996,0.119285002,0.319932997,1.539649963,0.484207004,-0.422116995,-1.267570019,-0.143048003,-0.685563982,0.350995004,2.595079899,0.191563994,-0.910688996,0.066363499,0.566884995,0.447452992,-0.915005028,1.056089997,0.190632999,-0.586857975,-0.422915995,-0.103637002,-2.051219940,-2.195199966,-1.880740047,-0.194848999,-0.943157971,
-0.093404301,-0.221672997,0.181199998,0.454192996,0.322575003,0.209762007,-0.011267300,-0.731582999,-0.318684995,0.933970988,0.696799994,-0.823215008,0.086468101,1.744510055,-0.377553999,0.017131399,-0.203424007,-0.309962988,-0.063326098,-0.122060001,0.314815015,-0.157947004,0.810528994,-1.559769988,0.133689001,-0.008419930,0.675741971,-0.351996005,0.183753997,0.711880028,-0.637135983,-0.608635008,-0.013714400,-0.013207700,-0.057093199,-0.320308000,0.114848003,-0.441278994,0.238435999,-0.368474990,0.410207003,0.325138986,0.303671002,-0.290138006,0.497386992,-0.323015004,1.084100008,-0.155609995,-0.141011000,0.227440000,
0.110849999,
-0.112896003,
-0.585766971,
-0.196507007,
-0.016531199,
-0.039218102,
-0.017478600,
-1.549569964,
0.135573000,
1.124940038,
-0.016287500,
1.312049985,
1.809780002,
-0.884018004,
0.292136997,
-0.207323000,
-0.014715900,
0.242530003,
0.325168997,
0.472391009,
0.804681003,
-0.003655930,
-0.032890700,
0.301943988,
0.902616024,
0.190028995,
-0.047453899,
-1.168820024,
-0.007853740,
-0.054647099,
0.303853989,
-0.010248300,
-0.160510004,
0.052308299,
-0.319059014,
0.469619989,
0.277667999,
-0.868254006,
0.287171006,
1.220070004,
-0.099896200,
0.842662990,
1.410580039,
-0.057873700,
-0.442158997,
-1.380290031,
-0.569720984,
0.123139001,
0.635475993,
0.186057001,
-1.017969966,0.682089984,0.461356014,1.938989997,-0.012134700,0.030893000,0.025745099,-1.022860050,-0.638413012,0.203769997,0.021855099,0.479182005,0.333088994,-3.666680098,-0.757048011,-2.802020073,-0.030013001,-0.633921981,1.074779987,0.870495975,0.137749001,-0.015503100,0.019404201,0.074106298,-0.721265018,-0.987267017,-2.035020113,1.083420038,-0.032733999,-0.217041001,-1.027799964,-0.009628900,0.053778101,-0.852855027,-0.856817007,0.888638973,-3.614550114,-1.874609947,0.226497993,-0.183976993,-1.201040030,-0.623634994,-0.081566200,-0.140301004,0.291455001,0.357820004,-1.992230058,0.117489003,-0.238039002,-1.279979944,
-0.939494014,-0.075959302,0.268126011,-3.748879910,-0.028435700,-0.070988603,0.030361800,-2.926549911,-0.477863997,0.310389996,0.035117701,-0.164786994,-0.326498002,-1.267930031,-1.095149994,-1.654219985,0.045373101,-0.821753025,0.477649987,1.045269966,0.192282006,0.026026599,-0.018611800,-1.015300035,0.204778001,1.513929963,-0.315539986,0.404673994,0.006140860,-0.334196001,-0.596324980,-0.009560810,-0.519177020,-0.170140997,-0.096563302,1.012799978,0.796598017,-0.266447008,-1.783489943,0.638239026,-0.352072001,-0.428330988,1.190950036,-0.502821982,-1.058259964,-1.311969995,-1.364439964,0.537594020,0.243375003,1.193689942,
0.688760996,1.483960032,-0.976797998,1.424070001,0.039715700,-0.024916099,-0.008976500,0.463768989,-0.603218019,0.859255016,-0.001936050,1.381700039,-0.024947099,-0.353967011,-1.887349963,0.425347000,-0.032805599,0.297888011,0.969883978,1.782160044,1.120270014,0.046764400,0.001494380,0.846494973,-1.034909964,0.036311999,1.132439971,0.939544976,-0.001750380,1.894379973,0.310876995,-0.052431699,-0.676306009,-1.533980012,4.004220009,0.844624996,1.438789964,0.391604006,0.753089011,0.652549028,-0.372449994,0.316399008,0.993261993,-1.230190039,1.448770046,0.981638014,1.502940059,1.262019992,1.631620049,0.825731993,
-0.522773981,0.365108997,0.008782900,-0.935037017,0.048250198,0.055220701,0.050567199,0.214128003,0.085061602,0.121661000,-0.014545500,0.023604499,-0.883185983,-0.655762970,1.153290033,1.195799947,-0.032729100,-0.025209900,-0.384685010,-0.238709003,-0.459322989,0.007616980,0.026930301,0.171828002,0.152209997,0.733030021,0.664304018,-0.467224985,0.002307260,1.489030004,0.141433999,0.030252101,-0.412858009,-0.393178999,-0.061687399,0.104580998,0.316994995,0.607365012,1.208029985,-0.856956005,-1.398190022,-0.382290989,-0.893296003,0.101499997,0.879768014,0.015295400,0.955076993,-0.195829004,0.108957000,-0.228532001,
1.356150031,-0.581027985,-0.076769903,0.825150013,0.006874880,0.014815900,-0.022190699,0.798798978,0.021522401,0.129958004,0.043674100,-3.514300108,-0.112292998,-0.686739981,0.558269978,-0.295994997,0.021475101,0.060460299,-0.098929897,-0.573388994,1.134439945,-0.011668600,0.056722201,0.165989995,0.559952021,0.190510005,0.070381001,-1.046120048,-0.010579000,0.162802994,0.146377996,0.050572000,0.096778601,-0.355547011,-0.368946999,-1.254819989,1.257750034,1.114519954,0.510465026,-1.235820055,0.026446300,0.873365998,0.540130973,0.132998005,0.145999998,2.840189934,-0.771955013,0.101910003,1.059180021,1.380689979,
-0.051339298,0.091513202,0.562318027,-1.407819986,-0.021100501,0.023927700,-0.030191500,-0.786264002,0.275743008,0.261263013,-0.012496900,1.356080055,0.305063993,0.565523028,1.113520026,0.312869012,0.007543710,0.075361297,-0.239878997,0.062236201,0.259716004,-0.012325500,0.007442940,-0.236623004,-0.108699001,-0.803553998,-0.477367014,0.766571999,0.034413401,-0.416175991,-0.477701992,-0.029892400,-0.389591008,-0.210033000,-0.401661992,0.038005799,-0.882647991,0.067592204,-0.771614015,0.697453022,1.640689969,-0.490474999,-0.181029007,-0.077820703,-0.258017987,-0.442997992,-0.832876027,0.144690007,-1.197999954,0.607086003,
0.852557003,-0.470867991,-0.055357601,-2.062429905,-0.012032900,0.023504799,-0.041015901,1.754979968,-1.764899969,0.265810013,-0.058713701,0.704665005,0.492181003,-0.828880012,-0.425698996,-0.063204698,0.022018399,-0.722917974,0.569997013,-0.561002016,1.471979976,0.026480200,0.048661601,0.342613012,-0.289887995,-0.710464001,0.391209006,-0.592275977,0.049639601,-0.373807997,0.140768006,0.016224200,0.862299979,0.899339020,-1.209869981,-0.017756499,-0.597033024,-0.300188988,-0.021258401,0.758549988,-0.610599995,0.155389994,-1.149070024,1.146980047,-0.166894004,0.906961977,0.802248001,-0.225466996,-1.107699990,-0.028953001,
1.048740029,1.110970020,-1.180430055,0.910755992,0.027410300,-0.026210500,0.036800399,-0.967880011,-0.004805040,-2.557780027,0.014864000,0.433411002,0.625533998,0.158751994,-0.663771987,0.317286015,0.037702501,1.376150012,-2.906840086,-0.210159004,-0.070113003,0.015689800,-0.002032600,-0.254278988,1.932420015,0.628427982,1.081969976,1.380439997,0.029649099,0.647715986,1.174929976,-0.008120680,0.534582019,-0.239968002,-3.311549902,0.056610201,0.269367993,0.972751021,0.049811199,0.641157985,-2.012039900,0.431933999,1.011700034,-1.576140046,-0.814459980,0.286060989,1.828619957,0.507140994,0.126938000,3.391819954,
0.029929999,-0.134960994,0.225869000,-0.376215994,-0.019170800,0.039861601,0.012527600,-0.386837006,-0.204539999,-0.073989503,0.028471701,-0.113220997,-0.298400998,0.548225999,-0.206253007,1.295330048,0.033567499,0.189768001,-0.001345580,0.670718014,0.583006024,-0.018145001,-0.021685800,-0.052960299,-0.159869999,0.184261993,-0.225967005,0.058348000,0.036156099,-0.158836007,0.035654899,0.026314000,-0.450866997,-0.749238014,0.818567991,0.300471991,-1.021939993,-0.132730007,0.309026986,-0.010599400,-0.009572040,-0.061522901,-0.402107000,0.121905997,-0.518836021,-0.160675004,0.829782009,0.530251980,0.652795970,0.346282005,
0.216289997,1.243980050,-0.002628220,1.775799990,-0.020949600,0.007988500,-0.024340101,0.203021005,0.362816989,-14.959300041,0.038268000,0.648961008,0.540776014,0.194043994,0.194389001,1.147789955,0.015547800,-0.027232800,-1.083099961,-0.503449976,0.344204009,-0.029741300,-0.044846300,0.528958976,-3.470920086,0.458554000,1.933619976,0.834644973,-0.048544399,-0.087647997,1.350289941,-0.018878801,-0.325908989,0.441563994,-0.280889004,0.594469011,1.605659962,0.075105302,0.275550991,0.701210976,-1.153779984,1.129410028,1.153499961,0.596831024,-0.961076975,1.551939964,0.205304995,0.591064990,0.193583995,1.725960016,
1.209310055,0.420542985,-3.258140087,1.682250023,-0.037540499,-0.021667600,-0.044832900,-0.861976981,0.789201975,-0.316096008,0.017299300,-1.834980011,-0.472815007,-0.169683993,-0.289914995,0.896158993,0.048210301,1.630789995,-0.660351992,-1.492290020,-0.289121985,0.027867001,0.020323200,2.824310064,-1.241000056,0.959475994,0.163285002,-2.915970087,-0.038557000,-7.020679951,-0.924376011,-0.032493699,-1.478379965,-0.966853023,-1.207180023,-0.354097009,0.727294981,-2.023509979,0.101314001,-1.499130011,-3.773050070,0.372575998,-3.039619923,-0.429551989,1.825690031,0.130452007,3.022799969,-0.173333004,-8.962340355,-7.813300133,
-1.289430022,0.121445999,-0.801863015,-0.062182698,-0.025683200,0.062752001,0.033720098,0.998941004,0.144501999,0.262486011,-0.018790299,0.482477009,-0.046020001,0.272065997,0.605668008,0.124728002,-0.038990099,-0.319249988,-0.328364015,1.512969971,-0.121324003,-0.034437101,-0.005427220,-0.038982201,-0.077498101,0.614493012,-1.411870003,-2.010270119,0.036203999,1.029129982,-0.409612000,-0.033870202,0.429080993,0.263444990,0.565380991,-0.139387995,-0.140082002,0.168351993,1.024199963,-0.466796994,-1.616770029,-0.108172998,-0.190273002,-0.215765998,0.274078012,-2.091909885,-0.147119001,0.473205000,0.190957993,-1.394400001,
0.222705007,0.403607994,0.032347899,0.265657991,-0.001903160,0.019139901,-0.014776000,-2.315299988,0.398328990,0.009261400,0.014644000,-0.886798024,0.238783002,3.449870110,-0.534156978,-3.626879930,-0.030514101,-0.915894985,-0.378123999,-0.137207001,-0.155563995,-0.039145000,-0.030117000,-2.151489973,-1.101410031,0.815122008,0.112365000,-0.437036991,-0.010447100,0.246828005,-0.697960973,0.000451890,0.636268020,0.958891988,-0.073975503,0.572519004,0.253567994,-3.324009895,1.229009986,0.875868022,-0.006987340,-0.151574999,-0.835506976,0.274960995,-0.380928010,0.363402992,-0.651253998,-0.555813015,1.039849997,-0.234184995,
-3.748159885,1.082720041,-1.411759973,-0.181702003,-0.015060500,-0.031423699,0.018875601,-0.980912030,0.579885006,0.091662303,-0.039768599,0.759594023,-1.672299981,-1.097820044,-0.789457977,-0.862133980,-0.014689800,1.210260034,-1.901389956,-2.468480110,-0.736009002,0.042647701,-0.019616900,1.112490058,-5.215479851,-0.475865006,-0.039797001,-0.042395100,-0.023104100,-0.890433013,-0.039065398,-0.034500800,-2.339420080,-0.173712000,1.628769994,0.096659198,-2.141309977,0.126947999,-0.824154973,-0.559728026,1.426570058,-2.044579983,1.701429963,0.076690897,-3.020220041,-2.604029894,-2.421649933,0.956287980,-0.356664985,-0.718724012,
-0.623753011,-0.163099006,0.348513991,0.771997988,0.003240410,-0.048899502,-0.042631499,-0.312696010,-0.472768009,-0.104700997,-0.022612400,-0.023016600,0.132698998,0.665153980,-0.777779996,-0.088409699,-0.037633602,0.895555019,-0.047168698,-0.810732007,0.246011004,-0.023844000,-0.034009099,0.376771003,0.304223001,-0.628180027,-0.064819202,0.297105014,0.011090400,-0.120747998,0.338252991,0.028890900,0.397758991,-0.238828003,0.820387006,0.099191703,0.211050004,-0.220804006,-0.177772000,0.167916000,-0.506749988,0.378176987,0.723755002,0.224209994,0.175805002,0.336652994,-0.475955993,0.125201002,-0.203201994,0.948391974,
-0.044589501,-0.091163702,-0.756953001,0.030500401,0.021211101,-0.004230330,0.002514140,0.612582982,0.102473997,0.060694002,0.039520498,-0.141097993,0.106285997,0.065387197,-0.005510070,-0.754266024,-0.031695802,0.482246995,0.117847003,0.060378101,-0.343668014,-0.028302999,-0.037686501,0.468317002,0.141458005,-0.021014100,0.151132002,-0.117936999,0.039561801,0.219243005,-0.026926000,-0.011699500,0.269371003,-0.663186014,0.783043981,0.102448002,0.647499979,0.510577023,0.161890998,-0.661804974,-0.357490987,-0.455365002,0.267453998,-0.059190299,-0.156270996,0.090016603,0.492808014,0.017331000,0.142867997,-0.962318003,
0.445780993,0.252680004,-0.370047987,0.913469970,-0.030838599,0.024130700,0.041696899,-0.700522006,0.232453004,-0.147879004,-0.014948300,-0.453871995,0.148956001,-0.494365007,1.047009945,-2.992079973,0.030464301,-0.199830994,0.126806006,0.132238001,0.160532996,0.016017299,0.017339000,-0.124343000,0.622798026,0.002936790,0.278800994,0.181755006,0.031271301,0.055672299,0.035902899,0.040107101,-0.539914012,-1.232149959,0.524094999,0.159638003,0.322539002,1.752490044,0.692636013,0.226108998,0.720816016,0.219623998,-0.471109003,-0.247648999,0.228897005,-0.702151000,1.123600006,0.071168698,1.517359972,0.995275974,
0.059296701,-2.076050043,-0.571637988,0.747792006,-0.020164801,0.068310402,0.016672401,-1.559090018,0.314779997,0.072061598,0.032627400,0.029290700,0.083654799,-1.148419976,0.061252899,0.192258000,0.051466800,-0.658486009,0.342525989,0.161697999,0.198310003,0.018813200,0.002199290,-0.720880985,-0.019182300,-0.040323298,-0.546904981,-2.274230003,-0.004680750,0.629136980,0.084764399,0.021029700,0.261085004,0.324129999,-1.865239978,-0.161079004,-0.346157014,-0.946171999,0.027049201,-0.008821110,1.101690054,0.294573992,0.196251005,-0.441053003,0.579909027,-0.789201021,-0.275736004,-1.121070027,0.277727008,0.565458000,
1.206380010,-0.637735009,0.946452975,1.456640005,0.042468902,-0.023303701,-0.002948580,0.268234015,-0.253226012,-0.249239996,-0.015985699,-0.254958004,-0.226175994,0.171413004,-0.353814989,0.887878001,-0.013337200,0.614594996,-0.068662703,-0.523241997,-0.233962998,0.045312800,0.007455290,0.562330008,0.602101028,-0.689804018,0.301097006,-1.080999970,-0.035840899,-0.109195001,0.189769998,0.034269601,0.351700008,0.754224002,0.743385971,-0.423671007,-0.514217019,0.059351400,-0.326263994,-0.434643000,1.453179955,0.316314995,0.303918988,0.516391993,0.093979403,0.211225003,0.374915987,0.185516998,-0.233739004,-0.750425994,
0.150536001,-0.119846001,0.179205999,0.170946002,0.044715699,-0.021114901,0.048992898,0.536769986,0.060940601,-0.197064996,0.008636140,0.049402900,0.200636998,-1.200569987,-0.126791000,-1.277320027,-0.003487160,-0.434359998,-0.121769004,-0.169726998,0.887130976,-0.002535740,-0.006066920,0.897652984,0.648932993,0.425756007,0.314496994,-0.211848006,0.003051170,-1.312150002,0.007910980,0.031570900,-0.156902000,-0.093346700,0.646685004,0.453637004,-0.529779017,-2.240469933,0.742416024,-0.223592997,0.801337004,0.730391979,-0.220781997,0.399765998,-0.370876998,1.455780029,-0.569359004,0.135713995,-0.712581992,-2.470700026,
-0.053699400,-0.076133303,-0.042749699,-0.003049200,0.046023700,0.008627770,-0.010345700,0.028651500,-0.067382999,-0.004439510,-0.049666900,-0.034112900,0.007200440,-0.004071150,-0.057804398,0.039189499,0.020349501,-0.089169502,-0.003423990,-0.044227600,-0.009108600,0.008991490,-0.037369601,-0.010940000,0.009056370,-0.055376999,0.015289200,-0.063931100,-0.000161034,0.046206601,0.024979200,-0.045984700,-0.046737101,-0.004212860,0.010174500,-0.001962560,-0.050502900,-0.006773980,-0.063637100,-0.032770399,0.002488740,-0.011117100,-0.008356130,-0.054523401,-0.020069400,-0.037488502,-0.022061300,-0.012411600,-0.040327899,-0.018451801,
2.855340004,0.188435003,-0.226971000,0.305271000,0.040641401,0.010833200,0.013859900,3.163320065,0.987257004,0.033589698,0.006626670,1.926049948,-2.632169962,-0.603608012,0.561927974,-3.106129885,-0.007122090,0.675719023,0.011398300,0.861120999,0.201647997,-0.049531698,-0.032054301,-0.333175987,0.732164025,0.053641599,-0.244374007,1.148069978,0.043429099,-0.221313998,-1.650799990,-0.044059101,0.079067998,1.154330015,0.406055003,-0.818575978,-0.707614005,0.627574980,1.059110045,-1.510599971,-1.451269984,0.129209995,1.046390057,-0.091850303,-0.815303981,0.195191994,0.971726000,0.689388990,1.186509967,0.182266995,
1.840690017,-0.103446998,-0.864853978,0.252209991,0.033827499,0.009372670,0.006191710,0.550132990,-0.741470993,0.074244797,0.006499510,-0.332926005,-0.150894001,1.196470022,-0.156404004,3.226140022,0.015813200,0.367262006,0.340245008,-1.206269979,-1.141600013,-0.046961300,0.006568120,-0.546719015,0.840128005,0.066803597,0.251471996,0.396151990,-0.045809198,0.333187014,-0.313935995,-0.011043100,-1.182430029,0.824045002,0.245461002,-0.674561977,1.294589996,0.832522988,0.245054007,0.693750978,0.798896015,-0.059450101,-0.084482796,-0.244902000,-0.036248300,0.313264012,0.720023990,0.024137801,0.665786982,0.756379008,
-1.407600045,-0.306529999,0.761237025,0.382571995,0.015589400,0.017564500,0.048616901,-0.792566001,0.222861007,-0.237781003,-0.015142400,0.368669003,-0.295127988,0.812843025,0.540046990,1.013710022,0.026118400,-0.155187994,0.124909997,0.261922002,-0.145379007,-0.019657601,0.024535799,0.719317973,1.085070014,-0.459313989,-0.522180974,0.176506996,0.000848178,0.127151996,-0.144537002,-0.004457930,0.356368005,-0.738847017,1.176200032,0.309022993,-1.276290059,0.805548012,-0.112954997,0.146439999,-0.106958002,-0.951563001,0.167763993,0.966919005,-0.597286999,0.293253988,-0.189006001,-0.243446007,0.170365006,-0.410887003,
1.043730021,0.114151001,-0.012487600,0.813421011,-0.019176800,-0.013487100,0.003816380,-0.345629007,-0.134137005,-0.038585301,0.040363900,-0.512960017,0.014489200,-0.641237974,0.364457995,0.261087000,-0.023965700,-0.044510800,0.015942400,-1.194929957,-0.119870000,-0.024664899,0.001999100,0.714510977,0.342687994,0.041383699,-0.432141989,-1.433179975,-0.042007200,0.191529006,-0.814673007,0.025889801,0.131607994,0.074795797,-0.285335988,0.282299995,0.625366986,0.658059001,0.649650991,-0.578024030,0.611469984,-0.284951001,0.444144994,-0.070237502,0.424668998,0.955642998,0.006827420,0.296799004,0.685582995,-2.064960003,
-0.793070972,-0.035747498,0.427547991,1.105720043,-0.014497100,-0.015440600,-0.015825801,0.829793990,0.370025009,0.564686000,-0.017923901,-0.083344102,0.657642007,-0.964959025,0.497045994,-0.949344993,0.014608800,-0.279033005,-0.270262003,1.111179948,0.534612000,-0.019714899,-0.036301199,-0.634733021,-3.722589970,-0.778738976,-1.478639960,0.156543002,0.008540370,-0.937840998,-0.971557021,-0.003342200,-1.603909969,1.019700050,-1.042680025,0.616739988,-1.513509989,-0.146560997,-0.969470978,0.064013399,-0.928902984,-0.471662015,0.190358996,1.673200011,-0.824424982,-0.922948003,0.188960001,-0.432648987,-0.377891004,-0.207044005,
1.333870053,0.059129901,0.003619320,0.974011004,0.019805999,0.033834599,0.036561500,2.324520111,0.220202997,0.071427003,-0.018547401,0.171947002,-0.272298992,2.588459969,0.882664025,1.780369997,0.034203999,-0.735156000,-0.323794991,-0.526422024,0.071953803,0.018721700,0.008026400,-0.721031010,0.506012022,1.240120053,0.102822997,-0.151657000,0.025053600,1.026020050,1.212030053,0.034780499,0.108436003,0.433436006,2.258599997,-0.333404988,0.999262989,0.835891008,-0.304461002,-0.358006001,1.423769951,0.304398000,2.039849997,0.614124000,-1.182450056,2.184350014,1.671519995,0.163082004,-1.274209976,0.536287010,
-1.002539992,0.318953991,-0.288682014,0.034377899,-0.005376670,0.020420300,-0.036266498,-0.343645990,0.288475007,-0.096991099,0.040796999,-0.538155019,0.045663700,-0.900581002,-0.202386007,-2.007940054,0.043233000,0.104013003,0.353419006,0.750211000,0.663744986,-0.024502000,0.044811599,0.452203989,0.148304000,-0.001185760,-0.212123007,-0.739850998,-0.035396300,1.545650005,-0.415158987,-0.042866401,0.682816029,0.820222974,-0.506066978,0.422710001,1.019410014,-0.154054001,0.829235971,-0.111553997,0.324642986,-0.725730002,-0.590324998,-0.574135005,0.186803997,0.738146007,1.713709950,-0.282512993,-0.089242697,-3.432280064,
0.804687023,-0.250335008,0.670324981,1.636549950,0.035995100,-0.025087301,0.027100001,-7.654759884,1.072630048,-2.153529882,-0.014055800,0.553029001,0.020132899,0.122501999,0.332453012,-4.991109848,-0.032404602,0.213287994,0.890326977,0.352977008,0.286381006,0.011708100,0.008233400,0.441661000,0.931447029,0.101011999,-0.273766011,0.711269021,-0.032051399,0.020551000,0.149666995,0.030464601,1.726269960,0.626008987,0.398124009,0.305593014,-0.556762993,0.438802987,1.972869992,0.082964398,0.751518011,-0.311100990,0.504045010,-1.270110011,0.205350995,0.610493004,0.292551994,0.240061998,-0.081530400,2.714799881,
-0.610760987,-0.749737024,-1.459679961,0.291550010,-0.014082100,0.017425001,-0.006160380,-0.802796006,0.085194200,0.099786803,0.031703599,0.127211004,0.413567990,-0.823630989,-0.982591987,0.798464000,0.000485846,0.348488003,-0.127742007,0.434864014,-0.094716497,0.010236300,0.042700201,-5.804309845,0.194659993,-0.510060012,0.028284101,0.290006995,0.015000500,-0.038745601,0.218086004,0.020084700,0.010047300,0.164626002,-2.168070078,0.036325701,0.551642001,-0.123773001,-1.423050046,-0.269515008,0.484932989,-0.031429600,-0.008411960,-0.279035002,-0.661529005,0.347380012,1.091099977,-3.270819902,-0.216154993,-2.418550014,
-0.640574992,0.106173001,0.323336005,-0.744113982,0.027692899,-0.011444200,-0.011819000,0.479880005,-0.119703002,-1.673640013,-0.036881600,0.414541006,-0.063659601,0.022825100,1.255329967,1.002030015,0.041937102,-0.226416007,-0.138887003,-0.553797007,0.086029097,-0.043386400,0.026830601,-0.370023996,0.116772003,-0.587153971,0.350654989,0.155959994,0.003680450,-0.023993401,0.366293997,0.005447970,0.094009303,0.333447993,1.267609954,-0.097867802,0.369789988,0.298808992,-0.310101986,0.368075013,0.676828980,-0.490267009,-0.409285009,0.134380996,-0.205989003,0.200931996,0.216477007,0.163817003,-0.290592998,0.253160000,
0.356334001,0.300262988,0.404464990,-0.060202301,0.005023330,-0.007173340,0.046814699,-0.844111025,0.105369002,0.063208997,-0.003627670,0.114872999,-0.686569989,1.017279983,0.315618992,-3.841779947,-0.029202800,-0.287322015,-0.458577007,0.183322996,-0.151216999,-0.006811320,0.033842199,-0.249125004,0.295946002,0.274576992,-0.045099098,-0.096705899,-0.029885501,0.421611011,0.538625002,-0.022186400,0.340187997,-0.444045991,-0.661303997,-1.077890038,-1.759850025,1.271469951,0.044413101,0.591102004,0.412039012,0.020913700,-0.168109998,-0.248006999,-0.217354998,0.279985994,-0.171372995,0.163322002,0.805109024,-0.067558900,
-0.164763004,0.338694990,-0.357279003,-0.361447006,0.003413630,0.043441199,-0.009991850,0.024022000,-0.145105004,-1.253859997,0.043636002,0.326965988,-0.228573993,1.041509986,2.508199930,3.674710035,0.016032601,-0.331851989,0.885797024,-0.336885005,-0.618696988,-0.000874399,0.024403499,0.745541990,2.419970036,-0.171257004,1.156520009,0.557730973,0.006677850,-0.010794700,1.046759963,0.039161999,1.409809947,-1.201730013,1.148620009,0.108241998,0.878288984,-0.281190008,-0.337702990,0.492594987,-0.497350991,0.307619005,0.250986010,-1.586760044,0.598953009,0.996657014,0.144939005,0.679535985,0.390011013,0.948177993,
0.015630299,-0.964854002,0.430945992,0.250845999,-0.015149100,-0.019078201,0.018087100,0.345582992,0.536077023,-0.020164300,-0.027613500,-0.733780026,0.256253988,-0.358680993,0.536817014,0.191174999,-0.028690500,0.156909004,0.257975012,0.274049014,0.606754005,0.015911100,-0.042087901,-0.186983004,0.092999302,0.631503999,-0.791898012,-0.313881993,0.000248765,0.345946014,-0.214646995,0.043070201,0.077425599,0.439229012,0.484308988,-0.035716102,0.223343000,-0.100022003,-0.560840011,-1.596549988,0.260426998,0.075878598,0.243258998,0.552389979,-0.107111000,0.499145001,0.011336000,-0.832792997,-0.348352998,1.858160019,
0.399001002,0.485951006,-0.318340003,1.622879982,-0.005643040,0.041031402,-0.036028001,1.417780042,0.290574998,-0.270747989,0.004405730,0.309900999,0.470470995,-6.463679790,-0.335774988,1.231070042,0.038141001,-0.601668000,-0.610328019,-1.199990034,-0.220293000,-0.007584010,-0.008253960,-2.667020082,-0.857075989,-0.989167988,-6.193260193,0.650371015,0.013035200,0.450022012,-0.059172299,0.027411900,1.315780044,-0.919659972,1.899580002,0.174884006,1.839319944,1.974149942,1.106520057,-1.754019976,0.917119026,0.415688992,-0.427731991,-0.852765024,0.128262997,0.874288023,0.422154993,0.047020901,-0.296346992,0.776719987,
0.327428997,-0.612275004,-0.776575029,-1.007359982,-0.009233090,0.051084999,0.004972630,1.349789977,1.018730044,0.383612007,-0.036378801,-0.173206002,-0.153860003,0.336486012,-1.317540050,-0.900137007,0.045830101,0.160613999,0.235801995,-0.712342024,0.636465013,-0.008518350,0.062324598,-0.263844013,-0.304847986,-0.357865006,0.640266001,-0.802408993,0.012513000,-2.092519999,0.059764098,-0.008419430,-0.308728009,-0.889433980,-0.493882000,0.439422995,-0.756271005,0.507812023,0.650650024,0.488346994,-1.252040029,0.201869994,0.201435000,-0.029617401,-0.363575995,-1.029870033,0.255055010,0.441015989,0.489825010,1.268100023,
0.809063017,0.480693012,-1.102249980,0.089962400,0.037277400,0.015582600,-0.026597399,0.800234020,0.076272599,0.225464001,0.024116000,-0.637980998,-0.020573400,1.238970041,0.018080501,1.371880054,0.030968901,0.939441025,-0.214232996,1.152969956,-1.488240004,-0.010044400,-0.043749601,-0.776820004,0.462045014,0.265670002,-0.023818200,0.514376998,0.022882501,0.016273299,0.493748009,-0.041171599,-0.955583990,-0.008177390,1.979400039,0.155024007,2.078759909,0.111974001,-0.224400997,0.235427007,1.118759990,-0.166779995,0.588566005,-0.539336979,0.018548900,-1.716740012,-0.663958013,-0.544861019,0.176174998,1.861570001,
-1.535719991,0.857017994,-0.319173992,-0.530301988,0.028633701,0.045102101,0.030654700,0.357003987,0.248587996,-0.174802005,0.014228700,0.566195011,0.500957012,-0.889594972,-1.746580005,-1.297109962,-0.005414440,-0.416500002,0.230526000,-0.497875988,-0.029657500,-0.051670600,-0.022921700,-0.320814013,0.282487988,-1.350739956,-0.012559700,0.630306005,-0.043231402,1.384510040,0.075407401,0.041148301,-0.212190002,0.031403601,-1.509580016,0.279814988,0.128276005,-0.590745986,0.244909003,0.275593013,0.918138027,0.032384600,-0.500716984,-0.470077008,-0.647463977,0.148108006,-0.100726001,-0.161204994,0.440847009,-0.800471008,
0.319424987,0.526848972,0.182788998,-1.348620057,0.015310900,0.024267299,0.038354699,0.534789026,0.855911016,-0.005757370,-0.020199001,0.319543988,-0.227293000,-0.513176978,-1.258630037,0.052700400,0.014118900,0.125232995,0.206101000,-0.539910972,-0.131410003,-0.002182550,-0.046595301,-0.042646602,0.458041996,0.020865100,0.265931010,0.330193013,-0.024182901,0.620126009,0.286794007,0.028943799,0.393626004,-1.185860038,0.476628006,0.097585797,-1.580520034,-0.127059996,-1.058019996,0.373147994,0.238281995,-0.886959016,-0.363676012,-0.465887010,-0.335693002,0.271497011,-0.149939999,-0.029175799,0.505953014,0.734301984,
-0.738606989,0.109722003,0.254299998,-1.680770040,-0.006586170,-0.003371430,-0.044100501,-0.362073988,-0.583966017,0.133818999,-0.047602199,0.354443997,-0.374489993,-0.326009005,0.388085991,1.004950047,-0.016373700,-0.003568740,0.266689003,-0.539200008,-0.229122996,0.046505298,0.003380970,0.438636005,0.506609976,0.734084010,0.207159996,-0.112499997,0.021567600,-0.038843501,0.267843008,-0.033048298,-0.391597986,0.222156003,1.875000000,-0.309451014,-0.307125986,-0.434417993,-0.302765995,0.191476002,0.206178993,-0.034643400,-0.185922995,0.437207013,0.138236001,-0.586333990,0.185010999,-0.089040197,0.146046996,-0.295944005,
-0.040282801,-0.004752620,-0.014768100,0.038122900,-0.009964940,0.006327410,-0.036976900,-0.004749400,-0.040912300,0.009051350,0.038502101,-0.014239700,-0.059111401,0.037239399,0.018156800,-0.026741499,-0.009305000,0.015595900,-0.036115099,0.016373200,0.012045300,0.035565302,0.027583500,-0.008634490,-0.009964910,-0.077734299,-0.051402599,0.026289901,-0.019695900,-0.055127099,-0.032387499,-0.035805501,0.007320450,-0.066971101,-0.031422701,-0.002659740,-0.036455799,0.006288750,-0.056765102,-0.016414300,0.017133901,0.019278301,-0.052318301,-0.004723820,-0.018208399,0.003409370,-0.000370538,-0.027024699,0.004563850,0.031200400,
-0.046158701,-0.021804200,-0.051187199,-0.008359960,-0.008711030,0.034632102,-0.007609030,0.023673000,-0.023922900,-0.040469699,0.040353298,-0.035321899,-0.010944300,0.026172001,0.005804540,0.017674200,-0.018983301,0.011767900,0.001881140,-0.038534500,0.009460340,0.006514810,0.004914270,-0.008316400,0.014493400,0.012993500,0.011661300,-0.013563300,0.039113399,-0.015650099,-0.007670610,-0.004465740,-0.039828502,0.022750501,0.038207602,-0.016407400,-0.058665100,-0.030939300,-0.056029901,0.014642800,0.020204701,-0.014370300,0.002465120,-0.059395202,-0.018739900,-0.011239300,0.026448900,-0.000309463,-0.016745299,0.002567460,
-0.053297698,-0.166934997,-0.307491004,0.549686015,-0.022755099,-0.027556401,-0.000012518,0.655520976,-0.921471000,-0.006164930,-0.007210610,0.139614999,0.103945002,-4.913420200,1.015730023,-1.602139950,0.025225900,0.121514000,-0.603781998,-0.028213900,0.369605005,0.009055230,0.005451130,0.565048993,-1.171219945,0.049509902,0.687964976,0.310227990,0.037015799,-0.468654990,-0.163022995,-0.018728601,-1.787770033,0.455377012,0.102337003,0.236333996,-2.631409883,0.075650103,0.742627025,-0.105603002,1.289790034,0.158912003,0.541354001,0.755976021,-0.131752998,-0.008762630,0.874688983,0.220158994,-0.144402996,0.125973001,
0.288742006,-0.455071002,0.637935996,0.808185995,0.029372100,0.005927030,-0.032337401,0.057039000,0.285739988,0.477178991,-0.030852200,0.189078003,-0.152380005,-0.360457987,-0.114706002,2.614350080,0.048272301,0.216875002,0.186632007,-1.295609951,-0.240226999,0.016619399,0.020728899,0.012741600,-0.198351994,-0.255165994,0.718339980,-0.021504501,0.044488098,-0.315827996,0.472397000,-0.044492099,0.587426007,0.488406003,0.226400003,-0.732051015,1.111109972,1.812770009,0.304749012,0.281408012,1.331869960,1.005859971,-0.075118802,0.623485029,-0.346148998,0.289112002,-0.004754660,-0.992165029,0.072719298,1.816619992,
2.629270077,-0.047131900,-0.623043001,0.460853010,-0.016875900,0.019505400,-0.006494110,0.015181700,0.203356996,0.239994004,0.014160900,-0.680971980,-1.192190051,0.403526992,-0.240582004,1.463660002,-0.011140800,-0.207488000,-0.144096002,1.634570003,0.145990998,0.044465199,-0.008589720,-0.126231998,0.554075003,-0.617744982,0.480235010,0.497996002,0.011571300,-0.537774980,0.457296997,0.003633950,0.808448017,0.758876026,-0.273945987,-0.620609999,0.656967998,0.530978024,0.203805000,0.233643994,-0.973819971,0.315672010,-0.176164001,0.093756802,0.373506993,-0.375710994,1.442909956,0.342487991,-0.450437009,0.998283029,
1.951320052,0.262167007,1.077929974,2.321870089,-0.037212301,0.013161300,0.047409602,1.644670010,0.090086497,-0.305413991,-0.043487001,0.180222005,-0.822274983,1.552320004,0.822309017,0.154753000,0.027251400,-0.224906996,-0.533468008,1.291380048,0.268849999,-0.047502600,-0.038975500,0.145444006,0.825556993,-1.195350051,1.887140036,0.935159981,0.047206599,0.123545997,2.379410028,-0.040115699,1.017750025,0.414494008,0.547793984,-1.594099998,0.023712199,2.101469994,1.358139992,0.204933003,-1.164600015,-1.119910002,0.350167006,-0.420338988,-1.142910004,-1.268370032,0.326689988,-0.103450999,1.029320002,1.400259972,
1.300089955,2.651520014,-0.614351988,1.579990029,-0.013689700,-0.021559600,-0.011722900,0.110431001,0.951816976,-0.262535989,0.030025600,1.282989979,1.426480055,0.782664001,-0.296893001,2.380620003,0.008468340,0.580528021,-0.092460103,1.547080040,0.939485013,-0.000104903,0.004523700,0.905432999,-0.358206004,0.809054017,1.257750034,1.731220007,0.029412899,0.651329994,1.626000047,0.005032920,0.762174010,-0.313111991,1.097579956,1.254619956,0.059742302,-0.004449800,1.484719992,1.286839962,-0.300929993,-0.249348000,0.739956975,1.390059948,0.213920996,0.407860994,1.753340006,1.962129951,0.383477002,0.753857970,
1.093230009,0.239544004,-0.106739998,-0.775245011,-0.011599300,-0.021905500,0.011481700,-0.487232000,-0.602002025,0.263435006,0.019668700,0.330684006,0.118137002,0.100202002,0.014201600,0.362991005,-0.011182700,-0.338613003,-0.746622026,0.570860028,0.267161995,-0.006231280,0.013690000,-0.609677970,0.825161994,0.313111007,1.043040037,-0.056083500,-0.042846002,-0.318439007,0.103754997,-0.044915300,0.010678600,-0.193744004,-0.288383991,-0.045779299,0.893001974,0.663287997,-2.333070040,-0.379417002,-0.774074018,0.193104997,-0.427736014,-0.173182994,-0.512461007,-1.989920020,1.390879989,-0.040921599,-0.367736995,1.811759949,
1.023259997,0.151153997,-1.033509970,2.618089914,0.021508200,0.001055010,-0.044334199,-0.712080002,-0.341784000,0.397251993,-0.019126900,0.598065019,0.080991700,0.547591984,0.706408978,-0.950806022,0.023358000,-0.049254298,0.158189997,1.393530011,0.477075994,-0.047919098,-0.027176401,0.677980006,-0.233239993,-0.671113014,0.129997998,-0.081050999,0.036266699,-0.530526996,-0.640712976,-0.032269999,0.251064003,-0.051300898,0.495568991,0.555119991,-0.001879850,-1.430330038,0.251563013,0.010048700,0.317537010,-0.146077007,0.337076008,0.547257006,-1.715809941,-0.450197011,0.434792012,-1.062360048,-0.298853010,0.784399986,
-1.271029949,1.118669987,-1.045889974,-1.421350002,0.029898999,-0.014248100,-0.004239310,-0.085534602,0.197605997,0.428330988,0.001778600,-1.232139945,-0.310079992,1.330309987,-1.414430022,0.489643008,0.058271799,-0.911543012,0.744372010,0.382021010,0.519640982,0.008249340,-0.001704300,-2.012160063,-0.247222006,1.424610019,1.236500025,0.541119993,-0.015416600,-2.196170092,1.040339947,0.000274022,-0.342875987,0.817566991,-0.215045005,0.874027014,0.147267997,-0.756814003,-2.063910007,0.691645026,-1.328019977,0.109690003,-1.416919947,0.421826988,0.206377998,0.041967500,-0.521568000,1.276800036,0.844152987,-0.317084998,
0.556667984,
-0.608556986,
-0.773887992,
-0.072113998,
-0.433697999,
-0.259072989,
-0.480805993,
-1.286880016,
-0.543783009,
-0.493476987,
1.172819972,
0.150997996,
-1.398970008,
-0.803891003,
-0.198718995,
-0.246013001,
-2.015069962,
-0.221521005,
0.399955988,
-0.925226986,
-0.029301699,
-3.235369921,
-1.187059999,
-0.149092004,
-0.217602998,
-1.348340034,
-3.215470076,
-0.382959008,
-2.703399897,
-0.329566985,
1.842569947,
-0.882951975,
-1.368209958,
-0.254920006,
-1.468099952,
0.010692000,
-0.455493003,
0.671158016,
-0.491328001,
-0.775355995,
-0.042992000,
-0.016980199,
-2.859200001,
-1.481789947,
-2.224359989,
-2.120209932,
-0.100478999,
-1.323330045,
-0.548210979,
0.801285982,
0.446741015,0.469554991,0.316073000,0.788932025,-1.520660043,0.487978011,0.138487995,0.976399004,-1.270179987,-1.458860040,-0.225621998,-0.482661992,0.475703001,2.830039978,0.650785029,0.337992996,0.398519009,0.850916028,-0.660201013,0.433802992,0.033831600,1.096189976,-0.696673989,-0.395716012,-2.501529932,-0.474460989,0.925643981,-0.363682985,-0.742282987,-0.452620000,-3.020020008,-2.002820015,0.954123974,0.290405005,-0.491095990,0.356339008,-0.516206980,0.959353030,0.429286987,-1.249070048,0.047042500,0.028795900,0.413715005,0.126454994,0.286522001,-0.269555986,0.574923992,-0.139117002,0.509127021,0.365108997,
0.482816011,0.198645994,-0.376455992,0.208997995,0.765368998,0.405243009,0.607156992,-1.197739959,2.262170076,0.108253002,-0.249865994,1.063449979,-2.040080070,1.101009965,-0.930211008,-0.608484030,1.295220017,-1.226330042,0.126491994,0.226384997,0.030722899,0.702080011,-2.764149904,0.378764987,-0.383774996,-1.141499996,-5.404900074,0.616333008,-2.273499966,3.591099977,0.284988999,0.047841098,-0.646798015,0.434139013,-0.222179994,-0.541630983,-7.431119919,-0.023187499,0.504999995,-0.009643750,-0.038465898,-0.037663098,-0.824733019,-0.391934007,1.272119999,0.669459999,-0.256045014,-0.747125983,-0.411047995,0.410340011,
0.040739398,0.020157700,-1.653710008,-0.996955991,-0.173620999,-1.151229978,-0.289586991,1.496749997,0.892763019,0.380064994,0.387151003,2.259540081,-0.066658698,3.337599993,0.353119999,-0.487679005,2.090610027,1.338039994,0.832269013,0.744634986,0.047905602,3.433399916,1.076259971,-0.807530999,1.816699982,-0.368308008,1.353549957,-0.678144991,-3.906490088,2.267169952,-0.791387975,2.165119886,2.344369888,0.812880993,-4.601449966,0.904229999,1.148790002,0.797704995,2.264029980,2.312500000,-0.040674798,0.041925300,4.708630085,1.182970047,1.881809950,2.735640049,-0.308544993,1.044720054,1.096009970,0.377860010,
0.212887004,0.379601985,-1.127339959,-1.091580033,0.880815983,1.856029987,0.148021996,0.111218996,1.037250042,0.966606975,-0.190806001,-0.881596982,0.367000014,0.420567989,-1.129660010,0.490471989,1.200819969,2.109760046,0.542945027,1.916429996,0.050936200,3.297760010,1.341979980,0.798304021,1.669520020,0.889127016,0.725571990,1.770310044,0.183135003,0.672357023,-0.149103001,-0.070763700,1.695150018,0.649003029,-0.829400003,-0.269212991,1.018769979,0.539418995,-0.221553996,3.183229923,-0.015865199,-0.046464600,0.814876020,1.140310049,-0.099620499,1.802270055,-0.523097992,1.578359962,-1.726240039,0.146908000,
0.161714002,1.368770003,-0.782796025,-0.434235990,0.403912991,0.458921999,0.076886103,0.671806991,0.949230015,0.317200989,-0.059716001,1.220280051,1.695000052,-5.154280186,0.546899021,0.280115992,2.578330040,-1.576390028,0.481029987,0.317113996,0.029149801,2.168370008,0.593849003,-0.284913987,1.610249996,0.455256999,1.042219996,0.601296008,-0.110065997,-2.068279982,-0.498178989,0.816048026,1.007410049,0.975362003,0.023973599,0.089432001,0.587421000,0.943293989,0.058559101,1.530519962,-0.011085700,0.001010640,3.523580074,0.829231024,2.904589891,3.774460077,-0.971482992,-0.464186013,0.679961026,0.364345998,
-1.073400021,0.973322988,-0.825357974,-0.928185999,-0.387838989,-0.484697998,0.911767006,-0.615487993,2.530380011,0.848595023,0.347440988,0.249114007,0.188969001,-0.905031979,-0.559406996,0.480423003,4.172850132,-0.269046009,-0.329259992,0.764666021,-0.050801300,-1.061900020,1.560430050,1.955029964,0.691766024,1.532789946,-5.061769962,-0.576044977,-0.258318007,-1.125810027,0.930936992,-0.733168006,-3.176409960,-1.073670030,1.387030005,-0.339643002,-2.862979889,0.769093990,1.212059975,1.433539987,0.038447201,-0.041747902,0.775735974,1.302119970,-1.128859997,2.499330044,-0.637678981,-1.039899945,0.026115701,0.173712000,
0.158177003,-0.517709970,-0.339850992,0.284256995,0.584078014,1.222090006,-0.466567993,-0.916788995,0.640304983,0.339711010,0.717267990,-0.389687002,-1.040349960,-1.353510022,0.349184990,-0.430058986,2.460609913,-1.985759974,-0.398427010,1.276780009,0.046193201,1.434350014,0.580632985,0.393254995,0.504308999,-0.572569013,-2.175869942,-1.732290030,2.160660028,1.176550031,3.510319948,-0.360992014,0.264389992,1.315569997,0.069283403,0.267251015,2.400170088,0.088637002,0.157504007,-0.727205992,0.050014000,-0.032569401,-1.254019976,0.570365012,1.043480039,0.930011988,-0.617873013,0.797249973,-0.493773013,0.449546009,
-0.396225005,-0.153828993,-1.290680051,1.330379963,0.962651014,1.474799991,-0.050438900,0.748439014,1.910339952,0.770209014,-0.184210002,0.994719028,3.083770037,-1.210890055,0.864695013,-0.780799985,0.965709984,5.073639870,-0.010824400,0.544169009,-0.032729201,0.554238975,1.017840028,0.872731984,2.559880018,1.267549992,1.620689988,1.512539983,0.175690994,2.576349974,0.948947012,0.407444000,0.219311997,-0.859030008,2.475939989,0.970843971,-2.464699984,1.212460041,0.314633995,1.674010038,-0.042078398,-0.036656301,1.998270035,-0.190773994,-0.572472990,3.531160116,-0.712550998,0.632439971,0.259310991,-0.502027988,
0.526789010,0.878861010,-0.344947994,-3.309770107,0.463297993,0.350095004,-0.165179998,0.731392980,0.542089999,-0.426889986,0.524524987,-0.119997002,1.227579951,0.113168001,0.950302005,-1.027439952,0.415850013,1.233600020,0.124692000,0.071945198,-0.044653799,-1.801530004,-1.074990034,-1.343739986,0.271856993,0.662882984,0.263875991,-0.763448000,-0.191808999,-0.776027977,-0.396667987,-1.595890045,1.055379987,-0.176808998,2.578170061,-0.367107004,0.310360998,-0.582794011,1.387590051,0.328399986,0.013811300,-0.027783001,-0.129253998,0.764786005,0.810822010,1.344310045,0.324790001,0.716435015,0.051883198,-1.298740029,
-0.253782988,1.759590030,-0.910241008,1.406329989,0.736819029,2.198420048,-0.871551991,-1.249510050,-0.748561978,-1.766100049,1.378690004,0.500612974,-0.893848002,1.193310022,1.782070041,0.265888989,-1.289680004,-0.625181973,-2.318609953,-1.282279968,-0.036384702,1.631369948,0.259512991,0.569525003,-1.734660029,-2.041320086,2.676529884,1.106739998,0.865065992,3.754719973,-1.596330047,-1.008780003,3.781860113,-2.501490116,0.222038001,1.098729968,0.919359028,1.361220002,0.603273988,-1.268000007,-0.008687070,-0.026736701,1.900599957,0.254639000,1.239400029,-0.264284015,0.790569007,1.420179963,0.162334993,0.935818970,
-0.569205999,1.327909946,0.087898701,0.097755499,0.143224001,0.285474002,0.521135986,-0.421519011,-1.778059959,-0.342352986,-0.384005994,0.091520302,0.267156988,-0.152335003,-0.090627000,0.612756014,0.771305025,1.406069994,0.192624003,0.366481990,-0.011610200,0.002532060,-0.934898019,3.475660086,1.311879992,0.656213999,0.369087011,-0.791566014,0.577511013,-0.381343007,1.766199946,0.039232899,0.314700007,-0.715188026,1.068590045,0.658926010,-0.211862996,0.560558021,0.563049018,0.054226998,0.014617300,0.051128600,-0.328038990,0.007677140,-2.037990093,0.376845002,0.146650001,0.476586998,0.164423004,1.122179985,
0.670049012,1.201580048,-0.971794009,0.285647988,0.836760998,0.977437019,-0.503938019,0.205567002,-0.539982021,-0.400703996,-0.157224000,0.887520015,1.265290022,0.280838013,1.454040051,1.012609959,2.945460081,-0.012422400,0.766992986,1.883839965,-0.000848137,2.586679935,1.756289959,0.242624000,1.049319983,0.799242973,1.409019947,-0.475017995,1.043939948,-1.158669949,1.090720057,1.017179966,0.074246697,0.864814997,0.393976003,-2.437680006,0.409577996,0.866657972,-0.138481006,1.485430002,-0.049912602,-0.034392800,2.232539892,0.430314004,4.644450188,-2.189219952,-0.762777984,-0.146787003,1.298889995,0.520292997,
0.665467024,1.152609944,-0.414227992,-0.965391994,0.710919023,-0.529325008,0.534273028,-0.218397006,2.187500000,1.131829977,-0.610810995,-0.402242005,1.495519996,0.122943997,-2.763700008,0.219118997,-0.202508003,-2.368380070,1.032520056,0.208624005,0.012179600,1.121379972,2.343760014,0.613731027,1.103960037,0.648315012,0.062596902,1.061990023,1.678400040,0.363088012,1.558050036,-0.338265002,0.106260002,1.069569945,-1.007619977,-1.036560059,0.863297999,0.192601994,1.367859960,1.609300017,0.037781101,-0.030788600,0.738499999,0.273007989,-1.694769979,1.750560045,-0.627148986,2.937249899,-0.161844000,0.183264002,
-0.533200979,0.852747023,-1.092319965,-0.134537995,0.574108005,0.145226002,-0.346547991,0.603772998,1.786339998,0.936528027,-0.412326008,2.192110062,1.033609986,0.134486005,-0.496843010,0.443001986,1.541599989,2.105890036,0.642190993,1.131549954,-0.017858300,0.886636019,1.301900029,-0.012456400,-1.481170058,0.903899014,-1.194620013,-0.126632005,0.532384992,1.384070039,2.387520075,-0.082114600,0.846978009,-0.106363997,2.271189928,-0.864395022,0.730027020,0.015858700,-0.670494974,0.184236005,0.023589000,0.022762399,2.272809982,1.797500014,2.166549921,1.059239984,-0.806715012,-1.180699944,0.672639012,-0.306017995,
-0.041172199,-0.515240014,0.115255997,-0.400487989,0.793905020,-0.179490000,0.589807987,0.414802998,0.912995994,0.707786977,-0.064858399,0.177950993,0.565523028,0.845477998,0.204344004,0.270678997,-0.586103022,0.324097008,0.180799007,-1.556280017,-0.044848301,-0.607976019,-0.759169996,0.772719026,-0.667118013,0.624013007,0.865952015,0.137857005,0.696907997,-0.299941003,1.351850033,0.186497003,-1.183779955,0.010591200,-0.466697991,0.128919005,0.311313003,-0.367060006,0.188658997,-0.897301018,-0.037240401,-0.030420600,-0.578894973,-0.120791003,-0.257836998,-0.584174991,-0.362203002,0.161274999,-0.230148003,-0.420390010,
1.074190021,0.340853006,-1.063130021,0.713308990,-0.747626007,1.323930025,-0.582939982,-0.490918010,2.991359949,0.225660995,0.206173003,1.281520009,1.754029989,-1.088080049,-0.634663999,0.432597995,-0.331645995,2.834280014,0.072144099,3.042419910,-0.041344501,-2.671580076,0.644362986,0.645403028,1.016479969,0.282007992,2.246419907,-0.118593998,1.715409994,0.810136974,1.614040017,1.682479978,-0.369134992,0.310858011,1.150859952,1.679949999,1.329990029,-0.512444019,0.199947000,2.310679913,0.051363800,0.038781799,0.304327995,0.938624978,0.628096998,1.574169993,-0.977514029,3.350709915,0.228845999,-0.848169982,
-0.492711008,1.061529994,-0.103563003,0.941796005,-0.021396101,1.463310003,0.730657995,-0.178574994,2.344520092,0.584215999,-0.441163987,-0.500158012,0.847362995,1.195240021,-0.150088996,0.848141015,3.533149958,1.160789967,0.653038979,-0.242727995,-0.026646901,0.839191020,-0.382797986,-0.255432993,0.575699985,1.212929964,1.714709997,0.963864028,-0.187508002,2.336659908,0.493075997,1.058730006,-0.037761901,0.507395029,0.176312000,1.648790002,-0.267715991,-0.066917397,0.533648014,1.503999949,-0.012020600,-0.031183699,-1.539520025,0.405624986,0.589151025,0.986818016,-1.218350053,0.379983991,0.965322971,-0.549241006,
0.065472201,0.738236010,0.101861000,0.028237101,0.112604998,1.599390030,-0.438217014,0.829806983,-1.831349969,-0.401519001,0.187097996,1.209310055,-1.168650031,-0.905381024,0.583819985,-0.440167993,-2.400490046,-1.601830006,0.493921012,-1.515980005,0.031048400,-2.293819904,1.841390014,-0.384745002,1.264709949,0.869098008,0.310617000,0.158216998,-3.164429903,-1.670400023,-0.921692014,0.467299998,0.512614012,-1.362810016,1.321900010,-0.937916994,0.012536100,1.273280025,0.631052971,-1.589849949,0.030623000,-0.030546799,-1.053470016,-0.364890009,0.344659001,-0.637277007,0.045286499,-1.655869961,0.482517987,-0.051267099,
0.154297993,0.259097993,-0.514558017,-0.490873992,2.020659924,-1.166409969,-0.300695986,1.210430026,2.084719896,1.559970021,1.141739964,0.936276972,1.194620013,-1.092219949,-1.532909989,0.172803998,3.383419991,0.688277006,0.747129977,0.880949974,-0.020786300,-0.126007006,0.185804993,-0.211520001,1.667760015,-0.107491001,1.482789993,0.195550993,-0.672558010,-0.972445011,-0.422174990,0.352620006,0.261494011,1.519940019,-0.623542011,0.167206004,0.208534002,0.557029009,1.370589972,1.262050033,0.035405502,-0.028728699,0.745912015,-1.204439998,0.285614997,-0.510137022,0.047121000,-1.004799962,0.868938029,-0.457558990,
-0.012490700,-0.019672601,0.004219500,0.006395580,-0.032404799,-0.013878800,-0.027300701,-0.027852600,-0.018148800,-0.011640600,-0.002639120,-0.038976301,0.008333300,0.009088440,-0.053175300,0.026548401,-0.023080001,-0.023799101,-0.019570701,-0.027467599,-0.041271199,-0.039813399,0.035013299,0.001849130,-0.014062400,0.028198000,-0.036403600,-0.034653001,0.042587101,0.006626580,0.012337900,0.021013200,-0.005399840,0.002809920,0.029321801,-0.060210802,-0.039219901,0.022519300,0.049914401,0.001787740,0.016899601,0.029233200,0.024040399,-0.019898500,0.036582399,-0.030989800,-0.013232200,-0.030399000,-0.040469401,0.001047690,
0.277442008,0.514690995,-0.833604991,-0.208627999,1.351079941,-0.408217996,0.917329013,0.126019999,2.531239986,-0.654904008,-0.500802994,-0.132418007,-1.509240031,3.022380114,-0.676182985,-0.378241986,-1.421990037,1.950469971,1.403409958,-1.037170053,-0.005210950,2.971369982,0.850489020,0.508602023,1.561319947,0.676127017,-0.279305995,0.193902999,2.355720043,-2.838350058,1.428619981,0.676015973,2.357350111,0.217435002,2.790800095,-0.198181003,1.335019946,-0.512359977,-0.022863399,-0.382459998,-0.026011599,-0.052234199,2.108249903,0.169130996,-0.130408004,0.641210020,-0.563287973,0.695663989,0.221616000,-0.714255989,
0.278423011,0.277547002,-1.092939973,0.153013006,-0.001629490,0.055128999,0.559781015,-0.907463014,-0.086704999,2.059530020,0.220942006,1.553380013,-0.433454990,-1.214769959,0.342164993,-0.501248002,-0.768823981,0.618040979,-2.019850016,-0.517785013,0.043419801,1.149420023,0.688099980,0.374790013,1.938470006,-0.910405993,0.352364004,0.223396003,3.619379997,0.531377971,1.905069947,2.352299929,0.940540016,1.553079963,-1.059839964,-0.075882196,0.974717975,0.377653003,-0.016304800,0.131926000,0.036572300,-0.003360290,-0.364181995,1.663890004,-0.290215999,3.990370035,-0.736874998,1.320719957,0.102632001,0.235293999,
0.234188005,-0.043357901,-0.007786520,-0.201911002,0.360745013,0.512745976,-0.604593992,0.201229006,0.595610023,0.323956996,0.063459903,-0.438497007,-1.102609992,-0.172325000,-0.895749986,0.484261990,0.893244982,-1.087800026,0.036241401,-0.488995999,-0.026013400,1.373100042,-0.658514977,1.105239987,0.259209007,-0.433732986,-0.067100398,0.023507100,0.797322989,0.085246503,1.710610032,0.558565974,0.411944985,1.290789962,-0.275005996,-0.110619001,-0.282413006,-0.389687985,-0.246337995,0.243626997,0.002485220,0.010591400,0.246664003,1.176139951,-0.164513007,0.296038985,-0.352106988,-1.058560014,0.055352099,0.261810988,
1.089329958,2.008059978,1.771469951,3.601690054,-2.047729969,3.916209936,1.504369974,0.767441988,-1.117020011,-1.842120051,0.103831001,-0.026799301,3.081520081,2.156529903,2.282789946,0.106535003,3.948489904,1.012269974,1.340430021,-0.235565007,0.027769299,3.321850061,0.372857004,4.540299892,0.125964999,2.023350000,3.261620045,0.539196014,3.197340012,2.882179976,-3.453730106,0.806371987,2.929830074,-2.104490042,3.480619907,0.960784972,1.475100040,3.623470068,1.779209971,5.708839893,-0.030405900,0.030137500,5.075310230,2.218580008,0.735141993,1.612529993,1.374369979,2.134710073,0.304408014,1.963709950,
-0.124945000,0.016710700,-0.110531002,0.095269904,-0.530085981,0.076746203,0.583181024,-3.741240025,-1.730469942,-0.746271014,0.285703003,-0.818993986,1.473880053,-2.937060118,0.956359982,0.073059797,2.620340109,-0.323172987,-1.007859945,0.526167989,0.047927301,-1.254169941,-0.491393000,0.904098988,0.763423979,0.875324011,0.963194013,0.183851004,-0.552008986,0.236927003,-0.767723024,0.773998976,0.874858975,-1.390110016,0.022506600,0.408760995,-0.318257987,-0.105448000,0.422784001,2.518379927,-0.007603790,0.001212640,-2.445130110,-0.054115102,-0.332951009,2.036829948,0.101337001,0.587647974,-0.644936979,0.428481013,
1.152130008,0.496329010,-0.374803990,1.063650012,0.599388003,0.649272025,0.538729012,0.754858971,0.919999003,0.174587995,-0.534691989,-0.992734015,3.150279999,2.915260077,0.984242976,-0.080308102,-0.222056001,1.384029984,0.856742978,1.287350059,0.022570500,3.007689953,-2.041100025,-0.176209003,1.032670021,0.023458101,0.529581010,2.494839907,1.534180045,2.649800062,-0.096196704,1.861209989,-0.247272998,1.597509980,-1.558699965,-0.635104001,1.697119951,-0.555347979,-0.284579009,-0.340148985,-0.025542101,0.025700100,0.963949025,-0.212639004,0.690425992,0.146831006,-0.739310980,1.148270011,-0.839340985,-1.149880052,
0.078997299,0.928430021,0.122946002,-0.196473002,0.592922986,-0.008038030,-0.020594100,0.345656991,2.177059889,-0.567997992,-0.573032975,0.294811010,1.347710013,1.436969995,-0.407290995,-0.086266696,-0.016900999,0.271131009,1.000920057,1.265290022,0.001759520,2.152280092,-0.138462007,1.212149978,1.620149970,0.145018995,-0.429210991,0.886007011,1.520560026,1.740139961,1.155249953,-0.266009003,0.409337014,-0.505445004,0.068315104,-0.397756994,0.687681019,-0.958317995,-0.237453997,2.345639944,-0.037635200,-0.004757750,1.199730039,0.697093010,-0.798635006,-0.571892023,-0.534663022,0.281480014,0.078021601,0.087396100,
-0.308055997,-0.070006102,-0.287366003,0.148826003,-1.343070030,-0.480127007,0.377683014,-0.826507986,-0.292113990,-0.371390015,-0.467554986,0.096643798,0.217363998,0.308780015,-0.924975991,0.072012097,2.004699945,1.486950040,1.775050044,-0.495404005,-0.074561402,-0.749203026,-0.164711997,1.569810033,1.599990010,-0.678815007,0.528860986,-0.186679006,-0.722347021,-1.621269941,0.060787100,-1.718080044,1.118139982,1.631839991,0.960119009,0.228433996,0.862655997,0.590647995,0.168761998,-0.677870989,-0.038008898,-0.000760441,2.165220022,0.499159992,-2.735840082,-2.450710058,-0.104235001,-0.891367018,1.513929963,-0.259552985,
0.331313014,-1.260190010,-0.108098999,-0.286094010,0.469639987,1.293689966,-0.220903993,0.219842002,-2.576410055,-0.466814011,0.193994999,0.807058990,-2.445260048,0.386866003,-0.310905010,-0.185732007,1.062860012,0.595807016,-0.179300994,-0.319581002,-0.046459202,1.666800022,0.000770260,-0.066139899,0.827898026,0.652013004,-0.781693995,0.182172000,0.218823999,0.458025008,-0.295387000,-0.251753986,1.164010048,-0.749557972,0.008435340,-1.205129981,0.211179003,0.169257000,0.587692976,-0.107156001,0.002585610,-0.028779300,-0.955815017,0.562030971,-1.540279984,1.173990011,0.006189700,1.667569995,-0.222259998,0.567318022,
-0.538363993,-0.889935017,-0.611203015,0.045889400,0.165586993,0.774604976,-0.529808998,0.102917999,3.686340094,-1.306839943,-0.057627000,0.533932984,2.087519884,-0.911670983,0.621608973,0.309361011,-0.070660897,-0.763054013,0.677011013,0.989471018,-0.002247720,0.776282012,0.336203992,-0.270027995,0.121290997,-3.320749998,1.347810030,-0.640537024,-0.175878003,1.224779963,-0.012663600,0.355554998,1.758209944,-0.045399901,2.316999912,0.332957000,0.899460018,0.559616029,0.858484983,0.608277977,0.012066000,0.040729199,0.658650994,0.132793993,1.304790020,1.584619999,-0.764133990,-0.566017985,0.732704997,0.556990981,
0.097705603,-0.703041017,-0.505430996,-0.322703987,0.043115400,-0.567776024,0.170846000,-0.304026008,2.823570013,-1.871580005,-0.205208004,1.131620049,-0.166829005,1.735599995,-0.645842016,0.005639210,-0.244003996,0.464307994,0.503172994,-0.792577028,-0.001786230,2.052690029,1.032070041,0.315582991,0.663459003,0.277276993,0.442048997,0.437323004,0.803562999,0.388853997,-0.661727011,0.755828023,0.667174995,0.871123016,0.394816995,-0.272480994,0.348336011,-0.350152999,-0.118910000,0.521498978,0.054228801,-0.001053100,0.854732990,-0.084468201,0.489178985,-0.123285003,-0.312364012,0.844991982,0.247461006,-0.423532009,
0.865553021,0.728420019,-0.757534981,0.446157992,0.173482999,-0.150858000,-0.584649980,0.716889024,2.523200035,0.822646976,-0.387017012,1.724689960,0.211692005,1.327450037,1.063259959,0.382079005,-2.105609894,1.932960033,1.219079971,-0.614668012,-0.048892800,0.712602019,0.635800004,1.625100017,0.519186020,-0.490626991,0.766898990,-0.250692993,1.906119943,3.226399899,-0.129933000,-1.026450038,1.223770022,-1.045490026,-4.222310066,2.459480047,0.349395990,-0.737962008,-0.678929985,0.732690990,0.039017200,-0.044737801,-1.071050048,1.426669955,2.805589914,0.966470003,-0.383742988,1.632529974,0.201038003,-0.384074986,
0.608106017,0.811730981,-0.175286993,-1.395110011,0.043277800,0.841078997,0.438324004,0.323098987,0.772054017,0.170096993,-0.011709700,0.399316996,0.981846988,1.835960031,0.504015028,0.169873998,1.672950029,0.974906027,-0.340739995,1.542709947,-0.021918099,2.737380028,-3.772399902,-0.695703030,0.486912012,0.362199992,0.515372992,0.384597987,-0.397561014,-0.857245982,0.373088002,-0.058388598,0.592004001,0.589689016,0.018630400,0.937662005,-0.335990995,-0.396872997,0.234084994,0.355338007,-0.051637899,-0.010071200,-5.518300056,0.754800975,0.497321993,0.701888978,-0.502470016,1.305629969,-0.005686920,-1.532109976,
0.199062005,-1.462329984,-0.979815006,0.672004998,0.236994997,1.385910034,-0.694145024,-0.292703986,2.717730045,-0.366358012,-0.468914002,-0.003992490,1.104200006,-0.064828999,-0.325136989,0.376325011,-0.329210997,1.924010038,0.350270987,0.488052011,0.020795900,-0.491822004,0.877810001,-0.059326999,-0.399605989,1.661990047,0.788833976,0.746881008,1.635900021,-0.089874901,0.304780006,0.330731988,0.580345988,-0.908922017,1.483360052,-0.299400985,0.666253984,1.225520015,0.223085999,2.462929964,0.056068402,0.024270600,2.847079992,-0.734422982,1.489920020,1.882629991,-0.212583005,0.777351022,-0.752110004,0.035756402,
-0.305967987,0.027629601,-0.260711014,0.944486022,-0.620743990,-0.047311101,0.214188993,-0.603042006,-0.033272199,-0.375835001,-0.209918007,-0.136954993,1.452569962,0.488404006,-0.557448983,0.130328998,0.173935995,-0.700549006,-0.107666999,0.693763018,0.005113430,3.024029970,-1.230450034,0.205871999,0.443062007,0.057421301,0.255252004,-0.247785002,-3.509880066,1.331490040,-0.397318006,0.792891979,-0.206599995,-0.203938007,-0.190648004,-0.676787019,-0.103831999,0.081586801,0.027686400,0.505348980,0.009587860,0.003771770,-0.655641973,0.576084018,-0.838885009,-4.509809971,0.045160700,-2.107729912,0.452302992,-0.249457002,
-0.971361995,0.337583005,-0.192120001,-0.448949993,-0.902658999,1.444659948,-1.009989977,0.562461019,0.319810987,-0.829667985,0.140228003,-0.643414974,-0.853878021,0.927061975,1.272269964,0.304201990,1.155539989,-2.918560028,1.404350042,1.573779941,0.011093800,-2.072520018,2.499429941,-1.959280014,-1.498579979,0.872635007,-0.878368974,-0.366876990,-0.017590800,3.217050076,-0.997033000,-2.076740026,0.104829997,-0.035309199,0.734874010,-0.082379200,-0.586076021,-0.541455984,0.261869997,1.031970024,0.025914900,0.017362099,-2.345289946,0.210320994,2.950340033,0.294124007,0.106964000,1.603209972,0.977917016,-0.250665009,
0.496080011,0.592396021,-0.147330999,-0.171370000,0.322706997,0.528304994,0.114821002,-0.111010998,1.271049976,-0.063754201,0.043823101,-1.435850024,0.031390801,0.111925997,-0.480181992,0.568951011,0.936101019,-0.158765003,0.190256998,0.648163974,-0.047845598,0.092366397,-5.519090176,0.873184025,0.510827005,0.509926975,-0.211945996,-0.172599003,0.436789006,2.069089890,1.049960017,0.500069976,0.950832009,-0.127740994,0.384943992,0.321069986,0.484798014,-0.560690999,0.670283020,1.199270010,-0.045004599,-0.015628699,1.438799977,-0.617978990,2.123209953,-0.029508200,-0.240599006,1.879809976,0.109860003,-0.541272998,
-0.053176399,-0.056750800,-0.056191500,-0.022168800,0.001629730,0.014427500,-0.017731501,-0.030354099,0.041754600,-0.056156501,-0.032038599,0.014423800,-0.019858301,-0.050103299,0.018066600,0.036605701,0.049497299,-0.041553501,-0.015856000,-0.037279900,0.039903000,-0.036158200,-0.003683600,-0.064864598,-0.037835900,-0.031852301,-0.010428800,0.030732300,-0.009355230,0.003529570,0.008566880,0.046969701,0.029190101,-0.034290198,0.026507400,-0.013952500,-0.053325299,0.001189950,0.026931999,0.035758499,0.006078010,0.036160499,0.026696499,0.015132600,0.008687400,0.009132420,-0.027836701,-0.050087702,-0.064932801,0.013500300,
-0.019898601,0.269001991,-0.602632999,-0.317880005,-0.090794399,-0.171887994,0.417423010,0.163196996,0.799700975,0.307781011,-0.046316098,-0.156911999,0.447273999,-1.014420033,0.003467560,-0.620562971,1.095379949,-0.175882995,-0.322135001,0.254786998,0.001399470,-0.048044600,-0.806710005,-0.111282997,-0.023291700,0.043136600,0.521348000,-0.237248003,-0.164036006,0.620136023,1.920070052,-0.127347007,0.204081997,-0.475616008,-0.131798998,0.086122401,0.438708007,0.313023001,0.498122990,0.859176993,0.024506100,0.045357000,0.358666003,1.148139954,0.332639009,1.384320021,-0.361562997,-0.004498270,0.395814002,0.034684900,
0.245529994,0.194826007,-0.053259902,-0.123938002,0.561811984,0.634697020,-0.025870699,-0.375928015,0.398727000,0.988461971,0.439238012,0.585241020,1.423939943,-0.450985014,-0.010464700,0.175561994,-0.460891008,-0.314208001,-0.351536989,0.712400973,-0.008584110,1.421650052,0.348212987,-0.283771008,0.290766001,0.364919007,-0.825600982,-0.740680993,-1.081089973,1.283360004,-0.951789975,-0.083728403,-1.050549984,-0.386779994,-3.201800108,0.768202007,0.648293972,-0.050876301,0.082809702,0.887510002,-0.008772110,-0.052117299,1.504510045,0.176433995,0.919162989,-0.429562986,-0.046263698,0.465685993,0.012910000,0.300976008,
-0.426337004,0.416157991,-0.163891003,-0.457509995,0.023855301,-0.462953001,0.162808001,1.461519957,0.822552979,-0.583283007,-0.304356992,0.007449740,-0.462449998,0.918880999,-0.726638019,-0.150852993,-0.484757006,0.161504000,0.054832499,0.254489005,-0.012980500,1.323670030,0.394344985,-1.151039958,0.104007997,0.535396993,-0.676994026,1.767860055,-0.153024003,0.681923985,0.474622995,-0.401154011,0.241537005,-0.165244997,0.648078024,0.334176004,0.655013978,0.680621028,-0.168107003,0.170909002,0.017813301,-0.029484199,0.106051996,-0.018255200,1.270720005,0.768890977,-0.043837301,0.471870005,-0.087012999,-0.144710004,
-0.039930500,-1.041380048,-1.540470004,0.033865999,1.221019983,-0.036494300,0.581605971,0.371464014,2.175859928,0.373454988,-0.530390024,-0.270695001,1.498999953,1.435410023,-1.691969991,0.925257027,1.580240011,1.107900023,0.808802009,-0.213212997,0.046755500,0.828181028,0.992013991,1.620540023,1.218770027,1.398659945,0.252938002,-0.150486007,2.568069935,0.594667971,2.715899944,1.413519979,1.167400002,0.029249599,2.812910080,0.012510500,1.102890015,0.468611985,-0.687431991,2.345819950,-0.031304900,0.015879000,3.969630003,0.728906989,1.847470045,2.737469912,-0.943956971,-2.644210100,0.865378022,0.033243001,
-0.011497400,-0.005375640,-0.018893400,-0.042526901,-0.030934200,-0.046344299,0.017639400,-0.006840690,0.016333699,0.000897306,-0.049601302,-0.057962999,0.035288300,0.046023998,-0.018951099,-0.030301601,0.009697260,-0.063033402,-0.031788699,-0.014782600,-0.007159670,0.001206170,0.005990590,0.014085200,0.034820002,-0.065319099,-0.023393299,-0.015075100,0.025410499,-0.010506600,-0.030872900,0.021831000,-0.019731300,-0.026731100,0.024533400,-0.050595999,-0.038566701,0.027434500,0.038827401,0.002546070,-0.011959500,-0.047969699,0.024855500,-0.055687301,-0.007713960,0.052343301,-0.014907400,0.011164300,-0.017624700,0.012124900,
-0.502134025,0.770583987,0.035332400,0.105458997,-0.107539997,-0.330060989,0.034854598,-0.043451302,-1.270709991,1.565410018,-0.385585994,0.148423001,-0.997456014,1.084959984,-0.316834986,0.244034007,3.280080080,-5.317470074,0.579825997,-0.168970004,-0.014100500,-1.034090042,-1.003139973,1.174090028,1.000810027,2.136759996,2.172980070,0.611837983,-1.226009965,-3.525899887,0.675077021,0.417140007,-2.898849964,0.755684018,-0.988222003,-0.318159014,-0.499691010,0.461618990,1.092949986,1.660480022,0.003445280,-0.043819401,0.535857022,0.241044000,0.324115008,1.139479995,-0.628435016,-5.129819870,-0.962329984,-0.153311998,
0.020765901,0.216371000,-0.485805988,0.776664019,0.406170011,0.685474992,0.683676004,-0.797513008,0.045012500,0.152208000,-0.242376998,-0.089310698,0.542380989,0.911117971,-0.952018023,-0.334648013,-0.560323000,0.117352001,1.187289953,-1.093309999,0.010752900,-0.317176014,-0.038548101,0.664649010,-0.274967998,0.642814994,0.860521019,0.029756600,-1.916319966,0.196667999,-0.273335993,1.154510021,0.542420983,1.149029970,1.774440050,-0.235051006,0.580582976,0.474117994,0.638395011,1.829319954,0.060674801,-0.041372400,1.626119971,0.567260981,0.370602995,0.610907018,-0.170070007,-0.991864026,-1.092939973,-0.032957699,
-0.046151899,-0.045667902,-0.037413299,-0.035495002,0.021666100,-0.048924599,0.039258301,-0.040759798,-0.032931101,0.028731599,0.037067998,-0.035331700,-0.006686150,-0.026740700,-0.055493500,0.028681800,-0.042793300,-0.027166201,-0.005730930,-0.045005701,-0.016531300,-0.019859400,-0.039536498,-0.045568801,-0.024741100,0.005011920,-0.015248900,-0.045009602,0.029250201,0.040889699,-0.027439499,0.020368500,0.004051300,-0.031937901,0.019764600,-0.048337299,0.026303601,-0.012612700,0.016864600,0.008136800,-0.004363400,-0.009911870,0.040106699,0.003490110,-0.001622900,0.039890099,-0.028532499,0.001836050,-0.046039000,-0.021747300,
0.005284120,-0.035249300,-0.043462601,-0.014089500,-0.036011498,-0.032602701,0.008850220,-0.016129499,-0.012979800,0.004473550,0.036525398,0.010803900,0.015470600,-0.018045900,0.020447999,0.047006000,-0.030420100,-0.039500698,-0.046620801,0.003328630,-0.033779200,-0.038240001,-0.036218200,0.012438800,-0.010949200,0.005675320,-0.007071690,-0.014204900,0.035832800,-0.007241380,-0.008827880,0.038316298,0.031988099,-0.023419101,0.044174101,0.000081631,-0.031114301,0.027099900,0.044535600,-0.034071501,0.039711501,-0.046814699,-0.051749799,-0.021010000,0.004442270,0.028882699,-0.053251602,0.028122799,-0.002272860,0.004480360,
-0.702081978,1.260959983,-0.538809001,1.933210015,-0.535489976,0.488052994,0.478060991,0.422390997,2.739550114,-0.572197020,-0.403813004,-0.231197000,-0.772991002,0.278100014,0.538360000,-0.665606022,1.180979967,-1.002380013,0.269201010,0.320858002,-0.059884101,0.164710999,0.157729000,1.091030002,0.071730196,-1.452160001,0.208979994,0.163534999,1.968359947,2.756920099,0.204372004,0.487453997,0.871177971,2.406460047,1.927330017,0.700564027,-1.061300039,1.369629979,1.164430022,0.669323027,0.061555099,-0.029576600,0.517961025,0.683072984,-0.832346022,1.689110041,-0.271966010,0.971975982,0.064253703,-0.325996995,
-0.462417990,0.150857002,-0.007624400,0.244056001,0.383960992,-0.180804998,-0.272482008,0.443563014,0.747044981,-0.211401999,-0.426905990,0.173065007,0.672634006,-0.812210023,0.123903997,-0.307256997,1.387809992,0.109889001,0.561963022,0.829388022,0.044091601,1.405660033,-0.452679008,0.743427992,-0.379458010,-0.012370500,0.540430009,0.937867999,0.276488006,-1.545120001,0.799823999,-1.207579970,0.553238988,-0.120931998,-0.209895998,0.072957203,-0.689517021,-0.080538303,-0.721091986,-1.418230057,0.007659610,0.015592300,0.002833740,0.504028976,1.586519957,-0.018844901,-0.552587986,-2.413460016,-0.118065000,-0.382658005,
-1.619250059,-0.908535004,-1.118469954,-0.493503988,0.327731013,0.636887014,1.477010012,1.855759978,4.337800026,0.045797698,0.463903010,0.764189005,2.174829960,0.764636993,0.799573004,0.460328996,1.598829985,2.653789997,-0.339358002,0.477416009,0.017229401,1.668300033,0.866281986,0.949835002,-1.870659947,0.107344002,1.354310036,-0.102512002,-0.657123983,3.518810034,0.760457993,-1.367149949,0.744683981,1.190350056,2.144020081,1.043679953,1.885499954,0.229277000,1.579270005,-0.209049001,0.039914701,-0.052865900,5.324140072,0.669870019,2.316829920,1.229159951,-0.730771005,0.672169983,-0.818032026,-0.098240100,
-1.439020038,
-2.081140041,
-1.369940042,
-1.135200024,
2.706640005,
1.921929955,
1.929829955,
-4.062409878,
-1.463080049,
-0.096413799,
-2.025360107,
-1.388640046,
-0.752201021,
5.218229771,
0.893121004,
-1.702299953,
1.658750057,
-1.301100016,
-2.519720078,
-0.031242700,
1.568709970,
-0.427051008,
0.948055983,
-0.281327009,
1.138039947,
-0.635612011,
-1.695670009,
0.416664004,
