// Neural Network File Format by Kyle Julian, Stanford 2016
8,5,5,50,
5,5,50,50,50,50,50,50,5,
0,
-3.4028235e+38,-3.4028235e+38,-3.4028235e+38,-3.4028235e+38,-3.4028235e+38,
3.4028235e+38,3.4028235e+38,3.4028235e+38,3.4028235e+38,3.4028235e+38,
0.0,0.0,0.0,0.0,0.0,0.0,
1.0,1.0,1.0,1.0,1.0,1.0,
1.000000000,0.000000000,0.000000000,0.000000000,0.000000000,
0.000000000,1.000000000,0.000000000,0.000000000,0.000000000,
0.000000000,0.000000000,1.000000000,0.000000000,0.000000000,
0.000000000,0.000000000,0.000000000,1.000000000,0.000000000,
0.000000000,0.000000000,0.000000000,0.000000000,1.000000000,
-0.000000000,
-0.000000000,
-0.000000000,
-0.000000000,
-0.000000000,
0.004933030,-0.024435000,0.040872101,1.064859986,0.723523021,
0.073587403,0.197079003,-0.065861501,-1.080100060,-1.186159968,
-0.078412600,-0.000610745,0.001292690,-0.815878987,-0.913550973,
-0.171514004,0.706609011,-0.813937008,0.181097001,-0.360601008,
-0.019417601,0.818310022,-1.157009959,0.144909993,-0.488842010,
-0.565541029,0.491667002,0.032559499,0.008849870,0.018075399,
-0.580439985,0.343775988,0.035106000,0.229947999,-0.008430640,
0.027182000,-1.716889977,1.763810039,0.079784699,-0.268231004,
-0.023247199,0.036161602,0.004101830,-1.161890030,0.661678016,
-0.614790976,0.050095301,-0.753512979,0.020881999,0.212197006,
-0.005712730,-0.017027499,0.077575602,-0.020078801,-1.231660008,
0.015891001,0.200034007,-1.088439941,0.439444005,-0.846189976,
-0.954994023,0.011564200,-0.016832501,-0.638373017,-0.255005985,
0.016929800,-0.010037800,0.019275101,0.008201370,-0.000438493,
-0.137398005,1.338310003,0.494816989,0.264539987,-0.281946003,
-0.021430099,-0.003105280,-0.034949701,-0.475156993,-1.255149961,
0.084362797,1.702200055,-0.381404012,-0.255338013,-0.211514995,
-0.349467009,0.003712770,0.012039700,-0.076441698,0.055403300,
-0.072631501,0.637075007,0.154220998,-0.745238006,0.013577800,
0.078793399,0.656163990,0.567332029,-0.276757002,0.114393003,
0.030200301,-0.614830971,-0.988174021,0.129795000,-0.076804496,
-0.073889397,-0.859835982,-0.746060014,0.592049003,-0.503127992,
0.060975101,0.001328880,-1.787809968,-0.006236010,0.004561520,
-1.097010016,0.014125700,-0.010953900,-0.476595998,-0.452832013,
-0.656524003,-0.016505200,0.000612824,-0.513311028,0.109329998,
0.000116504,0.005451340,-0.021523200,-1.920770049,0.787189007,
-0.133122995,-0.207092002,0.090220802,-1.353670001,-0.143551007,
-1.756229997,-0.186911002,0.168125004,0.004944530,-0.023554699,
-0.049419500,1.239820004,1.210190058,0.596753001,-0.419914007,
-2.158610106,0.023825601,-0.023498500,-0.023139801,0.001591180,
-0.015469200,-0.010353700,0.000095152,0.007354540,0.013604400,
-1.924020052,-0.097144000,0.010552600,-0.035108700,0.037091698,
-1.821830034,0.011478700,-0.163525999,0.140156999,-0.406340003,
-0.013098900,0.154192001,-0.139330998,-1.711480021,-0.750530005,
-0.025930900,1.697600007,-1.650500059,-0.024004500,-0.608909011,
0.294514000,0.961739004,-0.845631003,-0.063422397,0.052988201,
-1.747249961,0.002444750,-0.001849720,-0.002999390,-0.003673340,
-0.550264001,0.000865658,0.517646015,-0.000686228,0.094204903,
-1.062019944,-0.004393220,-0.816865981,-0.024187000,0.196388006,
-0.862895012,-0.025964599,-0.117170997,0.076674297,-0.378277004,
-0.088551700,-0.203740001,0.222432002,-0.634311974,-1.507580042,
-1.390159965,-0.098479301,0.050562602,-0.028128101,0.066278502,
0.109477997,1.619619966,-1.703050017,-0.171375006,0.610081017,
0.011539800,-0.028421201,-0.000325021,0.321128011,-1.142220020,
0.022137100,2.286740065,-0.092765003,0.019502699,0.069699600,
-0.314449996,0.006641940,-0.060317699,-0.550324976,-0.116599001,
0.036079299,-0.996833980,-0.609295011,0.092221200,-0.105100997,
-0.009477230,0.005010050,1.503819942,-0.289126009,-0.205648005,
-0.006382760,0.002942820,0.003934940,0.002141700,-0.003854180,
-0.015206400,-0.477250993,0.258653998,-0.102123998,0.725973010,
0.272644013,
-0.726490974,
-0.778168976,
0.248621002,
0.172600001,
0.031532101,
-0.084186502,
0.070256300,
-0.264100999,
-0.005442910,
0.282386988,
-0.624427974,
-0.614547014,
-0.030573200,
0.251866996,
-0.719573021,
-0.408039004,
0.190770000,
-0.458694011,
0.116659001,
0.021026099,
-0.218620002,
0.039987098,
-0.709137976,
-0.088695697,
0.015145100,
-0.597128987,
-0.373079002,
-0.248662993,
-0.456851006,
-0.029494099,
-0.503992021,
-0.450428009,
-0.383677989,
-0.008266490,
0.526961982,
-0.540826023,
-0.059180699,
-0.257616013,
-0.071687803,
-0.700336993,
-0.176421002,
-0.348354995,
0.263713002,
-0.002439620,
0.103309996,
0.028671900,
-0.534949005,
-0.024814000,
0.440342993,
-0.668403029,1.257500052,3.427789927,0.189877003,-0.229316995,0.442844987,0.245989993,0.049400400,0.428808004,0.136989996,0.290627003,0.207050994,2.694430113,0.034128800,-0.274659991,0.291337013,0.412431002,-0.005861620,-0.678746998,0.037143599,0.546923995,-0.185764000,-0.325697005,2.394969940,-0.536424994,-0.482948005,-0.499011993,0.722015023,-0.064890601,1.439319968,0.018106099,1.102970004,-0.160404995,0.530525982,-0.078479603,-0.133057997,1.274219990,0.195501998,-0.085193001,0.221616998,1.138219953,0.193765000,-0.023350200,-0.231445000,0.072253801,-0.196491003,0.022422699,0.616714001,0.038352501,-0.826053023,
0.101600997,0.147850007,0.123069003,0.466206014,0.455677986,-0.457455993,0.820348024,-0.189715996,-0.858557999,0.349801004,-0.305900991,-0.268801004,-0.120516002,0.032714099,-0.558622003,-5.224820137,0.387923986,-0.100690998,0.002566850,1.162189960,0.453110993,-0.022265101,0.307787001,2.293699980,-0.036155500,0.247379005,-0.022822199,0.074155599,0.127205998,1.081900001,-0.047014400,-0.004886190,-0.172382995,-0.517259002,-0.424021989,-0.218042001,-3.616199970,-1.842759967,0.558682978,-0.197660998,0.373843014,0.760712028,-0.025204301,-0.059590999,-0.126629993,0.185065001,0.257901013,-0.064420901,-0.010255700,-0.329214007,
0.527260005,1.560369968,-0.303903997,-0.243788004,0.489118010,0.247535005,-1.383159995,0.109686002,-0.711217999,0.270514995,0.778348029,-0.841169000,-0.838227987,-0.022625700,-0.962285995,0.224307999,0.950773001,0.259889990,-0.019212101,0.431263000,1.373139977,0.317734003,-0.226558000,1.352360010,0.231484994,-0.062225401,-3.833820105,-0.464062989,-0.550978005,-0.285207003,0.033841800,0.028797800,0.415832996,-0.591188014,-0.937999010,-0.827455997,3.084729910,-0.089372002,-0.156651005,0.467999011,-0.486624986,0.051595598,0.214064002,0.759845972,0.837612987,-0.855512023,0.802114010,-0.346255988,0.024894901,0.022072200,
-4.231339931,-0.375187010,2.047699928,-0.593415976,0.557595015,-0.221046999,0.383960009,0.204676002,0.625488997,-0.441794008,0.187680006,0.179851994,-1.285590053,-0.002323690,0.459782004,-1.323459983,-0.216784000,-0.297690988,-1.037089944,-0.289710999,0.363175988,1.037690043,-0.008150200,-0.433463991,-0.019524699,1.069769979,0.738177001,0.149892002,0.150187001,-0.391797006,-0.027605601,0.399821013,0.275952011,-1.039960027,0.114131004,-0.891490996,-0.841979027,-0.714811027,-0.143781006,0.141993999,-0.569917977,0.183203995,-0.436457008,0.487010986,0.198423997,0.104359999,-0.403982997,-0.426425010,-0.019696301,-0.959281027,
0.122661002,-0.355361998,2.838920116,-0.247921005,-0.162246004,-0.174088001,0.095951103,-0.667389989,0.801110983,-0.531381011,0.156460002,-0.388440013,-0.283035010,0.017290700,-0.309774011,1.482710004,0.595153987,0.000177541,-1.896890044,0.862230003,0.573001027,-0.049270399,0.861110985,-0.593764007,0.157792002,-0.454239994,-1.142799973,0.125377998,-0.742053986,-0.379552990,-0.007749840,0.541090012,0.032720901,0.723442972,0.410225987,-0.025242500,0.175698996,-1.153699994,0.082081199,0.396793008,-0.702019989,-0.072726801,0.660624027,0.656892002,-0.327966005,1.071570039,0.547843993,0.733395994,0.019485600,-0.171114996,
-9.650540352,0.747780025,-0.023581499,0.023515400,0.021303700,-0.506715000,0.365043014,-0.042615902,-0.597144008,0.063484699,0.475897998,0.235010996,0.208792001,0.034636501,0.410632014,2.314110041,-0.327820987,-0.139452994,-0.559726000,-1.568050027,0.539135993,0.618382990,-0.409599990,0.828033984,-0.693937004,-0.111888997,0.749572992,-0.222216994,0.494746000,0.208419994,0.026049500,0.453552991,-0.767104983,0.206853002,0.364589006,-0.874426007,-1.212370038,0.208288997,-0.024271799,0.532689989,-0.504755974,0.524284005,-0.119930997,0.878360987,0.057161201,-0.826063991,-0.303474993,0.062513597,-0.020907599,-0.212583005,
-0.121771999,0.037733600,-0.459331989,0.924888015,1.184980035,0.128628001,-0.405508995,1.664829969,0.342611998,-0.095896199,-0.342543989,-0.607842028,-0.175810993,0.031080799,-0.472658008,1.019199967,1.018530011,-0.215283006,-1.666229963,-0.307601005,-0.380282998,-0.495573997,-0.772940993,0.917973995,-0.072998501,-0.368104011,-0.145392001,-0.146322995,-0.553520977,0.015523300,0.019694701,-0.005679110,0.235126004,-0.051627301,0.341948986,-0.213835001,0.157653004,0.241043001,-0.336053997,-0.017039601,0.236315995,0.053274900,-0.882409990,0.623907030,-0.021177599,-0.190686002,-0.042469699,0.260423988,-0.017485499,0.573850989,
0.416049004,0.536619008,-0.040332500,0.416211993,-0.064470597,-0.611652017,0.567061007,0.255088001,-0.303447992,-0.540112019,1.143260002,0.399053007,-1.856930017,-0.052700400,0.341181993,1.767289996,0.233962998,-1.710379958,-1.383440018,0.443331003,-0.106523998,0.033340599,0.166011006,-0.412882000,-0.218688995,0.058485400,-0.655539989,-0.273727000,0.876698971,-0.850323975,-0.011873500,-0.306428999,0.897837996,-0.439750999,0.185414001,-0.102580003,0.299937010,0.061931301,-0.583800018,-0.376080006,0.946115017,0.059763599,-0.128287002,0.173802003,0.348197997,-0.860467017,1.603520036,-0.091285303,0.029213799,0.022553500,
0.216247007,-0.563244998,-1.535879970,0.452506006,-0.021257401,0.538805008,-0.176003993,-0.187085003,-1.106449962,0.784395993,0.250436008,-0.273106009,-0.934866011,0.011620700,0.252986014,0.712787986,-0.212377995,0.978793979,-0.106844999,-0.470034987,-0.876372993,0.358574986,-0.048822802,-1.310789943,0.032675300,0.571866989,-0.062512003,-0.624513984,-0.205411002,0.380308002,0.016149599,0.592410982,-0.273160011,-0.314200014,0.506192982,0.380380005,1.095270038,-0.303683013,0.243860006,0.588566005,0.771115005,0.900646985,0.323532999,-0.452836007,-0.183791995,-0.049745299,-0.234910995,0.259434015,0.010248900,-0.982574999,
0.046015900,-0.077042602,-2.482969999,0.408024013,0.371131003,-0.472386003,-0.585654974,0.736872971,0.024661999,-0.612765014,0.976069987,-0.842837989,0.538673997,0.018023301,0.129291996,0.884169996,-0.219473004,-1.016530037,-0.282061994,0.361476988,0.308001012,-0.374951005,0.763279974,0.273669988,-0.269930989,0.200663999,0.543223023,0.760473013,-0.496295989,-0.260605991,0.038883802,0.511560977,-0.278037012,-0.285048991,0.289499015,-0.400887012,-0.717324018,-0.004853570,0.126849994,-0.545929015,0.927731991,-0.530686975,0.624270976,-0.223913997,0.569092989,-0.866126001,0.197059005,0.189886004,0.044432100,0.319947988,
-0.355547994,-0.857901990,1.140619993,-0.232464999,0.093060099,-0.390733004,-0.650945008,1.125740051,0.524322987,-0.303640008,-1.763610005,-1.171290040,1.035670042,-0.010311200,0.248953000,-3.543109894,0.436690986,0.157340005,1.140249968,0.483723998,0.476179004,-0.431683004,-0.229123995,-0.070457898,0.901126981,-0.242770001,0.861751974,-0.636691988,0.268337995,1.517910004,-0.023145299,0.160058007,-0.230664000,0.087475300,1.321820021,-0.358947009,-1.357509971,-0.463456988,0.121735997,0.543002009,-0.170956001,-0.009322420,0.112916999,0.298280001,-0.288783014,0.469810992,-0.324788004,-0.275440991,-0.020989200,0.315771997,
0.362163007,-1.322790027,-4.519460201,0.256401002,0.448769003,-0.019307200,-0.409545004,-0.858217001,-1.374850035,0.281361997,0.891000986,-0.280571014,1.142709970,-0.047212102,0.708101988,1.410959959,-0.215568006,-0.160885006,-0.351599008,-1.217300057,-1.148959994,-0.874382973,0.152401999,-0.165500000,-0.060005601,0.306385994,-1.029330015,0.205521002,-0.949585974,0.283089012,0.040610399,-0.850293994,0.194796994,-0.447264999,1.059870005,0.336254001,1.310660005,0.647657990,0.143479005,-0.159611002,1.658589959,-0.510936975,1.447520018,-0.392713010,0.041002002,-0.959056973,-0.623085022,-0.017712800,0.018854000,-1.069849968,
0.851310015,-0.892060995,-0.938992023,0.254678994,0.338694990,0.357082009,0.128976002,0.011181300,-0.151687995,-0.025245501,-0.332516998,-0.744812012,1.085209966,0.021233100,-0.208905995,-0.893943012,-0.055391699,-0.398052990,0.356543005,-0.762084007,-0.359189004,-0.478926986,0.171931997,1.099069953,-0.063671097,0.691646993,0.148809999,0.159061998,-0.791818976,-0.120603003,-0.047852501,-0.284635007,-0.209496006,-0.901983976,1.089359999,0.245131999,2.102720022,-0.515232980,-0.052428000,0.218688995,1.047160029,-0.159695998,1.068400025,-0.144290000,0.181165993,0.348702997,-0.357419014,0.012212000,0.012923400,-1.559010029,
1.114410043,3.655719995,-4.391479969,-0.169600993,-0.200038001,-0.128040001,0.021969199,-0.953612983,-0.823410988,0.272451997,-2.657989979,4.254809856,-1.389899969,-0.047511801,-0.493310004,-3.346420050,0.470182002,0.141434997,0.242515996,0.378926009,0.040927600,-0.091121197,0.260073006,-6.464479923,-0.231749997,0.516982973,-0.209372997,0.048161000,0.105465002,-0.152434006,-0.028063800,-0.464893013,0.268139988,2.135629892,0.146439999,0.269136012,-0.661463022,0.247403994,-0.165897995,-0.300799012,-1.469280005,0.394086003,0.162799999,-2.114989996,0.234749004,1.520079970,0.023084899,-1.568660021,-0.015374700,-0.886731982,
-0.012177600,-0.023846099,-0.030859500,0.037630498,-0.025738399,0.018255301,-0.029349299,-0.028213400,0.028899901,0.047383100,-0.033995699,0.005516810,-0.050577201,-0.002619030,0.022724800,-0.016941300,-0.008628820,-0.023887800,0.012115400,-0.008431580,-0.039809901,0.033951201,-0.029504200,0.039531101,0.009375980,-0.036655400,-0.029777201,0.020920800,0.012526400,0.009226360,0.000779760,-0.001989870,-0.032024600,0.017204801,-0.013828100,-0.006370920,-0.034833800,0.028347800,-0.041528001,0.007806140,0.020384699,-0.008050020,-0.056548301,0.028881401,-0.039639398,-0.020540200,0.006227510,-0.009454370,-0.042927802,-0.036288701,
0.025924200,0.279029995,2.574480057,0.207073003,0.097752899,0.977927029,0.037152000,0.364885002,0.302543014,0.170754999,-0.093168497,-0.452939004,2.843300104,0.008156060,0.114592999,-3.394490004,-0.351756006,-0.330132008,0.098522499,-0.340050995,-0.223649994,0.108351998,0.409756988,1.905380011,1.093889952,-0.078395799,0.067374103,0.677942991,-0.133190006,2.526160002,0.019094300,0.938196003,-1.241369963,-0.268685997,-0.148065999,0.068685398,-0.305456996,-0.220762998,0.716256976,-0.218452007,0.557884991,1.310920000,-0.526669979,-0.158511996,0.388947994,0.111080997,-0.233230993,-0.052504100,-0.024272300,-0.421573997,
0.117279999,-0.075220004,1.683459997,-0.000664514,0.082880802,0.550594985,0.307841986,-0.098957300,-0.413277000,0.011943000,0.060686901,-0.071631603,0.455707997,-0.014067600,0.001489190,-1.270609975,0.094432801,0.052022900,-0.257097989,0.010905200,-0.141571999,0.057116698,0.038045499,0.725870013,0.004050780,0.198688000,-0.037741300,1.421910048,0.000753353,2.374190092,-0.031390000,3.161590099,0.007402280,0.008033960,0.045298301,-0.162146002,14.577599525,-0.168358997,0.205544993,0.030041300,0.055626001,0.834515989,0.133157998,-0.114266999,0.086140297,-0.029687701,0.012608700,0.058481801,-0.028848100,-0.337895989,
-4.730169773,-0.037267800,-0.034970898,-2.873899937,-1.351050019,-0.250223994,-0.518122971,0.057347700,-0.399019003,-0.517448008,-2.719559908,0.030099800,0.189913005,0.007625190,-0.151982993,0.027566200,-0.962643981,0.240376994,-0.558197021,-0.029128600,0.320264012,0.079342604,-0.421065986,0.032976899,-0.250245988,-0.483888000,-0.279655010,0.157959998,-0.213942006,-0.303099006,0.002582410,0.287434995,1.652060032,1.413319945,-0.953231990,-0.079283997,-1.218479991,0.099448301,-0.004778130,-0.089727402,0.038118400,0.229414999,-0.882323027,-1.321069956,0.370923996,0.098369204,-0.016760400,0.067963697,-0.053174600,-0.260473013,
-0.119980000,0.092713602,3.457710028,-0.670508981,-0.367727995,-0.208215997,0.335231990,-0.188075006,-1.118180037,0.345082998,-0.080721401,0.328458995,1.901209950,-0.039075699,0.547617018,-0.545781016,0.426607996,-0.231520995,-1.182600021,0.373429000,-0.208970994,-1.371649981,-1.336290002,-0.004819010,-0.099330798,-1.593469977,-0.316298991,0.568517983,-0.368452013,-0.121864997,-0.013622900,1.015730023,-0.835928977,1.160259962,0.505746007,0.332852989,4.396550179,-0.133434996,0.948395014,0.316125989,-0.443450987,-0.529592991,-0.104589000,0.239625007,-0.632664025,0.642584980,2.337549925,0.473015010,-0.023387600,-0.073942602,
-1.405400038,1.627959967,-0.756272972,-0.644529998,-0.464872003,-0.106541999,-0.592244029,-0.146709993,-1.348809958,0.136897996,-1.773959994,0.306358010,0.073209502,-0.003447130,-0.200167000,-1.639690042,-0.038341999,0.064359799,0.398032993,0.173240006,-0.343816012,0.203722998,-0.298503995,0.373540014,-0.054118901,0.931968987,1.249269962,-0.169066995,0.233772993,0.179957002,0.003522210,0.316877007,0.197576001,0.784963012,0.841181993,-0.278860003,-0.027989499,0.223649994,0.023914600,-0.170940995,-0.082628801,0.128475994,0.122665003,1.661030054,-0.255329996,0.093240499,-0.152602002,-0.127611995,0.023782700,-0.168326005,
0.438421994,-0.123021998,-0.313075006,0.739116013,0.252267003,0.591507018,-0.372774005,0.422048002,0.025405699,-0.112819001,0.373659998,-0.250514001,-0.680388987,0.017726000,-0.021732399,2.525089979,-0.231390998,0.191281006,-0.461041987,-0.508579016,0.334360003,-0.454225004,-0.041044500,0.029998600,-0.440086991,0.060963601,-0.283681005,0.002994630,-0.312139988,-0.768579006,0.000376372,0.611500978,-0.151198000,-0.415742993,0.214353994,0.063071802,1.311089993,0.033325002,0.223510996,-0.188014001,0.003954100,-0.000788442,0.601131022,-0.160490006,-0.673191011,-0.016209099,-0.271948993,0.050327800,-0.009450360,-0.950708985,
0.214427993,1.738780022,-1.232920051,-0.471287012,-0.045832999,-0.283953995,-0.104889996,0.070862100,-1.005929947,0.238655999,0.809939981,0.324977994,-0.021418801,-0.006622700,0.157722995,-0.295367002,0.363279998,0.331064999,0.655788004,0.152654007,-0.340104997,0.688993990,-1.220129967,-0.000912294,0.303525001,0.267107010,-0.203272998,-0.303957999,1.200999975,-0.328920007,-0.001426480,0.404558003,0.100786999,-1.119910002,0.573316991,0.486790001,-0.095331803,-0.486835003,-0.106995001,-0.133722007,0.502166986,0.146855995,0.474855989,-0.555014014,-0.631425977,0.231594995,-0.248799995,-1.453600049,0.012037300,-0.489078999,
0.140746996,0.009024980,1.396080017,0.673165977,0.495685011,-0.814661980,-0.556849003,0.523018003,-0.142747000,1.436869979,-0.227225006,0.418157995,0.651643991,-0.013921700,0.144394994,1.251260042,0.079983100,0.273005009,-1.927360058,0.552309990,-0.531045020,0.051786099,-2.102770090,-0.771157980,-0.332008988,-0.060593400,-0.690590024,-1.005300045,0.563836992,1.257480025,0.014945800,-0.785354018,0.145576999,-0.395150989,0.377600014,0.178327993,0.696933985,0.246582001,-1.258309960,-0.413740993,0.980176985,0.831744015,0.214205995,0.472157001,0.473120987,0.051944599,0.379952013,0.695248008,0.001905300,0.120589003,
0.509682000,0.331234008,-0.927398026,0.281711996,-0.810148001,-0.243379995,-0.956880987,0.131775007,-10.854499817,-0.253630012,0.260928988,1.444309950,1.440000057,0.020230001,-1.005139947,1.452569962,0.124513000,-0.560383022,-1.625980020,0.081124596,0.367992997,-0.462386996,-1.726379991,0.569468975,-1.436439991,-0.826883018,0.346076012,-0.804516017,-0.502484977,-0.033824202,-0.010029900,0.677110016,0.729008973,0.276086003,0.087286398,-0.275431991,-1.608319998,-0.552878022,0.575158000,0.561432004,0.135112002,0.343392015,-1.253990054,0.519595981,1.759039998,0.215571001,0.245931998,-0.180050001,0.031515699,-1.461500049,
0.905735016,-2.357239962,1.618839979,-0.154951006,0.763329029,-0.092919901,0.034881402,-0.473982006,3.577239990,-0.321819007,0.109062999,-0.700187027,0.976221979,0.000802466,-0.364895999,3.752530098,-1.317759991,-0.390547007,-1.272840023,0.619920015,0.620395005,-0.469191998,-0.517352998,3.231630087,0.572237015,-2.067899942,-0.414249986,-0.050340001,-0.192784995,-0.241622001,-0.035502199,-0.001888650,1.112570047,1.295070052,1.503640056,-0.770667017,-0.531234980,0.063259900,-0.622527003,0.094072700,-0.454849988,0.122171998,-0.994616985,0.539197981,-0.180080995,0.653684020,-0.064852498,0.296092987,0.039148901,0.208006993,
0.161070004,-0.891483009,-0.236404002,-0.030902799,0.819696009,0.267499000,0.940586984,-0.086919002,-0.970714986,0.832858026,0.756981015,-0.560241997,0.183942005,-0.026248600,-0.104004003,-0.070719004,0.063606799,-0.334435999,-0.172432005,-0.980307996,-0.543018997,0.026601501,0.643491030,1.850700021,0.173553005,0.350930989,-0.257097006,0.246806994,-0.800571024,1.076560020,-0.028475801,-2.049900055,0.662666023,-0.080004103,-0.900857985,0.534574986,-0.761986017,-0.125422001,0.275059015,-0.210324004,0.822034001,0.698580980,-0.223846003,-0.530867994,0.220179006,-0.121937998,-0.877210021,1.579229951,0.065796599,-0.324849010,
-0.505906999,0.279134989,0.169412002,-0.016036700,-1.138739944,-0.033929899,-0.214187995,-1.978989959,-0.004277260,0.066743702,0.112503000,-0.036649901,-0.366183013,-0.012225000,-0.512521029,-0.708262026,0.260556012,0.752479017,1.040410042,0.350995004,0.759342015,1.162340045,0.678465009,-0.875111997,0.292396992,-0.083525002,0.460119992,0.040148798,0.724563003,-0.005181120,-0.011180200,-0.083390199,-0.402316988,0.357324988,-1.625270009,0.478965014,2.208220005,-0.476381004,-0.083815798,-0.119116001,-0.553726971,0.173042998,-1.337180018,-0.231318995,0.395675004,0.352221996,0.555898011,0.896387994,-0.034861300,0.360464007,
0.122277997,-0.444175005,2.066900015,-0.916673005,0.605856001,-0.342997998,-0.689484000,1.056180000,-0.922628999,0.460289001,0.073519699,-0.589954019,-1.080150008,0.000224105,-1.250599980,2.378259897,0.886675000,-0.211271003,-1.400030017,-1.167469978,-0.448837012,0.617202997,-0.313282013,-0.472108990,-0.833609998,-0.584321022,-0.558475018,0.090123303,-0.390305996,0.624513984,0.009847820,-0.144556999,-0.167679995,0.622699976,0.473809987,-0.509727001,0.987357020,-0.159274995,0.067369796,0.255764991,0.401780993,-0.309453011,0.881482005,0.841747999,1.279090047,-0.347496986,-0.631909013,0.273126006,-0.028808700,-0.598981977,
0.624149978,1.225749969,-1.249150038,-0.108484998,0.375355005,0.885508001,-0.806056976,-0.245453998,0.108126000,-0.048691601,0.236649007,0.749520004,-0.110918000,0.030547900,0.365680009,0.562058985,-0.187482998,0.666872978,-0.655234993,0.027428599,-0.014793400,-0.505073011,-0.692508996,-0.312166989,0.060089700,-0.224768996,-1.063830018,-0.388788998,-1.043239951,-0.103790000,-0.024105100,0.515271008,-0.149816006,-0.198256001,-0.862845004,0.116497003,-1.336799979,-0.053768799,-0.033248201,-0.176935002,-0.369046003,-0.191291004,-0.470369011,0.846957028,-0.376865000,-0.200629994,-0.140636995,1.286560059,0.000922066,-0.913273990,
0.000417332,0.005513010,0.041542199,0.030923000,-0.001585570,-0.040254001,0.034727599,-0.016744800,-0.022604400,0.022942301,0.032989901,0.031353299,0.036780301,-0.001876840,-0.021682000,-0.043219600,-0.028903799,-0.019742399,0.040993098,-0.006078700,0.006253940,0.020315301,-0.045014501,0.023382900,-0.019409500,0.023591800,-0.048753802,0.030069400,0.030338500,-0.026998401,0.019950701,0.038859598,-0.041024700,0.019091001,-0.046434000,-0.050295599,0.020471700,-0.015502000,0.007091770,-0.022912100,0.003215890,0.030905100,-0.025295399,-0.008722260,-0.017085100,-0.042568099,-0.039396401,-0.009783680,0.003325290,-0.014390300,
-0.147915006,0.562665999,-0.772156000,-0.440151006,0.196248993,-1.228860021,0.746841013,-0.062134501,-0.210279003,-0.377781987,1.413069963,1.243680000,-2.106630087,0.043871399,-0.611481011,0.959698021,-1.430199981,-2.039370060,2.212480068,-0.465687007,-0.675216019,-0.165683001,0.013583200,-9.813280106,-0.910941005,1.281509995,-1.672099948,0.663453996,0.296236992,0.548641980,-0.032005802,-1.917629957,0.899969995,-0.906247020,0.095577002,-0.754285991,3.966310024,0.222832993,-0.102863997,1.357499957,0.022655400,-1.590540051,0.324856997,1.386279941,0.117853999,0.982418001,-0.135324001,-0.291990012,-0.023502300,-2.182349920,
0.044389699,0.482145011,-1.350669980,-0.192295000,-0.036171000,0.328137994,-0.167353004,1.102730036,0.880105019,-0.479584992,0.411832005,-1.369760036,-0.203927994,-0.028551601,0.211998001,-0.543038011,-0.172308996,1.517930031,-0.000581872,-0.583132982,-0.668623984,0.440151989,0.810221016,-0.434870988,0.609656990,0.054756999,0.421534985,0.463654011,-0.739947021,0.067631699,0.019636400,-0.920961022,0.125457004,-0.256155014,0.809512019,-0.989556015,2.297729969,0.846556008,0.037577499,-0.162042007,-0.478273988,0.237105995,1.843389988,0.076496102,0.291487992,-0.813607991,-0.576358974,0.278216004,0.027804701,-0.163060993,
1.027780056,-0.126808003,2.143800020,0.060771000,0.356083006,-0.013423200,-0.362964004,-0.228773996,-2.002729893,-0.518757999,0.616963029,0.326624006,-0.577839971,-0.013357400,1.230149984,2.725260019,-0.957010984,-0.905911982,0.019893000,0.240165994,-0.817470014,-1.269459963,0.725385010,0.732963979,-1.176460028,-0.810989976,-0.415273011,0.307832986,-0.498935997,-0.255746007,0.016164400,1.358809948,0.316929996,-0.030467000,0.754491985,0.403427988,1.099589944,0.594102979,-0.110949002,0.492709011,0.076831304,-0.308432013,-0.240136996,-0.765143991,-0.138152003,0.537738979,-1.933529973,1.633530021,0.014132500,-2.373859882,
-0.004169950,-0.053666301,0.025672400,-0.064605802,0.016443700,-0.006893940,0.024503000,-0.010163700,-0.029998099,0.011556800,-0.018793400,0.034523699,0.037739798,0.034959901,-0.019707700,0.033670299,-0.036415700,-0.055627301,-0.027796600,-0.034910802,0.016742799,0.007670120,-0.021507001,-0.034890201,0.033927299,-0.029630501,-0.025370801,-0.008362490,0.023880500,-0.055453699,-0.014172900,-0.061729498,0.022529799,-0.051049799,-0.005384920,-0.030605800,-0.020574000,0.033081599,0.026115300,0.008832410,0.000771650,0.031963199,-0.032824699,0.035958700,0.033066299,-0.015595100,-0.038223200,0.010519300,-0.026591800,-0.035505299,
-0.529018998,-0.138551995,-0.082037903,0.524554014,-0.266047001,0.822744012,0.114864998,0.592612028,0.323893994,0.226223007,0.023220999,1.131160021,-0.217306003,0.018716799,-0.434652001,1.911659956,-0.889464021,0.231392995,0.216613993,-0.024404701,-0.456977010,-0.356667012,-0.272976011,-0.714284003,-0.527790010,-0.438199013,-0.597922981,0.292270005,0.072738796,-0.408594996,-0.029926799,0.011615100,-0.111794002,0.506326020,-0.244663000,-1.013849974,2.273639917,0.416790992,-0.419544995,-0.099566899,1.353889942,0.396084994,-0.278881013,0.980259001,-0.271117985,-0.477923989,0.234016001,1.015779972,0.000934844,0.754576981,
0.728348017,-0.578272998,0.244175002,0.084192596,-0.132723004,0.514517009,-0.586956024,0.298431993,0.434199005,-0.275281012,1.030490041,0.408446997,-0.171768993,-0.017992901,0.413865000,1.540030003,0.706466973,-0.377730012,0.439485997,0.472413987,-0.404421985,-0.614755988,2.023370028,1.396379948,-0.055955801,-0.549517989,-1.303310037,0.025025999,0.301577002,0.302112013,-0.038653400,-0.278232992,0.771274984,-0.719518006,0.488411009,-0.769331992,-1.015900016,0.558561981,0.288177997,0.066425003,0.908726990,-0.010367500,0.014041800,-0.214224994,-1.588770032,-0.870397985,-0.032989301,-0.206492007,-0.022211900,0.117173001,
0.798750997,-0.590521991,2.149460077,-0.078778900,-0.519186020,-0.404121011,0.250968993,0.092190102,-0.752279997,0.340873986,0.050362699,0.473347008,1.996670008,-0.027977999,-0.507709026,-1.178329945,0.727568984,-0.038431998,-0.477521986,0.493176997,0.462240010,0.222617999,-1.737280011,3.395849943,2.197329998,-0.219575003,0.030902000,0.266463995,-0.357295990,-0.179205000,0.028810900,-0.624179006,1.020099998,0.731226981,0.691649020,0.394493997,-2.817409992,0.454932988,0.572224021,0.495496988,-0.630635023,0.632045984,0.674344003,0.344155014,0.325008988,0.521035016,-0.064710602,0.265608013,0.049455699,-0.467474997,
-0.036121901,0.860669971,0.224529997,-0.453824013,-0.273815989,0.720070004,0.462063998,-0.531396985,-0.162211999,-1.240079999,-0.067207500,3.259840012,-0.188455999,-0.027349399,-0.051642898,-2.192800045,-0.244988993,0.211079001,-0.766439021,0.215599000,-0.037764400,-0.329870999,-1.284780025,1.752810001,-0.394391000,-0.192155004,-0.670998991,0.412200987,0.356326997,0.194309995,-0.009736910,0.510523021,-0.322688013,-0.179349005,-0.027124301,-0.224643007,0.880048990,0.261397988,-1.147150040,-0.145403996,0.607034028,0.924889028,-1.083860040,0.428795993,0.783021986,0.000457432,0.246413007,0.430175990,-0.006689060,0.209129006,
0.097320303,0.067509301,0.453875989,0.107647002,0.275703013,0.378378004,-0.290295005,0.042669199,0.034018598,0.361371011,0.120999001,0.477818012,0.916773021,-0.025533799,-0.342339993,-0.703589976,0.426061004,0.650744975,0.673142016,-0.552784026,-0.426624000,-0.190042004,-0.063872002,3.471920013,0.147337005,-0.006845920,0.133125007,1.465839982,-0.112526000,0.869413018,0.051018901,1.709890008,1.344990015,-0.159106001,-0.018612999,-0.895823002,2.852040052,1.075829983,-0.463678002,0.395978987,-0.284817010,0.767412007,0.511094987,0.040183298,-0.201199993,-0.124890000,0.176174000,0.070544399,-0.007924540,-0.448040009,
0.005652740,0.024944199,-0.038621299,-0.015760100,-0.030085800,-0.031058099,-0.008785610,-0.009711830,-0.023501201,-0.004496960,0.014107500,0.024195600,-0.032423001,-0.011961400,-0.038891502,-0.012156300,-0.026645901,-0.023017200,-0.013741900,0.004127540,-0.006821790,-0.008390750,-0.000628028,-0.028278900,0.029808600,-0.017073700,-0.018727001,-0.003834500,0.014716000,0.003900450,0.006005760,0.045197502,-0.005341950,-0.013255700,-0.006627070,0.005158510,-0.021422099,-0.037510801,0.028873101,-0.006964220,-0.047086399,-0.040293898,0.008985830,-0.013764200,0.007990780,-0.021198099,0.008887150,0.014440500,0.026362499,0.006193000,
-0.008711420,-0.039770398,-0.023524700,-0.028161800,-0.057633400,0.018874200,0.032901499,-0.021000599,-0.022355400,-0.009892390,0.014526000,-0.024825200,0.033421300,-0.010112800,0.013802000,-0.000356770,0.039830700,0.003791460,-0.028395001,0.004361400,-0.045368299,-0.043761000,-0.015310000,0.006234790,0.014965100,0.011846500,0.030465201,0.003116110,-0.030497700,-0.005760730,0.002305010,-0.007981580,-0.016526200,0.019811001,-0.011409600,-0.008383550,-0.003552190,-0.018001599,-0.007165680,-0.048794899,0.031130200,-0.027137700,0.020890599,-0.004539850,0.009116590,-0.023644600,-0.000727863,-0.047574401,-0.039049599,-0.033453099,
-0.107398003,0.249339998,-0.986172020,-0.278111994,0.280160993,0.452567995,0.363202989,0.313542008,-0.346433997,-0.591666996,-0.606886983,1.366719961,1.263319969,-0.029013200,0.201180995,-2.635169983,0.969949007,-0.090071701,-0.403367996,0.154441997,-0.991451025,0.296447009,-1.787179947,0.673072994,-0.015109300,0.031829201,0.066268101,0.979107022,-0.236598998,0.736595988,0.053237401,0.385751992,-0.391965002,-0.005295390,0.238484994,-0.708545029,2.243690014,0.876784027,-0.985960007,-0.299187005,-0.767921984,0.412910014,1.027160048,0.150367007,-0.490265012,0.192186996,-0.604632974,-0.253158003,-0.019242700,0.066425003,
0.000346031,-0.044833399,0.019014301,0.006467760,-0.053421400,-0.002418740,-0.008982060,0.008337540,-0.002204860,-0.048164200,-0.043190401,-0.047702901,-0.009125710,-0.013041300,-0.010109700,-0.023976400,-0.013112800,-0.049477801,0.019350400,-0.030752899,-0.051476501,-0.025269501,-0.040659700,-0.004043910,-0.023510400,-0.000577786,0.024451900,-0.019261001,0.004226810,-0.009587840,-0.005759060,0.014117500,0.031888001,-0.005953460,0.043161798,0.003815300,0.029937100,0.029945100,-0.033086900,-0.004821060,-0.032197200,0.024591900,-0.010707700,0.008895380,0.000958024,-0.007126470,0.008190930,-0.034160201,-0.008508050,-0.009176950,
1.254770041,0.905385017,0.503239989,-1.062590003,-0.112695001,0.310149997,-0.422798991,0.045277301,-0.755870998,0.012045100,-0.008929690,0.307384998,0.699571013,0.021831799,-0.211050004,0.315135986,-0.535840988,0.394479007,0.000061758,-0.153219000,0.139660999,0.920592010,-0.404783994,-0.363992989,2.063349962,-0.627152026,-0.553749979,-0.050928701,0.215497002,0.053038999,-0.019832401,-0.095701702,0.192665994,1.638790011,0.534641027,-0.075090803,1.036890030,-0.240991995,-0.027766900,0.186782002,0.599093020,0.070876800,0.232225999,0.725841999,0.400824010,-1.826670051,-0.223899007,-0.220375001,-0.004061430,-0.119227998,
-0.421819001,0.003767670,0.019110501,-0.330621988,-0.021412600,-0.053500000,0.048320301,-0.388188004,-0.091401003,0.082179002,0.577683985,-0.027403601,-0.008338530,0.007472550,-0.310097009,0.034582801,-0.940877974,0.069530897,-1.302350044,0.749894977,0.032969300,-0.370061010,-0.055957101,-0.033286002,-0.365927011,-0.799019992,-0.155239001,-0.136970997,-0.199964002,-0.013763100,0.029938100,0.266672999,0.383320987,-0.387338996,0.175825998,-0.236125007,0.499172002,-0.111334004,-0.122440003,-0.636623979,-0.001051810,0.107810996,0.244338006,-2.908020020,0.143133000,0.502605021,0.062760398,0.207132995,-0.039194100,1.111119986,
1.363219976,0.930374980,1.160889983,-0.191528007,0.818893015,0.236220002,-0.971840024,-0.655999005,-0.172380000,-0.009107110,1.447090030,0.122078001,0.136856005,-0.029140901,0.040898200,2.659019947,-0.491860002,-0.406531006,0.797335982,0.282198012,-1.074939966,-0.121971004,-0.778594017,1.193899989,-0.245848998,-1.932549953,-0.208426997,-0.046983801,0.211949006,0.358565003,-0.011622100,-0.973450005,0.802394986,0.119033001,0.732963979,-0.526122987,-0.643073022,0.137853995,0.304922998,0.520874977,0.446148008,0.135073006,0.148917004,-0.340999991,-0.808135986,1.695670009,-0.180599004,1.560250044,-0.010347300,0.213896006,
-0.068742000,-0.007085080,-0.975557029,0.216777995,0.456083000,0.381240994,-0.077112503,0.366044998,-0.813181996,0.632646978,0.198130995,-1.558339953,-0.439455003,-0.029706400,1.126099944,-0.124023996,0.419937015,-1.643859982,-1.260339975,0.866553009,0.201992005,-0.170022994,-0.533399999,1.731199980,0.314983994,0.740788996,0.238831997,0.439428002,0.250059992,-0.080002800,0.004139180,0.876438022,0.128813997,0.488692999,0.374002010,-1.486510038,-0.596149981,-0.095333099,0.864112020,-0.188685998,0.610566974,0.167780995,0.853024006,-0.273312986,-0.648347020,0.253562003,1.552469969,-0.280059010,0.043791700,0.658056974,
-0.124679998,-0.992518008,3.033309937,0.388278008,0.255520999,0.248348996,0.514889002,-0.223543003,2.050519943,-0.289263994,-0.100657001,-0.282034993,0.274803996,-0.024781700,-0.155162007,-1.295989990,0.540988982,0.283704013,0.144042000,0.265834004,0.145187005,0.255364001,0.528894007,-0.688318014,-0.395002007,-0.699513018,-0.463609993,1.560050011,-0.026564000,1.580929995,0.025910201,2.012789965,0.178194001,-0.425000012,-0.408838004,-0.075171404,11.404700279,0.196467996,0.158873007,0.013700600,1.026280046,1.044710040,0.439552993,0.587436974,-0.081993103,-0.205032006,-0.498602986,0.225799993,-0.017201500,0.104813002,
0.241715997,-0.052379400,1.421059966,-0.110400997,-0.233155996,0.195088997,-0.540822029,-0.610150993,-1.254390001,0.358435005,-0.373456001,-0.160262004,-0.818301976,0.020891599,-0.121991001,2.300719976,0.075668603,0.087460600,-0.083529398,0.593285024,-0.535383999,-0.491209000,0.873378992,-0.859754026,-0.645834982,0.253322005,0.641645014,-0.173697993,0.093727097,0.115625001,0.021684000,0.391865999,-0.395590991,0.147527993,0.881749988,0.129543006,-0.126698002,0.945623994,-0.081223503,-0.138508007,-0.081916898,0.578826010,-1.063220024,1.460680008,0.301755011,-0.262777001,-0.122488998,-1.348510027,-0.000852270,-0.642085016,
-0.107384004,0.173068002,-0.892755985,-1.054829955,-0.981113017,0.805815995,-0.669544995,-1.091719985,-0.047390401,-0.210102007,0.089136302,0.063380800,-0.039327599,0.041557498,1.337319970,-0.804683983,-0.492944002,0.125275001,-1.350039959,0.755065978,0.317992002,0.123250999,0.032443501,-0.358034015,-0.375420004,0.420143008,0.534712017,0.105811000,0.048227601,-0.325212002,-0.025368501,-0.055511899,-0.319335014,0.478410989,-0.337570012,0.350793004,0.163170993,0.239338994,-1.348000050,-0.448302001,-0.887584984,0.042507399,-0.921629012,-0.321469009,-0.272983015,-0.301898986,-0.508762002,0.393348992,0.042695399,-0.219239995,
0.694353998,
-0.208757997,
-0.337105006,
0.395558000,
-1.043840051,
0.075501598,
-1.166689992,
0.102059998,
-0.206214994,
-0.249127999,
-0.292479008,
-1.170300007,
-1.280910015,
-0.771062016,
-0.014608800,
-0.149360999,
-0.763213992,
1.095219970,
0.209123999,
1.444110036,
0.182557002,
0.461874992,
-1.170379996,
0.655673027,
-0.055776700,
-0.489686996,
1.089840055,
0.211601004,
0.537631989,
-0.013338900,
-1.164019942,
-0.414884001,
-0.496560991,
-0.018393900,
0.230186999,
-0.108929999,
-0.738759995,
0.097548902,
0.430155993,
-0.014394100,
-0.009177570,
0.134298995,
-0.015574800,
-0.788990021,
-0.146892995,
-0.857773006,
-1.260519981,
-0.623230994,
-0.480572999,
0.859803021,
-0.004827340,1.029729962,-0.625117004,1.111369967,0.109581001,-1.464599967,1.333989978,0.247207999,-0.585137010,-0.076526597,0.068574503,-2.081769943,-8.276900291,-0.908809006,0.000186700,-0.101998001,-0.366189003,-1.085240006,0.746526003,-0.671922982,-1.291949987,1.086670041,-0.660238981,-0.153215006,0.909729004,0.279237986,-2.687060118,0.080771700,1.243780017,-0.025612099,-1.933230042,0.728016973,0.790736973,-0.036951501,0.671366990,-1.640159965,-0.579253018,-0.878751993,-0.060550101,0.029835200,0.024645999,-0.815047026,0.028457301,0.334556997,-1.353559971,-0.909107983,-0.155302003,-0.787841976,-0.401874989,-0.215614006,
0.000364804,0.087069400,-0.045980498,0.073843896,-0.123066001,-0.408084989,-0.109502003,-0.037186101,0.033576101,-0.128533006,0.034600500,-0.148119003,-0.071158201,-0.045579601,0.016885901,0.219763994,1.650060058,0.009340480,0.343109995,-0.078945003,0.035840701,0.010120500,-0.108217999,0.110762998,-0.005518960,0.162643999,-0.071187302,0.097353801,-0.131054997,0.012917100,-0.683906972,-0.002312420,0.113977998,0.048687100,-0.259303987,0.111409001,-0.069536500,0.061143301,0.281865001,-0.010904100,0.040399902,0.389867991,-0.000451366,0.118547000,0.281215012,-0.097112402,0.119001999,0.324198991,-0.196871996,0.023188001,
-0.266048014,-0.042328101,1.004639983,-1.399829984,-0.766205013,1.058369994,-4.653039932,0.275712997,-1.172909975,-0.535356998,-0.550926030,-1.968799949,-3.152610064,-1.538879991,0.026206600,0.141781002,0.040030200,1.220360041,0.397298008,1.540779948,1.308760047,-1.308019996,1.313079953,-0.650691986,-0.574469984,-0.061193701,1.134140015,0.145579994,-0.305927992,0.002253830,0.789188981,-0.681167006,-2.019959927,0.044134300,-1.278759956,0.959115982,-0.045145299,-1.919800043,0.166346997,-0.010498500,-0.045023698,-0.804696023,-0.007360310,-0.549516976,0.706372023,0.055693001,-0.636120021,-0.009875680,-0.797053993,-1.163239956,
0.250963986,-0.555669010,0.177011997,-0.761659980,-0.769681990,0.570950985,-2.680749893,-0.406307012,-0.619822979,-0.489766985,-0.252490997,0.218687996,-1.852130055,-0.295749992,-0.039942399,0.123999998,-0.108984001,0.905090988,0.064653300,-0.129871994,-0.502948999,-0.138749003,1.126610041,-0.413298994,0.114551999,-0.295426011,-0.170918003,1.956670046,0.242174000,-0.020144001,0.290890992,-0.391907990,0.152675003,-0.042590700,0.519680023,-0.156568006,0.367033988,-0.236459002,0.537833989,0.007858530,-0.011416800,-1.308359981,0.042915698,-0.531395972,-0.347346991,-0.815237999,-1.452739954,-0.245754004,-0.224124998,-0.768496990,
-0.802805007,1.482630014,-0.674934983,-0.197191000,1.779559970,-0.530475020,0.647539973,0.145061001,-0.526682019,-0.292968988,0.678309023,-0.656647027,-0.647585988,1.752300024,-0.053946801,0.195878997,0.058075599,-1.289100051,0.046257600,0.592184007,-2.261100054,-1.245489955,-2.025140047,-0.731989026,-0.627535999,-0.390747994,-1.752169967,-0.793502986,-0.607128978,-0.001691530,0.007109220,-0.759661973,0.011407800,-0.014773900,1.066640019,0.248862997,0.279987991,-0.204781994,-0.377864003,0.027844399,0.012945900,0.572457016,0.022852801,1.756929994,-1.765400052,-0.458404005,0.157475993,0.032616399,-4.593309879,-0.295188993,
-0.756570995,0.313248008,0.403100014,-0.596907973,0.282813013,0.566735029,0.309083998,-0.334820002,-1.111600041,-0.426461011,0.388999999,-0.653050005,1.414569974,0.013694100,-0.017899700,0.247696996,-0.113091998,-0.256410986,1.233180046,1.370149970,0.679454982,0.020477900,-1.044039965,-0.928838015,0.566950977,-0.233078003,0.102715999,0.685018003,-0.575564981,0.008760870,-2.059149981,0.385165006,0.005750100,0.015359800,-0.194744006,0.163997993,0.322696000,-0.279269010,-0.408556998,-0.006107750,0.010375600,0.241070002,-0.010036700,0.191098005,1.093440056,-1.031509995,0.106360003,-0.295534998,-0.540080011,-0.587804019,
0.033867098,-0.009712010,0.011667800,-0.017934401,-0.009120640,-0.015385800,-0.006727060,-0.011222600,-0.037893001,-0.044075999,-0.004280040,-0.031234300,0.021118199,0.046412501,0.017057000,-0.044276699,-0.029576100,0.017833700,0.000112552,-0.011687200,-0.002645770,-0.057766698,-0.040328700,0.018045900,0.001835450,-0.037579700,-0.051205602,-0.033674799,0.023494801,-0.001622900,-0.006532470,-0.028368801,0.039442498,-0.034937199,0.023555400,0.041229598,0.014053400,-0.032608200,-0.030500300,-0.013296100,0.039619900,0.018785199,0.015843900,0.013041400,-0.033299800,-0.012381400,0.047542900,0.022664901,0.014667100,-0.013282200,
-0.181853995,-0.542407990,-0.490994006,1.242370009,-0.563557982,-0.454420000,-0.726436019,-0.865935028,-0.505932987,-0.248705000,0.042441700,-1.708520055,1.972040057,2.110830069,0.037578501,0.372496992,0.277819991,-0.543362975,-0.197962999,-0.603618026,0.078746997,-0.432204008,-0.006877600,1.028059959,2.641010046,0.640211999,-1.231709957,0.814080000,1.191110015,-0.017760500,-4.815670013,0.479885995,0.317844003,-0.045779198,0.233998001,0.183415994,-0.111110002,-1.254070044,-0.477696002,-0.015954301,-0.017117901,-0.304796010,-0.023650100,-1.612920046,-3.041110039,-2.090270042,1.693140030,-0.144693002,-5.290820122,-0.602984011,
0.303451985,0.931098998,-0.066410802,0.058652800,0.074908398,-0.180994004,1.578770041,0.327333003,-0.684751987,0.112195000,-0.453774989,1.212859988,0.263857007,-0.383561999,-0.013283000,0.287454993,-0.789389014,-0.168103993,0.159942999,0.006819470,-0.511044979,0.016751800,0.222872004,0.004053150,-0.024127400,-0.697853029,0.167491004,-0.061546698,0.039498501,-0.050053898,-0.890793025,-0.268635005,0.063487098,-0.009188370,-0.692560017,-0.327170014,-0.075905800,0.169223994,-0.170148000,0.027986901,-0.009648800,-0.730506003,-0.036770798,-0.495458007,-0.213039994,0.031439599,-0.506790996,-0.359322011,0.268927008,0.949012995,
-0.017916201,-0.041306101,-0.004226660,-0.002075340,0.038558301,0.040913299,-0.047702000,0.003240740,0.017763600,-0.055734199,-0.062285300,0.017424000,-0.055808000,-0.044204399,0.002162480,0.017203800,0.012577200,0.005869400,-0.034924600,-0.051756501,0.016024500,-0.010572700,-0.056300599,-0.049683399,0.004089550,-0.047828998,-0.062543400,-0.045649301,-0.021884900,-0.003141420,-0.022060299,0.001078000,0.014095800,-0.023021000,-0.000049449,-0.046741098,-0.023169201,-0.043107498,-0.030067001,0.040436700,-0.002268350,0.036484901,-0.004636350,-0.045696098,0.028052500,-0.022537399,0.000683760,0.021290200,-0.021498401,-0.006522400,
0.559454024,-0.626178980,-0.217703998,0.154543996,0.383132994,0.101161003,-0.972661018,-0.321428001,0.243180007,0.517431974,-0.317205012,-0.652350008,-0.400449991,-0.408908993,-0.048722502,0.182890996,-0.322160989,-0.176848993,0.551831007,0.315730006,0.175418004,0.345544010,0.221047997,-0.580259025,-0.171379998,0.098620497,-0.279256999,-0.225238994,0.469190001,0.014103800,0.043570101,-0.263880014,0.102587998,-0.039207902,0.322052002,-0.132685006,0.443515003,-0.752375007,0.263130009,0.009622610,-0.042535201,-0.170700997,0.024153201,0.375853002,-0.087185398,0.219245002,0.141850993,-0.187451005,0.388114989,-0.040074199,
-0.571712971,0.530682981,-0.395206004,-0.179095998,0.128150001,-0.823171973,1.401260018,-0.365121007,0.867578030,0.244508997,-0.422863007,0.377276987,-0.694850981,1.635840058,0.001522580,-0.223773003,-0.261653990,1.263640046,0.471543014,-0.502394021,0.323457003,0.017979801,0.587145984,-1.280030012,1.081959963,0.502550006,0.787781000,0.345279992,-1.098060012,0.002828390,-0.842468977,-0.162292004,-0.846499026,0.018772000,1.115589976,-1.268679976,-0.378941000,0.604246974,-0.210684001,0.006143270,0.044705000,-0.228173003,0.033635601,-0.931697011,0.815243006,-3.337559938,1.060369968,0.208068997,-0.379835010,0.333822995,
-0.557807982,0.067830697,0.001720490,0.187255993,0.239822000,-0.163445994,-0.116475001,-0.153509006,-0.097410798,-0.653581023,-0.154459000,-0.065418899,0.342216015,-1.201040030,-0.003669970,-0.048232399,0.170433998,-0.364412993,0.611654997,-0.024741501,-0.657023013,0.593295991,-0.345815986,-0.841516018,0.015803000,0.364315003,-0.207479998,-0.498288006,-0.014842800,0.024407299,-0.078889497,-0.222381994,-0.150923997,-0.043800600,-0.059604902,-0.477858007,-0.054591700,-1.622820020,0.595434010,-0.020082900,-0.042671502,-1.879600048,-0.000868642,-0.033559602,-0.215349004,-0.363967001,0.715175986,-0.268496990,-0.018428400,0.586615980,
0.084178299,-0.044684999,-0.282568991,0.060777199,-0.101636000,-0.248964995,-0.554158986,0.023417599,0.416227013,-0.352517992,-0.240668997,0.103924997,-0.553731024,-0.266382009,0.035580300,0.921687007,-0.657395005,0.181547001,0.010129000,0.131937996,0.208630994,-0.000772922,-0.226330996,-0.037215099,0.151084006,0.777903974,-0.316197008,-0.263702005,0.353471011,0.026471600,-0.426645994,0.310844004,-0.359073013,-0.028923400,-0.068869501,0.111117996,0.221202001,-0.180049002,0.388334990,-0.035050500,-0.038456399,-0.007645340,-0.030311599,-0.031571701,-0.016657500,-0.106572002,0.070416898,0.206368998,-0.420800000,0.000093236,
-0.705170989,0.675162971,0.412629992,-0.346017003,0.943934023,-0.079790197,0.335772008,0.034044001,-1.288619995,-0.773676991,-0.213651001,0.388527989,-0.597139001,0.756241024,-0.033857100,0.802088022,0.153251007,0.116384998,0.926132977,0.532671988,0.537184000,-0.236212999,0.005845330,-0.197071999,0.120641001,0.463194013,-0.589489996,0.014849400,-0.329854012,0.005667990,0.649075985,-0.174636006,0.691254973,-0.038468599,0.772418022,-0.334735006,0.284774005,0.939624012,-0.051042698,0.052136000,-0.018264599,-0.893178999,-0.017925300,-1.064499974,0.242483005,0.026894700,-0.448929012,-0.243205994,0.056876101,0.164904997,
0.091645502,-0.185277000,-0.836511016,-0.169147998,0.034965798,0.269731998,-3.714240074,0.226668000,-0.737905025,-0.347712994,-0.562627017,-1.148540020,-0.945363998,-0.365485013,-0.038042799,-0.182992995,0.192762002,-0.058627602,0.138495997,0.419203997,-0.026206700,0.248291999,0.801625013,-1.464359999,-1.317399979,-0.443879008,-1.880530000,-0.971462011,1.391149998,0.020758200,0.025542200,-0.285277009,-0.750247002,-0.014214700,-1.317289948,-0.018452600,-0.279967993,0.915961981,-0.372599989,-0.028256699,-0.021345800,0.025192000,-0.020855701,-0.597990990,1.849670053,1.468150020,-0.430752009,0.345429003,0.584740996,1.641080022,
0.389773995,-0.381274998,0.303939015,0.145603001,0.239216998,0.605495989,1.137910008,0.219061002,0.123282000,0.184263006,-0.218484998,0.716229975,0.895946980,0.089712903,0.008259210,-0.164841995,-2.541559935,-0.267957985,-0.439242989,0.200331002,-0.515757978,-0.436681986,0.443913996,0.145866007,0.104744002,-0.043874901,0.408757001,0.000121502,0.109568000,0.032827899,1.984539986,-0.100730002,0.055079501,0.037012398,0.112256996,-0.408605009,0.165248007,0.259737015,-0.077308103,-0.017193699,-0.045575701,-0.813740015,0.038312100,0.477645010,0.145393997,-0.226221994,-0.088644303,-0.511286974,0.073932700,0.248983994,
-0.052862901,-0.306454003,-0.131900996,0.271513999,0.350107998,-0.679724991,-0.415430993,-0.313618988,-0.093489498,-0.284173995,-0.000592865,0.032506801,-0.753893971,0.082849503,-0.042099599,-0.243792996,1.986340046,-0.682780027,-0.400231987,0.143531993,-0.218385994,0.070052601,0.080592602,-0.347698987,0.147793993,0.038316801,0.045408498,-0.038094401,0.307224005,-0.035820499,0.764449000,0.273066998,-0.104229003,-0.018561799,0.407813013,0.245256007,0.130024001,0.157579005,-0.164539993,-0.021927601,-0.047710899,-0.222459003,0.053622101,-0.733928978,0.079006404,0.272738010,0.035364900,0.234336004,-0.001046580,-0.320836008,
-0.049028900,-0.219997004,0.079155497,-0.398413986,0.060884099,0.681200981,-2.034060001,-0.309884012,0.879118979,1.224220037,0.193204999,0.452114999,0.398012012,-0.005750880,0.016948400,-0.281145006,-0.138652995,0.190484002,0.268925011,-0.635622025,-0.187059999,0.399529010,-0.101094998,0.230747998,-0.085418597,0.236098006,-0.504902005,0.524809003,0.461733997,-0.007533510,0.877839029,0.275765002,1.243870020,0.052124601,0.780484021,-0.252952993,-0.013634900,-0.149863005,0.378372997,0.038985599,-0.018377600,0.220124006,0.015045200,0.038730700,-0.263040990,-0.421463996,0.005296780,-0.115565002,0.545982003,-0.780645013,
-1.470540047,0.963631988,0.612572014,0.754701972,-2.280169964,-0.212511003,0.607383013,-0.136962995,0.238461003,0.501417994,-0.445410013,0.183886006,-0.002543140,-0.316262990,-0.044074699,0.351507008,-0.016035400,-0.446913004,0.196269006,-0.279727012,0.212960005,-0.531583011,-0.114263996,0.717962980,-0.928551018,0.031071300,-0.075347699,-0.372236013,-0.781466007,0.032895200,-1.249040008,-0.185498998,-0.190804005,-0.053254999,-0.223833993,1.292459965,-0.254669011,0.951143980,-0.182400003,0.008773030,0.022949900,0.985085011,-0.000704167,0.341183007,-0.503467977,-0.222336993,-0.533671021,0.470463991,0.407591999,-0.276362002,
-0.195109993,0.081267998,-0.852560997,1.133999944,-0.024714200,-0.993276000,1.810070038,-0.547150016,0.240477994,1.021849990,1.146090031,-0.031937700,1.168769956,1.264969945,-0.001779610,-0.118069999,0.130205005,-1.260810018,-0.326090991,-1.252259970,1.092069983,1.005980015,-0.924673021,-0.367931992,0.599892020,0.575598001,-1.905490041,-1.257220030,-0.139794007,-0.000532794,-0.940555990,0.403115988,-2.215509892,0.004281090,1.744609952,-1.218979955,0.078565098,-0.539098978,-0.106412001,0.021365300,-0.020090001,-0.052754600,0.027305400,0.614125013,-2.055779934,0.070473596,0.390583009,0.029067401,1.152770042,-0.901809990,
0.120715000,-0.287743002,0.114390999,0.672567010,-0.035816099,-0.502867997,-0.457352996,0.075234897,0.490981013,-0.455677003,0.128520995,-0.174916998,0.009553510,0.066424303,0.056109801,0.384797990,0.529609978,0.618066013,0.013366500,-0.347254992,0.496252000,-0.366205007,0.015454800,1.196359992,-0.142211005,0.182478994,0.238381997,-0.205928996,-0.292629987,-0.002513970,0.321265996,-0.054670502,0.452933997,0.048854899,0.529353023,0.227344006,0.198532999,-1.250130057,0.262780011,-0.010693900,0.024122801,-1.443750024,-0.011567200,-0.403380007,-0.108065002,0.660013020,-0.090426199,-0.215406999,0.109195001,0.212647006,
-0.357578009,-0.515125990,-1.384279966,-2.348649979,-0.552942991,-2.027309895,-9.743430138,-0.438243985,-0.714488029,-0.185295001,-0.912402987,-2.155920029,-3.682960033,-1.710929990,-0.023291700,-0.069934800,0.228558004,2.714339972,0.331611991,1.950710058,-1.129750013,-0.992908001,0.620052993,-0.141580001,-1.445729971,-0.165653005,0.458748013,-1.630460024,-0.207578003,-0.035935201,-0.121496998,-0.580182016,-3.056869984,0.042399399,-1.513589978,1.758890033,0.404998004,-1.314080000,-0.256689996,-0.023038000,0.023724800,0.598016977,0.032511700,-0.202809006,2.184849977,0.683686018,0.033182502,0.289968014,-1.943019986,0.352173001,
0.135720998,-0.015135800,-0.016251000,0.107836001,-0.368932009,0.096291199,1.057559967,0.141610995,0.511718988,0.301160991,0.070416600,0.112544999,-0.814469993,0.218844995,0.016925599,-0.094609499,-0.429120004,-0.173331007,0.268745005,-0.103919998,0.809081018,-0.330814004,-0.130191997,-0.535835981,0.007091590,-0.369641989,-0.017220801,-0.308575988,-0.102937996,0.015092300,-0.550957978,-0.110568002,0.211972997,0.008563950,-0.276614010,-0.331355989,-0.382441014,-0.636281013,0.112636998,-0.025078900,0.025220999,-0.315593004,0.013929600,0.726042986,-0.764083982,-0.536884010,0.441246986,-0.042998102,0.300475001,-0.097136997,
-0.864920020,-0.511165023,-0.257872999,0.109357998,0.096113302,0.355042994,1.470409989,0.765761971,-0.820304990,0.442784011,-0.095923200,1.042899966,0.374626994,0.169622004,0.019577701,0.885518014,1.844980001,-0.458584994,-0.494224995,0.111616999,0.136168003,-0.381718993,-0.053717099,-0.080492496,0.208748996,-0.638666987,0.392589986,-0.220174998,0.430126995,-0.010213700,0.628763974,-0.387077987,0.963855028,-0.036826700,-0.526624978,-0.253735006,0.305539995,-0.255811006,0.326223999,0.013311900,0.033239100,-0.624035001,-0.000262638,-0.454245001,-0.227211997,-0.116812997,0.154791996,0.002243380,0.321859986,0.186377004,
-1.003069997,0.047118399,0.571920991,-0.531732023,-0.203925997,0.552260995,-2.171220064,-0.394232988,0.618556023,0.519973993,0.586892009,-0.923532009,0.026618600,-0.720824003,0.002708710,-0.384936005,0.046651300,-0.033371199,0.217868000,0.357169002,0.493692011,0.313715011,-0.084262200,-0.640864015,-0.086249903,0.164865002,-0.930276990,-0.035224002,0.211137995,-0.013562800,1.119330049,0.068320699,-0.653446972,0.058212101,0.831430018,-0.522728980,-0.022415400,0.278730989,0.053035099,-0.021296300,-0.011378200,0.017917201,0.046989299,0.324194014,0.294542015,0.284806997,-0.156877995,0.367455006,0.142697006,-0.604961991,
0.226439998,-0.090432301,0.886738002,0.035159200,-0.289788991,0.413533002,-0.222911000,-0.185894996,0.519306004,0.412086993,0.591880977,-0.203273997,0.158283994,-1.045570016,-0.022196200,-0.324737012,-0.007740220,-0.582512975,0.038574800,0.304625988,0.169664994,-0.756630003,1.023880005,1.509989977,0.040997401,0.075635798,0.879208028,-0.356987000,-0.147377998,0.007237780,-0.176165000,-0.030160800,-0.797343016,-0.032217301,-0.440710008,0.281489015,-0.225936994,-0.547608972,-0.290549994,-0.034064401,0.022367001,0.523312986,0.003566650,0.144707993,-0.006846020,0.486160994,0.544682026,0.149351001,-0.386611015,-0.985144019,
-0.268144995,-1.940889955,0.035333298,0.563830018,0.304040015,-0.710720003,-0.188645005,-0.010533900,-0.124900997,-0.123167001,-0.583323002,0.604317009,0.863847017,-0.351731002,-0.046626002,0.137612000,0.718567014,-3.002660036,0.627867997,-0.051499899,-1.219720006,0.362937987,0.940186024,-0.494756013,-0.140818000,-0.107888997,0.442925990,-0.150440007,1.192330003,-0.034242000,-0.899818003,0.356063008,0.371354997,-0.010505300,-1.689739943,0.637293994,-0.076949902,-0.136662006,0.399370998,0.038816702,-0.002134000,-0.302976996,0.026766300,-0.401412010,1.051220059,-0.326451987,-0.461113006,-0.825416028,-0.384433001,0.244143993,
0.490667999,0.382515997,-2.935339928,2.781529903,1.249619961,-2.216809988,-0.854806006,1.135229945,0.599964976,0.119533002,-0.371850014,0.603191018,-3.354890108,1.235980034,0.035572901,-0.193755001,-0.632641971,-0.350133002,0.579387009,-0.709954977,-0.388390988,0.417001009,-0.154857993,0.032788999,-0.566331983,0.152182996,-1.942170024,-0.968343019,0.975691974,-0.049414400,-1.902060032,0.335958987,1.264520049,-0.022501400,0.243930995,-1.661900043,-0.231042996,-2.323060036,-0.137237996,-0.022384200,0.041124701,-2.972290039,-0.028568501,1.138299942,-0.770011008,0.084787302,0.178268000,0.143950000,1.476250052,-0.592688024,
0.058452599,-0.888157010,-0.193418995,0.081244901,-0.007209520,-0.247584999,0.575954974,0.334980994,0.080181800,-0.241710007,0.337505013,-0.693751991,0.966488004,0.972775996,0.034652900,-0.051807299,0.091737203,-0.054590799,-0.301645994,-0.104560003,-0.476202995,-0.146586001,-0.387852997,-0.153660998,-0.596924007,-0.358779013,0.425186992,0.121614002,-0.480563998,0.005116970,0.946053028,-0.278129011,-0.210710004,-0.021591200,0.386128008,-0.519107997,-0.026933899,0.000436944,0.266409010,0.032627899,-0.012203600,-0.568980992,-0.030280599,-0.208351001,-0.553189993,0.331885010,0.260953009,-0.106698997,0.421308994,-0.225070000,
0.175331995,0.321992010,0.143033996,-0.382746011,-0.302504003,1.376430035,-0.844433010,0.314413011,-0.131659001,0.211788997,0.155281007,-0.026089299,0.604224980,0.696594000,0.002996170,-0.195721000,0.090723298,0.075490899,0.585107028,-0.537633002,-0.550599992,-0.531159997,0.296815991,-0.433183014,-0.292991996,0.066607803,0.184971005,0.949024975,-0.271057993,0.019781999,1.061619997,0.575555980,0.042184200,0.048999101,-0.590224028,-0.073304102,0.503952026,-0.399284989,0.668322027,-0.052253999,-0.004556040,-0.309854001,-0.039838701,0.247380003,-4.808700085,0.221364006,0.133494005,-0.260116994,0.057489399,-0.057015400,
0.289640009,-0.097092196,0.299771994,0.081064999,-0.008617480,-0.262558013,-0.522529006,-0.577434003,-0.034056298,0.550448000,-0.088801399,0.483940989,-0.867676973,0.327446014,-0.002830060,-0.560321987,0.215268001,-0.113121003,-0.030757001,0.045440000,-0.657679021,0.417400986,0.533150017,-0.702835977,0.437220007,0.019604400,0.236342996,-1.082380056,-0.503859997,0.026399700,-5.358809948,0.389919013,0.746933997,0.039267302,0.034857400,0.491793007,0.749346972,-0.139594004,-0.971710026,-0.037656501,-0.002467670,0.780254006,0.014981800,0.547870994,-0.067906298,-0.240882993,0.148231998,-0.000480283,-0.097559303,0.196333006,
-0.486674994,0.332302004,-0.198581994,-0.763576984,-0.121596001,0.324411005,-0.374217987,0.194525003,0.248861000,-0.125887007,0.369540989,-0.266559005,0.238129005,-0.881789029,-0.009418750,0.219647005,0.021976700,-0.317680001,0.001975460,0.644701004,-0.256451994,-0.691747010,-0.385683000,-0.325127989,0.003990470,-0.888240993,-0.198195994,0.334601998,0.160104007,-0.019297300,-2.170700073,0.195269004,-0.665862978,-0.045109600,-0.289940000,0.064489201,-0.079849102,0.061213698,-0.152933002,-0.017537801,0.024231801,0.652436972,0.007537520,-0.372202009,0.153439999,-0.218076006,-0.161577001,-0.027683200,-0.685577989,0.134701997,
-0.498239994,0.441529989,0.092687801,-0.503152013,-0.506546021,0.527065992,-0.258359998,-0.321738988,1.043840051,0.123645000,-0.311376005,-0.289963990,0.268290997,-0.286810994,-0.010160600,-0.085482098,0.073279597,0.282362998,0.363323987,-0.008541930,-0.676011026,-0.123219997,1.023900032,-0.538747013,-0.875788987,-0.815630972,-0.544574022,-0.473825008,0.704469979,-0.030966900,-1.588709950,-0.739848018,-0.397659004,-0.011829400,0.209877998,-0.224197000,-0.448009014,-0.879449010,1.031640053,0.034118298,-0.025628000,0.118134998,-0.042957399,1.114500046,-0.063219301,-0.697054982,-0.011121300,-0.263181001,0.837807000,0.210390002,
-0.043893401,-0.017490000,0.401448995,-0.261307001,-0.077670299,0.958063006,-0.604375005,0.105223000,-0.649644017,0.261866003,-0.895385981,-0.660974026,-0.401648998,-0.100671999,0.003316830,-0.389984995,-1.481840014,0.426622987,0.458463013,0.600996017,-0.129490003,0.095481902,0.930455983,-0.338784009,-0.079064898,0.397036999,-0.318159014,1.422979951,0.259261996,-0.041294102,1.408620000,-0.488968998,-0.143006995,0.005825600,-0.571983993,0.188659996,-0.190546006,-0.152400002,-0.443111986,0.011958400,0.025281100,0.081888102,-0.048681900,0.310279012,0.550777972,-0.251590997,0.174784005,-0.463499993,-0.148531005,0.207729995,
0.221867993,0.134315997,-0.255800992,0.620173991,1.405959964,-0.073008403,2.169650078,0.291177005,-0.712989986,-0.091747902,0.676208019,1.089509964,0.855037987,0.350793004,0.043787800,-0.602230012,0.520372987,-0.474155009,-0.447744995,-0.222496003,-0.208715007,0.298451990,0.170454994,0.659421980,0.469594002,0.283708990,-0.635643005,-0.271349013,0.661881983,0.036514301,-0.097188503,-0.767512977,-0.617100000,-0.022096800,0.600587010,-0.088401198,0.142986000,-1.288339972,-0.111359999,-0.011063800,-0.013451100,-0.631680012,-0.037525199,0.058107700,-3.505300045,0.448900998,0.693440020,0.298979998,0.630414009,0.207525000,
-0.093656003,0.006718180,0.285297990,0.268752009,-0.954504013,-0.459479004,-1.076750040,0.445924997,-0.051138200,0.092802703,-2.210360050,-0.039933302,0.735128999,0.154752001,-0.045903001,-0.874985993,0.340790987,5.648210049,1.161960006,-0.183653995,-0.063111998,-0.332572013,0.289151996,-0.381805003,-0.558516026,0.319011986,0.447133005,-0.303092986,-0.358850002,0.033269700,1.389709949,0.281183004,0.270117015,-0.018937800,-0.746954978,0.283643991,0.066597201,0.760958016,-0.242017001,-0.043632299,0.043823998,-0.636888027,0.032517102,0.387116998,1.213580012,1.324090004,-0.304394990,-0.580672026,-1.042420030,-0.680810988,
1.005849957,-0.074960403,0.307617992,-0.227504998,-0.011821600,1.049980044,-1.860700011,-0.080587298,0.258006990,0.235771000,0.278077990,-1.067180037,0.330069989,0.258399010,0.015607100,0.558628023,0.244358003,0.421719015,0.216051996,0.154525995,-0.139732003,-0.325096995,0.216858998,-0.561218023,-0.312828004,0.051185399,-0.570093989,-0.235881001,-0.193009004,0.022272101,0.550113022,-0.002855950,0.044080000,0.011628300,0.159351006,0.025444901,0.387708992,0.172538996,0.647670984,-0.034258898,0.031772502,0.293731987,-0.019670701,-0.330603987,0.254826009,0.410135001,0.289516985,-0.450565994,0.191777006,-0.351906002,
0.321579009,0.043469898,-0.326063991,-0.013203900,0.060898598,-1.715260029,-1.058240056,-0.334001988,0.059199899,0.103598997,-0.008250690,-0.052552000,0.207723007,0.388783991,0.001956160,0.027982300,0.040405601,-0.152107000,0.339370012,-0.191679999,0.304089993,-0.507134974,-0.026247701,0.318949997,0.068814903,0.572039008,-0.429165006,-0.089022003,0.100795001,0.055564601,-0.840888977,-0.030085100,-0.357309997,-0.017809501,0.536556005,-0.222969994,-0.700214982,-0.264887989,0.231314003,-0.002009170,-0.001041060,0.379040003,-0.007407420,0.521310985,-0.170293003,-0.577852011,-0.348453999,-0.399567991,0.947713971,0.076951399,
0.033946302,0.014416400,-0.021231500,-0.042479102,0.013422600,-0.024432400,-0.021771800,-0.015608400,-0.024665300,-0.037888099,0.014773600,-0.009685500,0.045372300,-0.028381100,-0.044444200,-0.032278299,0.036310300,-0.022610201,0.039065901,-0.044386599,-0.012039700,0.016075799,-0.023076000,0.045959499,-0.010682900,0.028229401,-0.048854101,0.040377799,-0.047791000,-0.016697500,0.002610900,-0.054606501,-0.044499200,0.012572800,-0.013710600,-0.004711050,-0.022602800,0.034956101,-0.018391499,0.006390950,0.008251570,0.015942801,0.013289600,-0.006541070,-0.017547499,0.012032100,-0.007492860,-0.001539610,-0.041673001,-0.002732720,
0.168063000,-0.212845996,0.460143000,0.095641203,-0.311957002,1.200600028,0.770313978,0.060289100,-0.113343000,-0.070813604,-0.008587200,-0.271331012,0.228653997,-0.279547989,-0.029135499,-0.256729007,0.083382897,-0.548906028,0.088093899,-0.076170698,1.225399971,0.047752898,0.355376005,0.695443988,-0.108097002,-0.283522010,-0.258219004,0.391272992,0.349242985,-0.010705000,1.054949999,-0.064342603,-0.070731699,-0.029481700,0.119828001,0.151482001,-0.227515996,0.434157014,0.005975080,-0.048684601,-0.023435799,0.515331984,-0.034979202,-0.275413990,-0.344020993,0.187506005,-0.321803987,-0.230855003,-0.034329802,0.536976993,
0.512405992,0.077314802,0.624772012,0.170826003,-0.167560995,-0.187393993,2.791830063,0.065681897,0.198225006,-0.088362202,-0.229569003,0.774637997,0.674642980,-0.166923001,-0.026090300,0.349267006,-0.019703500,-0.107128002,0.498466015,0.125062004,-0.175357997,0.076700799,-0.070528798,1.219930053,0.338822991,-0.333038002,1.083230019,1.495640039,-0.756465971,0.004617470,-0.009629630,-0.444483012,0.056779299,0.029691800,-0.142965004,-0.036888499,-0.238187000,-0.096783303,0.273966014,-0.022081399,-0.039948899,0.173976004,-0.023537099,0.673699975,0.010791500,-0.815313995,-0.041104201,-0.312848985,-0.313457996,0.209840000,
0.210176006,-5.555280209,0.590903997,0.660342991,0.001963620,-3.280550003,0.187901005,-0.191703007,-0.564608991,0.735246003,-0.182698995,-0.284707993,0.631838977,0.582153022,0.034898698,-0.275330991,-0.515434027,-1.073019981,-1.307309985,-0.083537698,-1.129969954,0.161317006,0.294113994,-0.250436008,0.777603984,0.880982995,-0.112465002,-0.028058600,0.129097000,-0.003386180,-2.077850103,-0.398131013,-0.046455201,0.030770000,-0.184417993,-0.208499998,-0.911091983,0.441296011,0.221260995,-0.030890601,0.003522960,1.000659943,-0.014146700,0.260659009,-0.219743997,-0.809499025,-0.175886005,-0.115428001,0.344756991,0.256448001,
0.209842995,-0.192153007,0.030268401,-0.051204398,-0.155209005,-0.824461997,0.890007973,0.217831999,0.104925998,-0.234828994,0.233466998,0.378849000,-0.089157999,0.443706006,-0.016377600,0.439886004,-0.120109998,0.337624997,0.381058007,0.104382999,-0.175785005,-0.181194007,0.104818001,-0.066152699,0.195712999,-0.516939998,0.029813100,0.028453801,0.043464702,0.051300101,-1.259649992,0.016730400,0.509257019,-0.008774950,0.064427197,0.515088022,-0.023209900,-1.335970044,-0.380210012,-0.010012500,-0.037882000,-0.361483008,0.019469401,-0.968248010,0.169421002,-0.148010999,0.476018995,-0.437880009,-0.732752025,-0.717101991,
-0.266948014,0.324387014,0.946156025,-0.011148700,0.235947996,0.179446995,1.756199956,-0.066485800,-0.083897002,-0.888073027,-0.511366010,0.706659973,-0.244368002,-0.240498006,0.040438998,0.147687003,0.123020999,-0.214536995,-0.268252999,0.292241991,-1.087249994,-0.230632007,0.400256991,0.577369988,-0.172656000,0.087810598,0.482196003,0.317570001,-0.391790003,-0.011564000,-0.234964997,-0.084844097,0.424594015,-0.008007320,-0.831977010,0.244698003,0.150980994,1.400050044,0.487863004,0.009227510,-0.000178049,-0.102395996,-0.054289501,0.250366002,0.027954100,-0.000603004,-0.357073992,0.095726699,-0.691269994,0.922326028,
-0.611769974,-0.444306999,0.195804998,0.300173014,0.201817006,-0.906817973,-3.004770041,-0.444768012,-0.014316700,0.480599999,0.576523006,0.096668497,0.084500700,-1.567510009,0.024140300,-0.233991995,-0.476673990,-0.050827902,-5.324779987,-1.418400049,0.467718989,0.204601005,1.315819979,-0.895866990,1.822250009,-0.120369002,0.289007992,1.014469981,-0.261902004,0.011796800,-0.351260990,-0.038243700,-0.738268018,-0.052913301,-1.212589979,-0.422262013,-0.108370997,-1.200369954,0.214275002,-0.005252600,-0.034202300,0.016494200,0.034088600,1.261250019,2.516370058,-0.070633098,-1.620720029,0.034876201,-0.911049008,-0.453940004,
0.716540992,0.427704990,0.466926008,0.465499997,-0.868532002,0.816038013,0.259701014,-0.021240201,0.261092991,0.529183984,0.145677000,0.480282992,-0.316237003,-0.056410599,-0.021699799,-0.300844997,-0.407384992,-0.209452003,0.089753501,-0.461686999,-2.163609982,-0.445367008,0.331588000,-1.178580046,0.769613028,-0.289058000,-0.224453002,-0.405847013,-0.785121977,0.037834302,2.981349945,0.051232498,0.315436989,-0.030151799,0.323722988,-0.248113006,-0.524986029,-1.807100058,0.367300004,0.004840990,-0.017432000,-0.002031450,0.019329799,0.024508400,-0.947897017,-0.424394995,-0.548282981,0.438066989,-0.663214982,-0.650532007,
-0.108386002,0.480612010,-0.122207001,0.514458001,0.131142005,-0.346594989,-0.837943971,-0.356905997,0.032783698,-0.230111003,0.228270993,0.185298994,-0.269997001,0.406376988,-0.038769301,-0.039204400,0.026342301,-0.571713984,-0.602616012,-0.091783904,0.530184984,0.258338004,0.051795602,-0.256823987,0.478956014,-0.335808992,-0.192022994,0.152078003,0.152008995,-0.023550401,0.132088006,-0.396872014,-0.256096989,-0.024193101,0.761291981,0.032588601,-0.037852600,0.166921005,0.182703003,0.041215699,0.004466620,0.495442986,0.046891902,0.053838100,-0.078653999,0.194823995,-0.101420000,-0.135853007,0.430368990,-0.202087000,
-0.380665004,-0.848025978,0.515084028,0.324225992,-0.174321994,0.735719979,0.016709900,-0.371414989,0.053750601,0.240227997,-0.258314013,-0.203131005,-0.269131988,-0.229021996,0.027855000,0.281309992,0.593945026,-0.643746018,-0.377570987,0.071890898,-0.037284300,-0.461217999,-0.162922993,-0.096873999,-0.325417995,-0.019537499,0.084904999,-0.187409997,0.019948199,-0.035435800,0.931285977,0.176678002,-0.336003006,-0.027460400,0.100380003,0.163229004,0.423599005,-0.099535704,0.087152198,0.036172599,-0.017608499,-0.597809970,-0.013452000,-0.011208300,0.179605007,0.431317002,-0.165261999,-0.613138974,0.413955986,0.177494004,
0.033301398,0.238640994,-0.127636999,-0.431311011,-0.167445004,0.097823903,-2.322259903,-0.135649994,0.015389500,0.084734499,0.325839013,-0.271820009,-0.703126013,-0.243283004,0.010776800,-0.038260002,-0.514921010,0.682558000,-0.150764003,0.058898699,0.478626013,-0.043930501,-0.408542991,-0.147532001,-0.160074994,0.388038993,0.256173998,-0.305518001,-0.134940997,-0.044841599,0.969950974,-0.081113897,0.087842502,0.007018700,0.281717002,-0.044323299,0.021841601,-0.376738995,0.659859002,-0.031633701,-0.025355101,0.181226000,0.018910799,0.118157998,0.390206993,0.293145001,0.078341603,0.311199009,-0.149550006,-0.031541601,
0.272229999,
-1.054479957,
1.572970033,
1.436869979,
-0.422178000,
-0.988384008,
-0.021854799,
-0.293799013,
1.094939947,
-0.030789901,
-0.062967703,
-0.840116024,
0.503924012,
0.231003001,
-0.028735200,
1.138939977,
0.735778987,
0.110875003,
-1.011759996,
-0.149123996,
-1.012509942,
-1.108710051,
1.424370050,
0.298072994,
0.348765999,
0.277680993,
-1.259819984,
-0.261945009,
0.144172996,
-0.298061013,
-1.068910003,
-0.057833102,
0.600875974,
0.617646992,
0.653392971,
-2.789669991,
0.579903007,
0.480266005,
0.343100011,
-0.010024000,
-0.268193007,
-0.072985202,
-0.091778003,
0.446455002,
0.565514982,
-0.544412017,
0.238887995,
0.046486098,
0.555251002,
0.095143303,
-0.175117001,0.967963994,-0.051812701,-0.228062004,-0.001894440,0.118712999,0.000670978,0.150873005,0.292726994,0.028658001,-0.014999600,-0.143360004,0.492504001,-0.286397010,-0.207117006,0.455273986,0.103707001,0.054131001,0.140193000,0.486618996,0.185761005,0.090984397,-0.086155102,-0.555063009,-0.193821996,-0.420525998,0.349189013,-0.313291997,-0.197862998,-2.373219967,-0.841338992,0.199091002,0.209877998,-0.029264500,0.088269897,0.665318012,0.115107000,-0.331569999,0.124697000,0.041077700,0.070398197,0.075455502,0.113278002,0.044148199,-0.283528000,0.454486012,-0.302735001,0.007843790,-0.136714995,0.387053013,
-0.114830002,0.151416004,-0.216471002,0.093409598,-0.172224998,-0.154480994,-0.005076720,0.055110101,-0.077767402,0.021941300,0.663245976,-0.156376004,0.107275002,0.401427001,0.196051002,-0.033279601,-0.026982401,0.230048001,-0.204967007,0.026632100,-0.059516501,-0.265258014,-0.008676570,-0.118946001,0.254942000,-0.095947102,0.081107803,0.128004000,-0.074094199,-0.210517004,-0.034188598,0.193329006,-0.225440994,0.229744002,-0.171632007,0.121183001,-0.012646100,0.408565015,0.006937520,-0.044304401,-0.271860003,0.177348003,0.036474101,0.150134996,0.034182198,0.113606997,0.040926199,0.033064801,-0.019033199,0.234602004,
-1.091480017,-2.994139910,-1.858690023,-2.561680079,-4.015940189,0.444427013,-0.013697800,-2.207829952,0.193381995,-0.010859400,-0.205634996,0.790629029,1.173300028,0.575155973,1.346560001,0.571276009,2.036789894,-1.059620023,0.757588983,-1.969699979,0.644804001,0.159834996,2.406440020,-1.311980009,0.519132018,-0.322102994,3.505170107,0.006937780,1.261970043,-5.870870113,0.414523989,-1.699569941,-1.073220015,0.191529006,-0.870184004,-2.667340040,-0.191636994,-0.722738028,-1.370350003,-0.016611399,1.459460020,-0.647413015,-1.670639992,-1.512840033,-2.090660095,4.637100220,-7.011760235,-1.551710010,-5.140560150,-4.783780098,
0.464740992,-1.565199971,0.239768997,0.005429790,-0.343634993,0.262558997,0.008337220,0.769771993,0.288908005,0.032015901,0.669956028,-2.026979923,1.095649958,0.098506697,-0.347398996,-0.042822901,-0.466138989,0.185736001,0.212164998,0.062967002,0.197007000,-0.022436500,-0.134553000,0.631277978,-0.272967011,-0.387625009,0.560612023,-1.560969949,-0.087085202,-0.883153975,-0.418725997,-0.128326997,0.184541002,-0.236748993,-0.287849009,-0.314121008,-1.877969980,0.028994400,0.220183998,-0.010736800,0.556650996,0.035855100,-1.421239972,-0.321741015,0.013671400,0.230930001,-0.141666993,0.194490001,0.429722011,-0.331683993,
0.269327015,-1.335469961,0.364051014,0.286994010,0.117654003,0.062171701,0.024711501,0.277321994,0.207679003,0.023392400,0.449214995,-0.214049995,-0.003613100,-0.554612994,-0.014357300,0.497168005,0.621100008,-0.511247993,0.434542000,-0.042399202,0.603237987,-0.229764998,0.298159003,-0.144420996,0.055804599,-0.272193015,-0.149121001,0.091256402,0.273263991,-0.427296013,0.020730900,-0.001402650,-0.037169199,0.003166850,-0.038781799,-0.714268982,0.063866302,-0.279307008,-0.307980001,0.044512499,-0.190218002,0.314217001,-0.090786599,0.025518199,0.272110999,0.074673802,0.209370002,-0.202695996,-0.163270995,-0.248928994,
-0.036400501,-0.520789981,-0.013362600,-0.191920996,-0.039716002,-0.362078011,-0.002984470,-0.272439003,0.250696987,-0.044795599,0.312234014,0.056322500,0.567350984,0.257793009,0.030824300,-0.291390985,-0.029426999,-0.107275002,-0.102647997,0.125471994,-0.286444992,-0.044217099,-0.272170991,0.166589007,-0.245049000,0.004668750,-0.215489000,-0.129004002,-0.065235399,0.284278005,0.241944999,-0.012013700,0.161566004,-0.003534680,0.581718028,0.373907000,-0.182214007,0.201021001,0.144514993,0.002246260,0.214741006,-0.312573999,0.202793002,0.175430000,-0.213158995,0.188465998,-0.065906703,0.166170999,-0.249559000,0.200018004,
0.011054600,-0.043124702,-0.043129299,-0.009423520,-0.026267201,0.011973400,-0.015551500,0.015982300,0.020760700,-0.045138799,-0.064344697,-0.003274360,-0.022856100,-0.016085800,-0.014788500,-0.047570299,0.009132640,-0.027822100,-0.037651300,-0.045619801,-0.015013000,-0.020386400,-0.051137298,-0.050411399,-0.027983500,-0.000147036,0.035212699,-0.017589100,0.025627000,0.022114100,-0.026705900,-0.002157610,0.006700830,-0.030819500,0.032957900,0.026423700,-0.015281500,0.004839320,-0.052914999,0.021726299,-0.046502098,-0.034128699,-0.007251660,-0.040293001,0.019313600,0.045487199,0.039678399,0.014429500,0.007565230,-0.042264801,
-0.526834011,0.420875013,-0.771317005,-0.029756200,-0.103749998,0.125733003,-0.052869301,-0.110641003,0.468701988,-0.017797500,0.540736020,0.261011004,0.987873971,-0.191375002,0.381889999,0.095208101,-0.316942006,-0.277844012,-0.813369989,0.164379999,0.061280102,0.226043999,0.259907007,0.510163009,-0.108682998,0.369498998,0.585125983,-0.220009997,0.024835000,0.333992004,-0.226907998,-0.123905003,-0.134044006,0.316924989,0.798313022,-0.117415003,-0.024311500,-0.077326000,0.172650993,0.044428401,-0.189347997,-0.672146976,-0.519307017,0.591935992,-0.423974991,1.286739945,0.926052988,0.552218974,0.657328010,-0.049386598,
0.655249000,0.418071985,1.200189948,-0.075108297,0.769474983,-1.039090037,-0.004347230,-1.785930037,-0.339397013,-0.023643499,-0.668524981,0.471390009,1.278309941,0.351130992,-0.249449000,-1.378690004,0.341013998,-0.176409006,-0.998700023,-0.474207014,-0.969117999,-0.704614997,-0.864082992,-0.986590981,0.016355900,0.233063996,-1.090440035,0.696222007,-0.083189100,-1.560909986,0.650632024,0.696272016,-0.139348999,-0.220915005,0.431809992,0.355625004,-0.359656006,0.319359004,-0.111828998,0.002049250,0.653711021,0.628286004,1.749770045,0.893463016,-1.977210045,-0.026817899,-0.551766992,0.013999500,0.291018009,-0.010840400,
-0.386339009,0.267363012,-1.124799967,-0.226759002,0.566049993,0.060989700,-0.018531701,-2.261749983,1.805609941,0.058331799,-0.353460997,0.501204014,1.399659991,0.043800902,-0.500744998,-1.750480056,-0.125728995,0.461353004,-2.334110022,0.627390981,-3.111999989,0.257261008,-1.486019969,0.760565996,-0.563575029,0.964311004,-0.330587000,0.701840997,-0.471691996,2.048779964,-5.486480236,0.470656008,-0.315600008,0.168216005,0.575209975,2.556279898,-0.183111995,1.014979959,0.471356004,0.042647600,0.290140986,-1.897590041,0.304830998,-0.221178994,-1.483690023,1.181699991,0.992421985,0.467303991,-0.193610996,0.181263998,
-0.007628180,0.202060997,-0.528428972,0.110077001,1.380869985,-0.500928998,0.010496900,-1.972300053,0.633773029,0.011010600,-0.639751017,-1.279680014,1.623460054,0.367540985,-0.687577009,-2.003619909,0.394044995,0.075664997,-0.300199986,-0.349272013,-0.544462025,0.269674987,0.666626990,-0.513565004,-0.134812996,0.513764024,1.205209970,1.168439984,0.518993974,-0.942803979,-0.282554001,-0.167395994,-0.618225992,-0.392755985,0.614291012,0.268602014,0.385668993,0.234559998,0.560397983,-0.040886201,-0.066184901,0.067591399,0.285423011,0.199806005,-0.370265007,1.874179959,0.029281300,1.308279991,0.291949004,-0.895479977,
0.790754020,-2.518870115,0.112581998,0.579840004,-0.789672017,0.155696005,0.025812401,-0.010114700,-0.702556014,-0.008700000,-1.970209956,0.575538993,1.834640026,-0.194282994,-2.063970089,0.262529999,0.350299001,-0.773841023,0.355538011,0.164417997,-0.060095999,-0.168603003,0.258486986,1.266170025,0.497083008,0.463400990,-0.533733010,-0.309260994,0.339125991,-0.518680990,0.084906101,-0.644363999,-0.711149991,-0.137927994,-1.389070034,0.008445040,0.525519013,0.504217982,0.258100986,-0.052846801,1.247750044,-0.608220994,1.162629962,-0.837177992,0.141503006,-0.085522197,-0.017076500,-1.792400002,-1.334280014,-0.126580998,
0.291417003,-0.117275000,0.020083999,0.343452990,0.423979998,-0.718339026,-0.004196050,0.309213012,-0.627933025,-0.018843001,0.356611013,-0.069236897,0.216628999,-0.104716003,0.535750985,-0.512052000,0.110739999,0.218316004,-0.050982401,-0.331010014,0.054692298,-0.279475987,0.286911994,0.196237996,-0.158013999,0.282445014,1.117149949,0.435065001,-0.102236003,-0.462731987,-0.264598012,0.248273000,-0.268925995,0.053757899,-0.069510899,0.481427014,0.032775100,0.085458197,-0.362379998,0.024288001,0.327347994,-0.092477202,0.420771986,0.067457698,-0.065347202,0.505614996,0.265087008,0.446868002,-0.487473994,0.075669102,
-0.299425989,-3.105020046,-0.151279002,0.976341009,0.230332002,-0.029080801,0.003603590,0.060304102,-0.440533996,0.003205210,0.721069992,0.791157007,0.780641973,0.116237000,0.064535700,0.322301000,-0.110577002,0.111096002,-0.351918995,0.909614980,-0.205505997,-0.162547007,-0.054526601,0.729798973,-0.031291299,0.332096994,1.000730038,1.171939969,0.151155993,0.091547698,0.451873004,0.315196991,0.716901004,-0.732997000,-0.068311997,0.695796013,0.467323989,-0.826075971,-0.099046201,-0.001336410,0.053313699,-0.158996999,0.201398000,-0.078869201,-0.323679000,-0.447144002,-0.461457998,0.568262994,-0.482371002,-0.524186015,
0.288677990,0.035978001,0.164663002,0.138150007,0.142008007,0.180678993,-0.019056801,0.251388997,0.189368993,-0.002919620,0.300848991,-0.222240001,0.123282000,-1.368909955,-0.087700702,0.263529986,0.924436986,-0.883233011,0.283751994,-0.098912798,0.383603990,-0.010440900,0.317187011,0.204392001,-0.390783995,-0.408066005,-0.196737006,-0.297206998,0.121861003,-0.463914007,-0.281868994,-0.025407000,0.066537298,-0.250043988,0.571071982,-0.235499993,0.042727701,-0.706179976,-0.294523001,0.021057401,-0.260369003,-0.156550005,-0.378333986,0.065763198,-0.122184999,-0.090246297,-0.079256698,-0.281504005,-0.121408999,-0.246562004,
0.039001200,0.216079995,0.022047000,0.227083996,0.125257000,-1.020820022,-0.047265500,-0.796262026,0.639535010,-0.032933701,0.718549013,0.469208002,0.200378999,-0.159719005,0.335065007,0.141337007,-0.276484996,-0.105678000,-0.292234987,0.323296010,0.289472997,0.159715995,-0.065409496,0.108557999,0.006055610,-0.230704993,-0.066809900,-0.758888006,-0.150163993,0.357317001,0.760151029,-1.176139951,0.254512995,0.295626014,0.046037301,-0.340075999,-0.001858700,-0.150711998,0.179271996,-0.045588501,-0.075498998,0.003441190,-2.203540087,0.273986012,0.178072006,-0.799934983,-0.652126014,0.634649992,-0.226647004,-0.146289006,
0.720200002,0.157521993,0.312875003,-0.136490002,0.562048018,0.370187998,-0.018407200,-0.020295300,-0.228790000,-0.019153900,1.025560021,0.078798197,0.099944897,-1.134019971,-0.467366993,0.243557006,0.360729009,-0.091736801,-0.106862001,-1.065919995,-0.196247995,0.198402002,0.083109103,-1.178689957,0.294988006,0.674409986,-1.420850039,-1.940919995,-0.439310014,-0.317844987,0.778160989,-0.300915003,1.117840052,0.902505994,-0.490684003,0.712154984,0.425206006,0.006990770,-0.905357003,0.034613300,-0.243637994,0.642360985,0.415782988,-1.557000041,-0.396055013,-1.531820059,0.196814999,0.196518004,-1.556210041,-0.287364990,
-0.043330301,-0.455951989,0.311706990,0.008903020,0.027531300,0.368357003,-0.040294800,-0.281094015,-0.359306991,-0.028739400,-0.337433994,-0.033181701,0.761488974,-0.050883699,-0.031657301,-0.596736014,0.150672004,-0.039767701,-0.470201999,0.626935005,-0.311688989,-0.328646988,-0.608449996,-1.036039948,0.186937004,-0.170815006,-1.235999942,0.079107702,-0.000822241,-0.666716993,0.044844899,-0.068181202,-0.171642005,-0.107180998,-0.268795997,0.435339987,-0.145849004,0.378679007,-0.285842001,0.038329002,-0.169563994,-0.006648860,0.562456012,-0.086024404,-0.381888986,0.515331984,-0.594413996,0.118685000,-0.102681004,0.110850997,
0.454434007,0.064907096,-0.795108020,-0.588680029,-1.589570045,0.660697997,0.006928870,-2.847959995,0.642534018,0.010301700,0.278555006,-0.488361001,-1.319579959,-0.083155103,0.085484900,0.611360013,-0.444081008,0.175449997,-0.538814008,-0.466547996,-1.676010013,-0.092787601,0.344063997,-3.569269896,-0.097669497,-0.969757020,1.935299993,-0.791831017,-0.200115994,1.282580018,0.206615999,0.293421000,0.489105999,0.802797019,-0.324362993,-0.492576987,0.920608997,-0.309767008,-0.012815900,0.012888100,0.058210000,-0.005068400,-1.408570051,-0.540928006,0.032616101,4.426479816,-0.652738988,-0.579970002,0.155046999,0.490536988,
0.345459014,0.300796002,-0.099399798,-0.378192991,0.012631900,-0.566946983,0.037090901,0.493878990,-0.468443006,-0.034257699,0.562520027,0.667527020,1.912279963,0.389037013,-0.230012000,-0.044767398,-0.331663996,0.023423100,0.431250989,0.060937200,-0.132491007,-0.376470000,0.357439995,0.372054011,-0.004684590,-0.579273999,0.333054990,-0.978730023,-0.184193000,-1.070400000,-0.449110001,-0.487850994,-6.319029808,-1.154760003,0.343353003,0.138097003,1.265239954,0.343246013,-2.367520094,-0.001415870,0.538227975,-0.509929001,2.110069990,0.802996993,-0.767871022,-0.777291000,-2.063420057,0.627575994,-0.669430017,-0.486389995,
-0.689833999,-0.102793999,-0.444507003,-0.824675024,-0.158060998,0.018217100,-0.057168499,-0.114671998,-1.322280049,-0.045977499,-1.945440054,0.309543997,0.112687998,-0.735955000,-0.713295996,0.158849001,-1.274279952,-0.122147001,0.049909402,0.005504250,0.032527301,0.595697999,-0.073166698,0.429048985,0.164833993,0.166716993,0.304764986,-0.460373014,0.048073001,0.068411998,0.296397001,-0.397410989,-0.011965500,0.240143999,1.491289973,-0.004405140,-0.218277007,0.081298500,0.669502020,0.043279201,1.223629951,-0.304058999,0.749221027,0.664412975,-0.891955018,-0.963791013,0.292984992,-0.158549994,0.538412988,0.439999998,
0.193500996,-0.501493990,-0.096761599,0.024040701,-0.102398999,0.031980202,-0.003737320,-0.120251998,-0.031507500,0.011602400,0.467040986,-0.004484570,0.122828998,0.260376990,0.008648830,-0.121994004,0.273817986,-0.076407500,-0.072222501,-0.060587399,-0.196553007,-0.224335998,-0.082583502,-0.037558801,-0.173520997,-0.076184496,-0.049361899,0.042694099,-0.043513302,0.084685899,-0.281026989,0.174485996,0.060407799,0.014664500,-0.409456015,0.306129992,0.090449303,0.324254990,-0.121607997,-0.028151300,-0.252613008,0.045246799,0.166141003,-0.073611103,-0.246015996,0.224215001,-0.180836007,0.049658801,0.221808001,0.103712000,
-0.112769999,0.102762997,0.468506992,0.237362996,0.079425000,-0.203798994,-0.011158800,-0.177168995,0.049579401,-0.028930901,0.241503000,0.153121993,-0.023933699,0.251087010,0.103606999,-0.822251976,-0.152464002,-0.061395898,-0.516378999,-0.292914003,-0.246950001,-0.282413989,-0.456952006,-0.135784000,-0.031997900,0.306953013,-0.151335001,0.504481018,-0.169661000,0.316186011,0.081049100,0.317391992,-0.192748994,0.193138003,0.423763990,0.886137009,0.004756780,-0.041720200,0.023898700,-0.025841800,0.636130989,-0.351316005,-0.162461996,0.152825996,-0.264752001,-0.319005013,-0.624652028,0.022850599,0.175410002,-0.280411988,
-0.116594002,0.197215006,-0.019665100,0.121394001,-0.065753803,-0.006538860,0.031544801,-0.015777100,0.061560601,-0.003423780,-0.419871986,0.122248001,0.030663000,0.352528006,-0.432622999,-1.787260056,-0.085187897,0.057747498,-0.516906023,-0.108096004,-0.233804002,-0.142476007,-0.142906994,0.386617988,-0.150566995,0.184458002,-0.035857599,0.578338027,0.203867003,-0.164507002,-0.543754995,-0.250988990,0.217235997,-0.148480996,-0.049935900,-0.965866983,0.508915007,0.318834007,0.307182014,0.051264200,0.212816998,0.100254998,0.175279006,0.239638001,0.017547701,-0.291539013,0.023177600,0.191191003,0.163276002,0.082138903,
-0.025631599,-0.045351800,-0.026567301,-0.042090598,0.026268000,0.004347070,-0.002365070,0.006978850,0.027566500,-0.031614501,-0.012665500,0.005095540,0.044239301,-0.035836700,0.031647202,-0.046018701,-0.030775299,0.016661000,-0.026714100,-0.013049300,0.001078300,0.001584660,0.003499060,-0.042307500,0.014669100,0.029418901,-0.011448100,0.035982501,-0.010872200,-0.011647600,-0.015707800,-0.008829600,0.009708230,-0.054197200,-0.030075200,0.036261100,-0.021376301,-0.021216201,-0.051936101,0.015459100,-0.032420099,-0.038190700,-0.047541201,-0.006422190,0.007512030,0.011481700,0.010208500,-0.038267698,0.002479330,-0.052421302,
-0.117276996,-0.409648001,-0.338553995,0.175212994,0.225311995,0.293866992,-0.011087300,-0.660449028,-0.176980004,0.013233800,0.184787005,-0.078977503,-0.265477985,0.041562099,0.169667006,-0.008183690,-0.155592993,0.194192007,-0.824503005,-0.254599988,-0.556967020,-0.314801991,-0.221568003,0.295751005,0.153972998,0.232565999,-0.455583006,0.590071023,0.155229002,-0.051221602,-0.035181198,-0.177019998,-0.034342300,0.224939004,0.034123398,-1.167099953,0.098351203,0.020275099,-0.293677002,-0.017201200,-0.413906008,-0.062116701,-0.282761008,-0.090602003,0.024245599,1.066089988,0.445048004,-0.101749003,0.331028998,0.278342992,
0.034862101,-1.922690034,0.082372896,0.273950994,0.089562498,0.348805994,-0.017628100,0.068521999,0.234430999,0.027780199,0.360367000,-0.029855501,-0.147461995,-0.386965990,-0.092149504,0.172169998,0.178275004,-0.891835988,-0.089101702,-0.602801979,0.128975004,-0.404841989,0.138319001,0.910175025,-0.301690012,-0.306746989,-0.260075003,-0.076970600,-0.020979900,0.160410002,0.554597974,-0.386738986,-0.021462601,0.137911007,-0.556150973,0.191578001,0.011626900,-0.105524004,-0.176514998,-0.017302800,-0.287030011,0.072313301,-0.823244989,-0.265464991,0.506853998,-0.447203010,0.449820012,-0.076223701,-0.008008320,-0.155806005,
0.160876006,-0.514889002,0.002020360,0.274277002,0.046671800,0.764728010,-0.033531800,-0.663805008,-0.055058599,-0.016378401,0.103345998,-0.205905005,-1.229500055,-0.211153999,0.258127004,0.121394999,-0.403717011,-0.028532000,-0.159161001,-0.560047984,0.530615985,-0.158831999,0.183143005,-0.399998993,0.092917703,0.104868002,-0.565122008,0.161803007,0.389649004,0.414086998,0.046337899,-0.016612399,-1.175750017,0.521255016,-0.612191021,-0.109564997,0.372235000,-0.013720800,0.070542097,0.026181100,-0.240581006,0.261097014,0.136649996,-0.595224023,0.646986008,-3.302000046,-0.023107501,0.194379002,0.806999028,0.482091993,
-0.040927399,0.296370000,-0.063404500,-0.206626996,-0.059705202,0.013195700,0.035771199,-0.183363006,0.004628080,0.031079100,-0.067345597,0.109916002,0.047179099,0.391189009,0.063213997,-0.144602001,0.004183620,0.042811502,0.001546230,0.066851497,-0.211478993,0.108870000,-0.148973003,0.083309099,-0.301445991,0.008298020,0.153558999,-0.207623005,-0.110174000,0.239666998,-0.143140003,0.174503997,0.193317994,-0.051785301,0.026274500,0.153681993,-0.148413002,-0.018588901,0.153472006,-0.029351600,0.267484009,-0.236419007,0.172185004,0.130228996,-0.192867994,0.264138013,-0.165955007,0.230644003,0.218642995,0.168844998,
-0.055809800,-0.467592001,0.174588993,0.156581998,-0.029912800,-0.102292001,-0.021407500,0.059809301,0.328301013,0.044518501,-0.100635000,-0.020350801,0.313472003,0.240808994,0.157722995,0.270478010,0.161415994,0.121971004,0.388745010,0.327024996,0.470679998,0.237946004,0.157625005,-0.188108996,-0.014144500,-0.362801999,0.062062301,-0.423052013,0.201019004,-0.047596201,-0.063270599,-0.141902998,0.319555998,-0.048215698,0.527198017,-0.263527989,-0.062158499,0.078142002,-0.225939006,-0.002276590,0.045157298,0.107559003,0.042469401,-0.076170497,0.416725993,0.358649999,0.077997603,-0.054030102,-0.362201005,-0.140044004,
-0.021612501,-1.815089941,0.181900993,0.136454001,0.105255999,-0.059930898,-0.031557702,0.316947013,-0.462105006,-0.045124602,-0.245039001,0.055912800,0.161229998,-0.092883699,0.234136000,0.515489995,0.320479989,-0.613609016,0.277869999,0.575192988,0.443287998,0.000396379,0.168922007,-0.342830986,0.072826199,-0.403248996,0.091553099,0.119396999,0.183071002,-0.011388100,-0.477708995,-0.014997100,0.334551007,-0.330561996,0.198228002,-0.427125007,0.157970995,-0.330850989,-0.394562989,0.005724020,-0.302253991,0.201098993,0.454077989,-0.285784006,0.218694001,0.116883002,-0.218651995,-0.085471898,-0.240483001,-0.417659998,
-0.054471899,-0.064000897,-0.027209600,0.030364200,-0.038369101,-0.043796599,-0.039647698,0.008420630,-0.000174757,0.004105650,-0.064447001,0.032968700,0.035852902,-0.025052899,-0.023625201,-0.000459786,-0.052664101,-0.015894599,0.016535399,0.021110799,0.020142701,0.025194600,-0.016452700,-0.049215201,-0.014439500,-0.062010098,0.051561099,-0.057606500,-0.020304000,0.025810599,-0.053434100,-0.011552600,0.038476799,-0.008853060,-0.054158699,-0.006060800,-0.056287002,-0.019645801,-0.013787100,0.024772899,-0.007901430,0.002715320,-0.030835200,0.014418700,-0.069652401,0.040183201,-0.023438601,0.015056700,-0.009893480,0.014759600,
-0.507121027,0.006098920,0.246067002,0.270105004,-1.680850029,-0.316462994,-0.009397590,0.090163700,-1.044379950,0.012904700,0.506528974,-0.543419003,1.309800029,0.520340025,-0.113853000,-0.571398973,-0.060103800,-0.131795004,-0.551241994,-0.232228994,-0.266624004,-0.208357006,-0.213964000,-0.222158000,0.280923009,0.212689996,-0.477788001,0.535408020,0.078987502,-1.061779976,0.512107015,-0.183960006,-1.435950041,0.198155001,-0.136811003,0.243393004,-0.534615993,-0.035740498,-0.511506021,-0.022593699,-0.446770996,0.014546500,0.698509991,0.777781010,-0.184154004,-0.152360007,0.255259991,-0.746448994,0.099074401,-0.767475009,
0.758773029,0.365765989,0.331928998,0.454975009,-0.411078990,-0.504131019,0.013389300,-0.710605025,0.287757009,0.019700600,-0.151995003,-1.412889957,-0.775792003,0.442211002,0.491789997,-0.285288006,0.238903999,-0.121180996,-1.336549997,-0.426744998,-0.641166985,-0.463151991,-0.692673981,-2.115710020,-0.441857994,-1.080610037,0.087216400,1.378669977,-0.016669599,0.031149400,-0.068303101,1.493049979,0.891481996,1.386860013,0.421081990,1.245049953,-0.035121500,-0.095389999,-1.181839943,-0.004695290,0.390870988,-0.721745014,0.082132801,-0.120259002,-0.448866010,1.481459975,-0.299026012,0.075099401,0.419685006,0.775309026,
0.004308460,1.589820027,0.265374988,0.878096998,0.360944003,-0.020533999,0.024079699,0.560855985,-1.365069985,0.017987400,2.068850040,-0.242321000,1.030640006,-0.717494011,0.373719990,0.942282021,-0.213029996,-0.372604012,0.125579000,0.797685981,0.887358010,-0.010577400,0.293588996,-0.662304997,0.768662989,-0.376166999,0.234200999,-0.021461301,-0.004013550,0.156764999,0.086475998,-0.810494006,0.000721188,-0.508310974,-0.720389009,-0.156653002,0.539728999,-1.698019981,-1.177659988,-0.048118901,-0.586107016,0.134444997,-0.086529300,-0.726019979,0.614196002,1.012279987,-0.351235986,0.002886580,-0.461566001,-1.151950002,
0.688686013,-0.308804989,-0.477780014,0.411244005,0.091219001,-0.498456001,0.009486580,-0.455942988,-0.551585019,0.019887300,-0.797083974,0.194657996,0.247847006,0.446960002,-0.124077000,-0.569647014,0.363476992,0.038031898,-0.876636028,0.155275002,-0.976580977,0.114997000,-0.155864000,-0.306216002,-0.166861996,0.679230988,0.061343100,1.121250033,0.172969997,0.301402986,1.042279959,0.109779999,-0.114591002,0.025833599,0.836643994,-0.909662008,-0.198935002,0.551739991,0.215489000,-0.002989920,-0.357439011,-0.102124996,-0.178821996,0.060954999,-0.361234993,1.266780019,-0.919875026,0.327416003,0.246564999,-0.027915601,
-1.106960058,0.435683012,-0.590164006,0.960871994,0.394033998,-0.252025992,-0.017083000,-0.435707986,-0.085573897,-0.029490700,0.875406027,0.471262008,1.060039997,-0.357317001,0.469545990,0.326943994,-0.050155599,0.631770015,-1.343119979,-0.848128974,-1.122599959,-0.404893994,-0.277083993,-1.113420010,-0.609839022,0.390720993,-0.265697986,0.092880502,-0.460696995,0.536907017,0.167444006,-0.053521000,-0.087731503,-0.431066006,1.143689990,-1.737579942,0.885621011,-0.639804006,0.927790999,0.014970900,-2.914779902,0.045578901,0.352414995,0.799422979,-0.057665501,0.272991002,0.012524100,-0.307660013,0.333168000,0.909766018,
0.012242000,-2.629019976,0.337399989,0.263615996,0.126151994,0.015244800,-0.001802110,0.492522001,0.193434000,-0.035071600,0.607632995,-0.068614602,0.060547601,-0.701893985,0.203592002,0.382317007,0.649043024,-0.841731012,0.381716013,0.185237005,0.594540000,-0.608147025,0.272882998,-0.462237000,0.195804998,-0.363288999,-0.051937699,0.144220993,0.249611005,-0.807865024,0.000922094,0.003711950,0.027448300,-0.112729996,0.571458995,-0.818602026,-0.018449901,-0.473692000,-0.286713004,0.002858310,-0.240854993,0.212777004,0.264990002,0.400510013,0.277693987,0.253973991,0.371809006,-0.064362802,-0.156166002,-0.127490997,
-0.323864013,0.754139006,0.222427994,0.263650000,-0.021742100,-0.252990991,0.026521999,-0.082395099,0.647028983,0.012290700,0.106048003,-0.240226001,0.393532991,-0.342837006,0.140402004,0.019158900,-0.342539996,0.342649013,0.005296180,0.063359700,0.235330001,0.011048600,-0.056778699,-0.252370000,0.050425399,-0.094135799,-0.459273010,-0.018697100,-0.002413410,-1.172009945,-0.419595987,0.113709003,0.073587403,0.020252001,-0.784772992,0.015505200,0.075523801,-0.134578004,-0.371688992,0.019505600,-0.127994001,0.196849003,-0.158172995,0.020929201,-0.178990006,-1.207460046,-0.007019790,0.004334790,-0.176833004,0.124559000,
-0.189466000,0.538929999,-0.087610602,0.257562011,0.042215198,0.067587703,-0.021035301,0.195861995,-0.117409997,-0.048941299,-0.845211029,0.281987011,-0.309583992,-0.042313401,0.115943000,0.533214986,-0.471266001,-0.977590978,0.499597996,-0.012737100,-0.000879386,0.096718997,-0.952705979,-0.634564996,-0.173555002,-0.357582003,-0.013358500,0.760088027,0.256711006,0.614966989,-0.019114200,-0.183731005,0.324725002,-0.215040997,0.664084017,-0.540901005,0.230621994,-0.686502993,-0.003080540,-0.023031799,-0.490491003,-0.786840975,-0.926823020,-0.082341403,-0.229976997,0.931608021,1.644870043,0.464812994,1.327319980,-0.667289972,
-3.749629974,0.294304997,0.275173992,-0.541912019,0.700580001,0.252187997,-0.012712300,-0.691861987,0.810244024,-0.028768500,0.597491980,0.836009026,-0.974874020,-0.399906009,0.911379993,0.040510301,0.110220000,0.185231000,0.678555012,0.470160007,0.493730992,0.973196030,0.483817011,-0.438647985,-0.488025993,-0.589093983,0.744464993,0.673071980,0.085802399,0.651205003,-0.267176986,0.047845501,0.572975993,1.166869998,-0.561523974,0.083561003,0.879393995,0.018688699,-0.382596999,-0.015792301,-1.124320030,-1.118999958,-0.180043995,0.860686004,-0.370824009,-1.104560018,0.539240003,-0.081540801,0.367298007,-1.068709970,
-0.008383260,0.487673014,0.327118009,-0.019761501,0.110551998,-0.112914003,-0.005073540,0.471175998,0.425168991,-0.038074501,0.142674997,0.180301994,-0.401760995,-0.614944994,-0.219262004,-0.158282995,0.346053988,0.345934987,0.064609602,-1.065089941,-0.022400299,-0.140599996,-0.362535000,0.382759988,-0.777410984,-0.391826004,-1.010480046,0.477118999,-0.263080001,-0.012053300,-0.065869898,0.023992401,-0.171149001,0.109099001,0.044681400,1.349660039,-0.218434006,0.114032000,-0.114834003,0.010849400,-0.612049997,-0.633372009,0.571382999,0.251062989,-0.107084997,1.212280035,0.116272002,-0.230958998,1.017590046,0.977751970,
0.405927986,-0.082550600,0.973155975,-0.174645007,0.268386006,0.176499993,-0.043391600,-0.117432997,-0.046391901,0.019456601,-1.042930007,0.667946994,-0.048693199,0.303692997,-0.568309009,0.086576402,-0.328837991,-0.113860004,0.600969970,-1.026849985,0.237464994,0.155431002,-0.185828000,-0.230298996,0.047815900,-0.072752401,-0.940401971,0.157771006,0.382789999,-0.428077996,-0.562277019,0.094968997,0.254485995,-0.137193993,-0.186670005,-0.232717007,-0.058745101,0.514432013,-0.144238994,0.050872501,0.406376004,0.529447973,-0.148913994,-0.429623008,-0.306796014,-0.597670972,-0.277096003,-0.103497997,0.604641974,-0.228654996,
0.039388400,0.025582200,-0.037624501,-0.018401699,-0.026720200,-0.004659690,0.007811900,-0.046687800,-0.034032099,-0.022373300,-0.052476499,-0.044224400,-0.018067099,0.029910600,0.006474910,-0.042003099,0.019193700,-0.006904500,-0.049332902,-0.003463260,-0.017580900,-0.017897600,-0.019373201,0.015113500,-0.017450500,-0.033367898,0.029550700,-0.026187399,0.017943900,0.033331499,0.037977401,0.011055400,-0.008258850,0.021078000,-0.006552790,0.015600200,0.005376180,-0.043475401,-0.001467440,-0.014056400,0.012975600,-0.047989000,-0.003514350,-0.014577100,-0.048909001,-0.049833000,0.043382999,-0.018190101,-0.049767200,-0.043006901,
0.667693019,0.224397004,0.380219012,0.026781199,-0.004460510,0.154797003,-0.002740510,0.331950992,0.611295998,-0.030883800,0.168258995,-0.419952989,0.072512001,0.514624000,-0.494156986,-0.058161002,0.238273993,0.050018601,0.171513006,-1.278579950,0.254729003,-0.377270997,-0.640488982,-0.174348995,-0.114295997,-0.121411003,0.248749003,0.813853979,0.257842988,1.103670001,0.294485003,0.446619004,-0.708059013,0.154167995,0.178281993,-0.730039001,-0.752183020,-0.489831001,0.961749017,-0.042453200,0.369329005,0.348493993,-2.610790014,-0.797962010,-0.148983002,-2.222529888,0.308239013,1.647480011,0.180843994,-0.340214014,
-0.331380993,-0.646260977,-1.718860030,0.742971003,0.212073997,0.155790001,-0.030214000,-0.090019204,0.544336021,-0.014808400,0.245664001,-0.140092000,0.178286001,-1.090330005,0.745823979,-0.024258900,0.804498971,-0.668161988,0.053928699,-2.280719995,0.079526097,0.342224002,0.004432320,-0.160150006,0.299428999,0.890393019,2.367140055,0.528612971,0.033872198,1.397930026,0.001699460,-0.335123986,-0.393916011,-0.077686697,0.023021400,-0.605526984,-0.099650197,0.289063007,-0.152211994,0.009643740,-1.603180051,0.018048899,-1.235999942,-0.604773998,0.051585700,-0.718026996,-0.907293975,-0.888366997,-1.377889991,-3.249919891,
0.343861014,-0.111497000,-0.387445003,0.053639598,-0.029676201,0.333074987,-0.025761500,-0.768337011,0.960556984,-0.001691290,0.190836996,0.131000996,-0.126265004,-0.293909013,-0.373634011,-0.881501973,-0.244666994,0.900277972,0.452789009,-0.079463199,-0.153707996,-0.387632996,-1.363729954,0.570716977,-0.690348983,0.827063024,0.167916998,-0.738929987,-0.276416004,-0.605287015,0.226396993,0.374462992,-0.166922003,0.547069013,-0.394111991,0.142272994,0.288453013,0.242146000,-0.715708971,0.020737899,-0.020267701,0.184713006,0.789478004,0.412351012,-0.709039986,-8.976739883,-0.601549983,0.422125012,-0.285990000,0.074513100,
0.204417005,0.211337000,0.094126299,-0.059596401,-5.805769920,0.163955003,-0.001296140,-2.101030111,0.016085600,0.039387502,0.574670017,-0.220478997,-0.170619994,-0.038372301,0.054234900,-0.029077100,-0.480367988,-0.112498000,0.064097203,-0.853060007,-0.093119003,-0.199316993,-0.473224014,-0.032596700,0.083902001,0.210813999,0.527893007,0.115442999,-0.088644803,0.794547975,0.183953002,0.069996998,0.613774002,-0.192295000,0.163351998,0.469383001,0.107064001,0.055742200,0.097531199,-0.006376540,0.121408001,0.104603000,-0.614688993,-0.387118012,0.069947802,0.195648998,-0.103436001,0.250618011,-0.358729988,-0.219163999,
0.800714016,1.007830024,0.321913004,0.519904017,0.507707000,-0.502022028,-0.020219499,0.573310971,-0.635725021,0.020244099,-0.195604995,0.099149100,-1.719409943,-2.130599976,-0.000659573,0.338586003,0.175088003,-0.442856014,0.599222004,-1.053030014,0.466928989,-0.754805982,0.367049992,-0.387183011,0.537730992,-0.198293000,0.182634994,0.906695008,0.186265007,-2.366909981,-0.876836002,-1.860170007,-0.338946998,0.054679200,0.732286990,0.247088999,0.411199003,0.057495601,-0.436670005,0.030676000,-0.719451010,0.625014007,0.160269007,-0.127200007,0.088392898,-1.615579963,0.318237990,-0.836619020,0.243870005,-0.211714000,
0.447499990,-0.186070994,0.243867993,0.448953986,-0.190069005,-0.807106972,0.032592200,-0.563457012,-0.476101995,0.004395030,0.565008998,0.103228003,-0.066180803,-0.678198993,0.029537201,-0.204750001,0.199296996,-0.362098992,-0.962083995,0.535580993,-0.495110005,-1.142740011,-0.296155989,-0.524820030,0.234467000,0.878759980,0.035701100,1.779999971,0.248172998,0.732402027,-0.357297987,0.663913012,0.342027009,-0.797757983,-0.430207998,0.287611991,0.010465500,0.028962299,0.438825995,0.013271900,0.209474996,0.055954501,1.028769970,0.562110007,-1.093070030,-0.233337998,-1.885920048,-0.275907993,0.181251004,-0.279828012,
-0.563211024,
-0.083715200,
-1.124760032,
-2.294610023,
0.947149992,
