// Neural Network File Format by Kyle Julian, Stanford 2016
8,5,5,50,
5,5,50,50,50,50,50,50,5,
0,
-3.4028235e+38,-3.4028235e+38,-3.4028235e+38,-3.4028235e+38,-3.4028235e+38,
3.4028235e+38,3.4028235e+38,3.4028235e+38,3.4028235e+38,3.4028235e+38,
0.0,0.0,0.0,0.0,0.0,0.0,
1.0,1.0,1.0,1.0,1.0,1.0,
1.000000000,0.000000000,0.000000000,0.000000000,0.000000000,
0.000000000,1.000000000,0.000000000,0.000000000,0.000000000,
0.000000000,0.000000000,1.000000000,0.000000000,0.000000000,
0.000000000,0.000000000,0.000000000,1.000000000,0.000000000,
0.000000000,0.000000000,0.000000000,0.000000000,1.000000000,
-0.000000000,
-0.000000000,
-0.000000000,
-0.000000000,
-0.000000000,
0.840893984,-0.028526800,0.040858101,-0.300944000,-0.567237020,
-0.532651007,0.006481520,0.007788080,-0.154036999,0.105616003,
-0.028903300,0.007028120,0.003234540,-0.000482995,0.001855470,
0.158102006,0.810523987,-0.067777500,0.033576898,-0.056793801,
-0.030138901,-0.428714007,0.406677008,-0.004279560,-0.180917993,
-0.190172002,-0.007731710,0.001708470,0.196667999,0.193921998,
0.110924996,-0.119050004,-0.312655002,0.236552998,0.119626001,
0.036113098,0.307208002,0.408197999,-0.160427004,-0.043920498,
0.554269016,0.202873006,0.192203000,0.228588998,0.158361003,
-0.073364899,0.186346993,-0.134595007,0.237718001,-0.336064011,
-0.699940026,-0.041881099,-0.046909999,0.122552998,0.245293006,
-0.717876971,0.018339001,-0.005651850,0.023057200,-0.334381998,
0.000940336,-0.006061780,-0.001027300,0.001035020,0.013794300,
0.063687302,-0.852640986,-0.052700698,0.229844004,-0.246024996,
-0.399347007,0.268445998,0.026115701,0.117431000,0.111249000,
-0.027018599,-0.628440976,0.850920022,0.111354001,-0.283553988,
0.397872001,0.036965601,-0.029872200,0.100222997,-0.689239025,
-0.156551003,-0.048032999,-0.005815110,0.459280014,-0.361357003,
0.014379200,-0.043336600,-0.017230000,-0.582333982,-0.457718015,
-1.077250004,0.009344800,-0.002789650,0.015240600,0.002850330,
-0.036868699,0.172046006,0.093175203,-0.423765004,-0.493802011,
-0.132259995,-0.009605570,0.160069004,-0.386669010,0.463178992,
0.000920622,0.014321300,0.009882420,0.272810012,-0.204630002,
0.032102901,0.725829005,-0.318453014,0.226245999,-0.168148994,
0.665777028,0.056757100,0.080337301,-0.056085899,-0.101150997,
-0.018757701,0.148849994,-0.626568973,0.137176007,-0.289725989,
0.127011001,1.448179960,-0.041668400,0.021008801,-0.101177998,
0.027185500,0.818542004,-0.905423999,0.092953198,0.103022002,
0.032660399,0.728594005,-0.740161002,0.041341301,0.095501199,
0.364546001,-0.000998042,0.004096340,0.349191993,-0.220484003,
0.359600008,-0.031155899,-0.084183902,0.114924997,-0.188629001,
0.607896984,0.002152220,0.001039310,0.069260597,-0.004715730,
0.002321270,-0.817434013,0.831366003,0.017323401,0.122019999,
0.056845199,-0.317741007,-0.391407013,-0.169100001,0.165663004,
0.002224330,0.000757100,0.002028860,0.187949002,0.000263382,
0.021969400,-0.624329984,0.625712991,0.135543004,0.144539997,
-0.142309994,0.071645498,0.137793005,0.254822999,0.055025902,
0.688392997,0.002194020,-0.000272566,0.021466700,0.008803970,
0.055738300,0.004655740,-0.001069020,0.009008170,-0.862106979,
-0.056616299,-0.067515701,-0.141683996,-0.732514977,-0.167411998,
0.074487902,-0.876676023,0.831230998,0.112903997,0.030613299,
-0.008303370,0.304004014,0.276876986,-0.160579994,0.140837997,
-0.004861760,-0.007559770,0.010472900,0.003798360,0.004472460,
-0.121762998,0.855557978,0.999221981,0.474357992,-0.011384800,
-0.050709698,-0.069503598,0.181924000,0.145476997,-0.217801005,
0.221036002,0.047839999,0.217304006,0.474806994,-0.678520024,
-0.079383597,-0.036215998,1.531530023,0.029783299,-0.002940090,
-0.135985002,-0.026189599,-1.435729980,-0.111364998,0.199979007,
0.013832800,-1.239820004,0.016968001,0.001541900,0.000578849,
-0.964067996,0.044837099,0.036594901,0.035155401,-0.032184500,
0.027139300,
-0.057907101,
-0.017858200,
0.090685897,
-0.008166550,
0.103588000,
-0.022109600,
0.035657302,
-0.094308197,
0.014044300,
0.012714800,
-0.305819005,
-0.014986500,
0.010522200,
-0.023207501,
-0.179591000,
-0.102724001,
0.137847006,
-0.397033989,
-0.153955996,
-0.407326996,
0.004176960,
0.021453001,
-0.111222997,
0.025658401,
0.102261998,
0.037156802,
-0.239760995,
-0.278135985,
0.181375995,
0.050743099,
0.231702000,
-0.323989004,
0.034996901,
0.091507703,
-0.109219998,
-0.025733700,
0.239475995,
-0.308111995,
-0.280651987,
-0.260210007,
0.024752300,
-0.014942200,
-0.134983003,
0.019617099,
0.107493997,
0.036125701,
0.018270001,
-0.005069650,
-0.222165003,
-0.207498997,-0.440118998,0.028758001,-0.022927400,-0.472218990,-0.272114009,-0.324252993,0.184882998,0.113217004,-0.471859008,0.322360009,-0.145309001,0.040818501,-1.004099965,0.078291699,-0.479838997,-0.629266977,-0.204125002,-0.615216017,-0.155627996,-0.602753997,0.509751022,2.078200102,0.248008996,0.212109998,-0.296611011,-0.067994297,-0.248181999,0.789789021,0.049656801,0.234789997,0.151540995,-1.864770055,-0.275316000,-0.621657014,-0.885416985,0.100326002,0.315957010,-0.453657001,0.579879999,-1.417389989,0.053268399,-0.015443400,-0.517966986,-0.426533997,-0.137320995,0.012070500,0.095517300,-0.040363800,-0.034866702,
-0.276486993,0.081122801,0.049032900,0.022038100,0.127380997,-0.173718005,0.215720996,0.068336099,0.051687200,-0.190102994,0.197724000,-0.358920991,-0.033546101,0.510429978,-0.061246801,0.069889702,-0.184755996,-0.176861003,0.501654029,-0.176314995,-0.177754998,-0.667950988,0.104785003,0.203920007,0.183801994,0.203608006,0.144325003,0.115432002,-0.251830995,-0.214405000,-0.781397998,0.344799012,-0.466636986,-0.090799399,0.124720000,-0.371930987,0.116975002,0.492300987,-0.555675983,-0.231415004,-0.283867002,0.005068850,0.054715201,-0.031098800,0.195351005,-0.083614200,0.056775600,-0.383763999,0.134878993,0.250775009,
-0.208075002,0.176063001,-0.054263901,-0.116194002,-0.154161006,-0.428294986,-0.127180994,-0.175070003,0.111157998,0.115677997,0.085938103,0.004031490,-0.003728200,-0.175713003,0.098644897,-0.160990998,-0.102580003,-0.032709401,0.508899987,-0.465238005,0.283861011,-0.169327006,0.611011028,-0.140406996,-0.332011014,0.570200980,0.027026299,0.070253499,0.524910986,-0.373569995,0.092944197,-0.097725198,0.001801450,0.317537010,0.286956012,-0.394616991,-0.260598004,0.255432993,0.019320700,-0.390127003,0.537690997,-0.217446998,-0.036127198,0.599515021,0.212045997,-0.011724800,0.139936998,-0.277601004,0.114280999,-0.318697006,
-0.134388998,0.198994994,-0.024483699,0.304966003,0.024217401,0.603969991,0.962513030,-0.210419998,0.430224001,0.164478004,0.036013201,0.196261004,-0.021941500,-0.046611499,0.417315006,-0.465523005,0.041077401,0.111365996,0.015923999,-0.186114997,-0.919876993,-0.590924025,0.184040993,0.204392999,-0.245259002,-0.159700006,-0.187214002,0.093172804,-0.467115998,0.373414993,-0.323855013,0.015029500,-0.076366901,0.078882597,0.460316986,0.323971987,0.037127402,-0.035124801,0.631277025,-0.134051993,0.382719994,0.617422998,-0.025954200,-0.004851820,0.153229997,0.217323005,0.091635898,-0.068359099,0.051565900,-0.486012012,
0.030943800,0.441276997,0.016579401,0.040371899,0.192028001,-0.222454995,-1.258229971,-0.021798700,-0.398066998,-0.028855599,-0.158842996,-3.478209972,0.022518801,0.277606994,-0.082277603,0.016086601,0.332228005,0.176575005,-0.564424992,-0.624284029,-0.841220021,-0.202978998,0.137342006,0.260942012,-0.189563006,0.099925302,0.359923005,1.388129950,1.503080010,0.498676986,0.408702999,0.038287099,1.777119994,-0.134928003,-0.113187999,0.057479899,-0.068419300,-0.009778470,-1.210279942,0.179995999,1.137989998,-0.121230997,-0.002312210,-0.726999998,-0.165840000,0.199044004,0.361631989,0.097815998,0.184752002,-0.903738022,
-0.137058005,0.259543002,-0.037383799,-0.109177001,-0.249112993,0.114662997,0.091949701,0.192533001,-0.162823007,0.255885988,0.553057015,-0.026329700,0.016202301,0.233873993,0.181146994,-0.195418999,-0.158746004,0.133563995,-0.757005990,0.127566993,0.163693994,-0.281473011,-0.559846997,0.007671890,-0.210663006,-0.014411200,-0.097995102,0.107812002,0.246005997,-0.038985599,0.050745100,0.216893002,0.014263900,-0.237051994,0.482558012,-0.031242801,-0.164451003,0.227284998,0.054439198,-0.155011997,-0.217553005,-0.076002501,0.051035099,0.162222996,-0.246084005,0.124912001,0.088430300,0.033342000,0.142794997,-0.067933500,
-0.617586017,0.031083900,-0.043496601,0.669910014,0.873183012,-0.090472601,0.323754013,-0.309789985,0.575406015,0.202261999,0.315513015,0.036910299,-0.009167790,0.088900499,0.631614983,0.101016998,0.391241997,-0.090707600,-0.407267004,0.335123986,-0.429253995,-0.389488995,-0.238146007,-0.710364997,0.239816993,0.323691010,0.249829993,0.095798403,0.220378995,-0.058115900,-0.375820011,-0.034127399,1.024000049,0.141549006,-0.104932003,0.255683005,-0.267592013,-0.078006402,-2.268460035,0.041147001,0.797976017,-0.296995997,-0.008155240,0.507260978,0.624432981,-0.373279005,0.802112997,0.624162018,0.010107800,-0.398025006,
0.394098014,-0.229108006,0.026404200,0.238085002,0.237243995,-0.239152998,0.845583975,-0.103280000,-0.125636995,0.115768999,-0.807852030,0.442763001,-0.043212399,0.490877986,0.309547991,-0.361557990,0.229919001,0.372498006,1.447379947,0.363510013,-0.395626009,0.226706997,-2.237360001,-0.433438003,0.203126997,0.621217012,-0.098263800,0.177071005,-0.130328998,-0.578351974,0.043127399,-0.002565610,0.009873200,-0.213284001,-0.426878005,-0.198991999,-0.172450006,0.073590003,0.491403013,0.190629005,0.050935000,0.277550995,-0.021508800,0.208844006,0.309089988,-0.023450200,0.196830004,-0.077738799,0.178417996,-0.306813985,
-0.080883302,-0.109022997,-0.011141700,0.073512703,0.039846700,-0.232045993,-1.000859976,-0.074252501,-0.023218499,-0.148766994,0.179135993,0.319261998,0.035584800,-0.147473007,-0.220228001,-0.187638000,0.033619601,-0.460115999,-0.679759979,0.030392300,-0.216600999,0.208176002,-0.295702010,-0.305343986,-0.359658986,-0.111867003,-0.102885000,-0.368113011,-0.148229003,-0.480681986,0.198256001,0.136231005,-0.250914991,0.022185100,-0.543707013,-0.837441981,0.317048013,0.198633999,0.528258979,0.288069993,0.145785004,-0.099548399,-0.042499501,0.079472803,-0.172110006,0.035183098,-0.011917800,-0.123843998,-0.321772009,-0.553351998,
-0.035988498,-0.221561998,0.009880760,0.098057903,-0.015998200,-0.092220597,-0.073036999,-0.120385997,0.015114800,0.389952987,0.069803096,0.582123995,-0.014983900,0.244874999,-0.235515997,0.479166001,0.156060994,0.488689989,0.297998995,-0.026458200,-0.790678978,-0.489069015,-0.026624501,0.507322013,0.153619006,0.487686008,0.246654004,1.748270035,2.078560114,0.111318000,0.022471100,-0.130936995,1.729750037,-0.324921012,0.213746995,0.400680006,-0.132860005,-0.251967996,0.288138002,-0.384797007,1.288619995,-0.193251997,0.031498902,-0.386013001,0.194420993,0.110021003,0.224059001,-0.133397996,0.289747000,0.069633603,
-0.010012700,-0.020058401,0.037412401,0.001420690,-0.001412610,-0.008149310,0.021853801,-0.002755510,0.015178900,0.020607900,-0.018565800,-0.014482900,-0.054596499,-0.024298500,-0.057736300,0.020625001,-0.016968600,-0.049099401,-0.052336302,0.017502701,0.006683990,0.025845300,-0.014367500,-0.046747301,-0.057268701,-0.017908899,0.032631598,0.028157800,-0.024621200,-0.052740701,-0.009363340,-0.060098700,-0.000054963,0.013076500,-0.044041399,-0.032813400,0.009300230,-0.013201900,-0.034652799,-0.021229999,-0.008125020,0.001109670,0.035502501,-0.044466201,-0.034939099,0.015522100,0.022664599,-0.009728780,-0.054761600,0.026549600,
0.103880003,0.614356995,-0.042052899,0.077626303,1.582800031,0.398813993,0.425765008,-0.206874996,0.109011002,-0.099158697,-0.241007000,-0.050564501,-0.023478599,-0.218577996,0.197638005,1.617400050,0.069882303,-0.064038001,-0.134492993,0.379200011,-0.835411012,-0.431107014,-0.158653006,-0.040029399,-0.067478903,0.804239988,0.045637298,0.122259997,-0.608839989,0.262901008,-0.047061801,0.020027900,1.263239980,-0.340750009,0.787420988,-0.208434001,0.136418998,-0.049200900,0.040907901,0.247859001,1.310739994,-0.031564500,0.020568600,-0.204184994,0.050866101,-0.185839996,-1.378839970,1.026790023,-2.421700001,0.219031006,
-0.150948003,0.128866002,-0.044633899,0.136748001,-3.508990049,0.860248983,-0.076807000,0.504179001,-0.107510000,0.258260995,-0.252397001,0.581360996,-0.054670401,0.003351080,-1.017740011,-0.208361000,1.262820005,0.264315993,-0.162971005,-0.420800000,-0.587230980,0.134009004,-0.463236004,-0.109132998,-0.302670002,-0.131558999,-0.262905985,-0.984000981,-0.047361098,0.656542003,0.181630999,0.656942010,-1.372750044,0.311690986,0.860011995,-3.626620054,0.128409997,0.631623030,-2.178849936,0.337974012,-8.971389771,0.238892004,-0.053422701,0.287247986,-1.655590057,-1.187039971,-3.995980024,-0.393573999,-2.855900049,-0.615617990,
0.075213797,-0.072933398,0.016900601,0.462743014,0.686730027,-0.624383986,0.481269002,0.346204013,0.696469009,0.509020984,0.064395301,-1.521070004,0.014683700,0.072693497,-0.287755013,0.763686001,-0.081504300,-0.262672991,0.593198001,0.130058005,-0.196966007,-0.040899999,1.347259998,0.776884019,0.385919988,0.371219993,0.509451985,0.138669997,-1.034170032,-1.036599994,0.425960004,-0.325064003,-0.919604003,0.683420002,-0.089926198,0.833508015,-0.174631000,-0.269387990,-2.506459951,0.220437005,-0.370536000,-0.125811994,0.003201960,-0.442467004,-0.334093988,-0.587405026,0.543431997,0.298988014,0.276888013,-0.459654003,
-0.049115200,-0.001927410,0.042164601,-0.048456900,0.038603399,-0.032801699,-0.012990200,0.042663801,-0.040676098,0.017497299,-0.032979600,-0.021618299,-0.044838499,0.000048378,-0.003301730,-0.042167202,-0.034602001,-0.008233850,0.010020900,-0.044699602,0.011645300,-0.043041099,-0.023051400,-0.002687890,-0.019585799,-0.034244899,-0.039507098,0.016053399,0.026549000,-0.037487201,-0.016120501,-0.039978500,0.033944201,-0.026136899,-0.021483300,-0.049119599,-0.036011100,-0.004778310,0.027390299,0.012187400,0.035309602,0.004828270,0.006418100,0.019453101,-0.026384600,-0.034478500,-0.012012100,0.010558400,0.029341700,-0.049215201,
-0.084246099,-0.000959908,0.029592499,0.346127987,0.234753996,0.533685982,-0.217180997,0.856329978,0.274639994,0.486734003,0.482762992,-0.165386006,0.029026700,0.571754992,-0.064674400,0.503476977,-0.537476003,0.003537590,0.493645996,0.248824000,-0.157569006,-0.246528000,-1.215520024,0.542528987,-0.652616978,0.089402802,0.417032987,-0.686751008,0.374559999,-1.410879970,0.561698020,0.070209697,0.880057991,0.372294992,0.834908009,0.178360999,-0.305858999,0.037032299,-0.813279986,-0.545390010,0.267742008,0.583391011,-0.002468510,0.601863980,0.587665975,-0.357641011,-1.065799952,-0.256177992,0.685788989,-0.324043006,
0.078628697,0.437197000,-0.030812999,0.223012000,-0.598501980,0.215865999,-0.056684200,-0.011723700,-0.149797007,-0.109387003,-0.184217006,-0.696735024,-0.018417500,-0.706610978,0.019956799,-0.731835008,0.023389401,-0.005968460,0.380412996,-0.324037999,0.313237011,0.154478997,-0.217816994,-0.549628973,-0.265886009,-0.518105984,0.044381499,-1.120159984,-1.369910002,0.009441760,-0.058825199,0.283643991,-1.733270049,0.482066989,0.178077996,-0.434729010,0.096028097,0.344323993,-0.554858983,0.233596995,-1.280110002,0.062671199,0.037001502,0.548089981,0.003548960,0.023890600,0.278542012,-0.704852998,-0.960866988,-0.042049699,
0.059408601,-0.193663999,0.028962700,0.073687397,0.078618899,-0.186992005,0.099033698,0.013036600,0.127447993,0.074989803,0.218466997,-0.350654989,-0.023287199,0.042704701,-0.019689299,0.041952200,0.137200996,0.025507700,-0.019654900,-1.148589969,-0.162606001,0.058626600,0.024220200,-0.007319350,-0.810240984,0.070591703,0.109860003,0.062844500,0.168582007,0.046567999,-0.060325202,0.511811018,0.133404002,-0.201937005,-0.153604001,0.022454100,-0.073838897,1.276299953,0.066219002,0.019444300,-0.020054100,-0.054958999,0.025050201,-0.122359000,0.203006998,-0.086853899,0.125227004,0.024110399,0.032860301,-1.150789976,
0.016285401,0.007589790,-0.010749500,-0.014748700,-0.017334800,-0.055894200,0.006153810,-0.035480000,0.017967699,-0.043771699,-0.003146130,-0.016627099,0.030056501,-0.016706901,-0.021622000,0.009441080,0.001311480,-0.049978800,-0.048684601,-0.020667000,0.040973701,-0.039515302,0.011144500,0.003697120,-0.030172899,-0.040013000,0.025215300,0.027168199,-0.045080200,-0.049432799,0.028279301,0.017013000,0.010163300,-0.001293440,-0.047317900,0.000129403,-0.035470001,-0.054148700,0.042330101,-0.045273598,0.032384899,-0.015559100,-0.034163799,0.021239599,-0.008128830,-0.016219700,0.006312490,0.010169300,-0.054967299,-0.006317680,
-0.076720402,0.054477900,0.011186000,-0.886816025,-0.032764900,0.090262003,0.041283600,0.016693400,-1.269420028,-0.137340993,0.168121994,0.071012199,-0.034700301,-0.055039700,0.301640004,-0.076904200,0.039890900,-0.092314802,0.074926503,0.186511993,0.046364900,0.111711003,-0.055278700,0.822408020,-0.135270000,0.125999004,-0.168258995,-0.015471900,-0.464251995,-0.215903997,0.014817400,-0.147767007,-0.169885993,-0.108430997,-0.018982399,-0.019361701,-0.011752400,-0.138082996,-0.005627980,-0.067323297,-0.118339002,-0.064625300,0.017469799,0.110818997,-0.037828501,-0.264587998,0.136689007,-0.426580012,0.019480901,0.193329006,
0.436654001,-0.437415987,0.039745301,-0.037877001,-0.103632003,-0.127538994,-0.326128006,0.289393008,0.094570100,0.142569005,-0.454044014,-1.519269943,0.029375000,0.137730002,0.017230101,-0.005092480,1.349789977,-0.092950501,-0.359396011,-0.316805989,0.649425983,-0.277146995,0.699442029,0.998565972,-0.274527013,0.087156199,-0.101159997,0.507984996,-0.196222007,-0.185601994,-0.009549470,0.016596500,1.143409967,0.506245971,-0.437534004,0.255059004,-0.004075980,-0.111346997,2.608459949,0.059756398,0.236256003,-0.003218120,-0.022680501,-0.129293993,0.341989994,1.008280039,-0.607403994,0.160988003,0.133888006,-0.235906005,
-0.106145002,0.527701020,-0.009422500,-0.624930024,-0.495308012,0.024462700,0.330819994,0.262376010,-0.360036999,0.413803995,-0.185202003,-0.721387982,0.013593100,-0.040786698,1.343510032,-0.919341981,1.264039993,-0.501541018,-0.083877802,-0.777127028,0.263099998,0.135571003,-1.193989992,-0.736002028,0.323991001,0.248806998,-0.985578001,0.157942995,-1.206050038,-0.070737503,0.324640989,0.092534401,-2.066390038,0.406603009,-0.229730994,-0.533639014,-0.117655002,0.052445300,0.545930982,0.534440994,-1.240460038,0.446069986,-0.036575500,1.139829993,-0.723864973,0.004560450,-0.367462009,-0.003078260,-0.063238598,-0.730729997,
-0.035905600,0.037826300,-0.039483201,-0.036728099,0.003275080,-0.039902199,-0.045665901,-0.050660200,-0.029513201,-0.006873590,0.014196200,-0.019325400,0.031933699,-0.050099801,-0.052042000,-0.003013630,0.025894100,-0.047446098,-0.009190120,-0.016062601,-0.021049200,-0.018921901,-0.004450050,-0.003745520,-0.010435800,-0.033850402,0.041451301,0.026257999,-0.005795860,0.000116811,-0.024694201,-0.023884200,-0.001562750,-0.051228300,-0.042210300,0.007225890,-0.007967020,-0.017760200,0.021638900,0.041840401,-0.010455100,-0.008010100,0.039855599,0.011364400,-0.014531800,0.022609999,0.002899430,-0.042476699,-0.049748398,-0.022210600,
0.333133012,-0.407101005,-0.009169040,0.279377013,-0.229065001,-0.215324000,0.264791012,-0.732788980,0.148215994,0.560629010,-0.512983978,-1.345479965,-0.002722800,-0.467462987,0.348672003,0.148343995,0.163993001,-0.048772302,0.180485994,-0.262172997,0.558745980,-0.102347001,-0.711730003,0.191909000,-0.816100001,0.173316002,0.775452971,0.281863987,0.608995020,-0.295102000,0.069908299,-0.006000800,0.343443990,0.338665992,-0.682201982,0.117357999,0.171154007,0.068691500,0.735557020,0.185017005,0.980895996,-0.052466899,0.047994100,0.460929006,0.051010299,0.490112007,-0.142867997,0.272060990,0.480834991,0.248541996,
0.240949005,0.432410985,0.009796320,-0.579394996,-0.316147000,-2.038710117,0.552883983,0.423824012,0.188949004,0.338304996,-0.734489977,0.214295000,-0.007778440,-0.603403986,1.110020041,-0.237402007,0.558443010,-0.082040802,0.074218802,0.304755986,0.446855009,-0.512782991,0.774287999,0.779039025,-1.069640040,-0.225521997,-0.841527998,-0.128417000,-0.052549601,-0.000986124,0.725961030,-0.338732988,1.295549989,-0.233254999,-0.706660986,0.413747013,-0.049200900,-0.279756010,0.072085701,0.337381005,0.194009006,-0.372249991,-0.007124960,0.275474012,-0.302960008,0.404433012,0.292127013,-0.260755986,0.057066102,0.132369995,
-0.086833000,0.055498600,0.003073960,0.338411987,0.506875992,-3.796910048,-1.569020033,0.000828174,-0.797757030,0.522518992,-0.308434993,1.984279990,0.001657260,0.206097007,-0.280773014,0.441473007,0.738717973,0.197877005,-0.028599700,0.181936994,0.272404999,-0.076549098,-0.390188009,0.204150006,-1.308809996,0.274053991,0.292710006,0.668744028,-0.117367998,0.058441099,0.262028009,-0.197972998,-0.349954993,-0.566673994,-0.916364014,0.683187008,1.272400022,-0.097747698,0.557605982,0.329522997,-0.314826995,-0.089544103,-0.021415200,-0.113812000,-0.195069999,-0.507991016,0.481537014,0.347171992,0.378776997,0.478960991,
0.009421680,-0.013229800,0.034124300,0.013142700,-0.042816699,-0.036281299,0.019285001,-0.048942599,-0.042579599,-0.011703100,0.001009650,-0.007980460,-0.003705870,-0.032153301,-0.028396901,0.008142500,-0.041651100,0.034713399,0.012704100,-0.051918302,-0.033798400,0.012364200,-0.021893200,0.000790994,-0.020949200,0.039095402,0.032988001,-0.045214999,0.044234999,-0.062833197,-0.031245301,-0.063586801,0.046175100,-0.039725900,-0.022495400,-0.014583900,-0.053678401,-0.026406700,-0.005495060,-0.020932199,0.019854600,-0.000274610,0.014880900,-0.061056498,-0.019094899,-0.041270699,-0.008560400,-0.035524800,0.022863399,0.003409050,
-0.074662700,0.088900097,-0.000464022,-0.039529599,0.413224995,-0.414438993,-0.154074997,-0.072031803,0.126962006,0.026355701,0.179206997,0.114141002,-0.035939001,-0.427145988,0.189834997,-0.346230000,-0.062631600,0.130517006,-0.951390028,-0.097632900,-1.932839990,0.156968996,1.323300004,-0.436226994,-0.207871005,0.214632004,-0.539857984,0.052085798,-0.247896999,-0.255221993,-0.183972999,0.144483000,-0.479140013,-0.644765973,0.407947987,0.777782977,-0.021377100,0.214726999,-0.364697993,-0.236647993,-0.327666998,-0.030752700,-0.007482170,-0.374754995,0.289480001,-0.089809000,0.416577995,0.034205701,-0.945796013,-1.020449996,
0.289992988,0.059871800,-0.000804682,-0.080980599,-0.258644015,0.363462001,-0.504858017,0.064294197,0.047362398,0.404821008,-1.014889956,-0.501461983,-0.008451200,-0.258260012,-0.133684993,-0.324598998,0.004375230,-0.268431991,-1.314720035,-0.113349997,-0.558557987,-0.014059400,-0.430335999,-0.006318200,-0.262322009,0.179483995,0.052349500,-0.273258001,-0.532983005,-0.229900002,-0.294485003,-0.019217599,-0.524402976,0.206200004,-0.108644001,0.019364400,0.251502991,0.130767003,-1.305950046,0.201955006,0.085081398,-0.000296188,-0.015623600,-0.748435020,0.102828003,0.399414003,0.336564988,0.011135900,-0.430377007,0.456490993,
-0.051913898,-0.025404600,-0.000734461,-0.033580199,-0.019199500,-0.042710401,-0.025033699,-0.041905299,-0.024063300,-0.039972801,-0.026108000,0.004090660,0.017752601,-0.031236500,-0.026851101,-0.020080101,-0.000213935,-0.009243340,-0.027538501,0.015947601,0.013403300,0.024751600,-0.028237000,0.035505999,-0.018435599,-0.039528102,-0.047479801,-0.005738740,-0.049888998,-0.003203640,-0.011692400,0.008968680,-0.001470190,-0.060173400,-0.059548199,0.012621400,-0.022740699,-0.041273698,0.021131299,0.024514200,0.032501001,0.012618200,0.011961900,0.030166101,-0.019935301,-0.035055701,0.032521099,-0.030796699,-0.004565100,0.032859400,
0.131355003,0.383058995,-0.039363500,0.580801010,0.612441003,-0.073428899,0.149603993,-0.831788003,0.086744502,0.829541981,0.219850004,-1.194949985,-0.018364400,0.092089303,-0.354088008,0.606068015,0.119680002,0.403984010,-0.151276007,0.030165100,0.836081982,0.884669006,0.428234994,-0.054783799,0.061279800,0.105053000,0.431860000,-0.680433989,-1.149199963,-0.626029015,-0.259570003,0.183229998,0.648645997,-0.090120703,-0.383089006,-0.274363011,0.022779400,0.283167988,-0.282498986,-0.062285598,-0.083283499,-0.815744996,0.020798299,-0.451007009,-0.272798002,-0.361745000,0.086896501,-0.069768198,0.458761990,-0.177383006,
-0.078396797,0.203794003,0.011124200,0.272558987,-0.570037007,1.142959952,1.265290022,-0.626838982,0.733775020,-0.047815200,-0.054476701,-0.038793098,0.025793999,-0.806618989,0.204952002,-0.437377989,-0.273422986,-0.104181997,-0.024231700,-0.624315023,-0.059380900,0.285338998,1.078600049,-1.042179942,-0.055865601,-1.344370008,0.010506300,0.899101019,-0.078287497,-0.946484983,-0.197701007,0.521064997,-0.245152995,0.018127600,0.668597996,0.463450998,0.604763985,0.363994002,-0.077824898,0.610341012,1.097229958,-0.027020300,0.036755700,0.125664994,-0.794125021,-1.216519952,-0.154538006,-0.088239104,-0.006286870,-0.049791101,
-0.022571599,0.328631014,0.030436600,-0.007482600,0.101106003,0.302657008,0.122991003,0.024565199,0.206295997,0.052368399,0.229292005,0.005107430,0.055266399,-0.048393499,0.002593930,0.024795299,-0.120823003,0.086256802,0.076043896,0.920324981,-0.053289600,-0.039143201,0.209484994,-0.097083300,-0.220243007,0.100524999,0.051625300,0.014181300,0.117554002,-0.151840001,0.177947998,-2.524879932,0.028795401,-0.186973006,0.580475986,0.072724700,0.019305101,-4.282479763,0.067801103,0.040119700,0.003783300,-0.138950005,-0.003378620,-0.027308200,0.196061999,-0.055420998,0.010127000,0.019985201,0.060270399,0.962653995,
-0.281168997,0.160059005,-0.027949501,1.492830038,-0.101869002,0.027523899,-0.085838802,0.151687995,0.203250006,-0.196825996,0.258610010,0.228718996,0.002450850,-0.299142987,0.089142904,-0.153236002,0.360740006,-0.230059996,-0.316121995,0.287856013,-0.897122025,0.258637011,0.371252000,0.083619997,0.335375011,-0.228847995,1.415879965,-0.156709999,-0.403825015,-0.182870001,0.525260985,-0.160154998,-0.933793008,-0.125524998,0.364481986,-0.029973300,0.075726002,-0.235981002,0.183460996,-0.156075999,-0.066621996,0.196229994,0.060961802,0.228685006,0.067431502,-0.097436696,0.010565700,-0.188697994,-0.064296000,-0.011251900,
-0.257292986,0.025216799,0.016624000,0.010060000,-0.048357401,0.122414999,0.064274803,0.013327400,0.091480702,-0.495559007,0.139400005,0.076309703,0.017459599,-0.559274018,0.162378997,-0.118787996,-0.062217999,-0.293379992,0.052858301,0.041035600,-0.263626009,0.076126002,-0.652034998,-0.140849993,-0.042463399,-0.296124995,-0.015908500,0.108349003,0.049136098,-0.051634099,-0.228688002,-0.090798497,0.108161002,-0.209179997,0.013292900,0.069785297,0.302558988,-0.103533000,-0.070253402,-0.260482997,0.079098001,0.055046700,-0.004852020,0.241848007,-0.120134003,-0.421986014,0.039269298,-0.028099099,-0.084237598,0.118601002,
0.191477999,-0.168359995,-0.037192199,0.099349499,0.389918000,-0.673491001,-0.345160007,-0.289234012,-0.018246200,0.092159003,-0.453792006,0.980871975,0.045378700,-0.056342799,0.204476997,0.219375998,0.808400989,-0.161197007,-1.134299994,-0.731977999,-0.236637995,-0.194778994,-0.338901997,0.510888994,-0.584048986,0.688767016,-0.008522350,-0.520533979,-0.574325979,-0.016824801,0.116329998,0.733548999,-1.295709968,-0.061001800,0.115930997,0.862010002,0.229283005,0.771808982,-0.757085025,-0.024717700,0.153432995,-0.086920001,0.044151399,0.351110995,0.519917011,0.379996002,-0.067470200,0.033224799,0.136778995,0.312173009,
0.240687996,0.085568801,0.019393800,-0.210626006,0.263511002,-0.519819021,0.699177027,0.592903972,-0.402474999,0.016132200,-0.096830800,1.037150025,0.008954040,-2.351690054,0.242818996,-0.788640976,0.079224199,-0.179837003,-0.855755985,-0.156372994,-0.019948499,0.282568008,2.574019909,0.174145997,-0.252427995,0.277213007,-0.002230690,0.572897971,1.325420022,0.550226986,-0.450132996,-0.094936699,1.128260016,0.791922987,-0.914587975,-0.085912399,-0.138722003,0.007842390,0.371010989,-0.080992401,0.515067995,0.048353098,0.030442500,-0.083522901,0.095783897,0.506181002,0.290598005,-0.134444997,-2.595499992,-0.436884999,
0.001368350,-0.025230501,-0.053768799,-0.027611099,-0.132154003,-0.475293994,-0.945542991,-0.184903994,-0.015525600,0.227676004,0.059834301,-0.254779011,0.032568499,0.087107003,0.253574997,0.347227007,-0.125152007,0.116884001,0.022567401,0.083411299,0.084410504,-0.550386012,-0.227028996,-0.505926013,0.011986900,0.144963995,-0.348450989,0.053538699,0.454127014,-0.079233304,0.137748003,-0.180592999,-0.272475988,0.062679604,0.032912001,-0.123672001,0.707844019,-0.212705001,-0.224790007,-0.057384498,-0.094143100,0.017499501,-0.038394000,-0.668538988,0.004796490,0.113550998,0.089069799,0.062642701,-0.175224006,0.176756993,
0.308640987,-0.180813998,0.032079801,-0.133928001,0.122046001,0.253818989,-0.355129004,0.067669600,-0.356218994,0.111350000,-0.386914015,1.873950005,-0.007183770,-0.028193900,0.360040992,-0.009172700,-0.057935901,-0.312260002,0.761684000,-0.029558400,0.332381994,-0.413488001,-5.821280003,-0.030212900,-1.712059975,0.267383993,-0.383026004,0.920520008,-0.555136979,-0.123924002,-1.510130048,-0.148276001,0.053262401,-0.058549300,-3.354439974,-0.106114998,0.116267003,-0.243067995,1.000640035,0.338025004,0.660073996,-0.343008995,-0.030616701,-0.715641022,0.097705998,-0.199214995,0.383769989,0.139416993,-0.322544992,0.022166800,
-1.309530020,0.067852601,-0.022543600,0.291536003,0.522239029,0.080846101,0.057230402,-0.929970026,-3.373349905,-1.030859947,-0.083048202,-0.474197000,-0.002718350,-0.255935013,0.423943013,-0.075454399,-2.532629967,-0.542460024,-1.049960017,-0.504275978,-3.383290052,-0.246696994,0.591377020,-0.712468028,-2.206840038,0.582404971,0.144033998,0.470782995,0.481700987,-0.388148993,0.383780003,-0.285180986,1.206359982,0.233682007,-0.010481600,0.129212007,0.174144998,-0.246768996,-0.694150984,0.499776006,0.816542029,-0.050641298,-0.031526700,-0.064291097,-1.045150042,-0.165544003,0.144759998,-0.281080991,-0.176887006,0.108488001,
-0.165863007,0.015573100,-0.044279199,0.521748006,0.541092992,-0.633589029,0.434707999,0.029545501,-0.497319013,-0.219680995,-0.234757006,0.222305000,0.039207000,0.584333003,-0.200313002,-0.261660010,-0.545943975,-0.462610006,-1.190760016,-0.356617987,-0.135534003,0.492862999,1.217880011,0.056539498,0.783536971,-0.561601996,0.707522988,0.157059997,0.433779001,-0.237281993,-0.470299006,-0.485843986,-0.120598003,0.327394992,-0.671908975,0.599156022,0.213327006,-0.376666993,0.169283003,0.849552989,-0.339531988,0.027917400,0.026036801,0.279112995,-0.060621899,-0.411249012,-0.249158993,-0.205394000,0.478242010,0.231393993,
0.358485013,-0.105584003,0.011932500,0.088328101,-0.194123998,-0.032260500,-0.265747994,-0.034166101,-0.406996995,-0.200027004,-0.432561994,1.285760045,0.048845101,-0.214279994,-0.191496000,-0.178572997,-0.098002002,0.352129996,-0.470036000,-0.273611993,-0.444265991,-1.050510049,-0.249963000,-0.049785700,0.169688001,0.087138601,0.206933007,-0.291646004,-1.164019942,0.087643497,-0.657293022,-0.014587200,-0.451460987,-0.559525013,0.726674020,0.203627005,-0.240420997,-0.143133000,0.395550013,0.085138202,0.034159198,-0.467469990,-0.019615000,0.046262499,0.065032601,0.482069999,-0.365931988,-0.215230003,0.433752000,-0.072959296,
-0.007062950,-0.330931008,-0.034740601,0.133583993,-0.938956976,-0.546105981,0.018910199,0.255569994,-0.192084998,0.121561997,0.670796990,-0.200723007,0.039661400,0.058049899,-0.916743994,0.689790010,0.028341699,-0.108810000,0.720405996,0.006324000,0.280705988,0.030029200,0.226154000,-0.129907995,0.130650997,-0.243011996,-0.213530004,-1.227530003,0.141123995,-0.509935021,-0.203530997,0.241383001,2.298680067,-0.398057014,0.226612002,-0.778914988,0.022975300,0.237902001,-1.414870024,-0.398555994,0.515430987,-0.368463010,0.033238601,0.178755000,-0.196392000,-0.579127014,-0.340162009,-0.149717003,-0.653832972,0.421353996,
0.146927997,-0.039248601,-0.010968600,-0.487421006,-0.078857601,0.232183993,0.314821005,0.375856012,0.171295002,-0.818735003,-0.089223802,-1.172749996,-0.017480399,0.000938147,0.183321998,0.053582501,-0.849215984,0.046937201,0.437698990,-0.303781986,0.384480000,0.210357994,0.942640007,-0.839272022,-0.240817994,0.122295998,-1.000499964,-1.413089991,-2.520370007,-0.100891002,-0.290479988,0.398209989,-0.642373979,-0.052227002,-0.008887480,-0.618373990,-0.072016098,0.501994014,-1.315569997,0.091561899,-1.092139959,0.665759981,-0.024395401,-0.401641011,-0.103015997,0.095844701,-1.352259994,0.479667008,0.312267005,-0.177404001,
-0.041892901,-0.030175300,0.038209300,-0.000948077,0.034224302,0.015595300,-0.006573550,0.013406600,0.005854260,-0.077082500,-0.001118120,-0.026202900,0.032931101,-0.004060670,0.008247890,0.007571630,-0.054630399,-0.001520050,-0.024297200,0.022339299,0.026273400,0.004722650,-0.028875099,0.027062301,-0.063512303,0.013635900,-0.004875850,0.000057667,0.011114500,-0.077721797,-0.012905200,-0.052254401,0.024179799,0.021650400,-0.035113301,-0.033855401,-0.069079898,-0.017867399,-0.018120499,-0.038770098,0.004697380,-0.059204701,-0.006263200,-0.088184603,0.003520620,-0.000069863,-0.030489299,-0.015641199,0.016902300,0.015900200,
0.542281985,-0.120228998,0.019215999,0.000968142,0.730153024,-0.678362012,-0.852325022,0.653101981,0.242285997,0.217243999,-0.337321013,-0.311769009,-0.006027380,-0.724053025,-0.388725013,-0.249463007,-0.653041005,0.392964005,-0.501749992,-0.180867001,1.261659980,0.289361000,1.000270009,0.237960994,0.279262990,-0.062862702,-0.231123000,-0.399529010,1.366389990,-0.635505021,-0.209584996,-0.261581004,0.798842013,0.036947001,-2.001440048,0.034017202,0.271869987,-0.075434200,-0.503579974,-0.140469998,0.619176984,0.405656993,-0.008359160,0.212911993,-0.278643012,0.743853986,-0.918624997,0.424811006,0.392311007,0.088338099,
0.775810003,-0.516143978,-0.035314299,-0.132337004,0.071301401,0.801030993,-0.557859004,-0.087347798,-0.078243598,0.342325002,-0.989723980,-1.005900025,0.034589302,0.287717015,0.090836503,0.684017003,0.626807988,-0.226005003,0.796540976,-1.153499961,0.651584983,-0.056370400,-1.522140026,0.594533026,-0.300594985,0.196819007,0.115955003,-0.044756901,-0.217754006,-1.084470034,-0.009730120,0.415360987,-0.620732009,-0.287885994,-1.847069979,-0.009246040,0.535682976,0.554802001,0.310824990,0.592697024,-0.390736997,-0.056515500,0.003410780,-0.081652001,-0.120070003,0.536544979,-0.158840001,-0.072931901,0.269778997,0.153822005,
0.293455988,-0.213111997,0.034828100,0.209368005,-0.367588997,0.104523003,-0.264676988,-0.033259001,-0.087973803,0.228089005,0.097970903,-0.364775002,0.027650001,0.112273000,-0.619265974,0.223098993,0.345872015,0.428241014,0.115465999,-0.271499008,0.535697997,0.004493530,-0.573475003,0.453004003,-0.061790202,-0.038085502,-1.259619951,-0.003519120,0.259144008,0.105864003,-0.215828001,0.333550006,0.308248997,-0.252763003,-0.126370996,0.160681993,-0.088987201,0.578814030,-0.037147898,-0.034436401,-0.308818012,-0.433735013,-0.024832500,-0.067740597,-0.311450005,-0.023514800,0.144371003,-0.194335997,-1.798179984,-0.160242006,
0.032146599,-1.305639982,-0.034206498,0.158131003,-0.088592201,0.132901996,0.288780004,-0.388595015,0.219711006,-0.508418024,-0.039183699,-0.739256024,0.017483000,-0.149133995,-0.254020989,-0.002266080,0.822103024,-0.283513993,0.974079013,-0.408892006,0.550957024,-0.242930993,-0.299488008,0.065295197,-0.117634997,-0.127295002,0.168505996,0.150166005,-0.071299098,0.087643698,0.028758600,0.118768997,-0.457213014,-0.292544007,0.048606701,-0.049022298,0.346390992,0.096398696,0.298804998,0.021378800,0.100116000,-0.178734004,0.020039400,0.146048993,-0.583818018,-0.281266004,-0.067255601,-0.136984006,0.242614999,0.126043007,
-1.048519969,0.146358997,0.002788330,0.451108992,-0.202098995,-0.456854999,0.301883012,-0.823808014,-0.062362999,-0.657698989,-0.381164998,0.427017987,-0.022833399,-0.114165999,-0.577561975,-0.095015801,-0.066185601,-0.338223994,-0.194060996,0.472355008,-0.798039973,0.751855016,1.490730047,0.497420013,-0.948135972,-0.250496000,0.406825989,-0.194130003,-0.511784017,1.340880036,-0.960649014,-1.329759955,-0.936506987,0.231821999,-0.293150008,0.227923006,-0.000216140,-1.532799959,0.564877987,-0.005937660,-0.231253996,-0.018831700,-0.005253860,-0.344770014,-0.224574000,-0.220360994,0.859713972,0.536804020,0.368479997,0.798759997,
0.403499007,
0.098766603,
0.101295002,
-0.403472990,
-0.283681989,
-0.014241000,
-0.352299988,
-0.031933699,
0.139875993,
-0.202497005,
-0.017808201,
0.119935997,
0.125391006,
-0.461672992,
-0.005278380,
-0.455256999,
0.266665012,
0.275507987,
-0.005544970,
-0.004306070,
0.023567200,
0.490678996,
-0.005562590,
-0.169882998,
0.029975399,
-0.397006989,
-0.008658720,
0.331770986,
0.133201003,
-0.024002600,
-0.094710201,
-0.260295987,
-0.064350002,
0.196223006,
-0.066293903,
-0.121699996,
-0.242356002,
-0.002485420,
-0.142343998,
-0.011096900,
-0.107942998,
0.226368994,
0.472927988,
0.305106014,
-0.020260099,
-0.101488002,
-0.202298999,
0.302781999,
-0.013255300,
0.082808100,
-0.381458014,0.426274002,0.102812998,-4.463280201,0.022395100,0.538541973,-0.858812988,0.320268989,-0.560720980,-1.169440031,0.046055999,-0.453970999,0.153704002,0.197170004,-0.016221000,-0.528195024,-0.373452991,0.574702024,-0.002110900,0.124925002,-0.596047997,-0.046761300,0.038518898,0.250591010,0.519177020,0.088208698,-0.000243705,-0.476013005,-0.232527003,0.013937200,0.511982024,-0.330496997,-0.111886002,0.589561999,0.202888995,0.231001005,0.116921999,-0.223383993,-0.799728990,0.833693027,0.301203012,0.201555997,-0.066992298,-0.073081799,-0.040216599,-0.901319981,0.298027992,-0.965260029,-0.593226016,0.187291995,
0.690106988,-0.918323994,0.332854986,0.093229301,0.514446974,-0.338194013,-0.260423988,0.268586010,0.010977000,0.390078992,-0.018033000,-0.436957002,0.508520007,0.158087999,0.022232300,-0.458604991,0.291700989,-0.171287000,-0.013274100,0.129767999,-0.114188999,0.019143101,0.021987701,-0.069739401,-0.648319006,0.004315880,-0.050032701,-0.046816301,0.234120995,-0.020567600,0.325870007,0.106651001,0.099977098,0.122268997,-0.023608800,0.247921005,0.116077997,-0.204154998,-0.449066997,-0.068966798,-0.359183013,0.044293199,-0.085265197,0.388999999,0.004769050,0.482268006,0.077457897,-0.216480002,0.482652009,0.801172018,
0.282106012,-0.488054991,0.232516006,0.859225988,-0.267473012,0.696690023,-0.120980002,-0.200501993,0.135075003,-0.602594018,0.045864299,0.079921201,0.405360997,-0.112683997,-0.010515400,-0.453985006,0.241046995,-0.000854903,0.003392230,0.105190001,-0.514054000,0.147464007,0.007556120,-0.196973994,-1.720340014,0.219892994,0.039436001,-0.292396009,0.184100002,-0.021739200,0.250174999,-0.398416996,0.470162988,-0.016521100,0.360518008,0.263745010,0.645494998,0.301941007,-1.590299964,-0.299861014,-0.431151003,0.297897995,0.563401997,-0.100054003,0.009226170,-0.036324501,-0.386987001,-0.308519989,-0.275505990,-0.097773798,
-0.025913101,-0.022710100,0.036047298,-0.039860200,-0.047729399,-0.020759700,0.001573430,-0.003310490,0.009815990,-0.040177502,0.001564040,0.010451700,-0.041407399,0.001228400,-0.021299601,0.034807101,0.001566530,-0.009901630,-0.011638500,0.030279100,-0.042883400,-0.019808600,0.030534500,-0.064681098,-0.050661400,0.015670000,0.002486850,-0.011203000,0.014195700,0.037402600,0.025683900,0.031276200,-0.051053699,0.016438900,-0.029854599,-0.035002898,0.023372799,-0.005840800,-0.001203230,-0.046209998,0.000018255,0.035899799,-0.039751600,-0.009906270,-0.051663399,0.002786720,0.041290499,0.022543101,0.016213899,-0.051461801,
0.132483006,0.069647796,0.083394997,-1.270359993,0.560801983,0.814475000,0.217923000,-0.247539997,-0.142057002,1.686400056,-0.038449202,-0.537280977,-0.004916960,-0.312328011,-0.036803201,-0.600995004,0.833087027,0.166433007,0.018415799,-0.332686007,0.354310989,0.260412991,-0.015169200,0.333986998,-0.563004017,-0.121522002,-0.038515199,-0.249353006,-0.169911996,-0.027276300,-0.075989798,0.398249000,-0.342777997,0.385403991,-0.178045005,0.046900399,0.441965997,0.201343000,-0.356768996,0.773606002,-0.452179998,0.535277009,-0.054574199,0.243704006,-0.036903299,-0.209544003,0.328682005,-0.088564403,0.347535014,0.667235017,
-0.066597298,-0.524205983,-0.278748006,-1.121090055,-0.461349994,0.150988996,-0.102857001,-0.418671995,0.676221013,0.257862002,-0.039432298,-0.157034993,-0.130661994,-0.157441005,0.005219370,-0.102309003,0.685401022,0.427868992,-0.026524501,-0.187696993,0.176259995,-0.134323999,0.016754599,0.213304996,-0.129254997,-0.062987000,0.007136060,-0.853281975,0.431376994,0.043077499,-0.231599003,0.744265020,-0.627178013,-0.086839497,-0.381805003,-0.307976007,-0.466897994,0.139318004,0.414680988,0.672686994,-0.194454998,-0.649128020,-0.242685005,-0.223403007,0.006532890,-0.295947999,0.101259999,-0.171854004,-0.002007020,0.278156996,
0.238827005,-1.052579999,-0.687075019,-0.210507005,-1.441830039,-0.717737019,-1.752859950,-0.254646003,0.072408997,-1.481089950,-0.022563299,-0.053022701,0.108290002,-0.111823000,0.032208402,-0.181917995,-0.720968008,0.268752009,0.010238900,-0.296445012,-0.118814997,1.129750013,-0.016204800,-0.403501004,-1.478420019,-0.081592202,0.035975501,-0.348158002,0.248710006,-0.014018800,0.386355996,-0.723201990,-0.265973002,0.136702999,0.054540001,-0.617471993,-0.514751017,-1.387320042,-1.066879988,-0.113689996,0.400290012,0.041934799,0.739987016,-0.393341988,0.004581870,0.067237899,-0.426088989,0.359126002,0.297646999,-0.342043996,
0.017502399,0.041272402,0.037046202,0.015709100,0.015658701,-0.031293102,-0.001697820,-0.016773000,0.001494630,-0.029369900,0.019516399,-0.022623200,-0.028388700,-0.049377002,0.044454198,0.025208101,-0.032698900,-0.045222599,-0.048424900,0.020424500,0.038186502,-0.012812600,-0.017704200,0.012778700,-0.052497901,0.035929300,-0.023017200,-0.013989300,-0.004166120,0.002093920,-0.030223999,0.005786860,0.028691599,-0.051821101,0.031893902,-0.038584799,-0.033542901,0.040672202,0.019869899,0.001957500,-0.047876000,-0.025100701,-0.014505800,-0.036337100,-0.039269101,-0.026197400,0.023617201,-0.014726100,0.041599900,-0.029120900,
-1.068150043,0.156710997,-0.244323000,-0.289617002,-0.394134015,-0.014176600,-0.033897199,0.189698994,0.221979007,0.298464000,-0.037385799,0.152421996,0.686632991,-0.181458995,0.021544799,0.114537001,-0.830352008,0.124113001,0.001086480,0.083763704,0.156087995,0.491070002,-0.022566101,-1.245959997,0.280315012,0.205112994,0.016761599,0.183186993,-0.248073995,-0.023309899,-0.443717003,0.233357996,-0.571500003,-1.229060054,-0.049575701,0.114546999,-0.293338001,0.102192000,0.464484990,-0.428541988,-0.259436995,0.206715003,-0.010363300,1.552219987,-0.026352700,-0.701550007,-0.194325000,0.155053005,0.120724998,-0.293018997,
-0.247776002,0.202328995,-0.527078986,0.622982979,-0.558160007,0.020889200,-1.057919979,0.140217006,0.669378996,-0.930321991,0.035466399,-0.133798003,-0.024837000,-0.255317986,-0.023610400,0.166783005,-0.291368991,0.435254008,-0.036791001,0.039317101,-0.295778990,0.463582993,-0.042649101,-0.586208999,0.356867999,-0.731562972,-0.034428000,-0.683562994,0.467451990,0.012825800,-0.730719984,0.107095003,-1.242190003,-0.095833898,-0.471956015,-0.101490997,-0.498919994,0.339125991,-0.393518001,-0.123253003,-0.036091600,-0.063969500,0.382218987,0.189355001,0.041685801,-1.960819960,0.040034801,0.022032600,-0.660875022,-0.032819100,
0.242847994,0.560654998,0.234515995,-0.034674399,0.623326004,0.574524999,0.442853004,0.195161998,0.166944996,-0.707091987,-0.025101500,0.016669599,-0.494212002,-0.041703101,-0.040851600,0.676724970,0.375407994,0.140651003,0.025083400,-0.502973020,0.036351301,-0.119631000,0.024092499,0.124941997,-0.407815009,0.005544460,0.005054090,-0.428912997,0.199277997,-0.040345300,0.252368003,0.094909303,-0.315340012,-0.163641006,0.235883996,0.233429998,0.819742978,-0.316199988,0.288352996,0.087973200,0.182218999,0.300850004,-0.534829974,-0.008377630,-0.010502300,-0.266755015,-0.105148003,0.114078000,-0.246432006,-0.298319995,
0.413787007,0.339864999,-0.199208006,0.115791000,0.574554026,0.171390995,-0.264234990,-0.049811400,0.028920300,-1.319409966,0.032274898,0.120672002,-0.397962004,-0.005759620,0.044523101,0.073830701,-0.711908996,0.378614008,0.018969500,0.188562006,0.093557000,0.105874002,0.022940701,0.040753800,-0.455076993,0.095201902,-0.035785399,-0.468533009,0.165911004,-0.018033801,0.288019001,-0.017598400,0.561415017,0.486369014,-0.019250700,-0.099876598,-0.171460003,0.879382014,-0.161858007,0.142526001,0.004065250,-0.229874998,0.177046001,0.027816400,-0.002699500,-0.201970994,-0.090535797,-0.544691980,-0.405045986,-0.224237993,
0.176296994,-0.141194999,0.129682004,-0.022079701,-0.243820995,-0.000363713,-0.287591010,0.176562995,0.500522017,0.542484999,-0.035375200,-0.414038986,-0.371713996,-0.237976998,-0.006363650,-0.753027976,0.693596005,0.112984002,-0.027018201,-0.059360299,-0.066426098,0.607025981,-0.038652100,-0.004750910,0.111271001,0.205419004,-0.028938301,-0.379474998,0.056229699,0.038265500,-0.039629299,0.299688011,-0.910058022,-0.014637900,-0.158215001,0.297468007,-0.516865015,0.373014987,0.950905979,0.279091001,0.121037997,-0.081340499,0.236919001,0.308876008,-0.017356601,-0.423323005,-0.066224001,0.319406986,-0.109935999,0.194757998,
0.411184996,0.372716993,-0.101930998,0.068538003,0.308676004,0.626452982,-0.282898009,0.079389103,-0.348306000,-1.285439968,-0.051073901,0.037672602,-0.036628298,0.421014994,-0.027124999,-0.204056993,1.359750032,0.061787300,0.049973302,-0.614360988,-0.822187006,0.037972301,0.027303699,0.041597102,-0.592417002,0.166740000,0.000649828,0.239209995,0.222604007,0.025507700,0.067673102,0.092197701,-0.331625015,-0.596589983,0.076595403,0.186895996,-0.669802010,-0.085276201,-0.111746997,-0.060434800,-0.884244978,-1.397529960,-0.013743100,0.109926999,0.012187900,0.004691080,1.059890032,0.814190984,0.059709299,-0.625052989,
0.209037006,0.424910009,-0.147982001,0.285474002,-0.120059997,-0.190479994,0.069489896,0.128257006,0.078023300,0.172703996,0.025349399,-0.067891903,-0.046334699,-0.337635010,0.001363040,-0.111208998,0.145921007,-0.106964998,0.045060299,0.022010500,-0.143811002,0.201505005,0.020634299,-0.130006000,-0.255048007,0.259234011,0.000996250,0.116530001,0.488133013,0.021688800,0.339253992,-0.107444003,-1.432170033,0.215465993,0.024401400,-0.226564005,0.070533097,-0.018075600,-0.203595996,0.018007901,-0.285228014,0.018348200,0.144536003,0.107258998,-0.040731501,0.072232202,0.811182976,0.594914973,0.147156999,-0.261996001,
0.458287001,0.363976002,-0.049745899,-0.128328994,-0.366730988,0.109017000,0.201299995,-0.242388994,-0.402204007,0.100648001,-0.034810901,0.094164804,0.480630994,0.422430992,-0.038595200,0.187344998,-0.042270999,0.325964004,0.034902502,0.011205700,0.171274006,0.287573993,0.010163800,0.042298499,-1.322479963,-0.206871003,0.022993101,0.482122004,0.052863199,0.000234839,0.475481004,0.191762000,1.245040059,-0.534555018,-0.015170700,-0.109895997,-0.514784992,-0.119278997,-0.192809001,-0.167307004,0.234311998,-0.324162990,-0.225270003,-0.153748006,0.056540299,-0.352427006,0.303214997,-0.104157999,0.394382000,0.220236003,
-0.524205983,0.770843983,0.025155799,0.298070997,-0.218597993,0.279803991,-0.230961993,0.334250003,-0.341823012,-0.030591000,-0.013302400,0.289139986,-0.375420988,0.367785007,-0.045557201,-0.365974993,-0.096077196,0.215645999,0.010040000,0.002731090,-0.146822006,-0.077967003,0.031594500,0.394183010,0.020727800,-0.200885996,-0.038343001,-0.007777890,0.215488002,0.042626601,0.040365301,-0.197347000,-0.147646993,0.103896998,0.044598699,-0.137345001,-0.082135402,-0.428056985,-0.083595902,0.771700025,0.099559098,0.085498102,0.518949986,-0.025172500,0.018676300,0.210481003,0.059674401,0.431392998,-0.114050999,0.476630002,
-0.208750993,-0.280858994,-0.151755005,1.042230010,0.045362800,0.084582202,-0.230060995,-0.422495008,-0.138515994,-0.313226998,0.017814100,-0.003005280,0.002987370,0.486120999,0.026241301,0.151798993,0.236203998,0.231485993,-0.029486200,-0.857192993,-0.293211013,0.288264990,-0.001034670,0.356898993,0.658447981,-0.023746099,-0.003470080,0.164923996,-0.455740988,-0.019251900,0.090136103,-0.250266999,0.178390995,0.287265986,0.093291096,0.174637005,-0.249283999,-0.058025401,-0.354465008,-0.121890001,0.089607798,0.147505999,-0.978504002,-5.794829845,-0.058787499,-0.118703999,0.453357995,-0.945344985,-0.356379986,0.063857898,
0.267740011,0.267013997,-0.351051986,-2.088540077,-0.421227992,0.244146004,-0.570087016,-0.093292400,-0.144467995,0.557664990,-0.036277499,-0.250348985,0.485314012,0.525829017,-0.007747910,-0.335882992,-0.626194000,-0.169303000,-0.017761400,-0.049943998,-0.187687993,-0.725732982,-0.027131500,0.208979994,0.007355330,0.103160001,-0.019624300,-1.866340041,-0.236619994,0.002145930,-0.216297999,-0.413874000,-0.068286002,0.240624994,0.226319000,-0.767071009,0.625976980,0.199777007,-0.863758981,0.597441018,0.532725990,0.223649994,-0.316228986,0.441026002,-0.044081200,0.614520013,0.520276010,1.249410033,-0.034250200,-0.230509996,
-0.140444994,-0.270390004,0.446141005,-1.173339963,-0.260026991,-0.900035977,0.524662971,0.198422000,0.800562978,1.131019950,-0.007711720,0.254314989,0.221177995,0.231424004,-0.016743699,0.581108987,0.320941001,-0.313165992,-0.042153899,-0.382746011,0.174511001,0.364335001,0.011936100,-0.745383978,-0.164215997,-0.177874997,0.039382599,0.162463993,-0.241756007,0.013935900,-0.603085995,0.345328003,-0.240263999,0.225488007,-0.095123902,-0.177128002,1.241750002,-0.271468997,1.080979943,0.409965008,-0.242982000,0.659213006,-0.677406013,0.185099006,0.024076900,0.423797995,-0.442290992,1.006420016,-0.145027995,0.320252001,
0.009033290,0.250263005,-0.255816013,-0.116819002,0.102597997,0.631172001,-0.023978200,0.357650995,-0.300006002,0.403122991,0.032408401,0.048380300,0.623587012,0.097152703,-0.038793601,0.232755005,1.016059995,0.072283499,0.012636700,0.165457994,-0.275240004,-0.215991005,-0.011058700,0.029936399,-0.270675987,-0.606490016,-0.008960310,-0.215540007,0.166514993,-0.039965700,0.311600000,0.246980995,-0.297122002,-0.167144999,-0.096602403,0.092306100,-0.480769992,0.369756013,-0.303362995,0.149088994,0.004340480,0.574328005,0.101594001,-1.027349949,-0.003740680,0.533252001,-0.076965801,-0.250366002,0.270204008,0.177065998,
0.533080995,-0.541526973,0.272116005,0.294707000,0.220018998,0.330798000,0.232947007,-0.367361009,-0.581519008,-0.028934799,-0.022136500,0.103413001,0.454286993,0.576488018,-0.046921302,-0.225997999,0.217124999,0.108827002,-0.044214200,0.121560000,0.038200401,0.297109991,0.004593720,-0.267654002,0.131127998,0.266589999,0.038719200,0.390224010,0.322026014,-0.010710700,0.520157993,-0.451388001,-2.009769917,-0.356667012,-0.302614003,-0.347038001,0.289229989,-0.182853997,-0.901063025,-0.539144993,0.215105996,-0.774322987,1.224930048,0.466883987,-0.010580700,0.260067999,0.020147201,0.649800003,0.137227997,0.007353930,
-0.116419002,0.193381995,-0.147758007,-0.326415986,0.238955006,-0.016648300,0.361101002,-0.198511004,-1.196310043,0.202678993,-0.053638399,-0.071388900,0.139598995,-0.637399971,0.035360999,0.144683003,0.014356800,0.071395501,-0.005862400,-0.360504001,0.148231000,-0.042826802,0.020698201,0.401167989,-0.042009801,0.209548995,-0.053975701,0.261723995,0.484037995,-0.013516500,-0.199834004,0.037689202,0.164029002,-0.065105900,0.205209002,-0.153134003,0.198475003,0.738987982,-0.634346008,-0.085749902,-0.069669202,0.122008003,0.007860630,-0.120807000,-0.006514530,-0.357697010,0.202870995,-0.033743199,-0.418370992,0.085601799,
-0.105077997,-0.090107597,-0.461575001,-0.539515018,0.540754974,-0.593286991,0.224919006,0.073245503,-0.259460986,0.906212986,0.011654300,-0.238710001,-0.896604002,-0.561980009,-0.014346200,-0.301068991,-1.596130013,0.463990986,0.018697800,0.279522002,0.006181770,0.203303993,-0.009173990,0.282099992,0.318031013,-0.724305987,0.003739290,-0.023899900,0.075431198,-0.040403102,-0.384148002,0.095029302,-0.492834985,0.057518199,0.093394600,-0.253035992,-0.211661994,0.545831025,-0.599566996,0.021059999,0.136206001,0.620514989,-0.030327300,-1.199880004,-0.030551700,1.031000018,0.378107011,-0.292890012,0.169808000,0.272184998,
-0.277866006,-0.143931001,-0.779280007,0.417546988,-0.014728500,0.239387006,-0.043444298,-0.061801899,-0.025481099,0.114670999,0.048840102,-0.518391013,-1.937669992,-0.308198005,0.013710500,0.048779398,-1.141160011,0.230908006,-0.006377160,0.107754998,-0.191808999,0.559527993,0.034411300,-1.364269972,-0.122663997,-2.230050087,0.015703000,0.154787004,0.442833006,0.003675910,-0.008326950,-0.045694601,0.573921025,0.338385999,-0.174764007,-0.315914989,0.182903007,0.040130101,-2.508239985,-0.108294003,0.143785998,0.280607015,-0.271988004,0.151788995,0.030543201,0.920894980,-1.744410038,0.105705999,0.194696993,0.138426006,
0.235407993,0.431041002,0.139402002,-1.573940039,-0.031471301,-0.128928006,-0.650606990,0.091613099,0.484834999,-2.050559998,-0.022446800,0.493193001,0.553011000,0.685688019,-0.023683500,0.198600993,-0.173475996,0.049185202,0.018294200,0.059705500,-0.167539999,-0.552429020,0.020405900,-0.264360994,-0.234227002,0.473028988,-0.009705780,0.548484981,-0.118202999,0.030890699,0.496645004,0.896152020,-0.635159016,-0.072149403,-0.292447001,-0.012212100,-0.215608999,0.494809985,-0.862930000,0.585639000,-0.093339600,0.330363989,-0.643607974,-0.270007014,-0.002456590,0.196530998,0.815617025,0.477703989,-0.447286993,0.048374500,
-0.048145700,-0.392940998,0.113839999,0.938506007,-0.160487995,0.150107995,0.105137996,-0.284862012,0.340642989,-0.737221003,0.008993490,0.106620997,-0.572643995,0.323707014,-0.044334400,0.102737002,-2.044620037,0.059859298,-0.039183099,-0.327594012,-0.415879011,-0.140076995,-0.027613200,0.329291999,0.363213003,0.122019000,0.040631801,-0.109242000,-0.011225500,-0.048374299,0.363757014,-0.381834000,0.166723996,0.750747979,0.207157999,-0.689061999,1.010879993,-0.029545501,-0.390345991,-0.383044988,0.128964007,-0.628458023,0.632228017,1.143059969,0.046345700,-0.078406997,0.193465993,0.810557008,-0.532500982,-0.080122598,
0.195603997,-0.229326993,-0.035815399,0.061277799,-0.093218103,-1.222210050,0.217038006,0.286848009,-0.124984004,0.497909009,0.025439100,-0.145468995,0.240290999,0.381595999,0.001942090,-0.596378028,0.918116987,0.115350999,0.026657499,-0.064152800,-0.191468999,-0.056074802,-0.040956799,0.207258001,-0.752734005,-0.011904400,-0.001286260,-0.158646002,-0.218557000,-0.047765698,0.670617998,-0.021796100,-0.057968199,0.252694994,0.018960601,0.056911599,0.458728999,-0.341363996,0.494307995,-0.094852000,-0.308023006,0.203040004,0.040883198,-0.378598988,0.012386500,0.774483979,0.375429988,-0.777706981,-0.358621001,-0.264160991,
0.139715999,0.356247008,-0.038543999,-0.165407002,-0.569252014,0.110027000,-0.032003701,0.072007202,0.503569007,0.223060995,-0.051977701,-0.180377007,0.273254991,-0.456735998,-0.029636201,-0.061535198,1.316580057,-0.191070005,-0.048352700,0.007528920,0.214522004,-0.023801100,-0.030022100,-0.098945402,-0.183550000,-0.021261400,-0.020686099,-0.297179997,0.118432999,0.007152140,0.213157997,0.238481000,-0.504526019,0.019717300,0.104239002,0.565892994,0.011264800,-0.451806009,0.406805009,-0.795933008,-0.269950986,0.121219002,0.249004006,0.390545011,-0.024553699,0.497797012,0.433528006,-0.526288986,-0.353278995,-0.482367992,
-0.082920402,0.358568013,0.392910987,0.539337993,-0.316522986,-0.738924026,-0.358298004,0.419542015,-0.974497974,0.138607994,-0.046345700,-0.297500998,0.098774999,-0.058676202,-0.033514399,-0.115656003,-0.041909002,-0.595981002,0.022369500,-0.357847989,-0.241326004,0.208030999,-0.040504299,0.321352005,-0.479959995,0.687853992,-0.005649040,0.424169987,-0.311223000,-0.017408799,0.176869005,-0.309908003,0.117853001,0.288776010,-0.036369901,-1.688570023,-0.464688003,-0.230427995,0.356501013,-1.369779944,0.010197800,-0.217466995,0.630648971,0.388173014,-0.002154800,0.333759993,-0.118101999,-0.095999099,-1.153939962,-0.905515015,
0.283151001,0.305808008,-0.023478400,0.316724986,0.485345006,1.012920022,-0.200443998,-0.393269002,-0.803433001,-0.276205003,-0.046402499,0.291180015,-0.109332003,-0.072958902,0.007803410,0.007657510,-0.038942099,-0.209236994,0.044120599,-0.086223997,-0.402278990,-0.407768995,-0.047439601,-0.329917014,0.242596000,0.369998008,0.004960380,-0.235476002,0.150248006,0.034574602,0.394419014,-0.318280011,0.384629995,-0.176622003,0.434177011,0.414541990,0.168360993,0.540239990,0.773733974,0.710704982,-0.388018996,0.185711995,-0.295442998,0.206268996,-0.045968901,-0.125303999,0.599394023,0.231738001,0.030028800,-0.126425996,
-0.173526004,-0.546609998,-0.459610999,0.261321008,-0.345214993,0.236907005,0.195271999,-0.315813005,0.494190991,-0.253194988,-0.013564000,0.179555997,-0.119197004,0.025684400,-0.010355300,-0.352831006,-0.558498979,0.176547006,0.002405340,0.224445999,0.147145003,0.174941003,0.016287001,0.111919999,0.031527899,-0.293577999,0.015180600,0.430110008,-0.701152980,-0.020446200,0.178556994,-0.611442983,0.488204986,-0.083254501,-0.118914001,-0.307590991,0.097776599,0.011107600,-0.091907099,0.502340019,0.288406014,-0.052744500,-0.228947997,-0.686942995,0.019697299,0.483469009,0.219804004,-0.385984004,-0.103441998,0.141359001,
-0.045697201,0.221279994,-0.178195998,0.053306598,-0.040321700,0.155148000,0.055980001,0.038673598,-0.739220977,0.142429993,0.008503200,0.048544399,0.413093001,0.172483996,-0.048699200,0.144371003,0.128515005,-0.199059993,-0.023117401,-0.045856699,0.009200140,0.045596600,0.035787601,0.075240098,0.241852999,0.008627990,0.014098500,0.155972004,0.413668990,0.003097450,-0.071419798,0.003702050,-0.732968986,-0.091294304,-0.030416001,-0.054994401,-0.065651201,-0.070939697,-0.218820006,-0.058833700,0.016102800,0.086007401,-0.024039000,-0.092215203,-0.038407099,-0.058182001,0.019552199,-0.224803999,-0.165474996,-0.027115200,
-0.219540998,0.487731993,0.035118099,0.105944000,-0.098545603,0.541510999,-0.100175001,0.056739401,-1.323959947,-0.216129005,0.033112101,-0.433786005,0.089978099,0.158626005,-0.048019901,0.017012799,0.754051030,-0.390846014,-0.044758402,0.042756598,-0.204651996,-0.177025005,0.010753400,-0.005145510,-0.321572989,-0.607056022,-0.023543000,0.688145995,-0.257030010,-0.043866899,-0.157132000,0.114376001,0.134470999,0.207749993,-0.028172901,0.031341098,0.091993503,0.484457999,0.422968000,-0.625962019,0.638450980,0.332670003,-0.371147990,0.298763990,-0.030586900,0.249712005,-0.021890501,0.468647003,-0.214029998,-0.272047997,
0.243903995,0.147910997,0.285645008,0.020922000,0.020140599,0.784110010,-0.508233011,-0.320863008,0.379323989,0.201270998,-0.004748330,-0.531066000,0.127157003,0.323128998,-0.037288100,0.232603997,-0.052553002,-0.013693400,0.001690770,-0.461138010,-0.181434005,0.360442013,0.021576099,-0.235416993,-0.818002999,0.013029200,-0.058995701,-0.321206003,0.337074012,0.018626699,-0.130195007,-0.246698007,0.213832006,0.154473007,-0.019399101,-0.128065005,0.142688006,-0.598245978,-0.742421985,0.059652101,-0.466091990,-0.303445011,0.334547997,0.781100988,0.058366701,-0.469852000,-0.270011008,0.229039997,-0.381148010,-0.051107500,
0.066870101,0.409554005,0.093875296,-0.080558002,-0.481463999,0.559258997,-0.350223005,0.127360001,0.257346988,-0.474651009,0.018265899,0.143300995,-0.769118011,-0.201235995,-0.047056802,0.114197999,0.108818002,0.039719500,-0.005901760,-0.009079760,-0.081521697,-0.127976000,-0.018907599,-0.628858984,0.669871986,-0.524432003,-0.033095900,-0.019564699,0.093467101,-0.036199700,0.220644996,0.016412601,0.400485992,-0.044026200,0.328096986,-0.229388997,0.498899996,0.021913501,-0.196573004,0.312276006,0.041749701,-0.290522009,0.327493995,-0.159711003,-0.022394300,-2.275660038,-0.165531993,-0.275453001,-0.677725017,-0.095885500,
0.266770005,-0.395543993,0.352708995,1.417829990,-1.092859983,-0.125768006,-0.358747989,-0.164451003,0.480506986,-0.881635010,0.010122500,0.303526014,0.863270998,-0.279628992,-0.018547799,0.997417986,-0.582221985,-0.178673998,-0.030312801,-0.246980995,-0.528007984,0.062390000,-0.037892301,-0.532837987,0.217997000,-0.608024001,0.046471801,0.008647510,0.085938200,0.004743700,0.309361011,-0.381251007,-0.599047005,0.017346101,-0.182420999,0.374810010,-0.503938973,0.325286001,-0.794367015,-0.387463987,0.094074801,-0.441480994,-0.260684997,1.204390049,0.042467002,-0.574741006,0.432527006,-0.198743001,-0.263669014,-0.003736060,
0.340927005,-0.056865901,0.498073012,-0.223192006,0.206415996,0.213769004,-0.278852999,-0.450221002,0.132816002,0.481909990,0.039562400,0.085990697,-0.431495994,-0.206182003,-0.018439900,-0.115442999,0.402267992,0.032936901,-0.043706600,-0.035563000,0.200488001,-0.038129900,-0.040006898,0.226620004,0.075340003,0.587777019,0.026378900,-0.290666014,-0.142040998,0.013297300,0.520178974,-0.077558599,-2.095949888,-0.194794998,-0.035164598,0.134214997,0.276798993,0.176597998,0.180323005,-0.792104006,0.026447101,0.566112995,0.205636993,-0.219492003,-0.005268230,0.237195000,0.752615988,0.548798978,0.305041999,-0.652459979,
0.188034996,0.228117004,0.059314601,-0.440946996,0.303108007,0.827603996,0.067995198,0.038265299,0.431517988,0.319447011,-0.050470401,0.010059300,0.607611001,0.004940190,-0.023058500,0.602007985,0.061434299,-0.580097020,-0.020399800,0.157978997,0.688686013,-0.148607001,-0.034982599,-0.150850996,0.346578002,0.044778500,0.040767901,0.792594016,-0.843025029,0.026975799,-0.713683009,0.136077002,0.175485998,-0.760129988,-0.011153400,0.223600000,-0.275449991,-0.177128002,0.079023100,-0.419856012,0.446069002,0.121238999,0.030670600,0.263476014,0.037281599,1.090520024,-0.287474006,-0.056044500,0.265933007,-0.093089797,
-0.014951700,-0.046036199,-0.045683101,0.017500000,-0.010551100,-0.002823460,-0.000474150,-0.006451690,0.019267900,0.002231410,-0.028527200,-0.009033760,-0.032929201,-0.038488999,-0.003272030,-0.002870870,-0.005473890,0.004914090,-0.021475200,-0.016862400,0.026771000,0.019699501,0.037341800,-0.047151301,-0.005013090,-0.039715499,0.001570310,-0.010761000,0.015804900,0.023600699,0.009085070,0.015275300,-0.053043898,-0.040527299,0.036956102,-0.019141400,-0.009685690,-0.050132699,0.039891601,-0.035474401,0.010930800,-0.050403599,-0.024284700,-0.007252260,0.049631301,0.040353801,-0.034932699,-0.011438400,-0.045614399,-0.029186200,
-0.179188997,-0.216068998,-0.158478007,-0.002311370,-0.276165992,0.545251012,0.335489988,0.092560299,-0.552761018,-0.206716999,0.000084305,0.265352994,-0.023928100,0.368707001,-0.013446200,-0.076458298,-0.211611003,-0.324640006,-0.037747201,-0.232910007,-0.033869602,-0.312647998,-0.024947600,-0.168305993,-0.084998302,-0.230350003,0.023215201,0.348392993,0.024692200,0.050554398,-0.013314500,-0.091880202,0.985338986,0.074004397,0.273624003,-0.087184399,0.203168005,-0.309253007,-0.018474299,0.236238003,-0.278566003,0.255268991,-0.207594007,-0.340112001,0.012363500,0.225159004,-0.319438010,-0.471439987,0.699141979,0.268967986,
-0.177886993,-0.980480015,-0.107546002,-0.370880008,-0.245995998,0.227724999,0.192488000,-0.595259011,-0.386997014,0.640267015,-0.025485501,0.081045702,-0.167399004,-0.140424997,-0.042906798,-0.649932027,0.551692009,-0.231763005,-0.025531100,0.165172994,-0.185726002,0.182916999,-0.001637180,-0.525444984,-0.768405020,-0.336405993,0.023919700,0.399022013,-0.320928007,-0.004466980,0.329977989,0.069684602,-0.500595987,0.153809994,-0.146906003,-0.116250999,-0.244004995,0.087718301,0.236172006,0.321334988,0.186449006,-0.243314996,-0.235015005,0.228683993,-0.010488000,0.107262999,0.347575009,0.367906004,0.244585007,0.434989005,
-0.163432002,0.745432973,0.338963002,-0.491602987,-0.079844199,-0.001294650,0.336645991,-0.255526006,-0.130355000,-0.318084002,0.028603300,0.262086987,0.200626999,-0.009526450,0.006409220,-0.312505007,-0.163922995,0.188457996,-0.049043100,-0.233840004,0.082739197,-0.465768009,-0.025214100,0.065012999,0.097407602,0.317997009,-0.014586600,0.217877001,-0.030874699,-0.035661802,0.607015014,0.168417007,-0.218088001,0.131451994,0.017858600,-0.001726730,0.291869015,0.216168001,-0.008858590,0.324330986,-0.211291000,0.314033002,-0.583871007,-0.614575982,-0.003058820,-0.496708989,-0.538021028,-0.539188027,-0.461694002,-0.216762006,
0.047679801,-0.079855002,0.188666001,-0.013758000,-0.033907201,-0.130110994,-0.020690801,-0.051457200,0.223188996,-0.033064999,0.011117200,0.006312950,0.027441800,0.024576901,0.032330599,-0.009531880,0.046166901,1.207759976,0.048039701,-0.015237400,-0.024784500,0.025410499,0.034918699,-0.025895299,0.006343270,-0.005498650,0.020629700,0.021134300,-0.194350004,0.019246601,-0.000894638,0.018245300,-1.222640038,-0.001063050,-0.014662300,0.032696500,-0.002380230,-0.040351599,0.050073799,0.006004700,0.007752710,0.072531998,0.021128099,-0.019802099,0.018734399,0.093243003,0.033314802,-0.145848006,-0.347476006,-0.086808302,
-0.328341007,0.832226992,-0.482870996,1.142429948,0.134757996,-0.565365016,-0.296548992,0.001448100,-1.039520025,-0.047247499,0.026993001,-0.073571898,0.307583988,-0.126927003,0.006439730,0.032732502,0.078127101,-0.377445012,-0.029692400,0.068572901,-0.125970006,0.063083202,-0.036803100,0.346675992,0.140915006,0.119571999,0.048232801,-0.464190006,-0.970467985,0.010171600,0.140175998,-0.010133700,0.321377009,-0.070742697,0.291608989,-0.999750972,0.377330005,0.225235999,0.509046018,-0.159961998,-0.012995300,0.183476001,0.288154006,-0.206165999,-0.020082099,-0.102190003,0.250241995,0.653268993,-0.851751983,-0.068457998,
0.477975994,0.435023010,0.137847006,-0.165285006,0.516008973,-0.216139004,-0.632399023,0.403863996,0.257900000,-0.089443900,-0.011389300,-0.045690000,0.187212005,0.832253993,-0.029989500,0.770497024,-0.197402000,0.245995000,-0.040169600,-0.163598999,-0.268112987,0.266158015,-0.050324399,-0.877326012,0.116355002,-0.466010988,0.043114901,-0.179700002,0.387185991,0.005971950,0.233821005,0.667896986,-0.009320280,-0.096249402,0.376688987,0.912249029,0.327215999,0.617532015,0.837517023,-2.841969967,-1.236619949,0.108207002,0.152862996,-0.267084002,-0.020946000,-0.310294002,0.151599005,-0.000953165,0.079878300,0.349927992,
-0.015194300,-0.061005998,-0.069670103,-0.021476099,0.024650600,-0.060522500,-0.120824002,0.009265000,-0.018673901,-0.029596400,0.033935301,0.007784650,-0.038392499,0.025913000,-0.028380500,-0.013780500,0.011536700,-0.037804600,0.004527070,-0.001324830,-0.027843799,-0.018662401,-0.031130699,0.025264500,0.031852800,0.005930660,0.044307102,-0.065656103,-0.040968299,-0.010530400,-0.012528200,-0.019575000,-0.038692299,0.020687500,-0.010974400,-0.086617403,0.041015800,0.032094199,0.026582699,-0.007738450,-0.039426401,-0.018536501,-0.064012900,0.015987400,-0.034730401,0.004459540,0.055756599,0.020261601,-0.024940800,-0.022523001,
0.092993401,0.182997003,-0.185674995,0.180040002,0.262488008,-0.005614860,-0.056820702,-0.053472601,0.196307003,0.365265995,-0.022727100,-0.177147001,-0.371555001,-0.209560007,-0.013229400,-0.331077993,0.252234995,0.539198995,0.042335302,-0.276437998,-0.004300760,0.015253700,0.022848301,0.045161400,-0.234477997,-0.043780699,0.038108300,-0.516539991,0.107738003,0.012861800,-0.015150600,-0.077027097,-0.941200972,0.089385800,0.281726003,0.070093900,0.069443896,-0.055647500,0.102375999,0.301651001,-0.510716975,0.007916370,0.086568899,0.406430990,0.018908000,-0.221404999,0.556096017,-0.348071992,-0.421817988,0.105977997,
-0.357441008,0.105426997,0.154759005,-0.383163989,0.160653993,0.412090003,0.063457899,0.095422603,0.485911995,-0.493485004,-0.005468000,0.169891000,0.164050996,0.229947001,-0.043786500,-0.273681998,-0.415183991,-0.012107800,0.006602870,0.044744302,-0.452733994,0.050929200,-0.011863400,-0.547803998,-0.272576988,0.218489006,0.032628600,0.504495978,0.287939996,0.044332199,0.073753297,0.295015007,-0.495709002,-0.483723015,-0.169514000,0.436897993,-0.042549599,0.006625890,0.007923490,-0.084086701,-0.036800198,0.176448002,0.044242401,-0.339630008,0.019890100,0.023090800,0.496751994,-0.286184996,0.316163003,0.015171000,
0.522387028,0.296456993,-0.230235994,1.417719960,-0.875521004,0.111534998,-0.280503005,-0.475621015,0.513902009,-1.978549957,0.026178600,-0.825500011,-0.289995998,0.302004993,-0.016347401,0.093014903,0.935997009,-0.150313005,-0.004817710,0.007451930,0.057438198,-0.194776997,-0.049462501,-0.017545100,0.051451299,-0.419261992,0.040373702,0.556501985,0.511941016,-0.017150899,-0.081239901,-0.451635987,-0.500100017,0.470039010,-0.057180401,0.335438997,-1.171900034,0.552407026,-0.675593019,-1.204200029,0.248044997,-0.263693988,0.340012997,-0.213995993,-0.040124699,-0.090907998,-0.020692000,0.229066998,0.048547398,0.206132993,
-0.417030990,
0.051417001,
-0.192200005,
-0.024739901,
0.321873009,
0.054871999,
0.138218999,
-0.008638620,
0.221917003,
0.279426992,
-0.124957003,
-0.401001990,
-0.005846830,
-0.196719006,
-0.110633001,
-0.503530025,
-0.278268009,
-0.326999009,
-0.420536011,
-0.499790996,
-0.002747850,
-0.595557988,
-0.247802004,
-0.049360398,
-0.294869989,
0.019678099,
-0.226842999,
0.323293000,
0.160879999,
-0.038599301,
-0.218260005,
0.269466013,
0.149887994,
-0.332399994,
0.242361993,
-0.075737797,
0.171472996,
-0.085646003,
-0.125595003,
-0.018844699,
-0.139528006,
0.291112989,
-0.038766701,
0.317319989,
0.040440802,
-0.407876998,
-0.042978000,
0.106693998,
0.160088003,
0.076302499,
-1.115669966,-0.924211979,-0.521843016,0.022781501,0.076451302,-0.203148007,-1.246119976,-0.029224699,0.285185993,-0.549942970,-0.353992999,0.089333400,-0.119135000,0.295163006,0.164017007,0.094853699,-0.260037005,-0.077406600,0.028006800,-0.339323014,-0.150650993,-0.387735993,-0.803270996,0.969518006,1.635599971,-0.123767003,0.130142003,0.163133994,-0.493883997,0.496600986,1.008209944,-0.335274994,0.191326007,-2.226249933,0.144244000,-0.265619010,-0.477521986,-0.494592011,-0.296342999,-0.031129099,0.239802003,0.308329999,0.420628995,0.369614005,0.589389026,0.531853020,0.048946999,0.109846003,-0.927096009,0.054405499,
-0.121398002,-0.405212998,0.243292004,-0.029193301,-0.846765995,-0.848348022,0.107270002,0.028557900,-0.066323400,0.173819005,-0.279848993,0.523405015,0.459066004,0.222626999,-0.587100983,-0.415796995,0.160326004,0.423738003,-0.563548028,0.276248008,0.221607998,-0.552477002,0.454840004,0.478619993,1.857789993,0.531883001,0.285566986,0.251201987,0.900915027,0.437709987,-0.242935002,-0.604632974,0.334271014,-0.559206009,0.162527993,-0.488936990,-0.374033004,-0.478184015,0.128885999,0.040996999,-0.162753999,-0.315690011,0.148650005,-0.115924001,0.302816987,-0.002594530,-0.080725297,0.397527993,-0.078153603,-0.325634986,
0.255425006,-0.355206013,0.015104400,0.007636540,-0.051718000,-1.622660041,0.634553015,-0.028436599,-0.131429002,-0.591993988,-0.546931982,0.387979001,-0.361328989,-0.028889600,-2.938019991,0.418792993,-0.045249999,0.439512014,0.289494008,0.284206003,-0.125437006,-0.194041997,0.026217900,0.259380013,0.898908019,0.793318987,-0.275875986,-0.206892997,0.214000002,-0.111873999,-0.237687007,0.355219990,-2.068310022,0.545592010,-0.169492006,0.313241988,0.469998002,0.107606001,-0.393669993,-0.037780300,-0.167376995,-0.510824978,-0.195352003,-0.265109986,0.304762989,-0.177925006,-0.011506200,-0.206121996,-1.283259988,0.142709002,
-0.494632006,0.088679202,0.222514004,-0.006783920,0.241129994,0.174253002,0.195138007,0.042781100,0.108037002,0.075841099,0.160754994,0.026280399,0.177719995,-0.180411994,0.375061005,-0.229298994,0.419912010,-0.241622999,-0.203776002,-0.099246599,0.192169994,0.156305000,0.194137007,0.251946002,0.231253996,0.092388898,-0.109476000,-0.072773099,0.529632986,0.454843014,-0.058166001,-0.429165006,0.061180700,0.175833002,-0.055231199,-0.544182003,0.007598680,-0.193683997,-0.191578001,-0.013679300,-0.201814994,-0.352115005,0.014477300,0.072109804,0.207385004,0.400211990,-0.006537330,0.029205799,-0.530677974,-0.126288995,
-0.123671003,0.059369199,0.219429001,0.000484106,0.198410004,-0.171473995,0.339242995,-0.017449200,0.198589996,0.200462997,-0.201563999,-0.109559000,0.127480999,-0.237206995,-0.625114977,0.131574005,-0.151540995,0.129751995,-0.177211002,-0.061040599,0.030190600,0.070989102,-0.113608003,0.166593000,0.033576500,-0.027112100,-0.127799004,0.144837007,0.316226006,0.097651400,0.175583005,-0.171404004,-0.829943001,-0.262928993,0.103182003,-0.009544300,0.087080397,-0.043562800,-0.020859100,0.041961402,0.166378006,-0.206254005,0.035495900,-6.047629833,0.188661993,-0.317443013,0.048158899,-0.732465982,-0.792451024,0.040854599,
0.043914199,0.457776010,-0.403575003,-0.042145099,-0.830567002,-0.328794986,0.633211017,0.036061998,-0.337264001,-0.283838987,-0.110316001,0.586628973,0.465985000,-0.070000097,0.218306005,0.087612003,-0.232160002,0.427661002,-0.419533014,0.476554990,0.335786015,-0.234404996,1.084220052,-1.143650055,-0.336439997,0.059000000,-0.117789999,-0.150581002,-0.005914800,0.521717012,-0.372696012,0.358525991,-0.321947992,-0.070772201,0.527585983,1.022420049,0.817638993,-0.196048006,0.033636700,0.025357001,0.332608014,-0.211034000,-0.882542014,0.507906020,-0.214868993,-0.593972027,0.061549999,0.215660006,0.487248003,0.506510973,
-0.196197003,-0.477503002,0.822844028,-0.006751420,0.293359011,0.375654995,0.090710200,-0.006499220,0.882188022,-1.168939948,-0.454953015,-0.086605102,-0.052484099,-0.485808998,-0.388264000,-0.222894996,-0.415524006,-0.651930988,0.465750009,-0.507027984,-0.103906997,0.390588999,-0.451620996,0.601997018,-1.165050030,-0.298285991,0.524039984,0.336203009,-0.166093007,-0.347155005,0.277545005,-0.444056004,-0.326272994,-1.486999989,0.131605998,-0.562101007,0.416792989,-0.642684996,0.730439007,0.021023700,-0.617721021,-0.111674003,-0.371214986,-0.066511303,-0.095070802,0.220542997,-0.035719998,0.226072997,0.952005982,-0.929130971,
-0.130345002,0.077379599,-0.476402998,-0.004746940,-0.339419991,0.365161985,0.279881001,-0.047644999,0.025213899,-0.254132986,-0.019775400,0.243902996,-0.162351996,-0.025556499,0.245447993,0.152969003,0.142134994,0.017141700,0.528602004,-0.260430008,-0.246382996,-0.305350006,0.201080993,-0.014983800,-0.868708014,0.153706998,-0.080194503,-0.272812009,-0.309841990,0.295233011,-0.493541002,-0.230600998,0.218439996,-0.051823098,-0.159079000,1.158010006,0.417383999,-0.132470995,0.085514501,0.015624500,0.203245997,-0.102069996,0.215027004,0.341277987,0.399531990,-0.255984008,0.017950200,0.037573401,0.398236990,0.359203994,
-0.085748099,0.112731002,1.260319948,-0.035080101,-0.452174008,-0.374379009,-1.368360043,0.039189301,0.058892399,0.212326005,-0.015526500,0.134919003,-0.113811001,-0.200169995,0.287844002,-0.587455988,-0.493018001,-0.066609800,-0.491991997,0.169260994,0.404585004,0.335833997,0.058139801,-0.133472994,-1.963549972,-0.206173003,0.352611005,0.283612996,-0.169129997,0.528937995,-0.222012997,0.303795993,-0.214681000,-1.235020041,-0.144226998,-0.341773003,-1.511899948,0.483624995,-0.138019994,0.002309220,0.623650014,-0.110592999,0.472171009,0.295614004,0.720732987,-0.359730005,0.028117601,0.192236006,0.397159010,-2.426179886,
0.294133991,-0.605436981,-1.263440013,0.001811550,0.220510006,0.457709998,-0.467186004,0.006090800,-1.196179986,1.586660028,-0.294018000,0.444002002,-1.078529954,0.242524996,-0.090400197,-0.790755987,0.330998003,-0.958549976,0.782307982,-0.521090984,0.509947002,0.157934994,0.074121296,0.117229998,-2.709249973,-0.065304801,0.487266988,0.041901801,0.188372001,-0.354557991,0.400635004,-0.083877601,0.212305993,-4.198349953,-0.422850996,-0.203731000,-1.157430053,-0.091589898,-0.328833997,0.048255000,0.291294992,-0.508760989,0.793955028,0.095529102,1.464800000,0.278589994,-0.034167200,0.046943098,1.003880024,-1.475550056,
0.099231102,-0.430119008,0.400532007,-0.021508001,-0.181723997,0.524186015,-1.955520034,-0.042901099,-0.646121979,0.731994987,-0.098988600,0.028097700,-0.223528996,-0.440443009,0.402139992,0.227227002,-0.068451397,0.687111974,-0.116769001,0.333779991,-0.684431016,-0.182480007,-0.024268501,-0.070965998,-1.704040051,-0.165616006,0.530171990,-0.513607979,-0.328224003,1.087180018,-0.174356997,0.236505002,0.035453200,0.499235988,0.481011003,0.088768303,-0.563759983,-0.031520501,0.820663989,0.010033300,-0.354313999,-0.107670002,-0.621159017,0.236160994,-0.154688999,0.934733987,-0.037638400,-0.094620302,0.403937995,-0.142390996,
0.005307660,-0.031366300,0.022425899,-0.027009100,-0.058343701,-0.031555202,0.016282801,-0.022253200,-0.040221501,0.032257199,-0.022137500,-0.025816200,-0.034668401,0.019258199,-0.039266199,-0.006679290,-0.010733600,-0.036065701,-0.001571040,-0.035605501,0.003595360,-0.026879800,0.020188199,-0.012864100,0.001683140,0.015171400,-0.002746120,-0.042881001,-0.031267099,0.010967200,-0.049214799,0.015137000,0.020583000,0.010802300,-0.058426201,0.032102101,-0.041865598,0.032401200,0.022454800,0.034376800,-0.011628800,-0.006707560,-0.026661700,-0.027819199,0.038811300,-0.045415599,-0.002673910,0.036864500,0.023706401,0.040391199,
0.339118004,0.018340200,-0.489585012,-0.041923899,-0.473583996,-0.014838800,0.141148999,0.004700310,-0.033646699,-0.396394014,0.203202993,-0.083635703,-0.325239003,0.082372099,0.068940803,0.307727993,-0.147494003,0.149991006,0.024618000,0.091555797,0.046494000,0.109233998,-0.038262200,-0.265605986,0.204218000,0.033960901,0.094212100,0.134660006,0.020490700,0.031841099,-0.504778981,-0.089711100,-0.238152996,-0.051539000,-0.062837601,0.845363975,-0.220497996,-0.026784100,0.224880993,0.015142100,0.154214993,-0.275691986,-0.033462700,0.211252004,0.299784988,-0.131455004,-0.026629699,0.303420007,-0.037061799,-0.135226995,
0.670996010,-0.361570001,-0.170640007,-0.012430800,0.069281504,-0.792737007,0.146476001,-0.016388500,-0.031838499,0.066503897,0.134378001,0.000287822,0.334082991,-0.153927997,0.171327993,-0.216515005,-0.060059201,-0.282543004,0.224741995,0.365594000,-0.017313501,0.220938995,-0.144765005,0.115874000,0.478451997,0.074181199,-0.168614998,-0.176403001,-0.208137006,-0.086088397,-0.214358002,-0.157084003,-0.195178002,0.067404501,-0.513445973,-1.054229975,0.551406026,0.230596006,-0.194927007,-0.031856202,-0.220515996,-0.061152302,-0.444285989,-0.285870999,0.163808003,-0.373793989,0.023127699,-0.417784005,-0.153442994,0.062515199,
0.315369010,0.258944988,0.298826009,-0.036640599,-0.156252995,-0.080046803,0.553757012,0.035026498,0.587143004,-0.318013012,0.157609999,0.317995012,0.477293998,-0.238894999,-0.240145996,-0.260969996,-0.205945998,0.290419996,0.681110024,-0.033406701,0.162485003,-0.045986500,0.168889999,0.390309989,-1.093840003,-0.118100002,0.376933992,-0.188789994,0.019921200,-0.277119994,0.455222994,0.741571009,0.568288982,-0.841637015,0.018282900,0.074804902,0.329403996,-0.202271998,0.037285600,0.055139899,0.158213004,0.511789024,-0.113669001,-0.074222699,0.727783978,0.387894005,-0.006797830,0.008109320,0.055298202,-0.349720001,
0.025761200,0.102117002,-0.017741200,-0.008518390,-0.088440202,-0.058987800,-0.223386005,-0.022806900,0.036279600,-1.194630027,0.335698992,0.201105997,-0.101172999,-0.369607002,0.127599999,-0.043763001,0.023377899,0.493595004,-0.190982997,0.102263004,0.098412998,-0.002877530,0.228582993,0.062552400,0.265455991,0.082107604,0.051817801,-0.024283599,-1.077469945,0.189770997,-0.639689982,0.439085007,-0.187218994,0.245316997,0.269394994,-0.183899999,0.121464998,-0.108769000,0.141138002,0.029447500,0.040025700,-0.051784899,-0.258029014,0.127140999,0.207323000,0.113532998,0.033436500,-0.037700199,0.053457301,-0.201601997,
-0.067913003,-0.033779800,-0.309778005,0.007699900,-0.490301013,-0.090486199,-0.324393004,0.010374100,-0.046616800,-0.073812798,-0.233949006,-0.400249004,0.174057007,-0.228602007,0.270301998,-0.559198976,-0.147493005,0.670744002,1.271420002,-0.474927992,0.034646001,0.024386499,-0.318798006,-0.031237300,0.725369990,-0.160079002,-0.769810021,-0.119880997,0.070263200,0.228939995,0.062429801,0.258592010,-0.002800960,0.354853988,0.278854012,1.009220004,0.090272501,0.055878300,0.031461399,0.002875190,-0.182454005,0.554077983,-0.126920000,0.300177008,0.498811990,-0.013705000,0.015241900,0.282353014,0.233211994,0.100236997,
-0.083513498,-0.270229995,0.292497993,0.052376501,-0.087699398,0.234577000,0.141944006,-0.009637480,0.041335899,-0.131069005,0.172883004,0.277707011,0.040653300,0.152125999,0.079589099,-0.151782006,0.314976007,0.029034000,0.557340026,0.048670799,-0.153111994,0.146776006,0.137052998,0.172123998,-0.473188996,-0.119782999,-0.259036005,-0.058466900,-0.215974003,0.133985996,0.185197994,0.121422000,0.216537997,0.237495005,0.106173001,0.427233994,0.006801660,0.059507601,-0.380620003,-0.002354320,0.372359008,-0.229928002,0.195950001,0.164199993,0.246757001,0.214199007,-0.023897801,-0.175028995,0.285086006,-0.023033900,
0.178293005,0.075731300,0.599677026,0.045430701,-0.244655997,0.348993987,-0.663720012,-0.005298140,-0.795188010,0.440050989,-0.265931994,0.049772002,-0.587911010,-0.161195993,-0.172279000,0.266236007,0.050907601,0.208649993,0.249119997,0.154715002,0.415062994,0.361905009,-0.224261001,0.368755996,-0.197308004,-0.110744998,-0.116118997,-0.051036499,-0.252065986,-0.105333000,-0.879688978,-0.779438972,0.221545994,-0.179288000,0.269264996,0.081849098,-1.028849959,0.271979004,-0.075195499,0.024448801,1.468119979,0.039990898,0.343636990,0.565079987,-1.283890009,-0.052821301,0.031567302,0.500069976,0.254222006,-1.139240026,
-0.133258000,0.318446994,-0.428395987,0.023829799,0.294106990,0.195813000,0.174555004,0.033067800,0.164681002,0.041813299,-0.095583104,-0.290654987,0.062605299,0.067906603,-0.085019298,-0.297022015,-0.008701820,-0.452933013,0.042383801,-0.104612000,0.154484004,0.055651601,-0.234871998,0.193895996,-0.140508994,-0.095259100,0.060735699,-0.031919800,0.144842997,-0.515421987,0.212072000,0.419847995,0.075657599,0.305646002,0.027110999,-0.404547006,0.065643601,-0.063319698,-0.190582007,0.051405001,0.111726001,0.288329005,0.154190004,-0.570784986,-0.089533798,0.228742003,0.030769899,-0.137906998,-0.056413200,0.006615090,
0.248669997,0.184435993,-0.658574998,-0.026456701,-0.763517976,0.758345008,0.061863601,-0.023102900,-0.117159002,-3.348530054,0.268927991,-0.282216996,0.014674700,-3.703480005,0.038669601,-2.138210058,0.100974001,0.819137990,0.492749006,-0.486539006,-0.222376004,0.456158996,0.588568985,0.378612995,0.454562992,0.218674004,-0.258893996,0.230965003,0.331266999,0.379395992,-3.010610104,0.940980017,0.386678010,-1.117980003,-0.359611988,-0.541144013,-0.037549298,-0.022024900,-3.808919907,-0.033090800,0.204540998,0.011787700,0.260062009,0.066199899,-0.786392987,-0.596337974,0.059131600,-0.003923010,-1.878460050,0.176155999,
-0.166167006,0.191056997,-0.301647007,-0.007778690,-0.397186011,-0.214605004,-0.108664997,-0.041635301,-0.211711004,0.303263009,0.161531001,0.590021014,0.143769994,-0.099527404,-0.213868007,-0.359631985,0.192818001,0.136675000,0.882287979,0.249041006,0.365007997,-0.285573006,0.500172019,-0.040559899,0.292724997,0.092311397,-0.314209998,-0.028783699,-0.239874005,0.136721000,-0.119425997,0.053372301,0.421272010,0.010484200,0.549216986,0.005649920,-0.170276001,-0.367338002,-0.006861540,-0.014032200,-0.072668597,0.136904001,0.183317006,-0.082256198,0.478450000,-1.815690041,-0.027692400,-0.391128004,0.234764993,-0.024239199,
-0.371603996,-0.136710003,-0.908167005,-0.031029001,-0.010955400,-0.226854995,-0.335685998,-0.041002601,-1.295390010,-0.097121201,0.320903987,0.054638300,-0.775377989,0.496123999,-0.383545011,-0.392832011,0.018656399,0.082611099,-0.997430027,0.893939972,0.303680003,-0.410970002,0.190913007,-0.467783004,1.144520044,0.093474902,-0.604779005,0.065122798,0.045556601,-0.034725301,-0.508444011,0.078560703,-0.050680902,1.076850057,-0.213967994,0.210745007,-0.905228972,0.124338999,-1.099300027,-0.039893501,-0.514366984,0.019416001,0.017369000,0.308618993,0.746933997,-0.073793799,0.014196100,-0.335049003,-1.019690037,0.637404978,
0.054870900,-0.067373097,0.239655003,0.007901270,-0.108436003,-0.647921979,0.276205003,-0.017597800,-0.050821301,-0.238455996,-0.714688003,0.153290004,0.272852987,-0.210426003,0.873560011,-0.410297990,-0.285917014,0.737192988,-0.575497985,0.153224006,0.269486994,-0.344166994,-0.328987986,-0.071128704,0.181086004,-0.128135994,0.112304002,0.224695995,0.074673802,-0.137311995,0.577555001,-0.017461600,0.279574990,-0.431497008,0.626356006,0.284565002,0.541628003,-0.099668898,0.094467402,-0.056000501,-0.488009006,-0.248924002,-0.269006014,0.175202996,-0.071318403,0.146687999,-0.056674100,-0.287847012,-0.018715700,-0.449965000,
-0.043409899,0.349426001,-1.076480031,-0.040611599,-0.176855996,-0.028156999,0.500907004,0.020054599,-0.997694016,-0.081325598,-0.165555000,-0.388193995,-0.521064997,1.105530024,-0.152661994,0.153274998,-0.150636002,-0.329665005,-1.167029977,0.845230997,0.545270026,-0.553128004,0.034794301,-0.419831008,0.962291002,-0.083360299,-0.629453003,0.015376800,0.093445197,-0.202004001,-0.214423999,-0.085280403,0.059329201,0.941564023,0.096431203,0.573978007,-0.982897997,0.370974004,-0.923479021,0.024142800,-0.843824983,-0.208563998,0.118929997,0.269970000,0.814475000,-0.388303995,0.024623301,-0.053393502,-0.919800997,0.743090987,
0.407404989,0.514136016,-0.370974988,-0.017427200,-0.146072000,0.061021600,0.065848902,-0.016984200,0.429152012,0.390886992,0.534865022,-0.330812991,-0.123443998,0.010352100,0.492152989,-0.663075984,-0.402601987,0.170590997,-0.217546999,0.006424940,0.266934007,-0.029571099,-0.432666004,0.112843998,0.292607993,-0.284256011,-0.006748950,0.034023300,-0.075490601,0.240362003,0.313551009,0.041465499,0.246827006,0.107979000,-0.033300199,0.703029990,-0.254844010,0.041244000,0.032546598,0.049202800,-0.246598005,0.025883799,0.021734999,-0.256646991,0.233641997,-0.237672001,0.034224700,0.048782300,0.375481009,0.285746992,
0.154144004,-0.013445300,0.151585996,0.023392700,0.183418006,-0.383139998,-0.050342701,0.011783600,-0.152767003,-0.018420201,-0.274787009,0.087387703,-0.385001004,0.115905002,-0.095091797,-0.061689299,-0.587759972,0.130473003,0.121154003,-0.093938798,-0.294898987,-0.055993401,-0.307792991,-0.167408004,-0.407238990,-0.024945900,0.142097995,-0.076273799,-0.168796003,-0.559907973,0.102743000,0.331333995,0.147370994,-0.007301570,-0.420690000,-0.166093007,0.144434005,-0.045271799,0.164270997,0.028658601,0.140984997,0.502816021,0.033606701,-0.251125991,0.006629550,-0.536153018,-0.053592701,-0.383201003,0.146336004,0.027237400,
-0.103797004,-0.082893901,-0.081505701,0.008588200,-0.000590020,0.764760971,0.461023986,0.038559400,-0.224412993,-0.155540004,0.355425000,0.210901007,0.657377005,0.138499007,-0.392327011,-0.516516984,0.005130340,0.141021997,0.066129498,0.062362801,-0.257312000,0.075466298,-0.320901006,-0.141473994,-1.614629984,1.001610041,-0.023869000,0.088013798,-0.218015000,-0.948722005,-0.058040399,-0.078704298,0.413612008,-0.388458997,0.238599002,0.470575005,0.056527399,-0.108756997,-0.078162201,-0.030549400,0.849811018,0.443794996,-0.471076995,-0.138402998,-3.077630043,-0.368492007,0.027909700,0.221814007,0.135782003,-0.128007993,
0.325807005,-0.239028007,-0.267762989,0.014137900,-0.107799001,0.198285997,0.310476005,0.050075501,-0.264470011,-0.184949994,-0.098871998,0.208868995,-0.328913003,-0.068801999,0.496010989,-0.403632998,0.198939994,0.084522203,-0.593487024,0.165430993,0.357553005,-1.080109954,0.038491499,-0.402015001,-2.654989958,0.335599989,-0.215595007,-0.307639003,0.228327006,0.496816993,-0.567021012,-0.448024988,0.175358996,-0.225546002,0.335599989,-0.136353001,-0.177634001,-0.035659399,0.142982006,-0.014124600,-0.407267004,-0.014428200,0.098556101,0.187984005,0.349905998,0.016163699,-0.020895200,0.354714990,-0.400386989,0.187371001,
-0.291873991,0.081746303,0.050918799,-0.021862499,0.044310302,-0.119479001,-0.027224500,0.028625101,0.053247999,0.397282988,0.006507420,-0.064961798,-0.178130001,-0.016914500,0.265213013,-0.100093000,-0.006233440,0.143480003,-0.089881703,0.062343199,0.297975004,-0.011824000,-0.212265998,0.092967696,0.290293008,-0.169037998,0.052960299,-0.092969097,0.152188003,-0.159369007,0.011884700,0.019881699,-0.363224000,0.053572901,0.362769008,0.433863014,0.172060996,0.165208995,0.025046600,-0.053421900,-0.107437000,-0.349691987,0.213878006,-0.260226011,-0.402444988,-0.230271995,0.055190999,-0.277801991,0.127434000,0.184189007,
0.068015799,-0.165352002,0.595142007,-0.003593830,0.233283997,-0.852028012,-0.040827800,0.031911600,0.088731900,-0.130435005,-0.328925014,0.436513990,0.095432602,-0.491326988,0.007527710,-0.044745501,0.045571599,0.521730006,-0.204971001,0.029112199,-0.040236201,0.048485100,-0.030302299,-0.227561995,-0.197022006,0.140558004,-0.099585898,-0.139973000,0.315773010,-0.163172007,0.425213993,-0.709791005,-0.702718973,-0.630196989,0.078854904,-0.493638009,0.423548013,0.016275600,0.115933999,0.009688160,-0.622968018,0.014375100,0.407245994,-0.222194999,0.220347002,0.010469700,0.038599100,-0.341978997,-0.056218099,0.184402004,
-0.261606991,-0.415021986,0.024525199,0.018055299,0.039707199,0.534730971,0.449079990,-0.048432998,-0.171967998,-2.223659992,0.389874011,-0.472413987,-0.219399005,-0.233300999,-0.111861996,0.160169005,0.007660990,-0.569482982,-0.513602018,0.242541999,-0.188971996,-0.309639007,-0.195103005,0.011091500,-5.243929863,-0.100947000,0.137619004,0.031755898,0.136710003,0.257831991,-1.467440009,0.200895995,0.499729007,0.976045012,0.014780400,2.183449984,-1.214329958,0.257452011,-0.212999001,-0.044427998,0.077125102,-0.868099988,-0.360238999,0.815406978,0.934428990,-0.582602024,0.056946099,0.041786101,-0.002571750,0.120592996,
0.125750005,0.216469005,-1.096330047,0.012706600,0.052650198,-0.165158004,-0.141701996,-0.032010399,-0.564954996,0.372839987,-0.264064014,-0.346648008,-0.283131003,0.424100012,0.113476999,-0.037738599,-0.259573996,0.252005011,-0.580879986,0.595094979,0.276125014,-0.575304985,0.184919998,-0.213545993,0.463658988,0.025188500,-0.494345009,-0.039930601,0.178579003,0.354283988,-0.176448002,0.090520501,-0.021790300,0.902687013,-0.093469404,0.283829987,-0.451442003,0.417910010,-1.047680020,0.049760200,0.205594003,0.032442600,-0.417286992,0.038869899,-0.403432995,-0.454813987,-0.015619000,0.006209000,-0.799872994,0.941712976,
-0.158205003,0.224025995,-0.458510995,0.047813501,0.371571004,-0.009793670,0.107193001,-0.019604901,0.844559014,0.515815020,0.114647001,-0.855111003,0.156286001,0.210481003,0.233522996,-0.524803996,0.091519602,-0.586709976,-0.276728988,-0.290315986,0.293296009,0.392116010,-0.325336009,0.573310018,-0.069241703,-0.252276987,0.069710702,0.224868998,0.321296006,0.157832995,0.483509988,0.160589993,-0.290915996,0.129555002,-0.062045999,0.042757101,0.335707009,-0.367442995,-0.294728011,-0.034483500,0.129243001,-0.729393005,0.280763000,0.668982029,0.404264987,-0.160912007,-0.037206799,0.384862989,-0.204356000,0.161770999,
-0.009888380,-0.048318300,-0.012867200,0.019332800,-0.047525499,0.014940500,-0.030733000,0.043406699,-0.013002800,-0.038137700,0.038228501,0.016544500,-0.053461801,-0.044689499,0.031290401,0.019606600,-0.012824100,-0.035158399,-0.021415800,0.014342600,0.022157900,0.013804400,-0.019646700,0.042434301,-0.012590500,0.028552501,-0.003706170,-0.023897700,0.008624950,0.022705300,-0.025869200,-0.001126350,0.002655550,-0.001792850,-0.034351900,0.012799000,-0.027935199,-0.026928101,-0.031799201,-0.039421398,-0.031539701,-0.055944499,-0.008922850,-0.021239599,-0.013864400,-0.034666799,-0.002981420,0.025068300,-0.030675100,-0.046468601,
-0.179499000,-0.046865899,-0.116925001,0.053906299,0.736181021,0.037292302,0.283603013,0.036940601,0.426411986,0.176973999,0.090405501,-0.577989995,0.434188008,0.081655897,0.378253013,0.111308999,-0.179792002,-0.271028996,-0.048140202,-0.411722988,0.081955597,0.176581994,-0.272027999,0.431196988,1.093459964,0.002852890,0.080119602,-0.087308101,0.497200996,0.192877993,-0.006093500,0.214002997,-0.234541997,-0.227970004,0.328236997,-0.084955499,0.033972502,0.009093180,-0.117619000,-0.029326800,0.315901995,0.251872003,0.260017991,0.734776020,-0.313001990,0.416550010,-0.008345130,0.475968987,-0.303299010,-0.013596300,
-0.222942993,0.300067008,-0.157765999,0.039310899,-0.250445008,-0.171459004,-0.296108991,0.022159901,-0.897602022,0.060478602,0.502511978,0.243823007,-0.175904006,-0.351397008,0.335492015,-0.045867000,0.441709012,0.274681985,0.217969000,0.148739994,-0.138318002,-0.370593011,-0.672219992,0.040546000,-0.118529998,0.158593997,-0.497386009,-0.219300002,0.283762008,0.591540992,-0.486088008,-0.385580987,0.554907978,-0.763944983,0.322822988,0.281890988,0.034124400,-0.149771005,0.127373993,-0.030867301,0.882054985,-0.113485999,-0.122216001,0.525582016,0.881857991,-0.101763003,-0.021068599,0.118207000,-0.808996975,0.070577502,
0.197196007,-0.064717300,-0.008680320,0.024892500,0.103313997,0.327506006,-0.161634997,0.019631799,-0.013592400,-0.671925008,-0.339518011,0.217910007,0.054430299,0.127106994,-0.392955989,0.113989003,-0.309561014,-0.052690499,-0.072900899,-0.014914600,-0.068729103,-0.165615007,0.305981010,-0.243882999,-0.403957993,0.295376986,-0.036479998,0.024288500,0.005258390,-0.311459988,0.202306002,0.560227990,-0.290544987,0.281650990,-0.177661002,-0.450697988,0.210751995,0.146854997,0.010502200,-0.037671000,-0.040107500,0.053974599,-0.075171500,-1.992470026,-0.450967014,0.574913025,-0.077232599,-0.676101983,-0.041212801,-0.046331100,
0.030950500,-0.004651850,0.002778060,0.019353000,-0.026329700,-0.048693001,-0.042493001,-0.003647530,-0.028725300,-0.045359399,0.023706300,-0.011722200,0.016325001,0.038491700,0.000846596,-0.028623199,0.026386401,-0.037268098,-0.028716199,-0.004696730,-0.033961698,-0.037242100,0.031494599,0.008615080,0.035178501,-0.009680610,0.031996898,-0.055198301,0.011812000,-0.015227600,0.041589901,-0.055064399,-0.068191200,-0.008639370,-0.033480600,0.021556800,-0.026739700,0.027257800,-0.033424702,-0.004012260,0.008379460,-0.042893000,0.012783300,0.026162200,-0.016672401,-0.055505201,0.039316300,-0.047400601,0.032836501,-0.023959899,
0.011127700,0.205030993,-0.244589001,-0.046931099,0.205460995,-1.358199954,0.468443990,-0.029394900,0.293480009,0.423193991,-0.467599988,-0.097275600,0.122290999,0.442754000,1.157080054,-0.200583994,-0.263184011,-0.009308160,-0.441778988,0.329668999,0.243212000,-0.368575007,-0.517386019,0.111212000,0.751595020,-1.096830010,-0.221392006,0.195526004,0.046017598,1.245360017,0.411100000,0.376785010,0.007203960,-0.035760000,-0.069696099,0.851140976,0.331768990,-0.340950012,-0.095721804,-0.008749010,-0.691932023,-0.584087014,0.642117023,-2.502120018,0.958248019,0.380392998,0.017286900,-0.107534997,-0.911041975,0.116227999,
-0.222113997,-0.076416299,-0.213552997,-0.034155600,0.274513990,0.863946021,0.367112994,-0.012881300,-0.066207200,-0.024714600,0.109002002,-0.342896014,-0.031642199,0.328869998,-0.308557004,0.367826015,0.122938998,-0.575707018,0.133132994,-0.299934000,-0.119577996,0.111089997,-0.259696007,-0.001989050,-1.157619953,-0.359995991,0.038050100,0.117137998,0.399094999,0.196665004,0.071015298,-0.001318910,0.244556993,-0.340954006,-0.187675998,0.068833500,-0.176749006,-0.154763997,-0.076293401,0.051531900,-0.405804992,0.056417499,0.249299005,0.225401998,-0.029521501,-0.233411998,-0.004800040,0.226196006,-0.260836989,0.265282005,
-0.227385998,-0.285874009,0.293314993,-0.027137401,-0.398499995,-0.249559999,-0.277626008,-0.051474400,-0.005402790,-0.686302006,-0.101727001,-0.089711897,-0.206333995,-0.337045997,0.340353996,0.047971901,0.199693993,0.409332991,-3.469130039,0.038810901,-0.049499799,-0.047878198,0.071040198,-0.710744023,-0.656121016,0.137492001,-0.185144007,-0.201781005,-0.035448302,-0.264346004,-0.203944996,-0.032596398,-0.246522993,0.053789701,0.234978005,0.050836802,0.416635007,-0.029214000,0.362419009,-0.045284498,-0.145255998,0.476714998,-0.799329996,0.153831005,0.120568000,-0.020580100,0.001302190,0.254844010,-0.367431015,0.337231010,
-0.846122980,0.512167990,-0.747197986,-0.025214801,-0.321388006,-1.151990056,0.497767001,-0.040155601,0.075047299,0.663272023,-0.271021992,-0.132961005,0.036336601,0.074465498,0.222553000,-0.676698029,0.225782007,-0.098468997,0.558364987,0.250984997,0.021332201,-0.055565700,-0.359501004,0.559946001,-0.865660012,0.135618001,-0.105113000,0.638714015,-0.358785987,0.027796000,-0.414534003,0.621371984,-0.289691001,0.731316984,-0.271311998,-0.359414995,0.261427999,-0.218150005,0.114124000,-0.047355000,-0.394432008,-0.084983498,-0.394753993,-0.045373999,-0.155692995,1.058320045,0.001941120,0.331407994,-0.105246998,0.329014003,
0.082994796,-0.167613998,0.346296996,0.008470160,0.203361005,0.133756995,-0.152683005,0.015811600,-0.149302006,-0.468059003,0.042062301,0.059994601,0.127315000,-0.093051702,-0.621913016,0.038425501,-0.093655303,-0.269665986,-0.150362000,-0.179125994,-0.034547798,-0.260922015,0.191376001,-0.286403000,-0.269183993,0.564496994,0.034595199,-0.078557901,-0.347121000,0.158322006,0.106481001,0.270505995,-0.191885993,0.123643003,-0.093139596,-0.414622992,0.152582005,0.088424802,0.119783998,-0.041198101,0.567106009,0.299100995,-0.408704996,-0.192144006,0.518085003,0.313888997,-0.024456700,-0.252878994,0.280579001,-0.017001700,
0.090789102,-0.547415018,0.130509004,0.013252000,0.075885698,-0.124862999,-0.156363994,-0.044832401,0.303427994,0.547164023,0.195203006,-0.158622995,0.199864000,-0.340755999,0.170977995,-0.430976003,-0.054696500,0.057074800,0.482538998,-0.090325698,-0.010357100,0.036729701,0.309608996,0.228563994,-0.301573008,0.230436996,-0.099488497,-0.251507014,0.329732001,0.304812014,0.320910990,-0.485287994,-0.115492001,-0.129807994,0.154138997,0.747076988,0.139013007,-0.011422300,-0.072327100,0.040388700,-0.484780997,-0.279603004,-0.327814996,0.478040993,0.004022840,0.708366990,0.014423000,-0.106964998,-0.472191989,-0.229712993,
0.243818000,-0.323774993,-0.112438999,0.006587530,-0.013722300,-0.163253993,0.130576000,-0.010520100,-0.028934499,0.021652799,-0.160181001,0.102641001,-0.229747996,-0.211951002,0.412167996,0.014626700,-0.135159999,0.103061996,-1.125040054,-0.009040680,-0.213137001,-0.056076199,-0.586474001,-0.092426702,-0.133011997,0.301165015,-0.221594006,-0.027228400,0.430503994,0.157922998,-0.868767023,-0.581234992,-0.207574993,-0.692258000,0.185184002,0.107433997,0.070406802,-0.128815994,0.261700988,0.009434020,-0.371558994,0.026608201,-0.079302602,-0.164529994,-0.244124994,0.372669011,-0.000492261,-0.077714100,-0.115863003,0.050269298,
-0.084894396,-0.124903001,-0.218115002,0.011634800,0.301658988,-0.747777998,0.115364000,-0.032013200,0.223271996,0.113716997,-0.066487998,-0.674162984,0.336405993,0.017376101,0.137930006,-0.021349400,-0.163749993,-0.226264998,-0.209987000,-0.251560986,-0.237082005,0.074475303,-0.153266996,0.127748996,0.419809014,0.027382299,0.011874200,0.351184994,-0.133016005,0.512160003,-0.055323899,0.206277996,0.332215995,-0.079279304,-0.113182999,0.260697991,-0.062858902,0.042255100,-0.094805703,-0.038937300,-0.102858000,-0.314806998,0.219218001,-0.312974006,-0.535124004,-0.108286999,-0.019564699,0.399039000,-0.069824003,0.071391501,
-0.169124007,0.159363002,0.193868995,0.029612999,-0.356597006,0.489914000,-0.047583900,0.010097300,-0.263981998,0.047984999,0.073851503,0.225341007,-0.235421002,-0.050228398,-0.138769001,0.048262399,0.202869996,-0.063618302,-0.565946996,0.156931996,-0.023249101,-0.229858994,0.132396996,-0.168474004,-0.073909998,-0.003897070,-0.072538197,-0.307429999,0.058522198,0.136504993,0.191437006,0.126458004,0.065576099,-0.112331003,-0.031200200,0.263963014,-0.220991001,-0.081111602,0.167818993,-0.039756499,-0.352634013,0.109288000,0.137217999,0.369830996,-0.273494989,-0.059381500,0.043580499,0.040150002,0.148407996,-0.039131101,
-0.606567979,-0.062358201,0.525359988,-0.010578900,0.526847005,-0.640968978,-0.269246995,-0.021023100,0.782180011,-0.243890002,0.398795009,-0.864196002,-0.162140995,-0.296564013,0.275922000,0.643984973,-0.546981990,0.561747015,-0.276704997,-0.536361992,0.117457002,0.267504007,-0.120119996,0.660573006,0.699859023,0.162609994,0.131982997,0.188250005,0.401832014,-0.060088500,0.142886996,-0.414586991,-1.803969979,-0.627261996,0.210611001,0.276228011,0.190834001,-0.269149989,0.244038001,-0.016264100,0.153888002,-0.088521302,-0.230945006,-0.160390005,-1.222939968,-0.467280000,-0.083365202,0.194325000,-0.137658998,0.533523023,
-0.573966980,0.327194989,0.168476999,0.026603200,-0.075688303,0.142730996,0.098550104,0.027602300,-0.107390001,-0.311167002,-0.795060992,0.569245994,-0.078154303,0.104419000,-0.048199899,0.005633880,0.589963973,-0.472561985,0.647121012,0.131062999,-0.105518997,-0.391425997,0.512269974,-0.234712005,-1.280930042,-0.105971001,0.397051007,-0.316931993,-0.009119160,-0.261189997,0.374383986,-0.241509005,0.176749006,-0.116201997,-0.620049000,-0.321013004,-0.132767007,-0.242824003,0.067032702,0.049773801,0.535633028,0.796422005,0.052674301,-0.147667006,-0.205457002,0.437400013,-0.000129728,-0.641538024,-0.363005996,-0.164040998,
-0.380713999,
0.769236982,
0.112942003,
-0.298996001,
-0.137694001,
-0.220087007,
-0.066792399,
-0.103572004,
-0.438194007,
