// Neural Network File Format by Kyle Julian, Stanford 2016
8,5,5,50,
5,5,50,50,50,50,50,50,5,
0,
-3.4028235e+38,-3.4028235e+38,-3.4028235e+38,-3.4028235e+38,-3.4028235e+38,
3.4028235e+38,3.4028235e+38,3.4028235e+38,3.4028235e+38,3.4028235e+38,
0.0,0.0,0.0,0.0,0.0,0.0,
1.0,1.0,1.0,1.0,1.0,1.0,
1.000000000,0.000000000,0.000000000,0.000000000,0.000000000,
0.000000000,1.000000000,0.000000000,0.000000000,0.000000000,
0.000000000,0.000000000,1.000000000,0.000000000,0.000000000,
0.000000000,0.000000000,0.000000000,1.000000000,0.000000000,
0.000000000,0.000000000,0.000000000,0.000000000,1.000000000,
-0.000000000,
-0.000000000,
-0.000000000,
-0.000000000,
-0.000000000,
-2.200360060,0.028582700,0.013186100,0.003933930,-0.007198490,
1.891010046,-0.004970890,-0.007725890,-0.186137006,0.278279006,
0.014170000,0.786312997,-0.867618978,-0.426023990,-0.674380004,
0.005241660,0.179233998,-0.207523003,0.775519013,-0.689328015,
-0.057861000,-0.345981002,-0.555823028,-0.275287002,0.089862198,
-0.223965004,-0.574567020,0.260203004,-0.489517987,-0.157446995,
-0.195315003,-0.823906004,0.735055983,0.310654014,-0.611684024,
-0.663707972,0.577834010,0.004723000,0.149175003,-0.713423014,
0.040128101,1.364969969,-1.302330017,-0.508539975,0.179367006,
-0.010629900,0.314700991,-0.252676010,-0.772460997,-1.619150043,
-0.004020680,-0.663017988,1.585790038,-0.088577703,-0.886250019,
-0.003750230,0.084204800,-0.034800701,-2.068079948,-0.053221501,
0.094126798,-0.795733988,-0.912589014,-0.044596098,0.035454601,
-0.052496199,0.990981996,-0.977560997,0.058759701,-0.717257977,
-0.003065030,-2.010639906,1.983569980,-0.379653007,0.714811981,
-0.067203403,0.239969999,1.102920055,0.088311397,-0.075586900,
-0.009715280,-0.183741003,0.232309997,0.363925993,-1.912410021,
0.000583633,-0.609838009,0.586378992,-0.487448990,-1.274880052,
0.092529200,-0.006331920,-0.019622900,-0.561214983,-1.518900037,
0.015966700,2.000159979,-0.047656700,0.265184999,-0.059645802,
0.008800870,-0.068696797,0.191643998,-0.909771025,1.345100045,
-0.010329400,-0.187194005,0.253917992,-0.312472999,-1.931920052,
0.082193702,0.038503598,0.002901420,-0.759221017,-1.657610059,
0.005552840,0.262326002,-0.318138987,0.654828012,0.910723984,
-0.007267890,-0.151024997,0.244078994,-1.018409967,0.316686988,
0.000512717,0.227587000,-0.249708995,-1.166350007,-1.461130023,
-0.453595996,0.286087006,-0.029414199,-0.228140995,-0.198895007,
0.021650100,-0.042626899,-1.490350008,0.085950702,-0.088485204,
0.044835702,0.811082006,0.709397972,-0.485902995,0.264041990,
-0.009762930,-0.043156799,0.054457199,0.978067994,-0.754247010,
-1.672850013,0.018314101,0.005140060,0.020861899,-0.386225998,
0.057056300,-1.206449986,1.301630020,-0.382223994,0.462006003,
0.003968290,0.005743580,0.003377220,-0.015375900,-0.003287360,
-2.516030073,-0.007061660,-0.010809600,0.004957150,0.027662700,
0.165912002,2.260760069,-2.113389969,0.085267700,0.176746994,
-1.064489961,0.029168900,-0.068296500,0.030439800,-0.323697001,
0.003082700,-1.589130044,-0.608606994,0.635159016,-0.940675020,
-0.029531499,0.219000995,-0.173414007,-0.957028985,-1.085899949,
0.039504100,0.734134018,-0.790974975,0.436720997,-1.514690042,
0.009277200,-0.012445500,1.337090015,-0.049039200,0.045689002,
0.002534130,0.118257999,-0.330590993,-0.402637988,0.892023981,
0.040781099,2.500659943,-0.004794330,0.010088300,0.002898560,
0.506658971,-0.089519799,-0.129611000,0.665813982,-1.158190012,
0.030193400,-0.341509998,0.561124980,0.217811003,1.523869991,
0.079705201,-2.188139915,0.052190602,-0.171139002,0.101809002,
-0.229450002,0.581224978,-1.272259951,-0.244771004,0.543295979,
-0.903384984,-0.004063560,0.013333300,-0.001772520,-0.031578001,
0.140322000,-2.405280113,0.919885993,0.104382001,-0.349824011,
-0.378504992,-0.590990007,1.479809999,-0.019427100,0.207940996,
0.087561399,0.695070982,0.627246976,-0.410365999,0.103386000,
-0.371544987,
0.658122003,
-0.223150000,
0.520223022,
0.017373599,
-0.034465600,
0.157814994,
-0.299050003,
-0.672748983,
-0.649482012,
-0.507983029,
-0.693018019,
0.060070399,
-0.124402002,
-0.387757987,
-0.007049680,
0.384905994,
-0.060446698,
-0.838114023,
0.183143005,
0.010823400,
-0.489863008,
-0.880909979,
0.421011001,
0.000578735,
-0.352813989,
-0.054441199,
0.016837601,
-0.019340400,
0.289655000,
-0.482919991,
-0.577306986,
-0.017810401,
-0.662469983,
-0.034005601,
-0.222246006,
-0.126429006,
-0.420170993,
0.235551000,
0.030784201,
0.213629007,
-0.024825800,
0.090437502,
0.251244992,
0.305525988,
-0.124071002,
-0.022528101,
-0.229607999,
0.123875998,
0.145049006,
-0.379009008,0.212771997,0.185343996,-0.176431000,-0.404958993,-0.134692997,0.789354980,0.137620002,1.182639956,0.320731997,0.676604986,-0.124260999,1.263389945,0.069255598,-0.450491011,-0.332291007,-0.073115103,0.028038399,-0.255838007,0.394048005,-1.685649991,0.489248991,0.067008898,-1.625390053,0.338113010,-0.008828630,0.289974004,0.328891009,0.490316004,-1.244940042,-0.780028999,-3.055500031,-0.033917200,-0.139147997,-0.460709989,-0.225076005,0.798343003,0.216443002,-0.231367007,-0.420033991,-0.070066400,-0.034815501,-0.237743005,-1.382439971,-1.189249992,-0.595613003,0.367457986,-0.378277004,-0.537293017,0.590108991,
0.778981984,0.042852599,-0.276630014,-0.421835005,-1.697639942,-0.526834011,-0.753017008,-0.764708996,0.293527991,0.230141997,0.593725979,-0.505680025,-0.233309001,-0.164789006,-0.500746012,0.131171003,0.654498994,0.121298000,-2.228840113,0.150112003,0.454277992,-0.209971994,0.281338006,0.657823980,-0.463275999,-0.074776903,-0.221454993,-0.626748025,-0.057280999,-0.949648023,-1.391729951,0.114058003,-0.015411000,0.380504996,-0.011994200,-0.431493998,0.197800994,0.329802006,0.296472996,0.047159299,-0.465743989,0.160152003,-0.642367005,-0.273883998,0.331925988,-0.671370983,1.499050021,-0.343374014,0.981719971,-0.833913028,
1.076640010,-0.739265978,-0.228048995,-0.053215802,0.226273999,0.099115796,-0.446803987,0.468134999,0.649061024,0.882921994,0.399194002,-0.749155998,0.751148999,-0.051025301,0.150312006,-0.409983009,0.694262028,-0.036606200,0.981432974,-0.521282971,-2.074179888,0.848078012,1.457329988,0.715862989,-1.047580004,-0.569406986,0.187180996,-0.555875003,-0.252916992,0.141187996,2.326410055,0.566345990,0.026023200,-0.416734010,-0.180290997,0.575357020,-0.085119903,0.024187800,-0.216597006,-0.232595995,0.510810971,0.714711010,-0.355228990,0.169387996,-0.211067006,0.035828900,-0.079969399,-0.114706002,0.318742990,-0.627596974,
0.031053601,-0.172823995,0.035891701,-0.126031995,0.077065103,0.036581501,0.018372800,0.072909199,0.094307803,-0.014475800,0.044111300,0.047890499,0.011869000,0.037259098,0.007842010,0.017314401,0.052653302,0.040421899,0.026300799,0.077566601,-0.144384995,0.015065700,0.070712902,-0.125284001,0.063490100,0.032641601,0.031384099,-0.116301000,0.003237770,-0.285207987,0.039434001,0.050020300,0.020353500,0.034960002,0.068219401,0.035855100,0.068420798,0.066017300,-0.298729002,-0.065738097,-0.131072000,-0.210656002,-0.315966010,-0.087218098,-0.057779301,-0.089732498,-0.022505000,-0.205140993,0.011388200,-0.113903999,
-0.265852988,-2.502629995,0.832315981,-0.418343008,0.208195999,0.557539999,0.693890989,-0.722326994,-1.111449957,0.084236398,0.137636006,-0.217042997,-0.624544978,0.032050800,-1.404610038,0.550613999,-0.051537301,0.225079000,0.914574981,-0.513507009,0.351125002,0.123515002,-0.087473601,-1.351169944,-0.010431300,0.020451400,0.055823501,-0.118559003,1.098590016,-0.096096598,-0.085322797,0.886855006,0.010697200,-1.094269991,0.414126992,-0.131051004,-0.086428903,0.234705001,-0.025865801,-0.100194998,0.673425972,-6.005730152,0.465465993,0.565304995,0.861977994,0.207249001,-0.199612007,-0.092707902,-0.524694026,-0.109875999,
-0.006923650,0.461153001,0.600717008,-0.480890006,-0.066682100,-0.151029006,0.461008996,-0.284319013,1.248389959,1.090890050,0.007916530,-0.250755012,-0.315145999,0.107129999,-0.209233001,-1.522519946,0.328040004,0.358801991,1.308159947,0.346460998,-0.388989002,-0.357268006,-0.022947600,-0.114851996,-1.081459999,0.597711980,-0.587576985,-0.719610989,-0.358525008,0.217106000,-1.010390043,-0.628588021,-0.017078999,0.255852997,1.068369985,-0.628171980,0.121348999,-0.906754017,0.350722998,-0.565528989,0.975893021,0.341724008,0.046808500,-0.352710992,0.574222028,-0.461021006,-0.624586999,0.410910010,1.294350028,0.028088501,
0.111378998,-0.435034990,0.147549003,0.599017978,0.820654988,-0.311758995,0.285241008,0.247164994,0.088630997,-0.361043990,0.192937002,-0.056865402,-0.894378006,-0.227305993,-0.064704299,-0.368445009,-0.646718025,0.459654003,-1.929360032,0.134850994,0.409081012,-0.452353001,0.269694000,0.304820001,0.022060599,0.527249992,0.532954991,-1.540660024,-0.500277996,-0.560124993,0.602678001,0.566664994,0.010452100,0.229537994,0.212118998,0.461270005,0.702585995,-0.031413302,-0.129288003,1.298529983,-0.005297300,-0.812336028,-1.348170042,-0.399287999,-0.102542996,-0.733825028,0.202103004,0.241390005,0.068725601,-0.293258995,
0.464652985,-0.418424010,0.876489997,-0.063451000,0.416229993,0.444036007,-0.192256004,0.084128998,0.026030300,-0.219179004,-0.148199007,0.053343099,-0.559044003,-0.282676995,0.272457004,-0.535288990,0.101347998,-0.503655016,-2.179019928,0.033253700,-0.967779994,-0.568728030,2.067090034,0.138227001,-0.052318200,0.003514970,-0.090429500,0.144621998,0.187165007,-0.535588026,1.213330030,-0.743915975,-0.032006700,-0.148101002,0.017582400,0.005322930,0.050578099,0.763234019,-0.205172002,0.528841972,0.642736971,-0.133936003,-0.678730011,-0.486723989,0.129969999,-0.016878100,0.562831998,0.248791993,0.153174996,0.464854985,
0.237308994,0.127713993,-0.416474998,-1.302330017,1.604419947,0.202961996,0.362181991,-0.241799995,-1.298939943,1.821599960,-0.790791988,-1.408450007,-0.479936987,-0.842621982,-0.019471500,-0.148632005,0.065815501,-0.958311021,-0.505747974,0.430090010,-0.668240011,0.303528011,0.518649995,-0.098940700,0.287196994,0.555372000,-0.481519014,-2.256479979,-0.179563001,-1.490370035,0.319031000,0.005995970,0.001346210,0.127338007,0.519374013,-1.113800049,-0.450856000,-0.753387988,-0.287710994,-0.151793003,-0.449939996,-0.404338002,-0.358727008,-0.982734978,-0.061519399,-2.743360043,-0.572740018,-0.325356990,0.268559992,0.266523004,
-0.860774994,0.018079400,-0.046260599,0.421736002,0.634190977,-0.000524673,0.008969010,1.677389979,0.477829993,0.214316994,0.663950026,-0.037064001,0.020615000,0.450022012,0.694567978,-5.086800098,-0.031556901,-0.811738014,-0.462745011,-0.897306025,-0.020433299,-0.193140000,0.842420995,0.474530011,0.048559699,0.817616999,1.409389973,-0.287674010,0.569908977,0.417636991,0.359452993,0.688018978,0.020525400,-0.069760300,0.070235297,0.548314989,0.216271996,-0.011485300,-0.859408021,0.163761005,0.694728971,-0.456741005,0.326415002,-0.771919012,-0.191626996,0.482742995,-0.331582010,0.098937303,-0.802006006,-0.448908001,
2.008110046,-0.186828002,-0.297123998,-0.491714001,-0.419923007,0.181310996,-0.647590995,-0.968513012,0.580954015,1.018280029,0.453348011,-0.016455600,0.052154399,1.111850023,-1.005749941,1.182739973,0.051441502,-0.060575001,0.011542700,0.006525860,0.065197296,0.042812400,1.106150031,-0.012056100,-0.600566030,0.633848011,0.350681007,-0.027753800,0.376332998,0.337168992,2.751569986,1.400640011,0.038176101,3.164959908,-0.766515017,0.773557007,-0.069822297,-0.541086972,-0.111700997,-0.587105989,-0.344392002,0.116207004,-0.370041996,-0.035414401,0.689300001,0.585875988,0.558637977,0.193010002,-0.033971701,-0.208747000,
0.023267100,0.258040994,-0.320955008,-0.287115991,-0.607761025,-0.140412003,-0.111226000,0.677993000,-0.077765897,1.064280033,-0.354126006,-0.048319899,0.110679001,0.601827979,0.385791987,0.677281976,0.530632973,0.346338004,0.910106003,-1.097229958,-0.186245993,-1.417760015,-1.633810043,-0.339484006,-0.487268001,0.550067008,0.252665997,-1.727880001,0.044646502,0.056436699,0.355704010,0.664956987,0.036093902,0.016194601,0.152702004,-0.347889990,-0.005067510,-0.520945013,-1.032729983,0.808161020,-1.323179960,0.059943501,0.282256007,0.924465001,0.370193005,0.396072000,-0.272249997,0.346803010,-0.132712007,-0.335418999,
-0.514016986,0.793210983,-0.197081998,0.494922012,0.247027993,0.140219003,-0.824473977,0.464677989,-1.300349951,-0.615418971,0.962337017,1.046939969,1.229949951,-0.581260979,-1.513569951,0.650232971,-0.616632998,-0.553834021,-2.160130024,-0.460101992,0.654569983,0.338881999,-1.487310052,0.086466402,0.433512002,-0.296680987,0.022291601,0.774926007,0.922859013,0.018098200,-0.200581998,-1.359220028,-0.025083801,0.618705988,-1.630789995,-0.173089996,0.577450991,1.093179941,0.230123997,0.025947900,-0.184857994,0.103704996,-0.212705001,0.669664979,0.497471988,-0.285007000,-0.927071989,-0.109664999,-1.057839990,0.438057005,
3.310760021,-1.768970013,-0.231040001,-0.267749012,-0.736742020,-0.251715004,0.255594999,0.006347720,0.167463005,-0.293253005,-0.390298992,0.060703699,-0.173012003,0.038864799,0.692713022,0.176375002,-0.251058012,-0.051819999,-1.095129967,-0.268842995,0.113563001,-0.355253994,-1.899870038,0.136702001,0.229700997,-0.030029399,0.043694399,0.879776001,0.043048799,0.157804996,0.696821988,0.281612009,0.038395301,5.980539799,0.331972986,0.094420902,0.050230600,-0.235468999,-0.288619995,0.306787997,0.298532009,-0.260313004,0.029181300,-0.238580003,-0.134270996,0.514656007,1.122050047,0.144791007,-0.140435994,-0.389476001,
0.028344400,-0.029228199,-0.006145700,0.004404340,-0.023823800,0.005390780,-0.025284400,-0.049375601,-0.033654898,-0.010388100,-0.029394399,-0.031355701,0.030637100,0.018915201,-0.015362200,-0.006373600,-0.019548999,0.005847320,-0.024193799,-0.004771240,-0.050319001,0.048788998,-0.007193250,0.012640500,-0.039937198,-0.014173200,-0.056247301,-0.020683000,-0.022659700,0.003415120,-0.048605599,0.034154199,-0.011707800,0.027038300,-0.012675100,0.003660180,-0.049244098,-0.017081300,0.009248860,0.046018802,0.006377900,-0.049325500,-0.051690198,-0.047391001,-0.049373601,0.033675700,-0.006950440,0.025185000,-0.045917399,-0.003289390,
0.013000400,-0.101924002,0.798672020,-1.277740002,0.490451992,0.087726504,-1.011800051,-0.397130013,0.718698978,-1.402969956,0.295392007,0.640353978,0.189822003,-0.751625001,0.705524981,0.010350500,-2.162620068,2.498630047,-3.465090036,0.511193991,-0.442104012,0.167072996,-1.154430032,0.159415007,0.421725988,1.125849962,0.017393900,0.487304986,0.190992996,1.220989943,0.149698004,1.017619967,-0.045388699,0.063950002,0.190226004,0.140222996,0.004768850,0.550634980,0.482488006,-0.298516005,0.292156994,-0.059150100,0.026782401,0.166923001,-0.065787099,-0.575443983,-0.017764300,-0.919137001,-0.491714001,-0.234327003,
-1.129539967,-1.982030034,0.681246996,-1.007439971,0.012525700,0.616913974,0.502048016,-0.247398004,-0.742160976,0.273734003,-0.542163014,-0.433465004,-0.778037012,-0.009836350,-0.445416987,0.338160992,0.235522002,0.602542996,2.145250082,0.828642011,-0.652945995,0.045359399,1.560250044,0.981907010,0.164119005,0.141554996,-0.112200998,0.384346992,-0.087255202,-1.332980037,0.352782995,1.202859998,0.016766200,-1.757120013,0.126104996,-1.066599965,-0.132074997,-0.158967003,0.299360991,0.433831006,0.378437012,-0.158267006,0.273948997,-0.299122006,0.670280993,0.364883989,-0.940135002,-0.208844006,-0.003302600,-0.300862998,
0.234910995,-0.045831699,0.527190983,0.234144002,0.165666997,0.973869979,0.990891993,0.705247998,-1.539530039,0.197183996,-0.099350303,1.062729955,-0.087131098,0.090049803,-2.516860008,0.540781021,0.325801998,-0.082126804,-0.307559997,0.285131007,-0.331910014,-0.426577002,-0.636829972,0.217942998,-1.107089996,0.250245988,-0.227559000,0.259977013,-0.239421993,-7.056660175,0.175036997,0.315524012,-0.027340000,-0.453410000,0.089397803,-0.593293011,-0.666957021,0.512615025,-0.178197995,-0.741403997,-0.347043991,0.170100003,-0.983251989,0.959743977,-0.000554125,0.313165992,-0.145006001,-1.086920023,0.436181992,-0.156779006,
0.462841004,0.048390798,-0.215246007,0.198524997,0.662721992,1.138000011,-0.157303005,1.565170050,-0.982931018,0.334865987,0.200919002,0.747820020,-0.373163015,-0.310157001,-0.445744991,0.022575401,-0.956732988,-0.109144002,-1.143869996,-0.287407011,0.956121981,-0.044090800,0.012714500,-0.629863024,0.911913991,0.570870996,1.098829985,-0.256213993,-0.043968599,-0.061460301,0.889854014,-1.408470035,-0.007499690,-0.210281000,-0.200986996,0.849623024,-0.274639010,-0.879432976,0.125846997,-0.152193993,-0.198706999,0.785853028,0.177692994,0.545286000,-0.183211997,-0.097090803,0.175187007,0.043940701,-0.218033999,-0.459547997,
-0.234940007,0.033430200,0.579968989,-0.646493971,-0.139742002,0.060591500,2.216279984,0.092820004,-0.114692003,0.969590008,-0.155004993,-1.414809942,0.329239994,0.324124008,0.788210988,0.569954991,-0.884907007,1.496129990,0.595609009,0.119406998,0.319344014,-1.996620059,-0.296588004,-0.575914979,-0.856078029,-0.665965974,0.418395013,0.319130987,0.003621440,0.002972410,0.266386002,-4.131149769,-0.011937300,-0.413875997,0.005098090,0.513190985,-0.131192997,0.333366007,0.839411974,-1.031260014,0.621110976,0.093809403,0.008062770,0.084760897,-0.226009995,0.197129995,0.183947995,-0.493593007,-1.321280003,0.304681003,
0.097923897,-0.141530007,0.054502700,-0.154687002,0.076079197,0.041577298,0.052023601,0.067097299,0.066846900,0.082781203,0.004919900,0.075908400,0.002828390,0.019377800,0.005020120,0.024267999,-0.014141800,0.054239102,-0.012409600,0.058259401,-0.137548000,0.058524098,0.022733100,-0.114935003,-0.004155000,0.095693201,0.020637499,-0.014753300,0.064475797,-0.278916001,0.077171303,0.056255002,0.014589100,0.089911200,0.070325203,0.017379001,0.079821199,0.036991499,-0.218116000,-0.048111800,-0.189131007,-0.163589001,-0.274484009,-0.047513299,-0.138894007,-0.084160000,-0.041261699,-0.128867000,0.003503870,-0.137487993,
-0.085790403,0.036251899,0.801636994,0.092354402,0.099563099,0.165767998,0.623835027,-0.817245007,-1.018859982,-0.828374028,-1.082550049,1.875460029,0.094806403,0.458151996,0.015036600,-0.012511300,-0.547671020,0.380439997,-2.056080103,0.372083008,-1.582999945,-0.042724900,-0.132529005,-1.448320031,-0.162110001,-0.481074989,0.153427005,0.210473001,0.192147002,0.339794010,0.243028998,0.379391998,0.051109701,-0.028106101,0.338907987,0.399370998,-0.086520702,-0.223832995,-1.736660004,0.092679597,0.141800001,-0.147703007,0.081629001,-0.715479016,-0.039848801,-0.134388000,-0.024599900,-0.207636997,-0.381897986,0.057687800,
0.782977998,-1.312489986,0.492161006,-0.127654001,0.448365986,0.252097994,-0.196081996,-0.278214008,-0.865962029,-0.343722999,-0.190908000,-0.613068998,-0.360933989,-0.432641000,0.080297701,-0.931048989,-0.238018006,0.324185997,0.940521002,-0.169633001,-3.541529894,0.275739998,0.122675002,0.287741989,0.086240597,0.101466998,0.093748599,0.376608014,-0.216675997,0.015861500,0.801657975,-0.356512994,0.013104700,0.010069400,-0.117310002,0.128709003,0.054462802,0.332951009,-0.325001001,0.262971997,-0.704711974,0.289263010,-0.115507998,-0.106078997,-0.273660988,-0.137424007,0.295801997,0.251554012,-0.151470006,0.812216997,
-0.221352994,0.002342440,0.048822600,-0.968134999,0.768926024,-0.254478008,0.545619011,0.129323006,0.024033200,0.421009988,0.201080993,-0.383071005,0.819562018,0.989607990,-0.234604001,0.498461008,0.312873989,-0.216344997,-0.688210011,-0.481431991,0.247048005,-0.443589002,0.121765003,0.509351015,-0.147597998,0.018957600,0.328938991,-0.814007998,-0.203752995,-0.342000008,-0.385762006,-0.717589021,0.016768901,0.837997973,-0.159946993,-0.716560006,0.318192989,0.194910005,0.262582004,-0.090497598,0.632440984,-5.822239876,-0.858125985,-0.605226994,0.128002003,-0.476631999,0.461293995,0.640974998,-0.273571014,0.694123030,
-0.086291797,0.300848991,0.657266974,0.038995799,0.724291980,-0.399313986,0.546872973,0.815259993,0.408856004,0.312559992,0.286139995,-1.782559991,0.411808997,0.649725974,-0.998381019,0.570765018,0.396003991,0.587472975,1.257590055,0.669090986,-0.312952012,0.084253699,1.612589955,0.089016400,-0.532833993,-0.293996990,-1.247740030,0.194832996,0.140172005,-0.083973497,1.323510051,1.375910044,-0.009441980,-0.784492016,-0.652217984,-0.237087995,-0.731283009,-0.245343998,-0.048632599,1.157459974,-0.640048981,-2.095510006,-0.262252003,0.955999017,-0.835358024,-0.535732985,1.222689986,-0.818880975,0.249385998,-0.360404015,
0.147481993,0.213670000,0.105333000,-0.106765002,0.947375000,-0.715359986,-0.676101029,0.307168007,-1.538040042,0.233489007,0.052958600,-0.991249025,0.313529015,0.605903029,0.508213997,0.706827998,0.481059998,0.464343011,0.017956600,1.327370048,-0.595413983,-0.020114800,3.098289967,0.029432399,-0.156913996,0.179848999,-0.746091008,-0.442575008,-0.506170988,-0.055053901,-0.230763003,1.017050028,-0.011757000,0.466949999,-0.787697971,-0.518199027,-0.172456995,-0.552513003,0.213635996,0.869894981,-0.571310997,2.166899920,0.216931999,0.411579996,-0.244581997,-0.587837994,-0.266811997,1.597720027,0.321590990,-0.827557027,
0.546603978,0.039301202,0.425637007,-0.453074008,0.307709992,0.156032994,0.573413014,0.296649009,-1.329280019,-0.313979000,0.263458997,0.292598993,0.562852979,0.828432024,-0.251720011,0.452986002,-0.252160013,0.081148297,-1.437759995,0.381871015,0.330830991,0.037913699,-0.417531997,0.069001697,0.032285299,0.415466011,1.036520004,-0.355363011,0.205421999,0.102058999,0.587565005,-0.079476900,0.038217202,-0.420937985,-0.217986003,-0.673195004,0.235914007,-0.587035000,-0.130113006,0.463512987,0.112476997,0.082640402,0.003334510,0.060978401,0.124417998,0.201015994,0.230886996,0.094635002,-0.435658008,0.308266997,
-0.002842780,-0.023461800,-0.007131540,0.007103800,0.022481499,-0.019208999,-0.054292999,0.023098201,0.034574401,-0.040633801,-0.027136801,-0.044683501,0.013368400,-0.052020200,0.019097600,-0.035775900,0.032528400,-0.015227500,0.042547401,-0.009057100,-0.010776000,-0.057946999,-0.037721001,0.014747800,0.042291101,-0.001075730,0.006907890,-0.046053201,0.018763600,0.000341547,0.029581100,-0.019764600,0.026463900,0.038013998,-0.031451400,-0.003998810,-0.029039601,0.008282500,0.020492600,-0.035140399,0.000962653,-0.038445000,0.003423030,-0.015333100,-0.020106699,-0.005632550,-0.052797601,-0.025715301,0.040927898,-0.053717598,
0.073160402,-0.086960800,0.832892001,-0.378224999,0.291016996,0.976665020,-0.383911997,1.038490057,0.496609002,0.329145014,0.491964996,-1.464210033,-1.208920002,0.621134996,0.348728001,0.617805004,0.032767400,0.336061001,0.901697993,-0.242613003,-0.854587972,1.032610059,2.782399893,1.179939985,-0.246614993,-0.512355983,-0.680450976,-0.299621999,-0.566250980,0.385277003,-0.021868700,-0.098675303,0.034114402,0.405292004,-0.258410007,-0.273703992,0.770407021,-0.471677005,0.318017006,0.399026006,0.802478015,-0.299052000,0.916890979,0.302323014,0.464383990,0.330467999,-0.263911009,-0.515663028,0.066273801,0.027282000,
-0.044128601,-0.005464470,-0.024066200,0.001050810,-0.043037899,0.041081399,-0.003803880,-0.008729740,0.037630301,-0.041521501,-0.002843500,-0.048363902,-0.040779799,-0.014693800,-0.037857201,0.044007100,-0.010779600,0.008621860,0.047661200,0.003657530,-0.036147501,-0.030995799,-0.004722110,0.007556090,-0.051015899,-0.016941899,-0.047558799,0.021790100,0.037529100,-0.027833300,0.009761620,-0.038541701,-0.048999801,0.000760244,0.011789200,0.014438100,0.009637890,0.027964201,-0.022647001,-0.039674200,-0.016018700,-0.041441198,-0.004904310,-0.052851200,0.032166298,0.011507900,0.020804800,0.001694120,0.020726500,-0.021261800,
0.618565023,-0.755342007,0.091511898,-0.256060004,-0.041394200,0.176574007,-0.001884750,-0.716188014,-0.224037006,0.018656000,-0.101333000,-0.170958996,-1.004950047,0.749890029,-0.391988009,0.061158299,-0.065994300,-0.063104898,0.589175999,-0.211107001,0.691824019,0.135870993,-0.017797999,-0.145993993,-0.071994603,-0.156497002,-0.286568999,0.557596028,-0.180199996,0.264851004,0.114116997,-1.035339952,-0.028530700,0.132273003,-0.322246999,0.373174012,0.006574070,0.183589995,0.060632300,0.475603998,-0.740040004,0.429012001,-0.233832002,0.224678993,0.046132799,-0.700487018,0.375032008,-0.243772998,0.936809003,-0.398202986,
0.358366013,-1.727010012,0.286033988,-0.316747993,-0.255667001,-0.491840005,-0.452376992,1.285480022,-0.037328299,0.511482000,0.460803986,0.639939010,0.514747024,-0.205278993,-0.377786994,0.199752003,-0.163131997,-0.013893900,1.450600028,0.507963002,2.566679955,0.173850998,0.584888995,-1.211099982,-0.230774999,0.211244002,0.091579601,-0.313948005,0.175227001,-0.465090990,0.636241972,0.479036003,-0.007423650,1.851449966,-0.186410993,0.276198000,0.625244975,0.351610988,-0.091441497,0.058452301,0.171546996,-1.552539945,-0.500038028,-1.415709972,-0.615821004,-0.276450992,-0.236560002,0.471469015,0.100311004,0.132492006,
0.647952974,-2.586019993,0.265652001,-0.474750996,0.414301008,0.003208680,-0.015903000,0.463234007,-0.157006994,-0.040694200,0.171124995,0.677570999,-0.390233994,0.022834999,-0.208871007,-0.076979600,-0.032998599,0.190084994,-0.043818600,0.133469999,-0.627870977,0.284785002,-0.285486996,-1.296830058,0.076967098,0.297995001,-0.042829402,-0.136548996,-0.395368993,-0.920522988,0.310968012,0.296012998,0.031926200,2.874300003,0.065573499,0.181104004,0.004375280,0.277516007,-0.187703997,0.238157004,-0.234199002,0.247195005,-0.183827996,1.162979960,-0.016787700,0.104226999,-0.005316960,0.107486002,0.076557003,-0.336612999,
-0.739403009,-0.005243360,-0.552450001,-0.603926003,-0.660408020,-1.275859952,1.853870034,-0.768296003,0.877059996,1.705209970,0.998718977,-0.096791998,1.008720040,-0.561169982,-0.869561970,0.103173003,0.213827997,0.740440011,3.138159990,-1.057340026,0.140192002,-0.393622994,-2.138930082,0.348549008,-1.310660005,-0.289220005,-0.382126004,-0.847084999,0.108676001,-0.499653012,0.910457015,-0.135969996,0.036248300,-0.029388800,1.019860029,0.566697001,0.542156994,0.489372998,0.151761994,-0.575874984,-2.067490101,0.354503989,-0.182798997,-0.458905011,0.947710991,0.511272013,0.408156008,0.213648006,-0.403638005,-0.775191009,
-0.055110902,-0.115411997,-0.052171599,-0.016042801,1.000239968,-0.792789996,0.255230993,0.033438001,1.093999982,0.550816000,-0.399286002,-1.167389989,0.288222998,0.015139500,0.338701010,1.041560054,0.620791018,0.469112009,-2.602020025,0.353430003,-1.363909960,-0.893032014,1.875169992,1.720989943,0.902639985,-0.498264015,0.381711990,-0.863119006,0.287615001,-3.516979933,0.069858000,1.458260059,-0.002122240,0.568228006,-0.289599001,0.097288899,1.487619996,-0.426066995,0.117066003,-2.677870035,-0.195015997,-0.293410987,0.085265003,0.431811005,-0.163816005,-1.244819999,-0.088154897,-0.151636004,-0.403088987,0.656064987,
-0.065406501,0.044556700,0.531624019,-0.429962009,1.309669971,0.235239998,-0.033709500,-0.832085013,-0.675725996,0.892198980,-0.901642978,-1.038859963,2.242219925,0.149405003,-0.647405982,1.083770037,-0.292021006,-0.104032002,1.597519994,0.747319996,-0.872564018,-0.319133997,1.260619998,-0.217528999,-0.433182001,-0.002839140,-0.367161989,-1.613190055,0.123492002,-1.568459988,0.128873006,-0.655852973,0.051428799,1.098129988,-0.056738999,0.407040000,-1.768740058,-0.040563799,0.287627012,1.067989945,-0.065964997,0.741173029,-0.915373027,0.758334994,0.135704994,-0.303065002,-0.000842059,-0.665238976,-0.121987000,0.254631996,
-0.013795100,-0.043018099,-0.007379800,-0.039292600,0.032219499,-0.060971200,0.036973398,0.013884500,-0.051809601,-0.009860180,-0.052500401,-0.008242410,0.017888200,0.022664100,-0.014717500,0.014047300,0.008086010,-0.006217580,-0.008134560,-0.029358700,0.038698498,0.035255399,-0.049441501,-0.016590700,0.018169999,-0.008959770,-0.042400099,0.003375910,-0.057070799,0.019064600,0.008621750,0.010732900,-0.003874550,-0.038699601,-0.000112557,-0.023499301,0.007333530,0.001616960,0.016503099,-0.022643400,0.010611600,-0.011036600,-0.031124400,-0.015098100,-0.051945198,-0.037130602,-0.010613400,0.023935400,-0.011106800,0.020883201,
-0.027574100,-0.031845801,0.036230698,-0.032966100,-0.016813900,-0.022580501,-0.022005299,-0.020980800,0.036444899,0.008867110,-0.029663300,0.024992200,-0.034482598,-0.021164199,-0.030812601,0.016841900,-0.020850901,0.043997500,0.035803098,0.026296100,-0.048783701,0.016841600,-0.010016300,-0.038072500,-0.043505602,-0.028374599,0.019877199,-0.053242501,0.031236401,-0.004476070,0.014336700,0.024350701,-0.033969998,-0.038243901,-0.018240700,-0.039764300,-0.025405400,-0.041397501,-0.039118901,-0.051640298,0.041435398,-0.000645162,0.043088201,-0.038184699,-0.021429200,0.034311701,-0.018163100,-0.041326199,-0.055282399,0.002638510,
-0.443208009,0.147104993,-0.023460200,-0.079909801,0.588387012,0.447421998,0.565957010,0.188244998,-0.035910200,0.011264100,-1.085170031,-0.252828985,-0.629531026,0.482820988,-0.708784997,0.774240017,-0.104514003,-0.616825998,-1.970549941,0.877548993,0.209846005,0.085241802,0.515007973,-0.497078001,0.150858000,0.173539996,0.383700997,-1.391559958,-0.403497010,0.658513010,-0.036622800,0.153751001,0.018746100,-1.413650036,-0.707192004,-0.607982993,-1.025069952,-0.152973995,-0.469752014,0.627579987,-0.685917974,0.396566987,-0.320302993,0.283758998,-0.623117030,0.041457199,-0.335563987,-1.066269994,0.792989016,0.752011001,
-0.092140198,0.157861993,-0.017762201,0.046823200,-1.389050007,0.143028006,0.327522993,0.618659019,-1.641530037,0.539333999,-0.137094006,-1.225780010,-1.014919996,-0.074929804,0.745045006,-0.808339000,1.410249949,-0.561681986,-0.598599017,-0.164954007,-0.228905007,0.293586999,1.009699941,0.417594999,-0.185239002,0.484254003,0.577018976,-0.294588000,-0.330372989,0.058631800,0.108528003,-1.712489963,-0.008516830,0.137735993,0.360637993,0.313621998,0.063739799,-1.557809949,0.352416009,0.021073300,0.753064990,0.133093998,-0.261909992,0.117353000,-0.121019997,1.057559967,-0.219275996,0.130559996,0.108800001,-0.996209979,
0.577735007,0.346935987,-0.450260997,-1.078349948,-0.093828000,0.082122803,0.202144995,-1.792090058,-0.691457987,1.300760031,0.637732983,1.116279960,0.262858003,0.186594993,0.441179991,-0.329780012,0.093949497,0.104535997,-1.863389969,1.062520027,0.783639014,0.515075028,-0.555473030,-0.902472973,-0.466526985,0.150360003,0.510340989,0.183798999,0.071218900,-1.858150005,0.444752991,-2.219150066,-0.004023130,-0.542160988,0.621276021,1.209570050,1.066570044,1.165300012,-0.542086005,-0.170238003,-1.335049987,-0.876793027,-0.876703978,1.167989969,0.184974998,0.423667014,-0.399998009,0.690280020,0.137649000,-0.218713000,
-0.595220029,0.622985005,0.138800994,0.168338001,-0.068027698,0.677484989,-0.783182979,-0.537822008,-0.409570009,-0.059572700,-0.020826099,-0.327576995,-0.248413995,-0.147003993,-0.268249989,-0.129541993,0.322735995,-0.003740040,-0.504916012,0.387993008,-0.208432004,0.057596099,1.612030029,-0.106081001,-0.252546996,0.080441803,-0.719597995,-0.802909970,0.133250996,-0.316193998,0.070728503,0.080840401,-0.039387200,0.884670973,-0.067191303,-0.437694997,-0.423790991,-0.078783996,0.325709999,-0.055426300,-0.936515987,0.052838702,0.559909999,0.352378994,-0.188226998,-0.057086401,-1.052559972,-0.136409000,-0.113237001,0.181857005,
-0.668411016,0.181417003,-0.470946997,1.070770025,0.936563015,0.083547696,0.563544989,-0.668079019,-0.597364008,1.614549994,-0.446155012,0.165157005,-0.794175029,-0.337781996,-0.024613500,0.458281994,0.026788000,-0.697291970,-0.018142400,0.803185999,0.919784009,-0.630154014,-0.283677012,-0.429520994,0.104285002,1.459280014,-0.201230004,-0.563365996,0.256687999,0.167886004,-0.378500015,-0.289030999,0.006293520,0.476498008,0.026495900,0.623547018,0.460262001,-1.325690031,-0.591018975,0.449734002,0.684045970,0.039325502,0.302442014,-1.022609949,0.206412002,0.905283988,0.292596012,0.173163995,-0.262216985,0.157414004,
0.696999013,-0.545885980,0.077635497,-0.094568104,0.349552989,0.241277993,0.194617003,0.391865999,-0.588476002,0.631503999,0.378163010,0.436852992,0.204060003,-0.250689000,0.524159014,0.106106997,-0.837822020,0.501073003,-0.366014004,0.351821005,0.985978007,-0.203797996,0.277983993,-0.505038977,0.176165000,-0.122722000,-0.649771988,0.805984974,-0.121454000,-0.206029996,1.095340014,-0.712895989,0.006519090,1.663939953,0.063054703,0.102877997,0.500213027,0.204961002,0.456084013,-0.756848991,0.106245004,-0.063581601,-2.307140112,-0.400889993,-0.039074499,-0.574504018,0.228474006,0.162600994,-0.417665005,0.091992199,
0.030359000,0.276971012,-0.064541198,-0.999275982,-0.436381996,0.501119971,0.542151988,0.062653802,1.407310009,0.534447014,0.491750985,1.308820009,0.279163003,0.497637004,-0.113463998,0.170991004,0.713738978,0.009112890,0.518826008,-0.274208993,0.250910014,0.192606002,-1.461019993,-0.756375015,-1.109259963,-0.037306901,0.141375005,-0.184698999,0.179362997,-0.336993992,0.277891994,0.251231015,-0.012831700,-1.423329949,0.334556997,-0.422998011,0.601571977,0.706489027,-0.329331011,0.157905996,0.207375005,-0.685118973,-0.571931005,0.500887990,-0.516575992,-0.634882987,0.467433006,0.054527499,0.300081015,0.112016998,
-0.382667005,0.285329998,0.154010996,-0.406648010,0.128278002,0.130713001,0.892461002,-0.083138198,1.082090020,0.355996013,-0.869692028,0.539400995,-0.463405013,0.519041002,1.982489944,0.566749990,-0.115061000,0.313281000,-5.081880093,0.275676012,0.008525860,-1.533149958,0.853361011,1.347139955,-0.081551000,0.770778000,0.063798398,0.297998995,-0.295643985,-0.018711600,0.125329003,0.879720986,-0.035791699,0.452239007,1.130519986,0.501816988,-0.099200301,-0.759661019,-0.226735994,-0.089518398,0.580550015,0.344972014,-0.320060998,-1.562459946,0.052407701,0.259207010,-0.344996005,0.287014991,0.101369999,-0.123892002,
0.065296799,0.138561994,0.964271009,0.664874971,0.877901018,0.993579984,0.250171006,-1.352419972,0.922803998,-0.689248025,1.464570045,-0.328801990,0.759410024,0.315418988,-0.765299976,-1.939530015,-0.557313979,0.082751997,-4.149050236,-0.409673989,-1.406229973,-0.204650998,-2.984030008,1.306679964,0.075076498,-1.016559958,0.074552201,-2.802200079,-0.114923999,-0.224124998,0.008293960,0.398512006,-0.003327970,1.425430059,-0.544305980,-0.010779900,-0.163822994,1.692749977,0.065338500,-2.380110025,-1.952469945,-0.132946998,-0.199298993,0.183785006,0.423123002,-0.261474997,0.353459001,0.056649901,0.148096994,1.125959992,
-0.216429994,-0.248724997,-0.070844300,-0.090216704,0.473403007,-0.022748699,-0.764312983,0.496160001,-0.742082000,-1.029790044,0.796507001,1.379709959,-0.004153740,-0.804398000,-1.278010011,-0.241470993,-0.152357996,0.941765010,-0.113344997,-0.168808997,-2.993669987,-2.929130077,0.680967987,0.164934993,0.097192302,-0.829196990,-0.168491006,-1.322870016,0.632845998,-0.139339998,0.812873006,0.020719601,-0.043859199,-0.189741999,-0.107115000,0.675688982,-0.524061978,0.793649971,-0.310938001,0.333209008,-0.950869977,0.091795400,-0.106597997,0.175794005,0.278086990,-0.432877004,0.280339003,0.860594988,-0.376132011,0.355412990,
-0.053368598,0.020330600,-0.057610400,-0.050451901,-0.038653299,-0.017652800,0.022110101,-0.011941000,0.027189801,-0.046689101,0.032675002,0.018230800,-0.042698201,-0.022006599,-0.014421300,-0.039937299,0.024094300,0.000928828,0.035948500,-0.046282999,-0.017655900,-0.040407900,0.033046301,0.024717400,-0.066722199,-0.004714030,-0.002320810,-0.054228399,-0.012196100,-0.024475399,-0.042542599,-0.044173300,-0.022783900,-0.011735600,-0.008050420,-0.033864699,-0.045041699,0.003267630,-0.008900930,-0.047077700,-0.051031198,-0.020893401,-0.004040040,-0.022088399,0.013880800,-0.007570190,-0.038051099,-0.004204100,0.008792730,0.028089900,
0.014304800,-0.173911005,0.054280099,-0.093720302,0.023390800,0.023139300,0.033850700,0.034129400,-0.000292273,0.069528401,-0.006082960,0.048663799,0.016503301,0.050365001,0.053921800,0.012661800,0.053302798,-0.001182990,0.000839982,0.032953799,-0.150140002,0.069279298,0.013892600,-0.138825998,-0.021930801,0.056020401,0.081303798,-0.037518501,0.029509300,-0.273635000,0.008799830,0.030654900,0.017176300,0.051550299,0.032411698,0.050460100,0.028795300,0.043925799,-0.200142995,-0.048556998,-0.156811997,-0.150271997,-0.299818993,0.000273368,-0.105414003,-0.100202002,0.027658300,-0.163286000,0.021738799,-0.099556804,
-0.167683005,
0.310602009,
-0.969666004,
-0.041570500,
-0.481177002,
-0.656985998,
-0.063507199,
0.049630798,
1.483029962,
-0.347907007,
-0.007282730,
0.308470011,
1.333870053,
0.466244996,
-0.015255400,
-0.505060017,
-0.439384997,
-0.738994002,
0.655075014,
-0.164113000,
-0.057971202,
1.448449969,
0.020181101,
-0.408906013,
-0.379711002,
-0.709860027,
-0.952344000,
-0.017702101,
-1.870229959,
-0.008409820,
0.022424400,
-0.681513011,
-0.540529013,
0.198850006,
0.036945298,
-0.492931992,
-0.013295600,
-0.011449100,
0.899155974,
-0.159464002,
-1.500349998,
0.570267022,
-1.333610058,
-0.278883994,
-0.406740010,
-0.750571012,
0.627663016,
0.558486998,
-0.025152599,
-0.060903300,
0.034709599,1.498149991,-0.737541020,-0.052217599,1.218919992,0.271912009,-1.721099973,0.008110160,-0.020024801,-2.666929960,0.059075698,-0.758570015,0.344579995,0.207489997,-0.025186701,0.977962017,-0.071865298,-0.784704983,0.266223013,-1.145599961,0.000117091,1.143049955,0.086570501,0.299894989,0.616657019,0.099230103,-0.980835021,0.052663699,1.577870011,-0.002719540,-1.141819954,-0.527988970,0.107827000,-0.315171987,1.293419957,-0.036493599,0.021461200,0.047995500,-0.581173003,0.167308003,1.364259958,-0.264845997,-0.316605002,-0.335139006,-1.432639956,-1.369070053,-0.638401985,-1.151450038,0.017654100,0.043829501,
-0.353565991,0.339109004,0.012896600,0.051307298,0.099519998,0.437153012,-0.055958901,-0.049548700,0.081492901,0.469963014,0.489244014,0.325266987,-0.444857001,-0.140522003,-0.010102500,-0.480174005,0.209294006,0.321281999,0.100771002,-0.057845298,0.100284003,0.068514399,0.763060987,-0.343199998,0.616891980,-0.404668003,0.242587000,-0.041019902,-0.523672998,-0.002200130,0.546148002,0.312860012,-0.002764410,0.093261503,-0.061202500,0.634261012,0.038935099,-0.012649600,-0.186504006,0.071378097,0.375871003,-0.401234001,-0.034594201,0.018805800,-0.000663820,-0.139230996,-0.223312005,-0.218586996,0.055493101,0.164768994,
-0.535574019,0.074309401,-1.440449953,0.046112400,0.045846902,0.359084010,-1.581079960,-0.107932001,-1.912870049,0.261893988,-0.057577100,0.458216995,-0.773608029,0.210461006,0.029589100,1.285899997,0.195914999,0.838926971,0.338699996,0.243680999,0.129388005,-0.470665008,0.702624977,-0.902504027,0.198673993,1.314479947,0.342465013,-0.053175502,-2.311690092,-0.044114199,-0.805549979,-1.178060055,-0.063246399,0.040361501,-0.704949021,0.101980999,0.051339101,0.007665770,-0.284981996,-0.274493992,0.266404003,-0.131294996,-0.444474995,-1.047459960,0.207602993,-0.104944997,0.533867002,-1.887500048,0.019924900,0.118464999,
0.347286999,0.214331999,-0.499493986,-0.016702900,-1.398470044,0.101342000,0.228361994,-0.101443000,1.444079995,-0.956053972,0.059352100,-0.445138991,-0.365848005,0.062026899,-0.020692600,1.108420014,0.215477005,0.527447999,-0.215940997,-0.053307999,-0.012481100,-0.263446987,-1.052379966,-0.450242996,0.179205999,-0.294124991,-2.062779903,-0.027729100,0.186573997,-0.000246685,-0.502563000,-0.221079007,-1.576930046,0.919149995,0.154324993,0.490464985,0.036421198,-0.028879900,0.234999999,0.438051999,0.370308995,-0.635052979,-1.579769969,-0.853329003,-0.256576985,-0.123324998,-0.232465997,-1.938480020,-0.055359099,0.002276290,
-0.066425800,0.794947028,-0.497022003,0.025608800,-0.903212011,-0.030764900,-0.234173000,0.004920240,-0.532267988,-1.183310032,0.128533006,-0.019588400,0.080654003,0.107634999,-0.025792301,-0.224454999,0.271825999,-0.330146015,0.159169003,0.316080987,0.055953398,0.271797001,0.402774990,0.087844498,-0.148969993,0.066417702,-0.089133099,-0.012637500,-7.029679775,-0.012370900,-1.556439996,-3.193700075,0.739718020,-0.242218003,0.369334012,-0.461466998,0.047068100,0.004186180,0.082912900,-0.075610802,-0.483981013,0.049189799,0.018168500,-0.087523602,-0.436594993,0.022407200,0.307341009,0.038633499,-0.020625699,0.125768006,
-0.568305016,0.177661002,0.262822002,0.110071003,-0.371062994,0.273104012,0.105113998,0.079900600,0.097943798,-0.559578001,0.025422400,-0.003235030,0.391671002,1.124830008,-0.021783600,-0.502696991,-0.383415014,-0.120604999,0.206845000,-0.484876007,0.085623100,0.289876014,0.533836007,-0.410865009,0.334324986,-0.209672004,0.120155998,0.022628000,-0.282236010,-0.034694299,1.115710020,0.961063027,0.661339998,0.007339150,0.184148997,0.220232993,0.002001580,-0.001799110,-0.085705400,-0.182006001,-0.017858600,0.297219992,-0.125639006,0.009285380,-0.362794012,-0.248439997,-0.317422986,-0.305754989,0.004171290,0.114139996,
-1.151790023,-0.548111975,-0.210715994,0.036032401,1.242460012,-0.532546997,-0.688735008,-0.136522993,0.093315698,0.129382998,0.122418001,-0.625204027,0.189848006,-0.228598997,0.024577500,-0.704510987,-0.000588039,-0.008377740,-0.244050995,-0.386929005,0.156802997,0.444952011,-0.559705973,-0.249913007,-0.296586007,0.147622004,0.309816003,0.018848499,1.441759944,-0.043338500,0.259801000,0.388013989,-0.014737900,0.008670060,0.371042997,0.041894499,-0.011244400,-0.026937500,-0.744057000,-0.186488003,0.229884997,-0.275849998,0.487069011,0.237681001,-0.591349006,-0.321231991,0.036185902,-1.563549995,0.051532600,0.090218402,
0.820779979,0.050464500,-0.821936011,-0.048625499,-1.265840054,0.319871992,-0.440988988,0.282032013,-0.324075013,0.191999003,-0.005078290,0.103786997,-0.197499007,-0.091415197,0.025377600,-0.172162995,0.204623997,0.385044008,-0.470064998,-0.186077997,0.029148299,-0.223790005,1.159129977,-0.682049990,0.854017973,-0.343156993,-0.338963002,-0.005469200,0.251266003,0.005939370,0.395325989,0.423947006,-0.357955992,-0.547366023,0.244626999,0.046732899,-0.011510500,-0.006316950,-0.239620000,0.859969974,0.230509996,-0.427267998,0.553544998,0.727519989,-0.086429298,0.513767004,0.145723000,0.371964991,0.031473801,0.036663301,
1.237010002,-1.014299989,3.263570070,0.033726800,-5.769209862,0.004330010,-1.871840000,-0.360222012,3.484560013,-0.023069700,-0.569703996,0.540745020,0.106569000,0.373457998,-0.039786801,-7.403870106,-4.734519958,2.236809969,-3.192830086,2.766079903,0.051952600,-0.938953996,0.771907985,-2.286649942,-0.646613002,1.159950018,-3.000950098,-0.006309320,1.089339972,0.037018701,-0.394396007,-3.792129993,-4.058090210,-0.850996017,-1.422829986,-3.849900007,-0.036490802,0.021195700,-0.283650994,0.403450996,3.725749969,-0.315167993,-0.426472008,1.417639971,-3.865339994,0.195056006,1.532379985,0.420612991,-0.048685499,0.007068950,
0.342076987,-0.276811004,0.971823990,0.096556202,-0.239533007,0.309726000,-0.181210995,0.700972974,-0.378526986,-0.946834028,0.252094001,-0.376129001,0.498122007,-0.002525820,0.013839300,-2.537820101,1.589519978,-0.033356901,0.245666996,-0.457134008,0.134203002,0.715314984,0.080184199,0.412497014,0.503297985,-0.226558000,0.450931996,-0.003406850,0.538528979,0.029497800,-0.736649990,1.772860050,0.206671000,-0.253219992,0.144835994,0.295531988,-0.006480350,0.031845201,-0.209116995,0.232621998,0.330947012,0.209875003,0.450127989,-0.016525799,0.064179502,-0.112942003,-0.173444003,0.429587990,-0.038013600,0.121271998,
0.652535975,-0.413782001,-0.006311130,0.112380996,0.585296988,0.106859997,0.114924997,0.171393007,-0.020101000,-0.538066030,0.187013999,0.189079002,0.055520698,0.111006998,-0.013841900,-2.495179892,-0.240134999,-0.904645026,-0.220008999,-0.004224430,0.135860994,-0.124071002,-0.018647101,-0.919795990,-0.366741002,0.017519601,0.611850023,-0.020656999,0.528505027,-0.046762299,-0.413886011,-0.398871005,0.174161002,0.631335020,0.172739998,0.116524003,0.008750580,-0.001589470,-0.132862002,-0.416821003,-0.268186003,-0.736988008,-1.655760050,-0.815949023,-0.369102001,-0.158475995,0.343932986,-0.582647979,-0.021734800,0.148772001,
0.131713003,0.106261998,0.436208010,0.040118199,0.062127601,0.500240028,-0.060851201,0.143650994,-0.540571988,0.109196000,0.110673003,1.358600020,-0.883045018,-0.046498999,0.045950599,1.925500035,0.724990010,1.002550006,-0.436311990,0.979574025,0.022554100,-1.271309972,0.549247980,-0.536262989,-0.697277009,0.421541989,0.207604006,-0.045417499,-0.647063017,-0.005386190,-0.114647001,-0.738201976,-0.124462001,0.232988000,-0.419851005,-0.695536017,0.005781220,0.012916600,-0.513607025,0.781463027,-0.145051003,0.109603003,-0.303207994,-0.036132701,0.329508990,1.133450031,0.473764002,1.472990036,-0.024964601,-0.017948600,
0.292589009,-0.141089007,0.933588028,0.018060600,-4.052000046,-0.369181991,0.783015013,0.551036000,0.362946004,-0.029542601,-0.472470999,-0.719515026,0.049314398,0.200630993,0.029146900,-0.296869993,-4.538129807,0.358337998,-0.347353011,-0.675297022,-0.000123607,-0.437303990,-0.493185997,0.026165400,-0.103281997,0.141743004,1.147819996,0.011008300,0.250218004,-0.019932300,0.302816004,-2.024470091,0.243551999,-0.185053006,-0.115295000,0.128565997,0.019311100,0.033393200,-0.215375006,-0.214384004,-1.854560018,0.089141198,0.229304999,-0.358512998,0.357120991,0.263505012,0.459567010,-0.113319002,-0.039146900,0.016553100,
-0.713966012,0.376370996,0.526238978,0.050821502,0.158460006,-0.068484902,0.386240005,0.634585977,-0.124499999,0.140103996,0.755119979,-0.167871997,-0.391763002,0.510846972,-0.042918500,0.067369401,-0.755195022,0.005683470,0.181875005,0.096981399,0.080021597,-0.352237999,0.568261027,0.619342029,-0.801077008,0.645645976,-0.037604999,-0.016105499,0.163874999,0.018309500,-0.901580989,0.471394002,1.100679994,0.159122005,-0.358031005,-0.317038000,0.035855401,-0.011111900,0.108254001,0.067636698,-0.628158987,0.248209998,-0.154414997,0.125007004,0.360237986,-0.451243997,0.487078995,0.569131017,0.057833899,0.100694001,
1.749780059,0.714555979,1.664299965,0.064054802,0.901503980,-0.457718998,0.073133796,0.258060992,1.526469946,0.825178981,0.375568002,1.086799979,-0.309433013,-0.460435987,-0.011895900,2.053129911,0.961567998,2.937099934,0.036999300,-0.104140997,0.114303999,0.591037989,0.591755986,-0.175372005,-0.728245020,-0.675966978,1.790680051,0.000134551,0.551393986,0.004431850,-0.101976998,-0.400893003,-0.532392025,0.044716500,0.188372001,-0.674519002,-0.037618000,0.011408000,-0.905508995,-0.000206306,-0.036250599,0.491351992,2.436340094,-1.067929983,0.369044989,-0.159428999,0.705572009,0.435986012,-0.007915350,0.122065000,
-0.129877999,-0.791571975,1.386590004,0.061119001,0.266665995,-0.028984699,0.110490002,0.082280397,0.346361011,-0.585856974,-0.271344990,-0.399468005,-0.180819005,0.492870986,-0.014265000,-0.770296991,0.800294995,0.304365009,-0.191040993,-1.058830023,0.154859006,-0.696541011,0.179514006,-0.141880006,-0.247328997,-0.054191701,-0.922362983,0.003165890,-0.655736983,-0.005561670,0.646664977,1.408149958,1.034139991,-0.271389991,0.149363995,0.290215999,-0.036341101,0.019829500,0.163249001,0.081215203,0.271214008,-0.547351003,0.776482999,0.347321004,0.058940701,0.244460002,0.100789003,1.946140051,0.012219000,0.088432103,
0.018180501,-0.325556993,0.069218799,0.110232003,-2.121099949,0.113093004,-0.270752013,0.123868003,0.042425700,-0.308339000,0.044358101,-0.322811007,-0.158150002,0.511407971,-0.032271098,0.143489003,0.125533000,0.285470009,-0.015367300,0.221359998,0.129580006,-0.247925997,0.032816201,-0.225439996,-0.001068470,0.121684998,-0.847277999,-0.036014099,-0.203391999,0.013503500,-0.029519500,-0.317831010,-0.145708993,-0.173454002,-0.073106498,-0.090479597,-0.039254300,0.044716399,0.101598002,0.141203001,0.176994994,-0.096307904,0.144406006,0.400164992,-0.102522999,0.321110010,-0.078130402,-0.925306976,0.045165900,0.141121998,
-0.602586985,0.659586012,-0.453065008,0.049874999,0.887649000,0.540301025,0.952705026,-0.788899004,2.049249887,0.259748012,0.256222010,0.625038981,-0.494670004,-0.308021009,0.033904798,1.692149997,0.227108002,0.232523993,-0.387246013,-0.615077019,0.132613003,-0.761285007,-0.185989007,-2.283930063,0.204513997,-0.282270014,1.990669966,0.018706599,-0.871411979,-0.012682500,-0.131733000,-0.765188992,1.579910040,0.046967801,0.862357020,-0.700130999,-0.022877499,-0.046735000,0.666643977,1.035930037,-0.190715000,0.204925999,0.661651015,1.524880052,0.185733005,0.078207903,0.486380994,2.657629967,-0.010968500,0.110702999,
0.752887011,-0.478471011,1.399940014,0.101255000,0.121252000,-0.277869999,-0.474397987,0.057843398,-0.466960996,-0.345560998,-0.012498600,0.405393988,-0.320457995,0.266687989,0.047351200,-1.348449945,0.053895101,-2.033900023,0.223070994,0.194583997,0.177176997,-0.462163001,0.008046470,-0.647695005,-0.466210008,-0.195710003,-0.093772203,0.043771900,-0.271097004,-0.040362399,-0.024049301,0.507954001,1.544759989,-0.312786996,0.737016976,0.003285780,-0.026196800,-0.022951599,-0.212412998,-0.211118996,0.376242012,-0.327320993,0.380555004,0.391923994,-0.049972199,-0.359118015,0.277866989,0.245395005,-0.002054490,0.155824006,
0.801065028,0.636743009,-0.131133005,-0.012829100,-0.519025981,-1.464140058,-0.052246999,0.310158014,-0.323473990,0.494845986,-0.313019991,-0.590134025,-0.713213980,0.060843799,-0.022210199,-2.089809895,-0.245215997,-0.040245399,0.269194990,-0.111031003,-0.030024100,0.013171800,0.018994199,2.263920069,0.387163013,0.194692999,-1.168059945,-0.031078400,-1.030609965,0.031334300,-0.621309996,-0.255380988,-0.104615003,0.084068701,-0.779694974,0.983465016,0.006954710,-0.038896400,0.557936013,0.094746597,-1.791820049,1.399299979,0.318450004,-0.052986398,0.206504002,-0.335045993,0.333622992,-0.496872991,-0.019479200,0.034042399,
0.276457012,1.619689941,-1.181020021,0.028878300,0.743739009,-0.109058999,-0.541067004,0.466863006,-0.630469024,0.686102986,0.021244699,0.171425998,0.193985000,-0.124269001,-0.030860500,-0.248466998,-0.223281994,0.086946897,0.235018000,0.954241991,0.088923901,0.597814023,0.204529002,0.705347002,-0.487094015,-0.309942991,-0.172163993,0.001309870,0.776314020,0.016151100,1.473049998,0.545248985,0.416667998,-0.019005099,1.497089982,0.114003003,0.008800330,-0.030428700,0.206600994,-0.220065996,0.019831100,0.780426025,-0.209521994,-0.215527996,-0.303979993,-0.049611501,-0.181817994,-0.907975018,0.024247300,0.115428001,
0.568967998,0.740316987,-0.586661994,0.052060600,0.290771008,0.579344988,0.000723060,-0.158878997,-0.884006977,0.482158005,0.231160998,-0.365440011,-0.588853002,-0.072372504,0.008678380,0.126734003,-0.509589016,0.099715799,0.544146001,0.006581530,0.130511999,-0.203093007,1.369390011,-0.946367025,0.342031002,0.034274701,0.872973979,-0.038644601,0.106071003,-0.012284700,-0.135048002,-0.152609006,0.344545007,0.186404005,1.018159986,-0.099590600,-0.007536650,-0.005165170,-0.168873996,0.284862012,-0.577400982,0.271367997,0.238348007,0.157281995,0.443511009,0.117992997,0.306246012,0.340184987,-0.000126777,0.125383005,
0.770981014,0.092069298,0.151785001,0.076829202,-0.779368997,0.423209012,-0.602599025,0.167089000,-1.327890038,0.093124896,0.063042797,-0.219668999,-0.677627981,-0.192911997,0.025479700,1.722350001,0.773796022,0.004684000,-0.485689014,1.211879969,0.149369001,-0.800014019,-0.490456015,3.249639988,0.249763995,0.558407009,1.390830040,-0.001424130,-0.871717989,0.046928801,-0.118371002,-0.668098986,0.276113003,-0.829558015,-0.619069993,-1.533079982,-0.003896540,-0.006966980,-0.915548027,0.467040002,-2.376899958,0.068912402,2.004230022,-0.036906999,0.704617977,-0.611464024,0.001434300,-0.178267002,0.008632200,0.142541006,
-0.982002020,0.305099010,-1.133409977,-0.028965101,-1.265570045,-0.477759987,1.140120029,-0.403638005,0.455154985,-0.242836997,-0.140702993,-1.904569983,0.997941971,-0.550980985,-0.026108500,-1.967610002,-0.173184007,-1.190279961,0.736535013,-1.379699945,0.063262798,1.266280055,0.471123993,0.347541004,-0.200564995,0.907585979,-1.677960038,-0.038973201,-0.014801000,-0.009042440,-0.691554010,1.038859963,-0.722832024,-0.844762027,-0.011266200,0.259938002,-0.025634199,0.043299899,0.884682000,-0.461095005,0.208798006,-0.164215997,-0.431129992,-0.293929011,-0.551209986,-0.921698987,-0.016134700,-0.772531986,-0.033261899,0.045945998,
-0.318832010,0.097511999,-0.480699986,0.006134860,-0.024535701,1.217300057,-1.318259954,-0.407056004,0.334048003,0.141886994,-0.154514000,-0.345966011,1.327950001,-0.659516990,-0.033528201,-1.469830036,0.445858002,-1.112380028,0.212549001,-0.920939028,0.023991499,1.092309952,-0.440140009,0.016406899,-0.458604008,0.773599982,-1.070770025,0.005057570,0.751459002,-0.012734400,-0.356406987,-0.605063021,-2.065540075,0.883994997,0.173690006,0.208333999,0.022957500,0.021192700,-0.177973002,-0.752029002,-0.720116019,0.372195989,0.148884997,-0.804826021,0.812874019,-1.079110026,-0.087316200,-0.988304019,-0.042597901,0.014084500,
0.288769007,-0.012498200,0.922233999,0.003829440,1.460970044,-0.130316004,-0.372823000,0.030976299,-0.175983995,-0.413448006,-0.234540999,-0.194156006,-0.223992005,-0.205703005,0.017174199,0.211384997,-1.829679966,-0.058416601,0.225601003,-0.108282998,-0.060397200,-0.058259200,-0.274488002,-0.313526005,-0.576870024,0.084788799,-0.597630024,-0.024237400,-0.202534005,0.033177499,0.808223009,0.467552990,-0.110776000,0.542768002,0.292665988,-0.229893997,-0.010857700,-0.030642200,0.018644599,-0.704521000,-0.230635002,0.239713997,-0.589875996,-0.220122993,0.141675994,0.547156990,-0.059398599,0.922142982,-0.037584700,-0.022759501,
-0.396930993,-0.027744001,-0.361948997,-0.042727500,0.719237030,-0.117751002,0.252094001,-0.336021006,0.228131995,0.052626401,0.089599602,-0.961872995,0.554582000,0.031950500,0.020811999,-1.142179966,-0.501053989,-1.005849957,0.222956002,-0.601722002,0.035078101,0.816834986,-0.794921994,-0.420807987,0.135120004,0.336955011,-0.222097993,-0.001238850,0.538946986,-0.033078700,-0.376204014,0.113672003,-0.124986000,0.092519499,0.432173997,-0.006201880,0.003112610,0.049865101,0.338842005,-0.744813025,-0.333083987,0.383264989,0.339810997,0.028046800,-0.200779006,-1.035390019,-0.182973996,-1.321159959,-0.000194992,0.079169303,
1.723389983,-0.031544399,0.545637012,0.076619498,-2.443989992,0.284698009,-0.699033022,-0.290410995,-3.181940079,0.496872991,-0.127232999,0.446931005,-0.676612020,0.143946007,0.040040798,2.793709993,1.613800049,0.165419996,-1.270570040,2.528310061,0.186129004,-1.315379977,1.818359971,0.785643995,-0.175574005,-0.342577994,1.118710041,-0.034982301,-0.355780989,0.001425570,0.618596971,-0.344758004,0.019533301,1.186849952,0.361454993,-0.479647994,-0.022920201,-0.014909900,-0.145175993,0.755882978,-0.798601985,0.201969996,0.278614998,0.512371004,0.308633000,0.660732985,0.199915007,1.000970006,-0.001595820,0.153894007,
0.131796002,0.688162982,-0.344588995,0.078513399,0.316789001,-0.081376404,1.163110018,-0.016175799,-0.181685001,-0.632421017,-0.121035002,1.216560006,-0.080960698,-0.148846999,0.033858899,3.263570070,0.110504001,-0.731725991,-0.416249007,1.425770044,0.144213006,-0.265877008,-0.600287020,-2.235549927,-1.024680018,0.250160009,0.176002994,0.036726300,0.774993002,0.006856420,-0.473118991,-2.148969889,0.565892994,0.450599998,2.346460104,0.543649971,0.013118700,0.017444899,0.440396994,-0.053165201,0.507852018,0.131305993,0.291020006,0.905180991,-0.360083997,-0.522800028,-0.338658005,0.301028013,-0.014425500,0.106123999,
0.077443697,0.014734100,0.024067800,0.023372600,0.030741500,-0.051839702,0.015614700,0.010004100,0.003139090,0.061632901,-0.036316998,-0.043001201,-0.091353901,-0.000038971,-0.013279000,-0.068892501,0.035135198,0.040791102,0.009182010,0.030116800,0.074939497,0.006993910,0.127013996,0.053141899,-0.030232500,-0.067186899,0.008680820,-0.044362102,0.073862404,-0.031499200,-0.016141800,0.047109202,-0.002502230,0.029918499,0.079429097,-0.009357850,0.035633299,0.039980799,-0.051570199,0.009752180,-0.020956401,0.002212780,0.003431610,0.030414701,0.007203350,-0.016208600,-0.014563500,0.110050000,0.016517300,0.119441003,
-0.386795998,-0.140492007,-0.132418007,0.106495000,0.163654000,0.058824301,-0.042885501,0.549571991,0.051881500,0.124289997,0.190726995,-0.002984050,-0.144867003,-0.161532998,0.020439399,-0.001439280,-0.583875000,0.066472404,0.350917995,-0.166056007,0.084963299,0.230134994,0.288394004,0.254256994,-0.053421501,-0.056781501,-0.164516002,-0.021611599,0.147786006,-0.009492680,0.365915000,0.363617986,0.303337991,-0.156294003,0.078499399,-0.074505098,0.040475901,-0.013893900,-0.306917012,-0.205111995,0.130707994,-0.034809802,-0.082539499,0.048644699,0.360312015,-0.018421199,0.021375200,-0.651978016,-0.036049899,0.141562998,
0.959129989,0.210980996,0.217299998,0.085908100,0.386294007,-0.213318005,-0.232988000,-0.610687971,1.088060021,-0.410540015,0.793596983,-0.997470975,-0.244266003,0.560944974,0.037050299,0.062505104,0.575367987,0.901751995,-0.273151010,-0.579071999,0.111389004,-0.816757023,-0.339172006,-0.164847001,0.041357499,0.438715994,-0.183991000,-0.037313599,-0.127471998,-0.025934400,0.491908997,-0.913453996,0.998273015,0.060466502,-0.189198002,0.323794991,-0.021595201,-0.013088400,-0.627761006,-0.734404027,1.070979953,-0.132341996,-0.199258000,-0.033078101,-0.439168006,0.015017800,-0.211848006,-0.054209199,-0.006833880,0.183139995,
-1.705049992,-0.651337028,0.923727989,0.113360003,-1.031290054,1.290099978,0.438281000,0.289811999,-1.329259992,-0.239628002,-0.195411995,0.462772995,-0.626833022,0.076824300,-0.000864225,-1.656999946,0.658107996,2.041739941,0.383248001,-0.155399993,0.128018007,-0.224594995,-0.577380002,-3.302210093,0.189979002,-0.149700999,1.702129960,0.014787000,-0.479339004,0.047922399,0.411769986,1.107319951,-0.361241013,0.354503006,1.251099944,0.292097986,-0.017204300,-0.018050199,-1.087669969,-0.340808004,0.320782006,-0.188971996,1.232789993,-0.020847401,0.698958993,0.027023500,-0.606436014,1.776080012,-0.042128999,0.124136001,
0.352364987,-0.200316995,-3.958909988,0.046117600,0.039442599,-0.290324003,-0.385919988,-0.048363399,-0.555859029,0.312705994,-0.239660993,0.410243988,-0.303377002,-0.186956003,-0.024923200,-0.422190011,-0.976217985,-0.038587298,0.251280993,0.520904005,0.035153098,-0.298846006,-0.055110302,-0.616491020,0.321063012,-0.380335987,0.277426004,-0.008366180,0.517136991,-0.015417900,0.582706988,0.189107001,-0.051817302,-0.214503005,-0.514837980,0.206217006,-0.028278301,-0.013366200,0.130542994,0.136016995,0.729916990,0.410834014,0.385033995,0.588815987,-0.108081996,0.180952996,-0.118887998,0.714165986,-0.028101500,0.004963390,
0.447196007,-0.577745020,0.497761011,0.015403000,-0.228952006,0.008189580,-1.214990020,-0.034019802,0.831434011,-0.363837987,0.027118901,-1.116539955,1.093580008,0.066190198,-0.036678299,-2.145169973,0.556255996,-0.850337029,0.204913005,-0.952539980,0.057648599,1.297930002,-0.481195986,0.866684973,0.356366992,-0.984879017,0.535517991,-0.056774400,0.762015998,0.003986310,-1.814399958,-1.977990031,-0.253717005,0.440566003,0.725915015,0.974743009,-0.012210500,0.017328599,-0.182417005,-0.480046988,-0.485174000,-0.172146007,0.375858992,0.058520101,0.059477501,-1.144739985,-0.291631013,-1.050070047,-0.016323000,0.083800398,
-0.072153203,-0.413915008,-0.418054014,0.034887802,-0.817433000,-0.399190992,-0.552109003,0.287620991,0.163047999,0.002763150,-0.040245902,-0.243912995,0.020147800,0.220521003,-0.033443201,-0.357528001,1.040089965,0.071862198,-0.199652001,-0.284125000,-0.009354090,0.110937998,-0.326171994,-0.044110201,0.466069013,-0.484750003,0.074594401,-0.020599101,0.014110700,-0.035330500,0.247657999,-0.905938983,0.775188982,-0.286426991,0.631839991,0.048323900,0.012387900,0.031211801,0.167519003,-0.074105598,0.283347994,0.804419994,0.035476599,-0.384469986,0.053345300,0.006776100,0.136289999,0.447530001,0.038172100,-0.009673730,
0.639243007,0.273815989,-0.824838996,0.061209999,0.507955015,-0.507794023,-0.660201013,0.113320000,1.421599984,-0.774176002,0.059468899,-0.300563008,-0.299989998,-0.117757998,-0.046212502,-0.891632974,0.253277004,-0.697957993,0.330940992,-0.519765019,0.109357998,0.330879003,0.007530490,2.782140017,-0.159542993,-0.011101200,-0.051940799,0.010256100,1.786219954,0.028516300,-0.469056994,-1.566339970,-0.299804002,0.098937400,0.049249802,0.461429000,0.038796701,0.030060900,0.739615977,-0.544767022,0.137294993,1.005030036,0.676431000,0.640623987,0.922981024,0.760812998,0.152070999,0.801751971,-0.000862452,0.108644001,
1.597169995,0.118666001,-1.478790045,-0.034572501,-1.106940031,0.484526992,-0.106867000,-0.566471994,0.162419006,-0.495276004,0.053636599,-0.733101010,-0.123822004,0.154949993,-0.037019100,0.590439022,0.654492974,-7.268129826,0.712321997,-1.198269963,0.052163798,0.565083027,0.013802300,0.530834019,-0.841048002,-0.166354001,0.408199996,0.030410100,-0.512736976,0.011079700,-0.172325999,3.131269932,-0.007502660,0.145279005,-0.389324009,-0.565945983,-0.030340500,-0.005473650,-0.423179001,-2.193059921,-0.496843994,0.262183994,-0.978663027,-0.328334987,-0.778024971,-0.515330970,0.988193989,-1.850039959,0.032775201,-0.036668502,
0.063130103,-0.448220015,1.552170038,0.083485402,0.341239989,0.283679008,0.165076002,0.194563001,0.147365004,-0.583130002,0.296115011,-1.095000029,-0.611109972,-0.557081997,0.045783300,1.382019997,-0.078771397,0.932485998,-0.425136000,-0.075617500,0.142186999,-0.389263988,-0.159156993,1.653149962,-0.038922202,0.779263973,0.993300974,0.014482900,-0.347676992,-0.013500100,0.082229003,0.716764987,0.672501981,-0.075066097,-0.924431026,0.366762996,0.035234600,-0.027148500,-0.172581002,-0.353531003,1.578179955,-1.317039967,-2.166199923,0.418103009,-0.387926996,-1.083490014,-0.713613987,-0.758575022,-0.005558850,0.188555002,
-1.460659981,0.940151989,0.516914010,0.050962102,0.299879998,-0.530228972,0.625957012,0.502460003,-0.639109015,1.331069946,-0.102669999,0.135961995,0.192309007,-0.060485698,0.000400672,2.967329979,0.920572996,0.753602982,-0.618700027,2.325439930,0.123498000,-0.584186018,0.732034981,2.998899937,0.454432011,0.550347984,0.290932000,0.007059120,0.342433989,-0.020050701,0.923547983,-0.643455029,1.059039950,0.083118103,0.380299002,-1.719310045,-0.037935499,0.033376500,-0.105595000,0.606525004,-1.719879985,0.560998976,-0.558418989,0.123894997,1.218530059,0.169683993,0.567713022,0.063764997,0.013746000,0.111795001,
-0.329144001,-0.027510799,0.409559995,-0.037354201,0.435858011,0.163707003,0.421180010,-0.122973002,-0.164212003,-0.127180994,0.003456860,0.378986001,-0.177989006,0.303009003,0.018642901,0.402063996,-0.534687996,0.325340003,-0.096956402,-0.127816007,0.021336000,-0.207378000,0.418047011,-0.190645993,0.416070014,-0.123466998,0.631699979,0.021947799,-0.255423009,0.044737201,0.633700013,-0.071460597,0.507207990,-0.168736994,-0.381146997,-0.079906501,-0.031626798,-0.038197301,-0.275622010,0.205083996,0.272291988,-0.130328000,-0.078497902,-0.036753900,-0.334760010,0.402532011,-0.206285000,-0.392729998,0.027341800,0.005645440,
-0.319900990,0.917761981,0.320894003,0.048017900,-1.073240042,-0.114680000,0.458557010,0.372644991,1.126019955,0.340714008,0.049933001,-0.895569980,-0.969323993,0.091964401,0.001145970,-4.018859863,0.106132999,0.251498997,-0.033242699,0.627839029,0.083284102,-0.378255010,-0.354966998,3.973740101,-0.157628000,0.633014977,-0.183543995,0.017564399,-0.511391997,0.043574799,-0.117816001,-0.138906002,1.535500050,-0.517669022,-0.983011007,-0.233988002,-0.001278650,-0.001356190,0.489951015,0.240125000,-0.217877001,-0.286716014,-0.058187101,-0.859602988,-0.412627012,-1.060420036,0.282263994,-0.253398001,0.004382690,0.127758995,
1.299589992,0.047173802,-0.627189994,0.077868998,0.881192982,0.362356991,-0.176908001,-0.305799007,0.290381998,0.857101977,-0.725718021,0.316022009,-0.380052000,0.014061400,-0.004410780,0.211088002,0.018409200,0.218594998,0.349696994,-0.032596201,0.158941999,0.333968997,0.337163001,-0.343362004,0.439637005,-0.210210994,0.258677989,0.014680000,-0.296514004,0.028867301,0.713440001,-1.897869945,0.088927701,0.271793991,-0.482755005,0.162452996,0.010162500,0.014601900,0.082807198,0.320914000,-0.093752600,-0.093014799,0.211054996,0.880463004,0.000276844,-0.349911988,1.111529946,-1.227920055,-0.010965200,0.125988007,
2.761549950,-0.076899096,0.391961992,0.022242701,1.055019975,0.375721991,0.783756971,0.581378996,1.286249995,0.508388996,-0.060445499,0.592034996,-0.013342600,-0.230002001,-0.001183610,1.896420002,0.926681995,2.420039892,-0.928699017,0.499823004,0.150702998,-0.647871971,1.369979978,1.048339963,-1.795670033,-0.207338005,2.578409910,0.010785700,1.527660012,-0.011300900,0.047722600,-0.641763985,0.769713998,0.439579993,-0.065867603,0.054391500,0.024794901,0.031498902,-0.722150981,-0.861360013,-0.007902510,-1.262249947,-0.115515001,-0.010601700,-0.876754999,0.448996991,0.342141002,-2.743390083,-0.005904000,0.134910002,
0.785214007,-0.192561001,0.576395988,-0.029572900,0.851359010,-0.337242007,0.450040013,0.224868998,-0.960627973,0.136274993,0.085741997,-0.073370703,-0.263700992,0.228707999,0.042343300,-0.204652995,-1.348049998,0.730368018,-0.324331999,-0.283787012,-0.005797860,-0.605228007,0.082544699,-1.114400029,-0.124803998,0.194597006,0.184835002,0.005292380,0.703895986,-0.042335801,0.364237994,-0.257977992,0.400709987,-0.040337302,0.237981007,0.069169700,0.028612001,-0.027053300,-0.444115013,-0.028739000,-0.070692301,-0.937475026,-0.839618027,-0.549758971,-0.392271012,-0.456182986,-0.145258993,0.553619981,0.009568950,-0.015462500,
-0.340117007,-0.348720014,-0.180298001,-0.032561898,-0.037611399,-0.343890011,-0.261777997,0.026484100,-0.220422998,-0.038659502,-0.117211998,-0.137208000,0.087081403,0.255447000,0.019653101,-0.325704008,-0.392717987,-0.030493600,0.115480997,0.092940398,-0.062516101,0.091001697,-0.358741999,0.192636997,0.170397997,-0.075400099,0.354384005,-0.039623301,0.023267200,0.041178800,-0.655170977,0.593954980,0.274177998,-0.158216000,0.018102700,0.244799003,-0.000292941,-0.024805499,-0.205087006,-0.370047003,-0.100195996,-0.316186994,0.545786977,0.052002899,0.080850303,-0.111961000,-0.182955995,-0.103863001,0.011550900,0.001705440,
-0.072541900,0.119065002,0.115906999,0.020305200,0.164566994,0.268310994,0.011945000,0.056276601,-0.250420004,-0.530925989,0.150101006,1.047060013,-0.397552997,-0.157379001,-0.005822770,0.824660003,0.199391007,0.333853990,-0.212049007,-0.447975993,0.050547101,-0.570720017,-0.280703992,-0.787034988,-0.126708001,0.069482602,0.208883002,0.021429900,-0.283751011,0.019758800,0.221055001,-0.780844986,0.371906012,0.299315989,-0.366829991,-0.686119020,-0.027654700,-0.022324100,-0.230014995,0.382261992,-0.339192003,0.127427995,0.142700002,-0.035259500,0.177667007,0.303580999,-0.086362697,-0.023567401,-0.007728220,0.012498800,
-0.467837989,0.170598999,0.635905027,0.080760598,-0.194738001,-0.168972000,-0.874058008,0.525582016,0.362109005,-1.851430058,0.242605001,0.440724999,-0.708594024,0.220014006,-0.005137730,-0.585413992,-1.252269983,0.125628993,-0.107245997,-0.267048001,0.080153801,0.003751630,0.223064005,1.162590027,0.333804011,-0.149235994,-0.895861030,0.040742200,-1.000049949,0.013991500,0.087221302,-0.739997983,0.134325996,0.054073300,-2.426520109,0.459179014,-0.036205299,0.031595200,0.095245600,0.059336901,-0.726177990,-0.739345014,0.703606009,0.757842004,0.611249983,-0.693163991,-0.005555570,-0.126806006,0.032316402,0.112470001,
0.791518986,0.223655000,0.074935399,0.090053201,-1.225409985,-0.329829007,-0.505962014,-0.030722700,-0.010087300,0.217869997,-0.110243000,-0.028553700,-0.462951005,0.087849103,-0.043940000,0.451301992,0.664528012,0.276596010,0.123037003,0.043402702,0.112930998,0.022777800,0.480924010,0.430464000,0.455794007,-0.141182005,0.388024986,-0.029963700,0.058777500,0.050103299,-0.558681011,0.231318995,-0.036914598,-0.067892402,0.337020993,0.149142995,-0.013899800,-0.014323800,-0.618749022,0.108023003,-0.032365900,-0.244409993,0.569671988,-0.048092902,-0.272754997,-0.143702000,0.173112005,-0.959527016,-0.040642001,0.096156202,
-0.157565996,0.098772600,-0.890235007,-0.024444001,-0.434114009,0.833189011,-0.354903996,-0.354018003,0.015162500,0.458030999,0.161108002,0.366456985,-0.106431998,-0.556706011,-0.010856100,0.213434994,0.335359991,-0.043538801,-0.043283999,0.131393999,0.032020599,-0.190430999,0.310061991,-0.246228993,-0.465121001,0.641376972,-0.333175987,-0.001801270,-0.266519994,-0.014298100,-0.170283005,-0.240786001,-1.090100050,-0.173106000,-0.151821002,-0.292454988,0.020918200,-0.003384690,-0.266669005,0.056035299,-0.062563799,0.441469014,-0.469565988,-0.450340003,0.523693979,0.077549800,0.295940995,0.446624011,-0.037497301,-0.001116620,
0.151005998,
0.788855016,
-1.198189974,
-0.588841021,
-0.397128999,
-0.280633986,
1.685150027,
-0.601903975,
-1.641780019,
-2.115329981,
-0.043094199,
-0.758154988,
-0.078554697,
1.350020051,
-1.826869965,
-1.043509960,
-0.551186025,
-2.163539886,
-0.843102992,
-0.214915007,
-0.811592996,
0.556531012,
0.552811027,
0.106678002,
0.484748989,
0.345425010,
1.126479983,
-1.046890020,
-1.767009974,
-0.141982004,
0.818751991,
-1.427729964,
-0.883322001,
-0.588858008,
1.003309965,
0.323603988,
-2.166929960,
0.347707987,
-0.613440990,
-3.379669905,
-0.318204999,
-0.065882303,
0.234264001,
-1.055920005,
0.774119020,
0.447804004,
-0.554389000,
-0.836421013,
1.226369977,
0.249711007,
-0.008850360,-0.655270994,-0.784030020,-0.863779008,-1.714179993,-0.521209002,-0.867628992,0.451593012,0.233877003,-0.065151401,-6.159019947,-1.159360051,-2.622859955,0.407193989,-0.131323993,0.441359013,-0.496708989,0.190494999,-0.091948599,0.627406001,-0.049237601,1.046679974,1.598099947,0.433048010,-1.037400007,-2.528310061,0.171983004,-0.396575004,-0.991083980,-0.011985800,-1.062399983,-0.869702995,0.921841025,0.578939021,-0.607640982,0.072571702,0.269044012,0.632632017,-0.016299900,-0.089211799,0.524623990,0.861967981,-0.527882993,0.314698011,0.589848995,-2.702860117,-0.992298007,0.286316007,-0.479009002,0.389782995,
0.449579000,-0.166097999,1.060709953,1.022840023,0.599803984,0.170612007,0.060080599,0.801501989,0.112534001,-0.002072110,1.687039971,2.895119905,0.490927994,0.531121016,0.039818499,-0.160698995,-0.039994899,0.361896992,1.092260003,0.510160983,0.106825002,0.029115200,-0.057688199,1.113289952,0.296180010,-0.415336996,1.673689961,-0.351033002,-0.019880800,0.021102499,-0.400283992,0.550670028,0.654592991,0.827480972,1.142529964,0.359533012,-0.069462903,0.667784989,1.090119958,-0.373293996,-0.109878004,0.602602005,-0.272152990,0.184858993,-0.710152984,-0.457157999,0.469449013,-0.085387602,-0.492372006,0.455702990,
-0.057200398,0.354768008,0.189552993,0.282077014,0.450172007,-0.401791006,-0.156340003,-0.022198901,-0.185054004,-0.292259008,-0.418929011,-0.917779028,0.917764008,0.242850006,0.431133002,-0.132974997,-0.294788003,0.133761004,-0.409426987,-0.111094996,-0.000016395,-0.077386498,0.149342999,-0.230287999,-0.096941300,0.226506993,-0.310411990,-0.006533940,0.575702012,-0.077691101,0.016305801,-0.138073996,-0.299091995,0.545104980,-0.216989994,0.149977997,-0.026219700,-0.147402003,0.247784004,0.204671994,-0.052129101,-0.537554979,-0.006109590,0.184419006,0.035445999,-0.397235006,0.204549998,-0.133397996,0.378087997,-0.189383000,
-0.242932007,0.444249988,1.709599972,-1.064450026,-0.578732014,0.744828999,-0.560460985,0.517961025,0.274475992,-0.785771012,-2.080800056,-3.132440090,-0.888028026,0.030888099,0.985303998,0.001235730,-0.345385998,-0.624109983,-0.959107995,-0.570222020,0.192357004,0.097871497,0.328081012,-0.626780987,-0.398454010,-0.035390701,0.468661994,0.562869012,2.061680079,0.126990005,-0.258839995,0.501459002,-0.451016992,-0.911648989,-0.587619007,-0.016259300,0.145953998,0.541338027,-0.705833972,0.592413008,-2.136070013,0.280223012,0.058060799,-1.147099972,0.062742099,0.909448981,-0.244660005,0.338279992,-0.397742003,0.530112028,
0.152299002,-0.126451001,0.029009100,-0.093316697,-0.100757003,0.040701300,0.116943002,0.170821995,0.055472299,-0.621499002,-0.154593006,0.281744003,-0.398057997,0.329183012,-0.353944004,-0.146393001,-0.503865004,0.284915000,-0.072166800,0.023646699,-0.046330798,0.065329403,-0.231778994,-0.001187000,-0.049332600,-0.038736898,-0.122387998,-0.094734401,-0.249828994,-0.021482000,-0.376116008,-1.035770059,0.272513986,0.348675996,0.045255098,0.148432001,-0.241718993,0.226982996,0.592552006,-0.047149200,-0.228695005,0.262865007,-0.111511000,-0.072342001,-0.240091994,-0.071177401,-0.582168996,-0.063158497,0.351772994,0.059373599,
-0.101216003,0.715945005,-0.299529999,-0.043935198,-1.253129959,-0.090002403,0.245827004,-0.215544000,-0.508001029,0.068364300,-0.538039029,-0.048127700,-0.081924103,0.720292985,0.015845999,0.211361006,-0.525368989,-0.218634993,-0.422060996,-0.294766992,0.124559999,-0.005893280,-1.077999949,0.008349690,-0.347353011,0.592202008,-0.481846988,-0.022559701,-0.073593497,0.139449999,-0.723757029,0.043072701,0.401445001,-0.060136098,0.725154996,-0.347559005,0.183350995,0.824877024,-0.738996983,-0.217637002,-0.351868987,0.093110099,-0.261161000,-0.531018019,0.116281003,0.667087018,1.437299967,-0.729097009,-0.123373002,0.362690002,
-0.167232007,-0.159345999,0.136252999,0.907593012,0.427040994,-0.018863101,0.179653004,-0.408143014,-0.503645003,0.320077002,-0.572610021,-0.347829998,0.172010005,-0.086352304,-0.977186024,0.469850987,1.102579951,0.095972396,-0.102725998,-0.603599012,-0.180248007,0.453334987,0.554112017,0.003400110,-0.481038988,0.504328012,0.364838004,-0.132311001,0.000980743,0.150392994,0.808637023,1.071390033,-0.430072010,-0.440865993,0.598480999,0.592953026,-0.081363499,-0.314471006,-0.354553014,0.372222990,0.521441996,0.137820005,0.337318987,0.188214004,-0.312792987,-0.591100991,0.694061995,1.152760029,0.115534000,-0.323516011,
0.014312800,-0.046952002,0.486707985,-0.654807985,0.398768008,-0.604785025,0.109945998,-0.099224798,-0.437745005,0.574032009,0.239264995,-0.509535015,-1.585219979,-0.075187102,0.208001003,-0.279334992,-0.650458992,-0.126283005,0.046316501,0.048438501,0.036890998,-0.152774006,-0.069534503,-0.047034301,-0.118176997,0.019262901,0.446431994,0.093875900,0.139578998,0.142281994,0.259027004,-0.676522970,0.438230991,0.036846101,-0.215646997,0.120741002,-0.216031998,-0.209848002,-1.776000023,0.419243008,-0.029880401,-0.911210001,0.247254997,-0.085871398,-0.901803017,-0.107949004,-0.029966399,-1.105780005,0.250770986,0.171811000,
0.206753999,-1.200230002,0.525703013,0.573468029,0.646988988,-0.371234000,-0.061105300,-0.009179560,0.252802014,0.622573018,1.722659945,0.245190993,-0.009510780,0.222257003,0.067457803,0.699010015,0.104088001,-0.036416300,1.708240032,0.192392007,0.318455011,0.176827997,0.001170410,0.636812985,0.527180016,-0.200865999,0.034203500,0.159036994,-0.204193994,0.110349998,-0.228737995,-0.691556990,0.558746994,1.526239991,0.336232990,-0.208067000,-0.574582994,0.729834974,0.961813986,-0.222259000,0.769895017,0.738402009,-0.695195019,0.392417997,-1.395939946,-0.788901985,0.472712994,0.650399029,-0.385814995,0.633132994,
0.006176360,0.238049999,0.154596001,-0.121978000,1.980589986,-0.717015982,1.408679962,-1.672639966,0.067925803,-1.039299965,-0.515021980,-1.259299994,0.416359991,0.343905985,-0.409285009,-0.404276013,1.928380013,0.919375002,0.572432995,-1.035069942,-0.782109976,-0.123150997,-0.620393991,-1.245830059,1.238080025,-0.648737013,-1.030750036,0.522336006,0.803677976,0.175380006,0.069246300,0.379157990,-0.446976006,0.720710993,0.518944025,0.253778994,-0.415436000,0.217926994,-0.012041800,0.738018990,-0.839801013,-0.506623030,0.129986003,-0.964654982,-0.179073006,-1.001080036,-0.553573012,0.078883298,1.876090050,-1.487239957,
-0.497123986,-0.221325994,0.214381993,0.687368989,0.495256990,-0.028234599,-0.629153013,-0.134985000,0.250840008,-0.291204989,0.745118976,0.097868197,0.276986003,-0.160879999,0.680356026,0.670081019,1.100489974,0.083218202,0.649272025,0.499255002,0.361582994,0.063325897,0.392040998,0.249578997,-0.103212997,-0.277965993,-0.679147005,-0.092105299,0.043869801,-0.020487901,0.099841297,1.046100020,-0.120672002,-0.314812988,0.561622024,0.391115993,0.017249800,-0.269580990,0.261530012,-0.091787100,0.316899002,-0.648544014,0.000234734,-0.239070997,0.030071100,-1.557540059,0.483025998,0.214252993,-0.230989993,-0.055618800,
-0.037326500,-0.031887800,0.038446501,0.018176399,-0.049002200,-0.043237701,-0.043909200,-0.002162120,0.026694100,-0.027533799,0.006505320,-0.052485202,0.027622500,0.026143100,0.028147699,-0.035318401,-0.007811200,-0.017301900,0.016959099,-0.040421501,-0.035370398,-0.001288590,-0.052851699,-0.019470099,-0.011075300,0.015686899,0.018536801,0.031618200,-0.001545690,-0.010047600,-0.005566000,-0.049559601,0.019929200,0.026768001,-0.015375300,0.025931900,-0.040837798,-0.042949200,-0.014630800,0.004766570,-0.021244500,-0.037609901,-0.050405100,-0.044887200,0.048921801,0.048563901,-0.038093500,0.008990760,-0.028630801,-0.002121020,
-0.116700999,0.374754012,-0.398986995,0.105573997,-0.675746024,1.166520000,-0.112126000,0.342619985,-0.156618997,-0.234001994,-0.109474003,-0.406910986,-0.281311989,0.670592010,-0.409143001,0.988039017,-0.097511098,0.182630002,1.048589945,0.484212995,0.065215498,-0.348922014,0.392277002,-0.541580975,-0.239621997,0.389690995,-0.102659002,0.221970007,0.238601997,0.080202296,-0.142660007,0.479698002,0.237223998,-0.492381006,0.061410099,0.423671991,0.262802988,-0.130747005,-0.153328001,-0.133038998,0.754256010,0.059618101,-0.092692800,-0.039379500,-0.048694398,0.963418007,-0.486194015,-0.138561994,0.100567997,0.150220007,
-0.685374022,-1.060719967,-1.252339959,1.342910051,-0.000065439,0.276378989,1.207890034,-2.202039957,-0.622820020,-0.647767007,-0.779945016,-2.967119932,-1.451959968,0.201961994,0.347748011,-2.068360090,-0.285654992,0.536845028,-0.712746024,-1.769639969,-0.173234001,0.784415007,-0.553932011,0.001792510,0.844514012,-0.774124980,-0.702991009,0.436569989,2.561350107,-0.030434800,0.532042980,-0.835422993,0.505279005,0.288439006,1.097669959,-0.184011996,-0.528957009,0.006987050,0.849793971,-0.792030990,0.693400025,2.039819956,-0.958140016,0.565181017,-0.894968987,-0.460855007,-0.300157011,-0.069233902,-0.108719997,-1.859570026,
-0.146944001,-0.041084100,0.112427004,0.324887991,-0.615006983,-0.044591900,0.155555993,0.232564002,0.056967601,-0.501385987,-1.093539953,0.239831999,-2.635910034,0.424946010,-0.474738002,0.032929100,-0.631995022,0.299010009,-1.959400058,0.211611003,0.277208000,-0.340938985,-0.263500005,-0.295518994,-0.009627500,0.350041986,0.629705012,0.234898001,-0.057662599,-0.012689900,-0.348365009,-0.962190986,-0.205963999,0.087117098,0.119243003,0.359108001,-0.138088003,0.145722002,0.613137007,-0.106192999,0.178699002,-0.246301994,0.063212700,0.042357601,0.518224001,0.633542001,-0.262569994,0.313053995,0.216495007,-0.078927100,
0.173437998,-0.276692986,0.575471997,-0.525910020,1.023569942,-0.722841978,-0.607912004,0.807497978,0.021157401,0.800689995,0.171899006,-0.860611022,1.500190020,0.192653000,-0.139420003,-6.993539810,0.948940992,0.128533006,0.984471977,-0.214307994,-0.200359002,-0.234203994,-0.401564986,0.097790897,-0.042604800,-0.191577002,-0.257380992,-1.194569945,-0.793079972,-0.047711700,0.266609997,-1.029340029,1.262639999,0.342101991,-0.288336009,0.313620001,0.061657101,0.207580000,-1.773620009,-0.311450988,0.250414014,0.344321996,0.186161995,0.433618009,1.479259968,-0.263092011,0.014612900,1.209900022,-0.875910997,0.481465995,
0.418606013,0.069627799,0.559907019,-0.275196999,0.861007988,0.164183006,0.404413015,-0.113251001,0.699230015,-0.531233013,0.335413009,-0.049442600,0.866066992,-0.300677001,0.317066997,0.784075022,0.435559005,-0.187235996,1.203369975,-0.445073992,0.258412987,0.655070007,-0.612695992,-0.432318985,-0.750985026,-0.405110002,-0.683842003,-0.061636701,0.628702998,0.058217201,0.649178028,0.360431999,0.160693005,-0.107203998,0.030498600,-0.171403006,0.067701504,0.621957004,0.283576012,0.788118005,-1.816570044,0.380275011,0.416153997,-0.333090007,0.039579298,-2.805779934,-0.508926988,-0.632951021,-0.493941993,-0.294530004,
0.075425498,0.447991997,-0.218006000,-0.187171996,-0.238308996,-0.137154996,0.351244986,-0.166128993,-0.092523299,0.166437998,0.206883997,0.235939994,0.023833200,0.173320994,0.019523900,0.239913002,-0.069074102,-0.020057000,0.046979100,0.049026798,-0.000043561,-0.187112004,-0.102211997,-0.068482198,-0.320571005,-0.247273996,0.076290503,0.057144001,0.046748102,0.116255999,0.066253997,-0.724355996,-0.132727996,0.221884996,-0.052638799,-0.264299005,0.499504000,0.010757100,-0.607069016,0.064050399,0.149398997,0.026306700,-0.067829199,-0.182962000,-0.099388704,0.312431991,-0.325518012,-0.346836001,0.226298004,-0.364093989,
0.036934700,-0.934937000,1.994449973,1.472720027,0.103248000,0.353233993,-1.092849970,0.364207000,-0.104594998,0.877359986,0.622888982,-0.821304977,2.206909895,-0.483215004,0.291667014,-0.356303990,0.613801003,0.471424997,-2.496850014,-1.172340035,0.435983002,0.486494005,-0.617793024,0.287207007,-0.040995900,0.126867995,0.297230005,-0.342646003,1.241289973,-0.009449510,1.436239958,-1.060840011,0.405239999,-2.954099894,-0.181953996,-0.888083994,0.472182989,0.150299996,-0.908982992,0.231941998,0.039479699,1.281739950,-0.009179850,-0.239403993,-1.002830029,-0.351375014,1.695209980,0.634352028,1.167549968,-0.622497976,
-0.027519500,0.323926985,0.006508230,-0.072718702,-0.169067994,-0.287901998,-0.286354989,-0.024542199,0.034717400,0.022803601,-0.089943402,0.123952001,-0.202369004,0.109412998,-0.213786006,0.418725997,-0.553346992,-0.020381300,-0.135247007,0.009106280,-0.071519002,-0.053626601,-0.025451800,-0.087721303,-0.130533993,0.052814800,0.238263994,-0.072325103,-0.039604999,0.124185003,0.829841971,0.436405003,0.039670002,0.274122000,-0.007214260,0.085809797,-0.153411001,-0.032559399,-0.136877999,0.012388900,-0.308878005,-0.031801801,0.050110299,-0.085975602,0.088548400,-0.192208007,-0.362468988,-0.194703996,0.466616988,-0.091607697,
0.584371984,-0.207962006,-0.076747999,-0.164615005,0.179502994,0.099095397,-0.637612998,0.196129993,-0.430070996,0.475497007,-0.417084992,-0.056949500,-1.781999946,-0.346623987,0.219963998,-0.005606940,-0.372238010,-0.258421004,0.196163997,0.156359002,-0.158277005,0.253495008,-0.287066013,-0.408172995,0.044940799,-0.042405799,-0.486804008,-0.153238997,-0.111179002,0.038288601,0.227855995,-0.584972978,-0.371107012,0.048748199,-0.464902997,-0.036112599,0.090262398,-0.195237994,-0.156203002,0.109485999,-0.039046500,-0.384308994,-0.271124989,0.083012097,-0.549203992,-1.069980025,0.118055001,0.201534003,0.397502989,0.915592015,
0.492823988,-0.492718011,1.094290018,0.667675972,-0.717320025,0.240436003,-0.983497024,0.342788011,0.628448009,-0.057448301,-0.933055997,0.136375993,-0.952906013,0.162400007,0.478437006,-1.063599944,0.249690995,1.331150055,0.472943008,-0.258807987,-0.085887603,-0.049710602,0.259539008,-2.036000013,-0.284202993,-0.227915004,1.303830028,-0.238757998,0.886409998,-0.028906301,0.658213973,1.285249949,0.253055006,-0.970979989,-0.492332011,-0.243627995,-3.921509981,-0.910224020,-0.666697979,-0.767749012,-0.210461006,0.024681499,-0.631936014,-0.293814003,1.122490048,-0.010961900,-0.997016013,1.068130016,0.552908003,-1.422930002,
0.099672101,-0.128378004,-0.370303005,-0.307282001,0.888893008,-0.073535703,0.696090996,-0.645630002,-0.023192300,-0.234954000,0.433165997,-0.493414015,0.453855008,0.140053004,0.914614022,-1.066159964,0.755487025,0.563875020,-0.703288019,0.154235005,0.106775001,-0.158364996,-0.756181002,0.070947297,-0.164554998,0.719117999,-0.973924994,0.096527703,-0.741775990,0.156700000,-0.645888984,-0.340959996,-0.505024016,-1.086320043,0.444505990,0.865619004,0.275323987,-0.338934988,-2.790990114,0.654003978,-0.466125011,-1.286290050,-0.326768011,-1.342249990,0.207197994,-0.369877994,1.053480029,0.115943998,-0.212534994,0.430554003,
-0.240924001,-0.370613009,2.360239983,-0.298198014,-0.096058197,-0.256435990,-2.150789976,0.147428006,0.069472298,-0.299522012,0.328206003,-1.902269959,0.031556200,0.311094999,0.214720994,0.137434006,-0.206584007,-0.247710004,-1.195889950,-0.070113704,0.824829996,-0.034581099,0.542276978,-0.279246002,-0.006577260,-0.004646360,0.940554976,0.472669989,1.186280012,0.088292703,-0.351895988,-1.541610003,0.088481501,0.382151991,-0.358334988,0.035239998,-0.201159999,0.439873010,-0.114765003,0.267755985,-0.600063980,-0.734616995,0.129712000,-1.614639997,0.700316012,-1.042969942,-1.509189963,1.446509957,0.049105000,-1.213410020,
0.146110997,-0.263673991,-0.143263996,-2.059540033,0.732897997,-0.113720000,-1.159010053,-0.120162003,-0.577983975,-1.805040002,-4.559010029,0.405607998,-2.771500111,-0.653436005,-0.818920016,1.665709972,-0.635899007,0.437206000,-0.088729799,0.339774013,0.163674995,-0.133083001,-0.306852013,-0.236120999,0.073364601,0.261317015,0.570885003,0.006181740,0.126161993,0.034237899,-0.311019003,1.503620028,-1.584229946,-0.197854996,0.228698999,-0.251134008,0.037782200,-0.020502700,-0.908450007,-0.377175987,1.097200036,0.138292998,0.280028999,-0.666712999,0.373492002,-0.256913006,-0.815114975,-0.141984999,-0.498818010,-0.127958998,
0.304055989,-0.012098500,0.533423007,0.645865023,1.058019996,-0.407577008,-0.349146992,0.766839027,-0.577081978,0.882911026,0.123038001,-0.230064005,-0.236001000,-0.168051004,1.861950040,-0.837879002,0.431089014,-0.712768972,0.521242976,0.079252899,-0.102185003,0.133238003,-0.051131301,-0.003746780,0.039467800,-0.564592004,-0.235397995,-0.449856997,-0.391689003,0.005418630,-1.256360054,1.380280018,-0.165893003,-0.363382012,0.032645699,0.340247005,-0.670325994,0.867362976,-0.682987988,-0.618224978,0.257337004,0.435268998,0.646238983,-3.149450064,-0.335997999,0.922470987,0.967908025,-0.368057013,0.023911599,-0.017537300,
-0.197833002,0.462790996,-0.322171986,-0.160110995,0.403670013,-0.199847996,-0.426214993,0.454860985,-0.096623100,0.020378500,-0.849457026,-0.150464997,0.671082020,0.227077007,-0.510923982,-0.882597029,0.230122000,-0.353258997,-0.203278005,-0.118445002,-0.110670999,-0.358162999,0.398514986,0.296903014,-0.007622610,0.287640989,-0.716458976,-0.113620996,0.262540996,-0.022045700,-0.142137006,-0.417452008,-0.085305899,-0.756412029,-0.618646026,0.789991975,0.044143502,0.079899199,-0.803951979,-0.081316598,0.460254014,0.276946992,-0.096634299,0.439709008,0.147826001,0.608305991,-0.800764024,0.058854401,0.200003996,0.207068995,
-0.004572260,-0.412658989,-0.333680987,3.046540022,-0.391548991,-0.499424994,-2.774970055,-0.326649994,-0.136317998,0.609131992,-3.609889984,1.113129973,-1.821939945,0.043654300,-2.464260101,-0.034451898,0.728659987,-0.255647987,-2.220920086,0.112409003,-0.500104010,0.415551007,-0.304064989,0.036432602,-0.342790991,0.133543998,-2.066390038,-0.573716998,-0.473022997,0.028966799,-0.101861000,-0.012056900,0.100841001,0.546323001,-0.086940899,1.192280054,0.179487005,0.399280012,-1.344490051,0.194548994,0.223055005,0.958877027,0.113876000,0.258682996,0.663170993,-2.092139959,-0.170646995,-3.313319921,-0.811595976,-0.458878994,
-0.186051995,-0.374662995,0.541996002,0.204931006,0.668143988,0.210396007,0.119324997,-0.545606971,-0.165316001,-0.166834995,0.128931999,-0.178749993,-1.740260005,0.315593988,-0.388857991,-2.970510006,0.268952012,0.172224998,-2.249200106,0.011331300,-0.040171701,-0.396862000,-0.168166995,0.615809977,0.181773007,0.054599501,0.111704998,0.409882993,0.658424973,0.034799501,0.044788901,-0.520771027,-0.539534986,0.054475799,0.315106988,0.323231995,-0.460462004,0.149499997,0.416999996,-0.128575996,-0.038284302,-0.664637983,0.179075003,0.450668007,0.499336988,-0.347770989,0.231959000,0.863874018,-0.446419001,0.520003021,
-0.032585200,0.302605003,0.150389999,0.370103002,0.662757993,-0.024566300,0.255104989,-0.134905994,0.245526001,0.391680002,0.738313973,-0.429794014,-0.402381986,0.737567008,0.073830001,-0.380430013,0.610451996,0.139362007,-0.070606500,0.117683001,-0.017237600,0.249180004,0.152924001,-0.327574998,0.158464998,-0.434112012,-0.123691998,-0.023477700,0.153438002,0.146900997,0.602210999,0.450260997,0.373901010,0.306050986,-0.361102998,-0.188956007,0.004061170,-0.137494996,0.021237200,-0.378656000,0.136154994,-0.281740010,0.198963001,-0.026463101,-0.329108000,0.142835006,-0.413145006,0.175991997,-0.178249002,-0.057901300,
-0.058363501,-0.231076002,-0.856428981,0.299282014,0.196251005,-0.487320989,-1.104169965,0.385652989,-0.057889301,-0.344361007,-0.119871996,0.686657012,-0.013836500,-0.422149986,-0.819748998,-0.229781002,1.528710008,-0.596485019,-0.598348022,0.079727300,-0.041115999,0.491979986,-0.141343996,-0.169740006,-0.070830002,-0.002702140,-1.475780010,-0.678326011,-0.795005977,0.037348799,0.193018004,-0.858466029,0.128015995,-0.294245988,-1.715909958,0.625173986,0.343311995,-0.572672009,0.544008017,-0.114986002,0.817866981,1.357589960,-0.279119998,-0.199690998,-0.482823014,-1.471279979,-0.512480021,-0.609744012,0.171876997,-0.658823013,
0.011904100,0.210837007,-0.007546920,-0.049277000,-0.024342900,-0.490949988,-0.004595240,-0.082663000,0.363606989,0.262919009,-0.167794004,-0.110197000,-0.001133850,0.244455993,0.065396897,0.489129007,0.004088510,0.092844598,0.178770006,-0.151877001,0.093167901,0.098094098,0.003129200,-0.336548001,-0.260250002,-0.038760100,0.070009403,0.080823600,0.009452830,0.080074102,0.383875012,-0.032105502,-0.036602002,0.510643005,-0.131992996,-0.126285002,-0.048192602,-0.018727500,-0.623176992,0.124116004,-0.621728003,0.169827998,-0.050048102,-0.265305996,-0.210227996,-0.175289005,0.055394702,-0.037799999,-0.037518501,-0.850115001,
0.110542998,-0.243772000,-0.885932982,0.545280993,0.914556980,-0.135659993,0.178922996,-0.155901000,-0.190410003,-0.164966002,0.373214006,-0.204455003,-0.576313972,-0.286709011,0.791630030,-0.813594997,0.651404977,-0.918226004,-2.513720036,0.601566970,-0.366856992,-0.348035991,-0.677833974,-0.103633001,-0.050029401,0.369269013,0.187756002,0.094515599,0.057300799,0.005259230,0.006924610,-3.382359982,0.192454994,-0.516004980,0.214986995,-0.260331005,-0.219661996,0.335307002,0.981140018,0.471632987,0.710491002,-0.315034986,-0.195914000,-0.025572300,0.121022999,-0.859034002,0.044230200,0.977925003,-0.099361800,0.275059015,
0.042595800,-0.037965801,0.114845999,0.487805009,0.027367599,-0.084617399,-0.072392903,-0.075933397,0.050248198,0.037339501,-0.057347700,0.228899002,-0.686065018,-0.023549501,-0.083655797,0.174262002,0.190026999,0.137372002,-0.154364005,0.121290997,0.014380600,-0.243993998,0.128863007,0.031467900,-0.026540400,0.037649401,0.098682702,-0.141051993,-0.315681994,0.017523499,-0.135240003,-0.252086997,-0.026526701,0.077044196,-0.246401995,-0.010697100,0.171421006,0.536978006,0.198139995,-0.252847999,-0.672333002,-0.197689995,-0.158885002,-0.042928498,0.242449999,0.002437930,0.400198996,0.175510004,0.083073199,0.004075400,
0.172397003,-0.047436699,-0.332340986,-0.324209005,0.563498020,-0.182021007,0.132070005,0.446379006,-0.117879003,0.249762997,0.221542999,0.378605008,-0.713005006,-0.023537900,0.041415900,1.340880036,-0.994624019,-0.327095002,-0.016059199,0.402330995,0.003587370,-0.035979301,-0.214821994,-0.164671004,-0.052231900,-0.085308500,0.030415900,0.113729998,-0.119543001,0.038041800,0.066364601,-0.598349988,-0.004188740,0.571605027,-0.103747003,-0.414831012,0.187775999,-0.290910989,-0.106614001,-0.224068999,-0.012443600,0.076361902,-0.024776701,-0.055039302,-0.227244005,0.607726991,-0.300716013,0.041361500,-0.016946200,0.538080990,
0.113008000,0.069216803,-0.028793000,0.379961997,-0.316303998,0.348037004,0.760798991,0.076336801,-0.378491014,0.161139995,0.576807022,0.607322991,0.841434002,0.053632401,-0.796302021,-0.193786994,1.156450033,-0.132354006,-1.112910032,0.038859501,-0.112038001,0.081234403,-0.570262015,0.545552015,0.307328999,0.462022990,-1.315209985,-0.323058009,-0.244077995,-0.013583300,-0.665076971,0.649752975,-0.175329000,-0.776573002,0.343490005,-0.454778999,0.535237014,0.180414006,-0.081323497,-0.419140011,-0.118809998,0.959002972,-0.240310997,-0.565491974,0.031743702,0.897404015,0.792231023,-0.318233997,-0.086785197,-0.315349013,
-0.356440008,0.052375000,-1.233360052,-0.284750015,0.148626000,0.115961999,0.129415005,-0.484506994,-3.264770031,-0.358853996,0.251567990,-0.278755009,-9.079830170,-0.086374402,0.307639003,0.239592999,-1.129070044,-0.078416400,0.645604014,-0.040859800,-0.259456992,-0.082758904,-0.545922995,0.182744995,0.036437500,-0.093307897,-0.157845005,-0.075774401,-0.182729006,-0.011639100,0.513764977,0.384864002,0.069575198,-0.725272000,0.043931600,-0.045133300,-0.121756002,-0.265727013,-0.111957997,0.218700007,-0.635886014,0.267562985,0.179884002,-0.344476014,0.247458994,0.182763994,0.637861013,-0.217757002,-0.145298004,0.106197000,
0.391600013,-0.130089000,0.236713007,-0.953969002,-0.128950998,-0.192159995,-0.102508999,0.048405901,-0.165612996,0.321442991,0.260949999,-0.509886980,-0.877651989,0.648823977,0.106069997,-0.202581003,-0.621002018,0.327313989,-0.719542980,-0.152550995,0.148782000,0.135357007,-0.537784994,0.049543601,-0.171316996,0.089121997,-0.176096007,0.421765000,0.237232000,0.059569601,0.278820008,-1.062479973,0.421036988,0.806850016,0.088411197,0.169322997,0.177924007,0.514720023,0.531539023,0.178632006,0.096687399,0.146670997,-0.483913988,-0.009675830,-0.580169976,-1.438940048,-0.172649994,-0.188334003,0.057845298,-0.089069001,
-0.139276996,-0.226290002,-0.309293002,0.082760900,-0.395610005,0.004670250,-0.304800004,-0.146511003,0.078036003,-0.064314201,-0.104901999,-0.355794996,-0.211530998,0.073475003,0.039820101,-0.556299984,-0.351031005,-0.101268999,-0.291402996,-0.023164900,0.051144600,0.275909007,0.114896998,-0.308986008,-0.033300199,-0.275952995,0.355857998,0.147208005,-0.045022000,0.046129901,-0.146145999,-0.174495995,0.104263999,-0.246200994,0.233636007,0.253951013,-0.360908985,0.087032497,0.127343997,-0.056454599,0.507909000,0.072396398,0.055345200,0.099977002,-0.213662997,0.023838099,-0.007042170,-0.006003490,-0.363999993,0.231429994,
0.035537899,0.078984797,0.324377000,0.026592599,-0.046563402,0.544632018,-0.120088004,0.377416998,0.033785000,0.091441102,0.281280011,0.382948995,-0.511412978,0.068226501,0.015043000,0.702280998,-0.021878000,-0.579406023,0.599506021,0.071689300,0.027867500,0.301135987,-0.138919994,0.131573007,-0.069807902,-0.159474999,0.556546986,0.179125994,-0.079667799,0.101561002,-0.161339998,0.641683996,-0.277045995,0.574451029,0.098889098,-0.132725000,-0.172854006,0.401304007,-0.098517798,-0.084135696,-0.553695977,0.305685997,-0.119687997,0.077917702,0.169313997,-0.288610995,-0.063394196,-0.052954499,-0.656216025,-0.170016006,
0.054167401,-1.540449977,-0.380930007,-1.211009979,-6.058720112,-0.215468004,0.182791993,0.643764019,0.106546998,1.071539998,-0.960389972,-0.470611989,-1.761279941,0.362556010,-1.170989990,0.455781013,-1.911530018,-0.834638000,-1.029579997,-0.296480000,-0.078867599,0.075576097,-0.399928004,0.187771007,0.142415002,0.812142015,0.139234006,0.441267997,0.731724977,0.122133002,-1.460000038,0.585326016,-0.957006991,1.017619967,-0.651533008,-1.529060006,0.549031019,0.202597007,0.773774981,-0.357277006,0.938655019,0.297266990,-0.289431989,0.700181007,0.483523011,0.027543100,0.553973973,-0.022797700,1.751410007,-0.590330005,
-0.448615998,-0.920650005,-0.771970987,2.340660095,-0.591067016,-1.745329976,-1.371639967,0.607478976,-0.404448003,-1.803590059,-2.310100079,2.299319983,0.770738006,-0.068848498,-2.616420031,1.389019966,-1.167490005,0.428225994,1.764129996,0.236462995,-1.156370044,-1.115059972,0.869944990,-0.736213028,-0.089549400,1.828590035,0.516860008,-0.989570975,-0.699375987,0.033706199,-0.357084990,-2.145359993,1.072589993,-0.702458978,-1.828729987,1.949349999,-1.124359965,-2.147850037,1.103209972,-1.278679967,1.087679982,-1.876309991,1.243119955,-1.390930057,-2.221129894,-1.804759979,-0.318387002,-3.132560015,-0.562559009,1.327360034,
0.432898015,-0.168717995,0.333927006,1.378319979,0.884164989,0.209829003,-1.880640030,1.250440001,-0.409628987,-1.174610019,-3.608939886,-0.847314000,-1.979779959,1.035429955,1.130079985,-0.520864010,-1.573459983,-1.677940011,0.888831973,1.292790055,-0.440537006,-0.504149020,2.633620024,0.378791988,-0.531841993,-0.867757022,-0.212835997,-1.147340059,-0.706866980,-0.017196000,-1.864300013,-4.271649837,0.141249999,-0.311423004,0.454266012,-0.400548995,0.464783013,-0.200121999,0.591691971,0.816821992,-1.092929959,-1.060060024,0.498120010,0.896000028,0.533122003,-3.048409939,1.433169961,-1.296139956,-1.719099998,0.730657995,
-0.027782200,0.099847101,0.029104000,-0.096172698,-0.019525900,0.246227995,-0.027293701,0.062922001,-0.196385995,-0.466001987,-0.000627837,0.762372017,-0.028237799,0.360229999,0.270828009,-0.622442007,-0.371015012,0.395790994,-0.052564200,-0.246316001,0.218720004,-0.599999011,0.305994004,-0.494724989,-0.837580025,0.168616995,0.168988004,-0.175096005,-0.305813015,-0.017371999,0.123184003,0.756619990,0.025268201,1.557150006,-0.359017015,-0.720237017,-0.732487977,0.069955498,-0.238651007,-0.333027005,-0.432051003,-0.566565990,0.107528999,-0.405252010,0.228079006,-0.947332025,-0.458889008,-0.009382150,0.637565970,-1.066380024,
-0.061274402,-0.270447999,-0.575929999,-0.443031013,0.193564996,-0.535458982,-0.978027999,0.875962973,0.171680003,-0.479021013,-0.122769997,0.384182990,-1.087110043,-0.175962001,-0.390202999,1.204139948,0.024231900,-0.513942003,-0.478823990,0.112164997,0.138482004,0.436127990,0.662325978,0.491742015,-0.088451698,-0.075038999,0.210200995,-0.422022998,0.142361000,0.032584500,0.481862992,-0.398649007,0.025595300,-0.346783012,-0.694298029,0.904928982,-0.241635993,-0.026596200,0.000750490,-0.044475500,0.999927998,0.481512994,-0.195533007,0.159641996,-0.351817012,-0.576195002,-1.854110003,0.183636993,0.337639004,-0.138473004,
0.044563700,-0.017374400,-0.048500702,-0.034751900,-0.053092599,-0.052625999,-0.052986901,-0.039363701,-0.040300999,0.006703440,0.026974700,-0.023151301,0.003571750,-0.037104499,-0.036187500,0.043691099,-0.047214899,0.036650602,-0.004750690,0.036630701,0.035591200,-0.015599100,-0.029350501,-0.011494800,-0.033421900,-0.013427300,-0.003496630,-0.036809199,0.012357300,0.002043910,0.014429200,-0.016433500,0.015235700,0.000920298,-0.022874501,-0.015119100,-0.025285700,0.041267499,-0.028839000,0.017232999,-0.015936401,-0.005445460,-0.025551300,-0.010083200,-0.029486200,0.004581890,-0.047407001,0.011892900,0.017608300,0.031351600,
0.133451998,-0.121595003,-0.029318999,-0.193823993,-0.181853995,-0.138547003,0.075212099,-0.272987008,0.049152300,0.021511000,0.051466800,0.214848995,0.533882976,0.069656000,0.102225997,-1.279850006,0.225547001,0.413360000,-1.475990057,0.166056007,-0.150262997,0.128049001,-0.204993993,0.165728003,0.149186999,0.367031991,-0.492415994,-0.300348014,-0.205650002,0.036302600,-0.000258224,-0.452280998,-0.229532003,-0.377532005,-0.008196040,0.236910000,0.187345996,-0.077558003,-0.350167990,0.232521996,-0.183204994,-0.057744000,-0.089700699,0.156679004,-0.152260005,-0.443554014,-0.282896996,0.116342999,0.120985001,-0.244589001,
-0.192542002,-0.219455004,-2.382910013,0.124897003,1.356209993,0.056085501,1.567970037,-0.623345017,0.445149988,-1.968790054,-0.583021998,-1.354400039,0.949123979,-0.289941013,-0.475425005,-0.876874983,1.564509988,1.405539989,1.466410041,-0.230620995,0.629197001,-0.328467995,-0.381343991,-2.303509951,-0.107437000,0.442703009,-0.320840001,1.146720052,0.348111004,0.007426260,-0.034523599,-0.141104996,-2.445009947,0.450953007,1.058920026,-0.024523901,-1.136559963,-0.761457980,0.482232004,0.366690993,-0.672070980,-0.387818992,0.480273992,-0.628440976,0.911736012,-1.999340057,0.011495900,-0.142149001,-0.820774019,-1.801059961,
0.003468490,0.266788989,0.438441992,0.702305019,0.153768003,-0.610116005,0.893507004,-0.470638990,0.972552001,-0.160807997,-0.021885499,-0.780815005,-1.365129948,1.445309997,-1.145560026,0.699082971,-1.056300044,-0.201768994,-0.970125973,-0.601770997,-0.908188999,0.885217011,-1.164809942,-0.129760996,0.100594997,-0.698673010,-0.430175006,0.267453015,0.079387598,0.085561201,-1.446490049,-0.451882988,-0.130256996,-0.649748981,-0.342931986,-0.322198987,-0.700017989,-1.184949994,0.094750904,-1.211599946,-0.622533977,-0.061071102,0.593490005,-0.058187600,-0.066152804,2.735709906,1.188470006,0.437229991,-0.461394012,1.067250013,
-0.047558401,0.424329996,-0.010709400,-1.044530034,-0.147934005,0.006188850,-0.436868995,0.668049991,-0.205072999,0.227581993,0.094047502,-0.771818995,1.637879968,-0.171329007,0.810407996,0.075178303,-0.060976200,-0.179444999,0.682034016,0.204705000,0.040478799,-0.457132995,0.244671002,0.137399003,-0.002870880,-0.561141014,0.294265002,0.153972000,-0.517772019,0.024694299,0.153680995,-0.832275987,-0.402884007,-0.253410995,-0.258533001,0.075683199,0.073860802,0.141959995,0.612236977,0.209334999,-0.648611009,-0.040868402,0.170706004,0.070529103,0.629864991,0.221695006,-0.522946000,-0.076009199,-0.597057998,-0.063523300,
0.721257985,
0.546310008,
1.114040017,
-0.442867994,
0.327634007,
0.086993799,
-0.957153022,
0.216054007,
-4.001120090,
-0.326593995,
-0.652746022,
-0.023803100,
-0.750298023,
0.069803096,
-0.160546005,
