// Neural Network File Format by Kyle Julian, Stanford 2016
8,5,5,50,
5,5,50,50,50,50,50,50,5,
0,
-3.4028235e+38,-3.4028235e+38,-3.4028235e+38,-3.4028235e+38,-3.4028235e+38,
3.4028235e+38,3.4028235e+38,3.4028235e+38,3.4028235e+38,3.4028235e+38,
0.0,0.0,0.0,0.0,0.0,0.0,
1.0,1.0,1.0,1.0,1.0,1.0,
1.000000000,0.000000000,0.000000000,0.000000000,0.000000000,
0.000000000,1.000000000,0.000000000,0.000000000,0.000000000,
0.000000000,0.000000000,1.000000000,0.000000000,0.000000000,
0.000000000,0.000000000,0.000000000,1.000000000,0.000000000,
0.000000000,0.000000000,0.000000000,0.000000000,1.000000000,
-0.000000000,
-0.000000000,
-0.000000000,
-0.000000000,
-0.000000000,
-0.149550006,-0.024853401,-0.001120660,-0.017593199,-0.010846500,
0.007706760,1.149620056,-1.171669960,0.246474996,-0.799436986,
-0.009456650,-0.668542981,-0.528015971,-0.385838002,0.040782299,
0.046014901,1.402570009,0.551878989,0.897441983,-0.872173011,
0.015322600,-0.136905000,1.351259947,0.204431996,-0.193519995,
-0.011105300,-0.145931005,-0.042118199,0.238107994,-1.259660006,
-0.035691299,1.593330026,0.121379003,0.814433992,-0.697037995,
-0.001659350,-0.093996003,0.117308997,0.621592999,-0.675603986,
0.120316997,1.243819952,-1.345900059,0.287117004,-0.167557001,
-0.127554998,2.453239918,-2.429500103,-0.065055400,0.023143901,
0.041809101,-1.386620045,1.376000047,0.240205005,-0.084192201,
-2.132050037,0.088902399,-0.047026101,0.011212400,-0.040964998,
-1.134979963,0.000809587,0.021072600,-0.058804002,-0.147205994,
-0.282727003,1.079849958,-0.347618014,-0.013037600,-0.046717800,
0.027491400,-0.350939006,0.489573985,0.259903014,0.203746006,
-0.025015401,-0.195510000,-0.932551980,0.388904989,-0.333211005,
-0.435591996,0.403903008,-0.248878002,-0.379965007,-0.372462004,
-0.431818992,-0.078891002,0.054841299,-0.744704008,-0.634469986,
0.006143460,0.177370995,-0.079830602,-1.065940022,-0.978542984,
-0.030606000,0.222729996,-0.252943009,-1.517699957,-0.540350974,
-0.030269001,0.054152399,-0.094914198,0.073814400,-2.067349911,
0.229140997,1.795539975,0.112885997,-0.200184003,0.251639992,
-0.529857993,0.146087006,-0.097131699,-0.662075996,-0.111309998,
-0.662872016,-0.082664400,0.615194023,-0.027401701,0.087885402,
1.298089981,-0.015749900,-0.006848380,0.059885301,-0.043251101,
-0.013453200,-2.353859901,0.630804002,1.349599957,-1.555400014,
0.011182400,0.156826004,-0.139203995,-0.965107024,-0.214664996,
-0.100189000,1.093880057,0.130540997,0.358711988,-0.224002004,
-0.011306700,-0.039064500,0.004748260,-0.259714007,-0.931656003,
0.340267986,-0.416206986,-0.854246974,0.434096992,-0.208059996,
0.470140010,-0.573445976,0.142058998,-0.087361701,-0.159139007,
0.070258297,0.103901997,-0.015312000,0.479903996,0.320086002,
0.272065014,-1.038239956,-0.167484999,-0.178960994,0.028222900,
0.017624401,-0.000932430,-0.004191690,-0.000678341,-0.000626660,
-0.113825001,1.986220002,-0.020964799,0.311592013,-0.898068011,
0.002585390,1.089509964,-0.509554029,0.060444001,-1.281229973,
-0.076034501,0.490987003,-1.606250048,-0.069380201,0.355477005,
-0.104065999,-0.409319997,-0.753166020,0.267405987,-0.386400014,
-1.003720045,-1.480180025,-0.086701304,0.478424996,-0.192673996,
0.005891610,0.039561801,-0.037862800,-0.174884006,-0.460321009,
-0.943674028,0.097918801,-0.088582300,-0.011480000,-0.004113160,
0.007037600,0.049781099,-0.177066997,0.758862972,-0.895012975,
0.006990350,-0.091772102,0.070353404,-1.607419968,-0.241412997,
0.020936200,1.566190004,-1.510480046,0.000655853,0.166143999,
-0.096811302,-1.405050039,0.172490001,-0.188015997,0.129576996,
-0.123617001,-2.345079899,2.491990089,-0.104425997,0.051252801,
-0.011188100,0.001312280,0.006760040,0.012245700,0.002073200,
-0.118699998,-0.473715991,0.219963998,0.127730995,-0.802139997,
-0.028664200,0.068360202,0.411846995,-0.382981002,0.384205997,
0.078380004,0.848444998,-0.990468025,0.123818003,-0.003026430,
-0.075375102,
-0.258495986,
0.045070998,
-0.160831004,
0.132523000,
-0.214197993,
0.259344995,
0.246684998,
-0.348399997,
-0.104702003,
-0.441989005,
-0.382651001,
-0.308284998,
-0.348181993,
0.036268700,
0.020153301,
-0.552987993,
-0.670382023,
-0.634271026,
-0.302953988,
-0.726876974,
0.240187004,
-0.202719003,
-0.205303997,
0.427419990,
-0.333014995,
0.041898299,
0.288659006,
0.038349502,
0.293401003,
-0.088504799,
0.224629998,
-0.417010009,
-0.016227201,
-0.110312998,
-0.527082980,
0.063325599,
0.204817995,
-0.484297991,
0.199009001,
-0.079042502,
0.116080001,
-0.528082013,
-0.565451026,
-0.153907001,
-0.326314002,
-0.018458800,
-0.182558000,
-0.008105930,
-0.322661996,
-0.123361997,-0.686011016,0.358653009,0.259285003,0.484333009,0.354636014,0.040840302,-0.594644010,-0.750200987,-0.345048994,0.131950006,-0.208410993,-0.199062005,0.697660029,-0.554952979,0.118086003,-0.548403978,0.433061004,0.011748800,0.209493995,-3.730910063,0.120807000,0.260060996,0.685509026,0.107643999,0.042615902,-0.378529012,0.055121299,0.214035004,-0.356561005,-1.068799973,-0.179185003,-0.193305999,-0.015721399,0.242571995,0.436702013,-0.459111005,0.004162270,0.235495001,-0.115718998,-0.163228005,-1.564219952,-0.107444003,0.151540995,0.624684989,-0.626157999,0.001468500,-0.613709986,0.149819002,0.143142000,
0.122767001,0.240400001,0.091964103,-0.083014697,0.461953998,0.818840027,0.174522996,0.739750028,0.335783005,0.234661996,-0.192787006,0.598887026,-1.592880011,0.508894980,-0.363384008,0.251594990,0.626164973,0.668855011,-0.059633400,0.006981540,0.046897698,-1.209310055,-0.344114006,0.556746006,0.175805002,-0.284575999,-0.060241502,-0.035509799,-0.019874500,0.070486099,-0.254402012,-0.309361011,-0.133592993,0.023361901,-0.228324994,-0.020318599,0.037515301,-0.390706003,-0.197015002,-0.873507023,0.598442018,0.190309003,-0.125704005,0.150489002,-0.807569027,0.249253005,-0.051468998,0.783330023,0.501887023,0.079960503,
-0.156225994,-0.256334990,0.029874600,0.761089981,0.133331999,0.537128985,-0.075832099,-0.494264990,0.835078001,-0.100399002,0.143656999,-0.566201985,-0.101898998,-0.139723003,-0.158849999,0.718891025,0.493256986,0.926900029,0.196578994,0.230028003,0.300123006,-0.070635401,-1.078359962,-0.972503006,0.265644014,0.042444400,-0.022919999,0.387136012,1.258119941,0.060383499,0.374442995,-0.091042601,-0.056163400,0.002806980,-0.445926011,-0.008133210,-0.577377975,0.061072800,-0.505227029,0.118501998,-0.753337026,-0.167682007,-0.780646980,-0.896710992,-0.095048599,-0.319741994,-0.033098999,-0.258455008,0.191167995,0.222500995,
-0.117082000,0.234615996,-0.108583003,-0.342797011,0.307271987,-1.075950027,0.199634999,0.559830010,0.076666400,-0.236506000,-0.686223984,-0.276472002,-0.954006016,-0.384122014,-0.511973977,0.191025004,1.863489985,0.177965999,-1.429020047,0.263338000,0.002049990,-0.001497090,-0.302056015,0.273449987,-0.125296995,0.311500013,1.178590059,0.010913800,2.437360048,0.082418501,-0.783540010,1.560089946,0.678156972,0.012313500,0.034817200,-0.255380005,-0.047317300,0.207344994,-0.450383008,-0.193533003,0.357755989,-1.030429959,0.111318998,-0.259090006,0.905902028,0.171730995,-0.046749499,0.015409600,-0.039218601,0.779428005,
0.045158502,0.078924596,-0.627969027,0.018628700,0.268157989,-0.568152010,-0.033098601,-0.215733007,-0.267731994,-0.312664986,0.333384007,-0.004973320,-0.172324002,0.022881500,0.118413001,0.037239499,-1.608770013,0.098945200,-0.740939975,0.360471010,0.576982975,-0.021901600,0.623170972,-0.068026103,-0.751950026,0.115451001,-1.498749971,0.435593992,0.831251979,0.258341998,-1.784839988,0.088973098,0.151776001,-0.020052301,-0.170848995,0.501089990,0.421296000,0.109544002,-0.251309007,0.985493004,-0.243664995,0.161700994,-0.582091987,-0.422850013,0.879949987,-0.194643006,0.007690840,0.483532012,0.331593007,0.021782599,
0.039384101,-0.012379400,-0.020092200,-0.039014399,0.034236100,-0.030160200,-0.028408499,-0.002825650,0.037395399,-0.007671150,-0.017620100,-0.026410500,-0.019131400,-0.007399210,-0.011309800,0.031336501,-0.045766000,0.026714699,-0.050176099,-0.004024130,0.033534300,-0.040252902,0.021641500,0.025843900,-0.056774098,-0.006134000,0.013713300,0.036383901,-0.030167401,0.015746100,-0.033992901,-0.014463500,0.023567300,0.024376299,-0.039874099,0.020776900,0.000139331,-0.049563900,0.000089785,-0.049376499,-0.047789600,0.036248401,-0.009205690,0.003185870,-0.038970299,0.003406320,0.019096401,0.030470600,-0.053205501,0.037569400,
-0.044332799,-0.844332993,-0.096359000,0.117587999,0.249668002,0.255246997,-0.078079499,-0.932385981,-0.306152999,0.122134000,-0.779900014,-0.072662398,2.372900009,-0.111928001,0.342624992,-0.069353998,-0.003735000,-0.004456120,0.012508100,0.118207999,-0.047941498,0.044705499,1.579429984,-0.007954520,-0.037085898,-0.092257999,-4.709959984,-0.159921005,-5.178219795,-0.041255798,0.162285998,0.799791992,-0.610385001,0.024511900,0.121734001,-0.030272501,0.106201001,-0.134175003,0.256541014,1.177749991,0.017289000,-0.237975001,-0.137571007,0.473726004,0.416860014,0.124834001,0.042453598,0.336887985,0.032754298,-0.078452900,
-0.138723999,-2.550040007,-0.161578000,-1.165249944,-1.109760046,1.919950008,-1.797930002,1.381129980,0.295832992,-0.722253978,1.901749969,0.661455989,-0.728406012,0.042556301,-1.183439970,2.153840065,3.826250076,-1.266790032,-1.188940048,0.024586100,1.674970031,-1.573220015,-0.362895012,0.268759996,0.935496986,1.025570035,-0.738152981,-1.672770023,0.352739006,0.571244001,-0.302664995,-0.006869690,-0.929341018,0.004136140,-3.938679934,-3.118109941,1.379050016,0.502632022,0.472965002,-0.379222006,-1.567000031,1.651100039,0.580362022,-3.956259966,0.324732006,0.720215976,-0.031388499,1.357759953,-0.712499022,-3.341629982,
0.022523100,0.026983300,-0.051984400,0.032698199,-0.038262300,-0.042457700,-0.024098700,-0.001779360,-0.041163798,-0.007926300,0.006598880,0.016290000,-0.027736900,0.033098899,0.022941999,-0.009170080,-0.029325699,-0.012131000,-0.036594499,-0.028352000,-0.046141200,-0.040718600,-0.012354900,0.007812830,-0.039493501,-0.042928200,0.021683400,-0.027127501,0.034077600,-0.018872900,-0.042236902,0.028135400,0.042464100,0.018002700,-0.002603020,-0.008973270,-0.056891099,-0.000756217,-0.046559300,-0.036123399,-0.008243930,-0.043223199,0.028118700,-0.050554801,-0.039175101,-0.038143899,0.041021001,0.004920990,0.036524899,0.002746790,
-0.171318993,0.616907001,0.555555999,0.578005016,0.176333994,0.005776270,0.575887024,-0.532786012,0.999657989,-0.327122003,0.762543023,0.051613498,-0.900045991,-0.039908402,0.209597006,-0.366158009,0.210005000,0.482807010,-0.844292998,-0.293413997,1.457720041,0.798247993,0.134472996,-0.295239002,0.107629001,-0.548048019,0.178582996,0.135004997,-0.655905008,-0.760131001,0.794722974,0.125249997,0.213335007,-0.009168410,0.633490026,0.828682005,-0.441531986,-0.387535989,0.154299006,0.184219003,-0.479620993,0.227300003,0.143025994,0.427704990,0.332383007,-0.296431988,-0.030909900,-0.175430000,0.456373006,1.585160017,
-0.071877301,0.261249989,-0.031004800,0.011645400,0.213652000,-0.301050007,0.071142100,-0.393325001,0.235837996,-0.018279100,0.015713099,0.744195998,-0.283363014,-0.054728001,-0.037598200,0.034137599,-0.137636006,-1.750010014,-0.882110000,-0.246317998,-0.143076003,-0.055953301,0.320093006,0.517441988,-0.364432991,0.004967330,0.051098201,-0.091372199,-0.737793982,-0.090839699,0.120692000,1.032430053,-0.371537000,0.026132099,-0.158929005,-0.004286870,-0.189559996,-0.052023500,-0.134269997,0.589765012,0.677519977,0.466441005,0.047177099,0.222663000,0.255681008,-0.230003998,0.022364501,0.137696996,-0.018951099,-0.035506099,
-0.211977005,0.020848701,0.093273297,0.187433004,-0.290349990,-0.073594302,0.078115202,-0.290087998,0.159122005,-0.354570001,0.498706013,-3.293289900,-1.200389981,0.754306972,-0.399152994,0.118486002,0.801065028,-0.382880986,-0.332441002,-0.027394401,0.394407988,0.200265005,0.198459998,0.038477398,2.216989994,0.175176993,-0.081363097,-0.011530600,0.296701014,0.037786599,-0.087752499,0.314579993,-0.272100002,-0.018104101,-0.056472700,0.053527299,0.013880200,-0.032800000,0.062475801,0.492394000,-1.086439967,-0.139489993,0.096977599,-0.193599001,-0.123237997,-0.226719007,-0.030600000,0.175356999,0.153217003,0.758243024,
-0.174184993,0.130243003,0.162726998,-0.038856201,0.911171019,-0.320457995,-0.339123011,-0.688324988,0.369089991,0.194977999,-0.721828997,-0.130269006,1.200839996,-0.416081011,-0.102174997,-0.029356800,-1.546880007,-0.778824985,-0.310638994,-0.793740988,0.004951270,-0.202554002,0.875532985,-0.431701005,0.017384401,-0.047753502,0.783882022,0.383765012,-1.542969942,-0.014623800,-0.710186005,-0.022939101,0.429246992,0.040333901,0.459941000,-0.258453995,0.042911999,0.114331000,0.138859004,0.638441026,-0.426707000,0.897181988,0.124930002,-0.427127004,0.099731103,0.119345002,0.058983698,0.368851006,-0.083424203,-0.021061800,
-0.017480999,-0.014099900,0.032442700,-0.013873400,-0.012170200,-0.016673001,-0.056255501,-0.016075701,-0.002806320,-0.045682199,-0.001456360,0.036520399,0.008467960,-0.000542319,-0.054516401,-0.023497200,-0.050781801,-0.003289590,-0.013954100,-0.020119401,0.023878399,-0.033380698,0.011966500,0.012471600,-0.045154501,0.008977140,-0.050934300,-0.007325940,0.012524300,-0.001934940,-0.017117200,0.022750700,-0.009659510,-0.053264301,0.004724770,0.037826799,-0.057749901,0.027318100,-0.037027799,0.000116899,-0.029558200,0.007632780,0.019541601,-0.004913320,0.002669620,-0.054522701,0.013520700,-0.012142600,0.029797301,-0.040961701,
-0.098704197,-0.045720998,0.745060027,0.427116990,0.670976996,-0.423359990,0.121087000,-1.645869970,-1.170019984,-1.029049993,0.754279017,-0.192258000,0.405499011,-1.444390059,0.779869020,0.311668009,-1.060809970,-0.849305987,-0.505770028,0.462702006,-0.352447987,0.272758007,0.135398000,0.050774299,0.239375994,0.166896001,-0.371850997,0.034495700,0.171433002,-0.207637995,0.530959010,0.022930000,-0.861944020,0.003526540,0.092331499,-0.103304997,-0.409940004,-0.076093003,1.189540029,-0.265094995,-0.525566995,-0.495824993,0.510487974,0.051945601,1.301749945,-1.556779981,-0.022801600,0.996469975,1.176810026,-0.073712297,
-0.160093993,-0.464592010,0.125694007,-0.595577002,0.481862992,-0.272828996,-0.086726002,1.033920050,0.333137006,0.179410994,0.203736007,-0.153698996,0.048643999,-0.213695005,-0.582049012,-0.195754007,0.369231999,0.869168997,0.349160999,-0.241034999,0.572058022,-0.298548013,0.301497012,-0.176108003,0.110381998,-0.533263028,-0.054541498,0.937295973,-1.411990047,-0.005617640,0.323323011,-1.305420041,-1.804630041,-0.029883999,0.000110965,0.577266991,-0.401764989,-0.042505302,0.616330028,1.687610030,-0.155493006,0.205579996,-0.679674029,-0.012268400,0.474283993,-0.040948100,-0.034146100,-0.619502008,-1.233600020,0.793762982,
-0.014950000,0.281599998,-0.608511984,-0.093911603,0.335139006,-0.076603003,-0.455574989,0.948755026,-0.048119199,-0.359396994,0.804319024,-0.428317994,1.388470054,-1.446169972,0.142220005,0.815604985,0.081370302,-1.222849965,-1.240170002,-0.325738996,-1.790300012,-0.279504001,-0.575940013,-0.325890005,0.070881799,0.410973012,-0.212730005,-0.412642002,0.330069005,0.110209003,0.205037996,-0.232904002,-0.402181000,-0.019220600,0.536888003,1.401569963,-0.240765005,0.261272013,-0.446058005,-0.295967013,0.558057010,-0.607774973,0.833850980,-0.219437003,-1.137689948,0.529101014,-0.013129700,0.044240002,0.105205998,-0.365657985,
0.041387700,-0.047219198,-0.016504001,0.007132770,-0.047465701,0.013277300,-0.010726000,-0.049354699,-0.001823760,-0.021297799,0.002673800,-0.005260550,-0.016795000,-0.045721602,0.002570810,-0.023045700,-0.042114001,0.012778700,0.018181199,0.031110100,0.021938199,0.002260610,-0.025001399,0.019061901,0.015384100,-0.007825480,-0.016983600,-0.003326260,0.031663001,-0.028582800,-0.025265099,-0.004028870,0.027338300,0.038738601,-0.020114601,-0.023820000,0.006880910,0.015255900,-0.022831200,0.004178360,-0.052576199,0.015598200,-0.051392701,0.040706500,0.021009199,-0.017711600,-0.007671160,-0.010672600,-0.006024330,-0.009293960,
-0.013304100,-0.029575400,0.017754899,-0.017970100,-0.062313501,0.027365601,-0.003511060,0.021189600,0.006927760,-0.005192630,0.016348099,-0.061214600,-0.010924900,-0.028690500,-0.020717900,-0.034246601,-0.027558399,-0.013230300,-0.029122399,-0.026127100,0.038864400,0.037032999,0.015252400,-0.019536100,-0.024590399,0.022984400,-0.002195630,-0.010431200,-0.033122201,-0.025857801,-0.036207002,-0.052937500,-0.054142099,0.028324900,-0.028438799,0.040091701,-0.028263399,-0.001834690,0.019888300,0.028253499,-0.009023160,-0.042771202,0.022235200,-0.039536100,0.006302460,0.023431700,0.005572440,-0.038627300,-0.005105940,-0.021199400,
-0.191268995,0.730615973,-0.306131005,0.667066991,-0.567936003,0.064045697,0.134840995,1.155099988,0.957603991,0.718367994,0.699290991,-0.929435015,0.214912996,-0.869445026,0.173059002,-0.972069025,0.200289994,-2.445739985,0.038067400,-0.324012011,0.997511983,-0.086622499,0.454461008,0.043286499,0.364993989,-0.166782007,-0.158983007,-0.149226993,-0.431937009,0.051756401,0.059321798,-1.077209949,-0.878126025,0.060189702,-0.121670999,-0.166210994,0.353204995,0.174926996,0.257147998,-0.367987990,-1.779289961,-0.239827007,0.122928999,1.269449949,0.646920025,1.220759988,0.051315300,-0.439074993,-0.222223997,0.907308996,
0.139195994,-0.095840901,0.103634000,-0.354099989,-0.177260995,-0.072308198,0.204605997,-0.216606006,0.288480997,-0.270271987,0.721396029,0.257443011,0.103698000,0.309293985,-0.390915006,0.098503098,2.117520094,-0.182757005,-0.062035698,-0.011003100,1.099840045,-0.717303991,-0.656467021,0.891716003,0.213415995,0.080186203,0.360197008,0.433627993,-0.092652597,-0.183143005,0.215846002,0.023347599,-1.068510056,-0.015314900,-0.087278403,-0.662460983,-0.370305002,-0.018232200,0.268940985,0.415410012,0.344538003,0.324618012,-0.054916698,0.148283005,-1.148090005,-0.515028000,-0.011962000,0.481889009,-0.162674993,1.002990007,
0.016212000,0.069807597,0.897480011,1.130349994,0.062763803,-0.381727010,-0.597530007,-0.666647017,-1.884359956,0.832904994,0.503049016,0.425339013,-0.006991050,1.154170036,-0.337172002,-0.732414007,-0.711759984,2.258059978,0.112260997,0.163628995,-2.817970037,0.182441995,1.036679983,0.055863101,0.118082002,-0.345447004,-1.025220037,-0.126155004,-0.700250030,-0.634860992,0.703305006,-0.448431998,-0.171141997,0.016303699,0.366519988,-0.135802999,-0.748224974,0.392830998,0.818392992,-0.487039000,1.331519961,-1.023820043,0.890359998,0.046348300,0.651235998,0.797998011,-0.026125900,0.483931988,1.013210058,0.847413003,
-0.188063994,0.519629002,-0.580456018,-0.181018993,0.528867006,0.740098000,0.483325005,0.457951009,1.336509943,0.195075005,0.181486994,-0.519032001,-0.317620009,-3.013380051,0.632373989,-1.378389955,-2.171880007,-0.888377011,-0.459490001,0.037627202,2.191400051,0.209034994,-0.375203997,0.088583902,-0.312853009,-0.906777024,-0.017766500,0.228007004,0.044164099,0.296880990,-0.035609800,0.665018022,1.891100049,0.023701901,0.319263011,-0.345284998,-0.215421006,-0.170960993,0.887637973,-0.076046601,-0.686860025,1.096570015,-0.802601993,-1.276419997,1.027439952,-0.243478999,0.050585698,0.079502799,-0.591359019,0.800664008,
-0.195022002,-0.409188986,0.384752989,0.904762983,-0.187724993,0.285513014,-0.677733004,0.485982001,0.107942998,-0.426672012,-0.817669988,-0.842916012,-0.743308008,-0.614759982,0.820762992,0.227256998,-2.085500002,-2.252170086,-0.001197160,-0.155892000,-0.045828398,0.831179023,0.689939976,-0.670603991,0.030242600,0.407929003,-1.143239975,-0.123391002,-0.541477978,0.289519012,-0.275265008,-1.099400043,-0.447111011,0.009186330,0.077543803,1.445479989,-0.481099993,0.468080014,-0.328031987,0.298388988,0.043599799,0.295024991,1.108279943,1.039029956,-0.783299029,-0.351808995,-0.029310700,-0.020986101,-0.140782997,-0.506846011,
-0.011904400,-1.986220002,-1.418609977,-2.227230072,0.324045002,1.795359969,-2.088779926,1.137199998,-3.796720028,0.886678994,4.424610138,-1.146559954,0.150040001,0.015730301,-0.492325008,1.809020042,-0.110913001,-3.051749945,1.219030023,-1.488899946,-1.201709986,-1.930760026,-1.009500027,-0.582997978,0.177186996,0.427183002,-0.451662004,-2.174249887,0.756474018,1.020449996,0.068543397,-1.599040031,-0.663577974,-0.046069399,-3.310050011,0.124755003,-0.279192001,0.291767001,-1.238409996,-1.804409981,-2.176079988,2.544529915,1.412179947,0.232641995,-0.616469026,1.784150004,-0.044032000,-0.115496002,-0.344704986,-1.000630021,
-0.017449200,0.035024598,-0.043684199,-0.042935900,-0.054933999,0.045230102,-0.048560102,0.013888600,0.034925200,-0.049418800,0.009698360,-0.048756000,0.007027770,-0.052547101,-0.026913701,-0.041921102,-0.041521199,0.025526101,0.028310100,-0.018923700,0.018946599,0.008567270,-0.015136100,-0.048968200,-0.049011599,-0.048517998,0.009770210,0.038253099,-0.011164200,-0.045517702,-0.035111699,0.027217399,-0.026626401,-0.022290500,0.016414100,0.018401301,-0.037932798,-0.037364699,-0.011215400,-0.018183701,-0.020681500,-0.037895702,0.052782699,0.025207000,-0.040629100,0.006784740,0.006191830,-0.037431501,0.001020390,-0.051293701,
-0.008208280,-1.140699983,0.155439004,-0.128361002,0.556475997,-0.571439981,-0.495885015,0.180986002,0.423550010,-0.702076972,-0.272049010,0.218912005,0.648208022,0.600830972,-0.463097006,-0.147874996,0.520898998,2.136369944,-0.183026999,0.175638005,-2.711529970,0.268684000,-0.466616988,-1.053290009,-0.323367000,0.626753986,0.463106006,-0.168054998,-0.060463998,0.138733000,0.416155994,0.770714998,-0.188371003,-0.004880790,-0.490943015,0.272897989,-0.225835994,-0.294973999,-0.306050003,0.422423005,0.041441601,-1.279489994,-0.560468972,1.482059956,-0.413830012,-0.893832982,0.030423500,0.084985800,0.545107007,0.893028975,
-0.013496100,-0.012538500,-0.002927860,-0.053651098,-0.015096900,-0.056747001,-0.032637801,-0.020054899,0.040759601,-0.033771802,-0.017190401,-0.066455498,0.022384601,-0.006304020,-0.019693200,0.008758420,-0.042739600,-0.010316500,-0.057557300,0.005191200,-0.021885000,0.026099300,-0.022628400,-0.010459100,0.009994700,-0.025877800,0.017719300,0.009024610,-0.007324310,-0.064658701,0.019533999,-0.054550901,-0.031694502,0.037452701,-0.044064298,0.006049730,0.023719899,0.020393800,0.000579655,-0.013509100,0.024910700,0.027820000,0.006965000,-0.026181299,-0.056953400,-0.000611263,-0.023204699,-0.024642801,-0.049458299,0.025030499,
0.028008699,-0.360830009,0.148679003,-0.069716796,-2.718420029,0.412526011,-0.097254999,-0.524105012,-0.576723993,-0.185363993,0.312485993,0.222091004,-0.184879005,1.043349981,-0.383406997,-0.114161000,-1.672749996,0.098595202,0.129213005,0.362313986,-3.020849943,-0.472862005,0.015248400,-4.304850101,0.088296801,0.481510997,-0.519306004,0.081251301,0.300330013,0.319088012,-0.182563007,0.083104096,-0.857136011,-0.025286101,-0.074377298,-0.525026023,0.054201901,0.362821013,0.181474999,0.019063000,0.387309998,0.206466004,-0.479323000,-0.675997972,0.229677007,-0.546656013,0.018039901,-0.560751975,0.228024006,-0.154374003,
-0.039684799,0.950075984,-1.226740003,0.844303012,0.718770027,1.171440005,0.124310002,-0.372236013,-0.140488997,0.209119007,-0.602726996,-0.797224998,-1.516209960,-0.026619799,-0.134743005,-0.377995014,3.219820023,-0.010337400,0.644277990,-6.313479900,-0.682376981,-0.297598004,-0.554072022,0.548757970,0.209653005,-0.633207977,-0.103262000,-0.229681000,-1.463549972,-0.510279000,0.147611007,-0.171440005,0.928152025,0.038988002,0.168474004,0.647674978,-0.052804701,-0.011002100,1.570539951,-1.499359965,-0.137765005,0.660019994,-11.211799622,0.082670197,0.279334992,-0.111059003,-0.000574777,-0.431704015,0.412548006,-0.020135401,
-0.073804997,-1.628129959,0.357515007,-0.414427996,-1.764219999,-1.758219957,-0.040042602,-3.255350113,-2.802479982,-1.684630036,-1.313629985,-0.080692500,-0.702346981,0.117077000,-1.016739964,0.393133998,2.786649942,0.834263027,2.016299963,0.910453022,-5.898789883,-0.064493403,0.185338005,0.223214000,0.080302998,0.323529005,1.199569941,0.139550000,-0.388729006,0.618797004,-0.447140992,0.596140027,-0.966908991,-0.019080700,0.009929520,0.027243201,0.251130015,0.419602007,0.323837996,-0.241476998,-0.484838992,-2.041059971,-0.518850982,-2.531660080,-0.956125975,-1.324069977,-0.029476300,-1.079910040,1.283959985,-1.783229947,
0.145412996,0.049319901,0.333070010,0.317173988,-0.179542005,0.572350025,0.105315000,-0.360587001,-0.330996990,-0.064710803,0.696322024,1.357179999,1.307199955,0.623952985,-0.157886997,-0.152952000,0.043931000,0.538807988,0.704470992,-0.447962999,0.606393993,0.078572899,0.353834003,0.414225996,-2.831320047,0.223772004,-0.253574997,-0.389225006,-0.145786002,-0.202333003,0.266413987,-1.189759970,-0.705395997,-0.037558999,-0.246132001,-0.491194010,-0.094260700,0.385930985,0.129374996,0.418507993,0.541018009,0.419737011,-0.062178500,0.274419993,-0.145089000,-0.269748002,0.012159800,-0.552734971,0.599713981,0.940118015,
-0.133684993,1.016119957,-0.100633003,-0.244204000,0.698118985,0.304814011,-0.009388640,-0.036132999,-0.496001005,0.355951995,-0.329073012,-0.159902006,-0.683238029,-0.970121026,-0.594860971,-0.697239995,-0.159531996,0.790745020,0.906970024,0.352925986,1.237079978,-0.399758995,-0.682871997,0.340267003,0.588265002,0.002141760,0.503027022,-0.140570998,-0.282193989,0.068772502,0.422345012,0.598716974,-0.528899014,-0.012715200,-0.008198180,-0.607379973,-0.146491006,0.144195005,0.407963991,0.212439999,-1.489240050,0.222213000,0.616335988,-0.493472993,-0.135425001,-0.111498997,-0.017879101,-0.232889995,0.381514013,0.487764001,
0.039718602,0.521516025,-0.631893992,-0.034245200,-18.456699371,-1.108299971,0.279870003,1.522160053,0.516466975,0.955860972,-0.071351998,-2.200809956,-2.385360003,-0.077609099,0.983214021,0.095060699,-3.483700037,-6.089570045,-1.112789989,-0.225018993,-1.529010057,0.058436502,-0.491304010,0.035983000,0.011782900,1.442620039,0.063514300,-0.036710501,-0.507901013,-0.033261601,-0.999453008,-0.657772005,-0.337972999,-0.002068230,-0.078517102,-0.963577986,0.070818700,-0.342759997,1.155449986,0.507596016,-0.848581016,-1.493360043,-0.023680899,2.121510029,-1.143380046,-0.968497992,0.045246799,-0.466116011,-1.383209944,1.067999959,
0.020669701,-0.318865001,0.302435994,-0.742278993,-1.141109943,0.516640007,-0.682995975,-0.133710995,-0.024892900,-1.004189968,0.333245009,-0.678391993,0.231018007,-1.968629956,-0.132216007,0.385592014,0.540955007,3.261559963,-0.078365996,-0.097493902,-2.145910025,-0.251468986,0.438645005,3.581039906,-0.191842005,-0.470851004,-0.150408998,-0.296752006,0.216179997,1.152510047,-0.114174999,0.598655999,-0.562035978,-0.042874001,-0.473924994,0.883503973,0.448361993,0.657562971,-0.368104994,0.381967008,-1.107609987,0.982892990,-0.801798999,-0.978191018,0.892013013,-0.893151999,-0.031773999,0.200091004,1.094370008,0.008041670,
0.003955970,-0.794322014,0.766577005,-0.006643120,0.966688991,0.570433021,0.230589002,-0.605704010,-1.381109953,-0.013920900,-2.607480049,0.349299014,-0.973432004,0.195354000,-0.178808004,0.711166978,-1.040009975,-0.361833990,0.250829011,0.543730021,-1.521810055,0.218917996,0.079351999,-0.963509023,0.104943998,0.129567996,-0.309105992,0.175088003,-0.152138993,-0.792369008,0.117576003,0.267138004,-0.718234003,0.001138850,0.142113000,-0.140523002,-0.546837986,-0.411206007,-0.141303003,0.094319597,-0.114170998,-1.268759966,-0.137508005,-1.355780005,-0.068257399,-0.441695005,-0.014093100,-1.236289978,0.387704998,-2.029409885,
-0.100626998,0.583814979,-0.643145978,-0.951747000,0.325706989,-0.169662997,0.103485003,-0.734232008,-0.572928011,-0.687875986,-1.354500055,-0.925818026,0.476033986,0.226785004,-0.577251971,-0.653464019,2.078299999,-0.374485999,0.148660004,0.314808995,-1.873270035,-0.092680201,0.016690001,-0.688642025,0.058954399,0.298312008,0.066115998,-0.661046982,0.525267005,0.621390998,-0.657966971,-0.031530801,0.659331024,-0.008734150,0.246034995,-0.526789010,0.218793005,0.557339013,0.539292991,-0.466614991,-0.533124983,-0.000590116,-0.140009999,0.770102978,1.025230050,-0.657643020,-0.017238701,0.601002991,0.300125986,-1.055889964,
0.041219600,0.435346991,-0.705229998,1.174510002,0.094150998,-0.475845993,0.296878010,-3.263590097,0.539390981,-0.083815403,0.014696800,-0.056591500,-0.024303099,-0.201193005,0.002761470,1.343919992,-3.140660048,1.894809961,1.237529993,-0.102541998,-0.567641020,-0.547703028,-0.081867702,-0.574325025,-0.035497699,1.628350019,0.786557019,1.161800027,0.595721006,0.617969990,0.090465903,1.001909971,0.611187994,-0.020184999,0.263049990,-1.369529963,-0.206061006,0.375811994,0.145069003,-0.414920986,-0.052773900,-0.479481995,-2.066339970,-0.292420000,0.694917023,-0.022614099,0.007910530,0.027758701,0.626420021,0.818050981,
-0.086373903,-0.802744985,-0.097726300,-0.141550004,-0.452509999,-0.544770002,0.341215998,-1.064319968,-0.814303994,0.028417200,0.103485003,-0.630441010,1.015699983,-0.351732999,-0.278582007,0.251161993,-0.553804994,0.094420902,0.397680014,0.255201995,-0.530063987,0.117463000,0.382755011,-0.010682100,0.101323999,0.120787002,-0.502660990,0.215297997,-0.407011002,0.277242005,-0.127876997,-0.390038997,-0.157532007,0.029048800,-0.162031993,0.859876990,0.588508010,0.028473400,-0.583076000,0.657895029,-0.392026007,0.550104022,-0.040868498,-0.979879022,0.624801993,0.365422010,-0.008240380,-0.329802990,0.120581999,-0.687819004,
0.240182996,-0.003318600,0.143946007,-0.445690989,0.555014014,0.175248995,-0.141176999,-0.726432979,0.381179988,-0.323888987,0.071037203,0.967094004,0.590866029,-0.017474599,0.660984993,0.383060008,1.129490018,1.604120016,0.885388017,0.102179997,1.028220057,0.187038004,0.281587005,0.200257003,0.381817997,-0.217655003,-0.243621007,-0.458824009,-0.209872007,-0.305671990,0.015083100,-0.566173017,-0.276593000,0.003452230,0.488112986,0.243275002,-0.010152700,0.175374001,0.190879002,-0.390172005,0.050153900,-0.087007202,0.521704018,0.062698498,0.570138991,-0.311600000,0.034899902,0.231973007,0.062992603,-0.441073000,
-0.041060101,-0.339350998,0.267473012,0.498221010,-0.278937995,-0.196434006,-0.243634000,0.593867004,0.017224099,-0.036687799,0.995347977,0.043921199,-0.749768972,0.602217972,-0.416395009,0.117802002,-0.013931500,0.120747000,0.251356989,-0.940051019,0.665651977,0.292353988,-0.298278987,0.072826803,-0.350551993,-0.410432011,0.568580985,0.253013998,0.144032001,0.300166011,0.421921998,0.826964021,-0.494969994,0.016341301,-0.562268019,-1.207399964,0.522624016,-0.135876000,0.123599999,0.514454007,0.188610002,0.229848996,-0.202038005,-1.087700009,-0.126398996,0.285786003,0.016758500,-0.582530975,0.467976004,-0.255861014,
0.077137001,-0.461346000,0.257214993,0.077868402,-0.306652009,0.058808599,-0.355668992,-0.046160098,0.631646991,-0.307482988,0.262831002,0.319950014,-0.059135601,-0.148640007,-0.626895010,0.138528004,0.963675976,0.213193998,0.074150898,-0.002660830,0.159079000,-0.455812007,0.122713000,0.069545098,0.004420050,-0.074849598,0.169375002,0.336771011,0.048829202,0.020203400,0.107136004,-0.562260985,-2.252899885,-0.023379400,0.379651994,-0.397150010,0.333626002,0.138733000,-0.106689997,-0.185306996,-0.579375029,0.316235006,-0.087843403,-0.140671998,-0.631898999,0.147796005,0.020003600,0.664370000,-0.238976002,-0.502005994,
-0.186182007,-1.171450019,0.384714007,0.810141027,-1.847710013,-0.963042974,-0.037318502,-0.753116012,-1.511209965,-0.564468980,-2.207259893,0.232067004,-0.466311991,0.390276998,-0.249434993,-0.083960399,0.820851028,0.560130000,1.110149980,0.470672011,-1.755139947,0.112158999,0.563849986,-1.305369973,0.494814008,-0.257764995,0.265354991,-0.424499989,0.171419993,0.145864993,-0.695352018,1.370030046,-0.591472983,0.011052700,0.294160992,-0.204777002,-0.249762997,-0.144993007,0.639284015,0.838868022,-0.280268997,0.038078301,-0.637727976,-1.078680038,0.319191009,-0.537340999,0.038246602,-0.086747304,0.037351400,-0.600031972,
-0.162419006,0.104906000,0.046173800,0.720106006,-0.040770300,-0.281549990,0.257995009,-0.407613009,-0.889038026,-0.327289999,-0.712765992,-0.847751975,0.023830600,-1.732890010,-0.958504021,-0.397542000,-0.668187022,0.013042900,-0.590763986,0.495638996,0.507845998,0.987586975,-1.199609995,-1.357059956,0.079600900,0.006036780,-0.743763983,0.836290002,1.247380018,0.601424992,-1.282739997,0.487536013,3.696239948,-0.005675160,0.376491010,0.996140003,-1.335479975,-0.589348018,-0.819110990,0.881375015,-1.044759989,0.245633006,0.076104604,-0.043877300,-0.074881203,-0.409267008,0.023793800,-0.513790011,0.691175997,-0.206706002,
0.021922000,-0.016572200,0.020630101,0.020213000,-0.038042199,-0.057063401,-0.004909970,-0.035125598,-0.003094650,0.016884901,-0.061791100,-0.068045497,0.001094730,-0.016656101,-0.022181099,-0.021572700,0.036175799,-0.036131099,-0.056617599,-0.043241501,0.008008830,-0.024351100,-0.003979170,-0.031201201,0.012463800,-0.027662700,0.049790300,0.002929270,-0.038806900,-0.032228298,0.002325750,-0.006469410,-0.001622410,-0.010838900,-0.001391260,-0.024991600,-0.062744603,0.008459140,-0.075337499,-0.063929804,-0.025175700,-0.004215340,-0.051110901,-0.024293501,0.013228900,-0.021988099,0.014636900,-0.002549580,-0.037345000,-0.019391101,
-0.134033993,0.375149012,-0.116301998,-0.149715006,-0.103317000,-0.106680997,0.438661009,-1.244950056,0.073731400,-1.329169989,-0.475556999,-0.001152250,-0.136538997,-0.727259994,-0.810087979,-0.178225994,-0.927663982,-2.740200043,-0.285789013,0.017083000,-1.754770041,0.567344010,-0.454142988,-1.911159992,-0.112356000,-0.163503006,0.823056996,0.522342026,-0.907100976,0.334179014,0.803528011,0.357082009,0.283324987,-0.022466900,-0.140509993,0.027663499,0.242789000,0.361357987,-0.245571002,0.097966097,0.029125500,-0.122368000,0.051837299,-1.063390017,-1.129609942,-0.614552021,-0.044761099,-0.187524006,-1.033699989,-1.249590039,
-0.005087130,0.200937003,0.245508000,-0.341834009,1.090980053,0.188565999,-0.918124020,1.347229958,0.739336014,0.142517999,0.265662014,0.017752800,-0.583190978,2.656179905,-0.156078994,-0.370292991,-2.905869961,0.975075006,-0.007982990,0.086433001,2.128499985,-0.720245004,0.413749009,-1.719409943,-0.093436703,0.399017006,-0.153715998,-0.861716986,0.216031000,-0.035937998,0.707131028,0.144179001,-3.047189951,0.048805598,-0.861064970,-0.279558003,-0.833755016,0.468497992,-0.194696993,-0.429758012,-0.023842899,0.429288000,-0.143402994,0.829975009,0.317151010,-0.117445000,-0.000524994,0.933703005,1.254320025,0.817655027,
-0.160340995,0.162782997,-0.109861001,0.294526011,-0.648883998,0.103666000,0.076048702,-0.328375995,-1.496799946,0.484811991,-1.650730014,-0.077503704,-0.472555012,-0.213014007,-0.522753000,-0.032401402,0.793349028,-0.406459987,-0.680996001,0.231112003,-0.054986101,0.064032502,0.187377006,0.741890013,0.218833998,0.061900102,-0.031503402,0.059868701,-0.175142005,-0.090605199,0.343084008,0.750680983,-0.172773004,0.029664200,0.257434994,-0.163369000,0.262502998,-0.156553000,0.464619994,0.797338009,-0.047015801,-1.390380025,0.259988010,0.259476990,0.362338006,0.682218015,0.030222099,0.696731985,0.483925998,-1.000120044,
0.026839601,0.027557300,-0.051589999,0.005704320,-0.006139780,-0.039757900,0.030207099,-0.007864510,-0.046150301,-0.020656800,0.021977499,0.042888500,-0.029026600,-0.014921600,-0.009387770,-0.041257899,0.000827824,-0.025548199,0.000815684,0.033637900,0.040401202,-0.064019203,-0.025508299,-0.036982600,0.015369000,0.000211545,0.017603301,-0.031361800,-0.045905799,0.000778080,-0.014044000,0.020691499,-0.027351201,0.035288401,-0.020731200,0.008603240,-0.052978899,0.019941499,0.008664130,-0.016984500,-0.054170299,0.016395500,0.028945100,-0.010257200,0.033308301,-0.046977900,-0.029665001,-0.042985201,-0.012396500,-0.023738300,
0.015566600,-0.825057983,-0.576466978,0.534557998,0.433349997,1.122449994,0.151676998,0.075984403,1.045060039,0.320951015,0.973926008,-0.569920003,0.569467008,-3.548579931,-0.593343973,1.132110000,0.701327980,-0.478491008,1.168460011,-0.628190994,-2.111829996,-0.305213004,0.537388980,-0.413720012,0.119503997,-0.757035971,-0.205619007,-0.407956004,0.740839005,-0.605095983,0.035869401,-1.342409968,1.469570041,-0.039715100,0.498113990,-1.644590020,0.048632301,-0.033167999,1.154080033,-0.141693994,-0.115585998,1.003630042,-0.005177820,0.202047005,0.629393995,0.014663900,0.003529770,1.053130031,0.106301002,-0.096105903,
0.431129992,
0.049436100,
0.216196001,
-0.752978981,
-0.288226992,
-0.009616930,
-0.135112002,
-0.113576002,
-0.008109560,
0.116875000,
0.335076988,
1.246009946,
-0.036960799,
-0.008189230,
1.108399987,
0.210676998,
-0.280135006,
-0.008918720,
-0.028557001,
-0.287809014,
-0.032944798,
-0.857141018,
0.143117994,
0.626802981,
-0.446976006,
-0.001873610,
0.562052011,
-0.015322200,
0.646848977,
0.032808401,
1.507920027,
-0.451986015,
-0.330092013,
-1.089519978,
0.158318996,
0.472348005,
0.715764999,
-0.626985013,
0.138698995,
-0.792595983,
-0.793815970,
-0.203139007,
0.813736022,
0.158822000,
-0.002554850,
0.941936016,
-0.252970010,
-0.671989977,
-0.028343299,
-0.747896016,
-2.849430084,-1.993690014,-0.050802302,0.864314020,-0.436127007,0.045563102,2.223050117,0.877947986,-0.032692600,0.389990002,0.252631009,0.012510600,-0.113642998,-0.013393500,-0.782707989,-0.402909011,-2.033610106,-0.025287900,0.019612100,1.337329984,-0.974964023,1.349089980,0.628817022,-0.247843996,0.652436972,-0.023356499,-1.123939991,-0.010730700,-0.737909973,-1.057209969,-2.718410015,0.584443986,-0.411435992,1.451189995,-0.647692025,-1.171720028,-1.153669953,-1.706550002,0.206003994,0.445598990,-1.072090030,0.585731983,-0.177460998,-0.385233998,0.032322299,-0.210756004,0.307182014,-1.440150023,-0.016600501,-2.352430105,
-9.136779785,0.625726998,-0.990584016,-2.578589916,-1.876739979,0.028146300,-2.375629902,-0.162295997,-0.009127600,-1.598670006,-1.284469962,0.508150995,-1.100710034,-0.040846601,0.474094987,-1.563519955,-5.334609985,0.021505700,-0.022615800,-1.509299994,-1.079030037,-2.028660059,-0.362152994,-0.734580994,-1.007709980,0.005635280,-1.139750004,-0.017542100,2.538680077,-0.450266987,-1.345370054,0.112380996,0.329178989,-1.920300007,1.209640026,-0.211752996,2.637039900,0.347436994,0.707786977,-2.216530085,-1.891630054,-3.717730045,0.900502026,-1.998399973,-0.016811701,0.249261007,-3.541300058,-0.060466599,-0.028691901,-0.269870996,
-1.283859968,-1.334139943,0.129685000,0.365105987,-1.160539985,-0.031475998,0.503085971,0.178039998,-0.019711901,-0.365808994,0.813378990,0.240866005,-0.285661012,-0.009626350,0.383114994,0.866510987,-0.854649007,-0.016966000,0.007021250,0.651827991,-0.361027986,0.739675999,0.495005012,0.131348997,0.417600006,-0.022248199,-0.253185004,0.003518650,-1.999119997,-0.785197973,-1.233639956,-0.023839200,-0.231898993,0.351350009,-0.224637002,-1.028120041,-0.210738003,-1.235280037,-1.270460010,-3.740679979,-0.860262990,-2.032779932,-0.249320999,0.254662007,0.013342800,-0.547519982,-0.851899028,-1.551300049,-0.027532900,1.245409966,
0.506106973,0.382295012,0.020060800,-0.067545801,0.327542990,-0.041483499,-0.272653997,-0.164864004,0.005634420,0.326429009,-0.058774699,-0.309581012,0.519837022,-0.012722600,-0.038233299,-0.644411027,0.384054005,-0.012045500,-0.045055602,0.272314996,0.222983003,0.322149009,-0.658177018,0.219566002,0.202923000,-0.008819520,0.054754298,-0.049352299,0.810304999,0.016442699,-0.511047006,-0.239294007,-0.428981990,-0.733555973,0.071856201,0.497197002,-0.304358989,0.811078012,0.566390991,-0.636014998,-0.028078100,1.219849944,0.526255012,-0.592519999,-0.047290299,0.089517303,0.079331599,0.734371006,-0.010881800,-0.813633978,
-1.317489982,-1.395050049,-0.172943994,1.090559959,-0.418837011,0.045931399,3.613620043,0.065323301,-0.032381698,0.385098010,0.782164991,0.046100099,1.095219970,0.037003201,-0.393611014,0.892692983,-0.875795007,-0.014074400,-0.023138700,0.661736012,-0.412580997,1.160459995,-0.168675005,-0.113746002,0.163460001,-0.044654101,0.388253003,0.023605000,-0.329798996,-0.802438021,-0.371661007,0.178470999,0.147148997,-0.083837897,-0.084509097,-0.524909019,-0.801594973,-0.410769999,-0.431481987,0.767899990,0.189500004,-2.217190027,-0.198552996,0.257948011,0.079887003,0.661478996,-0.261390001,0.368541986,0.023727000,1.720989943,
-0.047943499,0.009177380,-0.018341901,-0.044952702,-0.032977700,-0.007894470,0.028470600,-0.003519450,-0.044806801,-0.036560901,-0.051328599,0.003755480,-0.029944399,-0.013711400,-0.050945401,-0.022838000,0.012517900,0.001444320,-0.013835900,-0.019726900,0.009429480,0.042672299,0.002176590,-0.024866400,-0.001765550,0.036828998,-0.009777460,0.040945798,0.023931799,-0.044810601,-0.006612570,-0.013680000,-0.024200900,0.003394790,-0.019990901,-0.014485700,-0.006002060,0.001205900,0.028757101,0.032833599,-0.049448900,-0.030182600,0.011286100,-0.033883099,-0.013305300,0.009318340,-0.009778060,-0.009846460,0.040025599,-0.011548500,
-0.499312997,0.549381018,-0.291566998,0.364639014,-0.722697020,0.018639499,-0.855355024,0.070390500,-0.015040500,0.224672005,-1.149320006,-0.188281998,0.002226490,-0.016527200,0.267888993,-0.672160029,0.954316020,0.027241901,0.019289801,0.031654101,0.193498001,0.422829002,0.113471001,0.023574799,-0.125766993,-0.027473500,0.796070993,0.029213900,-0.066159703,1.325500011,-0.104510002,-0.702996016,-0.303975999,0.023384700,0.053513099,0.357834011,-0.173061997,-0.593174994,0.657478988,0.596871972,-2.850310087,1.213060021,-0.292849988,0.201013997,-0.016050501,-0.128711998,0.365027994,0.756444991,-0.009916380,0.172003001,
0.515648007,-0.715380013,0.338331014,-1.571359992,-1.632320046,-0.045756400,-1.906730056,-0.099217601,0.047320198,0.004917220,-0.771364987,0.163856000,-1.508239985,0.018961800,0.477254987,-0.364235997,-2.858459949,0.016534399,0.030959200,-0.592391014,-2.831809998,-0.913393974,-0.038709201,-0.499305010,-0.997260988,0.006152850,-0.137125999,-0.029462099,0.249038994,0.148677006,0.044821098,-0.962885022,1.223189950,-0.174107000,0.022910800,1.567370057,0.629320979,0.921936989,-1.326879978,-2.942549944,-0.901758015,6.696710110,-0.041913301,0.422333002,0.014699900,0.112726003,-1.325359941,0.052142199,0.036886699,-0.742583990,
-4.270329952,-1.525509953,0.137755007,-0.729537010,0.236472994,-0.027393101,0.393700987,0.689855993,-0.010885700,-2.038439989,-0.793982983,0.640038013,0.649944007,0.038733002,-0.810585976,-0.463281989,-2.327130079,0.032985400,0.018369500,0.721405029,1.398440003,-0.963880002,0.429194003,-0.144630000,-0.413736999,0.030390801,0.294946015,-0.008970720,-2.606770039,-2.140510082,-6.378859997,-0.353913009,0.295073003,-2.518280029,-0.978183985,0.259478003,0.570546985,0.795489013,-1.847569942,0.817153990,-3.126369953,-3.352319956,-1.290570021,-0.017077699,0.058906700,-0.408592999,2.851870060,-6.575990200,-0.012615600,-0.522576988,
0.012589000,0.136840999,0.276313007,-0.336394995,-0.879499018,0.006929750,0.136637002,-0.081836902,0.008914230,0.012648000,0.273925006,0.122564003,-0.544052005,0.003831880,-0.188402995,0.124528997,-0.298949987,-0.017923400,0.037984598,0.005405960,0.323909998,0.010176400,-0.126014993,-0.011766200,0.155904993,0.018124700,-0.010875800,-0.026328200,-0.648355007,-0.392751008,-0.208069995,-0.342294991,0.447517991,0.053412300,0.128305003,0.199433997,0.883557022,-0.390599996,0.216451004,0.130177006,0.362744987,-0.040050700,0.199727997,0.101582997,-0.029593701,-0.005590640,0.212045997,-0.006032860,0.016228700,0.750739992,
-0.351482987,0.466284007,1.211920023,0.611423016,-0.388770998,0.024054300,2.972919941,-0.235600993,0.040794101,-0.281098008,0.596746027,-0.896161973,0.806957006,0.042202201,-0.596486986,0.346464992,0.319213003,0.036748301,-0.033210900,-0.117950998,0.015092200,-0.516533017,0.017721100,0.851940989,0.254114002,0.038981799,1.040339947,0.015608100,0.255349994,-0.439370990,-0.407851011,0.570179999,0.538600981,-1.018919945,-0.021343200,0.504850984,1.283040047,-1.292639971,0.992775977,-1.366469979,-0.561218023,0.576291025,-0.041595601,0.006070220,0.003386620,1.120620012,0.526278973,1.578979969,0.043137599,0.213668004,
0.138282001,0.342664003,-0.487526000,-0.024091000,0.565973997,0.030218100,0.959788978,-0.144197002,-0.012164400,-0.122915000,-0.015782399,0.041081201,0.017915500,0.021288000,-0.084566198,0.855957985,0.488049001,0.005283900,-0.010367100,0.105722003,-0.819625020,0.158386007,-0.258762985,-0.099010602,-0.040220901,-0.035779100,0.467124999,0.030459700,0.795749009,1.381430030,-0.094743602,0.048813298,-0.451348007,0.362486005,-0.762679994,-0.217138007,-0.437810987,0.260744989,-0.002579910,1.253499985,1.285959959,3.696520090,0.165138006,-2.051800013,0.033570599,0.124640003,-0.375180006,-0.458826005,0.043544799,1.137879968,
-1.277750015,1.057600021,-0.947161973,1.074390054,1.237820029,0.033879299,1.794070005,0.216189995,0.004800040,0.539117992,-0.214649007,-0.076992102,0.568926990,0.028362799,-1.316079974,0.063772902,0.322795987,0.027552299,-0.047535300,-0.513595998,0.319323987,0.388042986,-0.489353001,-0.842660010,-0.177386999,-0.026329000,0.425963998,0.010067200,1.571920037,-1.648149967,0.275938004,-0.953696012,0.328298002,0.320309013,-0.269091994,-0.012016700,-0.622485995,-0.324028999,0.722532988,-0.060279001,1.788630009,0.619306982,-0.039443400,0.120973997,0.011069000,1.292979956,0.022705400,1.097200036,0.032118101,0.703067005,
1.809340000,0.668148994,-1.080800056,0.041346300,-2.069619894,-0.035205599,0.752654016,-0.097498998,-0.028247399,0.885084987,0.637832999,-0.337323993,0.054016799,-0.038948700,-0.158473998,-0.011253900,-2.326469898,0.038448501,0.009359940,0.317754000,-2.041830063,-0.005195760,-0.768198013,0.013699600,-0.227533996,-0.002819790,-0.135552004,0.057649098,0.661745012,-0.696610987,0.548397005,0.718141019,1.177690029,-0.254363000,-0.141178995,0.194495007,1.307569981,0.160096005,0.413989007,-1.518720031,1.837080002,0.652453005,-0.184229001,-0.822546005,-0.000788886,-0.797556996,-0.834104002,0.980593026,-0.028036701,2.560179949,
0.848038971,0.251780987,0.062521897,-0.302415013,-0.021507800,-0.002350210,0.382697999,-0.499980003,0.000970521,-0.656695008,0.645466983,0.284027010,0.122132003,0.006212830,-0.010801000,1.023910046,0.284148991,-0.037918299,-0.042199600,-0.067986697,-0.339756012,0.057011198,0.117296003,0.209878996,-0.361838996,-0.027321599,0.515368998,0.041031901,-0.404554009,-0.136133999,-0.585156024,-0.151067004,0.516656995,-0.313506991,0.021446601,0.747496009,0.309962004,0.398281991,-0.928412020,0.204426005,0.199129000,0.139111996,-0.038660999,0.570429027,-0.014342500,0.393247992,-0.538137019,1.467700005,-0.017041801,0.734176993,
-0.937282026,0.524680972,0.714784980,-0.455392987,0.812016010,-0.040985700,0.561469972,0.404183000,-0.010611900,-0.153442994,1.096779943,0.777927995,0.039363202,-0.002337790,0.106403001,0.414261013,0.844375014,-0.036356200,0.024362700,-0.229139999,-1.187260032,0.213969007,-0.395704001,0.016903300,0.241504997,0.031784400,-0.035423700,-0.017104000,0.587668002,0.878895998,0.565495014,0.526902974,0.786318004,-0.168568000,0.960357010,-0.062471598,0.748749971,-0.393150002,-0.401562989,-0.715811014,-0.095244199,1.355730057,0.712360024,-0.260019988,0.025643000,0.540607989,0.282240003,-0.479593009,-0.010708100,-0.569444001,
0.545104027,-0.239205003,1.540779948,0.071920902,0.317056000,-0.039037399,0.317921013,0.120154999,-0.046569001,-0.034662601,0.400148988,-0.334937990,-0.337532997,-0.011895900,0.093672901,0.472552001,0.034885999,-0.030760899,-0.041058600,0.402397990,-0.348425001,-0.300641000,-0.156418994,-0.231221005,0.087021500,-0.036061201,-1.724439979,-0.002409690,0.367996991,0.194793999,0.630389988,-1.517459989,0.189751998,0.460689008,-0.285241991,-0.259025991,0.443367004,1.103500009,-0.393083990,-2.287290096,1.634379983,-0.292751998,0.109500997,0.589103997,0.010467500,0.696853995,-0.090799101,-1.615399957,0.015963500,-1.042760015,
-0.110123001,0.410540998,-0.101088002,0.256895006,0.456661999,-0.036796801,0.170416996,-0.565065026,0.001821810,-0.917357028,0.429306000,-0.614410996,0.250959992,0.009649300,-0.193720996,0.482266009,-0.181961998,-0.019206300,0.004400090,-0.071013398,0.237436995,0.973986983,0.083511002,0.220099002,-0.138624996,-0.037533801,0.319869012,-0.029399700,0.118303999,0.119782001,-0.116787001,0.215066999,-0.118261002,0.100674003,-0.208614007,0.328197002,0.149428993,0.280734003,0.642188013,0.572803020,-0.644667029,0.990320027,0.106572002,-0.061941199,-0.028520500,-0.867493987,0.070880301,-0.016739100,0.028506599,0.837754011,
-0.806001008,-0.075140402,-1.006979942,-0.069446400,-2.241750002,-0.013674700,2.440409899,-0.233162001,-0.001163200,-0.188402995,-0.683748007,0.249630004,-0.639531016,0.031234501,-0.353523999,-1.097620010,1.115569949,-0.041645501,-0.027284101,1.074749947,-1.434559941,0.685961008,-0.196998000,-0.852546990,0.498845011,0.003807410,-0.612236023,-0.009101770,-3.636480093,-1.314020038,-3.044039965,-0.761987984,-0.364244014,-0.343905985,-1.249539971,-0.640298009,-1.121379972,-0.199910998,-0.401448011,-0.504884005,-2.305180073,-1.356940031,-0.610943973,0.474348009,-0.003741350,-0.679123998,0.707422018,0.099855602,0.028934199,-1.368199944,
0.322081000,-0.280811995,-0.458081007,-0.090372697,-3.388289928,-0.014451500,1.455320001,0.189187005,0.006279750,-0.113260999,0.175320998,0.077527799,0.413982004,0.003916060,-0.283867002,-4.501599789,0.736304998,0.039767601,0.008027550,0.237984002,-1.804880023,-0.562286973,0.012470800,-0.433335990,-0.006842960,0.042880598,1.113039970,-0.040323202,0.242275000,-0.652983010,0.007534620,0.058471601,0.122784004,-0.126826003,-0.034969401,0.140966997,0.360401005,-1.296890020,-0.357470006,0.899056971,0.731707990,-1.065590024,-0.229516998,-0.088292100,-0.020772399,-0.182652995,0.033593699,1.226840019,-0.032892901,-2.620500088,
0.157365993,0.208563000,0.402229011,0.197481006,-0.757623017,-0.007378440,-0.081840701,-0.191606998,-0.034415402,0.157441005,-0.048511401,-0.202534005,-0.398382992,-0.019808801,0.239380002,-0.251065999,0.259620011,-0.001778150,0.037687700,-0.111677997,-0.026171001,-0.098905601,-0.118683003,-0.092197001,0.090130001,0.022236900,0.284119010,0.027544400,0.220497996,0.656482995,0.348710001,0.281906009,0.141053006,-0.364813000,0.240070000,-0.090644203,0.031675700,0.688390970,0.654043972,-0.457814991,0.760214984,-0.900184989,-0.788357019,0.258920997,-0.049867701,-0.348776996,-0.148642004,0.462653011,0.009368350,0.813910007,
-0.172640994,-0.501727998,-0.153722003,0.586987972,0.080548897,0.008323440,4.316659927,1.025920033,-0.003367490,-0.246184006,-0.682860017,-0.358574986,-0.102773003,0.031545099,-0.938528001,-0.636207998,-1.312980056,0.034440100,0.023932001,0.666953981,-1.157950044,0.562640011,-0.946793020,-0.255429000,-0.183599994,-0.025139701,1.168820024,-0.004857390,0.668797016,0.113659002,1.041730046,0.806990027,0.765752017,1.792209983,0.309246004,0.994965017,-1.030480027,-0.712185025,0.666149020,-1.974949956,1.946949959,0.559975028,-0.635213017,0.856014013,-0.037496600,0.181226000,-1.167639971,1.091770053,0.018193601,-0.550027013,
0.409817994,-1.492769957,0.295789987,0.293541998,0.032227501,-0.033000000,-0.268301994,-0.186168998,-0.041494198,1.225860000,0.486503989,0.129520997,0.568266988,-0.016048200,-0.188739002,1.363459945,-1.894629955,-0.035617702,0.030400200,0.288320988,-0.364809990,0.272287011,0.359854013,-0.036021799,0.881621003,-0.001999740,0.706067979,0.046135299,-2.447550058,-0.325863987,-0.655991018,0.197957993,-0.307839006,0.817107975,-0.600094974,-0.292768002,-0.472202986,-0.035448100,-0.689957023,-2.390619993,0.216417998,-9.076749802,-0.884262979,0.614647985,0.010816000,-0.229956001,-1.830790043,-2.871690035,0.004375570,2.025959969,
-0.306567013,-1.123620033,0.734057009,0.207943007,0.446565986,-0.006352670,0.873668015,0.394464999,-0.044593699,0.565805018,0.741765976,-2.214740038,-0.213428006,0.010695100,-0.468477994,0.380598009,0.224340007,-0.019714899,0.001666100,0.246105999,1.792569995,0.749764979,0.309166998,-0.053818099,0.244010001,-0.008388470,-0.069015399,-0.019724900,0.977508008,-0.060316399,0.583404005,-1.637220025,0.346257001,0.633222997,0.462462991,0.462725997,-0.285641998,-0.051760700,-0.744903982,-1.353569984,0.808072984,-0.771854997,-0.093718700,0.074696399,-0.009719470,0.489978999,-0.628984988,0.170552000,-0.006648320,0.749189973,
-0.174588993,-0.350048006,-0.336721003,-0.158411995,-0.437631994,-0.023943201,-0.623793006,-0.652711987,0.011537300,-0.363068998,-0.285827994,0.299869001,0.221597999,-0.011609400,0.328294992,-0.642319024,-0.490779012,0.005680630,0.028402099,0.383949012,-1.963660002,0.605802000,0.202281997,0.104535997,1.152099967,0.008704540,-0.118151002,-0.000220040,-0.680631995,0.003952840,1.184990048,-3.372430086,0.082307801,0.951314986,-0.622563004,-0.251760006,0.118290000,0.089120001,-0.301943988,-3.075129986,0.211806998,2.934119940,-0.501307011,0.844489992,-0.012401800,-0.112244003,-0.318655014,-0.201775998,0.005282190,-0.176143005,
-0.790042996,-0.570572972,-0.509871006,-0.129644006,0.194959000,0.035887402,0.763319016,-0.288843006,-0.028478000,0.032331899,0.062256400,-0.040876500,0.181470007,-0.023239400,0.109878004,-0.392428011,-1.084740043,-0.000006265,-0.013122600,-0.005174910,0.700146973,0.749310017,-0.187976003,-0.437146991,-0.489892989,0.030943099,0.455633014,0.019083800,-0.373885006,0.165583998,-0.430878013,-0.918825984,-0.109916002,-0.397022009,0.447775006,0.197420999,0.976736009,0.042433199,-0.321702987,0.066559397,0.190384999,1.314829946,0.066263698,0.491690993,0.019877400,-0.219738007,0.366829008,0.109581999,-0.033268999,0.842818022,
-0.041191600,0.284301013,-0.038065098,-0.347362012,0.010795600,0.024474500,-0.504350007,0.079107203,0.006154870,-0.463486999,0.314103007,-0.150780007,0.100213997,0.037292600,0.000036486,-0.062392000,0.820927024,0.003145130,-0.027564500,-0.051411700,-0.155259997,0.005560700,-0.034869298,-0.191235006,-0.380879998,-0.008349120,-0.027242800,-0.025819700,-0.209019005,0.315791994,-0.294941992,0.338232011,-0.049151100,-0.154256999,0.066567302,0.045109399,-0.121803001,0.252029985,0.128390998,-0.989274025,-0.213811994,1.043889999,0.050750598,-0.011332600,0.061241399,0.054820199,-0.271297008,-0.169415995,0.015666099,0.095678903,
-0.932751000,-0.546689987,0.793560982,0.007444460,-2.760449886,-0.002584250,0.321123004,0.454813987,0.002468970,0.238377005,-0.100284003,-0.036585700,-0.503741980,0.018068099,0.248122007,0.370613009,-1.048120022,-0.034108698,0.039228499,-0.705569029,-0.429677993,-0.430115998,0.123723000,-0.249099001,0.453460008,-0.009967440,-0.666278005,0.056274898,-0.295724988,-0.878342986,-0.753516972,0.384905010,0.304807991,-0.342180997,0.735716999,1.019739985,0.215265006,-0.384631008,0.013710100,-3.277760029,0.005674280,-1.660879970,0.063856997,-0.029134899,0.039765298,0.381273001,-0.264223009,0.061274700,0.031875499,0.001422260,
0.333315015,0.224050000,-0.079609901,0.280862004,0.037954699,0.040182900,-0.899652004,0.337558001,0.004995310,0.510469973,0.571137011,-2.041529894,-0.534259021,-0.030099399,0.252151012,-0.256466001,-0.620060980,-0.014161400,-0.032233499,0.067632698,-0.313196987,0.216539994,-0.210650995,0.127147004,0.117454998,-0.031458799,-0.056771699,-0.024238300,-0.317297012,-0.110202000,0.169017002,1.982139945,-0.308461010,0.072278403,-0.370236993,-0.451572001,0.394791991,0.040040702,-0.490031987,0.963760972,-0.142176002,0.328924000,0.575614989,0.167893007,0.020794099,-0.008198470,-0.145673007,-1.117869973,0.013869200,0.116228998,
1.736070037,1.037960052,0.410908997,0.829922974,-0.443188012,0.020366900,1.354889989,0.139008000,-0.041118599,0.156666994,0.412364990,-3.246459961,-0.358550012,0.000422971,0.838167012,0.995092988,0.899954975,0.000431033,0.005410040,-0.012952600,0.087835103,-1.024749994,0.100060999,1.157029986,0.415080994,-0.049823102,1.398100019,-0.035701800,-0.571088016,0.359499007,1.558240056,0.272145987,-1.063400030,-0.076634802,0.778937995,0.205434993,-0.204455003,0.095436700,1.376520038,-0.751188993,-0.657428980,1.317849994,-1.089169979,0.463705987,-0.019758301,0.022406200,0.201077998,0.988707006,-0.043755502,-0.537881970,
-0.915243983,-0.448341995,-1.134289980,-0.334951013,-0.407362014,-0.028281599,0.367974997,0.781111002,-0.002369650,0.782154024,0.203592002,0.183614999,0.998916984,-0.015138500,0.689791024,-0.888566017,-0.760051012,0.028588699,-0.011175000,0.368467003,-1.597259998,-1.244940042,-0.795947015,0.219495997,0.489039987,0.034719702,2.588160038,-0.013281500,-0.532072008,0.585475028,-0.522530973,-0.755879998,-0.745335996,0.177039996,1.230509996,-0.990980983,0.970336020,-0.223859996,-0.910582006,0.545018017,-0.548455000,-4.984089851,-0.034867000,0.654672980,0.046812002,0.902325988,-1.570840001,0.048167799,-0.003352150,-0.139112994,
0.287514001,-0.411794990,-0.384456009,-0.032872699,0.670018971,0.054037899,-0.870756984,-0.158520997,0.030549200,-0.150997996,0.633966982,0.271173000,-0.389450997,-0.022096001,-0.060234498,-0.152698994,-0.655036986,-0.009715440,0.009135830,-0.063282304,0.192925006,0.367881000,0.260401011,-0.331355989,-0.045229301,0.029253500,-0.230267003,0.033978801,-0.277258009,0.547182977,0.440723002,-0.688359976,0.288096011,0.691370010,0.252828985,0.102761000,0.255948991,-0.128123000,-0.182227001,-0.056119800,-1.375650048,-0.786423028,-0.096920602,0.265570015,0.000197555,0.041631300,0.245636001,-0.471697986,0.004674180,1.572610021,
1.533740044,-0.039338801,-0.858202994,-0.743299007,0.309888989,-0.038664501,-1.214220047,0.240998000,0.028502000,0.832460999,1.276550055,0.609992981,0.303167999,0.008065630,0.478011996,-0.635982990,-0.263209999,-0.023158800,-0.046598502,0.492828995,-0.352629989,-0.836392999,-0.373851001,0.290605992,0.141455993,0.025488701,1.769029975,0.010075800,0.748697996,0.569649994,0.811237991,-0.845389009,0.182416007,0.602212012,0.668452024,0.480816007,0.552843988,0.438454986,-0.419957012,-0.168109998,0.659399986,-0.533052981,-0.113721997,0.568041980,-0.059009500,0.471314996,0.000562116,-0.243707001,-0.031551100,0.749602020,
1.677189946,-0.441390991,0.388754994,-0.386799008,-0.385908991,-0.026360000,-1.766899943,0.479000986,0.018893501,0.416714013,-0.013940900,0.090405300,-0.071851902,0.049327899,0.312274992,0.384561986,-0.767673016,0.032146402,-0.007094530,-0.671980977,-3.162009954,-2.246049881,0.560257018,0.742852986,-0.723129988,0.017693600,0.378672987,0.048001800,-0.298705012,0.230600998,2.019910097,-1.758440018,-0.473731011,-0.709456980,0.096585497,1.664229989,1.235870004,0.747054994,-0.842357993,-1.899860024,-1.895429969,-4.616710186,0.479741007,-0.306066990,-0.004123390,-0.049908102,-0.865679026,-0.846203029,-0.013591100,0.851462007,
-0.668659985,0.062612399,-0.006359700,-0.376866013,0.310656995,-0.034814101,-2.040390015,0.277770013,0.040424701,0.073884703,-0.560133994,-0.244497001,-0.072215497,-0.036235500,0.392771006,-0.057709701,0.054942701,0.044318300,0.029996101,0.075145699,-1.022490025,-0.737762988,0.399105012,0.295765996,-0.332105994,-0.052778799,1.498020053,-0.015347500,0.220768005,-0.112276003,-0.543794990,0.413587004,0.082433797,-0.644298017,0.149654999,-0.719392002,0.321521997,-0.009838800,-0.779860020,2.034929991,-0.724923015,-1.999459982,0.272110999,0.352106005,-0.046476699,-0.176146001,-0.197319999,-3.298160076,0.009095220,0.289903998,
-0.455332994,-0.499839008,-1.200420022,0.611347020,0.626761019,0.007938720,0.354865015,0.177925006,0.004590880,-0.002623300,0.260361999,-1.084220052,-0.617730021,-0.007065190,0.234807998,-0.318562001,0.251500994,-0.029413899,-0.031350899,0.340694010,0.940765977,-0.142263994,0.304259986,-0.049983598,-0.226849005,0.022323500,-0.330884010,-0.007590190,-0.394697994,0.430828989,0.207085997,-0.720004976,-0.579694986,0.188741997,0.385825992,0.427751005,-0.299611986,-0.422769994,-0.498876005,-0.554157019,0.116769999,-0.498304009,0.181502998,0.138874993,-0.038531400,0.354470015,-0.098565698,-0.103968002,0.016214600,-1.888790011,
-0.754635990,-0.253122002,0.229497999,0.130753994,-0.532774985,0.045982700,-0.325295001,0.327024013,0.010013000,0.058497600,0.280916005,-0.022563299,0.046624999,-0.031122500,-0.879871011,-0.227799997,-0.540458024,-0.011352200,-0.004289900,0.096844599,0.181571007,-0.024063099,0.122573003,0.978191972,0.227515996,0.041672401,0.126912996,0.000402331,-0.480450004,-2.425319910,-0.236213997,0.671977997,-0.570474029,0.237742007,0.555239022,-0.297356009,0.023252200,-0.059384000,-0.715779006,0.996599972,-0.799701989,1.719009995,0.230630994,-0.046157099,0.003494720,0.795943022,0.300442994,0.965358019,0.039621800,1.450549960,
0.194029003,-0.345553994,0.979861021,-0.118326999,0.646086991,-0.018103000,1.332249999,0.054273300,-0.030439001,0.308245003,-0.207056001,0.231799006,1.014999986,-0.015190000,-0.362659007,-0.186514005,-0.038781300,0.031138601,-0.012020900,-0.079211198,0.067569204,-0.107487001,0.111040004,-0.066741399,0.064654402,-0.019774999,-0.749581993,0.058748499,-0.108920000,-0.833536983,-0.347079992,-1.400699973,-0.273809999,0.157991007,-0.198222995,0.121964000,0.020431001,-0.405696988,0.823696971,-1.493909955,0.323861986,-0.823314011,-0.076311700,-0.558043003,0.031601399,0.300736994,-0.014893000,-0.208985999,-0.002814200,-0.240536004,
0.773032010,-0.201933995,-0.288249999,-2.293240070,1.373780012,-0.016890300,-0.050308902,-0.067092098,-0.025142100,-0.079311296,1.252279997,0.276751012,0.457296014,-0.002390710,0.071338303,-0.437689990,-0.535620987,-0.039708000,-0.015188800,0.245986998,-0.288459986,0.168916002,0.191719994,0.223095998,0.062619597,0.045395900,0.179900005,0.001308930,0.124495998,-0.502062976,0.081440397,0.711992025,-0.152810007,-0.081306800,-0.172242999,-0.107539997,-0.435030997,-0.959928989,0.449108988,-1.138890028,-0.112718999,1.821480036,-0.343731999,0.054315001,0.057488602,-0.088423900,0.286877006,-0.084953398,-0.047732700,-0.133757994,
2.429250002,0.477661997,-0.132742003,-1.477229953,0.838019013,0.039088000,-0.181507006,-0.217879996,-0.045965701,-1.208379984,-0.376437008,-0.704935014,0.322477013,-0.006039120,0.396851003,0.201314002,-0.109681003,-0.020166099,0.022216700,0.161513001,0.537223995,-0.575613022,-0.055717502,0.144841999,0.098188199,0.008251550,0.489942998,0.046579499,0.121310003,0.296837002,-0.333934009,-1.255830050,-0.748108029,0.324930012,0.282384992,-0.246923998,-0.144529998,-0.084353603,1.142850041,1.883049965,0.209962994,0.134659007,0.195053995,0.377359986,0.038709398,-0.040832002,0.250115991,-2.589679956,0.048464000,-0.437842011,
0.950924993,0.000049304,0.710114002,0.895125985,0.621764004,-0.033030100,2.104079962,-0.096568003,0.006625610,-0.751703978,-0.758446991,-0.412369013,0.538982987,-0.007145880,-0.750427008,1.064299941,0.161378995,-0.020143200,-0.047598898,-0.043006200,1.158460021,0.084402703,0.432767987,0.494304001,0.220478997,0.046902899,-0.928613007,0.046204600,0.890684009,0.786404014,0.187279999,0.350376993,0.478662997,1.187649965,0.058559898,0.353956014,0.659940004,-0.186638996,0.122088999,1.486590028,1.191329956,1.627349973,-0.096925400,-0.170892000,0.033014800,1.154760003,-0.825600028,2.344429970,-0.026207000,0.254776001,
0.460184991,-0.103836998,-0.290693015,0.113821000,-2.610970020,0.003685280,-1.071589947,-0.100025997,0.013845000,0.115153998,-0.122148000,0.058562402,0.750100017,0.038290501,0.097306803,-0.466224998,0.640281022,0.025582900,-0.005134870,0.325439006,-1.447929978,-0.275765985,-0.091663003,-0.316065013,-0.052056599,-0.023758700,-0.189008996,0.010830200,1.085119963,-0.810495019,-0.446891010,0.372227013,0.648688018,-0.195002005,0.438392997,-0.201865003,-0.660690010,-0.271077007,-0.938925982,2.182320118,0.267300993,-2.568289995,0.405146003,0.206843004,0.039509501,0.075585499,0.156079993,0.651583016,-0.036031801,0.471094012,
0.293543994,-0.181271002,-0.246567994,0.564037025,-0.135447994,-0.038093101,0.842938006,-0.121619999,0.025976500,-0.392583013,0.437965989,0.267217994,0.556982994,0.020831799,-0.381900012,0.216309994,-0.094347298,0.023732699,0.011180800,-0.192135006,0.572084010,-0.194505006,0.176219001,-0.186819002,0.229622006,-0.006450230,0.264809012,0.017393500,-1.091410041,1.030940056,0.230123997,0.137601003,-0.490307987,0.705995977,-0.086009599,0.483314991,0.753787994,0.765695989,-0.062426399,-4.864759922,0.906765997,-2.727969885,-0.583483994,-0.396126002,0.012666200,0.232012004,0.028769899,-0.611833990,0.049568001,-0.432435006,
-0.253208995,-0.876682997,-0.816000998,0.216436997,0.176651999,-0.032458100,2.282119989,0.308301985,0.007788420,0.050752200,-1.107509971,-0.017817600,0.663069010,0.018335801,0.341475993,0.012573300,-1.297899961,0.028950101,-0.003095260,0.183788002,-0.349878997,-0.273905009,-0.487791985,0.013531100,0.241889000,0.029952301,0.618548989,0.000177367,-0.676410019,-0.948566020,0.159796000,0.255313009,0.090894997,0.290731996,0.101777002,0.444588006,-0.282864988,-1.207139969,-1.241479993,1.432829976,-1.305119991,0.239471003,0.118167996,-0.296629995,-0.002630170,0.470066994,-0.230505005,-0.865604997,0.040790301,0.691370010,
0.005554690,0.000421424,0.093593404,0.234541997,-1.251420021,0.027013499,-0.895897985,-0.186625004,0.016638299,0.053405400,-0.183268994,0.037026100,-0.109678000,0.001123630,0.004150850,0.229507998,-0.296864003,-0.033300299,0.004262150,0.021398799,-0.747973025,-0.099387102,0.543358028,0.301201999,-0.025271101,0.000230876,0.564857006,-0.017765000,-0.462933987,0.218536004,0.054551601,0.569114029,0.270871013,-0.583934009,-0.493189991,0.970113993,-0.339432001,0.731670022,-0.196723998,1.294489980,-1.744879961,-1.928210020,0.212672994,0.261339992,0.057572100,-0.003467810,-0.609848976,-0.846701980,0.037548799,0.770914972,
0.863192976,0.217216000,0.170406997,0.253879011,0.775515974,-0.040366098,0.912781000,-0.207822993,0.051582702,-0.235918000,0.580875993,-0.571709991,0.631425023,-0.033255801,-0.334257007,-0.328281999,-0.242446005,-0.022582101,-0.006629640,-0.130461007,1.129060030,0.503271997,0.114726000,0.142680004,-0.078851603,0.007812520,-0.009625580,-0.033906199,0.089036897,0.046163101,0.168199003,-0.002520060,-0.877676010,0.138769001,-0.090995297,-0.028558999,-0.435029000,-0.410315007,0.461878985,-2.378469944,-0.234235004,-0.138520002,-0.699521005,-0.362464994,-0.010647500,-0.371758014,-0.046152301,0.590124011,-0.028624799,0.214995995,
0.597814977,-1.748710036,0.202159002,-0.488207996,-1.023399949,0.029794900,-0.374758989,0.313066006,0.040763400,0.011370500,0.236570999,-0.028392000,-0.227063999,-0.032368802,-0.363076001,0.239687994,-3.607069969,0.028649000,-0.002025640,0.020920800,-1.028679967,0.131123006,-0.454286009,0.155717999,-1.102669954,0.007790870,-0.058695499,0.036576100,0.331420004,0.486093998,0.254669011,-0.135115996,-0.012548200,-0.032645900,-0.260401011,-0.159888998,0.248952001,0.694714010,0.288042992,-2.720690012,-0.418835998,0.659933984,-0.776651025,0.347873002,-0.019645900,0.228928998,-0.382100999,0.503731012,0.052928898,-4.174930096,
0.002775780,-0.700379014,0.390129000,-0.035694599,0.363052994,-0.029920600,0.954569995,0.104122996,-0.032990102,0.103696004,1.978029966,0.330094010,-0.380840003,0.030634699,-0.224433005,-0.110376999,0.322571009,-0.041235998,0.001305130,-0.107773997,-0.123652004,-0.393972009,0.062863000,-0.339233011,0.305534005,0.005924790,-0.401219994,-0.031578802,0.399257988,-0.999737024,-0.444299012,1.217779994,-0.364737004,0.268045992,0.053994600,-0.933465004,0.233510002,-0.785426021,-0.957988024,-3.431149960,-0.446671009,-0.445746005,0.190917999,-0.026282500,-0.003493720,-0.348616004,0.108626001,-0.261590987,0.038901102,-0.005912130,
0.535269022,-0.005774570,-0.088755697,0.810122013,1.275259972,-0.047395401,4.018839836,-0.131254002,-0.014945500,0.158684999,-0.187802002,0.109416999,0.321132988,-0.017971501,-0.045144200,0.709740996,0.946681023,0.042452000,0.039022800,-1.045019984,0.759501994,0.010267700,-0.041399699,-0.424360991,-0.021080101,-0.046448998,0.527885020,-0.023116799,-1.164209962,0.624230027,0.765832007,0.176535994,0.093209200,-0.497940987,-0.354245991,-0.476015002,-0.196814001,0.621546984,1.074640036,1.077290058,1.510679960,1.268129945,0.129611999,-0.377270997,-0.052363198,-0.452371001,0.277422011,0.660848975,-0.041694000,0.384943008,
0.415659010,-1.909649968,0.750025988,0.408840001,1.294989944,-0.035934199,-1.284880042,0.493097991,0.002364100,0.430357009,0.122547999,-0.170340002,0.243453994,-0.029901600,-0.256137997,-0.101141997,-0.475659013,-0.033144001,-0.031511098,0.167910993,-2.122740030,-0.202093005,0.087410703,-0.128270000,0.098200500,0.031602301,0.969816029,0.006212060,0.542461991,-0.118740000,0.674564004,-0.152823001,-0.738326013,0.117193997,0.058667202,0.053720299,-0.676403999,-0.432541996,-0.720143020,-0.141302004,1.520529985,-1.514179945,0.341030002,-0.178617001,-0.010197900,0.068028197,0.428377002,-0.639008999,-0.004488360,-0.409586996,
0.717957020,
0.739984989,
0.450612992,
-0.284893990,
-0.637983024,
-0.019035200,
-0.730525970,
-0.134920999,
-1.040680051,
-0.497483999,
-1.867169976,
-0.431710988,
-1.249050021,
-0.521256983,
-0.388814986,
-0.230168998,
0.288628995,
1.158020020,
0.626214027,
-0.435368001,
-0.097153097,
-1.733440042,
-0.032423701,
0.611283004,
0.029652599,
0.806358993,
0.891867995,
-0.352732986,
0.771934986,
0.066774704,
-0.081037901,
-0.397011012,
-0.557519972,
-0.002848850,
0.165976003,
-0.289582998,
-0.346408010,
-0.174548998,
-0.771899998,
0.352277994,
-0.704189003,
-0.737221003,
-0.037192602,
0.902943015,
-0.257043004,
1.346279979,
-0.075582199,
-0.042709202,
-1.513470054,
0.585420012,
-1.112079978,0.349898994,0.040166799,-1.582759976,-1.488919973,-0.010048400,-1.196130037,-1.911630034,0.431755990,-0.261505008,-2.009530067,0.488995999,0.635631025,-0.690813005,0.267657995,0.763706982,0.599436998,0.840826988,-1.752120018,-4.486919880,-0.084232099,-1.719920039,-1.370980024,-0.699840009,-0.776324987,0.231573999,1.201189995,1.738170028,0.887322009,-0.185874000,0.593327999,0.905098975,-0.473338008,-0.355874985,-1.039010048,0.015533800,-0.264266998,0.767125010,-2.955929995,1.073930025,-0.255019009,-0.743210018,-2.103830099,-1.404649973,-0.609432995,-1.621970057,5.005040169,-0.743596017,1.410719991,0.100704998,
0.271050006,0.229166001,0.128310993,-0.110202998,0.154340997,-0.004859460,-0.249127001,0.408457011,-0.112281002,-0.256116986,-0.702346981,0.215864003,-0.188334003,0.470324010,-0.136389002,-0.054731201,-0.039713599,-0.097025499,0.290816009,-1.071509957,-0.474316001,-0.300662994,-0.025451200,-0.040558100,-0.106434003,-0.157793000,0.527719021,-0.121256001,0.087284699,0.050772801,0.065963201,-0.153191000,0.248216003,-0.104128003,0.706088006,-0.330309004,-0.341037989,-0.479456991,0.786220014,0.047081102,-0.197246999,-1.095919967,0.724353015,0.539565027,0.610444009,0.932181001,0.358029991,-0.430700988,0.273214996,0.226832002,
-0.244785994,-0.082062498,0.178622007,0.020105001,-0.147378996,0.008199630,0.022123501,-0.421474993,-0.094506398,0.129672006,-0.112966001,0.068466797,0.190653995,0.528600991,0.342519999,-0.286478996,0.071250997,-0.199632004,-0.062442701,0.324797988,-0.723622024,-0.206982002,-0.480935991,0.109585002,-0.282431990,0.206159994,0.522861004,-0.965839982,0.531817973,0.102089003,-0.186069995,0.141391993,-0.075029097,-0.506864011,0.111459002,-0.228388995,-0.015600800,0.075568303,0.437528998,-0.493937999,0.065057203,-0.203345999,0.170129001,-0.287055999,-0.026186300,1.445289969,0.723532021,-0.412853986,-0.571464002,0.160170004,
-0.101965003,-0.394428998,0.292863995,-0.272543013,-0.355084002,0.039786499,-0.526482999,-0.027043300,0.168966994,1.432760000,0.659178972,1.557950020,0.620278001,0.827664971,0.912433028,-0.290497988,-0.033419900,0.405167997,-0.416043997,-0.070431203,0.193220004,-0.495016992,-0.552932978,0.730283022,-0.380793989,0.534757018,0.593447983,-0.052867301,-0.608552992,-0.226184994,-0.325558007,0.091189399,-0.224007994,-0.351336002,0.047362700,1.333660007,-0.061117299,0.536590993,0.159415007,-0.355634004,0.538860023,1.522699952,-0.185227007,0.582306027,-0.765091002,0.434150994,-2.254659891,0.532218993,-0.765818000,0.189576000,
-0.229794994,0.211915001,0.446673006,-4.360360146,0.401899010,0.014288300,-0.582174003,-0.127344996,0.565337002,0.835861027,-1.627940059,-2.069710016,0.886496007,-0.498010010,0.092693903,-0.159575000,-0.780322015,-1.859490037,1.462370038,1.904440045,1.885650039,-2.270250082,-0.065074697,0.712190986,0.814094007,-1.671790004,1.789049983,1.544100046,-0.330931991,0.794520020,0.004996560,-0.598600984,0.243560001,0.446808994,0.569643974,-1.800199986,0.548749030,0.222553998,0.686361015,-0.039074700,1.166779995,0.748066008,-0.827157021,-1.107349992,0.999971986,-0.178207994,2.877130032,-1.087210059,2.510289907,-0.113043003,
-0.034227200,0.202336997,0.179605007,-0.291316003,-0.229045004,-0.000148112,0.761502981,0.199507996,-0.172165006,0.696636021,0.321839005,-0.576146007,-0.341711015,0.187294006,-0.511177003,-0.490902007,0.270105988,-0.056637201,0.235684007,0.611433029,-0.251610011,-0.126242995,-0.611846030,-0.235843003,0.542483985,-0.031764802,-1.760400057,1.195739985,0.260998994,0.011210600,-0.105584003,0.264809012,0.246530995,-0.473785013,-0.544682026,0.771781981,-0.037174001,0.657435000,-0.611034989,1.003859997,0.049194898,0.253279001,1.042659998,0.113898002,0.043781500,0.705820978,-1.693019986,-0.007534470,-0.136340007,-0.054242499,
-0.394421995,0.138612002,-0.223546997,-0.047829501,-0.690850019,0.039167400,0.219295993,-0.620064020,0.141988993,-0.489549011,-0.096132703,-0.141323999,-0.169533998,0.767979026,-0.422953993,0.168192998,0.293660998,0.264921010,-0.384561002,0.852680027,-0.714981973,-0.343674988,0.395700991,0.164902002,1.196460009,-0.195766002,0.069440201,0.288060993,0.160787001,0.049375702,-0.135774001,-0.273467988,-0.056265701,-0.202561006,0.022899900,-0.649793029,0.843918979,0.792433977,0.431329012,1.296630025,-0.566453993,-0.422609001,0.085898101,-0.504124999,0.181902006,-0.610925972,-0.838571012,-0.359950006,0.313140988,0.549838006,
-0.210407004,-0.654380023,0.002807660,-1.263049960,0.697408020,-0.018457100,-0.153548002,-0.325735003,-0.061557502,1.251929998,-2.278810024,-0.373854011,-0.257072002,-0.397693008,-0.253313988,0.119327001,0.071781702,0.527926028,-0.190464005,1.837180018,-0.575514972,0.079332598,0.674288988,-0.117640004,0.098730601,-0.100364998,-0.141868994,-0.456710994,-0.865823984,0.042459201,-0.143491998,-1.053390026,-0.132000998,-0.747777998,0.754049003,-0.291662991,-0.165501997,0.962601006,-0.619916022,-1.132789969,-0.621122003,0.183013007,0.121540003,0.131648004,-0.581824005,-0.093368500,-1.144729972,0.178540006,-2.237760067,-1.102030039,
-1.205760002,1.661730051,-2.032949924,0.166823000,-2.906300068,0.010703400,-3.000430107,0.173540995,1.567649961,-2.296020031,-1.772860050,-1.703439951,-1.035300016,-0.758153021,2.222359896,0.155082002,0.693741024,-0.821882010,-1.873440027,-8.485269547,-0.336486012,-2.302129984,-0.515520990,-0.277485996,-0.543699980,1.442479968,-2.135780096,-2.405060053,-4.101840019,-0.206609994,1.137570024,-1.938840032,0.883800983,1.298499942,-3.774490118,1.122939944,-2.167749882,-1.999869943,-1.553380013,-3.296610117,-0.424600005,-2.514640093,-2.109910011,-1.038509965,0.728734016,0.084055603,-1.155560017,-1.678349972,-2.613749981,-0.947831988,
0.591970980,0.488830000,0.119066998,-0.459257007,0.146158993,0.045804899,1.161569953,0.915156007,0.705209017,-0.266431004,0.749577999,0.783074975,0.227880001,0.051061202,-0.379738003,1.470790029,0.396595001,-0.141826004,1.793009996,1.157879949,0.590009987,0.681415975,1.022920012,0.800404012,1.000149965,-0.102413997,0.579957008,0.120963000,0.055216402,-0.133040994,-0.240790993,-0.721665025,0.534466982,1.414569974,0.229504004,-0.085465603,0.342262000,0.564141989,0.372996986,1.991000056,0.221394002,0.209022000,0.724942982,-0.299672008,-0.850416005,0.705259025,-0.305110991,1.711189985,1.439530015,0.415362000,
0.300352991,-0.027403999,0.160454005,-0.957840979,-0.548322022,-0.009398680,-1.051540017,0.111001998,0.316309988,0.605772972,0.385861009,0.076483600,-0.056570102,0.213914007,-0.601854026,-0.023312701,-0.416202992,0.282317996,0.369453013,-0.823997021,0.902190030,-1.286399961,0.100625999,0.712535024,0.081313297,0.198424995,-0.089528702,-0.537636995,-0.460254997,-0.398081005,-0.299089998,-0.200819001,0.438935012,0.001966850,-0.604490995,0.376969010,0.300662994,-0.614754975,-0.009257570,-0.669431984,-0.359133989,0.025043000,-0.593312025,0.288592011,-0.695581019,-0.815204024,-1.023180008,0.212016001,0.130744994,0.806236029,
-0.145051003,0.200605005,0.122422002,0.223592997,0.732738972,-0.031389400,0.787065029,-0.032158099,0.101722002,0.638972998,-0.371217012,0.144014999,-0.453227013,0.180763006,-0.590386987,-0.065282397,0.340761989,0.155847996,0.054663301,0.196530998,-0.003500340,-0.253311008,0.132400006,-0.583465993,-0.206603006,-0.380789012,0.832841992,-0.819642007,-0.573786020,0.515981972,-0.229883999,0.386956990,-0.281571001,-0.454674006,-0.146230996,0.903330982,0.094661199,0.428413004,-0.055678200,-3.147639990,0.209442005,0.738218009,0.312561989,0.895433009,0.178435996,0.126855999,-5.452499866,0.426169008,1.797389984,-0.607837975,
0.771556020,0.900202990,0.560168028,0.525156021,1.225260019,-0.031344101,0.392881989,1.551259995,0.310068995,0.851166010,-0.015081500,-2.351279974,-0.273068994,0.002924780,-0.307595998,-0.624180973,-0.145597994,-0.039108202,-1.213709950,0.843746006,0.270040005,1.535230041,-0.100077003,-0.258769006,1.144440055,0.206226006,1.113880038,-2.470910072,-0.543618023,0.843012989,-0.183736995,-0.787563026,-0.227746993,-0.521000028,2.383470058,-0.636467993,0.756115973,-0.945329010,-0.580339015,1.183580041,0.739198029,2.493860006,-0.445297986,0.769876003,-0.047081001,-0.940380991,-0.588281989,1.081359982,0.215284005,0.557901978,
1.072319984,0.555583000,-1.101449966,1.795879960,-0.783878028,-0.023497799,2.201289892,0.676634014,0.074243397,1.980970025,-0.127325997,-0.409806013,-0.999354005,0.574411988,-0.290571004,-0.409148991,0.220447004,0.440977991,0.972360015,-0.048809700,0.741196990,-1.430089951,0.247652993,2.004240036,-1.044659972,-0.416691989,0.534335971,0.660825014,3.815730095,0.798777997,0.336795986,0.212026000,-0.480118990,0.979508996,0.599254012,-0.688440979,-0.217938006,-1.383990049,0.553097010,-0.806105018,0.013822200,1.513900042,-0.045278501,0.432119995,0.595735013,1.029279947,-2.727220058,0.416635007,0.366598994,0.826162994,
0.222920001,-0.138162002,-1.376279950,0.019244300,1.562139988,-0.025489699,0.005001860,-0.962593019,-0.170021996,0.646992981,-0.104745999,-2.147190094,-1.426530004,-0.829850972,-0.733851016,0.124398001,-0.687390983,-1.825950027,0.055588700,2.020910025,0.030724799,-2.055119991,-0.427047998,2.400779963,0.302845001,-0.424566001,0.955662012,0.864167988,1.347810030,-0.271290988,-0.318367004,-0.371215999,0.250564992,0.408394009,0.876296997,-0.938480973,-0.850585997,0.271205992,-0.638388991,0.751316011,-1.093799949,-0.343692988,-0.030080700,0.910570979,-0.176560998,-2.662590027,1.112290025,-0.108976997,-0.350102991,0.060390200,
-0.110846996,0.258179009,0.640569985,-1.486889958,0.065058403,-0.019143300,0.869826972,0.218394995,-0.916801989,-1.463000059,-2.085390091,-0.495884001,-0.187013000,-0.229580998,0.023751801,-0.572836995,0.773564994,-0.731927991,-0.237112001,-1.536399961,-0.493952990,-2.057709932,-0.362706006,-0.177187994,-0.244672000,0.652033985,-1.389770031,-1.046869993,0.105625004,-0.975390971,-1.027549982,-0.151629001,0.547272980,-0.138019994,-0.543687999,1.075230002,-0.414168000,-0.045532901,-2.982389927,-1.543650031,-0.082237102,-0.157132000,-0.455123007,-0.844675004,0.629148006,-0.717902005,-1.624830008,-0.822596014,-0.251017988,0.000359039,
-0.874553978,0.363229990,-0.003114170,0.535073996,0.458577007,-0.049559198,-0.543088019,-0.301068008,-4.178130150,-0.661000013,-0.897145987,1.929970026,-0.245673001,-0.279300988,0.162411004,0.385756999,-0.387106001,-0.753427029,-0.697372973,-3.310410023,0.414977014,-1.780830026,0.114666000,-0.744282007,0.562994003,0.832022011,0.003128450,-1.335100055,0.684535027,-0.348726988,0.407931000,-1.120309949,0.374642015,1.210229993,-3.624779940,-0.830362976,-6.139560223,-1.826220036,-0.269290000,-2.770689964,-0.326038986,-1.878450036,-2.337460041,-0.710349977,-1.712270021,1.647560000,-3.713439941,0.277493000,1.486330032,-0.209813997,
1.218090057,0.141425997,-0.829594016,-0.107092999,1.193220019,0.004097750,-0.098748997,1.736829996,0.239895001,-2.272700071,-0.208462998,-0.502678990,-2.372980118,1.499109983,-1.266890049,0.256720006,0.523763001,-1.304960012,0.143727005,-1.000659943,-0.084226303,-2.078480005,0.000055042,0.087622099,1.038550019,-1.204939961,-2.092689991,0.878597021,-2.511620045,-0.600391984,-0.603066981,-1.070649981,0.349629998,1.060160041,1.114969969,2.728240013,1.219949961,-1.821640015,0.465865999,-2.701620102,-0.959178984,0.618623972,1.137889981,-1.361520052,0.296521991,-1.470569968,-2.367340088,-0.918887019,-2.690059900,0.196980998,
0.024179701,0.113913998,-0.318361014,0.001021980,-0.032561801,-0.023705499,0.179011002,0.109264001,0.094709203,-0.356126010,0.511227012,-0.291067004,0.127505004,0.074963897,-0.130695999,0.021286000,0.017847899,-0.051573001,0.406513005,0.038594600,0.162393004,-0.352885008,-0.141687006,-0.174643993,-0.213147998,-0.221851006,0.525537014,0.200421005,-1.602200031,-0.161816001,0.095927201,-0.179005995,0.124852002,-0.112815998,-0.332769990,0.496553987,0.402561992,-0.012379600,0.092500798,-0.962400019,0.274195999,0.279139012,0.301393986,0.193444997,-0.323163003,0.032553900,-0.265437990,-0.262661994,0.367256999,-0.227421999,
-0.827593982,-2.472140074,0.407296985,-0.774595976,-0.269659013,0.031141300,0.845601976,1.416470051,-1.789749980,1.212730050,-0.457114995,-0.530209005,1.593889952,0.723959029,0.075818002,0.018192699,-0.353956014,-1.592079997,0.584433019,1.110260010,-0.431252986,1.094609976,0.528335989,0.448709011,-0.155586004,0.015800800,1.735239983,-1.158300042,1.015640020,-0.098396599,0.053299200,1.444339991,-0.368131012,-0.077261403,-0.960229993,-0.040713899,0.363763988,0.332558990,-0.568098009,-1.077170014,-0.855050981,-0.107987002,-1.027500033,0.760711014,-0.042222500,-0.316210002,0.945231020,-0.332060993,0.997027993,-0.135453999,
0.011044700,-0.040515602,0.017879101,-0.027238701,-0.038267300,0.028596099,-0.043479301,-0.021275500,-0.010514200,0.040016700,-0.034546301,0.015388300,-0.008908460,0.035970200,-0.024655100,-0.061241500,0.002253720,-0.044201601,-0.010164900,0.026231701,0.038815301,-0.024427300,-0.044747401,0.034449100,0.015830800,0.009618230,-0.006745060,-0.059193701,0.021448800,-0.053792000,0.037663899,-0.037751298,-0.018384000,0.015384400,-0.032262601,-0.046300400,-0.001653650,-0.044738300,-0.050893299,-0.028907800,0.026861601,0.014886400,-0.040249199,0.003304210,-0.040219799,-0.020168100,0.029575700,-0.046110399,-0.027019201,-0.033921499,
0.174967006,0.042480402,0.089113399,0.046816401,0.157491997,0.035121001,0.357825011,-0.157071993,-0.210885003,-0.021951200,-0.487500012,0.530844986,0.129578993,-0.327479988,-0.043120299,-0.041611802,0.133052006,-0.943534017,-0.309448004,0.587221026,-0.399134010,0.399720997,0.157372996,0.404904008,-0.028430801,-0.662289977,0.433039010,-0.710042000,-8.933930397,0.025305800,-0.156279996,1.157699943,-0.021202900,0.227850005,-0.608162999,1.462939978,-0.012191500,-0.245712996,0.516335011,-0.285952985,-0.205248997,-1.003160000,0.128882006,0.372465998,0.168477997,-0.362271011,0.252793998,0.092036404,0.020368701,0.222421005,
-0.425642014,-0.055690899,-0.087394103,0.085999697,0.330982000,0.031422701,0.273732990,0.719891012,0.010398600,-2.089730024,1.182440042,-0.349186987,-0.318863004,-0.069730699,0.255627006,-0.143145993,-0.316547006,1.042330027,-0.795535982,1.887400031,-0.299968004,0.359661013,-0.279965013,-0.291346997,0.612671971,0.071482301,-0.167738006,0.552707016,0.436778009,0.079797998,0.217126995,0.943737984,-0.627422988,0.436701000,-0.517850995,-0.038135499,0.374053001,1.047109962,0.815257013,0.674780011,0.239176005,0.368797988,0.657531023,-0.628749013,-0.123553999,-1.139649987,-0.281002998,-0.026320299,-0.316879004,-0.139266998,
-0.498391002,-0.272022009,-1.388800025,0.212245002,0.073022902,-0.004762460,-1.493860006,-0.539681971,0.272352010,0.227601007,0.825132012,0.350695014,0.027811199,0.074862599,0.020187300,-0.124990001,-0.338999987,-0.397675008,0.697614014,-0.720752001,0.524507999,-0.371816993,0.246567994,-0.412548006,0.551961005,0.295864999,-0.255665004,0.343028009,0.744590998,-0.038526900,0.420186013,-0.194549993,-0.270981997,0.274271995,-0.574801028,-0.150340006,-0.393299997,0.342063010,0.286289990,1.147909999,0.561002016,-0.335245997,0.108900003,-0.387059987,0.972736001,-0.359946012,0.016785899,0.293980002,-0.332093000,-0.343869001,
0.213448003,-0.054885902,0.448132008,0.709685981,-0.580843985,0.007812850,0.293745995,-0.476132005,-0.016114799,-1.090800047,-1.197280049,0.221542001,0.182007000,-0.367760986,-0.121459000,-0.078778200,-0.239903003,0.084466398,-0.426077008,1.428910017,-0.434127003,0.724301994,0.123138003,-0.468326002,-0.062455799,0.269594014,1.171509981,-0.065212600,0.069125302,0.204841003,-0.330918014,-0.194446996,0.537285984,-0.029080501,-0.091834001,0.863861024,0.283641011,0.490911007,-0.148784995,-0.862555981,-0.741164029,-0.457522005,-0.166033000,-0.025011200,0.356629014,-0.076113902,-0.768086016,0.270500988,0.441715986,-0.221324995,
-0.017221700,-0.744789004,0.148260996,0.116006002,0.014486100,-0.015238600,0.032635901,-0.267758995,-0.239515007,-1.312510014,0.473778993,-2.495759964,-1.724869967,-2.178679943,1.060279965,-0.301050007,-0.198135003,0.542827010,0.251177996,-3.184740067,0.666836977,-3.171000004,-1.246880054,0.810375988,-0.835286975,0.712248981,0.161036000,0.850628972,0.486108005,-0.564400971,-0.508036971,-1.409940004,0.887789011,0.194215000,-0.665049016,0.184162006,-0.778304994,-2.465759993,-0.163455993,-0.026154799,-1.307749987,1.081760049,-1.998800039,0.228863999,-0.061581999,-1.638350010,-2.988179922,-0.995625019,0.676011026,0.563386977,
0.425626010,-0.153697997,-0.405054986,0.381424010,-0.027589001,-0.034311298,0.460323006,-0.651410997,0.046784401,-0.324678987,-1.930390000,-0.535184026,0.163847998,-0.235113993,0.187576994,-0.051769000,-0.277792990,0.046655599,-0.348082989,0.622907996,0.347323000,-0.471565008,-0.162699997,0.769264996,0.117611997,0.292512000,-0.567905009,-0.240852997,-0.254864991,-0.336746007,-0.085928299,-0.419981986,0.096181400,0.344610989,-1.039940000,-0.011980500,-0.041365501,0.076647900,0.993417025,1.151839972,0.082282200,-0.194527999,-0.334044993,0.138093993,0.265329003,-0.612349987,0.175832003,-0.741674006,0.317903012,-0.980139017,
-0.006247570,-0.054002699,0.298130989,0.329625994,-0.652774990,0.010607400,0.495671988,0.427134991,-0.110053003,-0.882116973,0.413697988,-0.607007980,1.509260058,0.553848028,0.060067501,-0.470690012,-0.064674698,0.267396003,-0.031411599,0.499141008,-0.007148970,0.344240010,-0.385913998,0.260241985,-0.330401987,0.519559026,2.049659967,-1.186010003,-0.406893998,0.127857998,-0.358051002,-0.404006988,-0.533327997,-0.015904499,0.029133299,-0.494017005,0.441119999,-0.605829000,0.996578991,-0.862711012,0.509126008,-0.374495000,0.246878996,-0.297201991,0.249328002,1.408139944,0.201683998,0.737484992,-0.477836996,0.209626004,
0.619311988,-0.990683019,-0.590676010,0.460857004,0.243838996,-0.027714200,-0.285530001,0.260347009,-0.715864003,-1.257210016,-1.428779960,-0.216235995,-0.135378003,0.120644003,-0.334374994,0.277190000,0.237237006,-0.417576998,0.588832974,2.031939983,1.101199985,0.823462009,0.536090016,-0.718005002,1.032150030,-0.534262002,-2.096250057,-0.392343014,-0.482154012,0.062173799,-0.653194010,-0.394235998,-0.202720001,0.390653014,0.825896025,0.820014000,0.868646979,-0.594824016,0.193590000,-0.786064029,-1.195950031,-0.610522985,-0.002667070,0.481400013,-0.138843998,0.145124003,-1.522570014,0.349743992,0.813057005,0.098062202,
0.479837000,0.860858023,-1.196699977,-0.505604029,-1.078189969,-0.025575900,0.687174976,-7.488279819,0.086696498,0.225860000,0.862103999,0.353280991,0.413531989,-0.177512005,0.487188011,0.244973004,-0.323978007,-0.434141994,0.802672982,-2.813329935,-0.593012989,-1.352370024,0.187090993,-0.193596005,0.108736999,-0.861055017,-0.250084996,0.025932500,0.173464000,-0.396319002,-0.595950007,0.095878303,-0.146063000,-0.043807700,1.044690013,1.167539954,-0.047910199,-0.010433400,0.313915014,1.149250031,0.725567997,2.521110058,0.912667990,-8.066129684,1.471989989,0.549207985,-2.162250042,0.101701997,0.309257001,-0.811352015,
-0.271344006,0.470930994,0.281668991,2.017489910,-0.925468028,-0.044453900,1.479089975,-0.361427009,0.425235987,0.044661500,-13.836000443,0.537267983,-3.072619915,-1.131929994,0.410071999,-0.036143500,0.330749989,-0.682280004,0.306277990,1.455139995,-0.196824998,0.618390977,-0.493483007,1.334609985,-0.138457999,-0.456010997,-7.537209988,-3.530109882,1.741410017,-0.778007984,1.104159951,0.206423998,-0.410349995,0.416920006,0.633046985,4.067850113,0.642009020,0.697247028,1.586680055,0.361775011,-0.667725027,-0.853630006,1.079310060,-0.521387994,0.299629986,-8.173620224,-0.959465981,0.483884007,0.352328986,-1.942399979,
0.397899002,0.565464973,-0.009970190,-0.580443978,-0.056202400,-0.026070500,0.675430000,0.482030004,-0.266119987,1.098970056,0.964805007,-0.312736005,0.162722006,-0.086138099,0.123683996,-0.299053997,-0.328642011,-0.314815998,-0.406888992,0.621535003,0.149518996,-0.154121995,-0.200920999,-0.632606030,0.677016020,0.093514398,-0.076263100,0.112677999,-0.491542011,-0.307482004,-0.631020010,-0.412167996,0.349626005,0.202306002,0.629772007,1.366410017,-0.431196004,1.286610007,-2.091510057,1.833240032,0.011442900,0.506964028,1.015409946,1.181900024,0.727962971,1.767699957,-1.716339946,-0.242036998,-0.425837010,-0.126225993,
0.204457000,-0.233247995,0.182854995,0.425864011,-0.602320015,-0.010802300,0.203589007,-1.313300014,-0.134322003,-0.603801012,0.570239007,-0.498391002,-0.282902002,0.316799998,0.648653984,-0.345124006,0.644223988,0.465447009,-0.107574999,-0.159349993,0.262508988,0.404195994,-0.118487000,-0.419992000,0.026279399,0.675852001,-0.625299990,0.060913298,0.059850700,-0.000586956,0.035620999,-0.012072000,-0.209475994,-0.019610200,-0.018843699,0.400070995,0.820069015,0.262353987,-0.406695008,0.142712995,0.061930198,-0.982851028,-0.159937993,0.249757007,-0.443269014,-0.320176989,1.811560035,-0.039396200,0.331784010,-0.082935996,
-1.574040055,0.063709699,0.921455026,-1.881809950,-3.911540031,0.029185301,-3.728120089,-5.985859871,-1.003990054,-2.626519918,-2.390510082,0.115822002,-2.012419939,-0.448370993,-0.413453996,1.213860035,-0.285346001,-2.027780056,0.471783996,-0.599668980,-0.278914005,1.391810060,-7.673620224,0.002292760,-2.055569887,0.021995099,-0.269445986,-1.013120055,0.687098026,-1.250499964,0.193759993,-2.127899885,0.050389200,-0.915802002,-0.968151987,2.925420046,0.841947019,0.021144699,-0.151749998,-1.905940056,-1.913450003,-0.973801017,-1.615589976,-4.936279774,-2.363310099,-0.804840028,1.582399964,1.260990024,-11.212300301,0.692602992,
-0.223637998,-0.022140300,-0.370719999,0.616258025,-0.416994989,-0.025100600,0.083912499,-0.175025001,0.043491900,1.007359982,1.142529964,0.399192005,-0.392805994,0.396831006,-0.369682997,0.128776997,0.262129992,-0.692649007,0.062444299,-0.399024010,0.212669998,0.219516993,0.404134989,-0.229507998,0.189936996,0.055337299,0.263482988,-0.027731800,-0.449377000,-0.036205899,0.274526000,-0.891080976,-0.413365006,0.173518002,-0.994473994,0.229977995,0.448275000,-0.051595401,0.081937701,1.059559941,0.221066996,1.377370000,-0.346848011,-0.176180005,-1.164080024,0.549189985,0.709996998,0.089422502,0.671922982,0.304190993,
0.011484200,0.133906007,-0.049853399,-0.133138999,0.111359000,0.038376100,1.351169944,-0.157188997,0.125405997,-0.698017001,0.310191005,0.127049997,-0.779906988,-0.000164687,-0.001682560,0.587998986,0.039865300,0.054511700,-0.364690989,-0.872164011,-0.301734000,-0.321740001,0.233894005,-0.446240008,0.216461003,-0.357095987,-0.752961993,0.126779005,-0.588720024,0.141307995,0.528473973,0.227957994,0.606553972,-0.167182997,-0.364926010,-1.271149993,-0.251985997,-0.016204899,0.807488978,-1.524500012,-0.140860006,-0.632815003,-0.516074002,0.074033402,-0.082524002,0.403782010,-0.353419989,0.183385998,1.297520041,-0.062763698,
-0.215201005,0.328332990,0.383542001,0.702782989,0.604010999,0.047499500,0.015626701,-2.113689899,0.792456985,0.382643998,-0.036414798,-0.882561028,-0.040165599,0.016435400,-0.838301003,0.095304601,-0.707489014,0.173791006,0.437822998,0.030896701,-1.476809978,0.457181007,-0.278667986,-0.637268007,0.410777003,-0.846727014,0.501550019,-0.142857000,0.315991998,-0.171293005,-0.560965002,-1.853579998,0.738461971,-0.612773001,0.222518995,-0.417766988,0.817408025,-0.200277001,-1.574259996,-0.556935012,0.111050002,0.275635004,0.390262008,0.374361992,-1.761749983,-0.085410498,0.694985986,0.545816004,0.005440610,1.151350021,
0.014165200,-0.238352999,0.368207008,-0.039283700,-0.344577014,-0.024197500,-2.668750048,1.677999973,-0.800231993,-0.692481995,1.316830039,0.702507973,-0.546476007,-2.412179947,-0.704806030,0.002925690,-0.697421014,-0.520519972,0.376729012,1.462970018,-0.160649002,-0.645551980,0.568246007,0.803628981,0.218237996,1.024049997,-0.409245014,0.862317979,-0.232627004,-0.333591998,0.102348998,-0.188065007,-0.095827296,-0.422008008,-0.930920005,1.575379968,0.152569994,0.284002006,1.025089979,-0.144954994,1.161540031,-0.322297007,-0.478886008,0.466560990,0.185016006,-0.711413026,1.009610057,0.901823997,1.190950036,-0.049043600,
-0.025846099,-0.073054999,-0.115535997,0.157609999,-0.100713998,-0.033333801,-0.403539985,-0.269338012,-0.005691140,1.026090026,-0.347021013,0.499678999,0.016595799,-0.210012004,0.236655995,0.381965011,0.089123897,0.013318800,0.158765003,-0.267971009,-0.050094701,-0.019911900,-0.098935403,-0.076078601,0.095996998,0.041793399,-0.264302999,-0.197513998,0.002348230,-0.007586840,0.079400703,0.131759003,-0.093230598,-0.022180900,-0.241475999,-0.107575998,-0.002736700,-0.005696740,-0.417964011,-0.127799004,-0.145218000,-0.022058900,-0.359885007,-0.372460008,0.335354000,0.790638983,0.194053993,0.288388997,-0.237336993,0.184207007,
-0.283104002,0.393539995,-1.151489973,-0.956510007,0.243077993,-0.036890201,-0.076884396,-0.072222903,0.007813610,0.466847003,0.829582989,0.242707998,-0.206203997,0.295350999,-0.147430003,0.306219995,-0.283046991,0.332616001,0.642850995,2.014339924,-0.419470996,0.098495699,0.573261023,-0.690771997,-0.216111004,-0.684904993,-0.440017998,-0.270669013,-0.553808987,0.458959013,0.231031999,-0.844676018,-0.627062976,0.191671997,-0.291628987,0.253931999,0.507502019,0.081727400,-4.077179909,-0.951433003,1.109060049,0.319355994,0.730184019,-0.147723004,0.975668013,-0.608529985,1.220499992,0.418776006,-0.538232028,0.250238001,
-0.121783003,-0.407649994,-0.685342014,-1.430739999,0.185659006,-0.035756800,1.278200030,0.285266012,0.688206017,-0.484881997,-0.419198006,-1.178740025,0.908384979,-0.256532997,-0.648557007,-0.353810012,-1.037230015,1.155140042,0.142040998,0.481552005,0.318645000,-0.773339987,-0.080639496,0.224340007,1.031839967,1.105200052,0.240404993,-1.843700051,1.582139969,-0.204815000,-0.389614999,-2.635529995,-0.342945993,0.266057998,0.803061008,-0.625164986,0.324867010,0.928726971,-0.624408007,-0.141604006,0.262282014,-0.281854004,0.194772005,0.845951974,-1.039250016,-3.329809904,0.541378021,0.439143986,0.828576028,0.072744504,
0.200719997,0.145232007,-0.082751997,0.477164000,-0.041461200,-0.031187000,-0.539377987,0.813026011,0.431865990,-2.041069984,-0.160411000,0.309715003,0.454867989,0.144777998,-0.869709015,0.031108901,0.140679002,-0.512030005,0.226965994,-0.096911304,0.137503996,0.554763019,0.261267006,0.026344599,0.027651099,0.277963996,1.120260000,0.624378979,-0.429980010,0.190404996,0.037952401,-0.720865011,-0.011188300,0.375752985,-0.112903997,0.368021995,-0.437189996,0.019078400,-0.029602300,-0.304188013,0.260645986,1.223970056,-0.197465003,0.139411002,-0.753400028,-0.070951000,0.050967701,0.267693996,-1.598829985,-0.398966014,
0.324431986,0.039303102,-0.699836016,-0.617016971,0.329048991,-0.008284220,0.453583986,-0.747691989,0.158150002,2.290440083,-0.565999985,-0.678378999,0.755029976,0.037443001,-0.035579700,-0.665239990,-0.127813995,0.067365400,0.164352000,0.910811007,0.019552000,-1.522199988,-0.012348400,-0.136591002,-0.148370996,-0.487363994,0.583400011,-0.437770009,0.202396005,0.046477601,0.322216988,0.546585023,-0.304147989,0.352003008,-0.703143001,0.048190001,-0.114647999,0.147852004,0.972123981,-0.397648007,-0.542295992,0.480266005,0.332118988,-0.290511012,-0.063719302,0.316927999,-0.189048007,0.562503994,0.284339011,-0.178120002,
0.210010007,-0.330238998,0.555831015,0.533420980,0.412795007,-0.012767900,0.394984007,0.211245999,-0.272610009,-0.243659005,0.091383196,-0.104312003,0.164979994,-0.275287002,0.685509026,-0.575011015,0.000235010,0.140817001,-1.027639985,0.235060006,-0.068248302,-0.020511899,-0.061561398,-0.213877007,-0.093784697,0.006620540,-1.115090013,0.309206009,-0.345212013,-0.105920002,0.030136799,0.360399008,0.126423001,0.065682396,0.513531029,1.061750054,-0.571904004,-0.004944100,0.655260026,-0.666607022,0.029483100,-0.884760022,0.237930000,0.382885993,1.280169964,-0.415268004,-0.389331013,0.641524017,-0.506202996,-0.680853009,
-0.376170009,0.222677007,0.244535998,0.904031992,-0.189509004,0.020669900,0.058752999,-0.039245300,0.101060003,1.151129961,0.749149024,1.142729998,-2.116899967,-0.120099001,-0.236265004,-0.036518801,-0.120264001,-0.004220180,0.408531994,0.416756004,-0.337060988,1.202569962,0.103710003,-0.071346402,-0.607412994,0.340716988,0.629155993,-0.036586501,-0.240198001,-0.139449000,0.306731999,-0.118805997,-0.530393004,0.281890988,0.131297007,-0.339780986,-0.168393999,0.031626001,0.753704011,0.735912025,-0.115607001,-0.000924135,-0.054679200,0.082636103,0.418830991,-0.844168007,1.060529947,-0.269988000,-0.027238499,0.347662002,
1.812549949,0.926798999,-0.517391026,0.064597100,-0.530593991,0.014106800,0.832574010,0.933477998,0.389102995,0.414442986,0.440867990,-0.261588007,-0.772536993,1.316239953,-0.634730995,0.961610019,0.515524983,-0.961256981,1.097720027,-0.425247014,0.627695978,-0.718321979,1.773599982,-1.440649986,1.037490010,-0.311919987,-1.630249977,0.468329996,-4.008860111,-0.708270013,0.203316003,1.542309999,0.343322009,0.362179011,1.003950000,0.232297003,1.117210031,-1.839849949,0.076617800,-0.003059320,0.560506999,2.020489931,0.089460701,1.096019983,2.260030031,-0.052287899,-1.461959958,-1.437270045,-0.648626983,0.423303992,
0.103253998,-0.019905500,0.063318700,0.137960002,0.729776978,0.003484610,0.029101200,0.197427005,0.106579997,-0.432666987,0.307384014,-0.338075012,-0.238826007,-0.426088005,0.065725103,0.186582997,0.268601000,0.008332490,-0.456883013,-0.057072598,-0.034107301,-0.626722991,-0.124243997,-0.022404799,-0.052995101,-0.275029987,0.278795987,0.076563597,0.055225998,0.070454702,0.243981004,-0.047701400,-0.127349004,0.257869005,-0.476204991,-0.810806990,-0.164387003,-0.509934008,0.356278002,0.401782990,0.111025997,0.017738599,0.053856999,0.166666001,0.225144997,-0.931562006,0.003352670,0.239944994,0.421236992,-0.138997003,
-0.189930007,0.182215005,0.887781978,-0.327185988,0.052192200,-0.000269246,0.089333601,0.091569997,0.321888000,0.482668012,-0.656867027,0.010389200,-0.737421989,-0.095930703,-0.355246007,-0.143891007,0.132009000,0.434051007,0.684010029,1.714220047,-0.221165001,0.049147598,0.202212006,0.780874014,-0.579235971,-0.523236990,0.664133012,0.126176000,0.632744014,0.395902991,-0.058930598,-0.228205994,0.256599009,0.191288993,1.228770018,-0.512880027,-0.416494012,-0.496140987,0.749273002,-1.073830009,-0.585220993,-0.839501977,0.586426973,0.348897994,-0.346264005,0.478666991,0.686766028,0.070655301,0.279266000,-0.266339004,
0.160087004,0.182768002,0.494098991,-0.811213017,-0.865188003,0.028545201,-0.523168981,0.302516013,-0.034088701,0.808690012,-1.092389941,0.058093000,-0.462606996,0.532845020,0.013891400,-0.058306299,-0.747461021,-0.258756995,0.688157022,-0.767431974,0.193937004,0.114024997,0.533454001,0.225896999,-0.019283799,-0.524145007,-0.602699995,0.340344995,0.358585000,-0.553718984,0.243423998,0.484488010,-0.029402601,0.480304986,-0.179530993,1.048869967,-0.933497012,-0.114045002,-0.419452012,0.561255991,-0.156012997,-0.181125998,0.211824998,-0.218297005,-0.296844989,0.095669203,-0.888264000,-1.157520056,-0.240912005,0.119938001,
0.528021991,1.331150055,0.301941007,1.486099958,0.801639020,0.015534900,1.200039983,4.336540222,0.688593984,2.047389984,1.925580025,-0.907811999,0.951622009,0.178769007,1.316609979,-0.661549985,-1.248919964,-1.871279955,1.647979975,3.946739912,-0.296442986,1.726819992,0.150198996,0.009460410,-1.419639945,-1.479290009,1.846539974,-0.073683202,-0.734999001,0.599676013,-0.820674002,-0.650007010,-2.111490011,0.640524030,3.025140047,0.952965021,1.939669967,0.226497993,-0.541323006,2.974740028,1.543980002,1.222480059,1.851220012,-0.263256997,-0.357951999,-0.616451979,4.463610172,1.672979951,2.713079929,1.334730029,
0.865613997,
-0.846669018,
0.075006500,
0.283154994,
-4.124609947,
0.082238697,
-0.969453990,
0.687108994,
