// Neural Network File Format by Kyle Julian, Stanford 2016
8,5,5,50,
5,5,50,50,50,50,50,50,5,
0,
-3.4028235e+38,-3.4028235e+38,-3.4028235e+38,-3.4028235e+38,-3.4028235e+38,
3.4028235e+38,3.4028235e+38,3.4028235e+38,3.4028235e+38,3.4028235e+38,
0.0,0.0,0.0,0.0,0.0,0.0,
1.0,1.0,1.0,1.0,1.0,1.0,
1.000000000,0.000000000,0.000000000,0.000000000,0.000000000,
0.000000000,1.000000000,0.000000000,0.000000000,0.000000000,
0.000000000,0.000000000,1.000000000,0.000000000,0.000000000,
0.000000000,0.000000000,0.000000000,1.000000000,0.000000000,
0.000000000,0.000000000,0.000000000,0.000000000,1.000000000,
-0.000000000,
-0.000000000,
-0.000000000,
-0.000000000,
-0.000000000,
0.059163999,-1.175699949,1.215639949,-0.072669797,0.116416998,
0.004968640,-0.849156022,-1.313109994,0.054581799,-0.037264101,
1.017480016,0.006165620,0.001516400,0.002104560,-0.000976713,
0.238636002,-0.432767987,-0.081761502,-0.495617986,-0.155860007,
-0.508983016,-0.122045003,-0.011038900,-0.557128012,0.440800995,
0.134881005,-1.388620019,1.109339952,0.147943005,-0.022323599,
0.030587200,-0.643580973,-0.520648003,-0.391018003,0.404276997,
0.094640702,1.737010002,-0.953429997,0.114372000,-0.009095360,
0.031273700,-1.268479943,1.220540047,0.028542900,0.031970199,
0.034304701,1.132259965,-1.311429977,-0.138004005,0.302170008,
0.312429011,-0.493322015,0.212396994,0.201774001,-0.528876007,
0.048784301,1.949000001,-0.030518400,0.026805600,-0.351128012,
1.659279943,0.002503660,0.002848380,0.003920540,-0.002229580,
0.041256700,0.187832996,-0.081748500,-0.138959005,-0.640551984,
0.068238802,-1.915889978,1.722450018,-0.409999996,0.649609983,
0.198257998,-0.876802027,1.163990021,0.350686014,0.238604993,
-0.000132553,-0.003187010,0.001515680,0.019342300,0.001252520,
0.044301800,0.961089015,0.078818098,0.444959998,-0.612375021,
0.013743700,1.334800005,-1.439470053,-0.144796997,0.147102997,
-0.374756992,-1.721009970,1.990990043,-0.218012005,0.499421000,
0.073652603,0.541180015,0.174594998,-0.052136600,-0.038817100,
0.011876600,-0.037657201,0.075949296,-0.015609800,-2.046089888,
-0.017117901,0.530672014,0.789342999,0.280142009,-0.262024999,
-0.002837090,0.092068501,-0.140279993,0.709290981,-0.944631994,
-0.244491994,0.015482000,0.010823900,0.232647002,0.300051004,
0.037449699,-1.379500031,-0.001557040,0.065881401,-0.401481003,
-0.150919005,-1.272779942,-0.359526008,0.392511010,-0.199040994,
0.186451003,1.825230002,-2.429610014,-0.023838000,0.119445004,
0.018654400,0.161013007,-0.179747000,0.612398028,-1.114150047,
0.000998782,-0.017710499,0.000124657,-0.002245460,-0.007266620,
-0.148363993,1.365479946,-0.802654028,0.088638403,-0.245282993,
0.006503360,-1.191799998,1.134330034,-0.249628007,0.072071299,
0.359214008,-1.240839958,0.012460300,0.426131010,-0.641386986,
0.000478771,-0.000125124,-0.003556630,-0.018128499,-0.001333780,
0.040967599,-0.593913019,0.617878973,0.074298799,-0.251982003,
-0.024453100,-2.299279928,-0.006770210,0.001064100,-0.001707050,
-0.413681000,0.114660002,0.004794580,0.135634005,-1.117159963,
-0.396295995,1.565899968,-1.841650009,-0.215621993,0.555254996,
-0.041736800,-0.025433401,-0.101588003,-1.123299956,0.010655900,
-0.749127984,-0.016372500,-0.005295820,-0.004740220,-0.306293994,
0.165873006,0.911243975,-0.162900001,0.206965998,-0.300112009,
0.006965310,0.014208200,-0.003914140,0.000844868,0.012147900,
-0.026554899,0.927169025,0.898432016,0.460474998,-0.024490099,
-0.079077303,-1.193760037,0.917155981,0.005888830,-0.431246996,
0.132960007,-0.265006989,1.368020058,-0.133022994,0.280813009,
0.151910007,1.673519969,-1.663370013,0.317483008,-0.233478993,
-1.454360008,0.035232600,-0.002062170,0.005423460,-0.028481800,
-0.193685994,-0.007180250,-0.149011999,-1.030629992,0.892159998,
-0.282945991,-1.448690057,1.623379946,-0.259562999,0.477328986,
-0.015382900,1.764359951,0.025100101,0.019905100,-0.043907300,
-0.566577017,
-0.025669500,
0.279092014,
-0.245647997,
-0.220424995,
-0.364111990,
0.091290303,
-0.407007009,
-0.477449000,
-0.480228007,
-0.400905997,
-0.204172000,
0.457563013,
-0.152717993,
-0.609537005,
-0.117095999,
-0.014380600,
-0.147391006,
-0.681034982,
-0.214087993,
0.061837301,
-0.770081997,
-0.001479350,
0.117647998,
0.162707001,
-0.214279994,
-0.348188996,
0.046726100,
0.355069995,
-0.020098200,
-0.153916001,
-0.626693010,
-0.194659993,
-0.022874800,
0.136337996,
0.008232140,
-0.414638996,
-0.274686992,
-0.374552011,
-0.156186000,
-0.145722002,
-0.020857001,
-0.118770003,
-0.222000003,
0.087066397,
-0.478363991,
-0.263713986,
0.120483004,
-0.367466003,
0.005403170,
0.300449014,0.197740003,0.186987996,0.612854004,-0.262093991,0.172537997,0.144464001,-1.679620028,-0.023273300,-1.490749955,0.295154989,1.619989991,0.204917997,2.140870094,-0.243977994,0.578817010,-0.009726190,0.899901986,-1.225119948,-0.098476797,-0.878868997,0.169661999,-0.150799006,0.826005995,1.437790036,-0.452425987,-1.160249949,-0.264598012,-1.030930042,0.025300501,-0.236022994,0.216468006,0.151586995,0.009035780,-1.067360044,0.846750021,2.613130093,0.127793998,0.548296988,0.477519989,0.559633017,-0.026715601,0.836736023,-1.054170012,0.436257005,-0.684521019,0.139166996,0.165778995,0.507851005,-0.747551024,
-0.237458006,0.411644995,0.589654028,1.482439995,-2.222100019,-0.617385983,0.172483996,-0.655851007,-0.063570499,-0.448962003,0.811628997,0.482295990,0.556957006,2.261850119,0.666315019,-0.018861299,-0.032349799,0.756829977,0.847599983,0.196283996,-0.146265998,0.460137993,-0.473455012,-0.009199860,1.088940024,0.248419002,-1.448480010,-0.188447997,0.104942001,0.015096200,-0.536912978,-1.191300035,1.099200010,-0.033064600,0.463001013,-1.109019995,-2.128040075,0.062308699,0.699427009,-0.595746994,0.209270000,-0.002512000,0.255786985,-0.108367004,-0.223187000,0.485792011,0.596542001,0.273003012,0.064255998,-0.744795978,
0.666849971,0.169296995,0.150013998,1.228109956,-2.293289900,0.023921300,-0.592335999,-0.488849014,0.201526001,0.717037976,-0.548801005,-0.039895199,0.042174801,0.640138984,-0.230050996,0.386170000,-0.002058060,0.725539982,-0.313342988,-0.123069003,-1.233309984,0.282187015,-0.024477299,0.899501026,1.836869955,0.087275803,0.364681005,-0.209845006,0.194934994,0.024036501,-0.166317001,-0.019032501,0.184553996,0.021253100,-0.280194014,-0.124743000,0.669674993,0.381843001,1.696110010,-0.170130000,-0.341244012,0.038119201,-0.093450598,0.183682993,0.121800996,-0.136515006,-0.778307021,0.568901002,-0.117334001,0.628116012,
0.033426698,-0.020103199,0.011073800,0.039312400,0.017265400,-0.037674699,0.000405175,0.008494050,0.022507399,0.011225500,-0.019659599,0.013145300,-0.013115100,-0.013492700,0.016708100,0.013597200,0.004541960,-0.046965599,-0.039332699,-0.028784201,-0.020552799,-0.049198899,0.028567700,0.000107984,-0.042148501,-0.044337898,0.013457000,-0.013123700,-0.014119700,0.007585930,-0.041680500,-0.001609380,0.031580601,-0.014088000,0.009742440,-0.039678600,-0.032283202,-0.014865600,0.005396230,-0.006324590,0.012621400,0.019697599,0.023791701,0.006468970,-0.035212800,0.027205899,0.029276101,0.003458030,0.004846360,-0.011945900,
-0.751438975,0.118538998,0.064891003,0.891358972,0.088106900,-1.047520041,0.478103995,-0.451012999,0.069512501,-1.017300010,1.709789991,0.757423997,-0.016610101,1.832299948,-0.515722990,-0.274630994,-0.029851900,0.356631011,-0.862181008,0.216271996,-0.253408998,-1.097200036,0.748896003,-1.119250059,-0.385039002,0.415542990,0.311132997,0.148530006,-0.700955987,0.013996500,1.203099966,-0.395713001,0.290259004,0.031604201,0.227002993,1.042289972,-2.666019917,0.176594004,0.944904983,-0.308584005,0.384932995,0.014168400,0.824581027,0.303889006,0.325614005,-0.669085979,-0.066611998,0.538559020,0.140018001,0.884751976,
-1.058990002,0.048045602,0.187693000,-0.616038024,0.305335999,1.095219970,-0.004698750,0.372794986,1.374989986,-0.411345989,-1.407879949,-0.739718974,0.189434007,1.265750051,-0.075377800,0.137371004,-0.023390600,-0.023812801,1.099339962,-0.469976991,0.172139004,0.963795006,-0.644563019,-1.110110044,-0.600807011,-0.562379003,-2.505949974,0.414160013,-1.398149967,-0.019438799,-0.282665998,1.589990020,1.183539987,-0.020233300,1.195189953,-0.665351987,-3.563839912,0.228472993,2.085730076,-0.017611900,0.156918004,0.013798600,-0.141634002,-0.188666999,-0.642970979,0.304113001,0.170295998,1.067100048,-0.031721398,-0.187093005,
0.027658001,0.023321301,-0.036777001,-0.006065690,0.032371201,-0.001531470,0.007227570,-0.043685399,-0.015316100,0.028851200,-0.031736199,-0.047639702,-0.022584900,0.044845801,0.041101601,-0.034348302,-0.011969600,-0.018225500,0.038006201,-0.009394720,-0.030357899,0.022930600,-0.000142027,-0.049605601,-0.050454300,-0.008283140,-0.020923100,0.029871199,-0.049381599,0.021868199,-0.051374499,-0.012113300,-0.020017000,-0.038642202,-0.019865099,-0.041993700,-0.033169501,-0.050289899,-0.011123400,0.010038500,-0.038803902,-0.033714801,0.042136200,-0.036522299,-0.021299500,0.021203199,-0.048168302,-0.000563131,-0.019363901,0.028623899,
-2.437580109,1.419999957,0.151141003,0.199567005,-0.172011003,-1.811380029,1.688650012,-1.427780032,-2.661760092,-1.823639989,-3.075530052,-0.140063003,0.193270996,0.641794980,-0.724762976,-1.008479953,-0.024124499,0.906436026,-4.175010204,-1.138069987,1.971120000,-5.365340233,2.774470091,-1.536599994,0.458204001,1.030619979,3.187550068,-1.806769967,-1.184069991,0.033096999,-0.713698030,-4.475130081,-0.497033000,0.047287401,-1.628530025,-0.695069015,-2.042180061,-1.694470048,1.542179942,-0.177074999,0.306820989,-0.019986700,1.609099984,-1.150269985,0.340860009,-1.790930033,-0.294167995,1.928840041,-0.968535006,0.995909989,
-0.048143402,-0.026146900,-0.001921070,-0.006107910,0.000685691,0.028243300,-0.005050060,-0.041838001,-0.053421501,-0.047224201,0.034595400,0.034942601,-0.051331699,-0.017345401,0.030243101,-0.024771200,0.016972501,-0.026830100,-0.002921320,0.043455102,0.009026250,0.036715399,-0.027573001,-0.022491399,0.032280199,0.037315801,-0.036363799,0.008110940,0.013766700,-0.046663899,-0.019353099,-0.054108601,0.029123001,0.042161200,-0.034963399,-0.042456701,0.019600600,-0.021639600,-0.002851190,-0.038820099,-0.019329600,-0.029863600,-0.040134799,-0.013422600,-0.054404601,0.013264200,-0.023704400,-0.026945099,0.037998501,-0.023988299,
0.008528010,-0.961471975,0.289391994,0.852676988,0.729626000,-0.504819989,0.247191995,0.762181997,-0.164335996,0.600273013,-2.003560066,-0.793932974,0.319734007,0.943856001,-0.348118007,-0.268105000,0.027719701,0.737486005,0.574817002,0.460148990,0.482277989,0.216041997,-1.920950055,0.282137990,-1.342129946,0.929377019,2.082580090,0.079281300,-0.020614101,0.039405301,0.313414007,-0.369601011,-0.186799005,0.018000500,-0.045811102,0.899495006,1.358330011,0.648984015,0.051660500,-0.219824001,0.941039026,-0.050214902,0.779214025,0.731428027,-1.165860057,0.594222009,-0.091883101,-0.658647001,0.435476005,-0.722622991,
0.350205004,-0.008939710,-0.102424003,0.381040990,-1.516109943,-0.430150986,0.052888200,1.738330007,-0.991011977,-0.104300000,-0.462222010,-0.062973201,-0.066802204,-1.054620028,0.037831198,0.589640021,0.008053140,-0.717299998,0.272226006,0.176391006,-0.490514010,1.863720059,-0.213170007,0.174799994,-0.722087979,0.201390997,-0.876652002,0.296642989,0.526035011,0.036687300,-0.614670992,0.830965996,0.722099006,-0.034262199,-0.441231012,0.840184987,-1.092890024,0.230998993,1.048699975,0.783923984,-0.900448024,0.028421000,-1.447080016,0.652903974,-0.641299009,-0.566205978,-0.802772999,0.156214997,-0.320230991,-0.361416996,
1.126240015,0.282683998,-0.138393000,0.216479003,-3.840719938,0.223009005,0.409346998,0.655923009,1.255679965,0.711174011,0.953270972,-1.572639942,-0.084932797,0.435546994,-0.200615004,0.161783993,-0.020402500,0.619910002,0.525148988,-0.141292006,0.037739601,1.088039994,-0.005734140,0.713147998,-0.196829006,-1.324010015,1.134819984,-0.382750005,0.317541003,0.008652430,-0.379698008,2.210220098,0.423191994,0.042415101,0.045933601,-2.526439905,0.391391993,0.375773013,0.307489008,2.862849951,0.946341991,0.042446800,-0.052466299,0.215489000,-0.090105198,0.426665992,2.391149998,-0.531772971,0.086884603,-2.547319889,
-0.014486100,-0.186203003,-0.120344996,-0.352385014,-1.005839944,-0.472678989,-0.619247973,-0.735548973,0.043925401,0.291999996,-0.679598987,0.038672999,-0.026989499,-0.424589992,0.023100900,-0.158421993,0.045871101,-0.026693201,-0.187451005,0.116150998,-0.056284200,-0.037641302,0.025678800,-0.940052986,-2.443540096,0.003566970,0.178172007,0.220872000,0.392067999,0.005249190,-0.006262310,0.131680995,0.076377504,-0.020436700,0.402902991,0.327241987,0.898492992,0.125652999,0.256949008,0.902704000,-0.334571004,-0.002923090,-0.057542901,-0.454062998,0.097504899,0.038137499,0.529379010,0.940182984,0.174880996,0.118991002,
-0.042543299,-0.026704499,-0.080403604,-0.022492001,0.019705901,0.026964800,-0.047438599,-0.047846101,0.022766100,0.013101600,0.010692700,-0.001464380,-0.036635499,0.002029850,0.036209900,-0.037329800,-0.034253500,-0.055838000,-0.034946099,0.015045600,-0.068359099,-0.028774699,-0.051171999,-0.030288400,-0.014956500,0.013090800,0.012384800,0.038349900,-0.044692200,-0.002706750,0.025919300,-0.000332044,-0.026640899,0.022907600,-0.041957799,-0.030350000,0.003300440,-0.030021800,-0.032305699,-0.022209700,-0.043964598,0.025048001,-0.045130100,-0.048413102,0.023648100,-0.011662600,0.035233200,-0.018964000,-0.024647299,0.031975500,
-0.688202977,0.339883000,0.221214995,-1.020050049,-1.090890050,0.347959012,-0.350612015,0.287645012,0.025696900,0.920315027,0.679498971,-0.936146021,0.153835997,1.078269958,0.887575984,0.141094998,0.028503200,0.622869015,-0.146256000,0.838871002,2.107660055,0.608600020,0.003710950,0.498840988,-0.231563002,-0.427670985,-0.771062016,0.446141988,0.158298999,-0.051586900,-0.401401997,-1.378049970,0.195887998,0.021617699,-0.658432007,0.460146010,-0.214991003,0.041020501,1.142099977,0.642958999,0.417479992,0.008525250,-1.061439991,-0.726426005,-0.933152974,-0.471560001,-0.185130000,-1.196499944,0.984875977,-1.233780026,
0.650416017,-0.697216988,-0.161744997,0.365355015,-1.475409985,0.695653975,-0.385692000,0.330861986,1.330430031,0.822968006,-1.059080005,-0.313178003,-0.190935999,-0.388631999,0.110863999,0.318533003,0.006435450,0.379094005,-1.280519962,-0.043867201,-0.722446978,-0.180722997,0.219505996,1.826820016,-0.185925007,-0.063001499,-0.579837978,0.701005995,-0.261599004,-0.012826900,-0.423002005,-0.021168301,-0.325138003,0.041422799,0.753045976,0.572883010,-0.542118013,0.324824989,-1.109390020,-0.009652390,-0.110527001,-0.016892999,-0.533268988,-0.109351002,0.250252008,0.415730000,0.565999985,-0.992196023,-0.079416104,0.247378007,
-0.073494002,-0.362102985,-0.491218001,-0.261216998,-0.350093007,-0.282490999,0.011080300,-0.064102501,-0.350353986,-0.019481299,1.203390002,-0.319528013,-0.897678018,-0.149443999,-0.155489996,-0.009916070,0.033763301,0.273508012,0.017463600,0.151589006,-0.019753801,0.368375003,0.253668994,-0.173378006,0.161891997,0.055784401,0.264162004,0.547160029,0.084883898,-0.023686500,-0.154776007,-0.142182007,-0.287452996,0.004420540,0.132234007,0.117624000,-0.041929599,-0.076395601,0.094067603,-0.485684991,0.249080002,0.036537100,0.184461996,-0.002915450,-0.068756200,-0.012177400,1.604089975,0.261229008,0.161576003,-0.077839799,
-0.301189005,-0.317050010,-0.646498978,0.307691991,-0.501670003,-0.487594008,0.182564005,-0.571448028,-0.305563986,-0.259252995,1.372889996,0.029793100,-1.546180010,-0.292602986,0.102380998,-0.185853004,-0.011137400,-0.043755502,-0.024088301,0.466156006,0.157536998,-1.910030007,-0.019809900,0.143737003,0.105337001,0.207168996,-0.083318099,0.714420974,0.092948601,0.062553503,-0.129948005,0.007178140,0.066688798,0.045642901,0.560920000,0.073117897,0.316210985,0.257674009,0.055653501,-0.721459985,-0.115436003,0.053249002,0.050948299,-0.148031995,0.047046602,-0.449023008,0.424508989,-0.113325000,0.135203004,0.115505002,
-0.631642997,0.790688992,0.187041998,0.725727022,-0.197916999,-0.899702013,0.005503250,-0.027944701,-1.008090019,-0.745082021,0.528106987,0.773980021,0.155059993,1.475990057,0.018721201,-0.006531290,0.016756300,0.383264989,-0.871493995,0.096222997,0.358267009,-1.401900053,-0.127327994,-1.822059989,-0.532481015,0.429035991,1.080829978,-0.278618008,-0.881552994,0.050278898,0.801014006,0.131981999,0.152287006,0.010452300,0.529027998,0.846920013,-0.330399990,0.581499994,1.189970016,0.521627009,1.157009959,-0.044296101,0.390812010,0.642014980,-0.125456005,-1.500820041,-0.480677992,0.946354985,0.119034998,1.164790034,
0.003558110,0.006797570,-0.005483600,0.048180498,-0.039704099,-0.041646499,0.025308801,-0.017962400,-0.045448799,-0.004551730,-0.036740299,-0.015373300,-0.053115100,0.039090201,-0.005925250,-0.012049600,0.044067401,0.047197100,-0.051572502,0.001890200,-0.049771000,0.003201570,-0.042014498,0.024899799,0.024717599,0.034606401,-0.031709801,-0.006748350,-0.038731098,-0.017531600,0.028909201,0.037481599,0.007683170,-0.038809501,-0.021466600,-0.004540710,0.017004499,0.016586300,-0.043050200,-0.035673801,-0.031774402,0.028009901,0.029588800,-0.055966701,0.018508499,-0.001973290,-0.012248500,0.009197250,-0.011540700,0.019919200,
0.032210801,-0.009526370,0.017362701,-0.044287901,0.007186960,-0.033657402,-0.052628499,-0.045395900,-0.012381800,-0.037688602,-0.069642402,-0.019124100,0.009917560,-0.007823990,0.035854399,0.005106350,-0.022412799,-0.002598570,-0.046845902,0.001959810,-0.017447600,0.012401300,-0.040752999,-0.029260701,-0.042485800,0.016373400,0.000018351,0.004567490,-0.002489480,0.042555001,0.031743400,-0.022853300,-0.014148600,0.039741300,-0.054838199,-0.032309700,0.015128800,0.001320660,-0.055075102,0.008206260,-0.040602800,0.019796500,0.022016400,0.038411401,-0.003075730,-0.042717502,-0.016520400,-0.028733600,0.024837701,-0.016488800,
-0.259586006,0.163820997,-0.047630999,0.790170014,-0.078704402,0.853572011,-0.391570002,-0.648540974,0.289315999,-1.352220058,0.754074991,0.400849998,0.006070230,0.680355012,-0.354981005,-0.063452899,-0.037452500,-0.137941003,-1.597880006,0.015320000,1.192450047,0.560840011,-0.177332997,0.641649008,0.105129004,0.980890989,0.882655025,-0.427044988,-0.039513201,-0.010614900,-0.484638989,-0.654781997,-0.531494975,-0.011915100,-0.508365989,0.294990987,-1.634639978,-0.078830697,0.411119998,-1.682219982,0.266840011,-0.018433301,-0.742513001,0.010629200,0.618408024,-0.166932002,-0.969143987,0.772496998,-0.203116998,-0.066714503,
0.996563017,-0.335875005,0.048146602,1.773910046,0.399138987,-0.623480022,-0.153694004,-0.368129998,-0.817903996,0.966360986,-0.462918997,0.304279000,0.079760499,0.005664190,0.148829997,0.434868008,0.041282699,0.114603996,0.632390976,-0.613898993,0.544184983,-1.628430009,-0.203695998,0.040889502,-0.050197400,-0.578570008,0.487129003,0.707293987,0.322950989,0.003587380,-0.251681000,-0.073225804,-0.219365001,0.004197620,0.396218985,0.612987995,0.418758005,-0.376379013,-0.484647006,-0.386267006,0.256134003,0.017881300,-1.201949954,0.520532012,0.676450014,-0.219239995,-2.714440107,0.065584101,0.393530011,-0.164578006,
-0.832216024,-0.132584006,-0.013967700,0.730522990,0.708702981,-0.328126013,0.411915988,-0.321471989,0.259781986,-0.388599008,-0.276953995,0.320616007,-0.080203101,0.590731025,-0.093001001,-0.090613797,0.006133980,0.301187009,-0.097989202,-0.020226801,0.584787011,-0.797040999,0.282233000,-1.791309953,-0.069574803,0.037701301,1.035150051,-0.460316002,-0.145561993,-0.010199100,0.953770995,-1.096609950,-0.360680997,0.038215201,1.090469956,0.368984014,-0.118680999,0.118372001,-0.030380500,-0.494170010,0.956582010,-0.033890098,0.316383988,0.670428991,-0.420713007,-0.260879010,0.031161800,0.508472025,-0.055451199,0.533577025,
0.533469021,-0.299760014,0.312460989,-0.573096991,-9.620129585,-0.919081986,-0.189420000,-0.609327018,-0.839300990,-0.111055002,0.841264009,-0.813964009,0.325298011,-1.056200027,-0.256756991,0.086236604,-0.024683300,-0.528536022,-0.407802999,-0.144347996,1.027410030,-0.946305990,0.372954994,0.106523000,-0.067502201,0.052836400,1.077919960,0.642490983,-0.222698003,-0.030602399,1.500710011,1.401569963,0.318138987,0.005372380,0.293076992,0.777070999,-1.223850012,0.042201001,-0.179876000,0.420008004,-0.028865799,-0.006355190,0.402871013,0.004997450,0.683888018,-0.079802498,1.016729951,-0.390774012,-0.076522201,-0.734535992,
-0.636668026,0.619556010,0.175209999,-0.026148601,-0.823114991,-1.055780053,-0.851908982,0.559961021,-1.572950006,0.389779001,0.769999027,-0.078637399,0.230324000,1.584439993,-0.845229030,-1.284289956,0.009975030,0.351397008,-0.042314999,0.422652006,-0.113789998,0.043484800,-0.835330009,1.564640045,1.039749980,1.682909966,-0.059670102,0.064300403,-2.280430079,0.041791301,-0.447905004,-1.105489969,2.139590025,-0.014915000,0.522439003,-0.644164979,2.743550062,0.527208984,-1.608199954,0.528041005,-0.216497004,-0.031423502,0.111838996,0.861909986,-0.031312201,-0.125974000,0.109916002,-0.241612002,-0.242263004,1.171609998,
-0.488027006,-0.605610013,0.026742700,-0.017125800,0.220670998,0.492745996,0.146302000,0.221935004,-0.257523000,0.568014979,-0.435346007,-0.767215014,0.063743003,1.730460048,-0.309625000,-0.319406986,-0.052133098,-0.457899988,0.376316011,-0.004485180,0.317003995,1.176509976,0.765066028,0.820742011,0.457343996,1.773309946,-0.013426400,0.242446005,-0.498800009,0.029194999,0.682272971,1.576709986,-0.024004700,-0.031406499,-0.189851001,-0.512589991,-0.383451998,-0.312956989,0.957804024,0.036573499,0.051672801,-0.012679700,0.359230012,-0.486966014,-0.049235899,0.210090995,-0.328267008,0.106274001,-0.025142100,0.878804028,
0.002330590,-0.020725900,0.031529799,-0.010578100,-0.026887000,-0.005141500,-0.000837411,0.034377199,0.017704900,0.018579500,0.034250598,-0.050296400,-0.036319800,-0.053942502,-0.039454799,0.025998900,0.013572000,-0.044510301,-0.003567560,-0.054564402,-0.050269801,0.022464899,0.006163800,-0.041265301,-0.006531280,0.003865130,-0.052273899,-0.054122299,-0.035654102,-0.020609800,0.028229300,0.021851100,-0.026151000,0.035669200,0.003230350,0.000251300,-0.053460799,0.021345001,0.036327001,-0.019794200,0.015617600,-0.037785601,-0.024939800,-0.032880999,-0.017889701,-0.050070900,-0.051963899,-0.002497470,-0.055475801,0.037914999,
-0.744072020,-0.031960901,0.111489996,-0.256402999,0.353298008,-0.390417010,-0.087430596,-0.178271994,-0.381175995,-0.756376028,2.188659906,0.023986099,0.080847703,-0.718741000,-0.415924013,-0.427257001,-0.000989662,0.662998974,-0.634214997,0.005472540,-0.270864010,-0.290423006,-0.657052994,-0.130113006,0.137980998,0.345140994,-0.102744997,0.290520996,-0.041291501,0.058779601,-0.377667993,-0.932286978,-0.597800016,0.015759300,-0.607098997,0.202855006,0.263067991,-0.308108985,0.661430001,-0.219491005,-0.669068992,0.029323300,-0.161075994,-0.130893007,0.362385005,-0.474361986,-1.417610049,0.299463987,0.375905007,-0.131449997,
-0.713954985,-0.046106402,0.066011198,-0.095353998,-1.981279969,-1.078150034,0.521640003,-0.314031988,-0.591942012,-0.899825990,0.835987985,0.308156997,0.144761994,0.319195986,0.302002996,0.549728990,-0.024535000,-0.718715012,-0.929863989,-0.853339016,1.522289991,-1.951470017,0.168920994,-1.795680046,1.141559958,0.366183013,-0.006068610,-0.375645995,-0.343950987,-0.005952900,0.106559999,0.632631004,0.120002002,0.005786520,0.375835001,0.374532014,-0.159430996,-0.435097009,1.432450056,-0.354813010,0.387499988,-0.031427801,0.270296991,0.009936290,-0.630096018,-2.281280041,-0.500678003,0.976534009,-1.427880049,0.095919900,
0.668223977,1.028880000,-0.095935702,-0.340851992,2.349819899,-0.183311999,0.941282988,1.690989971,-0.545574009,1.009359956,2.592439890,1.482259989,-0.205566004,0.947356999,0.792632997,-0.381713003,0.031034900,0.806062996,-1.945649981,-0.275790006,0.392479986,-0.914830983,0.965215027,-0.549700022,-0.953595996,0.641551018,1.004750013,-0.375025988,0.052062400,0.046323702,0.035036098,0.978133976,0.945255995,0.008689770,1.324699998,0.148495004,-1.859760046,0.169183999,1.544250011,1.726580024,0.774420023,-0.031894401,-0.138311997,-0.642369986,0.349390000,-0.963021994,0.955489993,-0.493690997,0.415766001,0.746779978,
0.975637019,-0.827576995,-0.024471600,-2.448299885,-0.011278500,0.173133001,0.158115998,-1.718909979,1.174419999,-0.215241000,-2.620239973,0.655485988,0.020810699,0.941549003,-0.933830023,-1.218880057,0.012987600,0.881888986,-6.943290234,-1.203430057,0.750021994,-3.729089975,0.080243103,-1.369029999,1.180930018,0.560949028,0.950227976,-1.689139962,-0.360906005,0.027113101,-0.194726005,0.413307011,0.413951010,0.025462100,-1.215479970,1.754750013,-3.262690067,-1.949219942,0.529829979,0.027140800,1.003630042,-0.008354890,1.088569999,-3.037349939,-2.726510048,-0.268083990,0.056703899,0.319945991,-0.425907999,0.637206972,
-1.062319994,2.018300056,0.246235996,0.676243007,0.061865799,-1.315029979,1.211269975,0.038259398,-0.791004002,-0.971526027,-0.813606024,-0.484216988,0.260830998,0.266048014,-0.322970003,-0.870710015,-0.049467400,2.713560104,0.119995996,0.073473901,1.929919958,-0.251017004,-0.131200001,-0.386676997,0.467290998,-0.726059020,2.146250010,-0.721019983,-0.667837977,-0.000386760,-0.801262021,0.640807986,-1.321930051,0.028080400,-0.540699005,-0.980260015,-0.724910975,0.006961820,-2.064510107,-1.781129956,1.059100032,-0.030547500,0.921360016,-0.048942901,-0.552434981,-0.116921999,0.704124987,0.116985999,-0.714809000,1.229789972,
1.276759982,0.291025996,0.304841995,0.877099991,-0.633683026,0.929463983,-0.255176991,1.509750009,1.656229973,1.205139995,0.410843998,0.910100996,0.355758995,0.378237993,0.203257993,0.002299910,-0.008386310,0.847222984,1.430719972,0.106795996,0.143916994,0.518222988,0.145266995,-0.486829996,-0.304641992,1.331449986,1.375079989,-0.276091009,0.926625013,0.016950401,-0.052963801,1.632509947,1.069169998,0.036851000,0.309561998,1.242460012,-0.945174992,0.233402997,1.458289981,0.469931006,1.194880009,0.028417200,-0.109789997,0.725615025,-0.479205996,0.595961988,-0.255438000,0.176937997,0.096159004,0.986657023,
-0.012615700,0.114125997,-0.173154995,0.750088990,-0.910386026,0.130612001,-0.322356999,-0.071283497,0.522512019,-0.263994992,0.185800999,-0.159189999,-0.099530399,0.643857002,-0.138855994,-0.224191993,-0.029246701,-0.175613999,0.353922993,0.233829007,0.196532995,0.364111990,-0.320403993,-0.774075985,-1.495589972,-0.120991997,-0.260728002,0.092889696,0.541042984,0.019400200,0.513481975,0.600582004,-0.634875000,0.023638399,0.446781009,0.306952000,-0.170240998,0.252260000,0.216591999,0.229968995,-0.140903994,0.010491400,-0.011856600,0.476372987,-0.247399002,-0.301634997,-0.935290992,-0.774259984,-0.059051801,0.036463600,
0.024612200,0.028921301,-0.006110050,0.003288140,-0.028821699,0.012188400,-0.029238701,0.002667420,-0.037078500,-0.016835099,0.038386200,-0.013938000,-0.027149901,0.018692600,-0.048084602,-0.017497201,0.036257401,-0.003882580,0.027649000,-0.049400099,0.026805401,-0.016918400,0.031301200,-0.042139798,-0.008475960,-0.011992700,0.028377499,0.013254100,-0.009243410,0.028455900,-0.022836599,-0.008939130,-0.050208699,-0.024922900,-0.040740300,0.002391930,0.031397399,-0.048475601,-0.049846001,-0.032718699,0.027727000,-0.050910801,-0.041384298,-0.030031100,-0.015920000,0.005037620,0.008428440,-0.004928850,-0.008443150,-0.010066900,
-0.306162000,0.385825992,0.371059000,0.454551011,-0.263294011,-0.992478013,0.815801024,-0.026118400,-0.256678998,0.477979988,0.553539991,0.984026015,0.361389995,0.042443302,-0.052198201,-0.422987014,0.023937300,-0.728918016,-1.256139994,-0.393568993,0.990181983,0.948045015,0.062121700,0.496086001,0.803053021,0.803955972,2.355809927,-0.672169030,0.058851201,0.007452870,0.568692029,-3.051779985,0.044720698,0.002032740,-0.950859010,-0.507134974,-3.083529949,0.048249099,0.289252996,-3.154010057,0.183814004,-0.011764000,0.326974988,0.339751005,0.539295971,-0.466437012,-0.760104001,0.513679981,0.355194002,-0.667397022,
0.822682023,-0.970076978,0.003780940,0.240217000,-0.758068979,0.894841015,-0.241105005,1.010110021,0.459856004,0.175655007,0.358550012,0.083180398,0.039489198,-0.857146978,0.445270985,0.635562003,-0.019122800,0.153126001,1.173480034,0.169888005,-0.251798987,0.813091993,-0.606441975,-0.151723996,0.483087003,0.003635430,-0.640448987,0.402114987,0.584864974,0.022896999,0.476390988,1.380079985,0.012952800,0.004306620,0.230649993,0.209775001,-1.116240025,0.639710009,0.465346009,-1.524140000,-0.307051986,0.011094400,-0.851980984,0.396162003,-0.596365988,-0.085886903,-3.788769960,-0.206661999,0.165689006,-0.658335984,
-0.746676981,-0.826797009,-0.006986970,0.396661997,-1.795079947,0.179003000,0.374451011,-0.770974994,-0.323817998,-0.121354997,-0.161072001,0.978398979,0.050264299,1.472679973,0.019078000,-0.005695580,0.030105600,0.249130994,-2.716599941,0.262510985,-0.307841003,-0.677626014,0.147796005,0.182942003,-0.498795986,-0.715048015,-0.557671010,0.470934004,-0.352925986,0.020675400,0.361952007,-1.472399950,0.724020004,-0.020959500,-0.478587002,2.067150116,0.169108003,-0.130103007,-1.504500031,-0.870054007,-0.218768001,0.000600499,0.321224004,-0.110592000,-0.109529004,0.141834006,0.356236994,-1.551130056,0.564994991,0.905651987,
-0.090494201,-0.757565975,-0.130197003,-0.860944986,-0.262609988,-0.551138997,-1.251899958,1.492939949,1.812649965,0.665768027,-3.496500015,-0.402496994,-0.123745002,-0.910619974,-0.661666989,-0.390949011,0.012966500,0.527980983,-0.130031005,-0.073113702,-0.636014998,-1.241899967,-0.698311985,-2.124700069,-0.364928007,0.317240000,1.036620021,0.120984003,0.415728003,-0.011752600,0.407844990,1.397989988,-0.287333995,-0.013001200,-0.288617998,0.236769006,0.057875399,0.366562009,-1.626279950,0.537012994,0.907374024,0.061277300,0.015271900,-0.029562199,1.350610018,0.976963997,-0.058235500,-0.139782995,-0.335734010,-1.270220041,
-0.420498013,-0.105222002,-6.465819836,0.354712993,-0.656239986,-0.011622400,0.147973999,-0.010298000,-0.109160997,0.031950202,-0.343878001,0.168378994,-8.918049812,0.163423002,-0.022488600,-0.035842601,0.017273501,-0.093796298,-0.086662203,0.167579994,0.209781006,0.459500998,0.129566997,0.378987998,0.014783300,0.106118001,0.157188997,0.149073005,0.004887320,-0.009996240,-0.165055007,0.197734997,-0.077018403,0.052765600,0.376780003,-0.083773799,0.067917101,0.216202006,0.231785998,-0.091976002,-0.067887299,-0.023641000,0.031031700,-0.407458991,-0.122924000,-0.137960002,-1.389600039,0.066640802,0.308111012,-0.117784001,
0.041899201,-0.052776199,-0.045765501,-0.032773402,0.001290480,-0.048071399,-0.060281899,0.010669100,0.020168100,0.031197200,0.011292900,-0.033641800,0.024146801,-0.024421399,0.008773280,0.030664600,-0.043628599,-0.030157899,0.040800501,0.013485000,0.000277973,0.034352299,-0.024460301,-0.017347800,0.017434200,-0.007539110,-0.001590110,-0.039308399,0.007707350,-0.048595700,-0.020203199,-0.019103400,-0.044221800,-0.007310200,-0.041869499,0.035947200,0.010697300,-0.005971250,-0.031010300,0.017671101,-0.010814200,-0.022338601,-0.022691900,-0.036684599,-0.038520999,-0.052247498,-0.023686999,0.043122001,-0.044419698,-0.025088999,
-1.243119955,-0.975521028,0.255878001,-0.349720001,-2.689769983,-0.757248998,0.981643975,-0.077296898,-0.678744018,0.067510404,1.203130007,-0.147411004,0.234764993,1.406399965,-0.313598007,0.373569995,0.002060840,-0.499116987,0.087163299,0.485951006,-1.073680043,-1.545230031,0.083577298,0.564366996,1.578089952,0.330381989,-0.232519001,0.123092003,-0.446846992,-0.019960200,0.324627995,1.349400043,0.459847987,0.037735101,-0.432588995,-0.189968005,0.679509997,0.313136011,0.986150980,-0.228064999,-0.267758995,-0.003051670,0.293291986,0.368028998,0.558758974,-0.245306998,0.555786014,-0.606061995,0.066186398,0.251592010,
0.757166982,0.698369980,-0.872532010,-0.788007021,-4.555990219,-0.499545991,0.565205991,-0.561061978,-0.852853000,0.016280301,1.191220045,-1.565660000,-0.814378977,-0.462772012,-0.468937010,-0.449422002,0.006394630,1.315700054,-4.910550117,-0.155792996,-1.305140018,1.264879942,-0.310822010,0.234116003,-3.973429918,0.107219003,-0.288875014,-0.246219993,0.327818990,-0.016247900,-0.636413991,2.631020069,2.221220016,0.029036300,0.188403994,-0.367895991,0.605939984,0.326065987,-0.208516002,-0.565190017,-1.186159968,-0.048845101,0.385901004,0.168787003,0.313685000,-0.063873701,-2.456690073,0.085008197,-0.449849993,-13.349100113,
-5.240139961,-0.082433403,-0.096616000,0.124454997,1.855119944,-1.273110032,0.809921026,0.801344991,-1.176079988,0.013250400,1.005800009,-0.381898999,-0.001849130,2.078799963,-1.054610014,-0.826517999,0.047002699,-0.023269299,0.253170997,-0.625110984,0.194225997,2.090519905,0.404765010,0.916508019,0.338340998,0.203216001,1.203259945,-0.165448993,-1.266520023,0.000176315,0.232803002,-3.782419920,0.729456007,-0.045150399,-0.190799996,0.544360995,-0.377029985,-0.276430994,0.375014991,-1.112550020,0.665665984,0.001494860,0.637623012,0.103026003,-0.451323986,-0.069082797,-0.815954983,-0.586208999,0.196692005,0.328655988,
-2.610980034,-1.363080025,0.019415800,-0.315757006,0.159370005,-0.216220006,0.372853011,0.278797001,-3.545589924,0.589980006,-0.402511001,0.021212799,0.109393001,1.816990018,-0.580587983,-0.320344001,0.010457200,-1.297399998,0.823920012,-0.600004017,-0.124370001,-4.620890141,-2.430069923,-5.855269909,-1.205739975,-0.869141996,-3.125349998,-0.536832988,-0.400041997,0.010348100,0.471305013,-8.184009552,-0.373248011,-0.040608998,0.444003999,-1.146020055,-3.160170078,-1.294849992,0.364362001,2.038850069,-1.810199976,0.052195601,-2.874969959,-0.462659001,0.223278999,1.370100021,-1.588140011,1.163589954,-0.525174975,-0.087998100,
-1.300369978,1.079810023,0.236059994,0.212123007,-4.061659813,0.471659988,0.725898027,-4.455430031,-1.911180019,-2.646699905,0.875624001,-0.729950011,0.285562992,-2.184809923,1.265100002,-0.741981983,0.009757870,-2.251209974,-3.948009968,-0.379967004,-1.518769979,-4.358520031,-2.949949980,0.470811993,1.261289954,-0.796648979,-2.366719961,0.433706999,-0.006093920,-0.030789100,-3.073889971,-4.993909836,1.073580027,0.028308500,-1.841609955,1.445160031,-2.788120031,-0.983044028,-0.152637005,-0.947669029,-3.297879934,0.025397399,-0.868640006,-1.067510009,-5.489290237,-1.276919961,-1.492990017,0.358126998,-0.394564986,-3.335930109,
-0.267940998,-1.317379951,-0.047926299,-0.272287995,-2.809600115,0.343423992,0.771080971,-0.446159005,0.119971998,0.192304999,-0.996905982,-0.460278988,0.011173800,-0.577087998,1.203279972,-0.112441003,-0.015150500,-1.537359953,1.573860049,0.109100997,0.685850978,-1.055920005,-2.270479918,-2.210969925,-0.338312000,-0.016752001,-1.695569992,0.725102007,-0.386162013,-0.012569100,0.788950980,0.361414999,-0.954964995,0.016730599,-0.048362300,-0.991764009,0.116677001,-0.504193008,1.530599952,-1.602220058,-0.264907986,0.030408500,-0.450289994,0.284691989,0.192853004,-0.100005001,-1.013829947,0.420810014,0.545000970,-0.616438985,
-3.143270016,-0.360713005,-0.101060003,-0.169881999,-0.430866003,-2.042890072,0.559383988,0.146219999,-1.888540030,0.700760007,0.465398014,-0.128061995,-0.077908598,-0.368575990,-1.609380007,0.690219998,-0.020280899,1.988059998,-0.178435996,-0.368685007,0.313728988,-0.969842970,0.525200009,-1.079089999,-1.352460027,-14.950699806,-3.035010099,-0.420538008,0.306347013,0.045925502,1.034100056,-2.072360039,-1.898949981,0.052250098,0.692770004,-1.953940034,1.435279965,0.016099401,-2.341850042,-1.210659981,0.605283022,0.042188801,-0.140084997,-3.156049967,1.728989959,1.051630020,-0.930227995,-0.727275014,0.063891403,0.963971972,
0.004137990,0.003701790,0.004150390,-0.032158699,-0.033226300,-0.026517799,-0.003692610,-0.031374000,-0.039631601,0.012967700,-0.037876800,0.035123099,0.019479301,0.039446700,0.041139498,0.018887600,-0.007795370,-0.014201400,0.041039199,0.007076590,-0.006076660,0.025281901,-0.008714030,-0.059679199,-0.031481698,-0.021580299,0.008407000,-0.036158301,0.021016300,-0.006277720,0.020271800,0.003569050,0.013333700,0.009335660,-0.059149198,-0.008134760,-0.021292999,0.003701350,-0.056496698,0.026650099,0.038533699,-0.002476860,-0.041696198,-0.013734500,-0.043276001,-0.013299900,0.012824300,-0.053987201,-0.001729080,-0.035978600,
0.298896015,
-0.146241993,
-1.128839970,
-0.006152060,
-0.633044004,
0.713728011,
-0.006569320,
1.434450030,
-0.011009400,
-1.126389980,
-0.103578001,
-0.136658996,
-0.252034992,
-0.005279240,
-1.084489942,
-0.046120498,
0.258031011,
-0.080386497,
-1.054550052,
-0.038527202,
-0.030230301,
0.216254994,
-0.838461995,
-1.027160048,
-0.909714997,
0.733484983,
-0.327809989,
-0.010018400,
0.241220996,
0.838732004,
-1.066810012,
1.650830030,
1.128900051,
-0.023748200,
0.444234997,
-0.008077300,
-0.310158014,
-0.332134008,
-0.094013803,
0.524061024,
0.750000000,
-0.020628300,
-0.699504972,
-0.014258700,
0.595820010,
1.305019975,
0.766386986,
0.535874009,
0.490857989,
-0.025120500,
0.190286994,0.015977999,-0.048312299,0.036575999,-0.129675999,-0.032782599,0.017117400,-0.549023986,0.033937000,0.356191009,-0.112946004,0.672587991,-0.092136703,-0.012321700,0.331759006,-0.069087103,0.248708993,0.426151007,-0.101326004,-0.032167900,-0.006533450,0.161890998,0.010469200,0.381568998,0.027876301,0.106720001,0.406177014,-0.030321499,0.380876005,0.265302986,0.238934994,0.350887001,0.157021999,-0.067084000,-0.159803003,-0.020654500,-0.222951993,-0.104463004,0.019500701,-0.068807296,-1.731400013,0.007300920,-0.290100008,-0.188822001,-0.093399301,0.032332800,-0.333283991,-0.249367997,-0.300218999,0.039091799,
-0.421223015,1.078230023,3.210269928,0.031305399,-0.196613997,0.631873012,-0.004574060,0.085807502,-0.042641800,0.073986597,0.229800999,-0.321125001,1.155069947,-0.005973390,-1.493379951,0.972266972,-0.412934005,-0.739102006,0.935639977,0.027307499,0.008250540,-0.678664029,1.028530002,1.751440048,1.061229944,-0.491338998,-0.047223199,0.042149302,0.951654017,0.254799992,-0.062132102,0.998210013,0.101843998,-1.416270018,1.905220032,0.002373680,-0.470674008,1.670420051,1.726169944,1.534340024,-0.976325989,0.038996000,3.816550016,1.121500015,0.515716016,-0.977564991,0.540998995,-0.293837011,0.318935007,0.032397099,
-0.242295995,-0.129019007,-0.522248983,0.016795600,-0.216474995,-0.024285400,-0.016789500,-0.170864001,0.008882960,-0.677026987,0.223803997,-0.141653001,-0.665376008,-0.016929200,0.070467100,-0.558817029,-0.028911600,-0.674161017,-0.576237023,0.024456300,-0.008157560,0.193123996,-0.259054005,2.124130011,0.075074904,-0.017026400,0.051013600,0.036562301,-0.953450024,-0.442234010,-1.422559977,0.048907001,-0.031367399,0.230582997,-0.886448026,0.002737430,0.022506399,0.680011988,-0.249968007,0.899305999,-2.746150017,0.001883610,0.274531007,0.099747099,0.290004998,-0.221349001,0.817844987,-0.080613002,0.315705001,0.037654601,
1.337489963,-0.781998992,-10.192500114,-0.030165100,-0.960349977,0.555899024,0.015754400,0.874621987,0.024437999,0.288630992,-0.521184027,-0.810671985,0.038315300,-0.023079600,-0.743040025,0.125650004,-0.025456900,-1.506010056,-1.219470024,0.035760202,-0.004586510,0.457987994,-1.279620051,-0.526865005,-1.199090004,1.636049986,0.758794010,0.025504500,-0.236175001,-0.497653008,-0.021007899,0.196036994,-0.198153004,0.998543978,-1.142639995,0.003398040,0.853515983,0.734893024,-0.790277004,-0.288955986,-1.198179960,0.033814602,0.567146003,-1.941640019,0.656415999,-0.462426990,-0.269910991,-0.235660002,-0.700381994,-0.049197700,
0.235240996,-0.610809982,0.515672028,0.008001980,-1.074399948,0.364098012,-0.032987200,0.583597004,0.007017610,1.522150040,0.617663980,-0.694145977,-1.916229963,0.050632901,-0.383735001,0.341921002,-0.775402009,-0.732304990,-0.490851998,-0.027810000,-0.020801000,0.596261024,2.685699940,-2.176379919,-1.494709969,-0.170855001,0.712037027,0.020871401,-1.527639985,0.306751013,0.085253596,0.999588013,0.657140017,1.573570013,-1.662279963,-0.004905610,0.622367978,0.998926997,0.734978020,1.961249948,-2.052680016,0.000809534,0.106734999,2.185250044,-0.625099003,-0.634979010,-0.193765000,-0.046101201,1.741500020,-0.029608600,
0.181321993,0.117579997,1.421839952,0.009893350,-0.395864010,-0.690026999,0.011574900,0.195951998,-0.018423799,0.750389993,-0.208267003,0.250178009,0.342478007,0.003688730,-2.756829977,-2.210170031,0.323471993,1.052620053,-0.291357011,0.012338000,0.053167999,0.417980999,-0.376374006,0.510151029,0.298303008,-0.500208020,-1.176800013,-0.045240901,1.137549996,0.187052995,0.168117002,-0.076135501,-0.008183120,0.133718997,-0.350558996,-0.029274501,0.418141007,0.310189992,-0.301304013,0.655451000,-0.001205710,0.024139799,0.771305025,0.721095026,-0.290257007,-0.108667001,0.351534992,0.199580997,0.334657997,-0.051057801,
0.570860982,-1.199730039,-1.170210004,0.037983902,-2.823549986,0.129568994,-0.028117601,-1.741340041,-0.007383960,-0.294292986,0.726424992,-3.426510096,-1.397889972,0.003916180,-1.358080029,0.045766499,-0.925625980,-0.291725993,-2.981539965,0.036684100,0.006721020,0.984160006,0.649664998,-1.403460026,-0.567394018,1.048990011,1.693369985,-0.037414201,-3.649319887,-2.295310020,0.326155990,2.203469992,0.220440000,2.656529903,0.024927700,-0.047466699,-1.825610042,3.481379986,0.644096017,-1.160200000,-4.521180153,-0.016954901,-0.414240003,-0.148607001,0.908071995,-0.605943978,-3.223210096,0.065027602,-0.312593997,-0.031739902,
0.197332993,0.018496200,0.147983000,0.045909699,0.316473007,1.723839998,0.030560501,-0.622226000,0.015834000,0.416283011,-0.902283013,0.700457990,0.610008001,-0.021321300,0.351213008,0.364208013,0.114368998,0.155665994,1.767680049,0.008662220,0.040204700,-0.633172989,2.370840073,2.064529896,-0.496603996,-0.805710018,0.112545997,-0.036432300,0.811609983,-1.152080059,-0.054275699,-0.830402970,-0.797940016,0.125492007,1.368630052,0.048196901,-0.609739006,2.378410101,-0.977059007,-0.131081000,3.849169970,0.000266243,-0.051958300,0.109187998,0.789012015,-0.312133014,-0.290280014,-0.332444996,0.541863978,-0.026836200,
0.506146014,0.069254600,-1.996219993,-0.015830999,0.336964995,0.071158998,0.044559799,0.731679976,0.033695299,0.257872999,-0.228304997,0.102197997,-0.667455971,-0.012330300,-0.574275017,1.040490031,0.178350002,0.580363989,0.296591997,0.047837701,-0.002927810,0.396311998,-0.439262986,0.471702009,0.336003989,-0.000254223,0.296647012,-0.011947600,0.586908996,-0.105884001,-0.772410989,-0.552227020,0.353881001,-0.078448497,0.062737197,-0.029011499,0.637614012,-0.560890019,-0.481963992,0.246892005,0.356642991,-0.002963950,-0.621243000,0.171158999,0.091128498,0.247161999,-0.027174899,0.034111399,0.119351998,-0.013764900,
0.559113979,0.933256984,-1.056450009,-0.026607901,-0.754598975,-0.234795004,0.008801440,0.588303030,0.002676930,0.827937007,-0.322656006,-0.680289984,0.228330001,0.016356600,-0.389209986,-0.217287004,0.038714800,-0.508023977,-1.960929990,-0.038238000,0.014672500,-0.007750520,-2.814219952,0.891875029,-1.161509991,0.667712986,0.695496023,0.045133699,-0.536700010,-0.273847997,1.227110028,-0.288260996,-0.569185972,0.275050014,-0.342339993,-0.018974001,0.668959022,1.924440026,0.104346000,-0.627499998,1.861809969,-0.030867999,-0.013718800,-0.266526997,0.104662001,-0.423319012,0.846386015,-0.797417998,-0.430922002,0.030760700,
1.485389948,-2.148289919,0.922071993,0.006215180,-1.176149964,0.391970009,0.003526210,1.534389973,-0.027072100,0.609622002,1.378640056,0.212837994,3.827199936,-0.027254900,0.831633985,-0.683439016,-0.265103996,0.752344012,-0.983058989,-0.031995900,-0.060320102,-0.912562013,1.408679962,-3.560319901,-1.056779981,-0.435353011,-0.284034997,-0.017465999,-1.812160015,-0.742528021,0.118271999,0.081527300,-0.019377301,2.218110085,0.302226007,-0.015760601,-0.448971987,-1.515720010,-1.293419957,0.082208999,-0.781538010,0.013926200,-1.186669946,1.515480042,-0.987330973,0.164073005,-0.594272017,2.003880024,0.015126600,0.048829701,
0.104795001,-0.218698993,-0.452102989,-0.029608101,-0.517189980,-0.029260799,0.013221400,0.112272002,0.010960900,0.151583999,-0.106604002,0.013247400,-0.716450989,-0.001744300,-0.489499986,0.627364993,0.069682904,-0.102002002,-0.317725986,0.046901599,-0.033743199,-0.116931997,-2.927449942,-0.329331994,0.270568997,0.216206998,-0.141032994,-0.007498240,-0.607751012,-0.419376999,0.010043400,-0.196051002,-0.060107801,0.163210005,-0.274785012,-0.022807799,-0.744054973,0.315654010,-0.066918500,-0.721238971,0.090572402,-0.046168800,-0.031707499,0.169765994,0.246902004,0.009073630,0.135069996,-0.032925501,0.018125299,-0.009285730,
0.058977600,0.219579995,-0.626690984,-0.034596100,-0.215801001,-0.383381009,-0.009093800,0.073963001,-0.023851501,0.164708003,-0.070073701,-0.307579994,0.002824430,0.029485401,-0.236320004,-0.211002007,-0.235414997,0.191679999,-0.245727003,0.042813402,0.005128400,0.107758999,-0.170754999,-0.161111996,-0.462177992,0.037039299,0.375595003,-0.042118300,0.146723002,0.176700994,-0.375788987,-0.128370002,0.036978900,0.259029001,0.304646999,-0.023581900,0.422684997,-0.250732988,-0.147799000,-0.273220003,-0.232063994,-0.012284600,-0.242644995,-0.253951013,-0.108280003,0.145447001,-0.027341001,-0.228951007,0.091325201,0.051252302,
-0.532455027,0.325668007,1.180709958,0.000159736,0.720654011,-0.489140004,-0.028842600,0.040967699,0.046206899,-0.418567002,0.221743003,0.208814994,0.512493014,-0.007491200,1.158069968,-0.203017995,0.053032700,-0.350930005,0.141950995,0.031507600,-0.043701801,0.388527006,-0.067080103,-0.314592004,2.208400011,-0.002292880,-0.173284993,-0.012629000,-0.202787995,0.114537001,0.612119019,-0.400958002,-0.497514993,-0.825967014,0.900135994,0.001958080,0.150753006,-1.390220046,-0.017604901,0.842505991,0.781210005,0.039934300,-0.766378999,0.144967005,0.560190022,-0.187942997,-0.933908999,0.639357984,-0.167625993,0.008653780,
0.380715996,0.552178979,-2.373300076,-0.032892302,-0.675804973,-1.362689972,0.008904560,2.705250025,-0.009694980,0.924220979,-0.504913986,-0.576754987,0.128021002,0.024580600,-0.559123993,3.219779968,0.605401993,0.554966986,-0.671904981,0.029397100,0.040963501,0.421541005,-0.345957011,-1.802459955,0.525731981,0.292385012,-0.843824983,-0.034228899,2.653529882,1.439270020,-0.466035008,0.044028100,0.610848010,0.152593002,1.319000006,-0.035132401,1.295279980,-1.404719949,2.599159956,0.013305100,-1.576460004,0.024259500,2.191890001,1.763859987,1.096369982,0.135638997,2.962779999,-0.978428006,-0.232062995,0.000633352,
0.228724003,-0.038276002,0.760077000,0.029165100,-0.182907999,0.365251005,0.002176650,-0.041754600,-0.007806060,0.214077994,0.020116000,0.013441200,0.562191010,-0.044382200,0.107050002,0.769061029,-0.247687995,-0.491499007,0.080275103,0.026410600,-0.009314690,-0.137727007,1.015759945,1.433130026,0.287732005,-0.127926007,-0.684819996,-0.017823000,0.081493601,-0.377918005,-0.085054897,0.141259998,-0.299856007,-0.247345001,0.351765990,0.021106100,-0.201413006,0.312923998,0.193237007,0.334134996,0.053532999,-0.013207500,-0.245840997,0.630162001,0.266885012,-0.279083997,-0.098754503,-0.182577997,-0.401448995,0.042062901,
0.161865994,0.384680986,0.304571003,0.016016500,-0.516596019,-0.337154001,-0.006792510,-0.284947991,0.031000100,0.654995024,0.371531993,0.090766303,1.196619987,-0.045455199,-0.076796196,0.478441000,-0.785290003,-0.004605970,1.123900056,0.006440980,0.010970200,0.314841986,-0.475387007,-0.440185010,-0.378704011,-0.074052297,-0.962993979,0.016621500,-0.257373005,0.419407010,-0.010337400,0.263119012,0.268844992,-0.363169998,-1.515939951,0.004672160,-0.328364015,0.243281007,0.222764000,0.843172014,0.576647997,0.024194101,0.604179978,0.961449027,-0.729010999,0.123167001,-0.585686028,-1.086959958,0.699719012,-0.023542199,
-0.039039802,0.009349460,-0.015023500,0.010190800,-0.014781400,-0.005636810,0.009054090,-0.002712840,-0.017260300,-0.027266100,-0.036375102,-0.036014501,-0.009958640,0.018725101,0.024045900,0.019339001,0.019650700,-0.013409100,0.049000099,-0.029666601,0.007135070,0.018541001,-0.019558899,0.016975500,-0.021180199,-0.006002960,-0.019265801,-0.040820301,0.026076199,0.025045900,-0.003018900,-0.016159400,0.017211299,-0.027827499,0.024869001,0.001708480,-0.020963799,-0.051408399,-0.023089699,-0.001791700,-0.010783900,0.022571500,0.038487799,-0.016108301,-0.040968101,-0.040004499,-0.043532301,-0.035945699,-0.047037501,0.015744900,
-0.185435995,0.207572997,-0.216449007,-0.043368202,0.422154009,0.234769002,-0.027093800,-0.509245992,0.024949601,1.259520054,-0.919122994,-0.073948100,1.038959980,-0.006674600,1.976999998,0.997541010,-1.608160019,0.805285990,0.207837000,-0.021283999,0.012866300,0.528630018,0.370222986,-0.285937011,1.711580038,-0.499051005,-0.085650600,0.002158770,-0.010844500,0.879808009,0.265118986,0.048317801,-0.135575995,-0.409767002,0.963225007,-0.000449468,-0.117072999,-0.751743972,0.433562011,-1.004040003,0.886521995,0.035737298,0.893522978,0.175252005,-0.002506750,0.749449015,-0.266321003,0.162988007,0.532446027,-0.040114898,
-0.121468998,0.053813599,-3.579699993,0.029132100,0.136139005,0.420239002,0.004082590,-0.123957001,-0.032257199,0.949334025,-0.356388986,0.644041002,0.822724998,0.016245101,-4.500740051,-0.506672978,0.333811015,2.665620089,0.515815020,-0.037371501,0.036699399,1.018489957,-0.456434011,0.603392005,1.003110051,-0.029529801,0.121072002,0.024429500,-0.854920983,-0.266048998,0.626453996,0.261164993,-0.323958993,-0.713990986,-0.816061974,0.013813700,0.028833499,0.968250990,-0.045006901,0.533150017,0.141321003,0.056282900,-0.769080997,1.625149965,-0.478877008,0.167005002,0.608090997,-0.258697987,0.332369000,0.024442300,
0.286758006,-0.997125030,0.559795022,0.003373690,0.235798001,0.658827007,0.002833310,0.173637003,-0.043086801,0.135156006,-0.145697996,-0.505393028,-0.377674997,-0.006756990,0.751025021,0.080944397,0.260439992,-0.194075003,0.021413600,0.027577201,0.028715700,0.148727998,-0.011964700,-1.101500034,0.857838988,0.477454007,-0.090794899,-0.015078800,0.081222199,-0.249709994,0.321891993,0.277455986,-0.560908020,0.110518001,0.119028002,0.046013702,0.108294003,0.141424000,-0.729791999,0.237301007,-0.832493007,0.046187900,-0.101148002,0.074443400,0.060429402,0.297919989,0.209539995,-0.139186993,0.487581015,0.036190901,
-0.012694000,-0.011260600,-0.029572099,0.033808999,-0.011938100,-0.026371101,0.013105600,-0.024005299,0.027342500,0.034162398,0.000145697,-0.027609101,0.038050398,-0.024860200,0.037245002,-0.040759601,-0.048942000,0.028365999,-0.032573301,0.016483501,0.046432100,-0.042074800,-0.022212300,0.018296400,0.007547300,0.022510000,0.034732599,0.032198101,-0.020692600,-0.020873100,-0.045137599,-0.008595030,-0.051171798,-0.003802000,-0.048722200,-0.012578400,0.014346000,-0.050650600,-0.003474960,-0.028698601,0.040950999,-0.035145301,0.014814400,0.009920240,-0.043786101,-0.015563500,-0.006912530,-0.022747200,-0.004875940,0.022246100,
-1.443269968,0.061994199,0.923641980,-0.053158499,0.532509029,-0.102256998,-0.049461398,0.449829012,0.040200200,-3.380110025,0.655381024,-0.037153799,-0.200780004,-0.028360400,1.850960016,0.353733987,0.066242501,0.586223006,0.033456799,0.039159998,-0.013373500,-0.780758977,0.070232101,0.189735994,1.207209945,0.108487003,-0.154704005,-0.024880201,0.496100008,0.228117004,-0.076104499,0.078948803,-0.284070998,-0.409864008,1.514400005,-0.026349699,-1.647449970,-0.331129998,0.241981000,0.680795014,0.061092898,0.024976600,0.485237986,-0.868380010,-0.721480012,0.428324997,0.391155005,-0.270319998,0.679587007,0.032365698,
0.160475999,-0.030343900,0.032733001,0.005427930,0.160252005,0.460195988,0.023502700,-0.022648299,-0.019688301,0.873526990,-0.318334997,0.490132004,-0.057705101,0.011446800,0.662935019,0.669731021,0.727026999,0.424553990,0.103026003,-0.020256400,0.014970400,0.914979994,-0.239796996,-0.088522598,0.079430297,0.203600004,-0.873758018,0.017340099,-0.921867013,-0.274325997,0.011298700,0.146822006,-0.240517005,-0.366477013,-1.028720021,0.024915600,-0.094410799,-0.282889992,0.485459000,0.155522004,0.185471997,-0.032849800,0.155275002,-0.182373002,0.519253016,0.228031993,0.339424998,-0.176689997,0.124542996,-0.039716501,
-0.044328202,-0.219521999,-4.047890186,0.034686700,-0.041283399,-0.601974010,0.041865200,-0.403427005,-0.021900799,0.998014987,0.110468000,-0.070855401,1.677000046,-0.053352799,-0.669664025,-0.894307017,0.294162989,0.193035007,-0.252786011,0.043415699,0.055859800,0.101852998,-0.339278013,-0.019039501,0.825186014,-0.116471998,0.463813007,-0.030360300,-0.415271014,0.498421997,-0.168148994,-0.075587302,0.488867015,0.012806900,0.567759991,-0.027674800,-0.770989001,-0.094066598,0.210816994,-1.159649968,0.302695006,0.006238330,-0.325776011,-0.219080999,-0.275644004,-0.320299000,-0.488155991,-0.035775598,0.046998698,0.019528899,
0.043847900,-0.200966001,-0.857825994,0.008304790,-0.225725994,0.088586502,-0.042537201,0.326992005,-0.015006100,-4.166180134,-0.792025030,0.245921001,0.463602990,-0.013095100,-2.346329927,-1.701239944,-0.126930997,1.104719996,-0.571933985,-0.043976799,0.028153300,-0.900386989,-0.177242994,0.114693001,-1.117720008,-0.618106008,0.914231002,-0.042005200,-0.206148997,-0.224370003,-0.107015997,0.285894990,0.185904995,-0.139467999,0.228171006,0.021547301,0.744924009,1.179489970,0.089932397,-0.595650017,-0.295848995,-0.000275099,-1.114760041,0.373771995,0.337572008,-0.208330005,0.255497009,0.138634995,-1.643239975,-0.043122500,
-0.377521008,0.812125981,0.285376996,-0.013239600,1.032349944,-0.190437004,0.031388301,1.007820010,0.022651101,0.056048598,1.363420010,3.045769930,2.719449997,-0.000838246,0.595251024,1.841120005,0.036264699,0.302462012,1.984740019,0.041863602,0.035099100,0.869768977,0.375716001,1.468160033,1.022750020,-1.026849985,1.359670043,-0.001342250,-1.839869976,-1.885100007,0.186836004,-0.537158012,-0.371809006,-1.579900026,2.027430058,-0.045252100,0.621357977,0.643571973,-0.394766986,-0.039119098,0.644822001,-0.040113200,2.306289911,1.622239947,0.695922971,1.555469990,1.867059946,0.985183001,1.041730046,-0.051409300,
0.185752004,0.367785007,1.087440014,0.007985060,-0.601749003,-0.114946000,0.015700299,0.879716992,0.037301999,0.839088976,0.231085002,0.223518997,-0.825744987,-0.030112900,-0.954706013,-0.048910901,-0.046418201,-0.651081026,0.545064986,0.000339414,-0.019384401,0.583239973,-0.601927996,-1.801579952,-0.949971020,-0.162301004,-0.137238994,-0.007075280,-0.585653007,0.431692988,-0.407191992,0.277520001,0.314381987,0.379117996,0.883593976,-0.023801001,-0.359723985,-0.899559021,1.221889973,-1.114820004,-1.281589985,-0.004829150,0.373593986,0.201946005,0.320677996,-0.023230599,0.199719995,0.475847006,-1.221120000,0.015724501,
-0.186891004,0.203038007,1.721089959,0.008174160,0.071487501,0.957192004,0.000589271,0.367166013,0.044104300,-1.021119952,0.338308007,1.226009965,1.657400012,0.032185599,1.416749954,0.237101004,-0.105599001,1.698699951,0.470672011,0.014094600,0.004271490,-0.374480009,0.599847019,-1.388039947,1.217260003,-0.192965999,-0.032166500,0.034571800,-0.696753979,-0.699400008,-0.210264996,0.338894010,-0.553995013,-0.348755985,-1.026090026,-0.010178600,0.649685025,0.734901011,-0.495604992,-0.960096002,-1.142320037,-0.019762000,-1.076149940,-0.676615000,0.350924999,-0.054891702,0.817219019,0.557191014,0.432698011,-0.047281701,
0.001925460,0.007546900,-0.011788700,0.019050900,0.040399998,-0.050698299,0.015574800,0.016102200,0.009118880,0.015411000,-0.042050000,-0.045904499,-0.013499500,-0.042767599,-0.035611998,0.001484980,-0.040902399,0.038940601,-0.040398400,-0.012298600,-0.022554100,-0.023357101,-0.022546301,-0.023452001,0.002041130,-0.020300301,0.030235000,-0.028969200,-0.045317199,0.010308200,-0.031479500,0.012418800,-0.028409000,0.011446700,-0.043223798,0.000200783,-0.069311798,-0.053333301,-0.038543701,-0.031918801,-0.032075901,-0.016919199,0.025068900,-0.037771799,-0.021699701,-0.047349099,0.005456430,-0.051346902,-0.043208499,-0.040284298,
-0.093071803,0.010692900,-3.181459904,0.012489300,-0.126661003,-0.461082011,0.035660800,0.129212007,-0.012624900,1.085590005,0.761224985,-1.370450020,1.175130010,-0.012790900,1.529639959,0.366099000,0.004374920,-0.173163995,0.425642997,-0.020030901,-0.033119399,0.789488971,0.246869996,0.987402022,0.221313000,-0.051889699,1.326140046,0.033912700,1.715510011,-0.236819997,0.203682005,0.920427024,0.008886760,0.242624000,-0.442678005,0.011481000,0.208113000,0.233216003,0.112954997,0.080573201,-0.872753024,0.014729100,-0.248826995,-1.969210029,-0.331647009,0.121913001,0.759554982,0.516834974,0.677376986,-0.048425600,
0.440872997,-0.322068006,-0.021315301,0.038129799,-0.327454001,-0.410239995,-0.045629200,-0.317413002,-0.023873100,-1.666280031,0.603869021,0.303043008,-1.399160028,0.012042100,-0.826273978,-0.494818985,0.847985029,0.761754990,0.099339001,-0.028357700,0.031740502,0.067531198,1.745880008,0.718463004,0.415910989,-1.258110046,-1.828889966,-0.029039700,-0.780225992,0.156942993,0.246512994,1.017820001,-0.088183001,-0.066673502,1.793820024,-0.031689599,-0.075638898,-0.343645990,-0.226418003,1.001459956,0.451005012,-0.013798300,0.741869986,1.360319972,0.486676991,-0.096130297,0.595480978,0.590134978,-1.284759998,-0.030807300,
-0.225164995,-0.169242993,-0.229781002,-0.012566900,-0.396353990,-0.377418995,0.039996501,0.033379700,0.010376100,0.665139019,-0.077825598,-0.500244021,1.086770058,-0.018354800,-1.147179961,0.763258994,-0.169031993,-0.715094984,-0.607370019,-0.037165701,-0.018334899,-0.471284002,-0.060406301,-1.926900029,0.117284000,0.288044006,0.090080999,-0.016781200,0.431726009,1.223940015,0.170831993,0.324458987,0.005082620,0.292436987,1.309030056,-0.012374700,0.037126198,-0.604671001,-0.035841800,-1.238299966,-0.005552220,0.015684100,0.691736996,-0.302433997,0.273351014,0.390659988,0.117386997,-0.073583201,-0.014819400,-0.022872200,
-1.001399994,0.532957017,0.464760989,-0.026578899,0.372741997,0.403201997,0.003350630,0.279917985,0.033554800,0.500707984,0.058286600,0.071080796,0.563901007,0.042626198,-0.084069900,0.589366019,-0.512098014,0.144468993,-0.061904501,-0.031194000,-0.000279644,0.150674999,0.088732697,-0.577528000,0.108461998,-0.029740300,-0.197591007,0.022193000,0.387084991,-0.599551022,0.301156014,0.429004997,-0.163626000,-0.470461011,0.096569397,0.046391200,-0.323062003,-0.129584000,0.714065015,0.011223400,0.357578009,0.002820410,0.662945986,-1.276990056,0.242422000,0.112484999,0.098147102,0.172096997,0.147865996,0.023122299,
-0.012961800,-0.018609500,0.071707897,0.027913099,-0.074252702,-0.002313610,-0.001422100,-0.020898901,0.026223300,0.042353101,0.007801680,0.025057800,0.041950401,0.018448001,0.051126301,0.002580250,-0.092919096,-0.068675399,-0.021739701,0.030982399,-0.028850401,-0.061864398,-0.019241801,0.025254700,-0.017506300,0.002237690,-0.003049170,-0.036242601,0.039201200,-0.043354101,0.062596701,-0.017497299,-0.059662599,-0.051577602,-0.002041620,0.035812199,-0.007982980,-0.010498500,-0.015421600,0.045678802,0.004267510,0.024941100,0.025632400,-0.044932701,-0.001319910,0.054247599,0.026703300,0.022314301,0.004775640,-0.038798600,
-0.262658000,0.378540993,-1.980119944,-0.036633398,-0.464062989,0.687273979,-0.047300398,0.182359993,-0.008013240,-0.121303998,0.508773983,0.295843989,-0.474516988,0.050483000,1.684870005,-0.409047008,-0.090832897,0.525855005,-1.350389957,-0.047270700,0.008121740,1.175259948,-0.290488005,1.553629994,-0.984528005,0.724985003,0.791742027,-0.037129499,-0.145541996,-0.589263022,1.311450005,-0.324622989,-0.271560013,-0.090781599,-0.601087987,0.002064040,0.411356986,0.080795102,0.218638003,-1.010159969,-0.908164978,0.002878980,0.574868977,0.070089102,-0.843931973,-1.357460022,-0.424564987,0.695284009,-0.140081003,-0.030988500,
0.104101002,0.564665973,0.865738988,0.044403199,0.339031994,-0.154540002,0.047301501,-0.190846995,0.029598800,0.478055000,-0.384258002,-1.143530011,1.054780006,-0.020456100,0.997220993,0.339776009,0.868095994,1.201050043,0.775887012,-0.015107400,-0.008984150,-0.151060000,-0.509705007,1.421869993,0.683089018,0.071359597,-0.447672993,-0.039242301,0.005619140,-0.556636989,-0.279051006,-0.287584007,-0.079196602,-0.646534979,0.282297999,-0.030026801,-0.175510004,-0.087705798,-0.465265989,0.056274101,1.165300012,0.041143999,0.482607991,-0.121652998,-0.202655002,-0.243058994,-0.164158002,0.192769006,-0.413507998,0.009853380,
0.515336990,-0.058844700,-0.233814999,0.023899499,-0.040255599,0.240026996,-0.034306601,0.448507994,-0.021912999,-0.278571010,-0.191280007,-0.146576002,1.181130052,0.010690700,0.972305000,0.839780986,-0.969286025,-1.301699996,0.171990007,-0.035911102,-0.034341399,0.677824974,0.041917302,0.018818500,0.799315989,-0.237673000,0.226438001,-0.025962399,0.964217007,-0.277961999,-0.482533991,-0.021955101,-0.176567003,0.140434995,0.341897994,-0.035905700,0.497090012,0.110684998,-0.717344999,0.288360000,-3.034889936,0.017776299,0.275364012,1.010879993,-0.111056998,0.394986987,0.876774013,0.215717003,0.849057972,0.027644301,
0.370065004,0.239922002,2.495409966,-0.046350300,-0.200782001,-0.115194999,0.050011098,1.261719942,-0.019991299,0.502484977,-0.167888999,-0.000092343,0.462754995,-0.016326999,0.454966992,0.499902993,-0.739539027,-0.221754998,0.563399971,-0.017416500,-0.012354000,0.077660903,-0.472808987,-0.491228014,0.130734995,-0.368836999,0.677635014,0.029787600,-0.611449003,0.192077994,-0.320102990,-0.159550995,0.180252001,-0.271302998,0.811554015,-0.008749640,-0.268972993,-0.351072997,-0.319166988,1.040940046,0.244338006,0.023207100,0.254979014,0.798384011,0.189927995,0.320421010,-0.634467006,0.037336100,0.518760026,0.035609402,
-0.014912100,-1.151329994,1.037150025,-0.040894799,-0.917779982,-0.885497987,-0.011744100,0.006928810,0.045965798,-0.837841988,0.895546973,1.473760009,2.921999931,0.030369300,-1.237300038,0.458570004,-0.801922977,0.916172981,2.012789965,0.027916500,0.011859700,-0.830133021,0.903227985,-3.540980101,2.827300072,0.855167985,-0.211027995,-0.052101601,-1.147690058,0.124127999,0.129567996,0.792532027,0.000518279,-1.575019956,0.916522980,0.009654770,1.061069965,1.194849968,0.727160990,0.960835993,0.125229999,0.042094499,-0.008593470,0.223324999,-0.433326006,-0.709981978,1.107540011,1.158290029,0.527023971,-0.039545398,
0.107947998,-0.183863997,0.497759998,-0.011291900,0.413933009,-0.225869000,0.021373000,-0.248688996,-0.034070499,0.269679993,0.224496007,0.006960600,0.037029799,-0.012230000,0.087234497,0.200630993,0.631081998,0.649814010,0.198540002,-0.039152302,0.021797599,0.437590003,0.452154994,-0.705757976,0.449308991,-0.578122020,-0.477203995,-0.019574501,-0.346219003,-0.037534598,0.115313001,0.148522004,-0.917138994,-0.381823987,-0.273084998,-0.002490960,0.246133998,0.417517990,0.241576999,0.411958992,-0.175566003,0.027621999,0.377184987,0.681666970,-0.776964009,0.024216199,0.189401999,-0.136246994,0.335958987,0.000948907,
0.015888801,-0.267062008,1.487490058,-0.024617201,-0.216646999,-0.163224995,-0.024753300,-0.685932994,0.021888999,-0.299252987,0.333772987,-0.385419995,-7.392439842,0.032397199,0.489748001,0.910399973,-1.033550024,-0.142325997,0.065001503,0.036993802,0.044855598,-0.265765011,-0.352735013,0.105956003,0.254898012,-0.399138004,-0.050761800,0.017749500,0.576744974,-0.200195000,0.200639993,-0.160436004,-0.017882900,0.343297988,-1.225909948,0.028133599,-0.070321001,-0.179277003,0.352802008,-0.021122400,-0.348933995,-0.006243600,0.253488004,-0.144814998,0.398997992,-1.374809980,-0.145307004,0.488727003,0.128809005,0.034654900,
-1.068580031,0.619647980,2.752019882,-0.031325102,0.425440013,-0.830604017,0.034162398,0.306327999,-0.001480520,-3.066950083,-0.607177973,-0.911450028,0.967212021,-0.030064501,-0.010242200,0.317351997,0.028523400,0.696856022,0.849049985,-0.047405899,0.010572500,0.339230001,0.070331603,-0.123686999,1.023010015,0.251933008,0.184901997,-0.015190000,-0.181273997,0.100212999,-0.284938991,-0.547110021,0.023193400,-0.155139998,1.170539975,0.009418350,0.176562995,-0.494843006,0.880182028,1.094230056,-0.357068986,-0.044389099,1.857270002,0.468151003,-0.180575997,-0.353282005,0.820967972,0.833334982,-0.213071004,0.027522100,
0.426793993,-0.911513984,0.176280007,-0.038734101,-0.477907002,0.444222003,0.030052001,0.285595000,-0.051770099,-0.234963000,0.208497003,-0.241304994,-0.948541999,-0.012834100,-0.463728011,-0.071687102,-0.133794993,-1.040750027,-1.519019961,-0.005727580,0.044746000,0.389203995,1.530150056,-1.321249962,-0.118064001,0.309231013,-0.422381997,-0.019658800,0.363718003,-0.015882401,-0.132531002,0.440990001,-0.046199501,1.060909986,-0.384972006,-0.008140440,-0.060062300,-0.308376014,0.954837978,0.126700997,-0.377831995,0.019093299,-1.876549959,1.066509962,0.002240100,0.321074009,-0.396111995,-0.098098204,0.111892998,-0.017584000,
-0.084689297,0.253814012,1.638569951,0.003856920,0.012031300,-0.094564401,0.039664902,-0.264286011,-0.041065801,0.546738982,-0.451575011,-0.159923002,0.326101989,-0.043362800,-2.386909962,-1.135149956,0.124908000,0.236422002,-0.151667997,0.035162300,-0.036522102,-0.480621994,-0.100404002,-2.970089912,0.098309100,-0.261453986,-0.242182001,-0.017003600,0.604494989,0.416979015,0.323453009,-0.301124007,0.198659003,-0.370521992,0.205629006,0.039635599,-0.278360993,0.209270000,-0.551217973,-0.397065014,0.019835200,0.002188830,0.048545100,-3.037790060,0.212224007,0.048176002,0.485996008,0.091773801,0.095067397,0.051974699,
-0.437346011,0.002651370,0.190442994,-0.033843201,-0.170865998,-0.223263994,-0.005673500,0.133669004,0.029377099,-2.510179996,-1.368239999,-0.111299001,-0.056223601,-0.018341299,1.671300054,0.534843981,0.383190989,-0.306468010,-1.741819978,0.008359660,-0.017014600,-0.033137899,-4.753220081,0.194667995,-0.091200702,-0.345544994,0.231053993,-0.038064100,0.818397999,-0.005606000,-0.864664972,0.393813998,-0.255416989,-0.232458994,0.114941001,-0.035786901,0.879787028,-0.351274997,0.429756999,-0.059479900,-0.179716006,-0.022523900,0.214084998,0.287478000,-0.014191900,-0.180814996,0.012442500,-1.521759987,-0.055122200,-0.065141201,
1.077080011,-0.806843996,-0.506154001,-0.025667900,-1.335260034,0.047573201,0.049121700,-1.056740046,-0.005243540,-0.429064006,0.598878980,0.753419995,2.134530067,-0.036966600,0.017997401,0.136810005,-0.511404991,-1.048699975,-1.500120044,0.028374899,0.039184101,-0.260784000,0.391140997,-1.213600039,-0.190413997,0.064827196,0.931266010,0.054199301,-1.094269991,-0.338698000,0.564584970,0.205624998,-0.177967995,1.480949998,0.362628996,-0.012253600,-0.626430988,1.080029964,0.671880007,-0.609917998,-2.817899942,-0.035487000,-1.169849992,-0.693355978,0.997671008,-0.618641973,1.337689996,0.356539011,0.108957998,0.013323800,
0.276784003,0.544452012,-6.693150043,0.011370500,0.255454987,-0.221633002,-0.041950598,0.711403012,0.014111300,0.987151980,-0.362511009,-1.211709976,1.429460049,-0.015509500,-2.562400103,-0.096767597,-1.021540046,-1.047490001,0.578047991,0.031673599,0.019926701,-0.551738024,0.109309003,-1.186699986,-0.935440004,0.235318005,-1.102200031,-0.030110400,0.966910005,0.423312992,0.652970016,0.653385997,0.188225999,-0.212073997,-0.500970006,-0.003200280,-0.188210994,-0.147162005,-0.805157006,-1.268730044,-0.063379802,-0.005056950,-1.089349985,-1.986430049,-0.528841972,0.208485007,-0.361638010,-0.218677998,-0.880375981,0.009595150,
0.620778978,-0.314267993,1.924589992,0.025518000,0.241270006,0.757327974,-0.006453470,-0.276161999,-0.033925202,0.370900005,-0.743192971,-0.354723006,-2.992549896,-0.005537640,1.189939976,0.752501011,-0.293175995,0.110408999,-0.673107982,0.024086300,-0.014920300,1.209980011,-0.564873993,-1.308179975,-0.877763987,0.560473979,0.048433401,0.029440699,-0.389093012,-0.240162998,0.944517016,-0.839379013,0.217308998,0.265729994,-3.182019949,-0.000277148,-0.155803993,0.677872002,0.384979010,-0.001800950,-1.918329954,0.020554300,0.304239005,2.812760115,-0.536212027,-0.604090989,0.560823023,0.987137020,0.200856999,-0.004426960,
-0.049471300,-0.006325410,0.008216010,0.036156800,0.041222598,-0.009316970,-0.014587800,-0.007915680,-0.012350000,0.039708301,0.031260099,-0.046399500,-0.014205200,-0.033496901,-0.024224000,-0.039499000,-0.012975900,-0.043513302,0.007475200,-0.011886600,-0.039037701,-0.024019601,-0.019048899,0.003699690,0.005405210,-0.016823201,-0.028948599,-0.050363600,0.025989600,-0.003522870,-0.000310961,-0.020933900,-0.057688698,-0.025615999,-0.019263200,-0.013640300,-0.025208700,-0.005452890,-0.007201070,0.020641999,-0.044516500,-0.011164100,-0.025393501,-0.019459900,-0.008058130,0.034130100,0.030265201,0.019594001,-0.027131200,0.014656000,
0.260973990,
-1.333940029,
0.604326010,
-2.226269960,
-1.543149948,
-0.314220995,
-1.769970059,
1.510059953,
-0.804540992,
-0.476927012,
0.929967999,
0.682289004,
0.148312002,
0.320039004,
1.345909953,
0.077280298,
-0.433524013,
-0.030657500,
-1.108270049,
-0.511861026,
0.008158900,
-0.010661400,
-0.342808008,
-0.791231990,
0.613740981,
-0.209480003,
-3.047139883,
-0.784653008,
-1.657629967,
-0.022786099,
-2.956799984,
0.100699000,
-0.651585996,
-0.178628996,
-0.038327798,
-0.571735024,
0.993043005,
0.923264980,
-0.162416995,
-0.365653992,
0.759616971,
-0.563548982,
-1.220389962,
-0.792571008,
0.389272004,
0.154596999,
-1.423550010,
0.025641000,
-0.266193002,
-0.009868250,
0.383534998,0.276850998,0.716017008,-0.149248004,-0.138607994,0.163399994,0.203047007,-0.279413015,-0.079215802,-0.085910901,-0.524707973,0.366441995,0.499410987,-1.071339965,0.016792599,-0.040404301,1.033470035,0.001660700,0.233187005,1.232750058,-0.333456993,0.023842400,0.858631015,-0.615100980,-0.596356988,1.034919977,0.656490982,-0.359472990,1.560500026,0.046778701,0.007813390,-0.129172996,0.363813013,0.469213009,-0.034118298,-0.387667000,0.120367996,-0.350856006,-0.320611000,-0.310934007,-0.462110996,0.717501998,0.372312009,-0.541661978,-0.219373003,1.418259978,-0.029244799,-0.208675995,0.445998013,0.009969170,
0.669144988,0.188225001,0.177165002,1.008909941,0.316810995,-1.060649991,-0.438122988,-0.020646200,-1.255720019,0.024083599,0.192318007,-2.005609989,-0.347725987,1.613729954,-0.203833997,0.897321999,1.196339965,0.048136901,-0.221017003,-0.610809028,0.034966499,-0.021297900,-1.091650009,-0.298377007,0.772948980,0.131713003,0.106986001,-0.093932800,0.455938011,0.025220999,-0.730165005,-0.110292003,0.741940975,-0.366914988,-0.075372800,0.077208400,0.108620003,-0.008724770,0.094594702,-0.509916008,-0.648104012,1.038660049,0.711656988,-0.076016203,1.051880002,1.795029998,0.704667985,1.129999995,-0.078324802,-0.037046801,
0.495638996,0.354844987,1.910050035,0.151162997,-0.435472012,-0.311042994,-0.329874009,-0.020632099,-0.517899990,-0.298864990,-0.201015994,0.562327027,0.858501971,-0.083699703,0.135879993,2.921489954,-0.869574010,0.035780601,-0.424688995,0.145518005,-0.513131976,-0.026665900,-0.181283996,-0.331048012,1.179919958,2.536550045,0.136705995,0.638579011,-0.631973982,-0.019463900,2.076009989,1.031069994,0.440741003,-0.819371998,-0.040320199,0.491064012,0.198448002,0.558528006,-1.532639980,-0.313464999,-0.751338005,1.094210029,-1.347540021,0.774205983,0.172808006,-0.382443994,-0.481613994,-0.415643990,-0.228929996,-0.014989700,
-0.046920199,-0.437065989,-1.212440014,0.664709985,0.357528001,-0.479045004,-0.698620021,-0.345036000,-0.212071002,0.318053991,0.127755001,-2.506020069,0.568826973,0.560618997,-0.094306499,-1.951099992,0.779075027,0.029296599,0.171653003,0.152217001,1.471920013,-0.006957670,-0.352086991,-0.515745997,0.953027010,-1.347360015,-0.308497012,0.427020013,-0.084067903,-0.004355670,1.150390029,0.772810996,0.471356004,0.725125015,0.062360801,0.066739798,-0.311432987,-0.383700013,0.843694985,-0.061951000,0.729044974,2.556060076,1.033540010,0.137388006,2.587779999,-2.036540031,0.053465702,-1.342929959,0.052614499,0.035378002,
-4.087540150,0.392715991,1.253640056,-0.494190991,0.431291014,0.938561022,0.278788000,-0.745875001,0.409853011,1.173539996,0.002863990,0.232084006,0.481350005,-0.843110979,0.480309010,-0.210390002,1.105579972,-0.055561598,0.313847989,2.031349897,1.839020014,-0.030061500,0.888769984,-0.072816797,-0.048278999,2.334379911,0.066414900,1.052369952,0.405928999,0.039323501,1.134500027,0.189017996,1.273689985,0.973710001,0.031327602,-0.750402987,-2.845940113,0.198024005,1.389510036,-0.936810017,-2.955179930,2.742870092,0.865211010,0.427980989,-2.471410036,1.860659957,0.809835970,2.656749964,0.419032991,0.026556300,
0.976867974,0.677923024,-0.097244002,-1.044000030,-0.306957006,-0.025342600,0.034627900,-0.084759697,-0.739113986,0.190175995,0.205029994,0.463889986,0.457534999,-0.588249981,0.015106900,1.360090017,0.836830974,-0.008506170,-1.008530021,0.627964020,0.019387200,-0.043995701,-0.371791989,-1.172430038,-1.145169973,-0.043010101,-0.529958010,0.285394013,0.971364975,0.031537201,0.465898007,0.199622005,0.055792201,0.272017986,-0.102427997,0.166951999,0.373102993,-0.415735006,0.617421985,0.260203004,1.043949962,-1.749899983,1.586830020,0.519436002,1.732139945,-0.318549007,-0.163297996,0.632330000,-0.758095980,0.036366601,
-1.426820040,1.270939946,0.938638985,-0.493218005,0.091302298,-1.266440034,0.916126013,-0.121059000,-0.884433985,0.289476991,0.846349001,0.094049297,0.010313300,0.110026002,0.268081993,0.945464015,1.319219947,0.001756700,-1.165400028,-0.416500002,-0.855324984,-0.025503499,1.250560045,0.883652985,1.393120050,-1.080189943,-0.533972025,-1.664540052,-1.543190002,-0.048044302,-1.629529953,0.399055004,-1.254549980,-0.323195010,-0.054599401,-0.732478023,-1.757369995,0.325296998,-0.462132007,-0.325096995,-3.652499914,2.632980108,-0.609300017,-0.451539993,2.122740030,3.368299961,0.849641979,-0.938126028,-0.989757001,-0.046682701,
-1.248469949,0.143140003,0.774371982,0.231831998,-1.653640032,-3.897340059,-0.211465001,-0.553067982,-0.648860991,1.655650020,0.554682016,-2.461329937,-1.384770036,-0.451258987,0.032737602,-2.235569954,-1.580109954,0.000386454,-0.865549982,-1.677279949,-3.585930109,0.016576201,-3.529530048,-0.994989991,0.952733994,-1.317170024,-0.494080007,0.279300004,-4.341889858,0.003959820,-1.157240033,0.812390029,2.239429951,-0.879702985,-0.015910299,1.497679949,1.109019995,0.743122995,-2.132149935,0.972793996,1.897779942,-2.549999952,-2.258719921,-0.227567002,6.422379971,-4.854020119,0.388736010,1.026440024,0.021648200,0.013068800,
-1.058069944,-0.527912974,2.049000025,-0.099930502,-0.343091995,0.892970979,0.753574014,-0.394706011,0.291969001,-0.273782015,0.317734987,0.192589998,-0.870773017,0.984700978,0.185797006,-1.038380027,0.038061500,0.017132901,-0.192718998,0.733698010,1.149150014,-0.004272810,2.507550001,1.484150052,-0.069955498,0.721877992,0.095144197,0.765092015,-0.836884022,0.019764800,0.434311002,-0.244910002,0.389784992,-0.170139000,0.014657700,0.625697970,-1.738319993,0.535645008,0.834111989,-0.250618994,-1.555699944,-0.202616006,1.518499970,-0.832962990,1.506330013,-4.889910221,0.309107006,0.048008800,-0.147478998,-0.021041401,
1.795729995,-0.532202005,1.932890058,-0.689903021,-0.365608007,0.753064990,-0.114220001,-0.425615013,-0.047970898,0.203245997,-0.930553973,0.356007993,1.328250051,-0.321146011,-0.853995979,2.209039927,2.691080093,-0.037186701,1.977020025,-1.753229976,1.566879988,-0.023453901,-0.353698999,2.628210068,2.999919891,1.611289978,-0.882816017,0.082121700,-13.663399696,-0.046659499,3.356650114,1.598799944,0.719829023,1.482130051,0.042246699,1.617239952,1.047279954,0.096678004,0.369002014,2.419209957,1.906299949,3.470949888,-4.001399994,0.353680998,1.777050018,4.310249805,-0.740329981,0.511825979,-0.053784199,-0.050461501,
0.286758989,0.204475999,0.038877901,-0.204079002,-0.161403000,0.720961988,0.048076000,-0.179151997,-0.321709007,-0.420567989,0.094876297,0.705974996,0.917066991,0.711497009,-0.284530997,-1.881929994,0.340599000,0.037521701,0.114928000,-0.607879996,0.002683570,0.017033201,-2.160599947,-1.605440021,0.605234981,0.296413004,0.384324998,-0.062684499,-0.095745198,0.027697500,0.169471994,-0.557920992,0.421902001,-0.292299002,-0.023932600,0.508230984,0.649478018,0.012916000,0.490188986,0.007517160,1.370200038,1.620620012,0.121179998,0.037983201,-1.556480050,0.393377990,-0.029170500,-0.148760006,-0.387349010,0.016508900,
1.251989961,0.393687993,0.579024017,0.540612996,0.204815000,0.185089007,0.030782700,-0.069864102,-0.033973102,0.270680010,-0.322851986,-1.458870053,1.565150023,0.219531998,-0.175391003,0.234602004,-1.320520043,-0.005339380,-0.118061997,0.545095980,-0.939809978,0.045236900,-0.735732019,-0.360918999,0.281089991,-0.212748006,0.168685004,0.047979701,-0.043272302,0.050292801,-0.549432993,-0.019008599,0.521735013,0.145197004,-0.008628500,-0.248719007,-0.330181986,0.420776993,0.048990201,-0.196207002,0.073252797,0.589024007,-0.338598996,0.277123988,-0.610572994,0.814778984,0.144961998,0.311592996,0.016079901,0.045812301,
0.695789993,0.799338996,0.241600007,-0.740540981,-0.884456992,-0.288493007,0.323594987,0.443726987,-0.054382399,-1.940109968,-0.288756013,0.990211010,2.131540060,0.777227998,-0.519376993,0.898213983,1.884369969,-0.041193601,-0.267774999,-3.640599966,-0.025841501,0.008745220,2.386280060,0.513215005,1.298979998,1.589990020,-0.163822994,1.546790004,0.068413503,-0.006788660,2.349179983,0.865450978,-0.298932999,1.714179993,0.087079100,-0.526385009,-0.777863979,0.213560000,-0.246420994,-0.308699012,0.169620007,1.737980008,2.423710108,0.316491991,0.993698001,-2.067229986,-0.336140007,-0.564045012,-0.216420993,-0.024619900,
-0.126113996,-0.107469000,0.384077996,-0.447687000,0.025075400,0.035907600,-0.062371500,-0.127869993,0.253845006,0.030397501,-0.144312993,0.942601979,-0.681010008,-0.365366995,-0.050680902,-0.594044983,0.837584019,0.000897554,-0.565126002,0.291779011,0.188912004,-0.039333101,0.278932005,-1.433910012,-0.221204996,-0.662553012,-0.317422986,0.259434998,-0.088106498,0.040420700,0.145894006,-0.033552401,0.168821007,0.059391800,0.001179330,-0.043727901,0.532607973,0.154254004,0.441498995,-0.346655995,-1.462100029,0.269825011,-0.637668014,0.139376998,-0.014332500,-0.059527799,0.058061998,0.030443700,-0.086666502,-0.004992990,
2.846740007,-0.109798998,0.544909000,0.210829005,-0.277776986,0.592696011,-1.376340032,-0.037836298,0.068152398,0.802136004,-0.413203001,1.399649978,1.162950039,1.552960038,-0.296555996,2.495369911,1.832389951,0.020552400,0.878475010,0.615851998,-1.226500034,-0.035393000,1.404530048,0.501450002,0.756069005,0.495680988,-0.046883799,-0.096653096,2.485549927,-0.014963200,-0.206239998,0.032910600,0.767688990,-0.879117012,-0.008116700,-0.012663300,-0.176663995,-0.321796000,0.446640015,0.613532007,1.152169943,-1.215360045,2.649019957,-0.034151498,-1.216830015,2.480619907,-0.289101988,0.538299978,-0.520802021,-0.052138802,
-0.019039700,0.700703025,0.293466985,0.424764991,-0.220745996,-1.867980003,0.021809600,-0.056387499,0.833648980,0.328723997,0.355275989,0.990395010,1.129169941,1.597669959,-0.040954299,0.280847013,1.806879997,-0.013994500,-0.397253007,-0.206496000,-0.253026009,0.036227699,1.113809943,1.091470003,-0.447878003,1.629539967,0.187012002,-1.684790015,1.796190023,0.038609602,0.107802004,-0.485523999,-0.112264000,-0.708064973,0.053003199,0.714459002,-0.587795973,0.105797000,-0.525397003,0.468035012,-0.985714018,0.396638989,0.509450972,-0.955321014,1.814749956,2.266429901,0.109787002,-0.170870006,-1.585459948,-0.049823701,
0.686381996,0.754414022,-1.496989965,-0.701883972,-0.306089997,1.185160041,-0.433313996,-0.273135006,0.419842005,-0.501796007,-0.160496995,-2.034169912,0.579644024,1.458299994,-0.331088006,0.094514303,0.764719009,-0.025074501,0.124447003,0.989009976,0.419039011,-0.007903180,1.384439945,0.483478010,0.692924976,-1.120190024,-1.127060056,0.605332017,1.257850051,-0.012283300,0.472571999,0.022377800,0.442804992,0.704761028,0.006667730,0.025787000,-0.083754800,-0.005641770,-0.309531003,-2.835459948,1.230180025,0.055151898,1.394539952,0.810003996,1.021700025,3.304510117,0.249511003,-0.571388006,0.598263025,0.023075299,
-0.234824002,-0.557530999,0.722423017,0.645739019,0.179887995,0.892036021,-0.342795014,-0.083815597,-0.735521019,-1.365059972,0.024037700,-1.616060019,1.088070035,0.096442498,-0.494419008,1.043599963,4.947150230,0.019499000,0.035183500,-1.410590053,1.343639970,-0.029369000,2.483659983,-5.599229813,2.547699928,2.777410030,0.650681019,0.469859004,-0.251278013,-0.027540300,0.405375987,0.178679004,-0.191318005,1.574550033,-0.026524900,0.935885012,0.973657012,-0.292706996,-0.726345003,1.131809950,0.563283980,2.504859924,-0.196041003,-0.263226002,1.918190002,1.810089946,0.230235994,-0.347137988,-0.366275996,0.012316400,
1.541679978,-0.093842901,1.010210037,-0.399091989,-0.491804004,2.690560102,-0.706448019,0.686685026,-0.452107012,0.016074600,0.091349602,0.047955301,0.303142995,1.137799978,-0.136758998,0.734704018,0.135449007,0.025460200,0.526387990,1.678390026,0.337496996,-0.006107200,-1.119359970,-1.035150051,0.148313001,0.742177010,0.478655010,0.059316300,0.945900977,-0.011217500,1.514500022,-0.093727402,-0.249027997,0.482800990,0.032939699,1.126700044,0.452169001,-1.360790014,-0.422230005,-0.232507005,1.974730015,-1.897819996,0.546433985,-0.359418005,0.460146993,-0.878795028,-0.237661004,0.047261000,0.597452998,0.035578899,
-1.935400009,-0.401286989,-1.024340034,0.123792000,0.515559971,-0.538403988,0.432130992,-0.433928013,0.285012007,0.462298989,-0.236908004,-0.653797984,2.205610037,-1.001209974,0.048722599,0.002858170,0.498149991,0.032580700,1.417410016,0.248026997,-0.161792994,0.015346700,0.027853100,2.009969950,0.561591029,-0.235844001,-0.407831013,0.087676898,0.965041995,-0.016643500,0.125519007,-0.090747997,-0.512005985,-0.379857004,-0.015221300,1.061550021,-0.135846004,-0.345633000,0.205217004,0.316121995,-2.066430092,0.795861006,0.499565989,0.869870007,1.702550054,0.963082016,0.712750971,0.104593001,-0.559598029,0.041324899,
0.205152005,-0.194771007,0.906180024,-0.046639100,-0.712351024,0.772336006,-0.202849001,0.098359697,-0.543618023,0.348154008,-0.414014012,-2.707360029,2.284849882,-1.160770059,-0.061208699,-0.229323000,1.086390018,-0.000112322,-0.716893017,-0.802232027,-0.371980995,0.034346901,0.760380030,-1.778380036,2.316649914,-1.523020029,0.569548011,0.157523006,1.399770021,-0.003680000,-0.433490992,0.495025992,0.179401994,1.947110057,-0.016171601,0.607828021,0.634433985,-0.088512301,-0.152521998,0.567505002,2.351130009,2.558389902,2.346009970,0.873346984,-1.054129958,2.295120001,-0.425417006,0.954294026,0.118254997,0.013344000,
1.467579961,0.069631800,1.598009944,0.132900998,0.192883000,1.444429994,-0.121596001,-0.252195001,0.762426972,-0.354467005,-0.465977997,0.863907993,-0.335040003,-1.101400018,-0.497851014,1.420040011,-0.151934996,-0.028934000,0.092973702,-0.061086301,1.352220058,-0.046504900,-0.085217401,0.466708988,-0.195028007,-1.304270029,0.117651001,0.096927300,0.819516003,-0.026256600,0.993975997,-0.929338992,0.145927995,-0.237847999,0.069617301,0.355080992,-1.553660035,0.401852012,0.669786990,0.868988991,0.036946401,2.762370110,-0.062828399,0.615431011,2.536730051,3.259910107,0.045221701,-0.059605502,0.066876397,0.044238899,
0.006023970,0.898958981,-0.292950988,-0.527646005,-0.734905005,-1.858979940,0.370418996,-0.518962026,0.450527012,0.351027012,-0.658861995,-0.487385005,2.580909967,0.370086998,-0.145120993,1.988950014,1.148210049,-0.029065199,0.690087974,0.258987010,1.193199992,0.023339000,0.850759029,1.487820029,1.052410007,0.712861001,0.731696010,0.530148983,-2.976439953,0.035977900,0.725736022,-0.486066014,0.135057002,0.557385981,-0.007229440,-0.884540975,0.078265198,0.271279991,-0.928866982,0.262100995,0.625964999,1.462700009,2.565819979,-0.040723700,1.555940032,1.311980009,-0.003511070,1.912639976,0.402985007,0.045277100,
-0.359791994,-0.215036005,1.315140009,-0.975983024,-0.065736502,0.760702014,-0.049944699,-0.085702904,-0.316689998,-0.405362993,0.020454200,0.311055988,0.433975995,0.501573980,-0.117028996,-1.928290009,-1.188689947,0.026054000,0.105012998,1.035809994,-0.024076900,-0.016618799,0.534168005,-1.284610033,0.392013013,-0.162644997,-0.235296994,0.129743993,0.478154004,-0.038789999,0.226108998,0.118230999,-0.498335004,0.009170270,-0.006369190,-0.423967987,0.179490000,0.256689012,-0.071417801,0.431259990,-0.150438994,2.742259979,0.326186001,0.374312013,0.239628002,1.498299956,-0.148856997,-0.283719003,-0.547838986,0.043327801,
-0.016384499,1.391810060,0.660686016,1.744269967,-0.939046025,-0.906167984,2.002439976,0.613819003,1.833950043,-0.720081985,-0.420884013,3.242579937,0.066306099,0.628724992,0.394353002,0.137907997,4.050169945,0.001413610,-0.687838018,0.368634999,-0.240395993,-0.034451600,-0.357638001,1.675729990,-0.990127027,0.736104012,-1.216689944,-0.994216025,3.099669933,0.018869501,0.046993699,0.052233599,-0.920560002,0.486393005,-0.026190700,1.384389997,0.159762993,0.566076994,0.518832982,1.254019976,0.468863994,0.665099025,0.719208002,0.303034008,-1.620839953,2.064929962,0.759904981,-0.150487006,0.808252990,0.034014501,
1.097900033,0.482529014,0.661068022,-0.360845000,-0.204787001,0.243844002,-0.096807398,0.270675004,0.595677972,0.273604006,-0.129773006,1.338070035,-0.941307008,0.113636002,-0.091389999,1.136669993,0.136933997,-0.000865311,0.294544995,-1.167520046,-0.257367998,0.028307300,-0.545221984,0.917953014,-1.166360021,-0.322771013,-0.023590701,-0.053710200,0.091144197,0.022826999,1.280640006,0.304105997,-0.486162007,-0.458900005,0.009406740,1.242089987,0.739319980,-0.555100977,-0.408989996,-0.240269005,-0.303234011,0.750393987,0.491928011,-0.296936989,-0.070384502,-0.576821983,-0.048625201,0.522569001,-0.611813009,-0.052459601,
0.680523992,-0.000918011,0.040851802,-0.489600986,-0.480719000,1.784759998,-0.196218997,0.295410991,1.080500007,0.429903001,0.009924880,1.915369987,0.396232009,-0.721908987,-0.188040003,-0.201076001,0.792478979,-0.030798599,0.990363002,1.847900033,-0.250743002,0.024552699,0.159034997,-0.059285000,-0.253019989,-0.167289004,0.139209002,-0.396019012,0.792352974,-0.013945800,1.302019954,-0.112548999,-0.702736974,-0.510133982,0.004594600,1.135239959,1.229550004,-1.157989979,0.525610983,1.074339986,0.757858992,-0.560455978,1.117799997,0.048465900,0.634360015,-1.531960011,-0.532485008,0.199579999,0.029741099,-0.003576680,
1.111009955,-0.291198999,0.023254501,-0.417282999,-0.062371999,0.810783982,-0.384391993,0.083255202,0.535013020,0.019608600,0.106201999,0.742504001,0.523998022,0.240299001,-0.109995998,-0.081783801,-0.264993995,-0.019710900,0.432164997,0.538891017,0.871810973,-0.026446899,-0.256323993,0.360790998,-1.295680046,-0.058719698,-0.127382994,-0.031980999,-0.251062989,-0.004097990,-0.350708991,-0.001004920,-0.005482240,-0.066825204,-0.066894598,0.288635999,0.274590999,-0.924892008,-0.552398980,-0.076438300,0.583662987,0.529644012,0.483619988,0.285753012,-0.199976996,0.205274001,0.086035401,-0.402473986,0.088870399,0.042061899,
-0.004999760,-0.039426100,-0.006686110,0.012442300,-0.003453620,0.008240440,-0.040486202,-0.038162898,-0.031520098,0.022155499,0.014398500,-0.051886499,-0.014953900,-0.048509900,-0.031619400,-0.047642302,-0.014741700,-0.006693160,-0.027001100,0.035168700,0.001176500,0.025665101,0.037515100,-0.020271201,-0.027705399,0.000526917,-0.044775698,-0.001992390,-0.002034610,-0.008091750,0.021778399,-0.018804900,-0.022680599,0.022505300,-0.037131701,-0.044247702,-0.040727802,-0.042964499,0.018314900,0.030024501,0.013793500,-0.013921200,0.014567100,0.008528790,-0.047429498,0.033870202,0.024000300,-0.003901350,0.022867801,-0.005192800,
-0.214829996,0.282397985,-0.037710201,-0.419340014,0.022696000,-0.022565100,-0.010721900,-0.282110989,0.008146470,-1.354660034,0.112138003,1.145599961,-0.240389004,0.382744998,-0.087765701,0.892989993,0.351065993,-0.010160100,0.360567003,0.350650996,0.691267014,-0.044283502,0.470243007,1.017040014,0.956735015,1.147099972,0.578354001,-0.747672975,0.473138005,0.037903201,0.330325991,-0.036929902,0.503580987,0.077344403,0.030841900,0.159568995,0.438322991,-0.270314991,-0.679313004,-0.238730997,1.167549968,-0.893153012,-0.240195006,-1.045240045,-0.021508200,-0.126773000,-0.196438998,0.158368006,0.490992010,0.019592701,
-1.539379954,0.792164981,0.396795005,0.348915994,0.214724004,-1.106420040,-0.138549998,0.044928599,0.145573005,-0.354225993,0.001327880,-0.906126976,0.407909989,-0.239093006,-0.026191700,0.584313989,-2.579370022,-0.040535599,0.553034008,0.133062005,-0.448585004,0.026773401,0.343346000,-1.674329996,0.138417006,-0.516044974,0.299708009,0.388637990,-0.356653988,0.006271840,-0.326344997,0.183816001,-0.517306983,0.177687004,0.042192601,0.064105600,0.559267998,-0.359053999,-0.010471000,0.488729000,-2.635890007,-2.609740019,-0.566097975,0.225449994,-0.867497981,1.554319978,0.286125004,-0.197071999,-0.236959994,0.015472000,
-4.796520233,-7.305950165,-0.381401986,0.928044021,0.941595972,-0.915793002,0.604184985,0.789758980,-1.328889966,-3.263040066,-0.421512008,-3.181999922,-5.749899864,-0.775222003,-2.144150019,-5.571859837,0.232515007,0.016775601,0.712032020,-1.255759954,-1.007019997,-0.032652400,-2.526700020,0.868394971,-2.773420095,-1.002220035,-1.390439987,-2.278229952,0.828309000,0.044850800,3.284630060,-2.804090023,-3.278630018,0.109226003,-0.034969501,2.340290070,-2.024209976,-0.797214985,-2.633739948,-4.523210049,-1.343340039,1.284219980,-3.185379982,0.341796011,-6.634089947,-0.042989600,1.821920037,-1.549100041,0.324856997,0.040477399,
-1.087479949,-0.836181998,-1.748180032,0.168345004,0.201382995,0.482138008,-0.219873995,-0.572539985,-1.067080021,-3.042010069,-0.099247798,1.133100033,0.573587000,-1.831410050,0.440789014,0.431098014,-1.816349983,-0.041522101,0.750003994,-2.725009918,-0.184222996,-0.005756240,-0.243101001,-1.556589961,-0.079535499,-1.140519977,-2.330110073,-0.977895021,-0.597155988,-0.027606800,1.271939993,-0.058762301,-0.896098018,-1.000130057,-0.016962999,-1.307659984,-1.032750010,-0.549176991,0.123915002,0.655265987,-0.418338001,0.654093981,0.426831007,0.284352005,-5.235740185,0.352268994,-0.241647005,0.161819994,0.278575987,0.041800100,
0.838567019,0.185191005,0.352286994,-0.479166001,-0.088377900,-0.293781012,0.156449005,0.102880001,0.495223999,0.243931994,0.379803985,0.259930998,-1.433529973,-0.251695007,-0.021465100,-0.915812016,1.177000046,0.033948101,0.222472996,-0.886519015,-0.465609014,0.023991400,0.891789019,0.613397002,-0.649908006,-0.683611989,-0.173749998,0.013397900,0.442465007,0.024140701,0.871845007,0.069092602,-0.388862997,-0.193379000,0.050833300,0.084566303,0.322928995,-0.584617972,-0.456867993,0.205757007,0.715071976,0.139597997,0.154823005,0.177313000,0.775056005,-2.374140024,0.200617000,0.922698975,-0.122614004,0.040978100,
2.228270054,0.968729019,-0.188268006,1.308809996,-0.569930971,-1.023370028,0.591149986,-0.249597996,0.216712996,0.745769978,-1.086989999,1.958780050,0.614871025,-1.060449958,0.101379998,1.313730001,0.385363013,-0.037681799,-0.513809025,1.055160046,-1.689049959,0.046576802,1.083580017,1.293040037,1.718989968,-0.667632997,0.062410802,0.372162998,1.160730004,0.003802880,0.139836997,-0.438645989,-0.746401012,-0.146348000,0.008364280,-0.223421007,0.447806001,-0.148817003,0.743496001,0.933565974,1.410789967,1.338989973,-1.656450033,-0.272145987,-1.910910010,-1.203089952,-0.393355012,1.162350059,0.514115989,-0.020826500,
2.492919922,1.695350051,-0.627761006,0.383863002,-0.191613004,1.231619954,0.499960005,-0.775070012,1.115030050,1.123299956,-0.212596998,0.530821025,0.230658993,-0.501362026,-0.439503998,1.989480019,0.589473009,-0.008588690,-1.782189965,1.960690022,-0.015390900,-0.043220699,2.376869917,0.795050025,1.068210006,2.065049887,0.311650991,0.089933500,-4.524590015,-0.034354798,0.644236982,0.304217011,-0.087426603,0.855901003,-0.032673199,-3.655570030,-0.570788026,-1.140059948,0.275072008,0.730277002,-0.041994601,0.551741004,0.193083003,0.402736008,2.584300041,1.412340045,0.696250021,2.110800028,-0.462572008,-0.030452499,
3.016920090,0.373046011,-0.631416976,0.130651996,-0.411659986,1.273079991,-0.346477002,0.264418006,0.242137998,0.476426005,0.251479000,0.347211003,1.073840022,1.096799970,-0.227243006,1.932060003,0.695057988,0.016125601,0.902827978,0.631460011,-0.402038991,-0.011155800,0.878620028,0.033752400,-0.427776009,1.419020057,0.484236002,0.525165021,-1.201740026,-0.005520200,0.766125023,-0.759128988,-0.044476300,0.270855010,-0.031693600,0.380638987,0.164737999,-1.041370034,-0.454086006,1.224589944,0.748849988,-0.262210011,1.194700003,-0.048599701,0.173795000,1.412969947,-0.767040014,-0.907163978,0.051764101,0.035683300,
0.904320002,0.178352997,-0.491867006,0.595173001,0.317409009,1.220219970,0.036067601,-0.298040003,0.329961002,0.177153006,-0.962288976,1.139410019,1.214079976,-1.425189972,-0.475663006,0.006094810,3.202749968,0.032523699,-0.114125997,0.690939009,1.003010035,-0.022372900,1.604529977,0.047036100,1.766260028,-0.170130998,-0.452959001,1.323230028,1.366459966,0.027404100,1.026340008,-0.635845006,-2.422840118,-0.339967012,-0.013473200,0.406845987,1.070400000,0.220287994,-2.437700033,1.680600047,1.168449998,2.749599934,2.227960110,0.078786001,1.180969954,5.636650085,0.594107985,0.690952003,-0.374850005,-0.013252500,
0.201580003,0.145107001,0.111888997,-0.106670000,0.050781999,-1.187980056,-0.320986986,-0.503886998,-0.083423898,0.622480989,-0.114641003,-0.636201024,0.249923006,0.522051990,0.391039997,2.380650043,-1.028270006,0.008409030,0.008697760,-1.873690009,-0.015838001,-0.024370600,-0.662675023,1.943809986,-0.881451011,0.267181009,0.028759200,-0.041101601,-2.602230072,-0.033061299,1.552479982,-0.177471995,-0.181563005,-0.076185502,-0.002642970,0.192337006,0.199726000,0.160117000,0.209527001,0.166800007,0.490108997,2.119999886,0.040445801,0.402940005,-1.404379964,0.226083994,-0.792878985,-0.236963004,-0.025711199,-0.002895010,
0.802886009,0.368546993,-0.078290403,-0.399311990,-0.193725005,-0.859856009,-0.017499801,-0.316121012,0.441276014,-1.418200016,0.246930003,-1.225440025,-1.051849961,0.112937003,0.013519300,1.564479947,-0.291922987,-0.051321600,-0.021992801,-2.490449905,0.727034986,0.019695301,-2.037369967,-0.648891985,-0.761708021,-1.197579980,-0.203660995,0.786952972,-0.571600974,0.022050301,-1.076089978,-0.312656999,-0.624886990,-0.275245994,0.032310400,0.728769004,-0.573117018,0.383738995,0.274886996,-3.106339931,-1.020409942,-1.029489994,-2.910500050,-0.308937997,0.383365989,-1.675699949,-0.590004027,0.057734601,0.236065000,0.006680980,
2.306730032,0.616573989,1.583029985,-0.150961995,-0.321785003,1.303830028,0.378452003,-0.355033994,1.119660020,0.598064005,-0.579087973,1.413720012,-0.253093988,0.266469002,-0.434123009,0.427625000,0.955139995,0.020238500,1.531190038,0.264277995,1.822569966,-0.019283200,-2.104160070,2.021199942,0.420827001,-2.090660095,-0.262731999,1.145930052,1.650300026,0.020242600,-0.205867007,0.849973023,-0.440308005,1.830649972,0.000749544,0.065461598,-0.082847700,-0.542582989,0.531072021,-0.210804000,0.514925003,1.283769965,0.894137025,0.302498996,-1.539989948,4.056849957,-0.393745989,0.542200029,-0.610701978,0.002640470,
-1.354419947,0.314651996,-0.196619004,-0.033635400,-0.120402001,0.383080989,0.169187993,-0.080111302,0.749440014,-0.547562003,-0.018974099,0.821914017,-0.401885003,-0.415248990,0.171362996,-0.154626995,0.663164973,0.014516000,0.243683994,0.152189001,0.931378007,0.024006000,1.373049974,-0.490379989,0.461548001,-0.684261978,0.238580003,0.289020985,0.326788992,-0.026759200,-0.299275011,0.190899998,-1.187340021,0.004362170,0.070970803,-0.096160397,-0.681922972,-0.052757900,-0.028532499,0.086935900,0.414516985,-0.148495004,-0.321314007,-0.307969004,0.306284994,-0.844974995,-0.069496602,-0.254240990,-0.207096994,-0.044686802,
2.576420069,0.062008001,-0.336670011,-0.200727999,-0.930837989,1.200330019,-0.252067000,0.086259499,-0.387890995,0.071632102,-0.087630399,1.032220006,1.144189954,0.146740004,-0.267131001,0.547716022,1.881389976,-0.037444498,0.331766993,2.148159981,2.007699966,-0.042158201,0.448841989,1.079589963,-0.235815004,-0.591732025,0.139679000,-0.160855994,0.829302013,-0.009355640,1.412379980,0.183872998,0.868394017,0.200394005,0.006857370,-0.164918005,-0.311517000,-0.308728993,-0.357814997,-0.615718007,1.667479992,0.554576993,1.716220021,0.045004699,-0.277144998,0.522418976,-0.407965004,0.489338011,-0.084649302,-0.041251700,
0.368835986,-0.534823000,-0.439718008,0.092526697,-0.153165996,-0.260865986,0.153231993,0.252777010,-2.083529949,-0.797365010,-0.164405003,0.875635982,-0.701135993,-0.304571986,-0.135462999,-1.053670049,1.299379945,0.016483000,0.150395006,-0.512767971,-0.309468001,0.029132100,2.516599894,1.739009976,-0.199865997,2.275830030,-0.546576977,-1.182839990,-0.884742975,0.013431000,-0.002428950,0.763427973,0.610105991,1.607480049,-0.004624150,0.535162985,-0.002785520,-0.052418400,1.652539968,0.275539994,1.222890019,0.135487005,0.225275993,0.237158000,-0.370932013,1.519970059,0.122334003,0.511491001,-0.220602006,-0.015412200,
-1.764690042,-0.550351024,-0.366250008,0.374711007,0.103368998,-0.781266987,0.525461972,0.337592989,-0.333797008,0.269966006,-0.188067004,0.410299003,2.051219940,0.148103997,0.236737996,-0.004005640,0.774609029,-0.038976200,0.129102007,-1.523429990,0.347752005,0.013871300,-0.322923988,1.984910011,-1.303850055,1.256410003,0.132111996,0.496935010,-1.013599992,0.008341520,-1.711580038,-0.611621022,-0.307613999,-0.058776598,0.016634099,0.151465997,-0.089732200,0.356408000,0.568579018,0.172745004,0.518410981,1.227730036,-0.125254005,-1.041440010,2.973150015,0.217310995,-0.153253004,1.347509980,-0.914574027,-0.036578700,
-0.896592975,-0.757754982,0.100206003,-0.183365002,-0.210556000,-1.033920050,0.154041007,-0.460440993,0.485823005,-0.031761400,-0.061527599,-0.356238991,-0.110247001,0.268043995,-0.191438004,1.184080005,-1.140779972,0.009700910,0.369067997,-0.745884001,-0.302056015,0.036036700,0.221083000,-0.865903020,0.530417979,1.899000049,0.057591502,-0.887039006,0.022178501,-0.054044500,-0.814095020,0.247969002,0.125836998,-0.131297007,0.304001987,0.321525007,-0.111924000,0.409276992,0.715146005,-0.467296004,2.010600090,0.430103004,0.013909000,-0.088590600,2.044470072,-1.380499959,0.337906986,-0.045175500,0.429127008,-0.000975249,
1.440029979,-0.831845999,0.421175987,0.501119971,-0.135103002,3.210649967,0.274765998,-0.202597007,-0.096382603,0.907162011,-0.660600007,1.299250007,0.411801994,-0.331221014,-0.471415013,-1.437719941,-0.229555994,0.036889099,0.113505997,1.461949944,-0.212547004,-0.036803801,2.244440079,1.148929954,1.381639957,0.173662007,-0.427762985,0.688712001,-1.713140011,0.014156500,-5.513790131,0.301654011,0.814935029,0.585187018,-0.028952600,0.353608996,0.156584993,0.662111998,-0.653023005,0.419413000,0.107831001,2.190220118,1.174739957,0.115240999,1.922799945,2.106829882,-0.632203996,-1.856160045,1.217759967,-0.020683501,
1.107830048,-0.023224700,-0.131823003,-0.455224991,-0.095777199,0.097510502,-0.263684988,0.256754994,0.906979978,0.251439005,-0.063205101,1.076560020,0.097491696,-0.407305986,-0.127601996,1.148859978,0.554544985,0.017582901,0.703710020,0.670262992,0.201190993,-0.009808850,-0.391162992,-0.440448999,-0.622467995,-0.442966998,-0.272525996,-0.293595999,0.615607023,0.014808800,1.651950002,-0.054464400,0.325174004,0.539453983,-0.018527700,0.280306995,0.831067979,-0.549926996,0.190522000,0.198635995,-0.518567979,0.967680991,0.597809017,-1.223009944,0.583724976,2.484730005,-0.548853993,0.051343799,-0.015197600,0.016996000,
-1.258800030,-0.487071007,-0.366622001,1.070119977,-0.208786994,-0.265897006,-0.057504699,-0.390000999,1.186840057,0.602485001,0.685932994,-0.273941010,-0.275846004,0.444941014,0.004894650,-0.566865027,0.336609989,-0.017050700,0.063963398,-1.294510007,0.531005025,-0.029216800,1.376009941,1.683419943,-0.471058995,0.834046006,-0.562538981,-0.504408002,1.044139981,-0.007269350,1.691519976,-0.790619016,0.697148979,0.800018013,0.019164201,0.322737992,-0.285133004,0.746092021,-0.683314025,1.730219960,-1.383170009,-0.729707003,0.568695009,-0.581169009,-1.102849960,3.784709930,1.617429972,0.587807000,-0.452075988,0.012180800,
0.775668025,0.571870029,1.159170032,0.279610008,-0.184903994,1.020650029,0.324160993,0.145329997,-0.248971999,-0.269403011,-0.886326015,1.319759965,-0.272033006,-0.213339001,-0.313378006,2.384809971,1.160709977,0.017030699,1.234410048,0.298308015,0.984826982,-0.029595001,0.728209019,0.855971992,1.323019981,0.319344997,0.243606001,-1.541110039,-1.427770019,-0.024900900,0.024672801,-0.231304005,0.937767982,0.772404015,0.040994499,1.452399969,-0.263256013,-0.623539984,1.249050021,0.332064003,0.334215999,0.816940010,1.177600026,0.279514015,0.615413010,0.290919989,-0.433847994,1.239989996,-0.067009002,-0.047223698,
-0.201800004,
-1.149489999,
-1.012719989,
-2.067359924,
-3.251889944,
-0.529340982,
1.673689961,
-0.330843002,
-2.072190046,
-0.777696013,
2.187809944,
0.592061996,
-0.213271007,
0.572386026,
1.516950011,
-0.424432009,
-0.920571029,
-0.632175982,
2.070319891,
-1.357990026,
-1.410009980,
-1.298210025,
-1.190209985,
