// Neural Network File Format by Kyle Julian, Stanford 2016
8,5,5,50,
5,5,50,50,50,50,50,50,5,
0,
-3.4028235e+38,-3.4028235e+38,-3.4028235e+38,-3.4028235e+38,-3.4028235e+38,
3.4028235e+38,3.4028235e+38,3.4028235e+38,3.4028235e+38,3.4028235e+38,
0.0,0.0,0.0,0.0,0.0,0.0,
1.0,1.0,1.0,1.0,1.0,1.0,
1.000000000,0.000000000,0.000000000,0.000000000,0.000000000,
0.000000000,1.000000000,0.000000000,0.000000000,0.000000000,
0.000000000,0.000000000,1.000000000,0.000000000,0.000000000,
0.000000000,0.000000000,0.000000000,1.000000000,0.000000000,
0.000000000,0.000000000,0.000000000,0.000000000,1.000000000,
-0.000000000,
-0.000000000,
-0.000000000,
-0.000000000,
-0.000000000,
0.070271999,-0.013096800,0.014420200,0.254316986,0.097387999,
0.016539801,0.005369520,0.002377930,0.000581580,0.007453960,
-0.087722301,0.005635930,0.023502201,-0.659756005,0.652459979,
0.052545100,0.531526983,-0.385939002,0.336526990,-0.521279991,
2.136699915,-0.005775170,-0.002989580,-0.008396900,0.001034320,
-0.047450699,1.139879942,-1.120180011,0.179052994,-0.276495993,
0.185323998,0.147752002,-0.100791998,0.106328003,0.340885013,
0.038148601,0.075768799,-0.025281999,-1.589480042,-0.190426007,
-0.058763500,-0.744535029,-0.387066990,0.235140994,-0.166011006,
-0.038467299,0.060058799,0.026244501,-0.011267200,-1.020220041,
-0.668642998,0.852953017,-0.515550971,0.185916007,-0.181002006,
-0.014290800,-0.091865100,0.783737004,0.766803026,-0.797345996,
0.015827199,-0.001969990,0.027135599,-0.146160007,-0.921209991,
-0.020897400,-2.975800037,-0.173270002,0.115598999,-0.088140100,
-0.024358800,-0.537531018,-0.756114006,0.238256007,-0.137504995,
0.063696101,0.836332023,-1.329570055,0.049241699,-0.165041000,
0.027143700,-0.293844998,0.971825004,0.125242993,-0.103279002,
-0.035184901,0.729987025,1.951040030,-0.217721000,0.228327006,
0.003029280,1.574249983,-1.324900031,0.021107400,-0.261523992,
-0.140444994,-1.539180040,1.523090005,0.087470599,-0.359991014,
-0.112010002,-1.210250020,1.613549948,-0.130153999,0.388916999,
0.158979997,-1.058990002,1.214699984,0.137614995,-0.163157001,
0.057964198,3.024240017,0.164023995,0.228516996,-0.662963986,
0.013045800,-0.004955590,0.000420045,0.000770651,-0.002172220,
-0.033114702,-1.021839976,1.277850032,0.147997007,-0.311973989,
0.008040110,0.433259994,0.539277017,-0.445033014,0.373207986,
-2.042589903,-0.004442150,0.057781499,0.025851401,-0.139984995,
0.074088998,-1.818040013,0.189861000,0.207353994,-0.379750997,
0.017617600,0.670493007,1.907789946,0.143415004,-0.164469004,
-0.026107300,-0.691691995,0.901961029,0.154339001,-0.260304987,
-0.019654101,-1.084100008,1.420099974,-0.126522005,0.396800011,
-0.436798990,0.468104005,-1.014369965,-0.074224301,0.194948003,
0.307945013,0.287849009,0.031202300,-0.007930270,-0.249850005,
0.015283900,2.532150030,0.013286200,0.018144900,-0.025602801,
0.066930100,0.730934024,0.126855999,0.219319001,-0.388305008,
-0.002156150,0.060552601,0.006707150,0.027614800,-1.683920026,
0.015387600,0.747974992,1.096529961,0.362149000,-0.232158005,
0.006153220,-0.382613987,-0.495694995,-0.404955000,-0.046448100,
-0.000951355,0.964839995,-1.168939948,-0.172709003,0.241228998,
0.028787900,1.101079941,0.486629993,0.767579973,-0.959792972,
0.057025101,-0.650870979,-0.108594999,0.419584006,-0.550337017,
-0.036713999,1.321769953,-1.598009944,-0.051458601,0.227515996,
-0.055694800,-1.102699995,1.716320038,-0.472577006,0.612950981,
0.160517007,1.574519992,-0.529613018,-0.003992140,-0.390724987,
-0.175353006,1.013350010,-1.136950016,-0.083310500,0.347400993,
0.107143000,1.216179967,-0.920897007,0.223484993,-0.107703000,
-0.005745100,-0.001615760,-0.002188790,-0.010327200,-0.005238210,
-0.048997000,0.174388006,0.333781987,0.473623991,-0.515213013,
-0.000368760,-0.012800400,-0.010920600,0.014025500,0.000740398,
0.033600200,-0.615176976,-0.183519006,-0.294943005,0.457800001,
0.029253000,
-0.019298000,
0.043707401,
-0.108061001,
0.692276001,
-0.005590490,
-0.013747300,
-0.545750976,
0.127274007,
-0.404532999,
-0.251100987,
0.253942996,
-0.430788010,
0.025445800,
-0.093286000,
-0.319261014,
-0.017331900,
0.035675701,
-0.199647993,
-0.155949995,
-0.318585008,
-0.386705011,
-0.344754994,
-0.014016400,
-0.272655994,
0.038673099,
-0.231376007,
-0.153327003,
-0.033692401,
0.196676001,
-0.435016006,
-0.258405000,
-0.199926004,
-0.025341500,
-0.166253999,
-0.342999995,
-0.138016999,
0.180225000,
-0.546545982,
-0.177180007,
-0.114330001,
-0.549117029,
-0.722998023,
-0.271041006,
-0.180599004,
-0.393622994,
-0.018490000,
-0.044360898,
-0.023612799,
0.126688004,
-1.062739968,0.055171002,-0.927339971,0.351018012,-0.018168500,0.237353995,0.959276974,-0.108687997,0.455729008,1.241739988,-0.183887005,0.488032013,1.596130013,-1.465109944,0.189162001,0.379911989,-1.068590045,-0.073774502,-0.085570499,0.247599006,0.362417012,0.585034013,-0.836269975,-0.000146465,0.246824995,0.446469992,1.159209967,-0.564776003,-0.264017999,-0.035615601,0.540503025,0.284604996,0.212821007,-1.608450055,0.159723997,0.375140995,0.341886997,0.365339011,0.630689025,0.161083996,0.215840995,1.307420015,0.829362988,-0.502052009,-0.226181000,0.368809015,-0.040367998,0.346805990,0.001876010,-0.480448991,
1.128239989,-0.017950799,0.073135100,0.097644597,0.046360798,-0.971350014,-0.073959596,0.040496401,1.031939983,-0.638235986,1.260409951,-0.072244197,-1.216820002,0.674969971,1.682199955,-0.122078001,-2.474489927,1.037680030,-0.863350987,-1.679270029,-0.594056010,-1.103119969,0.166161001,-0.000843269,-1.418140054,0.456927001,0.020747300,0.023098901,1.697679996,-0.555390000,-2.716470003,0.189601004,-0.478383005,0.478511989,0.576566994,-0.657141984,2.056979895,0.429316014,0.580622971,0.256332010,-0.709426999,-0.069377497,-0.079650499,-0.146974996,-0.400310010,0.191058993,-0.031143600,-1.155779958,-0.037410799,0.400959015,
0.550123990,-0.016382299,-0.140578002,-0.217632994,2.210710049,0.189973995,-0.046934899,0.179692999,-0.125909999,-0.174528003,0.168105006,-0.032790400,-0.827587008,0.051124901,0.288046002,-0.201479003,-0.155199006,-0.169534996,0.543048024,0.371033996,0.111994997,-1.097790003,-0.213113993,0.021511201,0.242024004,0.353365004,-2.699059963,-0.448536009,-0.390603006,0.437106997,0.331642002,-0.174995005,2.110650063,-0.044457499,-0.199956000,0.271658987,0.357748985,-0.060955200,-0.401199013,-0.023990201,-0.571080983,-0.074840501,-0.371832997,-0.178949997,-0.074358903,-0.826798022,-0.037527401,0.538101971,-0.035250399,-0.457433999,
-0.005317360,0.000159368,-0.028026899,0.021960899,-0.071001701,0.006956990,0.059996799,-0.056841601,0.004206280,-0.051911499,-0.034155201,-0.017368199,-0.002516430,-0.002228540,0.031940699,0.040934298,-0.078233503,-0.029673001,-0.029704601,-0.020611400,-0.018872499,-0.032771599,-0.023413900,0.002291130,-0.068660699,-0.023325199,0.011929500,-0.014477600,-0.044009399,-0.031644400,0.003580220,-0.046318099,0.010689700,-0.049796201,-0.048360098,-0.053152598,0.012674200,-0.096028402,-0.006055210,-0.004657310,-0.018031800,0.014828500,-0.020235401,-0.048954699,-0.033507399,-0.003218430,-0.026004801,-0.039783400,-0.003190360,0.016114900,
-0.548714995,-0.033346001,-0.866106987,-0.167665005,-4.705190182,-0.336189002,-0.492882997,-0.094499797,-1.925879955,-2.025399923,0.415574998,-0.522442997,2.138750076,-0.019405600,-1.278069973,-0.472950011,-0.704508007,-0.312795013,0.057060901,-0.661378980,-3.429120064,-3.362329960,0.751529992,0.022091800,-0.241837993,-0.288924992,0.389557004,-0.043996900,0.353098005,-3.197849989,-0.087531000,0.519397974,8.416620255,0.434026986,0.974815011,0.022683199,1.197960019,-0.022648200,0.014989700,1.365020037,-0.568216026,0.942358971,0.030273801,-0.219284996,0.506406009,0.549600005,0.034422800,0.235305995,0.016169200,-0.923323989,
0.201813996,0.035017200,-0.681002021,-0.513745010,0.074154198,0.172331005,-0.321188986,-0.428636014,-0.342967987,1.114040017,-1.591889977,-0.646089971,-0.924656987,0.433248997,0.577578008,0.358812988,-0.404401004,0.270999014,-0.182476997,0.080336802,-0.076445803,0.809424996,0.222639993,0.058906399,0.758819997,-0.305117995,-0.892569005,-0.524097025,0.648205996,-0.549842000,0.453094989,0.448229015,1.421830058,0.288796991,-0.304778010,-0.012171400,0.706651986,0.263870001,1.641999960,0.159177005,0.139164001,-0.666005015,0.088938303,0.031288899,0.384855002,1.005859971,0.001370140,-0.848424017,-0.001562480,0.785221994,
-0.003725690,0.020017900,0.028895499,-0.048864000,-0.038540602,0.018196501,0.022175699,0.031780101,-0.019746400,-0.025858000,-0.037594900,-0.021873301,-0.024228100,0.018707000,-0.028287800,-0.039805200,-0.048123099,-0.031612501,0.031957600,-0.056079600,-0.007890060,0.045681600,0.018432099,-0.034244999,0.022270400,-0.024428800,0.028272700,0.013383100,-0.058823500,0.015615400,0.021456800,-0.035338100,0.035982002,-0.030612599,0.037115298,-0.010724600,0.021164000,-0.026365001,0.006114130,-0.010875900,0.009633890,-0.040231299,-0.007538840,-0.015147000,-0.036648601,0.025609599,-0.012743600,-0.020369800,0.032258101,-0.032284301,
-0.469615996,0.043324601,-1.681750059,0.065681301,0.402476996,-0.151690006,0.152928993,-0.122442000,-0.379083008,0.220495000,-0.045987699,0.210692003,1.718999982,0.681877017,0.724291027,1.140359998,-0.401576012,-0.213521004,0.052285299,-0.194562003,0.393269002,0.507580996,0.957868993,0.020738199,0.173299000,1.589560032,-1.221029997,1.509410024,-0.683130980,0.333925009,0.195954993,-0.902580023,1.637439966,1.317160010,1.389549971,0.429174006,0.506008029,0.296018004,-2.302069902,0.238229007,0.381918013,0.987127006,-0.542670012,0.415831000,-0.564752996,0.382685006,-0.012649300,-0.273862004,0.018281400,-0.337449998,
-0.409063995,0.013398000,-0.164960995,0.046237499,-0.266088992,0.579900026,0.058020201,0.053477000,-0.283257991,0.935207009,-0.507995009,-0.096545704,-0.409319997,0.084624097,-0.264209002,-0.125266999,-0.259216994,0.143898994,-0.024246501,0.117109001,-0.019527500,0.066503301,-0.011139100,-0.007378650,-0.268981010,-0.239209995,-1.962460041,0.228497997,0.467642009,-0.016183900,-0.109355003,-0.233042002,-1.242879987,-0.351370990,0.285867989,-0.223343998,-0.273294002,-0.076645397,-0.200231001,0.304105014,0.443446010,-0.069644198,-0.079368100,0.062102299,0.302581012,-0.078406401,0.037042402,-0.433618993,0.014742300,-0.191561997,
-0.641461015,0.051193301,0.117916003,1.008360028,0.004785990,0.191208005,-0.768914998,-0.998957992,-0.115791000,1.595630050,-0.500298023,-0.771380007,2.647089958,0.388987988,0.538042009,0.539025009,-0.188402995,-0.949742973,0.319106996,-0.399601996,-0.778880000,-1.573050022,0.157564998,0.000790832,-0.637745976,-1.928329945,-0.919143021,0.318042010,0.205348000,0.483013988,-0.961665988,-0.056296900,-1.557800055,0.523105979,-0.145219997,0.395621985,-1.988860011,-0.153389007,-0.590695024,0.877346992,-0.878660023,-0.773317993,-2.653559923,0.323204994,0.167640001,0.934853971,0.017152401,-0.349759996,-0.050157201,0.492525995,
-0.058933299,-0.010202300,-0.006752670,-0.036974400,0.003243220,-0.015336200,-0.020354399,-0.003258960,-0.020332901,0.012190200,0.006912520,-0.000433824,-0.047582898,-0.012329900,0.031062400,-0.023632200,-0.004501740,0.047876298,0.016660200,-0.033508301,0.010688800,-0.046750899,-0.005970140,-0.022699500,0.026789799,-0.021094000,0.025643600,-0.033339798,-0.057464901,-0.014789100,0.017331300,0.048865099,0.018563600,-0.000013751,0.032024901,0.026391501,0.003768480,-0.001204790,-0.006174490,-0.063878201,0.000001297,0.015775399,0.042304002,-0.020517001,-0.027034899,-0.028443599,-0.043816499,0.036181200,-0.018918401,-0.036894798,
-0.935065985,0.006319320,1.363129973,-4.695290089,0.089459002,-2.758090019,-0.551919997,0.910865009,0.333896995,0.505701005,-2.491480112,-1.140120029,0.854084015,-0.638747990,-2.249910116,-0.990170002,-4.215789795,0.574000001,0.050499301,-0.083129399,-2.766249895,-3.367579937,0.671715021,-0.009161490,-0.729310989,1.050009966,-2.039119959,0.162279993,0.068076700,-1.038239956,-2.448960066,-0.937229991,-1.280169964,-1.215240002,-2.759660006,-1.395400047,0.209234998,1.373309970,-3.348160028,-1.985280037,-3.171950102,-3.031059980,0.067492902,0.655602992,-1.705909967,-6.499189854,-0.034097999,-0.935238004,0.005006100,-0.104794003,
0.851282001,0.018697999,1.532940030,-0.990787029,0.037267499,0.040461499,0.053660300,1.160150051,0.437588006,-2.434700012,0.707207978,-0.671696007,-1.246150017,0.574665010,0.468519002,0.624852002,-1.740910053,0.084906600,0.269080997,0.993376970,0.095587298,-0.109292999,0.605037987,0.001849180,0.702511013,0.333521992,-0.584563017,0.426647007,0.266247004,0.256141990,-0.286882013,-0.836584985,-0.633706987,0.649648011,0.884661019,-0.046946902,1.151139975,0.508598030,-2.201699972,0.013173000,-0.065939598,-0.078697301,-0.939805984,0.399513990,0.325392008,-0.692198992,-0.040869799,-2.305860043,-0.029494200,-0.085048899,
-1.333389997,0.038075499,0.738403976,-1.168740034,-7.781660080,-2.410200119,-0.676645994,-0.115987003,-0.324919999,-2.749310017,-1.514359951,-0.186813995,-0.392996013,0.719081998,0.860292017,-2.540980101,-0.523742020,0.121242002,-1.319039941,-0.907333016,-0.446090013,1.406460047,-0.656009972,0.029945301,0.703163981,-1.173990011,2.752199888,0.384333998,0.350869000,-1.612990022,0.119677998,0.246537998,0.279044002,1.430770040,-0.720595002,-0.238558993,-0.614228010,-0.305801004,-2.199909925,-0.067829698,0.194939002,-0.932372987,0.041253000,-3.537559986,-1.816939950,-2.867880106,0.003999230,-0.195421994,0.052033901,0.105967000,
-0.007831480,0.034218900,-0.002033110,-0.006514020,-0.047878999,-0.052647900,-0.047666300,-0.027312100,-0.032852098,-0.009900360,-0.018195501,0.000424528,-0.033502199,0.004841070,-0.040321801,0.029459599,0.022116899,-0.009388440,-0.005062010,0.007459280,-0.009627530,-0.004753780,0.024177600,-0.015628999,0.026684299,0.027684299,-0.035419900,0.032945901,-0.022996100,-0.032248098,-0.023259001,-0.017068399,-0.027079700,0.028878700,0.024439400,-0.034049299,-0.040798701,0.011647200,-0.012937200,-0.056569800,0.016324900,-0.034233298,-0.023777500,0.011995800,-0.039244000,-0.035590500,0.010237100,0.005370060,-0.045755100,-0.004255670,
-0.042468701,0.012535200,0.006864780,-0.006930390,0.002723220,0.003594360,-0.025559399,0.013115400,-0.030482100,-0.017386099,-0.017246500,-0.049494699,0.024485599,-0.001220650,-0.034321200,-0.039500002,-0.003744100,0.035513598,0.010016000,-0.014506000,0.025551800,0.005993280,-0.043074500,-0.032007501,0.033082001,-0.047525302,0.019441299,0.010443200,-0.054512400,-0.029150700,0.032023702,-0.018993899,-0.032085799,0.038882200,-0.047186401,-0.010416800,0.016039399,-0.035537999,-0.046532501,0.036591500,-0.041293200,-0.004909610,0.007113190,-0.031815201,-0.031834599,0.002604820,-0.037906401,-0.044655200,-0.052773900,-0.035294000,
-0.767015994,-0.018333700,0.409511000,0.600359023,0.262398005,-2.841049910,-0.621635973,-0.206440002,-2.176130056,-0.138181001,2.719980001,0.122440003,-1.127550006,-1.461359978,1.296540022,0.020511700,-0.953706026,0.608138025,-0.950290978,-0.680675030,-0.134444997,-1.348430037,-0.240456000,0.000099198,-1.490020037,0.833316982,-1.685799956,2.076100111,-0.481766999,-0.757315993,-2.218970060,-2.440479994,-1.687260032,0.763954997,1.184880018,-0.818184972,0.784443021,1.251960039,-2.837160110,0.601432025,0.136983007,-2.763350010,-1.174430013,-0.975803971,-1.356189966,-0.133479998,0.039847001,-0.418971002,-0.011281000,-0.416173011,
0.520690024,-0.006819560,-0.453734994,-0.408654004,-1.352679968,1.305850029,0.299591988,0.132580996,0.490657002,0.052526999,0.264394999,0.363927990,1.666640043,0.013792300,-0.748396993,-0.399643987,1.302749991,-0.021466400,-0.150349006,-0.075472496,1.244349957,-1.899150014,-0.459266990,-0.007313430,-0.268817991,0.277166992,0.484351009,-0.905622005,-0.426640004,0.576738000,0.478448987,1.003200054,-6.493239880,-0.413917989,0.731846988,0.559303999,0.438775986,-0.554943979,0.309080988,0.059839401,0.142605007,-0.083426699,-0.239454001,-0.231006995,1.540140033,-0.933212996,0.041580901,0.319510996,0.003702250,-0.398624986,
1.480659962,-0.037364699,-1.323869944,-0.146513000,0.282034010,-0.952241004,-0.340449989,0.097134396,-0.138063997,-1.551409960,0.561932981,0.176386997,-2.988120079,1.103909969,-0.193023995,0.321929008,-3.507420063,0.338476986,-0.251177996,-1.135200024,-0.934791982,1.406550050,0.198161006,0.010712400,0.850338995,-0.440355986,-0.872437000,0.167429000,-1.246799946,-0.399123013,-0.493164003,-1.405910015,-1.537520051,1.591699958,1.132609963,-0.320567012,0.649631977,-0.465559006,0.178812996,0.449288011,-0.855347991,0.556966007,-0.351817012,-0.014814600,-0.464996010,0.148564994,-0.018338000,-0.324146986,-0.015388800,1.363479972,
0.808623016,-0.026580101,0.878674984,-1.504109979,-0.006646930,-0.747339010,-0.397603005,0.200239003,-0.072525598,-0.179772004,1.197960019,-1.022179961,-1.459030032,-0.688566029,-1.460780025,-0.498800993,0.780478001,-0.108874999,0.313706011,0.448339999,-0.433447003,0.685995996,-0.760989010,0.023439599,0.081856400,-0.213324994,0.746527016,-0.355340987,-0.344303995,-0.561990976,0.702926993,-0.340894014,-3.300489902,-0.539884984,-3.707799911,0.512449980,0.041576799,0.092578702,-0.420192987,0.799616992,-3.042759895,-8.627090454,0.200342000,-0.790534973,-1.066519976,-0.083308898,0.053876400,-4.652369976,0.050697900,-0.708014011,
0.115875997,0.008136100,-0.245158002,-0.971684992,0.088737503,0.276297987,-0.012088700,0.252505988,0.311403990,1.482130051,-0.386530995,0.125330999,1.967540026,0.704928994,0.274455011,-0.122279003,-0.355677992,-0.260565996,0.008156740,0.379539996,0.065173402,1.368710041,-0.397246987,-0.005502330,0.956893027,0.507763982,-0.626956999,0.792775989,-0.825715005,0.278553993,1.291270018,0.033816099,-0.303137004,0.338988990,-1.337700009,0.218626007,-1.039019942,-0.059473999,0.307040006,-0.520274997,2.006720066,1.549010038,0.704182982,-0.067432702,0.364675999,0.350836009,0.031853501,0.089560702,-0.000166525,-0.930634022,
0.016198199,-0.048413601,0.037278600,-0.050368302,0.000034840,-0.035849299,-0.046797901,-0.029008100,-0.055534299,-0.000828580,-0.044411600,-0.001144820,0.009926580,0.015244100,0.035528202,-0.040105801,-0.013808100,-0.053773101,0.020534299,-0.042720798,0.031468499,0.035789002,-0.039525598,0.017306499,-0.031970300,0.028126299,0.017976301,-0.015955901,0.010882000,0.023769701,-0.013971600,-0.016779300,-0.026304999,-0.030831801,0.024501201,0.030573700,-0.046886999,-0.038511001,-0.007398640,0.021254901,-0.000930480,0.023972901,-0.022888999,-0.022685699,0.004226940,-0.053668901,-0.036084902,0.034624200,0.006333390,-0.023635600,
-0.418294013,-0.045321800,1.229400039,-0.970062971,0.064925797,0.140484005,0.219560996,0.240193993,-0.548693001,-0.949647009,-0.796236992,-0.300662994,1.247009993,0.063124001,-0.409615993,2.500730038,-1.530369997,-0.066056900,-0.145618007,0.300716013,0.129907995,1.610419989,0.961012006,-0.013725700,0.707068026,-0.159645006,0.014630800,1.602730036,-0.299113989,-0.070024900,0.277049005,-0.509678006,-0.351240009,0.257463008,0.127363995,0.951807022,0.330145001,0.272460014,0.074091002,1.039510012,-0.074342497,0.389097005,-0.104595996,-0.036192998,-0.110155001,-0.288121015,0.010083600,-1.296139956,-0.044452500,0.071715303,
-0.211514995,-0.051855799,-0.019869501,-0.009040750,-0.062415700,0.297100008,-0.039687499,-0.015781799,-0.167835996,0.423622996,0.305435002,-0.301795006,0.650547981,-0.250467002,0.538850009,-0.627799988,0.885276020,-0.255708992,-0.018312100,-0.325199008,0.286300987,-0.236817002,0.166833997,-0.037944499,0.142554000,-0.033829600,0.005782040,0.170773998,-0.205755994,0.479525000,0.040072601,-0.404446989,0.504203975,0.207690001,-0.654025972,-0.191945001,0.123029999,-0.064175002,-0.056779001,0.185666993,0.028873799,-0.394129992,-0.454894990,-0.143728003,0.285376012,0.112295002,0.023147499,-0.865548015,0.034170900,0.363613009,
-0.805265009,-0.029534200,-0.731727004,0.688274980,0.029964600,0.337965012,0.088312201,-0.102945998,-0.186712995,2.158750057,0.030690299,0.354240000,2.513240099,0.164077997,-1.500839949,0.465112001,0.662800014,-0.552702010,0.563490987,0.241053000,0.648266971,0.793829024,0.091021203,-0.026173299,0.329160988,-0.579837978,-0.434942007,0.197898999,-0.047654800,0.597836018,0.768523991,0.452816993,-0.378107995,0.628023028,0.449546993,0.260275006,-0.263408989,-0.355042994,1.756780028,-0.101708002,-0.567372978,1.091629982,1.042299986,0.147433996,0.217644006,0.908985972,-0.031698801,0.598345995,-0.014823700,-0.200588003,
-0.632674992,-0.026070600,0.357140005,0.351209015,0.257865012,0.030017201,-0.650080025,1.463389993,1.357509971,0.721306026,-1.599900007,-0.459158003,1.718969941,0.128052995,1.408010006,-1.961640000,-0.338732988,0.552713990,-1.087419987,-0.469076008,-0.330105007,1.124330044,0.598250985,-0.007403400,1.507380009,-0.572489977,-1.132640004,-0.903464973,0.386489004,-1.918370008,0.163128003,-1.451249957,-0.747246981,-1.209740043,-1.217569947,0.558768988,-0.084627897,-0.010932100,-3.368499994,-0.192929998,1.207309961,-3.433350086,0.546573997,0.848927975,0.159034997,-2.244999886,0.056851801,-1.631510019,-0.002899920,-0.403153986,
0.200779006,-0.032829300,0.512557030,0.588102996,-0.015959101,-0.550967991,-0.035346199,0.356110007,-0.179986000,-0.486797005,0.196005002,0.249431998,0.330763012,0.190468997,-1.867560029,0.842949986,0.663250029,-0.825628996,0.216481999,0.162429005,-0.626119971,1.148200035,-0.290917009,0.001128660,0.688632011,-0.329879999,0.427175999,-2.350810051,-0.432175010,0.746461987,0.422509015,0.170710996,0.775381982,0.838750005,0.829531014,0.026092701,0.708253026,0.201020002,0.628845990,-1.454519987,-1.677119970,-1.038439989,-0.562497973,-0.590331972,0.002893740,-1.083670020,-0.016054800,-0.872946978,0.034714799,-0.377166003,
0.043811500,0.020567300,-2.125720024,-1.005470037,-0.121979997,-0.118226998,0.171584994,-0.145899996,-0.163247004,0.466187000,0.171338007,0.103092998,0.569582999,0.510770023,-0.930348992,-1.014739990,-0.617161989,0.447546005,-0.159810007,-0.202815995,-1.382099986,-1.031720042,-0.592117012,0.045501102,-0.746716022,0.118189000,-0.613052011,0.398288012,0.827993989,-0.276804000,-1.949689984,-0.291128993,-1.304299951,0.674136996,1.345489979,-0.018210500,0.979243994,1.035169959,-2.633049965,0.130431995,1.592519999,-0.469132006,1.530040026,0.419627994,0.197073996,0.521973014,-0.024962099,-1.231089950,-0.021259800,-0.165536001,
-0.037195701,-0.001674120,0.120908000,0.214601994,0.046265200,-0.947816014,0.153578997,0.414855003,0.563704014,-0.606549025,-0.709483981,-0.092745803,-0.558897018,1.485640049,-1.453510046,0.553215981,0.189741001,0.056304701,0.165115997,-0.463162005,-0.857903004,-0.794825017,-0.533438027,-0.014639000,-0.682888985,0.772354007,0.420123994,0.421032012,0.732858002,-0.483197987,-0.210739002,-0.707755029,1.406219959,-2.571399927,4.602230072,-0.356146008,1.060760021,0.065059297,2.748270035,-0.035140201,-1.775850058,0.887463987,0.702032030,1.383540034,0.425577015,-1.996729970,-0.033588100,-0.195180997,-0.037862901,-0.943273008,
-0.907519996,0.016725300,0.010885900,0.344570994,0.022207299,0.405988991,0.899111986,-0.736882985,0.050435100,-1.310719967,-0.360332996,0.489324987,-1.466410041,0.349956989,0.663066030,-0.619388998,-1.138599992,-0.533268988,-0.107037000,0.394129008,0.581188977,1.365650058,1.310150027,-0.029888101,0.653917015,-0.321824998,0.277579993,-0.102911003,-0.449625999,0.560005009,0.903703988,0.887435019,-0.385360003,-0.501446009,-1.105260015,0.311127990,-0.330653995,-0.312907010,-1.262449980,-0.551169991,0.302935004,0.224921003,-0.200158998,-0.000623510,-0.043224301,-0.616189003,-0.010376800,-0.289368987,0.027725900,-1.039489985,
0.944715977,-0.030911900,1.014060020,-0.981559992,0.088297702,-0.838549018,1.443070054,1.627050042,-0.602602005,-3.458709955,-0.420161009,-0.002627220,-4.356060028,0.476384997,0.680311978,-2.416209936,-0.636040986,-0.163393006,-1.074589968,-0.446135998,-0.917720973,0.447515011,0.251477987,0.040023301,-0.174293995,-0.328363001,0.302136987,-0.110912003,0.780074000,-0.646188021,0.307520986,-1.357390046,0.865530014,1.131129980,-1.390570045,-1.243460059,0.707687974,-0.221462995,-5.473460197,-0.257665992,-1.139580011,-3.804430008,-0.345515996,-1.046579957,-0.069149397,-1.866600037,-0.046606701,-0.472483009,-0.056453101,0.489295989,
0.146776006,0.041463900,-0.089481696,0.630349994,-0.029332200,1.089400053,0.019309901,-0.438796997,-0.843150973,-1.164080024,-0.297284007,-0.388639987,1.337810040,0.261776000,0.226196006,-0.006110810,0.201289997,-0.077684499,0.193011001,0.232497007,-0.152802005,-0.288392991,-0.658659995,-0.016177099,-0.860617995,-0.145482004,0.272219002,-0.161271006,0.303229004,0.617416024,-0.340268999,-0.580219984,0.807909012,-0.243855000,-0.832265019,-0.080000699,0.042683501,0.070752002,0.383765012,0.715282023,-0.245722994,-0.274349988,0.113843001,0.023005599,0.390504003,0.461845011,-0.020847401,-0.021730401,-0.041009899,0.266332000,
-0.217761993,0.057136100,-0.705205977,-0.074971303,-0.112439997,-0.212393999,-0.198403001,0.636232972,-1.056030035,-1.967939973,0.195657998,-0.134626001,-0.249175996,0.288670987,0.494583011,-0.249642000,-0.591180980,0.145089999,-0.206517994,0.510335028,-0.959465981,1.103330016,0.629571021,0.014706900,-0.187162995,-0.343403012,0.247224003,1.230419993,0.114013001,-0.107367001,-1.824020028,-0.604080021,-0.482643008,0.796460986,0.945479989,0.404994011,-0.585137010,0.018750601,-2.385370016,-0.205470994,-0.319027007,-2.143379927,-6.174369812,0.823494971,-1.195039988,-0.920771003,0.015437100,-0.674652994,0.039686400,0.142465994,
-0.135247007,0.034201398,-0.441801995,1.268919945,0.135905996,0.168345004,-0.772177994,-0.590151012,-0.349819988,1.196490049,0.248770997,-0.284705013,-2.707859993,-0.853995025,0.500356972,-0.591365993,1.503810048,0.674947977,-0.548825979,-0.679313004,-1.071779966,-1.531599998,0.784469008,0.030336000,-0.750469983,-0.107813001,-0.596624017,-2.366669893,1.205229998,-0.483729988,-2.710829973,0.077948503,-0.720817983,0.462545007,1.215469956,-0.510195971,-0.610351026,-0.050733499,0.297515005,0.559211016,-1.295140028,-0.312326014,-0.533819020,0.016862901,-0.852765977,0.879544020,0.028533701,-0.535874009,-0.014573700,2.064270020,
-0.026680101,-0.006635220,-0.046889201,0.009806090,-0.028252400,0.004413620,-0.007234040,-0.005087060,-0.048104301,0.007976750,-0.025856599,0.005278980,-0.051488299,-0.028371399,0.025039800,-0.026023500,-0.035536699,-0.016064800,-0.049475402,0.036167499,0.030319201,-0.025684200,0.032716099,0.032805901,0.037627898,0.008272580,-0.013610300,0.023316100,-0.034755901,-0.032751400,-0.020492800,-0.040783599,-0.022689400,-0.013133400,-0.049440701,-0.023065500,0.030230500,0.001233060,-0.010314200,-0.014053700,-0.007142290,0.005362480,-0.051471502,-0.000151015,0.026249500,-0.037791401,-0.031332798,-0.001729180,0.009114450,-0.051916402,
-0.491367012,0.012945500,-0.234027997,0.099392101,-0.062444098,0.350075006,0.433185995,0.413260013,-2.323440075,1.396119952,-0.726253986,0.719148993,0.131481007,-5.338910103,-0.271136999,1.892660022,-0.153406993,-0.966534972,0.784331977,-1.270670056,0.338450015,2.151979923,-0.167046994,-0.043109201,-0.843156993,-1.103119969,-0.387869000,-2.450239897,-0.768992007,1.032430053,-0.129214004,-0.709797978,-0.005561810,0.315658003,0.302895993,0.546135008,0.130697995,-0.534067988,1.183879972,1.011029959,-1.266520023,0.265163988,-0.053340498,0.121703997,0.592342019,0.437748998,0.014038900,0.154521003,-0.047222599,-1.345049977,
1.062989950,0.057157300,0.437523007,-1.342949986,0.001273100,0.198354006,-0.073352799,0.946721017,0.445807010,-1.712210059,0.132743001,-0.000715698,-3.075829983,-0.306944013,-0.506241024,1.316699982,1.176920056,-0.804947972,0.644348979,0.887076974,0.678287029,0.940240979,0.035136901,0.016491299,-0.005367940,-0.145216003,-0.607438982,-0.370676994,-1.168400049,1.085710049,0.623920977,-0.352806985,-0.253951997,0.491977006,0.276282996,-0.729641974,-0.523373008,-0.768242002,0.599506974,-0.276675999,0.427881002,0.211322993,0.373171985,0.021704100,0.380825013,-0.353071988,0.009147260,-1.390179992,-0.011686500,-0.409707993,
-0.000037065,0.021617400,-0.040367201,0.041397400,-0.058977999,-0.052505501,-0.007364420,-0.045796800,0.032368101,0.003110620,0.046081100,0.023612499,-0.023193600,-0.004994580,-0.012569300,0.040475201,-0.055647202,-0.002966140,-0.013161600,0.028399600,-0.017420899,-0.027063699,-0.003157040,0.006056090,-0.002826570,0.018688999,-0.043123402,0.009116880,-0.007455010,-0.050301999,0.017284101,0.010171800,-0.049386699,-0.000257802,-0.006434810,0.004104310,-0.044741102,0.000335268,0.030272100,-0.057262398,-0.003896250,-0.010152200,0.030830100,-0.027978599,0.035730600,-0.019229500,0.013816500,0.001166220,-0.037519202,-0.001547590,
1.483189940,0.011093700,-0.016857799,0.129846007,0.234502003,-1.978819966,-0.300556988,0.261144012,-0.096208997,-1.213430047,-0.667952001,-0.100147001,-2.695090055,0.244207993,0.650835991,1.705850005,-2.234659910,0.717869997,0.067373402,-0.325531989,-1.256479979,-0.776843011,0.228588998,-0.002669450,-0.195057005,0.167822003,0.627466023,0.265852004,-0.379043013,-0.546516001,-1.374230027,-0.140974000,3.863310099,-0.420644999,-1.056710005,-0.657948017,1.369979978,-0.161139995,0.300996989,-0.383825988,0.634567022,-0.048478499,0.112804003,0.408713996,-0.274356991,0.898975015,0.008744870,0.211440995,0.041930702,0.400680989,
-1.490120053,-0.021524601,-0.282371014,-0.729350984,0.005001200,-1.512670040,0.377914995,0.488678992,0.948206007,2.777940035,-0.787828982,0.030817101,-0.474043995,0.404341012,1.532359958,-0.564938009,-2.408900023,1.326789975,-0.408785999,-1.303460002,-1.228330016,-2.206990004,-0.170701995,0.017810900,-1.987169981,1.157999992,0.954707980,0.105308004,1.890100002,-1.231279969,-0.259106994,0.263911992,-2.206449986,-0.880675972,-0.576524019,0.119396999,1.464779973,0.708464980,1.516759992,0.464242011,-0.352842003,0.382191002,-2.283900023,0.556091011,-0.579073012,-0.279630989,0.039424501,1.106539965,0.044111401,0.008274750,
0.049924400,-0.035298102,1.669659972,-0.312034011,-0.003832220,-0.647921026,-0.063061900,0.688148975,0.038016401,-5.391270161,-0.471157014,-1.110380054,-8.676759720,0.414678991,1.760990024,-0.994531989,-1.765149951,1.234189987,-1.230479956,-0.811417997,-1.179250002,-1.423830032,0.366881996,0.043259598,-1.717560053,0.467938989,-0.667693019,-0.623947024,2.138979912,-1.730999947,-1.994099975,-1.121479988,0.736752987,-0.860867977,0.979077995,-0.395119995,1.565529943,0.760209978,-4.991240025,0.584461987,0.459659994,-1.898480058,-2.865760088,-0.927752972,-0.767008007,-0.081025697,-0.032702699,0.237987995,-0.032147098,1.091040015,
-0.782745004,-0.025114700,0.117909998,-0.491165012,-0.168584004,-0.212338001,-0.389575988,0.349678010,-0.187434003,-0.448374987,-0.253040999,0.173184007,-0.201008007,-0.079161301,-0.487563014,0.917658985,-0.566863000,0.715360999,0.397760004,0.002281050,0.453644991,-0.953670025,0.169213995,-0.023840100,-0.133999005,0.317748010,0.214078993,0.209848002,-0.422980011,1.012629986,-0.704604983,1.069190025,0.471179992,-0.262569994,0.849731982,-0.400193006,0.485789001,0.087541603,-1.120190024,-0.125855997,-0.390738994,-1.242319942,-0.263796985,0.175633997,0.518972993,0.120058000,0.037506700,0.139281005,0.020984700,0.605394006,
1.096279979,-0.044717800,1.128209949,0.101710998,0.192027003,0.116851002,-0.204407007,0.229721993,-0.143705994,1.509809971,1.092319965,0.505780995,0.878261030,0.303519994,-0.126510993,-0.299360991,-9.317779541,0.264548004,0.148131996,-0.058658998,-2.596489906,-0.640425026,0.409242988,-0.055243701,-1.509179950,0.498129994,0.111005999,0.864148974,0.623492002,-0.344853014,-0.245416999,0.167686000,0.978856981,-0.226934001,1.176440001,-0.602865994,-0.785691977,0.099541903,-1.688109994,-0.281598985,1.549200058,0.778249979,-0.061489001,0.171527997,0.435254008,-0.733783007,0.009051790,-1.395449996,-0.006891110,-0.393763989,
-1.066200018,-0.019852400,-0.642069995,0.016653201,0.011404700,-0.862092972,0.930078983,-0.785847008,-0.691663027,0.275786012,-0.247893006,-0.353376001,0.017574400,-0.133309007,1.039150000,0.260684013,1.233029962,-0.101498999,0.309105992,0.118683003,0.551293015,-0.898078978,-0.219643995,0.049214799,-0.217699006,-0.183860004,-0.766083002,1.287909985,-0.010554400,0.635160029,0.214975998,0.309686005,-0.599524975,0.987789989,-0.700439990,0.165631995,0.010816400,0.081047401,-1.606449962,0.066208102,0.706896007,1.637470007,-0.218039006,-0.102177002,-0.049380202,0.229736999,-0.001268270,-0.557187021,-0.034521699,-0.662793994,
0.033831201,0.004240410,-0.020811601,-0.016504601,-0.029888600,0.000766852,-0.005398130,0.036596101,-0.017014600,-0.013305600,0.021427000,-0.037758999,-0.053545300,-0.001200650,-0.046409201,-0.034033298,0.028718101,0.000870826,0.027032800,-0.032972999,0.017785501,-0.032186400,-0.035548098,0.024338501,-0.033858601,-0.016990000,-0.045021102,-0.054938000,-0.018755600,0.016190300,0.022985900,0.028678600,-0.029895401,0.021115299,0.025235100,0.016885400,0.027729699,-0.016803499,0.031848900,-0.004279870,0.011453900,0.021814000,-0.014270700,-0.045259099,-0.046835199,-0.029640600,0.032912198,0.021665201,0.027124900,-0.028243501,
-0.215659007,0.015598200,1.264549971,-0.162478998,0.144434005,0.401697010,0.279058009,0.457477003,0.091394797,-0.675228000,-0.552109003,-0.137457997,0.587422013,-0.367395997,-0.796164989,0.251922995,-0.371531993,-0.090727702,0.469556987,0.230538994,-0.596633971,-0.153836995,-0.259180993,-0.013706000,-0.329845011,0.904631019,-0.152721003,0.021291999,-0.718442023,0.370020986,-0.415944010,-0.338858992,0.063527502,-0.780709982,1.883769989,0.689813018,0.048090100,-2.665790081,1.740429997,0.449714005,0.279018998,-0.179588005,-0.317900985,-0.877790987,-0.461537004,1.034180045,0.022847500,-1.022390008,-0.009394720,0.064626701,
0.580685019,-0.013972500,0.693907022,-0.708398998,0.185862005,0.503884017,-0.293226987,0.087981798,-0.115941003,-1.181180000,0.213764995,-0.049793798,-0.142682999,0.167003006,0.574539006,-0.496293992,0.039194699,0.200691000,0.339349002,0.623476982,-0.137154996,-0.889289021,0.090137497,-0.004843760,0.303362995,0.512242019,-0.614652991,-0.172590002,-0.553116024,0.137567997,-1.437450051,-0.318531007,-0.627330005,0.102884002,-0.343342006,0.107867002,0.837864995,0.390471995,-0.849811971,-0.246810004,-0.317234993,-0.560338020,0.313609004,0.498564988,0.270316005,-0.298718005,0.045236100,0.893338978,-0.005639950,-0.002592270,
0.038885400,0.010224900,0.019361399,0.001537570,-0.049720101,0.028502600,-0.043784499,0.021388600,-0.024933301,-0.020897601,-0.032463200,-0.031364001,-0.002662080,-0.016346700,-0.032404501,0.007892760,0.003013450,-0.021339299,0.024018601,-0.045153901,-0.006562490,0.047347602,-0.034394700,0.045078602,0.035518400,-0.051455300,-0.038162500,-0.044027600,0.016034501,-0.049990799,-0.013516300,0.001066290,-0.031610500,-0.019268600,-0.043513998,-0.023937900,0.047173999,-0.002597250,0.040178899,0.033365399,-0.034889400,-0.007335470,0.040406901,0.004299020,-0.017217999,-0.023153899,-0.044104900,0.023783701,-0.048617899,-0.022591000,
-3.384500027,0.018524600,0.480105013,-1.181710005,0.178342000,0.213418007,-0.015933201,0.848226011,-0.015337200,1.361099958,0.657885015,0.058502700,-0.282900989,-0.014162500,-0.324795008,0.096643597,-0.427226990,0.207149997,0.613970995,0.593517005,0.407290995,0.315326005,-0.202246994,-0.007821320,-0.154448003,0.194664001,0.558160007,0.178284004,-0.042342700,0.019617200,-0.536499023,0.549620986,-1.484629989,-0.172427997,0.111409999,0.054433201,-0.899805009,0.398391008,-0.292627007,-0.302771986,-1.274359941,-0.853920996,-0.294239998,0.176666006,-0.423002005,0.537184000,0.022238500,0.415021002,-0.029850800,-0.778860986,
-0.014871000,0.005167920,-0.030019600,0.023914101,-0.049080100,0.018783100,-0.037478399,0.035424400,-0.046773799,-0.048459001,-0.044487402,-0.050198700,-0.028777400,0.019768801,-0.009137880,-0.052637201,0.019480400,-0.023661600,-0.016332200,-0.049727298,0.008114860,-0.047053698,-0.008508800,-0.045125701,0.010189700,0.002218670,-0.034598298,-0.036070898,0.020804100,-0.023923701,-0.003542220,0.004044540,0.003869630,-0.018479200,0.040660799,-0.027039999,-0.025391901,-0.051853500,0.010006700,0.008219790,0.003653080,0.014639600,0.020675801,-0.029519601,-0.055000599,-0.043164700,0.016009299,0.027876999,-0.024992101,0.045816399,
-0.366151005,
0.416529000,
0.774598002,
-0.012230200,
-0.403968990,
-0.215280995,
-0.011430700,
-0.448421001,
0.740713000,
-0.338034004,
-0.017946400,
1.765390038,
-1.214930058,
0.911121011,
-0.010170200,
-0.012010600,
1.391829967,
0.016371001,
0.527306020,
0.446287990,
-0.391254008,
-0.016021401,
-1.071110010,
-0.101152003,
-0.568803012,
1.006199956,
-0.127673998,
0.617637992,
-0.149998993,
-0.204829007,
0.715470016,
-0.110800996,
0.213083997,
0.369892001,
-0.004811980,
-0.158702999,
-0.467548996,
-0.022081301,
0.703755975,
0.484548002,
0.899891019,
-0.504841030,
-1.222759962,
-0.169820994,
-0.011703300,
0.178488001,
-0.484412998,
-0.006567820,
-0.337096989,
-0.007772700,
-3.212769985,0.850045025,0.250216991,-0.092103101,-0.025423801,-0.638899028,0.018669199,-0.199582994,0.173451006,-0.973091006,0.052278500,-1.032269955,-0.642072976,-0.022993401,-0.016501000,0.038418800,-0.502906978,-0.757440984,-0.276538014,-1.796900034,0.089277200,-0.001696140,-1.662400007,-2.723870039,-0.761484027,-0.357273996,-2.284559965,0.578996003,0.789180994,1.015980005,0.098226398,-3.484740019,-0.439814001,1.252529979,-0.032702100,2.498470068,1.645949960,-0.019616500,-0.406006008,-0.400292993,0.540117025,-1.710780025,-0.892776012,0.372590005,0.045598701,0.669556022,-1.375159979,-0.014000700,-1.049640059,-0.015758000,
-0.663487971,0.431533992,-0.085694000,-0.003825110,0.491537988,0.633320987,-0.044515099,0.273162007,-0.031556699,-2.243449926,0.003225010,0.103793003,1.375810027,0.380196005,0.014638100,-0.028974000,-0.338595003,-0.740152001,0.008793490,-1.405640006,0.195576996,0.019444499,-0.100965001,-3.448369980,-5.296020031,0.281360000,-4.368979931,0.220202997,-1.242670059,-0.575142026,-0.820703983,-0.855185986,-0.596310019,0.213156000,0.001864180,-5.812369823,-7.322979927,-0.015770599,0.681456983,0.096528202,0.296784014,-2.743459940,-3.322489977,-0.889599025,-0.054107700,-0.278266013,0.460471004,-0.015221300,-0.769683003,0.015235400,
-0.395058990,-0.311455995,0.000835553,-0.045294799,-0.548080981,-1.675619960,-0.052421700,-0.729755998,-0.081428200,1.215039968,0.019765399,0.250090003,0.612437010,0.040663499,0.041514698,0.008794000,0.398492992,-2.643949986,-1.017750025,0.442485005,-2.178420067,0.042913001,-1.181130052,-1.784980059,-1.428110003,-0.901736021,2.995980024,-1.935979962,-0.752686977,-5.120930195,-0.644989014,0.220100999,-2.313669920,0.144804999,-0.002234260,-3.150360107,-1.522150040,-0.022263300,-1.574000001,0.881681979,0.318594992,0.122703001,-4.116199970,-5.964379787,-0.052674402,-1.962810040,1.471590042,-0.047260601,0.580139995,0.022166900,
1.556660056,0.235330999,0.693876982,0.051243301,0.714228988,-0.583384991,-0.021912100,-0.379559994,0.747982979,1.708299994,-0.035024598,0.092266001,1.301169991,0.851904988,0.010338400,-0.045059402,-1.200340033,1.122560024,-0.294084013,2.811369896,-0.484164000,-0.044688299,-0.171976000,5.049729824,-1.115249991,0.301198006,-2.548269987,0.607720971,0.985334992,0.833178997,-0.113197997,1.216109991,0.014379100,0.415987998,0.020928999,-0.477950007,-2.058079958,-0.051882502,-0.451427013,-0.344927013,0.416126013,0.930504978,1.375499964,1.777879953,0.016231300,1.255650043,1.287629962,0.034531701,-0.016438000,-0.002975790,
1.816669941,-0.440631002,0.379462987,0.003414810,1.004369974,-0.067849502,0.013707700,-1.245000005,0.376125991,2.256340027,0.029719600,1.269260049,-2.243609905,0.564948976,0.035418801,-0.013938700,0.545078993,-0.301672995,1.094069958,0.524204016,-1.249420047,0.040689800,0.870191991,-3.045190096,1.311949968,-0.134645000,0.755249023,0.086643800,-0.716835022,0.845332026,0.627748013,0.791007996,-0.302242994,-2.371649981,-0.028507600,-0.312606990,-0.937677026,-0.002162070,0.948545992,-1.351799965,-0.518760979,1.084310055,3.432149887,3.030900002,0.017729200,1.749969959,0.831882000,-0.048737999,2.650799990,-0.024649501,
-0.264560014,0.352486014,0.182361007,0.035674799,-1.067149997,-1.859500051,0.031092100,0.208791003,-0.192889005,0.306454003,0.008647030,-0.044007100,-0.854192019,-0.097880498,-0.045640599,-0.000981282,0.437390000,0.272783995,0.196666002,-1.180899978,0.033999499,0.020091901,-2.024590015,-1.601179957,-0.146734998,-0.283010989,-1.141569972,-0.047141101,0.500413001,0.832728982,0.020767400,-1.546479940,0.217179000,0.272219986,-0.018300500,1.156530023,-1.309769988,0.007381260,0.362861991,-0.855271995,1.869400024,-1.994040012,-1.253819942,0.401719987,-0.038031202,-1.557019949,0.094606400,-0.020645900,-0.190983996,0.035591502,
0.036372900,0.020658201,-0.029672200,0.035227500,0.026841201,-0.048945099,0.015395100,-0.037302099,-0.024838500,-0.018647401,-0.003710440,0.036682900,-0.049449801,-0.011637200,-0.019063000,-0.006885670,-0.011010200,-0.012179600,0.002960040,0.003120340,0.022539301,0.021143500,0.018756500,0.010850100,-0.055833101,0.021391699,-0.017783299,0.002725830,0.028374000,-0.052310701,-0.020641800,-0.007898270,0.021247000,-0.018448301,-0.034417901,-0.041721500,0.025015799,-0.011906100,-0.040023301,-0.037173402,-0.023572100,-0.021434700,-0.027370499,-0.055015501,0.013192400,0.030513400,0.012226400,-0.027523000,-0.052761700,0.035254098,
0.012011200,-0.028036600,-0.019101100,0.009452140,0.028954400,-0.062085200,0.033431500,-0.057946101,-0.045636501,-0.031873100,0.028422900,-0.012016400,-0.029127300,-0.064138003,-0.040688701,-0.009248630,-0.036526900,-0.018869201,-0.025960600,-0.041662399,0.026460700,-0.005365580,-0.037511501,0.014558700,-0.048485901,0.011487700,0.018425001,-0.057459898,-0.018323600,-0.004986530,0.030335700,0.015816901,-0.034199599,0.032870900,0.016192099,0.026440199,0.044059601,-0.011575400,-0.033384498,0.005824070,0.025344200,0.002095800,0.025619499,-0.062833302,-0.007477480,0.034744401,-0.017636400,0.029431099,-0.008872170,-0.003581090,
0.744109988,-0.082043700,-12.640600204,-0.017854899,0.555401027,1.874799967,0.023229500,-0.265569001,-6.373970032,1.884940028,0.037383601,1.902300000,-0.201299995,1.259930015,-0.003181090,-0.016135599,0.759795010,0.511704981,-0.692054987,1.374740005,1.440919995,0.031695701,0.494870007,1.149350047,2.261670113,1.380409956,0.964296997,0.068335503,-2.583120108,2.417870045,-1.309319973,1.907680035,-0.069986098,1.264819980,0.002358330,2.310930014,-0.528249025,0.030926200,-0.376212001,1.761080027,1.487779975,1.484840035,0.515219986,1.363790035,0.045339301,3.691099882,0.429980993,0.026366100,0.239410996,-0.032532100,
0.785910010,2.395590067,0.981216013,0.044218101,1.335459948,2.033629894,0.005536850,1.103279948,-0.766546011,2.694740057,-0.006662960,1.431280017,-1.398609996,1.467300057,-0.013086000,0.027181000,1.412449956,1.791170001,-0.257111996,2.187180042,2.810070038,-0.049605899,-0.093091503,2.568830013,3.429759979,0.632974982,1.901929975,1.710129976,1.224859953,3.178280115,1.160019994,2.349570036,2.170059919,1.239349961,0.013831600,3.715869904,3.227190018,0.020551199,1.316380024,1.084550023,4.011549950,1.119830012,1.706339955,3.115400076,0.038731098,2.914819956,0.480491012,-0.018345200,1.653380036,0.001791920,
-1.276819944,0.689961016,-0.212441996,0.040656298,0.808625996,1.336030006,0.028226800,0.087083898,-0.634207010,1.365229964,-0.025045400,-0.076434404,0.403077990,-0.439092010,-0.017006500,0.005521220,-0.408681989,-0.569784999,-0.095524102,0.209907994,0.576279998,-0.020040801,-0.953166008,-1.049070001,0.800849020,0.196174994,-0.061557502,0.543483973,-2.690660000,-0.383305013,-0.014621000,-2.018199921,0.047648400,-0.453186005,-0.011028600,-0.492121011,-1.089349985,0.026492000,-0.059335601,0.122954004,0.143500999,0.399780989,0.631801009,0.136807993,-0.015756899,1.364060044,-0.833756030,0.002872500,-0.154836997,-0.036484700,
1.384870052,0.045296799,0.376592010,-0.002927200,0.164067000,-0.053192001,0.029438799,0.067588396,0.515722990,0.983860016,-0.026298000,0.829985023,0.371800005,-0.070878103,0.042184301,-0.025797900,-0.048959900,0.565694988,-0.525968015,2.284679890,-0.219588995,-0.027807601,-0.234457001,2.072799921,-0.073583297,-0.531018972,1.446580052,-0.180938005,1.737849951,0.923323989,-0.417340010,0.253854007,-0.021309501,0.385255009,-0.020094899,0.265920013,0.130930007,-0.011547100,-0.014589200,0.094629601,-0.081078403,0.177605003,0.994629025,0.556209981,-0.030709401,1.765939951,0.651520014,-0.036274701,-0.565016985,0.026562000,
1.731430054,0.183513001,0.304650992,0.010495600,0.880832016,0.847438991,-0.025601299,-1.187119961,0.156431004,1.280169964,0.001326560,0.168312997,-0.029425500,-0.151086003,-0.001069970,-0.004971820,-0.760327995,-0.984543025,-0.150847003,1.171180010,-0.606845975,0.023338299,-1.003290057,3.341399908,0.086666301,-0.202666000,0.752388000,0.879606009,-2.018660069,1.809219956,0.539610982,-1.616019964,-2.238770008,0.709527016,0.034265000,0.259065002,1.264369965,0.005137810,1.042799950,0.145619005,0.049958501,-0.922402978,-1.601169944,0.793488979,-0.020660900,0.599931002,0.110619999,0.038540501,-1.778929949,-0.040033098,
-0.517515004,0.372667015,0.215758994,-0.025264001,-0.306140989,0.310137987,-0.044213202,-0.186885998,-0.324147999,-0.060856801,0.031741802,0.660987973,-0.160178006,-0.330949008,0.019596400,0.011403100,-0.074631996,-0.953131974,0.161186993,-0.315876007,0.405956000,-0.002501480,0.263397992,0.398703009,1.211699963,0.529663980,-1.975450039,-0.071081102,0.134344995,-0.345304012,-0.403488010,1.327939987,-1.199110031,0.225381002,0.029221300,0.102678999,0.989777029,-0.001367960,-0.895726025,0.223227993,0.783520997,-0.214888006,0.631115973,-1.059370041,0.000333402,-0.329205990,-0.738242984,-0.010080300,-0.671369016,-0.005774520,
-0.013720000,-0.022840099,-0.010585500,-0.042775899,0.039434299,0.029173199,0.038827300,-0.048805401,0.009397890,-0.056287501,-0.034632299,-0.031588301,0.027458100,0.009529990,0.016423799,0.004079930,0.052782401,-0.033761099,-0.006226070,-0.051725999,-0.010683300,0.035546999,-0.022058001,0.003883290,-0.039373100,0.010881800,0.040966898,0.024719900,-0.014536100,-0.031092200,-0.035394501,0.031068200,-0.001551150,0.035607200,0.013619200,0.005655120,0.007167770,-0.040607002,-0.056325700,-0.072191000,0.033815499,0.018627601,0.017506501,-0.049260098,-0.033297502,0.009566970,0.012754300,-0.005023250,-0.051493101,-0.027459700,
0.236757994,0.824990988,-0.713443995,0.035581701,0.431540012,1.127799988,0.044216901,1.164360046,-0.007819490,0.119228996,0.043531802,1.000380039,-1.137709975,0.333191991,0.040141001,0.018808600,0.680220008,0.004611030,0.842365026,0.720803022,0.857524991,0.012488400,-0.006200290,-1.746569991,0.851966023,-0.070731901,1.363119960,-0.031853601,0.361404985,-0.825800002,0.704901993,-1.167840004,0.336254001,-0.358202994,0.017985599,-0.339653999,0.237877995,-0.012345000,1.035779953,-0.457161993,-0.345672011,-0.680850029,-1.239580035,0.456674993,-0.015217700,-0.338093013,-1.873720050,0.010184100,-0.532698989,-0.042031601,
1.694489956,-0.324703008,0.173596993,-0.003228010,0.404839009,0.189649999,-0.036124900,0.102871999,0.163718998,-0.475939006,-0.042908099,0.340059012,0.066968597,0.034283299,-0.026654400,0.040925398,0.670265973,-0.130006000,0.010150600,0.473591000,-0.571855009,-0.021250701,0.344161987,0.622959971,-0.068037800,0.097081497,1.043499947,0.299611002,0.515905023,-0.492720008,-0.005407580,0.500454009,0.172987998,0.091207303,0.013398600,-1.145079970,-0.826258004,0.018812200,0.382364005,-0.136840999,-2.279779911,-0.123372003,1.293050051,0.842670023,-0.047593899,0.116186000,-0.456339985,0.024648100,-0.489969999,0.023506200,
-0.931671977,-0.872394979,-0.566542029,-0.022882000,-0.787492990,0.106916003,-0.002452080,0.694045007,-1.592249990,-0.430945009,0.043878201,0.820971012,1.062579989,-0.263981998,0.005125120,-0.047579098,0.690988004,0.550822973,-0.677004993,-0.696730018,-0.131330997,-0.003654820,1.104969978,2.308779955,0.527287006,-0.155347005,-1.043480039,-0.754271984,-1.670050025,-0.115542002,-0.314633012,0.795036972,-0.537629008,-0.111180000,-0.043807998,-0.438455999,0.555275023,-0.027139300,-0.171056002,1.592069983,-0.847078979,1.492120028,-0.368672013,-1.268429995,0.045885600,-1.001580000,-0.025499700,0.011930400,0.339208990,-0.037594099,
1.767860055,-0.526383996,0.340750009,-0.038098902,-3.621560097,-0.140453994,0.025058800,0.125416994,0.445726991,-1.010660052,0.015187300,-0.134351999,-0.078319199,-5.246240139,0.012939100,-0.006804390,-0.110706002,0.315418005,-0.053704798,-0.824509025,-0.473870009,0.040589198,0.234077007,-0.548225999,-0.536585987,-0.050529402,-0.980727017,-0.017819000,0.339417994,-0.630846977,-0.212383002,-0.178207994,-0.196456999,-0.366093010,0.038687602,0.568044007,-0.004732960,-0.037292302,-0.310411990,0.327648014,0.209601000,-0.252294987,1.013010025,-0.641521990,0.009892240,0.203906000,0.206589997,0.017142700,0.617497981,0.014155500,
0.576485991,0.080187596,0.062487800,-0.044947099,0.483137995,-0.100566998,0.026588300,0.159865007,0.151812002,0.478661001,0.018233700,0.101060003,-0.059779398,0.025490901,-0.007552580,0.008333280,0.265168995,0.145521000,-0.139840007,0.041974399,-0.031450801,-0.006675670,0.100387000,0.273281008,-0.031098800,-0.317330986,0.679485023,-0.473504007,-0.100559004,0.015513600,-0.286873996,0.084315501,0.165225998,-0.070359997,0.043955401,0.096864201,0.055145700,-0.030204499,0.225564003,-0.204218000,0.326489002,-0.418114990,0.048039101,0.080622204,-0.038879801,0.036045302,-0.308050990,0.013325100,-0.205981001,-0.021034401,
0.278320998,0.400739998,0.139822006,0.006456140,1.353770018,0.610765994,0.018249299,-0.174569994,0.345306993,-0.165781006,0.013491600,-0.759738028,0.038610298,0.285690993,-0.017081400,0.045933802,-0.848529994,-0.583747983,-0.476779014,0.535699010,0.904429972,-0.038538601,0.291144013,0.343102992,-1.351959944,-0.020648900,0.955079019,-1.010419965,0.465622991,0.431158990,-0.174216002,0.143077001,0.527835011,0.632502973,-0.031674601,1.834589958,0.210232005,-0.012974600,-0.621622026,0.037531301,-0.167798996,0.034768399,-0.449793011,-0.655052006,-0.017895000,0.484575987,0.095264003,0.014366700,1.572360039,-0.014961400,
-2.720720053,-0.153436005,-0.082726099,-0.043648999,1.683590055,-2.486040115,-0.034631699,-0.028878201,-0.753524005,-4.147359848,0.028948100,0.174388006,-0.928825974,0.041391101,0.001096260,0.034457300,-0.078483701,-0.598365009,-0.553134978,-0.273571014,-2.041620016,0.007823830,-2.417419910,-0.296831995,-7.383860111,-1.241189957,1.332399964,-1.474560022,0.406250000,-6.144949913,0.407077014,1.180590034,-1.730890036,0.235809997,-0.019217899,-0.368021995,-0.642991006,0.040394299,-0.371587992,-1.795580029,0.880626023,-1.126049995,-6.236519814,-5.139400005,-0.011865000,2.118030071,-0.056239702,-0.042351399,-0.328711003,-0.028557001,
-0.566531003,1.271389961,-0.104267001,0.042933200,1.104990005,0.819769979,-0.016248601,-0.486057013,0.079027303,-0.520187974,0.014660200,-0.000220462,-0.489549011,0.427457988,-0.040636200,-0.007707590,-0.877588987,0.540331006,-0.421602011,0.452019989,1.289659977,-0.010744300,-0.357576013,1.581259966,0.345544010,-0.293545991,-1.645230055,0.362085015,-1.346799970,0.808197021,0.100942999,0.241999999,-1.210899949,0.536261976,-0.011120800,2.225680113,1.091889977,-0.026148900,-0.673008978,0.522692025,1.230029941,1.528800011,1.793699980,0.783802986,0.026626900,-0.326425999,-1.212829947,-0.010392600,-0.870795012,-0.017133800,
0.154956996,0.220338002,0.157849997,0.037513901,-4.609720230,-0.020177700,0.012751400,-0.462527990,0.686073005,0.582922995,-0.004706900,-0.661459029,-0.246227995,-0.004368510,0.025642499,0.045618400,-0.582539976,1.598330021,-0.980253994,0.050524998,-0.382999986,-0.004020760,-0.727100015,2.250940084,-0.022142099,-0.461171001,1.067780018,0.096964903,0.994240999,-0.004211890,-0.100667998,0.145273000,-0.385787010,0.303189009,0.035115302,-0.465409011,0.058562599,-0.009895170,1.257859945,-0.676024973,0.565063000,0.441267997,-0.391220987,0.540256977,-0.050044600,0.542378008,0.536556005,-0.026130000,0.361680001,0.001359320,
0.612726986,-1.036409974,-0.284819007,-0.027292000,0.670282006,1.395550013,-0.052030802,-0.823953986,0.112255998,1.513429999,-0.037325900,0.221920997,-0.803427994,-0.929642975,0.003229960,-0.005009420,0.199254006,-0.340642989,0.242090002,0.285838991,-2.483150005,0.001612270,-0.768534005,-1.959419966,0.088871099,0.447111011,2.060300112,1.069640040,-0.776035011,-1.817440033,-0.642205000,-0.604870021,0.135275006,0.097320400,0.045151100,0.639189005,1.179080009,0.034789801,1.278319955,0.523899972,-0.320903987,0.621302009,1.181149960,2.179719925,-0.044420801,1.045899987,1.305070043,0.007827500,-0.749459028,-0.007350480,
-0.425633997,-0.320564985,-0.383832991,-0.023146899,0.422383010,-0.469543010,0.018823801,-0.386839986,0.413417995,0.568076015,-0.002206650,0.481422007,-0.370335013,0.270740986,0.003444290,0.004087480,1.001270056,-1.342869997,0.318457991,-1.210819960,0.791840017,0.032535098,0.522140026,2.588000059,-0.963446021,-0.526018023,2.385570049,-0.312283009,1.789389968,0.498073012,0.121923000,1.865260005,0.872950017,0.689423025,0.031997401,1.651700020,0.326193005,-0.029175600,0.272437006,-0.300182998,0.517717004,-0.478058994,2.303809881,0.319099993,0.001805350,-0.186902002,0.952655017,0.013868700,1.440359950,0.002490100,
0.112415001,-0.279017001,-3.460069895,-0.012744000,0.166290998,-0.229857996,0.037737001,-0.363155991,-5.321259975,1.439560056,0.005041850,0.094650298,0.348010004,0.467770994,-0.036282301,0.040806100,1.246219993,1.099939942,-0.159231007,-0.181621000,0.199221998,-0.028951500,-0.110848002,4.826539993,0.574406981,0.665630996,-1.155279994,-0.408991992,0.309372991,0.853640974,0.117578000,1.078729987,-0.398373008,-0.037948400,-0.026525499,0.882713974,0.884373009,0.014011900,0.126064003,1.222180009,0.749399006,0.943835974,1.131890059,1.381060004,-0.038887501,0.490004003,1.395359993,-0.041882299,1.162070036,-0.017105600,
0.273211002,0.016574699,-0.729529023,0.033715598,-0.345342994,0.031035701,-0.048698600,-0.087885998,-0.699657977,-0.479256988,0.041878499,-0.202672005,0.385872006,-0.195949003,0.053406600,0.006598910,-0.296400011,0.202693999,-0.021522200,-0.005641150,-0.190823004,-0.007894410,-0.182674006,0.702556014,-0.301770002,-0.115776002,0.622941017,-0.043991301,0.069296896,0.116228998,0.066440403,0.336131006,-0.187678993,0.095449597,-0.036322400,-0.087151699,-0.020072401,0.006719600,-0.316482008,-0.046324000,-0.140782997,0.306564003,-0.013370400,-0.124040000,0.017237499,-0.140015006,-0.075426698,-0.003232760,-0.038746301,-0.005321360,
-4.212719917,0.275032014,-4.001299858,-0.080924504,-0.116568998,-3.698549986,-0.049335700,-0.199046999,-2.041879892,-1.864979982,-0.013586100,-0.872258008,-0.559005022,0.055403899,-0.004967430,0.004589730,0.098312899,-0.807524979,1.468000054,1.187940001,-2.056210041,-0.039626099,-2.772249937,-4.290190220,-0.328956991,-0.890088975,0.674530029,0.226567000,-0.884266019,0.333606005,0.336892992,0.261792988,0.783914983,-0.301535994,0.037316602,-0.509006023,-4.909949780,0.006330870,-0.140160993,0.612728000,0.720483005,-3.607160091,-2.543570042,-5.434939861,-0.033875700,-1.335399985,-1.759359956,0.010432000,-1.035809994,-0.028207000,
-0.036265898,0.003188870,-0.007868490,0.011967600,-0.040333599,0.008236440,-0.023121400,-0.053248700,-0.000138692,-0.008968820,-0.002828780,-0.052419100,-0.001455160,0.013073500,0.041835599,0.000853964,0.012072300,-0.031310499,-0.035593402,-0.010950900,0.008077840,-0.019853700,-0.036526099,0.026167201,-0.004079660,-0.050219100,0.005715240,0.006118430,-0.049488898,-0.005786900,0.013149200,0.023842299,-0.057584502,-0.025543500,-0.034777202,0.029130399,0.002920600,0.020231999,0.004143760,-0.022598200,0.015534800,-0.016402200,0.022237400,-0.051522501,0.010104000,0.009627510,0.003729520,0.014936500,-0.006338550,-0.021340400,
-0.296822995,-0.319287986,-0.023625501,-0.031795301,0.000562416,0.278142005,0.034873400,0.185039997,0.229236007,0.159632996,-0.019080900,-0.024518000,-0.272908002,0.025504399,-0.042688198,-0.024771800,0.350051999,0.047926102,0.266225994,-0.065995596,-0.352194011,0.043956399,0.374264985,0.018708101,-0.059760202,-0.010993500,0.283969998,0.042704199,0.104102999,-0.026011501,0.141140997,0.880168974,-0.209782004,-0.454883993,0.040950999,-1.257290006,0.484317988,-0.013070400,-0.235293001,0.025458699,-0.567367017,-0.215654999,1.050079942,-0.026091199,-0.002603240,-0.063104697,-0.264301986,0.023041800,-0.367733002,-0.022407601,
-0.817981005,-0.391853988,-0.948167026,0.036507800,-3.804179907,-3.442589998,-0.045570102,0.669025004,0.238519996,2.288280010,-0.012467500,0.255416006,-1.703549981,-0.004136020,-0.026577599,-0.042326901,-0.431374997,-1.616019964,-1.184679985,0.220304996,0.541724026,-0.021380600,0.986499012,-1.761680007,-0.298638999,-0.189312994,1.057520032,0.263509989,0.032711301,-1.574139953,-0.310593009,-0.354084998,0.435748011,-0.116830997,-0.001166870,-1.252179980,-2.119689941,-0.037418999,-0.665380001,0.450280011,-0.152053997,0.185183004,-0.466246992,-0.136582002,0.024384299,-1.928789973,-1.207069993,-0.034384701,2.695509911,0.031243401,
2.269109964,-0.231915995,0.080296397,-0.018632300,-0.636213005,-2.876029968,0.027249500,-1.029350042,1.072049975,1.823899984,-0.002416940,-0.323825002,-0.628515005,0.342664003,0.031044301,-0.021139801,0.905552030,0.317440003,0.026015099,0.044518501,0.030604400,-0.019615499,-2.208559990,-0.239298999,0.121569999,-0.127875999,1.080000043,1.217829943,1.686349988,1.007140040,-0.379907012,-0.624683022,1.911560059,0.156408995,0.032793500,0.980166018,1.544890046,0.038402200,-0.810552001,0.595655978,0.521426022,0.519333005,2.120779991,0.828630984,0.011182100,2.574769974,0.538439989,-0.008750030,-0.282171994,-0.048363801,
1.049119949,0.039549801,-0.588074028,-0.059624098,0.394582003,0.077185802,0.035537299,-0.136203006,1.237599969,1.199440002,0.030748099,0.326036006,-0.728884995,1.063820004,0.011527000,0.038513001,0.445632011,0.998839021,-0.534667015,0.457260996,-0.425529987,-0.027964000,-0.305597991,1.184540033,0.536601007,0.643391013,1.146739960,0.195886001,0.321934015,-0.171397999,-0.727868974,1.062749982,1.150069952,-0.626581013,-0.040697500,-0.787957013,-0.287247002,0.014497400,-0.988560975,0.619374990,-0.649941027,0.242182001,2.505460024,-0.065585703,-0.017878100,0.477795988,0.636214018,0.003947280,2.119689941,0.045582499,
1.376510024,-0.517338991,0.206241995,0.015718400,0.731817007,-0.300496995,-0.005775360,0.284397006,0.508526027,1.191130042,-0.020275200,0.142423004,-0.052450601,-0.164251000,-0.037410501,0.030332800,0.339504004,-0.145163998,-0.005614490,-0.100763001,0.134464994,0.029775400,-0.286641985,1.672919989,-0.419818014,-0.443172991,1.369210005,0.054159999,-0.217821002,0.933477998,0.259171993,0.313798994,0.029283101,-0.040565100,-0.036755599,-0.293132007,1.102579951,-0.040036399,-0.485552996,0.604453027,-0.497857004,0.540126026,1.317790031,-0.119102001,-0.038962901,0.625910997,0.288522989,0.044392101,0.461800009,0.032858100,
-1.297389984,0.008441500,0.404278994,-0.080446199,-0.172501996,0.090144597,-0.004077710,0.594792008,-0.232578993,-0.351298004,0.016204899,-0.134085998,-0.513567984,-0.495424002,0.045152299,0.028395200,0.243057996,0.024864901,0.185399994,-0.367558002,0.637585998,0.005060160,-0.623519003,-0.383305997,-0.134151995,0.350778997,-0.859248996,-0.140993997,0.604447007,-0.051786400,0.234591007,-0.020041300,-0.678795993,-0.171698004,-0.014465400,0.533136010,0.374399990,-0.008737970,-0.339763999,-0.023877701,0.993462026,-0.241586000,-0.854844987,0.876477003,-0.032176401,-1.435089946,1.322409987,-0.017921099,0.183519006,0.038882200,
0.259983987,-0.334324986,-0.085274801,0.052236799,0.626968026,-0.043363702,0.015214900,-0.520574987,-0.235562995,-0.644739985,0.021237900,0.691766024,-0.353202999,0.208538994,-0.020211900,-0.001208470,-0.632291973,0.179541007,0.368140012,1.892910004,0.538155973,-0.020952700,-2.213030100,2.369080067,0.003561770,-0.621739984,1.414119959,0.208718002,-0.008217380,0.856275022,0.155559003,0.943045974,0.491903991,0.076329798,-0.046529099,0.940447986,0.804975986,-0.045698199,-0.083888702,0.625976026,0.049040101,-0.284496993,1.557279944,-0.016271301,-0.024298999,-0.014142100,1.111840010,0.010171700,0.495422989,0.014770400,
0.690564990,0.075383902,0.306313992,-0.037053000,-1.078269958,-0.774694979,-0.002469910,-0.550517023,0.001843700,1.535599947,0.028404100,0.816002011,0.082042202,-0.342651010,-0.010743400,0.024680899,-0.088314101,0.600643992,-1.897310019,0.043178800,0.263390988,-0.032848999,1.065129995,1.366430044,-0.689068019,-0.199265003,0.231658995,-0.344081014,-0.031265199,0.266353995,-0.893485010,-0.231073007,0.958745003,-0.354339987,0.029469199,0.771713972,1.148390055,-0.056299299,-0.115261003,-0.006305700,0.833391011,2.054140091,-3.054069996,-0.049058899,0.047643598,0.866694987,0.528559983,-0.004676030,1.265069962,-0.027304400,
-3.836970091,-0.744957983,-0.685536027,0.003484960,-0.379696995,-0.100038998,-0.009732970,3.498300076,-1.456339955,0.981184006,0.061356101,-1.372869968,-2.921370029,0.612778008,-0.008384460,-0.029684599,-0.832282007,-1.657480001,0.638243020,-0.477420002,0.526624024,-0.030026499,0.225769997,-8.027379990,-0.650798023,0.450931996,-0.788407028,1.667780042,-1.348760009,-0.268875986,-1.060860038,-2.063529968,-0.015529900,-2.156339884,-0.028442200,-0.503309011,-1.802899957,-0.025531201,0.710709989,0.564468980,-2.692519903,-6.370200157,-2.638040066,0.997753024,-0.046335701,0.188585997,-1.836079955,-0.040355999,1.702859998,-0.030755401,
2.459559917,0.592348993,0.106753998,0.014639700,0.077355601,1.286540031,0.040285699,-1.034029961,0.243443996,1.126009941,0.022258000,0.676217020,-3.740740061,-0.913798988,-0.021600500,-0.035869502,1.503399968,0.567306995,-0.980107009,0.821914971,0.174440995,0.005487410,0.699051023,2.066329956,0.545228004,0.692349017,0.432309985,0.346524000,1.104570031,1.731310010,-0.589497983,0.511076987,0.777086973,-0.850592971,-0.013298000,0.011489000,-1.697119951,0.017997799,0.499498010,-0.450089008,0.330152005,-1.422670007,-1.655030012,-0.003848620,0.015989101,0.923021972,0.215564996,0.030330401,0.385268986,0.021705100,
0.590759993,0.530211985,-0.054060001,0.049158301,-0.713366985,0.696799994,0.010667200,0.085244700,0.516426980,-0.634271026,-0.012226700,-0.691511989,0.120761998,-0.134995997,0.026038200,0.021368301,-0.779640019,0.397002995,0.166878998,0.796459973,0.298090994,-0.035483900,-0.224995002,0.386045992,-1.459089994,-0.479039997,1.009189963,0.483709991,0.255387992,-0.309776008,-0.068051003,0.245390996,0.578390002,0.631487012,-0.021299500,0.112636000,0.038148899,0.033819702,0.016950300,-0.852707982,-0.137712002,0.896839023,0.628582001,0.423765004,-0.006446970,0.390244991,0.383210003,0.042111401,-0.472373992,-0.024576301,
1.150769949,0.106504999,0.008907560,-0.074707203,0.905852973,0.603376985,-0.048519801,-0.773935020,0.454288006,0.978272021,0.037005998,0.252211004,-0.934098005,-0.309141010,-0.033393100,0.024180699,-0.243908003,0.740679979,0.689836025,3.228679895,-0.126093000,0.033319101,-0.559153974,0.111706004,-0.410804003,-1.125040054,-2.062959909,1.062070012,0.781715989,-0.864189029,-0.037102800,-1.085399985,0.768127978,-0.074585497,-0.032228898,0.402321994,0.629141986,-0.048887800,0.793878019,0.501901984,-0.606167972,-1.107339978,-1.181190014,-0.122158997,0.028882200,1.545210004,0.580615997,-0.040549699,0.676595986,-0.036736399,
-0.660987020,-0.339818001,-0.041198201,0.071183197,0.831951976,-0.029560400,0.003973520,0.095935397,0.436888993,-1.489570022,0.049427699,0.142747998,1.444759965,0.789085984,-0.039180499,-0.032761201,-0.059904002,1.094050050,-0.110946000,-1.606529951,0.501115024,0.055339798,0.121371999,-0.346415013,-0.142618999,-0.229440004,-1.415259957,-0.425828993,0.152788997,-0.089388900,0.209968999,-0.055172399,-0.478976011,0.467709005,0.001676760,0.455361992,-0.114146002,0.036386900,0.284559995,-0.114152998,0.480554998,-0.536737978,-1.562240005,-0.652631998,0.050318900,-1.339789987,-1.592239976,-0.033351000,-0.579715014,-0.020614700,
-0.463183999,0.461551011,0.288291007,0.069545999,-0.698729992,0.014838300,-0.004289190,-0.581664979,0.171278998,1.882779956,-0.032956202,-0.142122999,-0.954135001,-0.277792990,0.025355600,-0.014442000,0.022750299,0.532350004,0.205460995,0.818325996,-1.023079991,0.018752599,-0.198550001,3.255429983,-0.529991984,-0.942198992,-1.518000007,-0.181284994,-0.844816029,1.083819985,-0.213384002,-0.320484996,0.156913996,-1.154590011,-0.032013498,0.294431001,1.556859970,0.045306601,0.372471005,0.232673004,0.234008998,0.610955000,-0.778195977,-0.683103025,-0.021799600,0.864682019,-2.617350101,0.006073450,1.750069976,0.027947400,
0.315636009,-0.061592199,-0.188728005,0.053428501,0.341412008,-0.917165995,0.034733299,-0.138465002,0.680894017,-0.218432993,-0.028124399,-0.088456698,0.352201998,0.286496013,0.033607699,0.014970700,-0.419171005,0.580941021,-0.227155000,-0.153530002,-0.284855008,-0.011621700,0.187809005,1.796000004,-0.588433027,-0.065619498,-0.118054003,-0.367630005,-0.062446699,0.108124003,-0.295424014,-0.150831997,-0.309390992,0.067027599,-0.040110201,0.176476002,0.396308988,-0.003979200,-0.174006999,0.127780005,-0.126598001,0.544701993,0.470411986,-0.496107996,0.008688350,-0.733223975,0.642199993,-0.025307300,-0.265408009,0.016856801,
-0.085376799,0.414207011,-2.940929890,-0.025563700,0.783671975,-4.875120163,-0.017142599,-3.371680021,-8.460680008,0.934409022,-0.014294600,-0.169855997,-1.455340028,0.050141800,0.043376502,0.046484999,0.248838007,-3.344460011,-0.640932024,0.943629980,-0.134443998,0.045573901,-3.527679920,-3.918590069,-0.213903993,-0.882484019,-0.899106979,-1.186490059,-1.131989956,-3.043220043,0.112373002,-3.914720058,1.968989968,-2.796659946,0.014437600,0.448736995,-0.569827020,-0.003003710,1.122099996,1.874519944,1.154600024,-2.412309885,-1.445619941,-4.635769844,0.035881199,-1.539890051,0.331943989,0.031906702,-1.705399990,0.005650320,
0.693939984,-0.695398986,0.118070997,0.007078830,1.239289999,0.197163001,0.007849670,-0.973769009,0.536145985,0.505927026,0.041103002,0.254166991,-0.235541001,0.273036987,0.003489540,0.012016600,0.990831971,-1.312970042,-0.503540993,1.275110006,0.330181986,-0.001194880,0.491212010,-1.125530005,-0.314906001,0.058360301,0.799735010,-0.262838989,1.530410051,1.337110043,0.795831025,-0.320704013,1.052270055,0.877924979,0.019399600,1.299350023,-0.385383993,-0.001820160,-0.635879993,-0.576281011,-0.095413499,1.322800040,-2.452650070,-0.246294007,-0.027061500,-0.198660001,0.663397014,0.049843900,1.107669950,0.041332599,
-2.377799988,0.091816999,-0.261723012,-0.021519501,1.003970027,-0.737605989,0.009084870,-0.420729995,-1.580610037,-0.059800301,-0.042351201,0.296609998,-1.856549978,0.267392009,0.037611000,0.040365499,-0.620207012,-2.802239895,-0.162186995,-0.507282019,2.123569965,0.000135383,3.808779955,-1.715139985,1.714589953,0.715795994,1.999429941,0.905269980,-0.056007300,1.182829976,-0.656466007,-0.313549995,0.592585027,1.460409999,0.044355799,3.230999947,3.150170088,0.005851920,1.520769954,0.537424028,2.814650059,0.333083004,-2.084650040,0.617213011,-0.034705400,0.521559000,-1.681740046,0.029817700,-1.654219985,0.012582600,
-0.149873003,0.347824007,-1.618950009,-0.047937602,0.934728026,0.343199015,-0.031303398,-0.737923026,-2.305530071,-0.219596997,-0.044879701,0.056345999,0.435342997,0.004531470,-0.024581799,0.000283085,0.737697005,0.144529000,-0.035450999,0.851800978,0.357001990,-0.018934401,0.815473974,-0.477847010,-0.372485012,0.257634997,-0.908864021,0.314507008,-0.518317997,0.073606297,0.439011008,-0.778638005,-1.173820019,-0.407415003,-0.040609900,0.220450997,0.723120987,0.032027300,-0.045597699,0.133081004,-0.362742990,-1.203449965,-1.352220058,0.509748995,-0.020980099,0.285845011,-0.708496988,0.032889400,-0.442362994,-0.015676800,
1.416669965,-0.073977403,-0.085977197,0.011559700,-1.418840051,0.703200996,0.004640960,0.438890994,0.059985101,0.557451010,0.026684999,-0.675275028,-1.457739949,-0.144290000,0.026351200,0.017596399,-0.211015001,0.285620987,0.425089985,0.068726398,0.712082982,0.032139700,0.560535014,-1.499650002,0.680788994,-0.173601002,-1.306089997,0.679660022,-1.294710040,0.036873300,-0.611676991,-1.602480054,-0.796428025,-0.005869970,-0.037925899,1.160050035,-0.102877997,0.029358000,-0.156416997,0.850247979,-1.202270031,0.317126989,0.428591013,0.101736002,-0.038107902,-0.560689986,-0.729519010,0.044280201,-1.673939943,0.037608001,
0.311347008,
-0.047794402,
1.544170022,
-3.602449894,
-2.869829893,
0.920292020,
-0.009370440,
-0.037487101,
-1.995040059,
1.153640032,
-0.270112008,
-2.368560076,
-1.175670028,
-0.844219983,
-0.046528801,
-1.764000058,
0.263352007,
-0.640129030,
-0.363792986,
-0.317436993,
-0.728145003,
2.159329891,
0.597296000,
-1.114549994,
-0.198008999,
-3.287280083,
1.162189960,
1.415869951,
0.232860997,
-0.025464499,
0.509528995,
1.521289945,
-2.628669977,
0.653804004,
-1.534669995,
-0.416229993,
-1.426540017,
-1.975530028,
0.791011989,
-2.351949930,
0.481032014,
-1.628800035,
-1.251150012,
-0.313302994,
0.767736971,
-0.821730018,
-2.057320118,
0.140769005,
-0.858358026,
0.999211013,
0.623108029,1.392529964,2.134170055,2.403650045,-0.093326598,-0.521162987,-0.000602495,0.041911200,-0.351588011,-0.814745009,1.032510042,-0.169437006,2.885090113,-0.059485700,0.024336400,-1.123530030,0.545005023,1.433979988,0.770829022,-0.388790011,0.524888992,1.718199968,0.728393972,0.665633976,1.366150022,-1.235260010,-0.022299601,1.171219945,-2.181720018,-0.041747101,1.329929948,1.055199981,0.231802002,1.125579953,-0.428701013,-0.260026991,0.154809996,2.761140108,0.368986011,2.075890064,-0.003487560,1.502719998,0.625849009,1.151039958,1.223819971,1.345739961,3.108289957,0.251271009,-6.673719883,0.117490001,
0.267751008,3.412100077,0.080101602,2.276590109,2.194710016,0.449138999,0.016617499,-0.013799200,1.716850042,-0.992959023,2.298239946,0.194903001,-0.085024796,0.425763011,0.031983301,-1.118810058,5.116149902,-0.291038007,0.032431699,0.510531008,-2.630530119,3.187069893,-0.709298015,-1.327900052,1.397349954,2.727659941,0.558844984,-1.373849988,4.228670120,0.004170420,1.014469981,2.795530081,2.380439997,0.067511700,-1.013949990,0.555685997,1.781469941,2.810839891,1.136150002,2.467139959,-0.553463995,1.337579966,0.716454983,2.031460047,0.254020005,1.367120028,2.083600044,-0.640179992,1.275279999,1.819970012,
0.599050999,1.800660014,0.020449899,-0.136564001,0.281197011,-0.718317986,-0.019078400,-0.025116101,0.017234299,0.006638690,0.211232007,-0.161070004,-0.571237028,0.456432015,0.027589500,-0.040376399,-0.924410999,-0.831753016,0.190697998,-0.172121003,-0.130116001,0.363878012,-0.326332003,0.842882991,-0.790642977,0.634153008,0.138133004,-0.215894997,-0.126526996,-0.045105100,-0.925783992,-0.335557014,-0.380371004,0.667913973,0.352331996,0.218265995,-0.011705500,-0.230250999,0.363240987,-0.695023000,0.054772500,-0.007692520,0.175106004,-0.554535985,-1.131459951,1.539129972,0.026924800,-0.234936997,0.078579299,0.496477991,
0.000740928,-0.004124900,-0.040366501,-0.012349800,-0.014928900,0.013644500,0.014102700,0.020011101,-0.037581999,-0.008952130,0.021265900,0.013010100,-0.003183280,0.014353400,-0.024670500,-0.000288823,-0.000179459,0.003074770,0.025437901,-0.046521999,0.017689001,0.018943500,-0.056274500,0.021932900,0.028240900,-0.044911701,-0.024875600,0.024464900,-0.058256801,-0.031918202,-0.024610000,-0.020645900,-0.006356850,0.011144100,-0.000948379,-0.011073900,-0.071380302,0.007175850,0.007787690,0.033042599,-0.009431720,0.012140600,-0.029072899,0.018314401,-0.075378299,0.041996598,-0.008540780,-0.037605800,0.003881610,-0.044149701,
0.385762006,0.627665997,0.934642017,0.479225993,-0.385580987,-1.873769999,0.011672900,-0.005055580,-0.179945007,-0.440726995,-1.782570004,1.094560027,-0.007351370,-0.376260996,0.008639580,-0.007093180,-0.391644001,0.629445016,-1.632079959,0.453330010,0.634863019,0.084109597,0.379447997,1.417899966,-0.234770998,1.238450050,-0.213701993,0.126892000,1.700999975,0.031762298,1.530320048,0.899818003,-0.080455400,-0.058399301,-0.986320019,0.839091003,0.961261988,1.779940009,0.144029006,1.241930008,-0.554674983,-1.903869987,0.445026994,-0.041574899,1.389850020,0.092186399,0.687319994,0.223188996,1.174790025,0.136976004,
-0.398225009,-0.170625001,0.264629990,1.056049943,0.905250013,-0.007827750,-0.014522700,0.013897100,0.489015013,-0.342411011,0.688076019,-0.678605020,-0.660427988,-0.220179006,0.062363502,-0.943992972,0.008223220,0.484441996,0.750922978,0.100234002,1.701069951,-0.192670003,-0.056615900,-0.148497999,-0.873171985,1.237169981,0.465907991,1.776769996,0.152812004,0.002381630,1.394379973,1.539999962,0.515160024,-0.356449991,-1.330639958,0.439447999,-1.005130053,-1.005259991,0.340543002,0.739471972,1.034219980,0.600486994,-2.159070015,0.328530997,-0.435564995,1.733549953,0.017361900,0.290713012,0.927534997,0.470340014,
1.861109972,3.318170071,2.639569998,2.225509882,0.441830009,-0.087231897,-0.013648500,-0.032416798,1.405460000,-1.616160035,-3.273950100,3.090159893,1.892910004,2.627830029,0.045501500,1.935240030,1.117910028,-0.840268016,2.040070057,0.149431005,2.360199928,0.026127201,0.546154022,-1.567579985,-1.533759952,2.189630032,1.131669998,-0.344208002,4.085140228,-0.010317100,4.949429989,3.978399992,-2.354300022,-0.737010002,-1.269379973,2.789860010,0.248256996,4.115749836,0.825329006,-1.103919983,-1.376180053,3.114200115,2.603359938,0.979484022,2.641479969,1.413050056,-0.285735995,-0.633980989,0.752287984,1.071429968,
-0.737145007,0.193965003,-0.519663990,0.821875989,-0.480515987,-0.229466006,-0.019988900,-0.023438400,-0.048060998,-0.159935996,-1.523470044,-0.197502002,-0.376296997,-0.723060012,0.014817600,0.216093004,0.989394009,-0.098100699,-0.090584703,1.081640005,0.101919003,-0.376199991,0.319296002,0.263420999,0.061741401,0.953754008,-1.030390024,1.820459962,0.462812990,-0.028029600,0.605885029,0.409164011,1.207090020,-0.306679010,0.987928987,-0.314498007,0.564100981,0.900865972,-0.514185011,0.358808994,0.181814000,-0.148920998,0.862537026,0.414642006,1.071820021,0.216570005,-0.101616003,-0.203119993,-0.271430999,-0.229781002,
-0.653102994,0.175796002,0.404168993,-0.603522003,-0.047693200,0.607697010,0.017744901,0.018909501,0.000127980,0.128090993,0.121711999,-0.106160000,-1.520419955,-1.303629994,0.004031240,0.225228995,-0.190087005,1.362840056,-0.259976000,-1.329180002,0.754449010,-0.523913980,0.528030992,-0.299419999,-0.023507999,-0.788380980,-0.912411988,-2.039629936,-0.533640027,0.014967500,-1.533360004,0.201481000,-0.368110001,0.091469102,-0.946246028,-0.257093012,-0.165832996,-1.519180059,0.487673014,-0.230729997,0.767871976,-0.621147990,-0.555598974,-0.160595998,0.433750004,1.143749952,1.681010008,0.215712994,-0.190473005,-0.129962996,
0.339471012,0.383837998,0.276410013,-0.527320027,1.052389979,-0.107602000,0.008894390,0.020875501,-0.413895011,0.245157003,0.214636996,-0.213110998,0.786518991,-0.496589005,-0.035905201,0.023871999,-0.274078995,-0.610246003,-0.223343998,-0.077139802,-0.260145009,-0.216499999,0.174618006,-0.318251014,-0.023373799,-0.481729001,-0.281870991,-1.361750007,-0.096787900,0.031245600,-0.974500000,-0.348147988,-0.775471985,-0.105182000,1.390460014,-0.384256005,-1.119089961,-1.204390049,-0.386182994,-0.946462989,-0.474247992,0.194589004,-0.175675005,-0.366510004,0.903391004,0.568053007,0.552707016,0.261649996,0.627999008,-0.433578014,
0.484295994,-1.226430058,-5.996220112,-1.041010022,-0.745198011,-1.273350000,-0.025074501,-0.030258499,0.220130995,0.870124996,-0.936761975,-0.524470985,-0.706409991,1.079720020,-0.043681700,2.541229963,-0.125513002,-0.549691021,-0.838259995,-0.785054028,-1.101040006,-3.006469965,-0.819253027,-2.474040031,-1.859050035,-2.176199913,-0.196557000,-6.445380211,0.223318994,-0.051691499,-3.339960098,-2.756710052,-0.862725019,-1.860339999,0.954677999,-0.258190989,-1.133350015,0.162971005,0.581211984,-1.349490047,-0.699222028,0.417400986,0.065575197,-1.754469991,-2.367280006,0.981482029,-1.681640029,-0.274403006,1.621440053,-0.867281973,
-0.319489986,-0.521340013,0.132181004,0.921913981,0.736618996,0.219414994,-0.034590200,0.005526870,0.216380998,-0.332073003,-0.187886998,0.041699499,-0.007221680,-0.136866003,-0.022950500,0.168218002,0.665166020,-0.254186988,0.145870000,-0.064727202,0.270637989,-0.592880011,0.322412997,-0.367201000,-0.403434992,1.112900019,0.414541006,0.639693022,-0.682384014,-0.028459400,0.041019101,-0.219565004,0.248539999,0.394924998,-0.124310002,-0.117297001,-0.299656004,-0.427621990,-0.063689098,-0.097417399,-0.304010004,0.721894979,-0.876007020,-0.262964994,0.199243993,-0.631350994,-0.235193998,0.266512990,-1.184430003,-0.333092004,
1.104820013,2.694279909,2.767990112,3.089200020,2.341029882,0.836326003,-0.037342899,0.031089799,-0.162702993,-1.254289985,-0.055636700,1.076930046,-0.087204099,0.279980004,-0.000330672,-0.626693010,1.500360012,0.165110007,3.748460054,0.436563998,2.085279942,0.072637901,1.073830009,1.323300004,1.529369950,2.234910011,0.510648012,3.024519920,2.779599905,0.044370800,4.853409767,0.686038971,-0.114620999,1.037189960,-0.042446300,0.113150999,1.648059964,-0.207720995,0.432453990,1.332939982,-0.328520000,1.920660019,0.068091802,0.404372007,1.941619992,0.327215999,-0.223858997,-0.417144001,0.812442005,1.981789947,
0.726529002,0.937834978,-0.134310007,-1.696359992,0.628722012,-0.067645296,0.041122001,-0.030859999,-0.311504990,0.181290001,-2.068619967,0.417959005,-1.746449947,0.199794993,-0.042599000,0.729521990,0.158730000,-0.273449987,0.409292996,0.438010991,0.932956994,1.715229988,-0.451869994,-1.724110007,0.702440023,-2.013159990,0.259499013,-0.907644987,0.495808989,0.005044970,-4.725049973,0.301986992,-0.613834977,0.015978901,-2.861479998,-1.772930026,-0.509490013,-1.980990052,-0.028989799,-1.807669997,0.387351990,1.088469982,-1.015509963,0.269232988,0.129393995,0.586108983,-2.008729935,-0.078993700,1.618319988,0.498815000,
-2.081820011,1.074079990,-0.338934004,0.044264700,0.643842995,0.634003997,0.029191600,-0.069781899,0.233021006,0.420671999,2.330879927,-0.291768014,0.712081015,0.523701012,0.019597700,-0.104047000,-0.519792020,0.270606995,-0.706691980,-0.150055006,-0.116015002,-0.771948993,-0.006075160,2.993069887,0.351772994,-2.332340002,-0.731566012,-4.528419971,-2.120460033,0.026272601,0.047363501,-0.388570011,1.313390017,-0.199986994,-0.502088010,-0.189074993,2.651819944,-0.003174110,0.126211002,0.435146004,-0.881599009,-0.956951976,-0.684432983,-1.528229952,-0.186895996,1.765400052,0.652525008,-0.199340001,1.914639950,-0.327080995,
0.328691989,0.481157988,0.374983996,-1.117280006,0.862405002,0.784446001,0.023372401,-0.023858201,-0.328031003,0.498300999,-0.856790006,1.122359991,0.684943974,0.915318012,0.049138598,-2.652829885,-2.056109905,1.550300002,0.142804995,1.060230017,-0.782379985,-0.169441998,-0.002189470,-1.146190047,-0.569387019,-0.588433981,-0.810347021,-2.951080084,0.615996003,-0.007317410,-1.812919974,1.395210028,0.221492007,-1.232910037,-0.843134999,-0.275732011,1.942819953,1.245419979,0.352136999,-1.712399960,-1.573619962,-2.021409988,0.114432000,0.145767003,-2.412640095,1.305850029,-0.688602984,-0.137168005,0.254384995,0.310312986,
-0.257380992,-1.402279973,-0.867013991,0.965803981,0.445214987,0.207219005,-0.002112100,0.009501530,0.490157008,-0.245516002,-0.877152026,0.008694550,-0.163929000,-0.586383998,0.017568899,0.721890986,0.631097972,-1.116819978,1.151960015,0.514744997,0.180378005,0.927861989,-0.011704600,-0.444016010,0.953087986,0.610421002,-0.886107028,0.085311800,0.954737008,0.023486100,0.464881003,0.896799028,-1.443779945,-0.508126020,-0.386909992,0.307319999,1.128880024,1.142539978,-0.044038400,0.285553008,0.751439989,-0.697573006,0.358130991,0.314664990,-0.161698997,-2.411410093,0.299483001,0.108208999,-0.298815012,-1.076910019,
-0.021980001,3.347079992,0.330451012,-0.315851986,-0.047040999,0.875735998,-0.026440300,0.026128899,0.263482004,-0.731570005,-2.334180117,1.561450005,0.370721012,-1.097159982,0.003557620,-0.026293300,0.149725005,-0.219588995,1.604859948,0.137235999,0.493308008,0.118133999,1.508110046,0.445510000,-0.341343999,5.208789825,-0.604721010,4.796460152,1.394109964,0.006595600,3.095540047,1.046440005,1.269880056,-0.383280009,2.391259909,0.354063004,0.782433987,-1.449810028,0.848815024,0.180664003,0.641694009,2.089509964,0.415960997,-0.872915030,0.840699971,0.729188025,1.642689943,-0.785535991,0.668669999,0.674172997,
0.490985990,0.814679027,1.712260008,1.094069958,0.616461992,0.080437601,-0.007634030,-0.017100699,-0.315584987,-0.489574999,-3.920030117,1.757459998,-0.061441500,-0.925105989,0.001977540,-0.702476025,-0.576263011,0.006882630,2.171070099,0.791329026,1.308629990,1.019000053,0.876191974,0.804740012,1.531360030,0.986244977,-0.094068304,0.251392007,1.644150019,-0.037062399,2.971679926,0.532702029,-0.662962019,0.774209023,-1.479419947,0.224904001,0.251657993,0.327668995,0.035193399,0.980996013,-1.012050033,1.258960009,2.367690086,-0.759298027,1.031360030,0.149332002,-0.778185010,-0.255365998,-0.849496007,-0.455274999,
0.082280502,0.695855975,-0.176055998,-0.261658013,0.057126101,1.121880054,-0.036250599,-0.041369200,-0.634068012,-0.332666010,-1.785419941,1.188420057,0.735379994,2.659960032,0.015549500,-0.515703022,0.344314992,-0.135397002,-0.671837986,0.268361002,0.597361982,-0.137168005,0.454566002,-0.722988009,0.594451010,0.616123974,-0.192662001,0.070931099,0.496416003,-0.070239998,2.179670095,1.016469955,-0.428853989,0.727840006,0.429230005,-0.145345002,2.424479961,-0.087605298,-0.297807992,-0.009495780,1.608880043,0.573657990,-0.358244985,0.748600006,0.452982992,-1.266839981,-0.112879001,0.243505999,-0.457823008,-0.422154009,
-0.422324002,3.357559919,0.941371024,0.878502011,-2.278800011,-0.280182004,0.007784740,0.006981620,0.187338993,-0.419640005,1.752689958,-0.261092991,-0.023873899,1.009920001,0.009210620,-1.472939968,-1.143049955,1.984680057,-0.772318006,-0.092428900,1.550279975,2.416330099,0.579348028,0.625939012,3.078210115,0.023732500,-0.325560987,-0.943458021,2.257499933,0.028772300,-2.781729937,1.828889966,1.421360016,0.145346999,3.895999908,0.564858019,1.334980011,2.237519979,0.367155999,0.953939021,-2.041980028,-0.675624013,0.305146992,1.655689955,0.465321004,-1.199419975,0.554822028,0.049344599,0.662189007,-0.125655994,
0.198934004,3.972249985,2.169909954,2.195580006,-0.549911976,1.825219989,0.000316508,-0.019968100,0.273256004,-1.105759978,1.519320011,1.062450051,-0.398611993,1.673840046,0.040231399,1.766129971,2.839430094,1.334939957,2.100349903,0.093754701,1.871180058,1.465190053,-0.114336997,2.211199999,4.856860161,1.165429950,0.585430026,-1.937929988,1.053069949,0.028788101,4.631599903,2.333300114,-0.442925006,0.328579009,1.102570057,-2.748090029,0.640649021,1.634070039,0.927605987,2.662580013,0.101804003,3.202359915,3.268510103,2.907949924,-2.443310022,-1.188930035,-2.493969917,-0.042941201,-1.214300036,0.059082299,
0.017242400,0.018312501,-0.046716899,0.000803694,-0.024315400,-0.047367699,0.017472200,-0.051482499,0.042162102,-0.020055400,-0.023218401,-0.039008498,0.025474301,-0.036869898,0.028429599,0.011188600,0.034312200,-0.016759301,-0.008910630,-0.014823100,-0.040787399,0.024398400,-0.035121400,0.030861700,-0.034669802,0.010271100,0.043279201,-0.010913000,0.034205802,-0.032707602,-0.009133230,-0.057341199,0.027784999,-0.050742298,-0.013455500,0.022892600,-0.041171700,-0.037955198,0.002363730,0.000046006,-0.014417600,0.005232500,0.039120901,-0.030981900,-0.035982799,0.037310299,0.022308700,-0.033212598,0.006421090,-0.003756940,
0.797029972,3.733989954,3.040280104,-0.253639013,1.584050059,-0.783119977,-0.012132100,-0.041879501,-0.854115009,1.307520032,-0.835386992,0.943834007,-0.153065994,1.903339982,-0.031318601,0.804154992,-1.409800053,0.108951002,-2.172049999,0.781994998,-0.495550007,1.406810045,1.253530025,-0.163966998,0.455956995,0.781288981,-2.121269941,-6.375619888,-0.233068004,0.016161300,-4.083879948,1.085319996,0.621675014,0.645860016,2.747669935,-1.158869982,-1.048159957,2.364459991,2.201159954,-0.958265007,-3.445489883,-0.441882014,0.110459998,-0.572058976,0.048510399,2.798360109,2.941129923,0.240216002,0.819083989,1.784829974,
-3.053309917,1.835809946,1.047320008,-0.201143995,0.529587984,0.449719995,-0.045418099,0.015864700,-0.514783025,0.449373990,2.915179968,-4.103099823,-2.079269886,-0.548783004,-0.059229001,1.904850006,-3.036070108,1.367220044,-0.932075977,0.728950977,-1.341879964,-2.268699884,0.076571502,-1.324650049,-0.811722994,0.709354997,-1.161090016,-0.952858984,-1.444489956,-0.003074010,-4.151730061,-1.930860043,0.113984004,-0.304513991,-2.486649990,0.231503993,0.115243003,2.749069929,-0.294059992,1.191640019,-1.217419982,-3.693779945,0.166256994,0.156613007,-1.762549996,-0.275265992,-1.668699980,-0.497538000,3.831700087,-2.104249954,
-0.132679000,-1.118139982,-0.450439006,-0.630074978,-0.140074998,-0.331225008,0.003557500,-0.049925800,0.822135985,-0.141436994,0.111417003,-0.454050004,0.704113007,0.452695012,-0.001104590,-0.401201993,0.499619991,0.368954003,0.597374022,0.526202023,-1.059229970,0.246121004,-0.570451975,0.118997999,0.180604994,3.009150028,-0.648589015,-2.014339924,-1.349539995,0.039688800,-1.163419962,0.240265995,-0.811583996,-0.295984000,0.809720993,-0.255461991,0.381623000,0.273001999,0.370745987,0.592086971,0.410185009,-0.278688014,1.493149996,0.944446027,-0.752306998,-0.920125008,-1.837859988,-0.146234006,-0.321624011,0.633746982,
1.134690046,-3.426789999,-1.176699996,1.537299991,0.269300014,0.567866981,0.009585490,-0.047225401,-2.879570007,-0.294793010,0.326635987,0.226646006,0.312671006,1.006080031,0.003101490,0.040420800,0.679624021,2.075839996,2.240449905,-1.859410048,-2.539930105,0.181216002,-0.680797994,0.278070003,0.274360001,0.008973080,-0.934634984,-0.906525016,0.575101972,0.022223599,1.607439995,0.662486017,2.145839930,1.105690002,-2.070650101,-0.076458998,1.160820007,0.910776019,0.244049996,-0.036729101,0.849519014,0.853491008,-0.280084014,0.707590997,-0.516164005,0.526422977,1.136590004,-0.061523698,2.670219898,-1.213719964,
2.011359930,-1.468899965,0.377855986,0.563153028,-0.643886983,-0.527772009,0.035771102,-0.049503502,-0.661830008,0.641488016,-0.055071499,-1.893120050,-0.753843009,1.652050018,-0.011183300,2.464489937,-0.557045996,-2.230119944,-0.122611001,0.348152012,-0.205668002,-0.988039970,0.397693992,-0.340683997,0.391043991,0.603742003,-1.399729967,-1.784569979,-2.429280043,0.010477100,-1.451740026,-1.574519992,-0.729673028,-1.988399982,0.627242982,-0.030139299,0.541540027,-1.523659945,2.475339890,-0.246501997,-0.923229992,-0.103983000,0.453498006,-1.158239961,-3.391870022,-1.189039946,-2.874959946,-0.046306301,0.099632896,0.993108988,
2.212330103,6.319849968,3.721290112,0.485473990,-3.630850077,0.684689999,-0.004364870,-0.046438601,-0.838271976,0.101705000,3.081749916,1.388949990,0.655573010,2.804960012,-0.025873700,-0.805513978,-1.205199957,-2.735490084,-4.808290005,0.042264901,-2.374269962,4.103849888,1.897590041,0.825906992,-4.197199821,-1.247699976,1.565469980,3.111210108,-1.554399967,0.016116800,2.263119936,0.384638011,-1.151020050,-2.537620068,-0.303595006,0.188136995,1.665089965,1.400879979,0.573750019,-0.297771990,-1.397379994,-1.552880049,-1.185619950,-0.272392005,2.086940050,-0.887367010,1.545050025,0.768468022,-1.178550005,4.471910000,
-0.683018029,0.040436100,0.124918997,1.291039944,1.033529997,0.049245100,0.023128301,0.041818999,0.103542998,-0.466794997,-0.906039000,1.894359946,0.501704991,0.966790974,-0.045633901,-0.473809987,0.305375993,0.152771994,-1.790879965,0.070657901,0.244184002,0.394901991,0.239951000,-0.139649004,0.687354028,2.207989931,-0.045463100,1.656939983,0.477871001,0.042377800,-1.749469995,-0.513131022,-0.927033007,0.393570006,-0.489672005,0.613192022,0.180649996,-0.678806007,0.341331989,0.536679029,1.913239956,-0.141677007,0.833932996,0.900763988,1.803760052,0.461849004,0.100406997,0.322861999,-4.341040134,0.167266995,
0.325987011,0.869248986,0.634145021,0.679044008,0.129787996,-0.474932998,0.030358700,-0.013815700,-0.969299018,0.304253995,0.446213990,2.750339985,0.082709298,-1.473420024,0.026035700,-0.706472993,-1.303699970,0.606826007,1.797469974,0.246904999,2.326819897,0.470183998,-0.080595799,1.452710032,0.508740008,-0.919378996,-0.371354997,0.266887993,1.178949952,0.026475901,-1.290089965,0.697784007,0.073800199,0.514485002,1.925420046,0.740162015,0.297358006,0.615603983,-1.393980026,-1.657529950,-1.641770005,-1.931310058,-1.604879975,0.533066988,-0.561980009,-0.796588004,1.302809954,0.101756997,1.252990007,0.421000987,
-0.129462004,0.251747996,-0.514922023,0.696958005,0.042770199,-0.052450400,-0.034955598,-0.002950580,0.473915994,-0.268844008,-0.181826994,-0.476202011,0.033738200,-0.535692990,0.062528901,-0.785224020,0.673749030,-0.432662010,0.542114019,0.076114997,0.127518997,-0.219702005,-0.074235097,0.304428995,0.153439999,1.065260053,0.287331998,1.648010015,-0.029432200,-0.032633498,1.180649996,-0.303911000,0.405304998,0.071292199,0.091312699,-0.358743012,0.004056430,-0.064056203,-0.277168989,0.246282995,0.027256301,0.041711599,0.623714030,0.304486990,1.154250026,-0.351451010,-0.307289988,-0.196204007,0.838850021,-0.355888009,
0.218991995,1.118440032,0.473715007,2.553240061,-0.853233993,0.168779999,0.015670501,-0.023184599,0.650810003,-0.700618029,-2.141200066,-0.367235005,-0.257575989,-2.513159990,0.032500599,-1.575399995,0.751551986,-2.217020035,0.260769993,-0.204050004,-0.963303983,0.474426001,1.349689960,0.946609974,-0.718048990,1.426900029,0.539324999,3.631599903,-1.283439994,-0.035617899,4.927140236,-0.794309020,-0.764874995,2.160300016,-4.047410011,-1.101969957,-0.960069001,0.643391013,-1.100759983,1.040709972,0.602075994,-1.670320034,1.707720041,0.456642985,3.117059946,-1.968410015,0.711538017,0.006434460,-0.267899990,-0.447416991,
0.099733502,0.020891899,1.311349988,-0.507663012,1.269410014,1.222139955,0.003061290,0.035864200,-0.750315011,-1.057579994,2.693919897,-0.826128006,-1.079679966,-0.514383972,0.020335400,-0.719232976,1.859210014,-0.889901996,3.040129900,0.309210002,1.340489984,1.598420024,0.931765020,3.829920053,1.074839950,4.226339817,0.870676994,3.731329918,0.096656099,0.008145130,0.076822199,1.219089985,0.485832989,1.023890018,1.305279970,-0.767493010,0.636294007,5.113719940,-0.378053010,-1.137660027,0.548385978,1.045639992,4.072080135,2.806829929,0.660191000,4.018290043,2.886780024,-0.229111001,1.343969941,1.164160013,
-0.844224989,1.497359991,0.653742015,1.257850051,0.754015028,-0.310526997,0.031404700,-0.003374160,-0.368844002,-0.390367001,0.518155992,1.442829967,0.288495004,-0.199033007,0.010912900,-0.906818986,1.225190043,-1.777109981,0.404368997,1.035789967,0.399403989,0.440405995,-0.082682803,1.692459941,-0.692633986,3.252919912,0.205449998,2.579410076,-0.581377983,0.060952801,2.495559931,0.714676023,0.620680988,-0.200818002,-0.798164010,0.596957028,2.175250053,-0.175767004,-0.206458002,0.542515993,0.449182987,1.719329953,0.957270026,-0.853686988,1.482149959,1.063770056,-0.993077993,0.249936000,4.813099861,0.107368000,
0.098643400,0.093482897,0.081630103,0.405250996,0.870679975,-0.843065977,-0.056334399,-0.001772760,0.642907023,-0.294975013,0.325222999,-0.497217000,0.351556987,-2.144799948,0.046460800,0.069055803,0.373223990,0.846157014,-2.093709946,0.200874001,1.259899974,0.676385999,-0.150539994,0.133864999,-0.015159400,2.053740025,0.018717701,-0.003035510,-0.171829998,-0.001710340,2.263900042,0.475270003,0.224736005,0.006465740,1.267879963,0.230819002,0.958589017,1.328920007,-0.201095998,1.532389998,1.677729964,0.605131984,-0.524962008,-1.195610046,1.144520044,0.758908987,0.245869994,-0.061327301,-3.364870071,-0.305833012,
-0.044710901,0.037951801,0.013885700,-0.046023302,-0.034339700,-0.011820300,0.020406500,0.042435799,0.045925099,0.001037230,0.044151101,-0.032322198,-0.007037310,-0.022721700,0.012575700,-0.010562400,-0.040264700,-0.026784001,0.019694099,0.012750300,-0.018318299,0.018354701,-0.057219099,-0.034616601,-0.033136699,0.000498077,-0.029748499,-0.030097799,0.016796900,0.033637699,-0.028268600,0.020491000,0.025104901,-0.048526298,0.009038790,-0.045752499,-0.031584699,-0.055131901,-0.031813499,0.016153701,-0.005238600,-0.008343710,-0.033339400,0.022063900,0.008664650,-0.016692201,-0.045035299,0.001393220,-0.049155999,-0.017248400,
0.599895000,-1.115689993,-4.009419918,-1.127889991,-0.099196598,-0.534382999,0.025556600,-0.020557901,-0.934466004,0.014827700,0.798641980,-0.214233994,0.444153994,1.112630010,-0.031038599,1.672180057,-0.297679991,-1.698760033,1.954570055,-0.107132003,-0.130450994,1.045379996,-0.179821998,-1.480329990,-0.095872097,-2.590260029,0.689043999,-0.697703004,0.767944992,-0.042155098,-1.031620026,0.464810014,0.963217974,-0.385637999,1.289770007,0.723755002,2.887419939,0.796388984,0.574011028,-1.865030050,0.875400007,0.255690992,0.057306200,0.248680994,-0.446328998,0.609426022,-0.632488012,-0.250735015,1.167410016,-0.652399004,
-0.722710013,1.782050014,2.027669907,0.491335988,0.721351981,0.575757027,0.035821699,0.032413099,1.066439986,-1.014580011,-2.089440107,0.973580003,1.623090029,1.386199951,0.003477930,-1.762359977,0.805070996,-0.518571019,1.730780005,1.155730009,0.189425007,1.852339983,1.198140025,3.231810093,0.854425013,1.310789943,-0.728904009,0.616153002,2.618769884,0.048469700,1.877969980,1.377120018,1.446830034,1.100929976,1.310089946,2.332020044,1.791939974,2.370820045,0.303779989,-0.540831029,1.412660003,-0.003777830,4.218629837,0.608003974,1.510969996,1.746459961,-0.097668901,-1.185969949,0.304235011,-0.175516993,
0.618004978,0.263889998,0.158345997,-0.075577803,-0.901313007,0.552820027,0.004920630,-0.015819300,0.318798006,0.072538301,0.582643986,-1.487409949,0.485132992,1.042350054,-0.035493400,1.615300059,-1.238309979,0.313353002,1.688709974,0.115078002,-0.029344700,0.255308002,-0.186947003,-0.978587985,-1.323609948,-1.417080045,0.228131995,-1.340680003,0.658030987,-0.044451099,-1.731600046,0.634270012,0.201893002,-0.452508986,1.207080007,-0.513553023,1.230870008,-0.248652995,0.606208026,-0.990377009,0.132933006,0.763804018,-0.118298002,-0.366937011,-0.427502990,-0.192980006,-1.981850028,0.311800987,-0.400121987,-0.124610998,
0.272338986,-1.324190021,-1.074759960,1.369670033,0.081522800,-2.586060047,0.041525900,0.025965501,1.498980045,-0.151861995,-0.496719003,0.418942004,-1.451640010,0.165602997,-0.042796601,3.042000055,0.047264099,-3.391239882,3.406440020,-0.235650003,-1.516020060,-2.114710093,0.846152008,1.268450022,-2.981940031,-3.462709904,0.596336007,-6.956180096,-6.430019855,0.039951202,1.256890059,-0.583545029,-3.539839983,-1.020169973,1.505339980,-0.227909997,-2.862570047,0.646919012,0.891533971,1.706490040,1.717829943,-7.834509850,2.894510031,-0.404684991,-0.355648994,-1.860380054,-0.143530995,-0.172625005,-0.935275018,-0.849155009,
-0.104850002,-0.872972012,3.914720058,0.341098994,0.719190001,-0.891282022,-0.037550900,0.017707400,-0.827443004,2.769299984,2.401910067,0.997560978,1.503829956,-1.577450037,0.024618501,4.797339916,1.141589999,3.156069994,2.479439974,0.687123001,0.415782988,1.521639943,-2.971820116,-3.177829981,4.843969822,-4.713079929,-5.164169788,-9.566430092,2.408010006,-0.016068401,-3.130899906,-0.310279012,-1.070240021,1.144150019,1.229050040,4.096250057,-0.967015028,-3.125070095,-0.683888018,-0.967734993,3.246599913,1.849930048,0.784709990,-3.949369907,-2.227649927,-1.415130019,-4.408050060,-0.826219976,2.535490036,-2.379630089,
-1.208780050,1.432240009,0.038331501,1.428689957,1.452810049,-1.097210050,-0.006180910,-0.036200300,0.169251993,-0.707562029,0.277790993,0.333402008,0.677643001,0.254083008,0.003933080,0.368853986,-1.202800035,0.983137012,1.177150011,-0.481590986,0.206698999,-0.046760298,0.475003988,0.529955983,0.483682007,0.764213979,-0.658824027,2.243160009,2.095119953,-0.032696798,0.249676004,-0.413125992,2.437860012,0.551846981,0.304666013,1.230849981,0.434911013,1.116479993,-0.297475010,1.662250042,2.120189905,-0.371874005,0.930212975,-0.845519006,1.424219966,0.475683004,0.626367986,0.296397001,1.582389951,-0.031647101,
-0.822597980,-0.695420027,-0.749934971,0.863701999,-0.111656003,-0.979363978,-0.041313302,0.022566600,-0.352874011,0.242477998,1.265990019,0.773077011,-0.659129024,-0.665902972,-0.017769501,0.329852015,-0.910054982,1.393000007,-0.966509998,-0.407133996,-1.081719995,-0.472528994,0.477551013,-1.551180005,-1.245249987,0.078628398,-1.427629948,-4.234350204,-1.756090045,0.033814501,0.998265982,0.473913014,-0.053776201,0.682780027,-0.564536989,0.722517014,0.185995996,2.898639917,0.398286998,0.504916012,0.704409003,-0.954378009,1.631049991,-0.645339012,1.684759974,0.987565994,0.474961013,-0.016107600,-0.783357024,1.354130030,
1.249429941,-1.168740034,1.987110019,0.761039019,1.288380027,0.175707996,0.041641001,0.033457499,-1.994660020,-1.392820001,0.364158005,1.150249958,3.619960070,2.241359949,-0.036836900,1.326140046,3.129810095,-0.980536997,2.185699940,0.988327026,1.082710028,1.539369941,-0.428149015,0.483783990,0.703697979,1.357040048,1.116389990,2.863590002,2.706259966,-0.008702350,1.076429963,0.940334022,0.390928000,1.147899985,1.882570028,1.349439979,-0.349023014,0.422540992,-0.133891001,2.185470104,-1.264150023,1.408650041,4.279819965,1.057639956,3.806710005,0.037297100,2.590950012,0.279094994,-2.039160013,2.045439959,
1.076269984,2.308130026,2.497210026,-0.071771502,-1.808359981,-0.573184013,-0.000565907,-0.007666210,-0.321153998,0.547904015,-1.389129996,-0.409925997,-0.032957699,-1.165470004,0.001152300,-2.749000072,-0.880298972,-1.154760003,-1.061599970,0.180436000,-2.084990025,1.863899946,0.294707000,-0.480926007,0.035141200,-1.720309973,-1.156710029,0.459080011,0.176137000,-0.008618600,-2.130609989,-0.120982997,-0.181490004,-0.488319993,-1.166669965,-0.575115979,0.367128998,1.158710003,0.824948013,-0.037343100,-2.097079992,-0.998283029,0.096390396,-1.507060051,-1.380890012,0.300554007,-1.887300014,-0.428083986,3.941299915,1.515679955,
0.138659999,1.845000029,1.458660007,-0.057577599,2.462670088,1.045899987,-0.001036340,-0.003679070,1.211320043,-1.443249941,1.385619998,1.653200030,2.588999987,0.838932991,0.000005904,-0.187346995,2.448920012,0.562183976,-0.064836703,0.529909015,0.289106011,1.425300002,0.927815974,3.205719948,1.663840055,1.223539948,0.810447991,2.883199930,1.959439993,0.036484901,3.076539993,-0.753511012,2.373620033,-0.567694008,1.641649961,-0.461800992,0.853784025,0.476826012,2.595540047,0.966449022,1.260409951,3.244270086,4.325630188,4.315549850,1.109599948,3.099100113,3.180219889,-0.793385983,1.888350010,1.079720020,
-0.345355988,1.056159973,0.358925998,0.047984201,0.696300983,-0.114782996,-0.010751900,0.033530500,0.316289991,-0.421880990,2.184870005,0.878835022,-0.179737002,-0.081643000,-0.033746898,0.221594006,-0.273501992,1.855419993,0.158730999,0.402999014,2.078439951,-0.820293009,-0.617205977,1.215360045,1.296190023,2.644330025,-0.027104201,1.463359952,0.358716011,-0.027426200,2.819859982,-0.696120024,0.179417998,-0.294331998,0.621599019,1.026419997,-1.266749978,0.316305012,-0.381092012,2.080699921,1.736549973,-1.257429957,1.559769988,1.486930013,0.867379010,2.012729883,-0.687608004,-0.007392020,0.396174997,-0.117342003,
1.121899962,0.763237000,1.539530039,-0.416716993,-2.578069925,-1.017789960,0.000878749,0.008588950,-1.186939955,0.069157302,1.496350050,-0.383873999,0.069356203,1.339020014,-0.011887300,0.468721002,-0.776742995,0.239006996,0.635405004,0.099660099,0.631928027,0.562229991,0.146369994,-0.116967000,0.203134999,-1.120849967,0.353293985,-1.101140022,-0.633961022,-0.027973900,-1.950209975,-1.331889987,1.126389980,-0.295951992,0.411457986,-0.361521989,0.505402982,1.107280016,0.513967991,0.098718800,-0.780584991,-0.369432986,-0.367895991,0.515273988,-1.254099965,1.626719952,-2.263770103,0.245235994,-1.569030046,0.291206002,
-0.398496985,0.975363016,-0.584767997,0.130164996,1.113690019,0.295350999,-0.042504400,-0.022918699,-0.229409993,-0.588442981,0.364095986,-0.438517004,0.704334974,1.586940050,0.052816801,0.548470020,1.938879967,-2.792959929,-1.451650023,0.527664006,0.293476999,1.201030016,-1.041200042,2.383300066,1.897830009,4.501890182,0.910018027,1.761250019,-2.363039970,-0.024412099,2.569469929,-0.161074996,0.931361020,0.677861989,2.381750107,1.808869958,-0.319682986,2.521260023,-0.688781023,1.222530007,0.495743006,0.952446997,1.054370046,-2.060050011,1.882629991,-1.184010029,-0.834053993,-0.343194991,-1.652740002,0.140425995,
-1.021229982,
1.028270006,
0.813670993,
-0.038178299,
3.244159937,
0.822704017,
0.869785011,
2.537940025,
-1.767779946,
-1.016880035,
-2.731970072,
2.653239965,
0.173577994,
-1.030769944,
-1.831990004,
-1.184030056,
1.529320002,
1.048060060,
2.690809965,
0.809435010,
-2.437139988,
1.566499949,
