// Neural Network File Format by Kyle Julian, Stanford 2016
8,5,5,50,
5,5,50,50,50,50,50,50,5,
0,
-3.4028235e+38,-3.4028235e+38,-3.4028235e+38,-3.4028235e+38,-3.4028235e+38,
3.4028235e+38,3.4028235e+38,3.4028235e+38,3.4028235e+38,3.4028235e+38,
0.0,0.0,0.0,0.0,0.0,0.0,
1.0,1.0,1.0,1.0,1.0,1.0,
1.000000000,0.000000000,0.000000000,0.000000000,0.000000000,
0.000000000,1.000000000,0.000000000,0.000000000,0.000000000,
0.000000000,0.000000000,1.000000000,0.000000000,0.000000000,
0.000000000,0.000000000,0.000000000,1.000000000,0.000000000,
0.000000000,0.000000000,0.000000000,0.000000000,1.000000000,
-0.000000000,
-0.000000000,
-0.000000000,
-0.000000000,
-0.000000000,
-0.060023300,-0.113572001,0.150111005,0.339055985,0.020356501,
0.023349700,1.312459946,0.101216003,0.563952029,-0.215938002,
0.193788007,0.542474985,0.247151002,-0.146441996,-0.090804704,
0.011777900,-0.012951300,-0.003531610,0.005573410,-0.000753920,
0.032491699,-0.680832982,-0.618215024,-0.532069981,0.158259004,
-0.010523900,-0.105026998,0.078995302,0.618188977,-1.013880014,
-1.761190057,-0.123878002,-0.071136400,0.021338800,0.042366199,
-0.530761003,-0.005927580,0.110623002,-0.036168400,0.480583996,
0.018798800,2.252350092,-0.031527001,0.253769010,0.536158025,
0.011476900,0.204200998,-0.178459004,0.828306973,-0.841432989,
-0.003662040,-0.137472004,0.135167003,0.752104998,-1.313349962,
0.096274301,1.255429983,-0.000460756,0.675248027,-1.057729959,
-0.030345500,-0.189514995,-0.911188006,-0.090929203,0.106620997,
-0.015893901,0.027151300,-1.581040025,0.088211201,-0.026114300,
0.886940002,-0.007503360,-0.001860800,0.527130008,-0.274863005,
-0.000427558,1.325049996,0.035168301,0.591920018,-1.127740026,
-0.000821211,-0.506389976,-0.351788014,-0.303117990,0.151548997,
-0.015130000,0.018534400,0.001017030,0.675660014,0.843873978,
0.033737600,0.172995999,-0.192618996,0.007140250,-1.339269996,
0.024933500,0.558899999,-0.523800015,0.024544699,-1.040840030,
-0.008481680,0.258634001,-0.291725993,0.789494991,-0.083238900,
0.040383901,-1.599060059,0.004787290,0.599600971,-0.764057994,
-0.018366899,0.627690017,0.393422991,-0.595645010,0.197857007,
-1.239240050,-0.018748401,-0.046760101,-0.079197899,-0.138905004,
-0.024280500,0.728462994,-0.631385028,-1.932749987,-0.006134150,
-1.031749964,0.196959004,-0.014515900,0.190468997,0.019347001,
-0.013160500,-0.051184800,0.079341002,-1.016190052,-0.946334004,
-0.072008297,-2.286380053,2.261049986,-0.134231001,0.325345010,
-0.008444320,-0.166409001,0.311069995,-0.661385000,0.611750007,
-0.022958500,0.087228298,0.002092610,0.147213995,0.698149979,
0.032719102,-0.025031200,-0.015790500,0.572215021,-1.522590041,
-1.098649979,-0.231401995,0.309154987,-0.543455005,0.310775995,
-0.014118400,-0.243617997,0.245786995,-1.348760009,0.523123980,
0.510945022,-0.068766698,-0.000032242,-0.007996770,0.105714001,
-0.910835981,-0.038309202,0.709647000,0.085667603,0.032166399,
-0.939312994,0.159438998,-0.169051006,0.067157798,-0.327161014,
-0.033441599,0.457839996,0.796355009,-0.420928001,0.143638000,
-0.988987982,-0.018668100,0.005026810,-0.105347998,-0.782751977,
0.058500100,0.268256992,0.521974981,0.792448997,-1.426229954,
0.044342000,-1.432410002,1.343039989,0.146661997,-0.031152301,
-0.154156998,-0.150608003,0.005714380,0.251190007,0.117482997,
0.071681701,0.082282797,1.422440052,0.379408985,-0.166032001,
-0.089651197,-0.509130001,0.538147986,-0.065189101,-1.910419941,
-0.019425500,2.041769981,-2.312030077,-0.034580600,0.355650991,
-0.347629994,0.287672997,0.045467500,0.328446001,-0.178532004,
-0.002127530,-0.485202014,0.513511002,0.914026022,-1.230599999,
-1.598950028,0.103772998,0.013760000,0.006586620,-0.101478003,
0.064299800,-0.490794986,0.279891014,-0.014266300,0.173184007,
0.027921900,-1.109459996,-0.174608007,0.533958972,-0.266907990,
1.597869992,0.044010099,-0.012560700,-0.186515003,0.286265999,
0.185357004,
0.161592007,
0.093787901,
-0.020942500,
-0.046250898,
0.510670006,
-0.342285991,
-0.007529970,
0.538272023,
0.180622995,
0.283243001,
-0.157653004,
0.155983999,
0.070629701,
0.413837999,
0.026294500,
0.067728497,
0.271427006,
0.426537007,
-0.121004999,
0.321653008,
-0.130898997,
-0.151635006,
-0.093359903,
-0.430195004,
-0.059674200,
-0.103037000,
-0.281403005,
0.156569004,
0.286477000,
-0.148821995,
-0.324586987,
-0.679283977,
-0.105230004,
-0.257714003,
-0.236154005,
-0.065236397,
-0.611563981,
-0.047255199,
-0.445643991,
0.106481001,
0.188536003,
-0.304244995,
-0.299263000,
0.004138110,
0.399015009,
-0.289301991,
0.139750004,
0.142182007,
0.603604019,
0.240332007,0.418711990,0.548533976,0.016992399,-0.736598015,-0.910499990,-0.105273001,0.095851503,0.002192980,-2.395119905,-1.471019983,0.866518974,-0.155865997,0.017033501,0.331739992,-0.465864986,-0.221929997,0.371995002,1.512349963,-0.795705974,1.114799976,-0.122860000,-0.281248003,0.098681502,1.397969961,0.036954500,-1.029510021,2.309360027,0.055020399,-1.348449945,-0.106141001,0.392996013,1.604959965,-0.196666002,-0.960995972,-0.407770008,0.136647999,-3.241660118,-1.190600038,1.296880007,0.450390995,0.151424006,-0.421990007,2.672019958,0.949625015,0.555599988,0.556641996,0.206061006,0.665476024,-0.178275004,
-0.319723994,-0.370191991,-1.309249997,-0.016386099,-0.615817010,-0.903715014,2.289720058,0.239650995,0.294869006,0.195602000,0.000586863,0.179004997,-0.388366997,1.144600034,0.260848999,-0.555096984,-0.717830002,-0.083232597,-0.018836800,-0.451826990,0.145934999,-0.641517997,-0.513445020,1.886309981,0.230413005,1.421339989,-0.083914302,0.132457003,0.784505010,0.550094008,0.264813006,0.596050978,0.419124991,0.093398102,1.518900037,1.194779992,0.211868003,2.490900040,0.187185004,-0.220407993,1.150370002,-0.154396996,-0.359311998,-0.201973006,0.610341012,0.277720004,1.712010026,-0.144636005,-0.178963006,-2.138250113,
0.843252003,0.208571002,-0.199695006,0.012647200,-0.717661023,0.437886000,0.391748995,-2.305890083,0.528007984,-0.983982980,0.802088022,0.790062010,0.151547998,0.523109972,-1.445369959,0.080320597,0.436751008,-1.055369973,-0.265522003,-0.252112001,-0.170661002,-0.544044971,-0.229540005,1.278540015,-0.147718996,0.456440002,0.633807003,0.518931985,-0.668008029,-0.383664012,-0.830021024,-0.125816002,-0.441213012,1.064479947,-0.637049019,0.705138981,-0.336358011,-0.720043004,-1.213860035,-1.049720049,-0.487731010,0.087642603,0.108958997,-0.324054003,0.178666994,0.062137902,0.919273019,1.108669996,-0.735683978,-0.037715800,
-0.006571000,-0.000358995,0.038703900,0.003494630,0.008077800,-0.021223200,-0.010797800,0.003862590,-0.040564701,0.033058699,-0.034285702,0.014275700,0.003325740,-0.056490101,-0.028914800,-0.022034600,-0.019218300,0.002867760,-0.020488201,0.004587710,-0.032588098,-0.021799300,0.036904201,-0.032736000,-0.027086500,-0.005031590,0.037444100,-0.009544550,0.030858399,-0.032680102,-0.047476899,-0.013338500,-0.029098099,-0.026665701,0.033614799,-0.005664770,-0.045366000,-0.014220600,0.039335400,-0.050503898,0.006552210,-0.032004599,-0.016091101,-0.038783502,-0.017656101,0.019670900,0.022180300,-0.018876800,0.003986370,0.029530400,
-0.651062012,-0.035123698,-0.001135330,-0.008901070,0.179122001,-0.458128989,1.244050026,-0.579470992,-0.116265997,0.017882600,-0.074091204,0.049954899,-0.258850992,-0.051939499,-3.615289927,0.151804999,-0.002140930,-0.768086016,-0.247905999,0.431450009,0.240472004,0.168960005,0.039449301,0.344404995,0.376473010,0.444527000,0.218734995,0.051115900,-0.500732005,-0.067941800,0.598020971,0.466383994,-1.083539963,-0.265231997,0.338842005,0.794143975,-0.083265401,1.966220021,0.285346001,0.007826540,-0.983403027,-0.036029398,0.403777987,-0.225940004,-0.205667004,-0.000111072,0.936698020,-0.342539012,-0.041069102,-1.915199995,
-0.270958990,0.429361999,-0.372211009,-0.032766800,0.822323024,-0.424436003,-0.551105022,-4.374149799,-2.148380041,-0.109471001,0.123184003,0.751079977,-1.134439945,0.296894997,0.477021992,-0.509899020,-1.087769985,2.617010117,0.227569997,1.157930017,-0.415782988,0.852975011,0.191969007,0.386664987,-0.360861003,-0.488260001,0.442737997,-0.005964650,-1.407629967,-3.698549986,0.858213007,1.056030035,1.449890018,0.149628997,-0.119553000,0.395572990,-0.423377991,0.032925401,0.472990990,-0.864630997,-1.905079961,0.149060994,1.612370014,0.824109018,-0.420251995,-0.089067496,-0.307314992,-0.820545018,-0.096461803,-0.307173997,
-0.025566500,-0.037845399,0.008199470,-0.000165781,-0.004280670,-0.045444701,0.008538700,-0.034488901,0.018394001,0.019335600,0.001839360,-0.003577150,-0.007473230,-0.015175600,-0.013759200,0.006372280,-0.023178300,-0.035756800,-0.042762600,-0.021419700,0.019853899,-0.049689099,0.014020600,-0.013578100,-0.055224601,-0.019880701,0.004242650,-0.000109559,0.023136400,0.032196701,-0.008095850,0.021013901,-0.042516001,-0.054586802,-0.016192200,-0.026951600,-0.044716701,0.007178690,0.025806401,0.031989101,-0.002061320,-0.027713699,0.027864501,-0.015126100,0.004542300,-0.015627200,-0.038855799,-0.029506501,-0.006110200,0.012449700,
-0.296395987,0.025328999,-0.116425999,0.018623799,0.277321994,0.706139982,0.309026986,-0.071876600,-0.078010701,-4.768839836,-0.217205003,1.168130040,-0.256276011,0.003296310,-0.080651999,-0.077448100,0.119824998,0.634981990,0.794790030,-0.242991999,0.717894018,-0.170805007,0.158850998,-0.610584974,0.815253973,-0.243940994,-0.714984000,-0.686740994,-0.062940702,0.447261006,0.277987987,-0.749711990,-0.264618009,-0.113347001,0.820652008,-0.372599006,1.300359964,-1.263249993,1.221410036,-0.910293996,0.383498996,0.040053200,0.367621005,-0.846526980,0.255627006,-0.358233988,-0.172842994,-0.275521994,1.284829974,0.147652999,
-0.048828602,-0.018406000,-0.049991202,0.026941599,-0.040533300,-0.047073599,-0.043348800,-0.024788400,-0.005355610,-0.021029500,0.010942400,-0.027940800,-0.033507202,-0.028656200,-0.013236100,0.037020698,0.035914101,-0.049956400,0.041096099,-0.027169600,-0.036735699,0.021448201,-0.033349998,-0.022338901,-0.006263340,-0.037935700,0.027711200,0.034489300,0.029220499,-0.048010599,-0.018776201,-0.028370200,-0.006382750,0.032306898,-0.014701600,-0.016022600,0.011021000,-0.017681099,-0.010325700,0.036355499,0.017943600,-0.050225601,0.015836900,0.041065801,-0.040754799,-0.042716399,-0.036300398,-0.040693302,-0.049942099,-0.022375800,
-1.080850005,-0.140175000,-0.297049999,0.027182801,-0.168939993,-0.780807972,-0.032233398,-0.430427998,-0.533960998,1.103960037,-1.730090022,-0.064077698,-0.208174005,-0.292364001,-0.184181005,0.202461004,-0.792985022,-8.673950195,0.695061028,0.564740002,-0.677671015,0.427545011,0.187573999,0.181232005,0.993485987,-0.380122006,1.236780047,0.117775001,-0.187475994,-2.245769978,-0.173427001,0.194931999,3.535919905,-0.271109998,-0.457374990,-0.064644597,0.072439797,0.727711022,-0.593550980,-0.845800996,-0.445174009,0.140297994,-0.747334003,-0.317750007,-0.790368974,1.363499999,0.353971988,0.380030006,0.309576988,0.149224997,
-0.036824200,-0.014402600,0.027012400,0.008872690,-0.030123400,-0.000814150,-0.006659760,-0.020576600,0.027420200,0.013965300,0.025379900,-0.054869100,-0.010788900,-0.027852001,-0.002492710,-0.037511200,-0.019420100,-0.024437601,-0.005924460,0.031913500,-0.030546900,-0.036115699,0.034748301,-0.048922800,0.022733200,-0.041896202,-0.009548820,-0.022349101,0.034568999,-0.051634502,-0.025113599,0.026763100,0.017783601,0.024208700,0.003429240,0.021742800,-0.046542201,-0.017463701,-0.042048398,-0.042613901,-0.032228701,-0.027050501,-0.013701200,-0.054574501,-0.037890900,0.006553400,0.027539900,-0.031367499,-0.046301499,-0.060248598,
-0.400420994,0.209666997,-0.190034002,-0.012225900,0.249235004,-0.261043996,-0.048224200,-3.482980013,0.028899301,-0.812165022,0.419153988,0.939518988,0.318589002,-0.125809997,-4.025509834,-0.422993988,0.239333004,0.309334010,-0.066843897,0.179505005,0.392235994,-0.057347801,-0.082576796,-0.255450994,0.469633996,0.792537987,0.583278000,0.147073999,0.090180703,0.616164982,-0.257557988,0.621315002,-0.611621022,0.677060008,0.716105998,0.369724005,0.151250005,-0.058139600,-0.155552000,0.122521996,0.109989002,-0.147254005,0.445297986,-0.106301002,0.369590014,0.025385100,0.794112027,0.465849996,-0.051894501,0.273824990,
-0.019723499,0.007869360,0.016371701,0.002735990,-0.019928901,-0.039493799,-0.036109000,0.005104420,-0.012630300,0.040477701,-0.015025100,-0.013069000,0.011483800,-0.000902744,-0.048300400,-0.052055102,0.032779399,0.023980100,-0.050808400,0.000940328,-0.032479700,0.008909630,0.015273400,-0.007458550,0.023075100,0.003734670,-0.023324599,-0.030353099,0.014682500,-0.053347401,0.041998699,0.014011600,-0.048646498,-0.026651001,-0.041287702,-0.024372101,-0.022621499,0.028999100,-0.009609300,0.040112499,-0.002256560,0.027336800,0.028022800,-0.028141299,-0.037705399,-0.045026802,-0.026040301,0.029903600,-0.032370601,0.013718400,
0.416514993,0.112347998,0.208561003,0.012992700,-0.040292099,-0.063363798,0.550387025,1.113690019,0.087397702,0.472431004,0.626147985,0.072861999,0.401181996,-0.289950013,-1.746999979,-0.144979998,-0.028088201,-2.559429884,-0.027937001,0.120892003,-0.534066975,0.386519998,-0.482876003,0.165751994,0.286370993,0.212151006,0.259079009,-0.438102990,-0.476814002,0.241125003,0.371802002,-0.564426005,1.202550054,-0.076399401,-0.052327700,0.296494991,-0.691006005,-0.092006497,-0.475825012,-0.123304002,-1.323349953,0.477640003,-0.228033006,-0.048323002,-0.306546003,0.057704002,-0.170670003,0.826871991,-0.317746013,-0.622560024,
-0.038557500,0.011044800,-0.033127699,0.003227210,-0.037552401,0.002959030,-0.047670599,0.031204199,-0.052586202,-0.035015501,0.003287680,0.045175798,-0.046062399,-0.041689198,-0.033968098,0.017772799,-0.044422500,0.029557500,-0.031947602,0.035530299,-0.017543901,-0.022988100,0.021136301,-0.050485600,0.021164401,0.023642501,-0.039345302,-0.018777199,-0.030800801,0.001950660,-0.006289330,-0.018113000,-0.016519001,-0.043765102,0.037106901,0.016896199,-0.039282400,0.003249070,0.040468100,-0.041081902,0.018315000,-0.021208899,-0.035419099,0.028181700,0.026075101,-0.016119899,0.008762360,-0.023913199,0.019944400,0.040948499,
0.027837200,-0.823212028,-0.842633009,0.002501170,-0.751927972,-1.565649986,-0.246425003,-0.236791998,-0.494448006,0.945878983,-0.886775017,-0.024606800,0.014431900,-0.994174004,-0.147313997,-0.409473985,-0.523554027,-0.044903599,0.345811993,-3.306250095,0.674619019,0.101626001,0.452944010,-0.075893298,-0.910595000,0.018210299,0.109539002,0.827062011,-0.331454009,-0.638393998,0.094420798,0.799327016,1.137410045,-0.137679994,-1.087149978,0.645000994,-0.550643027,1.715860009,-0.235446006,1.958979964,-0.721961975,0.371829003,0.172555000,0.031248400,0.056451499,1.012040019,-0.177315995,0.280135006,0.120062999,0.163056999,
0.013096100,-0.847324014,0.094627701,0.040539999,-0.235413998,0.619626999,0.009074910,-0.069531001,-0.596818984,-0.840318978,0.542600989,-1.117439985,1.244300008,0.524614990,-0.281670988,-0.564128995,0.649348021,1.281239986,0.426616013,0.107424997,-0.288565010,1.553990006,0.171451002,-0.009398420,-0.135146007,-0.233875006,-1.440629959,-0.112533003,-0.417416006,-0.656755984,0.497485012,-0.230970994,0.003218450,0.069551297,-0.505015016,-1.005339980,0.838554978,-0.299809009,-0.631120026,2.238729954,0.583535016,-1.231230021,0.669655979,-0.703258991,-0.864405990,0.382427007,-0.208586007,-0.169100001,0.812632978,0.248573005,
0.671618998,-0.167844996,0.547068000,-0.042516898,0.844407976,0.899093986,0.769702017,-0.445596993,-0.455132991,-2.134589911,-0.541580975,-1.922500014,0.372761011,-0.045838501,-0.550786018,-0.169960007,0.029775800,0.954603016,0.140495002,-0.497242987,-0.665862978,1.193619967,1.905429959,-0.046676502,-0.404504001,-0.365590006,-0.706835985,-0.952072978,0.220580995,-0.293217987,0.572286010,0.658213973,0.417852998,0.040358201,-0.770128012,-0.564737976,0.388545990,0.567057014,-0.245893002,2.357670069,0.384386986,-0.576587021,0.246652007,-0.045406900,2.468499899,-0.238500997,0.538634002,0.830295026,0.401883990,0.069478698,
-1.216820002,0.282476008,0.515827000,0.011561800,0.608837008,-0.131495997,0.262311995,-0.593672991,0.547129989,-0.904054999,-1.145239949,0.032393798,0.097670302,-0.527278006,-0.005246600,0.453628004,1.114420056,0.246903002,-0.145705000,0.272516012,0.073903397,0.126475006,0.481674999,0.709487975,-0.140342996,0.206653997,0.611736000,0.298772991,0.101402998,-0.453303009,-1.635890007,0.614030004,0.465312988,-0.472618014,-0.949958026,-0.047989100,0.100161999,-0.076340899,0.033389200,-0.155415997,0.856814027,-0.043959599,0.073227704,0.323240995,0.016443100,0.129984006,0.433672994,-0.198851004,0.907638013,-0.307588011,
0.197839007,-0.177972004,-0.206962004,-0.027348900,0.006688630,-0.049355600,-0.169936001,-0.169878006,0.071114801,-1.664510012,-0.485478014,-0.476996005,0.282344013,-0.872081995,-0.006393380,-0.421768010,0.248481005,-4.976210117,0.598178983,-1.510630012,0.842851996,0.265776992,0.035108998,0.092995197,-0.362230986,-0.118744999,0.097456701,-0.093690298,-0.123356998,0.159208998,-2.349610090,0.070820697,2.048990011,0.181261003,0.074142501,-0.059805099,0.326256990,1.505120039,0.525541008,0.153578997,-0.901818991,-0.106767997,0.395969987,-5.018439770,-0.661710978,0.280914992,0.291979015,-0.388853997,-0.335476995,-0.072779000,
-0.115146004,-0.267518014,-0.289200991,-0.003540490,0.197006002,-0.568916976,0.923680007,0.145733997,0.459122002,1.013759971,0.408767998,-0.025837600,0.843751013,1.180490017,0.424883991,0.380789012,-0.544717014,-0.291130006,0.738305986,-0.027387500,0.409887999,0.956920981,-1.079839945,0.295542985,0.360435992,-0.541266024,-0.261379004,-0.122487999,-1.141199946,0.736440003,-0.944561005,-0.371773988,1.581099987,0.391335011,-0.119515002,-0.393629014,0.218704998,-1.000740051,-0.536843002,1.450940013,-0.001412010,-0.914537013,1.173390031,0.370683014,0.037384901,0.685566008,-0.314835995,-1.771039963,-1.221770048,-0.043702502,
-0.568246007,0.380519986,0.548299015,-0.038796701,0.265471011,0.087070100,-0.045346402,-3.048650026,-0.450982988,-1.622859955,-0.008743020,-1.672199965,-0.194010004,-0.005027930,-0.338858992,-0.407756001,0.151678994,-0.492260009,0.056041501,0.176985994,-0.457861990,0.279718995,0.721165001,0.019336600,0.173737004,-0.768159986,0.917380989,0.266063988,-0.045842499,-6.569729805,1.277959943,-0.118166998,-0.601930976,0.590781987,-0.378167987,0.147870004,-0.307763994,0.240378007,0.054358799,0.310369015,-0.730188012,-0.094593801,0.674629986,0.481022000,-0.493981987,-0.718654990,0.328952998,0.081339903,-1.011270046,-0.152512997,
-0.035758000,0.529847026,0.219148993,-0.022599300,0.530888975,-0.258951008,-0.867690027,0.137177005,0.323422015,-1.236009955,0.583249986,2.058190107,-1.002840042,-0.269499004,-0.612902999,0.421048999,0.475798994,-0.484746009,-0.191909000,0.604578018,0.049415398,-0.510065973,-0.116253003,-0.609641016,-1.271420002,0.063642703,0.817938030,-1.152860045,-0.334641993,0.783941984,-0.017863801,-0.035564601,-4.376239777,-1.099619985,0.240998000,-1.465350032,0.442362994,-0.261689991,0.636152029,-2.718110085,0.248631001,1.222800016,-0.464190990,-0.681286991,-0.587074995,-0.259876013,0.261487991,-0.072424702,-1.840960026,0.671688020,
0.266566992,0.446307003,0.087262399,-0.025629500,-0.466136009,0.537310004,-0.076511800,0.007441010,-0.188770995,0.248478994,0.122110002,0.514226019,-0.118074998,0.627506971,0.045402799,0.068990499,-0.617788017,0.028813399,-0.457156986,-0.375468999,-0.528352976,-0.442891002,-0.201111004,0.208063006,-0.679898977,0.036856901,0.466156006,-0.467258990,1.176470041,-0.024069401,-0.767152011,0.004568920,-0.324970990,-0.400992006,0.244810998,-0.266654015,0.191294000,0.029381899,-0.108365998,0.048571199,0.378574014,0.183473006,-0.067998797,-0.138214007,0.201591000,-0.216940001,0.156652004,0.452634990,0.412458003,0.126007006,
-0.043146301,-0.059754301,-0.053168699,0.008954670,-0.043996800,-0.024451699,0.043932199,-0.033854999,0.014856000,-0.008598150,-0.021478200,-0.041459698,-0.031811401,-0.002217700,-0.009205280,-0.042647399,0.002990640,0.024620900,-0.007253380,0.002213390,0.016633101,0.029432900,-0.018819399,0.023906101,-0.043482602,-0.013338500,0.008762190,0.018639799,-0.025786599,0.004475800,-0.019113300,0.038492501,0.003581120,-0.019480100,-0.024449600,0.014622100,-0.060047898,0.030858500,0.037912998,-0.028839801,-0.019799201,0.021089399,0.011881800,-0.026441099,0.028434800,-0.022287900,0.018315500,0.008743240,-0.008521890,-0.058299098,
0.456882000,-1.381260037,0.162892997,0.012809500,-0.198862001,-0.233410999,0.732638001,-1.231819987,-0.784645021,0.521036983,0.078138098,-0.981791973,0.021321701,-0.231176004,0.196968004,0.869601011,0.149749994,-1.103749990,-0.268391013,0.198921993,0.301084995,-0.860522985,0.572510004,0.585456014,0.399567991,-0.206211999,0.077313296,-0.320329010,-0.065821797,2.075680017,0.332381994,-0.253547013,-1.029389977,0.151978001,-0.125067994,-0.599970996,0.072611898,1.109099984,0.385416001,-0.256159991,-2.166779995,0.009833670,0.051914301,-0.136143997,0.972876012,0.111511000,0.163819999,-0.037835799,0.111521997,-0.012546200,
-0.670373976,0.199790001,-0.344081998,0.014611100,0.137455001,1.670989990,-0.506796002,0.003816800,-0.243535995,-4.632140160,0.826614976,0.415560007,0.151210994,0.194480002,0.191977993,0.107463002,0.068398401,0.091411300,-0.461706012,-2.121400118,-0.193975002,-0.212751001,0.378926009,-0.151712999,0.901202023,0.209295005,-0.111233003,-0.478540003,0.147814006,0.156781003,1.294420004,0.966247022,-0.015995899,-0.030336400,-0.914852023,-0.056402199,0.138621002,-0.644284010,-0.412694007,-0.285798013,-1.095440030,0.231828004,-0.885910988,-1.224320054,0.426288992,-1.674540043,0.040418699,-0.540063024,-0.192570001,-0.131742001,
0.066164002,0.009589440,-0.195057005,-0.023900200,0.138017997,-0.609784007,-1.787320018,-1.334579945,-0.142857000,-0.499965996,-0.174192995,0.599874020,-0.221515000,0.340878010,0.704814017,0.257236004,-0.673736989,-2.700489998,0.121307001,0.472640008,-0.055007700,-0.594521999,-0.148210004,0.637796998,0.196789995,-0.023271300,0.499700010,0.442660987,0.003947480,-4.174089909,1.718530059,0.243524000,-1.157099962,-19.362899780,0.081062801,0.108139001,-0.185534999,1.994840026,0.136313006,-0.060551699,-3.338459969,0.012752800,0.869314015,-0.206397995,-1.208449960,-0.470562011,0.664940000,-0.444076002,0.364686996,0.109917998,
0.459295005,-0.866563022,0.080408402,-0.031720500,0.106884003,-0.401490003,-0.291476995,0.353570014,-0.035395902,0.639558017,-0.144656003,0.400591999,0.322075993,0.067854397,-0.241033003,0.725345016,0.236966997,-1.504320025,-0.271853000,1.040689945,-0.205054000,-0.105627999,-0.801584005,0.235058993,-0.004790980,-0.024743900,0.262232006,-0.140662000,-0.037162300,1.177379966,0.893481016,-0.151069000,-0.814256012,-0.407635987,-0.244682997,-0.864347994,1.250219941,1.522549987,0.727026999,1.327880025,1.336719990,-0.767903984,0.139889002,-0.883071005,-0.297650009,-0.213511005,0.321790010,-0.359288007,-0.572772980,0.164983004,
-0.017560299,0.010794200,-0.046358898,0.016677700,-0.015111100,0.012400100,-0.017507801,-0.025881501,-0.021855200,-0.025367100,0.000291038,-0.039997701,-0.028790900,0.007393840,-0.031117801,0.043772299,0.019424800,-0.032720201,-0.010394800,0.003788300,-0.013664100,0.003267250,-0.027740899,-0.042140901,-0.022735700,-0.039894100,0.024345599,-0.050803300,-0.025938600,0.014949900,0.011957500,0.019919200,-0.048566401,-0.025376100,-0.047144901,0.036243599,-0.021983000,0.043354198,0.023380000,-0.011916500,0.029735001,-0.027308799,0.013425500,0.014716200,-0.035726901,-0.041956700,-0.000550069,-0.010256900,0.015969500,0.034529999,
-0.021309599,0.025680199,-0.011865600,-0.022703800,-0.011547700,-0.037255902,-0.034981299,0.005109080,-0.041005202,0.044264100,-0.025669601,-0.019831000,0.012391800,-0.029416000,-0.039019302,-0.029672099,0.037043002,0.014265300,-0.026388500,0.042497601,0.008046210,-0.045225699,0.003361730,-0.025474399,-0.008533460,-0.045977000,0.013316500,-0.042494100,-0.053346898,0.004002560,0.002847610,0.045755599,-0.048972402,-0.045969300,0.036704201,0.018346600,-0.026784001,-0.007260080,-0.011358200,0.013488200,0.036027499,0.006644080,-0.026766101,-0.014158200,0.002215260,0.019177999,-0.005982000,0.000947474,-0.003984290,-0.049558900,
0.063598901,0.519883990,0.087013297,0.027541300,0.263282001,0.363709003,0.266209990,-0.152461007,-0.135217994,-0.086356796,0.279172003,-0.200029001,1.003990054,0.639829993,-0.046218399,-0.359223008,-0.181648001,0.301214010,0.204245001,-0.316435009,-0.077086598,-0.066735700,0.541015983,-0.318046987,0.110514998,-0.536556005,-0.240550995,-0.395503998,0.020591101,-0.113977998,0.827432990,-0.182947993,-0.792262018,-1.236590028,-0.736443996,0.626124978,0.399028003,-2.418859959,0.135141999,-0.325888008,-0.030685499,-0.381377995,0.083216198,-0.942587018,0.573364973,-0.292158991,-0.530654013,0.549817026,0.384663999,0.254830986,
-0.012197200,-0.043672901,0.041022498,-0.021766800,-0.007787640,0.011136000,-0.046985600,-0.026514901,0.028148999,0.009923240,-0.041590001,0.002801890,-0.036699101,-0.035483301,-0.006257460,0.015707200,-0.008702740,0.030602699,-0.003336480,-0.049231999,-0.023249499,0.009717170,-0.048466701,0.008897090,-0.008343850,0.014084700,-0.002696780,-0.031868901,-0.042030901,-0.026278401,0.012037400,0.020905999,-0.006494280,-0.030948700,0.025177700,-0.049116299,0.014029000,-0.041790701,-0.003022830,0.012886700,-0.039873801,-0.049850699,-0.019807599,-0.017418800,0.025392501,0.039783198,0.023050200,-0.041346502,-0.034182999,-0.009846380,
-0.032002602,0.008384450,-0.051902201,-0.013505000,-0.001338170,-0.032640301,0.013646000,0.015932400,0.014399900,-0.031801999,-0.047842201,0.002904220,-0.035757799,-0.052581400,-0.023921199,-0.033111800,0.019646900,0.023649300,-0.003960430,-0.012969900,0.013052400,0.046257898,-0.009613570,0.023514001,0.011094300,-0.006387370,-0.019755600,-0.017388800,-0.005919830,-0.009053230,-0.012726700,-0.042800799,0.028679401,-0.050467800,-0.016403900,-0.021083700,-0.035302501,-0.027937800,0.039841101,-0.047921300,-0.055558499,-0.014442200,0.020840500,-0.004569620,0.026383800,-0.049248599,-0.043611001,0.007157990,-0.042710599,0.002852150,
0.164037004,1.159019947,0.537115991,0.020354301,-0.827988029,0.116951004,-0.545781016,-0.066058800,0.377680004,-0.591670990,-0.172699004,-0.304695010,-1.094259977,-5.774159908,-0.176063001,0.418951988,-0.131927997,-0.046042498,0.366515994,0.472732991,0.055580098,-0.367801011,-0.494592994,-0.349611014,-0.068374299,0.342671990,-0.294829994,0.561690986,-0.395918012,0.036672600,-1.367529988,-0.139082998,0.963801026,0.100602001,0.885290980,-0.585442007,-1.735780001,-0.400202990,-0.689056993,2.555840015,0.485617995,-0.092616700,0.453377992,-0.777742028,-0.563983977,0.682372987,0.229923993,0.206339002,-0.806765974,-0.015928499,
-0.689945996,0.084123999,0.415565997,0.023438299,0.579670012,-1.343690038,-0.173515007,0.342177004,0.131395996,0.711923003,-0.458885998,-0.336631000,-0.187086999,0.089720100,0.464201003,0.208819002,0.595640004,-0.997111976,0.156206995,-0.013576400,0.624669015,0.536760986,0.303555012,-0.419719011,0.294799000,1.091320038,0.612712026,0.272318989,-0.209188998,0.778832018,-0.968451023,-0.907684028,-0.093834102,0.056192499,0.596116006,0.540360987,-0.509537995,0.356945992,0.532764971,0.762089014,0.035281599,0.786244988,1.280140042,-0.362713993,-1.603430033,-1.120830059,-0.669920981,-0.433943003,0.344473004,-0.131083995,
-0.026474999,-0.042660799,-0.025368599,-0.024552600,-0.002988010,-0.016269900,-0.045215700,0.035369199,0.016093001,0.039582498,-0.039867401,-0.017061699,0.017289700,-0.031629100,0.005480190,-0.047316000,-0.050355799,-0.025943900,-0.043218900,0.041333798,-0.054673102,-0.031639799,-0.009923110,-0.015556000,0.012240600,0.002830300,-0.037342101,-0.044949900,-0.030664699,-0.026752200,0.010882400,-0.044062000,-0.018796900,-0.021012699,-0.025804400,0.023505600,0.010222000,0.020794701,-0.036470398,-0.011584400,-0.005328410,0.002056100,0.024544800,-0.005824140,0.026910201,0.002416040,0.036358900,0.033281598,-0.053144801,0.028942499,
-0.251325995,-0.047026899,-0.024472600,-0.017916201,0.539575994,-0.503386974,1.053760052,-0.610975027,-0.197748005,0.155515999,0.100207001,-0.155670002,0.326537013,-0.014178400,-1.137189984,-0.008605750,0.119223997,1.232730031,-0.287723988,0.091496401,-0.020138700,0.023448600,0.120584004,0.280757993,0.454991013,0.379727989,-0.164820999,-0.373284996,-0.222779006,-1.767249942,-0.187537000,-0.039904300,-2.325550079,-0.128617004,-0.008994580,0.416119009,0.821720004,1.325260043,0.067849897,0.064978696,-1.463870049,-0.088883303,-0.080441900,0.231953993,0.085576199,0.306672007,0.596795022,0.059676401,0.195873007,-0.952095985,
0.664026022,-0.500312984,-0.352735013,-0.010242600,-0.665293992,-0.034844600,0.273916006,-0.106454998,0.225494996,-0.556213021,0.591031015,0.674741983,-0.126819998,0.103442997,-1.260149956,-0.161126003,0.680666029,0.482740015,0.163555995,0.079537697,-0.068718404,1.167140007,0.229796007,0.413621992,0.096215203,0.692740977,-0.226439998,0.035302099,-0.824943006,0.450098991,-0.409689009,-0.206564993,2.284290075,1.313830018,-2.452670097,0.192592993,-0.875869989,-0.022501901,0.178149000,0.144465998,-0.170008004,-0.371226013,-0.692417979,-0.160631001,-0.667254984,0.069799297,0.364962012,-0.978694975,-0.780062020,0.196792006,
-0.009097430,0.117358997,0.983483016,-0.032270599,-0.127246007,0.969644010,0.205909997,-0.316386998,0.086741500,-0.852483988,1.050780058,-0.141664997,0.506335020,-2.196609974,-1.031479955,-0.221521005,1.172209978,0.587863982,-0.493701011,-0.898914993,-0.197405994,-0.715771973,0.534950972,0.843806028,-0.559189975,0.337408006,0.619674981,-1.521119952,0.208678007,0.294095993,-0.702650011,-0.550520003,-0.753802001,0.221498996,-1.090780020,-0.208278999,-0.151874006,-2.249350071,0.156146005,-0.743878007,-0.702917993,0.310757995,-0.903757989,-1.444090009,0.366481990,-0.684129000,-0.168147996,0.509177983,0.049299199,0.325542003,
-0.304367006,-0.590497017,-0.152016997,-0.021942699,-0.912823975,0.562076986,-0.096177302,0.050961901,-0.839007974,0.445385009,-0.059767000,-0.281832010,0.190421999,0.562021017,-0.133024007,-0.493503004,-0.793485999,0.800674021,-0.045100302,-0.337796986,0.009709490,-0.075207897,0.143152997,0.647862017,-0.000860453,0.219549999,-0.709613025,0.473704994,-0.270146012,-0.420547009,-0.004316380,-0.341592014,-0.218934000,0.410916001,0.707077026,-0.191422001,-0.024496900,0.795669973,0.187612996,0.311228991,-0.452095002,-0.275344014,0.363049001,0.285901994,-0.215369999,-0.032702800,0.611633003,-0.454062998,-0.595109999,-0.024018200,
0.477573007,-0.178221002,-0.109053999,0.009534000,-0.326357007,-0.396378994,-0.219730005,0.116604999,0.260892004,-1.218369961,0.483873993,0.854256988,0.493138999,0.296586990,1.368549943,0.015054800,-0.528100014,-0.094540097,0.314929008,-0.196146995,0.937611997,-0.054412201,-0.102397002,-0.437005013,0.113023996,-0.270576000,0.284197986,-0.000192775,-0.341235995,0.788278997,-0.541778028,0.238443002,-0.339863986,-0.213673994,0.695792019,-0.506168008,0.271425992,-1.066679955,-0.282191008,0.148204997,1.544129968,-0.230406001,0.137684003,-0.537504017,0.149511993,0.291875988,-0.332071990,-0.193604007,0.133295000,0.586395025,
-0.449631989,-0.020697000,-0.201815993,-0.017561899,-0.134817004,0.460027993,-0.044019300,-0.111083001,0.117004998,-0.587237000,-0.066237397,-0.662356019,-0.340600997,0.066693000,-0.339475006,-0.178578004,0.310065001,-4.504640102,0.135468006,0.954366982,0.506780982,-0.458061010,-0.240057006,0.003767820,-0.789049029,-0.202761993,0.632174015,0.197283000,-0.703397989,1.377640009,-1.036399961,0.611377001,-1.679620028,0.045157101,-0.253261000,-0.265455991,-0.533302009,0.320226997,0.134281993,-0.393222988,-0.186899006,0.779187977,0.412990987,-0.190522999,-0.226796001,-1.215700030,0.189373001,0.304926008,-0.296685994,0.082607299,
0.355322987,0.764229000,0.217277005,-0.036702901,-0.149819002,0.135799006,0.578046978,-2.069869995,-0.669121981,-1.857300043,0.345274001,0.196466997,-1.401419997,-3.756580114,1.292060018,-0.599507987,0.187902004,-0.775992990,-0.271423012,1.010460019,-0.444516003,1.112740040,2.221329927,0.555911005,-0.274430007,-0.514265001,-0.238373995,0.388200015,0.310276002,-2.816869974,0.712067008,-0.972922981,1.668030024,-0.306778997,0.722312987,1.291980028,-0.777562976,1.768869996,-0.357621014,-1.367679954,0.594945014,0.298806012,-0.429652989,0.511362016,-2.063950062,0.068937898,0.081562199,0.058130801,0.886866987,-0.364313006,
-0.370402992,-0.659775019,0.242201999,0.015578300,-0.022128800,0.855992019,0.015947100,0.195600003,-0.136162996,-0.408701986,-0.782380998,-0.177671999,0.157909006,-0.535009980,1.000419974,0.858303010,0.084947899,0.189670995,0.402754992,-0.311091006,-0.695182025,-0.577024996,0.077910602,-0.687700987,0.409779996,0.054785099,-0.067532003,-0.054820601,-0.557435989,0.023591099,-0.005582600,0.101905003,0.663275003,-1.155410051,0.309459001,0.117239997,0.189875007,-0.954042017,-0.226585001,0.646135986,-0.682386994,-0.264968008,0.167055994,0.065296397,-0.305716008,0.094793104,-1.092129946,-0.445910007,0.136988997,0.144823998,
-0.924396992,-0.683255017,-0.103436001,0.022176700,-0.568898022,-0.004097440,0.963002980,-2.550570011,-0.379326999,-0.692521989,0.236654997,0.128199995,-0.834677994,0.607185006,-2.445689917,-0.420706004,-0.019156899,2.432970047,0.125283003,0.630599022,-0.649670005,0.501590014,1.334179997,-0.178799003,-0.240703002,0.608093023,-0.241634995,-0.282180011,-0.158623993,-3.516239882,0.649968028,0.580428004,3.304500103,-0.588557005,0.407734007,1.285699964,0.415311009,0.405826986,-0.263790995,-0.040468998,-0.379761010,0.064551197,0.569378972,-0.203002006,-0.038485400,0.266369998,-0.139319003,-0.317544997,0.247757003,-0.508170009,
0.029675201,0.686453998,-0.258011997,-0.005347560,-0.197667003,-0.724942029,0.091382697,-0.041670699,0.666113973,1.006839991,-0.147033006,0.183548003,0.280974001,0.304197013,0.120296001,0.256778985,-0.101767004,0.111869998,0.119543001,0.321599007,-0.398474008,-1.410249949,-0.654425979,0.077888601,0.338535011,-0.200092003,-0.036703799,-0.190890998,-1.270709991,0.036159199,-0.813548982,0.038061999,1.593260050,-0.769717991,-1.034250021,-0.208298996,-0.874462008,0.017431000,1.803740025,-0.917509019,-1.621359944,-0.086289696,0.134039998,1.320219994,-0.190323994,1.144840002,0.073138803,-0.539393008,-1.652899981,0.099094100,
0.236101002,0.893666029,0.888149977,0.021210900,0.144062996,-0.196680993,0.442036003,0.234944001,0.710313976,-0.626668990,-0.166653007,0.160673007,0.818404973,0.354285985,0.123644002,-0.146276996,0.395604998,-0.027530400,-0.012272400,-0.684839010,0.244751006,-0.529841006,0.123575002,0.336127013,-0.031707902,0.628248990,0.385212988,-0.554261982,0.756578028,-0.047911301,-0.943283021,-0.542328000,-1.104050040,0.025836600,-1.375759959,-0.656090021,0.165195003,-1.215440035,0.570410013,-1.462749958,-0.461061001,-0.888338029,-0.178994998,-0.601989985,0.309596002,-0.473800987,0.105322003,-0.159317002,0.018910300,-0.138920993,
-0.100088999,-0.126420006,-0.212972999,-0.030222001,-0.464670986,-0.527882993,-0.168880999,-0.675608993,0.347548008,0.771808028,0.007734650,0.034056600,0.190513000,0.888078988,-0.007380160,-0.487614989,0.345465004,0.104440004,0.023615099,-0.217855006,-0.528717995,-0.064926900,-0.142177001,-0.672613978,-0.046555299,-0.547932029,0.028623600,-0.004831190,0.979713976,-0.490758002,0.759230971,-0.583860993,0.545072973,-0.596710980,0.115691997,-0.223603994,0.153372005,0.475214005,0.010404800,0.741051018,-0.149878994,-0.164616004,-0.435696006,-0.502156019,0.922185004,-0.282795012,-0.851094007,-0.162766993,0.140984997,0.961928010,
-0.022800300,-0.011843900,0.017105401,0.007041590,-0.023587300,-0.025412099,-0.038799699,0.026908901,-0.046235599,-0.043062702,-0.025895100,-0.019931201,0.040258799,-0.045676202,-0.021862300,-0.041894801,0.017784899,0.038428500,-0.024559500,-0.001820080,-0.020735500,0.032168500,-0.036404401,-0.045189299,0.027382100,-0.042617600,0.016441099,-0.034401800,-0.053846899,-0.017363600,0.010132600,0.026716201,-0.044700298,-0.039815400,0.011130300,0.039841302,0.035387501,0.004661470,0.043858301,-0.030413600,-0.016744500,0.038015202,-0.023493201,-0.044103000,0.027622100,-0.027975600,0.026788199,0.019560300,-0.007494860,0.030619800,
-0.758836985,
0.452266008,
0.630315006,
-0.011035800,
-0.485579014,
-0.877770007,
-0.014509200,
0.273045987,
-0.011568000,
-0.119603001,
-0.018000901,
-0.758177996,
-0.008322160,
-0.094191797,
-0.010604000,
-0.082037799,
0.772964001,
-0.300327003,
-0.760115981,
-0.102697998,
-1.172240019,
-0.414665014,
0.771324992,
-0.610926986,
-0.026329501,
-0.336843014,
0.907369018,
-1.127089977,
-0.454239011,
-0.011818000,
-0.006321920,
-0.015157700,
-0.018393099,
-0.012774700,
0.090778999,
-0.489008009,
-0.021033300,
-0.236111999,
0.017961700,
1.061980009,
1.074079990,
-0.181814000,
0.316320986,
-0.241773993,
0.382975996,
-0.140282005,
-1.263059974,
0.556720018,
0.984004021,
-0.007744790,
-0.411541998,0.176562995,-0.080338098,-0.049505100,0.013825000,-0.545319974,-0.017692700,-0.168125004,-0.043271899,0.094460599,0.016800201,0.178158000,0.047364298,0.047653001,-0.029827200,-3.222569942,0.165472001,-0.435699999,-0.542841017,1.598019958,0.333409995,-0.232493997,0.214098006,-1.776090026,-0.055273902,0.886004984,0.093312196,0.569344997,-0.618993998,-0.032888800,0.014770400,-0.225173995,-0.027774001,-0.003777580,0.032248002,0.486483991,0.041886602,-0.265670002,0.150392994,0.294279993,-0.521826982,-0.566110015,-0.829168022,0.704424024,-0.033782799,-0.141736999,-0.018934300,0.353803009,-0.633880973,0.046325698,
-0.363981992,-0.383464009,-0.101971999,0.032044500,0.429894000,-0.025484299,0.014427800,0.481537998,-0.022155600,-0.408852011,0.013482200,-0.488582999,0.025684400,-0.375806987,-0.000627281,0.103820004,0.054652400,0.547891021,0.621519983,0.536903977,0.070618398,0.009584820,0.120848000,-0.701326013,-0.040624999,1.727880001,1.352100015,0.819604993,0.468634993,-0.031141501,0.000086411,-0.230339006,0.045576598,-0.036122501,0.446691006,0.726584017,0.044772401,-1.073279977,-0.087235898,-0.271923989,0.360381991,-0.006723800,1.038699985,0.311592013,0.263882011,0.162239999,0.295558006,-0.873116016,-0.373407006,-0.044527698,
0.344393998,-0.002445010,0.391153991,0.014801500,0.441962004,-0.097157501,-0.053987902,0.980026007,0.015931699,-0.447398007,-0.016303200,-0.204363003,-0.001702140,-0.151794001,-0.004684980,1.317180037,0.129765004,-0.349752009,-0.373962998,-0.756236970,-0.099880397,0.450168014,-0.149651006,-1.423629999,-0.028403901,0.318857998,-0.775502980,1.819610000,-0.581884980,-0.015901901,0.004805380,-0.080196403,-0.027598700,-0.020230399,0.813956976,0.138378993,-0.007933410,0.514562011,-0.046494499,0.406037986,-0.437503994,0.122635998,-0.629543006,0.415071011,-0.273539990,0.723860025,0.977882028,-0.203391999,-0.241593003,0.017505201,
0.603604019,-0.018474899,-0.090222999,0.027768699,2.436619997,0.316339999,0.050970700,-0.516355991,-0.031297199,-0.474083990,-0.005450760,0.289462000,-0.008881200,-0.116802998,0.053803999,-0.445596993,0.085735999,-0.064548098,0.677652001,-0.443958998,0.132955000,0.476987004,-0.079820000,0.371800005,-0.049933501,1.004019976,-4.017570019,0.652198017,0.744867027,-0.007148710,0.000562020,-1.115249991,-0.037077401,0.018547799,-0.104746997,0.379321009,0.016310999,0.869908988,0.088854201,0.171823993,-0.888390005,-0.976002991,1.488309979,-0.108727001,-0.268923014,1.121350050,-0.361965001,0.183679998,0.062982902,-0.030111801,
0.364681989,0.203927994,0.283344001,0.042493701,-0.047887798,-7.370540142,0.043089300,-0.008368130,-0.022801699,-0.853745997,0.047447499,0.792155027,-0.030069800,-1.801010013,0.019935399,0.366506994,0.181103006,-0.208836004,-1.459470034,-0.733137012,-1.605200052,-0.814794004,0.713559985,-0.200342000,-0.019599101,-0.731598020,-5.314430237,-0.534512997,1.152269959,0.003392530,0.035295900,-0.045723598,-0.044686500,0.039809499,0.713303030,-0.660045981,0.007402530,0.965650976,-2.094170094,-1.491260052,-2.443799973,-1.013170004,-0.921078980,-4.429800034,-0.552509010,-1.475759983,-1.297160029,-0.163634002,-1.196179986,0.036742799,
0.147287995,0.548280001,0.379200995,0.020244500,1.370939970,-0.714105010,0.018240700,-0.039007101,-0.006087440,-0.331463993,0.011411800,0.027207900,-0.036346599,0.304639012,-0.036374498,0.866365016,0.135635003,-0.230261996,-2.630660057,-0.356171012,0.580846012,-0.266140014,0.539122999,2.053649902,0.035382900,0.139340997,1.110579967,-2.297539949,0.384734005,0.032588098,-0.037687000,-0.829110026,-0.030122001,0.017824600,-0.025052300,-0.403887004,-0.028767699,0.275902987,-0.574020982,-0.505313993,-0.586533010,0.428160012,-0.274394006,0.855080009,-1.157510042,0.468073010,1.416020036,-0.539327025,-1.270249963,-0.004573310,
-0.753508985,-0.005057760,-0.006940320,-0.010220300,0.778999984,0.773720980,0.016571499,-0.890552998,-0.037372600,-0.015411000,0.001732120,0.613398015,0.038122699,-0.069059901,0.010853100,0.057290301,0.346587002,1.057459950,-0.833128989,-0.136099994,0.841521025,0.539129019,-0.211297005,0.015925599,0.052883100,0.790982008,-0.125799000,-0.121900000,0.360163987,0.005213070,-0.017294800,-0.856405020,0.043493800,-0.039924402,-0.754429996,0.357576996,0.030014999,-0.005092010,-1.392500043,-0.634974003,0.294266999,-0.370326012,-1.128769994,0.332655013,0.042108499,0.622612000,-0.018548500,-0.584725022,0.360783994,0.018223800,
0.149170995,-0.275950998,0.054505099,-0.023391500,1.099370003,0.713066995,-0.001364400,0.293118000,-0.029647600,-0.419496000,0.017024601,0.464255005,0.031606801,0.199081004,-0.024292501,0.893446028,0.485141009,-0.532207012,-0.249513999,0.202094004,0.073916100,0.353827000,-0.354433000,-0.201325998,-0.027794501,0.549744010,-0.069516599,-0.795929015,0.282541007,-0.001645690,0.005175450,-0.507270992,-0.031518500,-0.041573402,-0.692707002,0.941466987,-0.022570601,0.927196980,0.000663258,-0.375849992,-0.068760499,-0.460152000,0.713792026,0.280719995,0.318354011,-0.276865005,-0.227348998,-0.462449998,0.139998004,-0.011198800,
0.022179401,-0.342530012,-0.800466001,-0.034722898,1.829049945,-1.343829989,-0.002870040,0.037424698,-0.031059500,-0.447683990,-0.007748100,0.146803007,-0.000525564,1.871019959,-0.049019400,1.738209963,-0.343668014,-0.857680976,-0.117527001,0.871517003,0.648213029,0.356687993,0.282851011,4.565680027,0.017234899,1.808979988,1.634979963,2.979890108,-0.159815997,-0.042413201,0.047479600,1.743549943,0.031740401,0.032411098,0.673784018,-0.157424003,-0.010239900,0.740813971,1.855020046,1.031340003,0.484331012,-0.202426001,1.110219955,2.652669907,0.976029992,0.973769009,0.804184973,-0.423566014,-0.126094997,-0.015121500,
0.054182000,-0.088357300,0.036069602,-0.026247300,0.091283798,-0.735780001,-0.017451700,0.885250986,0.015452400,0.127807006,0.005997510,-0.410192996,0.038654100,-0.632286012,0.003513270,0.181667998,0.194251999,-0.324959010,1.186619997,-0.328940988,0.538685977,0.215847000,0.237411007,0.419270009,0.028597999,0.765477002,0.070560597,0.059616100,0.777135015,-0.010563000,0.044361200,-0.230804995,-0.016779700,-0.010564200,0.378464013,0.089452602,0.044361401,-0.496991009,-0.799351990,0.470221996,-0.033978399,0.013399300,0.312032014,0.440490007,1.019170046,0.702450991,-0.024565101,0.069496803,0.121390000,-0.039528601,
0.220763996,-0.846125007,0.210020006,0.029258000,1.244089961,0.397940993,-0.002053380,0.048485100,0.045087200,-0.728833020,-0.002456910,0.931421995,-0.006460550,0.598541021,0.007572740,-0.036147799,-0.356790006,0.148964003,0.397738993,1.408079982,0.150742993,0.265619993,0.478193998,-4.309299946,0.005332790,-0.105224997,-0.447777003,1.063820004,1.564440012,0.007220780,0.038149599,0.465034992,0.025522999,0.043278102,0.033622202,-0.707677007,-0.030599499,0.965147972,-2.142879963,-0.159897000,1.353940010,-2.205019951,-1.880949974,0.406046003,1.723459959,1.925160050,0.511925995,-0.732568979,0.481151015,-0.029076200,
0.260104001,0.237682998,-0.318500996,-0.022309899,0.428970993,-0.372433007,-0.028394500,0.702530980,0.042326801,-0.757911026,0.030306200,-0.028163200,-0.041993301,1.161299944,-0.015170300,0.448190987,0.149012998,0.839213014,-0.297903001,-0.457511991,0.151677996,0.560308993,0.110173002,-3.194999933,0.010515700,1.135640025,-0.177033007,1.581500053,0.407292992,0.050011400,-0.033236999,-0.382896990,-0.027952500,-0.038651701,-0.525847971,-1.759739995,-0.031797700,-0.719636977,0.909479976,-0.319352001,-0.627649009,0.699903011,0.011769700,0.956762016,-0.797097981,0.261090994,0.248457998,-0.249962002,-0.438814998,-0.020955600,
-0.362037003,0.308587998,0.165179998,-0.009263310,0.159801006,-1.340450048,-0.043056902,-0.104238003,0.033587702,-0.273422003,0.022064500,-0.039771501,-0.032265201,1.238759995,0.029383000,-0.530160010,-0.296763003,-1.097079992,0.259395003,1.238530040,0.054216702,1.012310028,-0.427536011,0.062412400,-0.005381940,-0.637513995,0.425702006,-0.812883973,0.168330997,-0.000681536,0.036723800,0.492653996,-0.036865398,-0.010059900,0.530381978,0.173284993,0.019072900,-0.338322997,0.808731019,-0.078215100,-0.713850021,0.354259014,-0.220998004,-0.407705009,-0.400512010,-0.624049008,-0.226855993,0.215877995,-0.090007700,-0.036768802,
0.052306499,-0.161415994,-0.511245012,-0.048513200,0.308596998,-0.558665991,-0.009426300,0.089995198,0.006945850,0.617954016,0.005138370,0.064306498,-0.016342200,0.943448007,-0.011838200,-1.782649994,0.067771502,0.234419003,0.195536003,-0.039822198,0.026414800,0.684642017,0.201900005,1.819589972,0.029814200,0.291229993,0.739525974,-1.212599993,0.457044989,0.043861300,0.047943499,0.146739006,0.021523200,-0.014853200,-0.302576005,-0.031022400,0.031736501,0.905178010,-1.219779968,0.260001004,0.211186007,0.761623025,-0.865476012,-0.165517002,-0.413260013,0.282002002,0.121449001,0.139974996,-0.552191019,0.028905001,
-0.046700802,-0.023510801,-0.006909350,-0.044639900,0.025300501,-0.025178300,0.016318999,-0.007737380,-0.029778300,-0.053741202,-0.003097340,0.033714700,-0.000215081,0.017572399,-0.008473680,-0.040521801,-0.041859701,0.017821800,-0.015486900,-0.007452630,0.032694001,-0.035603400,-0.018067300,-0.020314701,-0.032459501,-0.029420201,-0.021311700,-0.024095099,-0.006499150,-0.010743000,0.001640500,-0.042283401,0.016884400,-0.024557700,0.030504899,-0.024041800,0.001826890,-0.002576590,-0.036981300,0.000624255,-0.013702700,-0.037273001,-0.028723000,0.008380340,0.016034801,0.044705600,-0.044794001,0.019797301,0.017345199,-0.008155320,
0.010146000,0.215129003,-0.214675993,-0.033906098,-0.300994992,0.327362001,-0.039249599,-0.529372990,-0.034495901,0.267419010,0.035003699,0.082986698,0.004927140,-0.134324998,0.035502002,-0.355987012,-0.040044300,0.152042001,0.058451001,0.509191990,-0.059579901,-0.371477008,-0.004624360,1.146049976,-0.000878675,-0.386038989,0.239025995,0.015270000,0.234814003,0.041706301,-0.024343800,-0.242988005,-0.042521000,-0.019224700,-0.761093974,0.007382930,0.007302080,0.255499005,-0.100663997,-0.100184001,0.245525002,-0.146752000,-0.210565999,-0.276475996,0.063757300,0.381341010,-0.021767801,0.225608006,0.104314998,-0.031864099,
-0.560226023,0.328866005,1.105360031,0.020649999,-0.361552000,0.447710991,0.038018201,0.014035100,-0.048982400,-0.164234996,-0.016296400,0.177313000,-0.021149900,0.344615012,-0.043436199,-1.657670021,-0.498299986,0.645892978,0.161231995,-0.447896987,0.530879974,0.333370000,-0.042551499,-1.317839980,0.013215800,0.365725994,0.144966006,0.985260010,1.337129951,-0.005157690,-0.019495100,0.557289004,0.014296600,0.046045799,0.154407993,-0.161164999,0.041528299,-0.886003017,-2.080060005,-0.098558798,-0.997868001,0.042681400,-0.052308101,0.412867010,0.762129009,-0.052098401,-0.107970998,-0.380127996,-0.166399002,0.018659800,
0.121200003,0.698264003,-0.288531989,-0.035468601,-0.942605972,0.156624004,0.042186201,0.100808002,-0.002870320,-0.193158999,0.031738501,-0.470735013,-0.032968499,-0.075731300,-0.030941600,0.636940002,0.326444000,-0.282777995,0.331248999,-0.579028010,0.604044020,-0.015970100,-0.029426901,-0.757574975,0.025459200,0.275175989,-0.621513009,0.905613005,0.408582985,0.018607900,0.021195799,-0.809688985,0.026990701,0.000293547,0.035314001,-0.091691002,-0.020900100,-0.527653992,0.008893320,-0.124779999,0.118409000,0.129718006,0.083367899,0.346542001,-0.444092989,-0.880038023,0.569041014,-0.028546801,-0.046290800,-0.052755602,
-0.327376008,-0.085329600,0.180827007,0.009013870,-0.034472100,-0.035073400,0.008779280,-0.359243006,-0.017205400,0.398849010,0.010879400,-0.757561028,0.007155830,-0.171082005,-0.032405499,-1.206680059,0.751091003,-0.365902007,-0.370866001,-0.042621300,-0.459131986,0.065446503,0.220238999,0.092668504,0.035291702,-0.009339210,-0.626084983,0.738251984,-0.840874016,-0.004732180,0.042777501,0.458604008,0.033408500,0.026751000,0.374332011,-1.272420049,0.024653099,0.615087986,-0.034938399,0.480666995,-0.003409080,0.207697004,0.044575699,-0.300731987,-0.082409099,0.627534986,0.094094701,0.288195997,-0.023128100,-0.037698701,
-0.721431971,0.217492998,-0.059833799,-0.025564700,1.128739953,-0.147706002,0.027361000,-0.271620989,0.028015699,0.206821993,0.035923298,0.719045997,-0.051873699,0.678817987,0.046106100,0.434074014,-0.065998301,0.261243999,0.427964002,1.227779984,-0.172477007,1.056460023,-0.130099997,0.789497018,-0.012658200,0.138168007,-0.888096988,1.158010006,-0.363582999,-0.042770699,-0.016908200,0.147281006,-0.037269901,0.041881900,-0.220568001,0.284514993,0.039426401,0.886484027,0.839474976,0.334479988,-0.344675004,0.682385981,0.297800988,-0.214535996,-0.658761024,0.699316025,0.111409001,0.313634008,-0.138348997,0.038423199,
0.133899003,-0.284676999,-0.089667603,-0.029625701,0.893737972,-0.746003985,-0.018791201,-0.000350653,-0.018585401,-0.090713702,0.053115599,0.667185009,0.048606500,-0.311639994,0.009672400,0.793781996,0.226988003,0.069733702,1.344589949,-0.865103006,0.032721601,-0.340701997,0.116700001,2.224550009,0.014598400,-0.183367997,0.477701008,1.502869964,0.469478011,-0.036888499,-0.024188699,0.563215971,-0.018268900,0.049604502,-0.314218014,0.349851996,-0.033405598,0.872115016,-0.193271995,0.780514002,0.388285011,-0.960548997,0.091554403,0.106270999,0.258489996,1.362969995,0.396445006,0.106902003,-0.342328012,-0.013450200,
0.119328000,-0.035927098,-0.210072994,-0.033535302,-0.474824995,-0.038128201,-0.038012698,0.193900004,0.008852290,-0.582379997,-0.025860701,0.627121985,0.044324301,-2.773159981,-0.005105780,0.616706014,0.341996014,-0.161212996,0.636702001,0.346101999,0.277967989,0.908239007,-0.154469997,-4.297949791,0.035914700,0.604788005,0.003338310,0.922163010,-0.326397002,-0.042613398,-0.013299900,0.396142006,-0.047711700,-0.005475910,-0.183644995,0.138789997,0.007058200,-3.275850058,-0.440625995,0.282534987,-0.446783990,-0.440010995,-0.474023998,-0.299600989,0.494379997,-2.668100119,-0.021942399,0.114742003,0.234063998,-0.019041700,
-1.103800058,0.118097000,0.048674300,0.009538320,-0.573727012,-1.117319942,-0.047783401,0.768962979,-0.047898300,0.824941993,0.007045580,-0.442492992,0.014139600,-0.483628005,0.027434900,-2.049249887,-0.825845003,1.045420051,-0.024764000,1.702710032,0.823134005,0.136085004,0.635704994,0.061572500,-0.026362000,-0.378908008,2.646199942,1.521430016,0.701138973,-0.035758600,0.036366399,-0.190513000,-0.023789199,-0.032081701,0.578975976,-0.115667000,-0.040518299,-0.241833001,-0.212332994,0.915516973,-0.844540000,0.077300601,-0.349979013,-1.293840051,-0.381294996,0.363622993,-0.459562004,-0.123538002,0.218557999,0.002417130,
0.037745900,1.867499948,-0.082768299,-0.035745598,0.514226973,0.321597010,0.005241650,0.239409998,-0.027301401,0.006785750,0.029323099,-0.236540005,0.044584900,1.374130011,0.012271500,1.275550008,0.579532027,0.307915002,0.147063002,-0.044093799,-0.565710008,0.117875002,0.536957026,0.585925996,0.034267500,0.027239000,0.361831009,-0.781193018,-0.146588996,-0.023524599,0.018654199,-0.022939799,-0.028488601,-0.031720601,0.510484993,1.285159945,-0.034662999,-0.145219997,-0.688975990,-0.135165006,-0.095120199,-0.927653015,0.423198014,-0.220696002,0.429674000,-0.048730500,1.308640003,-0.121652998,-0.412999004,-0.010808900,
-0.354755998,-0.494498014,0.098829798,0.014892900,-0.211577997,-1.296859980,0.032887898,-0.228474006,-0.008939130,0.111478001,0.025940800,1.094140053,0.044046599,0.512376010,-0.036380701,-1.102929950,0.237179995,-0.003476430,-0.094390899,0.116800003,-0.185543001,0.538518012,0.036049999,0.320284009,-0.037593901,1.710070014,0.509213984,-0.601824999,0.379577011,0.018070700,-0.032536998,-1.377640009,0.019441901,-0.031055000,-0.772834003,-0.781894982,-0.000707816,0.271463990,0.288015991,-0.292079002,-0.285959005,-1.117650032,0.609248996,-0.021417201,0.441801995,0.564812005,-0.120670997,0.214701995,-0.022183901,0.005445720,
0.248733997,0.195454001,0.425377995,-0.009168470,-0.730678022,0.068473697,-0.038217600,0.006021190,0.012497000,0.773459971,0.011622100,0.647966981,-0.028437501,0.609178007,0.046924300,0.078590997,-0.141558006,0.237843007,0.055645701,-0.753215015,-0.128046006,-0.040511601,-0.059413999,1.786900043,0.000086398,0.446509004,-0.169781998,-1.255100012,0.316882998,0.039322201,0.025602700,0.794613004,0.046413701,0.033646900,0.113401003,0.742537022,0.007106780,-0.417427987,-0.293752015,-0.175128996,0.086629398,-0.704056978,0.012265400,0.364477009,0.884077013,-0.185462996,0.354894012,-0.058212101,-0.162449002,0.004154960,
1.186619997,-0.079089597,-0.004689500,0.017528800,0.025651099,-2.002909899,0.022029500,-0.557663977,-0.010142200,-0.731001019,0.044055801,0.135664999,0.027329400,-1.085700035,0.036912899,0.022072000,-1.021080017,-2.338710070,-0.429614991,-0.046595901,1.396170020,0.996734023,-0.331115991,-2.923569918,0.026630800,3.128129959,-2.628240108,-2.714459896,2.009269953,0.035866700,-0.047577299,-0.936784983,0.003583170,0.043449301,-2.916300058,-2.123709917,0.020542700,0.662925005,-0.086684696,-0.888338983,-1.116009951,-0.078605399,-2.619159937,-0.168265998,0.297798008,1.030060053,1.672930002,-0.400628000,-0.319283992,-0.015748300,
-0.273624003,-0.375847995,-0.021273900,0.026171600,-0.137551993,0.877173007,0.039085899,0.815789998,0.032896001,-1.008520007,0.013130200,0.098401703,0.041631501,-0.084375396,0.044419900,-0.017574601,-0.070922703,-0.774595976,-0.910470009,1.189560056,-0.053499099,0.597545028,-0.343266994,-1.575549960,0.004185260,0.762926996,-2.650239944,0.255549014,0.063432500,-0.011345900,0.020204101,0.199375004,-0.032524299,0.019522000,-0.042171001,-0.329068005,0.012235700,0.137197003,0.580253005,-0.486761004,-0.190485001,-0.349943012,-1.760349989,0.315295994,0.942394018,-0.536809027,0.730718970,0.133876994,0.103298999,0.017596399,
-0.438309014,0.050150301,0.007426290,0.025197800,0.150181994,-0.011703700,0.043701299,0.260693997,-0.032609299,-0.423826009,-0.017782100,-0.503831029,0.036223900,-0.510824978,-0.039178502,1.088060021,-0.646278024,-0.518748999,0.055602401,0.047674801,0.035144001,0.023878500,-0.096010603,-0.773761988,0.027129000,1.681730032,0.287245005,0.936173022,0.114518002,-0.009270920,0.037866700,1.708469987,-0.016679700,-0.026891399,0.285028994,0.453498006,-0.023042001,1.070330024,1.014549971,0.258608013,1.095729947,-0.136207998,-0.664113998,0.627852976,0.219743997,0.096458897,0.199893996,0.405340999,-0.348462999,0.032937098,
-0.344960004,-0.083026402,-0.052790299,0.044670898,-0.355587006,0.083171703,-0.006055880,0.852751970,0.036176901,0.091279201,0.037688099,0.488368988,-0.046039201,0.748721004,-0.012912600,0.515048981,-0.301292986,0.515142977,-0.416296005,0.200788006,0.419465989,1.281129956,0.112475999,-4.604370117,0.028452400,0.406426013,-1.509140015,1.154019952,1.559170008,-0.049996700,0.036055099,-1.414980054,0.010380500,-0.017969901,-0.088021599,1.312160015,-0.045649301,0.945357025,-0.380632013,-0.716486990,0.686802983,-0.800944984,0.469758987,0.228220999,-0.267304987,-0.917101026,0.431551009,-0.759526014,0.152137995,0.028120000,
-0.138332993,-0.013836100,-0.198023006,0.035010200,-0.480022013,0.673204005,0.046270099,0.194407001,-0.021152699,0.027807400,0.023367699,-0.127213001,0.031759899,1.154500008,-0.039700001,0.774134994,0.644281983,-0.438284993,-0.108243003,-0.804491997,-0.863511026,-0.181182995,0.194527999,-1.167619944,0.057726100,-0.714698017,-0.195164993,-0.683018982,-0.024726300,-0.019541301,-0.011480500,-0.307069987,0.037413299,0.037909299,0.508619010,0.269216001,-0.060864601,0.408883005,0.558484018,-0.418814987,0.283322990,-0.204162002,0.829025984,-0.321343988,-0.175275996,0.326267987,-0.127138004,0.324236006,0.520191014,0.030191001,
0.125986993,0.401845992,-0.136407003,0.009896810,1.334550023,-0.259434015,0.034636900,1.010969996,0.000915638,0.001161750,-0.047977399,0.552667022,-0.004628470,-0.021544300,-0.017268499,0.260527015,-0.265201986,0.303157002,-0.357472003,-0.633212984,-0.031406999,-0.145055994,-0.508928001,-0.934131980,0.000743817,-0.854345977,0.298550010,1.137519956,-0.620986998,0.048105001,0.037729900,0.045621600,0.010976500,0.048558101,-0.047685400,-0.868866026,0.001683380,1.114760041,0.113430001,0.593064010,-0.457332999,-1.373420000,-0.463061988,0.452569991,-0.403416991,-0.104919001,-0.531875014,-0.216125995,-0.593343973,-0.016166599,
-0.223509997,-0.026692500,-0.040224500,0.020395000,0.121021003,-0.029760299,0.020164199,0.049895100,0.025318500,0.017887199,0.022050800,-0.505550027,-0.022685900,0.176229998,0.034383699,-0.245362997,-0.270130008,0.072145998,0.077524804,0.276641011,-0.174397007,-0.054543499,0.220274001,-0.798995972,0.030112300,-0.506183982,0.146294996,-0.458191991,0.408244014,-0.034352500,-0.013281600,-0.051178500,-0.030066401,-0.007892800,0.392827988,0.153303996,-0.026552301,-0.046896800,-0.327706993,0.265998989,0.111712001,0.232007995,0.065772302,-0.205232993,-0.061919700,0.029803099,0.184770003,-0.902239025,-0.305599004,0.040731300,
0.432543993,-0.088095300,-0.194049001,-0.008022110,0.205835000,1.850690007,0.002341220,0.049376000,-0.038563699,-0.122529998,-0.001564510,-0.471551001,0.016368199,-0.379325002,0.043588601,0.712496996,0.632214010,-2.457099915,0.144912004,-2.410880089,-0.347582996,0.626057982,0.558416009,4.683129787,-0.014248400,0.720382988,0.191005006,2.467849970,0.199511006,-0.029774399,-0.036706802,1.651589990,0.036555801,-0.014418500,0.285591006,-1.292580009,0.034198999,0.899527013,0.764594018,0.883755028,0.043937098,-0.317822993,-1.888170004,0.296229988,0.539631009,0.659116030,0.247188002,-0.305519015,-1.506100059,-0.011530900,
-1.121479988,-0.450825989,-0.446855009,0.031675600,-0.721777976,-3.758379936,0.025099000,1.137850046,0.011351600,-0.042945601,0.024435300,-0.303965986,0.020574400,-3.317159891,-0.010828200,2.117739916,0.074450299,1.036800027,-0.393595010,0.874670029,0.261287004,0.560549974,-0.711745024,0.844251990,0.005707820,-2.942229986,-0.472378999,0.661110997,-1.445430040,-0.001369440,-0.009929260,0.173166007,0.003270010,0.033390701,-0.317757994,0.745670974,-0.041965801,1.618700027,-1.218799949,0.880677998,-0.487470001,-0.400402993,-0.312110990,-0.276531011,0.988783002,0.194217995,-0.388072997,-0.447887003,0.014537500,-0.032876302,
-0.658851027,0.068550304,0.069008403,-0.020922100,-0.314260006,-0.594640017,0.017345799,-0.016189300,-0.022777900,-0.327634007,-0.021207999,0.295248002,-0.007329940,0.406910986,0.022531200,-0.245949998,0.020539699,0.391144007,-0.524272025,-0.979907990,0.078207500,0.091208100,-0.295877993,-7.046279907,-0.022954199,-0.079147696,-0.470059991,0.951018989,-0.270815998,0.043984599,-0.022806900,-0.739479005,-0.014922600,-0.016018201,-0.431980997,0.454387009,-0.046578102,0.095302403,-1.272770047,0.356265008,-0.162157997,-0.386815995,0.160863996,0.509827018,1.155660033,-0.244560003,0.472328991,0.300830007,-0.528907001,-0.029415701,
0.013188900,-0.391943991,-0.051934302,0.013865400,-0.374228001,0.369208008,0.012520700,0.027229000,0.027519500,0.296766996,0.050804202,0.002342090,0.042575799,0.545176983,-0.019827999,0.081480503,0.111169003,-0.004975720,-0.342460006,-0.139570996,-0.252130985,0.218107000,0.096622102,0.002210570,-0.027436201,-0.673972011,0.113641001,0.753475010,-0.378950000,0.029320400,0.041997202,0.186341003,-0.013579700,-0.013843600,0.053873200,0.243689001,-0.005150750,-0.362594008,-0.068369798,0.103577003,-0.245629996,0.503911972,-0.013836700,-0.143025994,0.177713007,0.151244000,0.763209999,-0.012080000,0.700361013,0.005659340,
0.030233501,0.264445007,-0.193113998,-0.045539200,-1.000540018,0.256411999,-0.027281299,0.377550989,0.019282600,0.082358703,0.056444000,0.225435004,-0.008515040,0.579994023,-0.019735500,0.612931013,0.060966201,0.035057899,-0.083376102,-0.509590030,-0.634862006,-0.224298000,-0.017036101,-1.634119987,0.007125070,0.756008029,-0.399484009,-0.946379006,-2.999480009,0.002580490,0.009074350,-1.770230055,-0.011740700,0.036313299,-0.445001006,-0.082362503,-0.024835600,1.266759992,-0.474801004,0.882477999,0.361900985,-0.169666007,0.613783002,0.239392996,-0.157607004,-0.147108003,-0.528550982,-0.136360005,-0.296635985,-0.031716000,
0.062436100,0.159227997,-0.451276988,0.017110899,-0.192267999,-0.128618002,-0.027163200,-0.754249990,-0.046421099,-0.011134000,0.052865200,0.016228801,0.025080100,0.083671100,-0.004817710,2.044689894,0.428748012,-0.095993303,-0.611137986,-1.131299973,-0.653352022,0.380950004,0.465445012,0.105176002,0.030119600,-0.911885977,-1.315400004,-0.257849008,0.866385996,-0.015269200,0.028941900,0.069026902,-0.011932100,0.037691399,0.392304987,0.343910009,-0.018028600,-0.124297999,-0.744674981,0.422488987,0.099060103,0.057795700,0.040474001,0.774190009,1.493119955,-0.641233027,1.998849988,-0.054143999,-0.356041014,-0.044671599,
-0.188314006,-0.227077007,0.328572005,0.019291500,-0.210604995,0.216400996,0.028917599,0.700339973,0.020180801,-0.508834004,0.018510800,0.531163990,0.034869201,-0.287238002,-0.026409000,0.214086995,-0.219887003,0.458462000,-0.566865027,0.620567977,1.119079947,-0.314801008,0.007635460,1.817819953,0.007395160,1.880740047,1.353749990,-0.012589800,0.033583201,0.022733601,0.003450680,-0.138157994,-0.045421999,0.006766330,0.752686024,0.650075972,-0.009458500,0.522648990,-0.402292997,-0.401183009,-0.559477985,0.229270995,-0.232418999,0.081333302,-0.050195999,0.198624000,-0.071265303,-0.550638974,-0.278650999,-0.002237110,
0.138016000,0.438030005,-0.199870005,0.011705500,0.090174697,-0.220071003,-0.049201701,0.385279000,-0.025201799,-0.388951987,0.034658302,0.092413902,0.011753400,0.302495003,0.021150401,1.415500045,-0.154755995,-0.295682013,0.492188990,-0.701394022,-0.182255998,0.039759900,-0.249590993,-0.714097977,0.031559698,0.631853998,-0.552489996,-0.627644002,-0.039748799,0.031658500,-0.024871500,0.142855003,-0.009207180,-0.034136500,0.512814999,0.040514100,-0.040039301,-0.696666002,0.280131012,-0.531512976,0.527754009,-0.028028199,0.608528018,0.475315005,0.248739004,-0.748095989,-0.078064397,-0.077186197,-0.065168500,0.014720900,
-1.076490045,0.066643097,-0.117980003,-0.006123840,-0.630240023,1.231739998,-0.007177230,0.252882004,-0.009696940,0.862439990,0.024962500,-0.131821007,-0.011365300,-0.461169004,0.030561401,-0.868171990,0.516932011,0.236776993,0.196873993,-1.005910039,-0.288531005,-0.695185006,-0.064492702,1.722859979,-0.011826200,0.895659983,1.872069955,-0.618669987,-1.126860023,0.011117200,-0.003293170,0.910881996,0.020227600,0.027484300,-0.630394995,-0.060404900,0.008104760,0.509561002,0.199119002,-0.180894002,0.297749996,-0.024185801,0.726885974,-0.073294103,0.385531992,-0.525498986,-1.764629960,0.589890003,0.263567001,-0.040660098,
0.210940003,0.250212997,-0.098300397,-0.003075130,-0.200670004,-0.556379974,-0.043042101,-0.218821004,0.031295199,-0.266687989,-0.009227460,-0.017209901,-0.008979510,0.332367986,-0.010973100,0.546239972,-0.359391004,0.158435002,-0.147662997,-0.191288993,0.409406990,0.121817999,0.165141001,2.148420095,0.016217301,0.836843014,1.027819991,-1.587299943,0.547819972,-0.013519000,-0.037424602,0.133830994,-0.036414798,0.010918500,0.079382896,0.035859801,-0.040522799,-0.420904011,-1.005089998,-0.273467988,0.241867006,0.183293998,-0.408324987,-0.388788015,-0.532832980,-0.563215971,0.403923988,-0.730102003,0.106677003,-0.045544900,
-0.136738002,0.258825004,-0.037210301,-0.045676101,-3.332329988,-0.495245993,-0.038093101,-0.211055994,-0.037605502,0.495151013,-0.024854099,-0.023920201,-0.050370298,-0.536898971,-0.046109501,-1.110229969,0.443484008,-0.876389980,-0.548493028,0.449970990,-0.553542018,0.891696990,0.670404017,0.549044013,-0.006497040,-0.349628001,0.051045202,1.345939994,-1.356299996,0.024569800,0.027126599,-0.775215030,-0.003073050,-0.020730101,-0.784839988,-0.409469008,0.013410800,0.933843970,-1.856920004,0.282797009,-0.755713999,-0.544824004,-2.889679909,-1.527920008,0.304338992,-0.543951988,-0.881375015,0.208462998,0.410138011,-0.045720000,
0.346953988,-0.182862997,0.058875602,-0.015755801,0.682170987,-0.609450996,-0.018445799,0.506938994,-0.022711899,-1.325639963,0.009726550,0.464785010,0.030219300,0.918941975,-0.007085000,-2.609440088,0.865520000,-1.003900051,-1.654000044,-1.145190001,-0.721879005,-0.973110020,-0.061335299,-3.473289967,-0.027349301,0.396636993,-3.615900040,1.017300010,0.016499700,0.012617200,0.001600710,0.570188999,-0.004225010,-0.022805300,1.093440056,0.268328011,-0.026985500,0.441385001,-0.782105982,-1.338459969,-0.720036983,-0.237958997,-0.411163986,0.756682992,-1.349859953,0.578710973,0.711678028,-0.015645700,-1.544989944,-0.042029500,
-0.330444992,-0.152493000,0.306762993,0.029239900,-0.341136009,-0.732921004,0.035035700,-0.033317000,0.038343199,-0.422549009,0.020233100,-0.300859988,-0.041038699,-0.940931976,0.013155100,-0.903715014,-0.721140981,-1.545770049,-0.593064010,1.413100004,0.009159960,0.296416998,0.278225988,-1.301679969,-0.023077600,0.579982996,0.246739000,0.644515991,-0.141688004,-0.043219998,0.044094201,0.747509003,-0.040018599,-0.048965499,0.181813002,-1.431439996,0.035379201,-1.028100014,-0.980732977,0.629005015,-0.827422976,0.381549001,-1.222280025,-0.802002013,0.365878999,0.428108990,-0.693217993,-0.144787997,-0.407478988,-0.017324300,
0.644357026,-0.075275697,0.072297402,-0.052213900,-1.969239950,-1.004590034,0.034174401,-0.262107015,-0.019790700,-0.565576971,0.001734520,-0.565973997,0.033631500,-0.471451998,0.037449598,-0.814190984,-0.093714401,-0.191780001,-0.921836019,0.478796005,0.116090000,0.746267021,-0.194365993,-4.543759823,-0.043916900,-0.546127021,-0.651440978,0.994966984,0.243924007,0.012690200,-0.012970300,0.598954022,0.045081299,0.016399199,-0.773171008,0.246469006,-0.045278799,0.977867007,-0.407848001,0.185464993,0.279590994,0.052179702,-0.365314007,0.564117014,0.549889028,-0.932700992,0.209997997,-1.731799960,-0.116896003,0.040482800,
-1.549679995,0.628489017,1.082569957,-0.015381600,0.358579010,-0.660064995,-0.012503900,-0.111483000,-0.018580200,-0.299216986,-0.047230002,-0.446451008,0.023480300,0.036197301,-0.035435200,-1.059470057,0.649644017,0.392167002,-1.545230031,0.586979985,-0.825984001,0.071996003,-0.015097000,-3.015640020,-0.037945401,-0.318136990,1.475460052,-0.038253900,1.764019966,0.043988500,0.035343699,-1.898769975,0.011994000,0.038151700,-1.309309959,-0.218962997,-0.042232499,1.783689976,2.359849930,-0.348861009,-0.679791987,1.891700029,0.540859997,0.022673201,-2.326420069,-0.376311988,-1.335800052,-1.832540035,-0.916200995,-0.005808160,
0.516766012,0.308950007,0.002299140,0.013866000,1.435199976,-0.657424986,0.043833699,-0.537172973,-0.011765300,0.045901000,0.026812200,0.391676009,0.035911899,0.719170988,-0.022064900,-0.512311995,0.318928987,-0.958725989,0.333420008,-0.711917996,-0.508019984,0.444936007,0.076539703,0.069680199,-0.072279401,0.584288001,-0.168906003,-0.028774099,-0.343706995,0.034202501,-0.024787800,-0.251161993,0.026090199,-0.034330100,-0.014004100,-0.733339012,-0.044611201,0.505692005,-0.280577004,0.409880012,-0.281111985,1.002619982,0.509689987,0.312027007,-0.535960972,0.578230023,0.020484900,-0.021900700,-0.768186986,-0.044018701,
-0.167049006,-0.139975995,-0.669023991,0.012977900,1.033969998,-0.027654899,-0.012987400,-1.069120049,-0.027932800,-1.187049985,0.010756100,-0.507400990,0.038136300,-1.741979957,0.033956900,0.604025006,0.999958992,-0.625775993,-3.010859966,1.095880032,-1.136459947,-0.451958001,-0.037850998,-0.009410030,-0.048953801,1.723320007,0.139456004,-0.514739990,0.995413005,-0.031803399,-0.020245999,-2.915849924,0.039154001,0.014531100,-1.261229992,0.679812014,-0.011065400,-1.577679992,-0.167953998,0.250395000,0.410715997,-2.741810083,0.445078999,0.692421019,-0.510213971,1.143450022,-1.666520000,0.286201000,-1.262930036,-0.038052101,
-0.025878699,
-0.128359005,
-0.308331013,
-2.059289932,
1.533910036,
0.075847298,
-1.618280053,
0.516138971,
-3.817480087,
-1.541829944,
-1.429579973,
-0.565289021,
-0.189321995,
-1.152629972,
-0.008084100,
-0.062034000,
-1.148219943,
0.241794005,
-0.771243989,
-2.087300062,
-1.612110019,
-1.355029941,
0.453258991,
-1.134119987,
-0.031291299,
-0.544785023,
0.678779006,
0.354297012,
-1.183519959,
0.082153499,
-0.046714000,
-0.713545978,
0.966175020,
-1.259529948,
0.105618000,
-0.231774002,
0.174345002,
0.046648201,
0.646601975,
-0.343277991,
-0.053456798,
-0.362450004,
1.402199984,
-0.015231800,
1.495630026,
1.266129971,
-0.031903502,
-0.364432991,
-1.701189995,
0.264218986,
-0.373654008,0.206791997,0.378767997,-0.332293004,2.582989931,-0.487962991,0.280660987,-0.025848299,-0.469561011,0.122486003,0.156012997,-1.979580045,0.527245998,-0.416931003,-0.020548400,1.612730026,-0.103734002,-0.246108994,0.660588026,-1.504040003,-0.073834904,0.286644995,-0.323370010,-0.209663004,-0.011127100,0.413132995,-0.471356988,0.093733400,0.438082993,0.113788001,0.072451502,0.295313001,-0.128555998,-0.076973200,0.030771101,0.411558986,0.036601901,0.117333002,-0.273068011,-0.436102003,-0.036500201,-0.131844997,0.644621015,-0.491742998,-0.202524006,-0.209760994,0.068562903,0.071580797,0.175209001,-0.317745000,
-0.799066007,0.894373000,-0.291817009,1.020149946,0.002930980,-0.514298975,-0.511241972,0.159681007,0.225268006,-0.196153998,-1.867409945,0.202641994,0.967585981,0.837680995,-0.006748150,1.137539983,0.173394993,0.454544008,0.265163004,1.255300045,0.352777004,-0.200062007,0.078702100,0.136741996,-0.704972982,0.608029008,0.486384988,2.339849949,0.223160997,0.473264992,0.556994975,-0.404154003,-0.692158997,-0.195995003,1.555690050,0.219484001,-1.775699973,0.363680005,-0.815623999,1.087560058,-0.693668008,-0.122074999,-0.694957018,1.143260002,0.585614026,-0.606516004,1.067199945,0.091217399,0.299784988,-0.935814023,
-1.510730028,-0.898796022,0.893948019,-0.155125007,0.454441994,-0.276890993,0.229792997,-0.063943200,0.150618002,0.597926974,-0.260760993,-0.867846012,0.692038000,0.872997999,0.028633000,0.475912988,0.882090986,0.139120996,0.016573001,0.309029996,-0.048068602,-0.360092998,-0.289914012,-0.084337898,-0.187657997,-0.591449022,0.192100003,-0.028733000,0.106431000,0.050996400,-0.479173988,0.402388990,1.374670029,-0.089162797,0.355170012,-0.420253992,-0.141673997,0.218533993,0.151298001,-0.231858999,0.317939997,0.428238988,-0.588482022,0.165056005,0.331079006,-0.433515012,-0.454017997,-0.310326993,-0.098312803,0.713594973,
-0.144742996,0.327250004,0.189931005,-1.090839982,-0.447342992,-0.105315998,-0.382113010,0.092418499,-0.864880979,0.393765986,-0.109461002,0.653972983,0.474352002,0.008971150,0.041694701,0.132866994,0.033090100,0.448935986,0.639567971,-1.134150028,-0.114308000,-0.273021013,-0.347420990,0.178885996,0.187915996,-0.253437012,0.235741004,0.465530008,-0.278613001,0.171031997,-0.278266996,0.124752998,0.280766994,-0.560607016,-0.185955003,-0.764119983,0.597723007,0.050947499,0.310698986,-0.236729994,0.344994992,0.294856012,-0.411587000,-0.160373002,-0.610347986,0.488274008,0.123190999,-0.315589011,0.852777004,0.117154002,
-3.325999975,-1.103569984,0.361151993,1.289819956,-3.125050068,0.445576012,0.555589974,-1.398499966,-1.356520057,0.077700898,-0.665517986,0.975839972,-0.769715011,0.363498986,0.028920500,-0.229714006,1.522860050,-2.068449974,-0.758022010,0.866797984,-1.081140041,-3.754839897,0.774307013,-0.188145995,0.955321014,-0.149333999,-0.945520997,-1.403290033,0.514223993,0.099788800,0.663555026,-1.571529984,-1.486310005,1.284759998,0.589039028,-0.678605020,0.354364008,-1.063040018,-0.109351002,0.020927699,0.977069974,0.177199006,-0.289649010,0.064375997,1.145679951,-0.621686995,0.711730003,-2.130170107,-0.245456994,0.340766013,
-0.593734026,-0.926369011,0.144673005,-1.372979999,-1.190369964,-0.037035599,-0.312837005,-1.478459954,-0.979749978,-0.286823004,-3.335809946,-0.139484003,-0.656323016,-0.141579002,0.014528000,-1.387719989,-0.331162006,0.488792986,-1.527449965,-4.625480175,-0.162753999,-0.111671001,0.251264989,-0.342525989,0.346165001,0.175375000,-0.371515989,0.144115001,-0.556936026,-0.485531002,0.464926004,-0.472851008,-1.526819944,-0.049278699,-0.867299020,1.712350011,0.364679992,0.304652989,0.519701004,0.108289003,-0.200525999,0.389966011,0.128601998,-0.439576000,0.578988016,0.662267983,0.568527997,0.663287997,1.189280033,-0.691237986,
-0.199456006,-0.551678002,0.435665011,0.302762985,-0.157486007,0.746167004,-0.670647979,-0.149085999,-0.370404005,-0.505398989,-0.484167010,0.137576997,-0.301254004,-0.881991029,0.025772899,0.579038024,0.863174975,0.113485999,1.141389966,-0.352075994,-0.035653502,0.514424980,0.820607007,1.806589961,-0.985078990,0.427051991,0.442258000,-0.949164987,-0.296893001,0.204367995,-0.186646000,-0.103803001,-1.094490051,-0.124058001,-0.631402016,-1.246090055,-2.013159990,0.304340988,0.160965994,-0.125914007,-0.215687007,0.362291008,-1.553429961,0.024350001,0.453366011,0.017113900,0.438524991,0.045722101,-0.354880005,0.481299996,
-0.262546986,1.158660054,-1.291479945,2.758150101,1.291380048,1.029719949,-0.109940000,-0.309704006,0.812893987,-0.188718006,0.535350025,0.354079008,0.393721014,-0.193165004,0.040161099,-0.266952991,-0.267848998,0.266180992,-0.101796001,1.607010007,-0.008410950,-0.683067024,-0.317119986,-0.095241703,0.077593498,0.206653997,-0.152780995,-1.299579978,-0.827144980,-0.479602009,0.151427001,1.856500030,-1.865460038,-0.027980100,0.450091004,1.049890041,0.271564990,0.165815994,-0.100569002,-0.041174401,0.191402003,-0.445080012,-0.665042996,0.274309009,0.461014986,0.340600014,0.625966012,0.066875800,-0.273956001,0.125850007,
0.033652499,0.010957400,-0.038523201,0.006196590,-0.036169399,0.008166950,-0.009363280,-0.010102600,0.038595401,-0.016182801,0.027800901,-0.002519320,-0.019050600,-0.048627499,-0.019166799,-0.034345500,0.026208000,-0.056327298,-0.016272601,-0.026863500,-0.025531800,-0.013818100,-0.028678600,-0.018442400,0.000294322,-0.020409601,-0.050156798,0.028328700,-0.016763100,-0.008745600,0.020991100,-0.032619599,0.003359200,0.015334600,-0.026349600,-0.034632701,-0.044084199,-0.008958290,-0.014671100,-0.036757700,0.031163700,-0.037312001,-0.012321500,-0.023806199,-0.011929500,-0.045744698,-0.012104300,0.025241699,0.010167000,-0.049643699,
-1.792070031,-0.507095993,1.126870036,-0.158839002,-0.928659976,-0.158381000,-3.207910061,-0.078365996,-0.066494800,-0.171064004,-0.357807010,0.177902997,0.385322005,-0.074946404,0.010595400,-2.029419899,0.108677998,0.925650001,0.788627982,-4.526020050,-0.023893900,-0.055750601,-0.452315986,-0.140965000,2.035310030,0.290522993,-0.041360501,0.996735990,-2.844599962,-1.076480031,0.034499999,-0.949252009,-0.302899003,-0.052215900,0.806169987,0.140974000,-0.367924005,-0.464181989,-0.459365010,-0.387268007,-1.557459950,-0.145449996,0.225467995,0.120266996,0.033712700,1.544319987,-0.223629996,-0.111047000,0.499922991,-1.771679997,
-0.426283985,0.282810003,-0.218814000,1.165459991,-0.127434999,-0.196301997,-1.814229965,-0.389544010,0.015244000,-0.357497990,0.657235980,0.179042995,0.621134996,-0.507632971,-0.050712202,1.008489966,-0.133376002,0.445140988,-0.718527019,0.073641203,-0.100685999,0.450807989,0.089066297,0.315041006,-0.388377994,-0.111822002,0.202783003,-0.161851004,-0.309109002,-0.967238009,-0.308232993,-0.258765012,-1.352190018,-1.531780005,0.666221976,0.128772005,0.185169995,0.205158994,0.174558997,-3.791719913,-0.929428995,-0.621852994,-0.231067002,0.017285600,0.139149994,0.882408023,1.482609987,0.247240007,-0.079692297,0.678609014,
-1.678699970,1.205139995,-0.435048997,0.901345015,-0.769362986,0.160671994,0.900058985,-0.776165009,0.946775019,0.097326703,-0.197698995,0.541963995,0.356911987,0.080790699,0.021500699,1.560660005,0.512447000,-0.891498983,1.030490041,-0.356092006,-1.297819972,0.424677998,0.485659003,0.375479996,-0.393465012,0.854615986,-0.039637700,0.637937009,-0.300013989,0.587641001,0.085188001,0.357394993,-2.476639986,0.262008995,-0.970898986,0.109834000,-0.326187998,-1.041599989,0.394288987,-0.019122900,0.855127990,0.408264011,-0.151711002,0.106918998,0.837378979,0.910884023,0.982083023,-0.065708503,-0.504567027,1.581629992,
0.743705988,-1.609359980,0.724168003,-0.339832991,-0.054126699,0.393592000,-1.389369965,1.293540001,0.577687979,0.675920010,-0.421927989,0.386491001,-4.523489952,-2.707020044,0.051149301,-14.991000175,-0.220317006,-0.193693995,0.147475004,0.345968992,-0.367460012,-0.521171987,0.129111007,-0.024147701,0.153270006,-0.215020999,-0.482778013,-0.155259997,-1.371099949,-0.405054986,-3.451699972,0.108381003,-0.005980140,0.931006014,-1.862730026,1.539610028,-0.110119998,-1.561149955,0.093089901,0.564121008,-2.640640020,-4.883289814,0.523011982,0.238746002,-0.657389998,-1.034620047,0.482212007,-0.097640201,-1.148059964,0.064456098,
0.006802370,-0.167693004,-0.177336007,-0.145441994,-1.052569985,0.261700004,-1.360849977,0.363635004,0.584840000,-0.185490996,0.117178001,-0.172829002,-0.131354004,-0.503383994,0.044447601,-1.151450038,0.408807993,0.579232991,-0.657321990,-0.506265998,0.187757999,0.566977978,0.494356006,-0.018235900,0.207601994,0.202222005,0.007436790,0.281093001,-0.024168700,0.070878699,0.114101000,-0.013332300,0.563610971,-0.304540992,-0.038135100,0.332704008,-0.081874900,0.609488010,-0.051712200,0.666644990,-1.020290017,-0.970676005,0.170120001,-0.262580991,0.321456999,0.799866974,-0.129464999,0.147724003,0.258114994,-0.407882988,
-1.026360035,0.237543002,0.205164000,2.640229940,0.468239993,-0.318807989,0.103753999,0.247926995,-0.165288001,0.167208001,-0.138224006,0.246626005,-0.643799007,0.176440001,0.021887399,-1.167619944,-0.075916201,0.416725993,-0.225935996,1.138919950,0.022786999,-0.431506991,-0.101822004,-0.173079997,0.210806996,0.505915999,0.094010100,-0.573403001,0.245868996,0.427132010,0.814028978,0.245712996,0.086898401,-0.446413010,0.156363994,0.201270998,-0.362686992,0.244418994,0.011527700,-0.106192000,-1.137740016,-0.029673900,-0.431318015,-0.428364009,-0.262930006,0.069884501,0.491448998,-0.213532001,0.286558986,-0.173915997,
-0.064542398,-0.655762017,-0.402377009,1.549939990,0.141166002,0.306006998,-0.441312999,-0.413428992,0.189688995,0.086330898,-0.109451003,-0.191249996,-0.058093000,-0.639984012,0.019119799,0.745954990,-0.445275992,0.808642030,-0.444647014,-0.254123002,0.317146987,0.353172004,0.037508000,-0.077592596,-1.700680017,-0.118992001,-0.066481501,-0.515713990,0.089402899,-0.594603002,0.232152000,-0.572156012,0.829780996,0.330274999,-0.192355007,0.442600995,-0.904901981,-0.463901013,-0.337902993,-0.385179996,0.449503005,0.240073994,0.143259004,-0.305348009,0.386393994,-0.265709996,-0.171935007,-0.202281997,-1.266790032,-0.705672979,
-0.316051990,-0.450700015,-0.405586988,-1.471029997,0.467153013,1.003309965,-0.398212999,-0.099149004,0.412943989,-0.033137500,0.529183984,0.244896993,-0.539085984,0.882727027,-0.039016500,0.393813014,0.007469700,0.155203998,0.125735998,-0.831453979,-0.308351010,-0.370965987,0.580070019,0.345436990,0.069690600,-0.201453999,-0.362466007,0.313046992,-0.027469400,-0.343764007,-0.013778200,-2.043479919,0.500845015,-0.441655010,-0.275702000,-1.407410026,-0.375400007,0.077886701,-0.112118997,0.036980599,-0.336899012,0.822740972,-0.046190500,0.436482012,0.175540999,-0.229666993,0.200077996,-0.442355990,-0.109213002,0.358379006,
2.765350103,-1.866940022,1.005270004,0.690882027,0.985925972,-0.063793398,-1.896520019,-0.581690013,-0.356321007,-0.301732004,-1.228659987,0.819298029,-0.449227989,0.023774000,-0.043995600,-0.475394011,0.146828994,0.191365004,-0.517648995,1.624220014,-1.048439980,-1.224210024,0.037212200,-0.230450004,-2.259550095,-0.789358020,-0.012332500,0.683457017,0.434145987,-0.322605997,0.168249995,1.115520000,-2.232480049,-0.207782999,-0.302118987,1.040380001,0.155550003,-0.011202500,-0.103720002,-0.264239997,0.242921993,-0.311033010,-0.121284001,-0.383120000,-0.945985973,-0.226952001,1.011839986,-0.411163002,0.329674006,-1.399080038,
-2.556449890,-0.946532011,-0.068045199,1.155750036,-1.277850032,0.239197999,-1.362959981,0.122271001,-0.702571988,0.147604004,-0.081028298,0.084274396,-2.961940050,-0.097372100,0.043265302,-0.205237001,0.565074027,0.469327003,-0.452452004,0.478738010,0.835785985,-1.499300003,-0.810531974,0.622446001,-0.318049997,-0.225207999,-0.210011005,0.251756012,0.038950801,0.720718980,-0.520699024,-0.190989003,-0.856589019,-0.765474021,-0.629401028,-0.422661990,0.588838995,-2.708039999,0.336495012,-0.941322982,0.419730008,-0.066044301,-0.543359995,-2.028719902,-0.234086007,0.812169015,-0.601604998,-0.933550000,-0.061446398,-4.183350086,
-1.544870019,0.915060997,-0.527342021,1.781739950,-0.376320988,1.288310051,-1.128690004,0.624433994,-0.237813994,-0.130766004,-0.315946996,0.221467003,-3.892810106,1.839959979,0.041072000,-3.143749952,1.034960032,1.263839960,0.628257990,2.345870018,1.433979988,-1.542520046,-0.755026996,0.654971004,-1.664829969,-1.709329963,-0.930996001,-2.270869970,-1.548470020,-0.330641001,-0.036923200,2.027729988,-3.686939955,-0.459149987,1.085229993,-0.460765988,-0.070743904,-2.795140028,0.177843004,-0.910286009,0.228669003,-0.873875022,-0.895905972,2.540649891,-1.812440038,-0.660912991,1.654389977,-0.760724008,0.431677014,-1.131620049,
0.286689997,0.248528004,0.563175023,0.155704007,0.466776013,-0.182566002,0.127083004,-0.056350999,0.166482002,-0.150307998,-0.140345007,-0.097420700,-0.313883007,0.664803028,0.033631299,-0.346101999,0.585756004,0.036820099,0.468730003,-0.054596301,-0.131216004,0.241525993,0.411523014,-0.461831987,0.118008003,-0.031179000,0.268875986,-0.035642002,-0.552057981,0.064072400,0.316500992,-0.335503995,-0.387046993,-0.078625500,0.061504502,-0.397033006,0.921567976,0.027390800,0.374271989,0.134932995,0.047334101,0.374846011,0.040754098,0.335101992,0.077138200,0.126175001,0.088009998,-0.191532001,-0.242392004,0.477438986,
-0.494884998,0.983485997,-1.011309981,-0.568238020,-0.363640994,0.960213006,0.120816000,0.822116017,-0.003435180,0.425016999,0.622309029,0.592185020,0.976186991,-0.675082028,0.010839200,0.911522985,1.373610020,0.230472997,1.616760015,-1.148470044,1.015400052,0.651444972,0.621415019,-0.645467997,-0.089015797,-0.082369603,0.687636971,-0.004459060,-0.069126099,0.661216021,0.276939005,0.365750998,-0.134280995,-0.550783992,1.464030027,1.862789989,-0.120696001,0.557556987,-0.906037986,-0.430317998,0.035318900,-0.410284996,-0.699850023,0.899369001,-1.185500026,0.210635006,1.485319972,0.603273988,-0.037149001,0.308064997,
0.487940013,-2.255569935,0.832006991,-2.592000008,0.845146000,-0.201957002,0.831414998,0.136138007,-0.049013998,0.068815701,-0.270038992,2.033440113,0.163369998,-0.473910987,-0.019691100,0.296119988,-2.062350035,-1.134809971,0.379868001,-0.179105997,-1.265779972,0.487940013,0.523370981,-0.035742499,1.425050020,0.206707999,0.583613992,-1.442939997,1.614210010,0.610809982,0.549637973,-0.999476016,0.180329993,-0.700704992,1.296300054,-0.997932017,0.484167993,-0.143715993,-0.104796000,0.672128975,0.666617990,0.180429995,-0.482901990,-0.227237999,0.206220001,-0.520847976,-0.716802001,-0.730969012,2.002059937,0.133194998,
-0.114435002,0.363763988,0.020183800,-0.650707006,-0.568309009,0.001987160,0.139024004,-0.021309700,0.347586989,-0.206266001,-0.033469900,0.353347003,-0.118922003,0.281567007,0.026389999,-0.366409987,0.383527994,-0.033135500,-0.154466003,-0.221995994,0.270788014,-0.249607995,0.245157003,-0.188309997,0.665271997,0.534121990,0.015354200,-0.304161012,-0.400880992,0.240756005,0.169706002,-0.644617021,0.378870994,0.217265993,-0.305121005,-0.317072988,-0.421584010,0.072140098,-0.188251004,0.257075995,-0.026436800,-0.219485998,-0.020401699,-0.455374002,-0.134774998,-0.224282995,0.200329006,0.004046330,-0.306845993,-0.188088998,
0.504948020,-0.274475992,0.468932003,-1.670040011,0.820212007,-0.488752991,0.440302998,0.497891992,0.319792986,0.259146005,-0.628623009,-1.072229981,-0.203305006,0.520497978,0.031196199,0.502632976,-0.469814003,0.283733010,-0.687840998,-1.164430022,0.175616995,-0.956049025,0.415627986,-0.010417000,0.243451998,0.092824303,-1.010810018,-0.837616980,-0.986129999,-0.187938005,0.660835981,0.453543991,0.185919002,0.543624997,0.102902003,0.614612997,-0.673376024,0.482405990,0.482208997,-1.221860051,-0.156178996,-0.554252982,0.131874993,0.183909997,0.272192001,-0.332549989,1.189579964,0.239539996,-0.266618997,0.598232985,
-0.543109000,0.228910998,-0.196980000,-1.230149984,-3.549020052,-0.522965014,-0.210662007,-0.221157998,-1.258679986,-0.160381004,-1.299520016,-0.121735997,-0.211963996,-0.259885997,0.016300799,0.553777993,-1.702340007,0.320618004,0.665575981,0.273654014,-0.236468002,0.523366988,-0.227662995,-0.095587403,0.059898101,0.382660002,1.256860018,0.498995006,-0.191321999,-0.025220601,1.466719985,0.170866996,-1.680160046,0.152584001,-0.733596027,-0.576893985,0.185092002,0.097185999,-0.629936993,-0.616725981,1.017950058,0.689745009,0.075133502,0.950932026,-0.251922995,-0.409208000,0.282485008,0.129720002,0.034395199,-0.247030005,
-0.263087004,-1.232859969,-0.071926102,-0.091397099,-1.268859982,-0.326350003,-2.584259987,0.033224199,0.714456022,0.737939000,0.315587014,-0.212562993,0.254307985,-0.381401986,0.000901240,-3.790499926,1.263380051,0.879104018,-1.044530034,0.304650992,-0.976656020,-1.499340057,0.784362018,0.017358700,1.366870046,-1.513530016,-0.066083498,0.473850995,-1.003600001,-0.444557995,-1.304219961,-1.333789945,0.053523298,-0.780682981,1.405169964,0.612465024,-0.227074996,0.388830990,0.577350974,0.438950986,0.441668987,-1.265939951,0.194936007,0.576153994,0.378363997,0.034630299,-0.721588016,0.178928003,0.515366018,-6.746019840,
-0.229770005,0.043522298,0.154347003,0.211687997,1.087520003,-0.051004101,-0.588074982,0.275932014,-0.141579002,-0.024627900,-0.277410001,-0.130367994,-0.364060014,0.168651000,-0.004928850,-0.518666029,-0.041282501,0.123934001,0.004797770,-0.212015003,0.013259200,-0.066701300,-0.131413996,0.144585997,-0.073804498,0.255759001,-0.069035202,0.108897999,-0.194525003,0.431650013,0.060747098,-0.442081004,0.288017988,-0.339024007,0.179344997,-0.429237992,0.364174992,0.899083972,-0.260870993,0.359284014,-0.844136000,-0.222877994,0.230478004,0.542643011,0.156277999,-0.346143007,-0.151807994,-0.099420004,0.347433001,-0.054558899,
-0.239929006,-0.133142993,0.583209991,-0.910412014,0.313383996,0.121889003,0.436172992,-0.185624003,-0.211753994,-0.830540001,-1.137140036,0.245212004,-0.119864002,-0.242730007,-0.041411102,0.061594900,0.789179981,-0.187181994,0.805683970,-0.206113994,0.338606000,-0.392859012,0.411973000,1.375540018,0.280553013,-0.008446380,0.233980998,-0.795068979,-0.038317699,0.225031003,-0.404763013,0.115456000,-1.947000027,-0.092889696,-0.311091006,-0.034454100,-1.738690019,0.337347001,0.364472985,-0.053961400,-0.604632974,0.268521011,-1.172670007,0.055687599,0.342770994,0.351016015,0.163819000,0.169865996,0.252680987,-0.281589001,
-0.781304002,-0.691605985,0.370671988,-1.336159945,1.077640057,0.260360003,-0.934614003,0.068983801,-0.908061028,-0.287523001,0.141655996,-3.828619957,-0.338010013,-1.121670008,0.039799899,0.969814003,-0.101411998,-0.406493992,-0.048248898,0.148644999,-0.039256301,-0.041890100,1.072989941,0.066335298,-0.613228023,-0.033106498,0.713388979,0.003324560,-0.300529987,-0.101072997,-0.371740997,-0.197987005,-0.269798011,-0.257629991,-0.417095989,-0.973147988,0.042381801,0.013276300,0.159509003,-0.201956004,0.110890001,0.817716002,-0.119842000,0.074180499,0.648970008,-0.526373029,-0.354945004,-0.006500240,-0.376435012,-0.119571999,
0.121200003,-0.388453007,-0.163944006,0.300031006,-0.227347001,-0.236145005,0.145042002,-0.194613993,0.030529400,-0.814711988,0.152096003,0.243823007,0.429459006,0.055985302,0.027694400,-0.382144004,-0.362670988,0.567689002,0.444460988,0.641613007,0.053077001,-0.218946993,0.611754000,-0.193393007,0.004199420,0.408789992,-0.041793000,-0.005610640,-0.966428995,0.242402002,0.019822000,0.120448999,-1.097129941,0.418608993,-0.337359995,-0.273534000,0.405297011,0.202544004,0.478841990,0.097201698,-0.068140000,-0.409714013,-0.161201999,0.054842599,0.150179997,-0.207114995,-0.031941202,-0.048928998,-0.029859699,-0.323350012,
0.167246997,1.425590038,-0.933489025,0.448208988,-0.104934998,0.545653999,-0.614687026,-0.524074018,0.290316999,-0.022002000,0.161305994,0.065592803,0.792016983,1.466650009,-0.020742400,-1.272930026,-0.181319997,-0.069254100,-0.475551009,-1.671079993,0.354353994,0.022647699,-0.026331900,0.327259004,-0.268350005,0.359892994,0.167951003,0.426367998,0.607632995,0.201958001,-1.600100040,-1.028210044,0.257488996,-0.439678013,2.094759941,0.346352011,-0.885955989,0.567480028,-0.143455997,0.139392003,-0.743896008,-1.172799945,0.093625598,0.038802501,0.183161005,0.609063983,0.033904001,0.456611991,-0.139128000,-1.667209983,
-1.009039998,0.765388012,2.348999977,-2.632849932,0.579730988,0.563069999,1.879070044,-0.958666980,-0.321220011,-0.568161011,0.467693001,0.426230013,0.205192998,-0.926737010,-0.038819902,-2.488630056,0.697553992,-0.069768503,-0.680391014,-1.700049996,-0.905130982,-2.836040020,0.257533014,0.384918988,0.171437994,0.030856799,-0.828437984,-0.026562599,-2.232429981,0.045627698,0.071770698,0.244644001,-3.016020060,-0.150253996,1.385879993,2.337440014,-0.163438007,-0.186045006,-0.027963201,-0.880243003,-2.634809971,0.568114996,-0.701830983,-1.951230049,-0.668367982,0.739045024,-2.369309902,-1.063210011,1.580240011,0.581475019,
1.000360012,0.504437029,-0.114012003,-1.629299998,-1.825850010,0.278039992,-2.797039986,-0.642488003,-0.913378000,0.230976000,-0.624692023,-0.674436986,0.214560002,-0.423436999,0.019841300,0.090997398,0.259570986,0.181143999,0.218558997,-0.276993006,-0.182665005,0.337375998,-0.098075204,-0.063945197,-0.127734005,0.134011999,-1.945819974,2.455810070,-0.051992800,0.029973401,-0.220024005,0.222624004,0.069024697,-0.823562980,0.110554002,0.482097000,0.063112199,-0.118770003,-1.216240048,0.960025012,0.028176200,-0.010426200,-0.182591006,1.068310022,-2.068959951,-0.448042005,-0.077050596,0.828590989,1.889310002,-0.619343996,
-0.563084006,0.490462989,-0.578481019,-1.029809952,-1.190739989,-0.278351992,0.758404016,0.033211801,0.260138988,0.053448901,0.352420002,0.011445200,-0.567573011,-0.206663996,-0.003482470,0.173596993,-1.157080054,-0.082010098,0.712656975,0.128443003,0.187592000,1.289379954,0.894021988,0.076237001,-1.239899993,0.335022002,0.275725007,-0.708423972,-1.001729965,0.109096996,0.256253988,-1.741860032,-1.775239944,-0.325181007,0.373452991,0.419593006,0.118206002,-0.420518994,0.389012992,-2.112620115,0.907887995,-0.577834010,-0.149876997,0.199765995,0.860095978,0.538560987,-0.746571004,0.577477992,-0.816263020,0.631726027,
0.879148006,-1.303920031,-0.346527010,-0.073339202,1.934550047,-0.001592160,1.316990018,-1.059170008,0.042604901,0.347337991,1.464020014,-2.896689892,-1.181990027,-3.262150049,0.030553499,-1.729850054,-0.766712010,-0.931827009,-0.989461005,-0.656076014,-0.330891013,-1.455139995,0.695940971,-1.348209977,-0.950929999,-1.396860003,-0.361543000,0.508257985,-0.295500010,-0.048618700,0.117046997,-1.565019965,0.678228021,-0.754244030,0.398234010,-3.574340105,0.061803799,-1.822960019,0.354259014,0.344875008,-2.832730055,-0.592221022,-1.205839992,-2.183000088,0.857850015,-0.184316993,1.538010001,-0.357888997,0.222670004,0.020476600,
0.673762023,0.951502979,-1.287050009,-3.918610096,-0.253338993,-0.067541704,-2.118249893,-0.561836004,0.005055840,-0.108336002,-0.308901012,-1.798789978,1.238340020,0.604088008,-0.038635299,-0.477880001,-0.121739000,-0.693674982,-0.869193017,-2.802279949,1.188339949,0.781400025,-0.303225011,0.272179991,0.605383992,0.102025002,-2.294409990,1.118790030,-0.432682991,0.674691975,0.266368985,0.462478995,-0.734512985,-0.144317001,0.363925993,0.137767002,0.140948996,0.519786000,-0.755414009,0.868511021,0.444384009,0.030048400,0.412459999,0.674400985,0.682397008,0.806931973,0.907106996,-0.089576602,-1.521450043,-0.736647010,
-0.024025600,-0.043325499,-0.015960900,-0.035391700,-0.024466000,-0.008904600,-0.028796500,0.008286370,-0.043702800,0.038183998,0.035938699,-0.038270701,-0.048442800,0.019025899,-0.036027499,-0.031506099,0.012467900,0.017069601,-0.029391900,0.021703601,-0.015253900,-0.034195501,-0.037774600,-0.048935801,-0.034961399,-0.050813802,-0.046935901,-0.039365798,-0.025384700,0.022357499,-0.000088250,0.045962401,0.001930310,-0.025093799,-0.031784099,-0.040237300,-0.046608999,-0.029838100,-0.006216110,0.028860999,-0.048860099,0.026358200,-0.018188801,-0.029385600,0.023243500,0.003618140,0.009040630,-0.034104999,-0.004928280,0.024410799,
-0.033126999,0.355930001,-0.002547980,-3.334909916,-0.852554977,-0.898743987,-0.459282994,-0.118225001,0.072137900,0.399991006,0.618938982,0.184285998,0.091084898,-1.523059964,-0.023329400,0.692894995,-0.328390986,-0.176693007,-3.351289988,1.719320059,-0.260149986,-1.204970002,0.550145984,0.249479994,1.008730054,-0.100474000,1.028730035,-0.073401198,-0.331420004,-0.341594994,-0.494049013,-0.374128997,-0.272193015,-0.499154001,1.108979940,-0.414653987,0.284379005,0.562184989,-1.210330009,0.346740007,0.018266300,0.367262989,1.427199960,1.128880024,-1.267379999,-1.989699960,-0.593123019,-0.328767002,-1.422359943,2.298310041,
-0.039200202,0.003309610,0.022693601,-0.005740350,-0.012339400,0.008802240,-0.030061999,-0.032442302,0.029205900,-0.051365599,-0.056946401,-0.018904001,0.002261400,-0.018705601,0.042512398,0.002205040,-0.020414900,0.012760900,-0.061013401,0.015383800,-0.024360500,0.012044600,-0.055895802,-0.055456899,0.036673501,0.028072599,-0.015226200,0.040999699,0.041542400,-0.051211700,-0.023715001,-0.005324890,0.003357490,0.016456200,0.040567901,-0.004847620,-0.026557600,-0.022875199,-0.033668000,-0.021126300,0.023004901,-0.027064700,-0.002584020,-0.015975000,0.032843299,-0.048894700,-0.048216600,0.021539001,-0.068917803,-0.034230500,
-0.808970988,-1.684739947,-0.703992009,-0.552559972,-2.017240047,0.359021008,-2.240230083,0.085966401,-0.332201004,-0.011651300,0.382362008,1.281730056,-1.476650000,-0.791087985,0.023883300,-1.319270015,0.692121983,-0.148302004,-1.212900043,-0.378089011,-0.033204500,-0.059755500,0.749547005,-0.124605000,-0.051915798,0.213506997,0.389838010,0.247163996,1.372059941,0.356014013,-1.412660003,-0.327033997,2.542989969,-1.406350017,1.621850014,0.138145998,0.589074016,0.788398027,-0.346906006,2.210410118,-2.299200058,-1.408759952,-0.258996010,-0.708925009,-0.403441995,0.295291007,-1.442829967,-0.814831018,1.099329948,1.806069970,
-4.289649963,0.568960011,-2.189320087,-0.576341987,0.033351898,-1.552800059,-0.468115002,-2.327650070,-1.947540045,-0.874688983,0.430855006,-0.245140001,3.018310070,-1.069100022,0.039768700,-1.848279953,0.882938981,-0.489493012,-3.576030016,0.426618010,-0.691780984,-3.571449995,0.219696999,-0.283116013,-1.969560027,-1.004920006,0.240458995,-0.178889006,-2.489729881,-2.559890032,-2.011149883,2.181910038,-1.826689959,-1.573099971,-7.387020111,0.416337013,-0.285887003,0.315755993,1.833719969,-1.610239983,-0.963088989,-0.304430991,0.971839011,-1.577250004,0.171564996,-0.891210020,0.580556989,0.295044988,-1.584740043,0.013672000,
2.065170050,0.081345104,-1.532269955,-1.007060051,0.579988003,1.033959985,0.518819988,-0.119217999,-4.313469887,-0.913505971,0.684922993,-4.846829891,2.018130064,1.332829952,-0.035108998,-2.338249922,-1.190770030,0.136478007,-0.885246992,1.103369951,-1.405230045,-0.730085015,-0.158160001,-1.047930002,0.146807998,-0.356377989,-1.472399950,-1.465989947,-0.024990199,1.175819993,0.113847002,2.123769999,1.056730032,-0.244030997,-0.317452997,2.738260031,0.535556972,-0.844141006,-0.356213003,0.143598005,0.030571099,0.498508990,-0.211948007,-1.343090057,-0.590653002,0.123544000,-0.842545986,0.124885999,1.356140018,0.213429004,
1.177449942,-0.001542180,0.661009014,-5.893070221,-1.487540007,-0.733879983,-4.966400146,-0.301090986,1.243049979,-2.399329901,-0.713869989,0.304471999,0.407467991,-1.627159953,-0.011627000,-2.296829939,0.253713995,0.334776998,0.903636992,-3.813750029,0.179177001,-1.082309961,-0.011521600,1.218770027,-0.128505006,0.064136498,-0.260102987,-1.801579952,-0.633469999,-0.390778005,-0.928328991,-0.241819993,-1.444720030,-1.483100057,0.396144003,-0.227317005,0.208794996,0.588554978,0.275680006,-6.519569874,-1.726699948,-0.156090006,-1.129539967,-1.915670037,0.041228201,-0.896767974,2.042500019,0.688811004,-1.623630047,-2.379479885,
0.009199130,-0.041680999,-0.376336992,-0.368241996,0.349907011,-0.207479998,-0.248273000,-0.091898300,-0.159185007,-0.086408697,0.432947010,0.208462000,-0.431237996,-0.130934998,-0.009072080,-0.606301010,-0.108497001,-0.003703720,-0.324701995,0.450522006,-0.708621025,0.126470000,-0.116167001,0.033794299,-0.159657001,0.044199198,-0.233678997,-0.120126002,0.251450986,-0.027221100,-0.087955400,0.541301012,-0.155702993,0.107395001,0.311066002,-0.250104994,0.079782002,0.340321988,0.301858991,0.455884010,-0.188374996,0.016809100,-0.005155810,0.142743006,0.176324993,0.315082997,0.136262998,-0.021081399,0.068770997,-0.177493006,
-1.938359976,0.109668002,0.709753990,-2.362430096,-0.039734598,-0.556796014,0.568157017,-0.658316016,-1.068989992,-0.084542103,0.051489498,-1.283360004,-0.799558997,-0.378151000,0.024106000,-0.639138997,0.929382026,1.880290031,0.195234001,-1.255929947,0.354606986,-0.141843006,-0.051615801,0.047285601,0.002528550,-0.388375014,0.526127994,0.148107007,-0.678017020,-0.114950001,-0.090927802,-0.379424989,-0.561761975,0.949199021,0.212752998,-0.607670009,-0.384768009,0.058699802,0.376255006,-1.852079988,1.047919989,0.019593799,0.240735993,-0.049356300,0.150106996,0.661960006,-0.126092002,0.062683798,-0.934121013,-0.379343987,
1.681820035,0.551886976,1.030969977,0.061966699,2.227499962,0.119804002,1.040799975,-0.139794007,-0.063594997,-0.337958992,-0.653793991,-0.471949995,0.959497988,1.117540002,0.041016500,0.153654993,-0.275611013,-0.671176016,0.781648993,0.186177999,0.432828009,0.344711006,-0.052131601,0.029286999,0.259247005,-0.085944399,0.351336002,-0.299694002,-0.525729001,0.152431995,0.623386025,-0.563162029,-1.413699985,0.547250986,-0.435701013,-0.379824996,-0.219433993,-0.316987991,0.393335998,-0.528467000,1.218870044,1.233819962,0.014170600,1.016939998,0.815890014,-0.923711002,0.432047993,0.269077986,0.245315999,0.867124975,
0.499080002,-1.150159955,1.176100016,-0.276300997,-0.046242300,0.851553023,-0.397803009,0.291327000,-0.453532010,-0.218202993,0.824684024,0.050686300,0.540728986,-0.527399004,-0.019597899,0.281181008,0.350594014,0.058430102,0.475145012,-0.621033013,-0.281531990,-0.926382005,0.831189990,-0.369075000,0.222949997,-0.213787004,0.002124650,-1.002660036,-0.521795988,-0.182756007,0.570340991,0.917218983,-0.549407005,-0.003597230,0.186087996,1.908349991,0.284835994,-0.102701999,0.220789999,0.193283007,-0.251852006,-0.054212201,-0.310113013,-1.337219954,0.457174987,-0.334715009,0.686031997,0.267468989,-1.197770000,-0.141674995,
-0.578136981,0.063254997,-0.543949008,0.580814004,0.644653976,-0.052503400,0.699733973,0.213338003,0.645793021,0.250824988,-0.836282015,-0.506452978,0.116768003,-0.164438993,-0.014508900,-0.951380014,0.431225002,0.163451001,-0.277011007,-0.892889977,0.266357988,-0.723519027,0.774716973,0.218618006,0.182501003,-0.181712002,0.115129001,0.232747003,-0.625172973,0.228184000,0.103139997,0.376504004,0.290845007,0.555812001,-0.137085006,0.528370023,0.507493019,0.129026994,0.135085002,-0.187889993,0.855702996,0.256347001,-0.161331996,0.235508993,0.495745987,-0.169429004,0.425758004,0.051027700,-0.572924972,0.936441004,
0.681320012,0.213315994,0.302138001,0.282981008,0.279222995,-0.378057003,0.237826005,-0.448146999,-0.232622996,0.133656994,-0.027350301,-0.573741019,0.033513900,-0.244140998,-0.019190701,0.394268990,0.556473970,0.024795201,-0.029288599,1.098160028,-0.281911999,-0.675023973,0.042329699,0.172875002,-0.180896997,0.171994001,0.136571005,0.056376901,0.156535000,-0.741423011,-0.294423997,-0.526435018,0.260210991,-0.142233998,-0.120232999,0.056183498,0.078580499,-0.432581991,0.084147602,-0.055238601,-0.006647870,0.038998701,-0.368108988,0.577237010,0.237377003,-0.031146800,0.115994997,0.268020988,-0.674314022,-0.046843700,
-0.439242989,
-1.378000021,
-0.217507005,
