// Neural Network File Format by Kyle Julian, Stanford 2016
8,5,5,50,
5,5,50,50,50,50,50,50,5,
0,
-3.4028235e+38,-3.4028235e+38,-3.4028235e+38,-3.4028235e+38,-3.4028235e+38,
3.4028235e+38,3.4028235e+38,3.4028235e+38,3.4028235e+38,3.4028235e+38,
0.0,0.0,0.0,0.0,0.0,0.0,
1.0,1.0,1.0,1.0,1.0,1.0,
1.000000000,0.000000000,0.000000000,0.000000000,0.000000000,
0.000000000,1.000000000,0.000000000,0.000000000,0.000000000,
0.000000000,0.000000000,1.000000000,0.000000000,0.000000000,
0.000000000,0.000000000,0.000000000,1.000000000,0.000000000,
0.000000000,0.000000000,0.000000000,0.000000000,1.000000000,
-0.000000000,
-0.000000000,
-0.000000000,
-0.000000000,
-0.000000000,
0.026421200,0.248955995,-0.217518002,-0.358911991,-0.516274989,
-0.187964007,0.356844991,-0.166767001,-1.668220043,0.379045010,
-0.116806000,0.108638003,0.886794984,-0.070177302,0.034220502,
0.006755550,-0.162571996,-0.148990005,-0.115670003,-0.003111820,
0.020849600,0.863897026,-0.897889018,0.081559598,0.088533200,
-0.011179100,-0.911620021,-1.021720052,0.549642026,0.025051000,
-0.017223800,0.581306994,0.008702090,-0.109805003,-1.309509993,
0.078720599,-1.805369973,2.531719923,0.146200001,-0.041323699,
0.828346014,0.206653997,-0.006660920,0.017209601,0.044038199,
-0.001990260,0.193412006,-0.200727999,0.620858014,0.431997001,
-0.086071797,-0.389187008,0.184937000,-0.014910400,-1.457119942,
0.097468004,-2.104039907,0.017380901,0.163645998,-0.402992010,
0.214759007,-0.038747299,-0.121982001,0.624643028,-0.648814023,
-0.400038004,0.007498430,0.126720995,-0.224228993,-0.020347100,
0.011898400,-0.095867500,-0.652354002,-0.524524987,0.364403009,
-0.044808298,0.136113003,0.022769401,-0.196361005,0.011219200,
-1.312860012,0.361045986,-0.383742005,0.006740750,-0.229119003,
-0.252707988,0.019836299,0.012999000,0.204115003,0.373840004,
0.039223701,0.072980799,0.157530993,-0.547833025,-1.612820029,
0.013068100,2.468349934,0.035148099,-0.109428003,0.366701007,
-2.599539995,0.015696401,0.028239399,0.021551101,-0.014581100,
0.100126997,1.297140002,1.055529952,1.078009963,-0.392102987,
-0.505738020,-0.045809999,0.064758003,0.021638701,0.119498000,
-0.003044430,0.005283940,-2.400249958,0.023109101,-0.005297530,
0.689117014,-0.764892995,-0.001144130,-0.031459998,-0.058648001,
0.028670600,0.015493700,0.582709014,0.901341021,-0.937932014,
0.054423001,1.201789975,-1.126999974,0.190658003,-0.139768004,
0.012100100,-0.005083590,0.000851810,0.004000420,-0.000538780,
-0.043360699,0.059499700,0.508544981,-0.374834001,0.363398999,
0.847738981,-0.030045500,-0.000962746,0.024545399,-0.098778702,
0.068176903,0.570347011,0.288760990,0.002901650,-0.028214701,
-0.001551220,0.258269995,-0.234659001,0.291242003,-1.532580018,
-0.000122178,0.000250639,-0.011230700,0.000506912,-0.001296320,
0.016562700,-2.417360067,0.010659100,0.084644102,0.688889980,
-0.027818499,0.174071997,-0.229277000,0.889104009,-1.273650050,
-0.607545972,-0.078672200,0.020238200,-0.199892998,0.218896002,
-0.420774996,0.138867006,-0.044770300,-0.008293860,0.147494003,
0.051009201,-0.040941000,1.915410042,0.251450986,-0.088512301,
0.069756404,-0.813705981,0.805168986,-0.715807974,0.719996989,
-0.849425018,-0.085565403,0.054754298,-0.137226000,-0.044632100,
-0.803991973,-0.035819001,0.005887290,0.143674001,-0.135847002,
-0.000389287,-0.000369793,-0.001362660,0.025188301,0.008828390,
-0.043138001,0.662147999,0.271416992,-0.262858003,0.411846995,
0.024051800,-0.915234029,-0.156694993,0.389270008,-0.496439993,
-0.022567200,0.236315995,-0.260277987,-1.201349974,-0.393025011,
-1.128370047,0.173271999,0.001354510,0.052774999,-0.104566999,
0.005111240,0.561882973,-0.498106986,-0.078462400,0.141944006,
-0.050590001,-0.304592997,0.139341995,-1.224370003,-0.513635993,
0.006761320,0.050908100,-0.044863399,0.336829007,-0.123745002,
0.107437000,1.035930037,-0.981854975,-0.023458701,0.100666001,
-0.015844099,
-0.442505985,
0.069553502,
0.012554600,
-0.324140012,
-0.187266007,
-0.281405985,
-0.525668979,
-0.221081004,
0.205379993,
-0.332756013,
-0.184816003,
0.134469002,
-0.001030630,
0.199000999,
0.117709003,
-0.282907993,
0.125049993,
-0.728613019,
0.268207014,
-0.442799002,
0.097300597,
-0.068877600,
0.089545399,
-0.278212011,
0.073533997,
-0.336775005,
-0.013611100,
0.037762702,
0.292629987,
0.115786999,
0.374489993,
-0.010423900,
0.369904011,
0.683852017,
-0.119292997,
-0.045373902,
0.094742298,
0.214926004,
-0.130875006,
-0.152426004,
-0.018075600,
0.091027103,
0.037993800,
-0.282770991,
-0.044629000,
0.283008009,
-0.489008009,
0.131853998,
0.001334810,
0.734057009,0.267639011,0.252328992,0.321161985,0.203612000,0.028332399,1.208909988,-0.085739002,-0.645631015,0.040671900,1.017699957,1.287279963,0.315858990,-0.901826024,-0.114735998,-1.524230003,1.188009977,-2.804080009,0.437191993,-6.109129906,-0.892471015,-0.121235996,-4.096650124,-0.313152999,1.299309969,-0.123530000,-0.124765001,0.016717000,-0.468867987,-0.668946028,-1.935680032,0.714836001,0.024843501,-0.954437971,0.329308003,0.816204011,0.751987994,0.455879986,-0.265401006,0.600950003,0.510869980,0.011913500,-1.109799981,0.371654004,0.236512005,-0.970777988,-1.519150019,0.983393013,-0.430974007,0.174501002,
1.508309960,0.971207976,0.463939011,0.269926995,-1.170899987,-0.027219400,-1.325199962,-2.094939947,-0.294997007,-0.396003991,0.427565008,-0.070259802,-0.030708600,1.164790034,0.152886003,0.304903001,-1.558539987,-0.598257005,-1.020550013,-0.481615007,0.519858003,-0.163841993,0.206431001,0.252694011,0.451876998,-0.748750985,-1.989760041,-0.029138200,0.660238028,-0.164330006,0.918467999,-1.652760029,-0.026659200,0.360242993,0.053183202,0.655130029,-0.291712999,-0.421609998,0.251911998,1.157279968,0.193246007,0.023494700,-0.524648011,0.467745990,1.142979980,-0.538151026,0.452973008,1.030079961,0.440822005,-0.063346997,
0.160154998,-0.238510996,0.729864001,-0.189414993,0.448520988,0.253481001,0.980325997,-0.285174012,-1.833070040,0.368247002,0.917531013,-0.443434000,0.160549998,0.561631024,0.174009994,-0.243881002,-0.659350991,-2.104480028,2.312239885,0.174943998,0.470676988,0.151907995,-1.763229966,0.242091998,-4.081570148,-0.837203979,0.343149990,-0.035726599,0.659758985,-1.235659957,-0.531584978,0.247474000,-0.027245900,-0.698441029,-0.259950012,-0.759337008,-0.838690996,-0.301503003,-0.465671003,-0.620823979,-0.832656980,-0.009251510,-0.646849990,-0.571703017,0.218222007,-0.026649401,-0.304022998,0.921869993,0.026599299,-0.343192995,
0.018160000,-0.011088300,0.010547300,0.033320598,-0.033517599,0.016489699,0.009797660,-0.029966200,-0.047152299,-0.055874899,-0.005674600,0.025900001,-0.032085001,-0.006226950,0.028826199,-0.050769199,-0.005131940,-0.038404901,-0.018455300,-0.022779999,-0.009549740,-0.046326902,-0.011805700,-0.048329301,-0.043464001,-0.009820140,0.003854130,-0.002845500,-0.036776301,-0.019044500,-0.033057600,0.044070698,-0.031430900,0.017037701,-0.043817300,0.020484401,0.034160800,-0.042596001,-0.009234250,0.019187400,-0.028049700,-0.026563199,0.005851470,-0.050245401,-0.049572501,-0.042129200,0.003270170,-0.016157901,-0.000836231,0.042398099,
-0.412061006,0.858497977,-0.273324996,-1.242830038,0.007890790,-1.769039989,-0.911666989,3.036269903,0.288246989,-0.377204001,0.767265022,0.575469971,0.877937973,-1.020539999,-2.162790060,-2.054729939,8.015819550,0.591443002,0.228502005,-1.270300031,-0.102842003,-1.048390031,-0.202340007,-7.462369919,-0.023778800,-1.416509986,0.033684202,-0.047274102,0.011088800,-0.583442986,-1.565860033,0.462024987,0.019149501,0.478406012,0.453916013,-0.098370999,-1.685840011,0.546455979,0.566377997,-0.448327988,-1.467249990,-0.022123801,-0.754005015,-0.044195700,-1.200049996,0.251349986,-3.085030079,-0.331454992,1.266389966,-0.120448999,
0.949769974,0.682501018,-0.403127998,0.438609004,-2.266360044,1.349239945,-0.222329006,-0.581629992,-0.258947015,0.886599004,0.190983996,-0.799763978,-0.422618002,0.338259012,0.282169014,-0.485020012,0.720709026,1.004860044,-2.278049946,-0.179550007,0.194766998,0.226382002,1.522809982,-0.027296700,0.601813018,-0.432776988,-1.325600028,-0.009119500,0.358994991,0.555748999,-0.335557997,-0.807470977,-0.008088210,-0.179038003,-0.010759000,0.868152976,0.426331013,-0.211500004,-0.436857015,-0.463734001,-1.228860021,0.003695630,0.370604008,0.208241999,0.257535994,0.032235499,-0.617043972,0.639419973,0.229994997,-1.117689967,
0.836767972,0.707274020,-0.449153006,-0.356505990,-0.652332008,-1.373260021,1.129500031,0.917716026,0.227841005,-10.211400032,1.110649943,1.213220000,-2.433480024,0.286004007,-0.588809013,0.095309198,1.107710004,-5.635290146,-0.474413007,0.160879999,-0.494138002,1.143169999,-0.958872020,0.696268976,2.421999931,-0.017194500,0.771932006,-0.024552600,0.131559998,-1.801149964,1.025339961,0.504858017,-0.024630601,-0.060072299,-0.382310003,1.634899974,-0.747371972,-1.384600043,0.221384004,-0.526888013,-1.826810002,0.040082201,-0.087268502,-0.295792997,0.861491978,-0.409175009,0.554699004,0.364567012,-3.124540091,0.301824987,
-0.188226998,-0.084899701,-0.528959990,0.034481499,0.267291993,0.037687302,-0.069179401,1.094099998,0.184187993,0.226145998,1.087829947,-0.237045005,-0.899796009,-0.159093007,0.022479201,0.647301018,-0.200784996,-0.176152006,0.318733990,0.198566005,0.268786013,-0.358168989,0.125193000,-0.418626010,-0.098261498,0.038676199,0.656825006,0.055844601,-1.005900025,-0.016923400,0.081173897,-0.155671000,-0.037546702,-0.249109998,0.539530993,-1.187450051,-0.137059003,-0.213552997,-1.420899987,0.810725987,0.021152100,0.025143700,-0.924570978,-0.228863001,0.295758009,0.248619005,0.415315986,-0.731871009,0.384772003,-0.090815403,
-0.199019000,0.517107010,0.862453997,0.938376009,1.199740052,-0.347393990,-0.048870198,1.343350053,0.559566975,-1.417819977,-0.526584983,0.718500018,0.274982989,0.170081005,-0.312570989,0.171440005,0.471980989,0.306557000,-2.052829981,0.534973025,1.022369981,0.029968999,1.801460028,0.012500700,0.526364028,-1.528920054,2.887069941,-0.009541870,-0.445744991,-0.822687984,0.487403005,-0.524424016,-0.016796701,0.817785978,-1.372349977,0.183192998,0.269264996,0.795957029,-0.071894102,0.000653904,2.157730103,-0.029950300,1.053259969,0.381572992,1.212839961,-0.373596996,-0.554315984,0.345252991,0.463849992,1.290189981,
0.646866977,-0.582841992,-0.389600009,1.002920032,-1.102859974,-0.538622975,-0.150923997,0.452071011,0.268049985,-0.027290201,-0.321184009,0.022372101,0.646323025,0.507211983,0.187353998,0.350107998,0.327172995,0.425846010,0.752086997,0.700217009,-0.774787009,0.162928998,-1.908839941,0.217473999,-0.541121006,0.786451995,-1.410349965,0.028416200,-1.479840040,0.054133099,0.257090002,-0.177288994,-0.041892398,-0.572486997,-0.008989120,-0.440730006,-0.900170982,-0.781076014,-0.354140013,-0.375400007,2.058589935,-0.016314000,0.243934005,0.465292007,0.351835996,-0.083590202,-0.143617004,0.268545002,0.282371998,0.188938007,
1.137320042,0.680438995,1.056139946,-0.152792007,1.081889987,0.949238002,-1.303410053,-1.133769989,-0.279868990,-0.615508974,-1.538900018,0.430453986,0.646148980,0.481507987,0.177879006,-0.301910013,0.220660001,0.989432991,0.947176993,-0.451707989,0.495014995,0.496980011,1.050590038,0.100957997,-0.137132004,-2.549999952,-0.140459999,0.005998490,0.017175701,0.614087999,-0.457709998,0.426761001,-0.010426700,0.206999004,-0.509263992,0.996288002,-0.952790022,0.182273000,-0.089936197,0.470694989,0.876452982,-0.038873401,0.243681997,0.044908799,1.039360046,-0.345459998,-0.212735996,0.516950011,-1.316810012,1.052170038,
0.565913022,0.556895971,0.316756010,0.883741021,-1.219439983,0.877285004,-0.281585008,0.055346701,-0.166575000,-0.697835982,0.401650995,0.451936990,-1.041370034,0.058882002,0.524223983,-0.282297999,1.448639989,-1.108080029,0.803138018,-0.335514009,0.406798005,0.370546997,-1.114300013,-1.803769946,-0.813615978,0.134773001,1.185469985,0.010000700,0.494040996,-0.773338974,-0.263999999,-0.045121100,-0.043364901,-0.249155998,-0.285746992,-0.721508980,-0.675237000,0.476460010,-0.079105102,0.435786009,1.475239992,0.015462700,0.454257011,0.798398972,0.078769900,-0.314891011,0.583917975,0.247086003,1.683750033,-0.013824800,
-0.021408999,-0.017127801,-0.024343900,-0.050661601,-0.047015298,-0.020873999,0.029959001,-0.051378202,0.022105699,-0.053871199,-0.029390300,-0.031154500,0.017077800,0.030722700,-0.042244598,-0.032862999,0.010454300,-0.035923298,0.008398330,-0.038127899,0.014524200,-0.035333600,0.026956201,0.014813900,-0.050308600,0.020942600,0.019691700,0.008434260,0.007612090,-0.045917999,0.006480250,-0.005231640,0.045571201,0.005733410,-0.001957230,-0.022612000,0.034335200,-0.035158701,-0.032721002,0.037941001,-0.042094901,-0.030448601,0.053855401,-0.021469699,-0.034116901,0.014405500,0.039524399,-0.009154630,-0.032216702,-0.023446400,
-0.226756006,0.433250010,-0.795269012,-0.446610987,1.993309975,-0.101850003,-0.386927992,1.597370028,0.018777400,0.216704994,0.574030995,1.156149983,0.218142003,-0.698979974,-0.472375005,-0.343364000,0.059682898,0.300639987,0.597244024,0.217574999,0.129172996,-0.348482996,-0.352600992,0.280999005,-0.170392007,0.660030007,1.682610035,-0.046214901,-0.686802030,-0.188078001,-0.233495995,0.715242028,0.002838200,0.041588798,-0.070351101,0.460090995,-0.193799004,-0.019924900,-0.334663987,-0.418617010,-0.122791998,-0.008374680,0.242188007,0.811178982,-0.308847994,0.083063297,-0.341892004,-0.498450994,1.231699944,0.565598011,
0.446373999,-0.367177993,0.080941603,-0.817056000,-1.086220026,-0.454268992,-0.401174009,0.704279006,0.049631398,0.087992601,1.001109958,-2.059740067,0.170981005,-0.235101998,-0.546589017,-0.449337006,-0.310956001,0.060616501,0.370411009,0.430458993,0.175898999,-0.114738002,0.301014990,-0.081499599,0.355199009,0.630527973,1.503119946,0.017456800,-0.957265019,-0.205386996,-0.667845011,0.229911000,0.014880500,-0.710422993,0.487888008,-0.455763012,-1.401270032,0.060898900,-0.291961014,0.360617995,-0.400860995,0.009522510,-0.904959023,-1.450070024,0.255890012,0.363833010,0.239506006,-0.749849021,0.571992993,0.205660999,
-0.667806983,1.362930059,0.638588011,0.479654014,-0.044649001,-0.346657991,-0.783659995,1.897089958,-0.079849698,-0.018464001,1.018129945,0.614111006,-0.160892993,0.259288996,-0.286965013,-0.626878977,1.116520047,0.707579017,-1.152860045,-1.256979942,0.269681990,0.002862760,0.348134011,-2.762190104,-0.036349799,-1.924729943,-0.382759988,-0.027028900,0.672016978,-0.135281995,-0.666503012,0.091742501,-0.002856340,0.862280011,-0.224035993,0.952727020,0.340676993,1.151360035,0.504845023,0.840590000,0.237700999,0.034708299,-0.712504983,0.565002978,-0.328684002,-0.069869898,-3.033529997,0.772674978,1.359670043,-0.747780979,
0.101350002,-0.117370002,-0.427836001,0.643844008,2.036499977,0.576048970,-0.794857979,0.151567996,-0.398571014,-0.611796021,-0.500580013,-0.665463984,-0.233815998,-1.204570055,-0.136139005,0.140967995,0.088234901,0.055379000,-0.425972015,0.576147020,0.319570988,-0.009731960,0.551289976,-0.800893009,0.518911004,-0.690147996,1.164970040,0.015176100,-0.538546979,0.000381386,1.284960032,0.035346501,-0.041985299,-0.102178998,0.351163000,0.884275019,0.042122800,-0.375510007,0.019868201,-0.726935029,0.004228390,0.011236100,0.078808703,0.342233002,-0.086735398,-0.322921008,0.291355997,0.444326997,-0.518567026,-0.976577997,
0.014336700,-0.030645801,-0.052318901,-0.009088280,0.032148801,-0.039952699,0.018675700,-0.046163298,-0.046397299,-0.007315980,-0.047432199,-0.027735099,0.020294700,-0.005469940,-0.009359820,0.020514600,0.009467090,-0.026588500,0.044880100,0.003082930,0.024577500,0.019304100,0.008557080,-0.020427199,0.030302700,-0.049424201,-0.053027499,0.011133300,0.008280840,-0.003923090,0.006481710,-0.038889900,-0.015950900,0.000701252,0.018465500,-0.046600498,0.008068810,0.005514140,-0.012275200,-0.029778400,-0.048333399,0.024840901,-0.044156201,-0.047848701,0.015460700,0.018735699,0.000030158,-0.002367750,0.008221790,-0.059510600,
-0.016817899,0.016012199,0.026411099,-0.007663560,-0.016811300,-0.007629760,-0.047726400,-0.028092699,0.020340100,0.009781380,0.006715950,0.025687100,-0.048946600,-0.014429600,-0.049752399,-0.008211580,0.017991301,-0.029971801,-0.052585501,-0.038355000,-0.020292901,0.035523601,-0.032285500,-0.025835600,-0.001729130,-0.028753201,-0.016416000,-0.034454599,-0.022741601,-0.037229501,-0.051347200,0.006074650,-0.037935100,-0.037898399,0.015905701,-0.004576130,0.029480500,0.027512301,-0.002537760,0.047664601,0.017363800,-0.027031999,-0.007724080,-0.004490780,0.002181110,-0.028270099,-0.021535899,-0.047086500,-0.005443550,0.003099790,
-0.417712986,0.011765600,0.236954004,-0.040900599,3.681999922,-0.465793997,0.587315023,-0.176790997,-0.021128099,0.508934021,-0.084755197,-0.128771007,0.026323600,-0.658421993,-0.253690988,0.156397998,0.125136003,0.331418991,-0.951780975,-0.504819989,0.105884999,0.400911003,-0.108228996,-0.098394401,-0.384216011,0.615284026,0.005149090,0.035576601,-0.768640995,0.131020993,-0.081969202,0.350228012,0.029016200,-0.133806005,0.050824899,0.351446003,-0.083897099,0.673021019,0.269430995,-0.874651015,-0.256350011,0.016322000,-0.332920015,-0.283874989,-0.266840994,0.273831010,-0.309267014,0.060302399,0.059054200,0.703756988,
0.196381003,-0.436874002,-0.257263005,0.418476999,0.768168986,-0.305523008,-1.249130011,-0.134558007,0.292434007,-2.908790112,-0.276048005,0.344190001,-0.155340999,-0.118194997,-0.215809003,0.159333006,-0.275252014,-1.422989964,1.404240012,0.307316005,-0.125174999,-0.135398999,-0.444667011,0.297257990,0.298913985,-0.017191600,-0.534941971,0.018049199,0.041019499,-0.478929996,0.276409000,1.310050011,0.048387501,0.146668002,0.149351001,0.568791986,0.245135993,0.121193998,0.280909985,0.458763987,1.115100026,-0.005533030,-0.059265502,-1.328959942,0.412638992,-0.082231998,0.038482498,0.232038006,0.738646984,0.028507899,
-0.003378260,-1.036890030,-0.563701987,0.307273000,-2.018699884,-0.417008996,0.044475600,-0.558341026,0.381033987,-0.844434977,-1.686429977,0.695365012,0.628726006,1.313279986,0.020258900,0.687332988,1.181740046,0.631568015,-1.747149944,0.466156989,-1.808169961,0.877852976,0.358226001,1.053760052,-0.053919800,0.775650024,-1.321009994,0.000356855,-0.232354000,-0.619678974,1.466130018,-0.712593019,0.038881902,-0.017036600,-0.266725004,2.320679903,-0.710434020,0.049066801,0.347844005,0.527688980,0.353778988,-0.044250399,-0.108441003,0.321051002,0.583783984,0.291260988,0.402348012,0.354005992,-2.155250072,-1.028010011,
-0.260526001,-0.431784987,-0.608942986,-0.385392994,-0.621621013,0.238388002,-1.763180017,0.441453993,-0.149940997,0.526426971,0.576451004,1.831509948,0.308144987,-0.600871980,0.446177989,0.054428302,-1.537909985,0.112815998,0.341683000,-0.986778021,-0.165583998,-0.438387990,-0.816645980,0.120700002,-0.202775002,-0.012268200,-1.223479986,0.032183200,-0.385690004,0.256969988,0.129722998,0.500886023,0.048519298,0.479938000,0.340523988,-0.392242998,-0.137091994,-0.423314989,-0.712095022,0.405416012,-1.729580045,-0.009008140,2.240530014,0.603210986,1.001940012,0.335224986,-0.424365997,-1.188240051,-0.063173600,-1.012979984,
-0.030400600,-0.017094599,0.018777501,0.019396201,-0.021501301,0.028396800,-0.015983099,0.035499301,0.028194500,0.022719100,0.016667699,0.008243980,0.041079000,-0.032106899,-0.007199530,-0.006997210,0.035383701,-0.052603401,0.004970140,-0.019527899,0.036731001,-0.014903900,-0.039935902,0.036017999,-0.051240899,-0.002896470,-0.019114301,-0.006623240,-0.031273101,-0.038747702,0.041137401,-0.012931400,-0.018942900,-0.048178799,-0.020371901,-0.032014299,-0.026707400,-0.049723100,-0.031831998,0.004383590,-0.027307499,0.041451301,0.008352270,-0.028651901,-0.007895050,-0.007262230,-0.027582800,-0.026961301,0.022633599,-0.033168200,
1.090610027,0.243478000,1.193050027,0.009735780,-0.148291007,0.182034999,-0.120127998,-0.458974004,-0.561034977,0.435714006,1.188459992,0.077034399,-1.284749985,0.707489014,0.081198201,0.053922702,0.125920996,0.200765997,-1.269189954,0.093608603,1.038800001,-0.183836997,-1.007410049,-0.081275702,0.025804000,-0.171680003,-0.297618985,-0.037544999,2.129610062,0.143013000,-0.152628005,-0.055996299,-0.020241700,0.391566992,-0.643814981,0.304618001,0.410423011,-0.280191988,-0.936918974,1.015709996,-0.304913014,0.041912202,-0.016698800,-0.107409000,-0.030033501,0.277729005,0.376286000,1.005550027,0.543982983,0.595628023,
0.883598030,0.514415026,-0.431392998,0.765936971,0.766422987,0.078720197,-0.012944800,0.478439987,-0.738897979,0.382892996,-0.027196299,0.127326995,0.119126000,-0.034602098,0.468046010,0.805585027,-0.650937974,-0.191909000,0.943581998,0.335949987,-1.810809970,0.311690003,0.320169002,-0.291583002,-0.913775980,0.097503804,0.241846994,0.006668700,0.122818001,2.207890034,0.546211004,0.039272599,0.023496101,0.308986008,-0.063109398,0.121748000,-0.629993021,0.011153300,-0.034442000,-0.508343995,-0.216229007,0.024581600,0.165391997,0.173638001,0.350856006,-1.389099956,0.559768021,0.017506300,0.306988001,-0.770574987,
0.276342988,-0.511061013,0.091590799,-0.073170200,-1.419549942,1.033579946,0.957060993,0.079075597,0.298384994,-5.298699856,-0.135847002,0.715942025,-0.676389992,0.144271001,-1.000040054,0.814453006,0.357331991,0.387459010,-0.257043004,-0.479252994,-0.505420029,0.380636990,-1.499269962,-0.100408003,0.019800801,0.365976006,0.531758010,0.041918602,0.999894023,0.388752013,-0.509563982,-0.435072005,0.012284700,-0.461988002,-0.200942993,-0.255557001,0.305548996,-0.177971005,-0.163297996,-0.840380013,-0.586470008,0.021692600,-0.192791998,0.636521995,0.831130981,-0.257268995,0.039255500,1.159469962,-2.470240116,1.032559991,
1.271649957,0.706543982,-1.296460032,-0.286673993,0.489598989,-0.373447001,-1.499050021,1.271929979,0.057710301,0.882813990,0.268121988,1.357800007,-0.419542015,0.904679000,0.003256230,0.016822999,0.552558005,-0.087983303,0.014144600,1.065879941,-0.617377996,0.263289005,0.500977993,1.051970005,0.512511015,-0.395143002,1.074180007,0.020514799,-0.336614013,-0.619431973,0.482542992,0.644743979,0.034373499,0.202672005,-0.710146010,0.461275011,-0.197180003,-2.295759916,-0.011450200,-0.019886000,-0.664264023,-0.044817999,0.262658000,1.100379944,-0.669057012,0.080350801,0.456845999,-0.538124979,0.595260024,0.966192007,
-0.888307989,-0.843231976,1.335880041,1.245159984,-4.546450138,-0.604659021,1.022930026,-1.048930049,0.599232018,0.275460005,-0.295709014,1.915770054,0.190421000,-0.551020026,-0.446417004,-0.246088997,0.145432994,-0.082585096,1.306800008,1.138039947,0.317010999,0.203113005,-0.478962004,-0.612244010,-1.045539975,0.309913993,-0.935119987,-0.030512100,-0.782881975,-0.087120302,-0.717693985,0.693199992,0.027394600,0.159612000,-0.088609800,-2.282609940,-1.163630009,1.255890012,0.113500997,-0.065434299,-0.238563001,0.049215499,0.549547017,-0.849537015,0.407009989,0.571379006,2.074959993,-0.498149991,-0.886915028,0.515914977,
0.015143100,-0.183406994,0.255784005,-0.268801004,1.717949986,-0.120954998,-0.708209991,-0.472620010,0.246767998,-0.499242008,-1.308879972,-0.247480005,-0.024154199,-0.700462997,-0.136305004,-0.206751004,-0.289795011,-0.203449994,0.211239994,0.108075000,0.269288987,-0.328763992,0.299344987,0.540001988,-0.386732012,0.396317005,-0.281870991,0.001580320,0.713635027,0.273272991,-0.519249022,0.150590003,-0.052105598,-0.029066101,-0.247217000,-0.963458002,0.244259000,0.324629009,0.117210999,0.162370995,0.194268003,-0.052367602,0.091892697,0.262093008,0.022570601,-0.122813001,0.077674702,-0.071151897,-0.880675972,-0.338753015,
0.449986994,0.085212700,-1.103539944,-0.543196976,1.577999949,-0.188317999,-0.177484006,0.155332997,-0.022872800,-0.305893987,-0.497042000,-0.158426002,-0.246944994,-0.083709396,0.154872999,-0.621497989,0.134966999,-0.324052989,0.035422500,0.012597900,4.430109978,0.118463002,0.828472972,0.305956990,-1.632310033,0.320850015,-0.208607003,0.023850201,0.419018000,-1.080960035,0.105331004,-0.123369001,0.023709200,0.252707988,-0.139556006,0.066442601,0.222876996,0.242552996,0.349330992,0.820173025,1.984840035,0.022090500,0.041775100,0.322384000,0.252606004,0.435274988,-0.105930001,0.169044003,-0.203758001,-0.152741998,
-0.872476995,-0.443305999,0.004196280,0.356869012,-1.164229989,0.208977997,0.412048012,0.404808998,0.083631597,-3.082550049,-1.058220029,-0.291254997,-0.198329002,-0.059067801,0.654361010,0.923995972,-0.299095988,-0.722184002,1.920910001,0.300065011,-0.053462900,-0.150924996,-0.042486999,0.286614001,0.045396499,-0.144747004,0.594913006,-0.013572600,0.033745699,-0.300343990,0.037613500,-0.308434010,-0.041425899,-0.077826098,-1.199669957,0.087446898,-0.282007009,-0.449606001,-0.088981502,0.014152100,3.082740068,-0.024477201,0.296526015,-0.007734390,-0.615359008,0.243178993,0.682937980,0.769702017,0.307929993,0.590789020,
-0.142072007,0.427289993,-0.164811999,0.107198000,-0.762602985,0.254317999,0.262143999,-0.211715996,-0.691866994,-0.136834994,0.673400998,-0.122106999,0.383118004,0.000084701,-0.177723005,-0.544502020,0.774080992,-2.006069899,1.245540023,0.364912987,1.730909944,-0.413199008,0.985032022,0.291379988,-0.055300899,0.363909006,-0.150304005,-0.047823999,-0.393593013,-1.095999956,-0.689289987,-0.139399007,0.009392050,-0.496390998,-0.495774001,1.489560008,0.551123977,0.256599993,-0.044506501,0.409911990,1.045040011,0.006859360,-0.390650988,-0.017009500,0.115143001,-0.048215199,-0.271407008,0.704065025,0.644259989,-0.467404008,
-0.069878899,0.241695002,0.339414001,-0.128023997,0.765053988,-0.010554700,0.119309001,-0.061841398,-1.474449992,-0.623526990,0.280427992,-0.019286999,-0.621250987,0.702269018,-0.114713997,-0.264961988,0.159055993,-0.534835994,-0.305375993,0.042728499,-0.299118996,-0.139165998,0.688310027,-0.157418996,0.315039009,-0.788509011,-0.797124028,-0.032792199,-0.073516101,0.242700994,-0.220759004,0.270321012,0.020939300,0.067446202,0.128301993,0.132973999,0.253183007,-0.103620000,-0.142602995,-0.146244004,0.055534001,-0.012398400,0.001494270,-0.067983098,-0.048185401,-0.031189000,0.159351006,-0.000331261,0.280714989,-0.067439802,
0.396578997,-0.238372996,0.486045986,0.189250007,-0.593042016,0.248141006,0.373091996,-0.092423998,-0.899689019,-0.897709012,0.569518030,0.311549008,-1.421390057,0.390854001,-0.337761015,-0.267984986,0.259822994,-3.150249958,1.305510044,-2.143480062,-0.073206097,-0.050907198,-1.794049978,0.370921999,1.218569994,0.924068987,0.028872600,0.019423300,0.204018995,-2.244240046,-1.433570027,0.139924005,-0.015710900,-0.508620977,-0.388586015,-0.961453021,-1.697319984,-0.037973501,-0.636361003,0.559616983,-0.209518000,0.026030799,-0.889765978,0.560440004,0.437651008,0.390836000,-0.325756997,0.385690004,-2.387219906,-0.631994009,
0.031507201,-0.015529400,-0.001308020,-0.027549600,0.020538200,0.049591899,-0.027840300,0.015853601,-0.010904100,0.015252300,0.021768101,-0.001234310,-0.013654700,-0.033167198,-0.001064810,-0.043910298,0.011765400,-0.031660601,0.027016601,0.027739100,-0.049082998,-0.051620498,0.026169101,-0.022231100,0.005968180,-0.031857401,0.008074710,0.003172930,-0.000339545,0.020038700,0.021197099,0.029850600,0.007872460,-0.049810201,-0.047473598,-0.005971220,-0.007970540,-0.028176500,-0.010533700,0.045031998,-0.018565800,-0.006390000,-0.056386799,0.016822800,-0.042703200,-0.049253199,0.010928500,-0.019274401,-0.050368100,-0.016321300,
-0.037937600,-0.036936801,0.013660500,-0.037268501,0.012133800,-0.001198840,0.022567799,0.024301101,-0.047802299,0.032974102,-0.058358699,-0.039803099,-0.004980530,-0.027257400,-0.053147700,-0.038268499,0.020115901,0.011106600,-0.048179500,0.023953000,0.017874800,-0.045338400,-0.051711202,-0.007685000,0.025154701,0.019071300,0.018290900,-0.017187299,-0.044058599,-0.028787101,-0.048737500,-0.016903700,-0.030863900,-0.031260099,-0.007296070,0.018571200,-0.025992800,-0.040698301,-0.002440170,-0.012514900,-0.002263520,-0.018252200,0.005162140,-0.020660300,0.002382910,-0.002508920,-0.029664800,-0.018623300,-0.017498899,0.012440100,
0.942076981,0.714788973,-0.178414002,1.847460032,-5.811279774,0.348704994,-0.456185013,-1.736969948,0.011115700,-0.286765993,-1.488980055,-0.959316015,-1.098049998,-0.127967000,1.478019953,-0.098327503,-0.632381022,0.452562988,-0.757915974,-0.185150996,0.197965994,0.957989991,0.628443003,-1.881549954,-0.357650012,1.138389945,-3.210999966,-0.033312201,0.618645012,0.151215002,1.653519988,-1.154880047,0.004397780,-0.392244995,-0.651409984,1.409399986,-1.216470003,1.204169989,-0.155362993,0.548246026,-0.070362203,0.029877501,0.070105404,0.412685007,0.218223006,0.013120200,0.558045983,1.043990016,-2.219670057,-1.437170029,
0.262055010,0.114652000,-0.798218012,-0.348461002,4.302800179,-1.352079988,0.389025003,-0.981447995,-0.187711000,0.193100005,0.423209012,-4.872210026,0.108430997,0.270949990,-0.510819972,-0.207329005,-0.106963001,0.513050020,-0.023712400,0.320998996,-0.059789602,0.295289993,-0.767333984,-0.001637670,0.053996399,1.061699986,2.009370089,-0.002559810,-1.249650002,-0.176877007,0.178121001,0.965861976,-0.040931702,-0.021643501,-0.526984990,0.234623998,0.514210999,0.706906021,0.185701996,0.151666000,0.181544006,0.027604099,-0.966516972,-2.616650105,-0.716776013,-0.066603802,0.282570988,-1.123610020,0.103933997,0.639159977,
0.715892017,0.051964499,0.110827997,0.480883986,0.352717012,0.156592995,0.139192998,-0.140198007,-2.054610014,-0.147248000,0.458873004,-1.180140018,0.275016993,0.311715007,-0.011887400,0.327448010,0.086604699,-1.105769992,1.037619948,-1.672219992,0.307058990,-0.019080199,-2.168240070,0.085206598,2.446890116,0.823046029,0.027488800,0.000499586,0.051473401,0.276751012,-0.234262004,-0.253192008,-0.035754099,-1.660310030,-0.369632989,-2.110100031,-3.819700003,0.090736300,0.233956993,0.341776997,-0.200488001,-0.037412699,0.018060800,0.541455984,0.297839999,1.380779982,0.845391989,-0.305882007,1.102740049,-0.761662006,
0.652261019,-0.773101985,0.131934002,-0.183828995,1.020220041,-0.349002987,1.212229967,-0.353361994,-9.915780067,-2.079279900,0.809915006,0.238222003,0.500680029,-0.257986009,-0.009820260,0.134638995,0.342696995,-3.612040043,1.360080004,-1.680709958,0.294551015,-0.450619012,-0.466928989,0.171516001,-8.313509941,0.705475986,-0.023533000,-0.023988100,0.733868003,0.288419992,0.188956007,0.006069180,-0.033548199,-0.565339983,-0.464881003,0.557533026,-2.469810009,0.104128003,0.335498005,0.162131995,-0.593299985,-0.039457500,0.611042976,-0.355949998,-0.664189994,0.824433029,0.677887022,-0.386108011,0.180849999,0.236401007,
-0.039213501,0.031797700,-0.064110696,-0.027268499,-0.017396299,-0.056947201,-0.013048300,-0.034204502,-0.015519500,0.030813700,-0.010506600,-0.059427202,0.026052400,-0.013437900,-0.037390999,-0.056849498,-0.008337310,-0.017528800,0.038691498,0.010384300,0.038605399,-0.016643999,0.010240300,-0.036210001,-0.041936200,0.020783000,0.035254400,0.022957800,-0.053935800,0.032627601,-0.016853999,-0.030060699,0.040743101,-0.045091201,-0.033564799,-0.004704620,-0.032554802,-0.037625998,0.034375899,0.012377300,0.032786001,-0.012553800,0.017194400,-0.058068998,-0.032282598,-0.043667801,-0.018759100,-0.035259001,0.039011501,-0.051770601,
-0.478195012,0.393916994,0.126771003,-0.554808021,-1.755530000,-0.034123201,0.114418998,-0.135635003,0.145184994,0.783146977,0.213558003,-0.062558100,-0.613013983,0.073068298,-0.508579016,0.067780398,0.323051006,0.652063012,-3.529099941,-0.119275004,0.182137996,0.430272013,0.569178998,-0.476949006,-0.031454600,-0.716090024,1.000609994,0.029790601,-0.610897005,0.107905999,0.111174002,1.151029944,-0.028126299,0.158123001,-1.593500018,0.121719003,-0.556248009,0.163702995,-0.264997005,-0.166880995,0.081487499,-0.001299420,-0.532456994,-0.087824799,0.232233003,-0.252319008,0.592532992,-2.394370079,2.032870054,0.650017023,
0.464825004,0.923963010,-1.211040020,0.750325024,0.485693008,-0.085744403,-0.038845100,0.665893018,-0.102857001,0.864305973,0.554926991,-1.627439976,0.002958360,-0.168261006,0.520887971,0.191578001,-0.535407007,0.652682006,-1.101850033,1.196499944,0.809340000,0.044033401,0.975633979,0.588109016,0.266012996,0.473028004,-0.145784006,-0.013596500,-1.393749952,-0.210301995,0.504441023,0.896121025,0.008288690,-0.433261991,0.182429001,0.830630004,-0.002019330,-0.123438999,-1.564319968,0.813758016,0.754835010,-0.016032500,-0.097784899,-0.933896005,-0.342445999,-0.294943005,0.634375989,-1.101989985,0.680027008,0.229407996,
0.893544018,-0.614576995,0.173815995,0.400429010,-0.447344005,-0.574914992,0.195302993,-1.000779986,-0.242118999,-0.096615799,0.357055008,0.587060988,0.370285988,0.353302985,0.075176902,-0.346935987,0.184366003,0.472485989,0.301827013,-0.597810984,-0.234542996,0.308937013,-0.970341980,0.283618987,-0.060075302,-0.493589014,0.504985988,-0.024884799,0.782926023,0.067503601,0.394046992,0.229135007,0.054023199,-0.128710002,-0.417234004,0.977122009,0.388110995,0.329892993,0.188251004,-0.384882003,0.512694001,0.029337101,-0.002359160,0.170296997,-0.306791991,-0.399289995,0.210614994,0.015961200,1.012910008,0.662913978,
-0.011176900,0.013268900,0.038653601,-0.016855000,0.022101801,-0.052645899,0.013791100,0.032175701,-0.018076399,0.018400000,-0.005498660,-0.006412900,0.012788700,-0.037018199,0.017087899,0.032500599,0.024647299,-0.007738490,-0.030171700,-0.042940501,0.014503600,-0.036755200,0.002380320,-0.028499899,-0.006473600,-0.043358099,-0.053211600,-0.040626802,-0.008660510,-0.023672700,0.015378800,0.009857420,0.006757560,-0.024166601,0.019828800,0.035506800,0.005601500,-0.045988299,0.006032060,-0.045614999,-0.033837199,0.031239400,-0.017542100,-0.025305700,0.012229400,-0.030864600,-0.034515999,-0.036168199,-0.012592900,-0.007269560,
0.800969005,-0.656458020,0.572692990,-0.230889007,-1.335360050,-0.230586007,-0.249916002,-0.874361992,0.112525001,0.398185998,-0.639613986,0.589793980,0.251318008,0.700304985,-0.252867997,1.027469993,0.318161994,0.135181993,-0.078911602,-0.101055004,0.047160499,-0.305871010,0.281607002,-1.552719951,-0.122621000,-0.017387500,1.090600014,-0.025646100,0.445286006,0.147698998,-0.472696990,-0.318268001,0.033361401,0.060743701,0.374379992,-0.049745899,-0.691760004,0.684731007,-0.521709025,0.438589990,-1.082610011,0.047951400,0.081024699,-0.015883300,-0.262187988,0.171666995,0.874170005,-0.243692994,0.121010996,-1.663509965,
0.550997019,-1.499639988,-1.737300038,-0.986431003,-0.528352976,0.332087994,0.575626016,0.346385002,0.016220899,1.395089984,1.344720006,-0.444398999,-0.501525998,-1.079439998,-0.910152972,-0.629613996,0.068759397,0.405369997,0.895456016,0.588854015,0.168035001,-0.121220998,-1.247740030,0.230177999,-0.176689997,-1.070909977,-0.058243498,-0.045973301,-0.025817299,0.325971991,0.250050008,-0.096776098,-0.047884598,0.823978007,0.196554005,1.017560005,-0.600739002,0.063919500,-1.804579973,-0.944446027,-0.443360001,-0.035340302,0.452748001,-0.901244998,0.009701320,-0.003066830,-1.345780015,0.006129790,2.030339956,-0.650457025,
0.019504299,0.008134190,-0.040429302,0.031424701,-0.036867600,0.012730500,-0.017236101,-0.004653530,0.006016260,0.013021100,0.037364200,-0.049743202,0.008114840,0.029009800,0.000178449,-0.053720001,0.001730910,0.018060001,-0.014323900,-0.005075140,-0.026858499,-0.034191001,-0.050659299,-0.026346499,0.020029699,0.019141300,0.041034002,0.022158699,0.007147300,0.035597499,0.021738900,-0.003388690,-0.033179902,-0.007629330,-0.049919002,-0.011230200,0.034593001,0.023956601,-0.039042201,0.033720199,-0.033959299,-0.040254898,-0.045538802,-0.021862401,-0.042792600,-0.024895500,-0.034153499,-0.053839698,-0.040886302,-0.017762801,
0.817851007,0.569913983,0.470838010,0.304957986,0.492047995,-0.986863017,0.711449981,0.466017008,0.811188996,-3.048549891,-0.578869998,0.766596973,0.477111995,-0.028972801,-0.026601899,-0.770434022,0.834681988,-2.980020046,1.055320024,-0.114904001,0.675157011,-0.862362981,-0.776269019,-0.017400799,-0.267394990,-0.934974015,-0.311585009,0.006946890,-0.069728397,-0.600809991,-0.611792028,0.300074011,-0.019287899,0.375028014,-0.205820993,0.047010802,1.222759962,0.910373986,0.087882102,0.133405000,0.021717900,-0.003708640,0.220691994,-0.223500997,0.493730992,0.153374001,0.301225007,0.989657998,-2.677510023,0.004175510,
-0.476482987,
1.176509976,
-0.770412982,
-0.018943200,
-0.756811976,
0.832485974,
-0.853031993,
0.049777701,
-0.468425989,
-0.870778024,
-1.211439967,
-0.781907976,
-0.005312890,
-0.398831993,
-0.362282008,
-0.258964002,
0.572584987,
-0.004214900,
-0.017670101,
0.238866001,
-0.152998000,
0.334547997,
0.015722601,
-0.008973340,
-1.196009994,
0.565514982,
0.384514987,
-1.286589980,
-1.118589997,
0.563803971,
-0.596875012,
0.073434800,
-0.625167012,
-0.176599994,
-0.156339005,
-0.013093300,
-0.021993300,
0.921177030,
-0.423218995,
-0.599438012,
-0.582910001,
-0.012780800,
-0.065726198,
-0.992152989,
-0.579244971,
-0.008653930,
0.197457999,
-0.333200008,
-0.013058900,
-1.425950050,
-0.052945200,0.118949004,0.080529697,-0.005184500,-0.372657001,0.156035006,-0.119814999,-0.291509986,-0.106911004,-0.043054000,-0.236943007,0.055167999,-0.045286998,-0.393128991,0.500479996,-0.400875986,0.647827983,0.013216200,-0.027694600,0.497880995,-0.107257999,0.430391014,-0.706637979,-0.033755999,0.485493004,0.334273010,-0.064383700,-0.880149007,0.484719008,0.143395007,-0.251962990,-0.562012970,-0.479245007,0.788857996,-0.812352002,-0.026003201,0.049061801,0.107360996,-0.873495996,0.385192007,0.324014008,-0.012609000,0.361577004,0.121615998,1.267510056,0.013849100,0.000751912,0.300264001,-0.053638399,-0.072973400,
-0.109479003,-0.060859900,-7.275469780,0.032635801,-0.132994995,0.666161001,-0.202581003,-0.001922250,-0.078058399,-0.441545993,-0.486887991,0.653056026,-0.034881901,0.253901005,-0.714455009,0.238046005,-0.167128995,0.007594210,0.038071401,-0.340036005,0.447032005,-0.556662977,-0.209424004,0.043304000,-0.754532993,-0.165584996,-0.015499300,0.248345003,0.028692300,0.629391015,0.066515103,-0.115750000,-0.661481023,1.311259985,0.360139012,0.028304501,0.015980501,-0.979685009,0.354084015,-0.925419986,0.006000200,-0.013013700,0.252344996,0.061289001,-0.015900800,-0.047828101,0.183660001,-0.219853997,-0.025268000,-0.863007009,
-1.254410028,-0.588994980,-0.248717993,-0.033721998,-0.158289000,0.605086029,0.207285002,0.390383005,-0.274910986,0.542250991,0.087240398,-0.608290970,-0.013200600,-0.567161977,0.474665999,0.938163996,0.431708008,-0.018565999,0.061327100,1.353090048,0.744431019,0.097761102,-0.337311000,0.037498701,0.179905996,0.242190003,-0.080538400,0.253080994,-0.391512007,-0.277727991,0.128344998,1.049970031,0.288785011,0.758077025,-0.006302070,-0.013219600,0.027048500,-0.350672990,-1.999060035,0.799727976,0.273876011,-0.009588660,1.053640008,0.101894997,1.450279951,0.016734600,0.761457980,-1.227110028,-0.027382500,0.342263997,
-0.015711401,-0.048143800,-0.025019599,0.018310999,0.029313300,0.009769960,0.029806800,0.009221280,0.032591101,0.011287200,-0.040176500,0.040722899,0.020824300,-0.000374880,0.007188850,-0.047693700,-0.034094099,-0.050025102,0.046663199,-0.046023600,-0.029670401,0.030669300,-0.044066500,-0.038643099,-0.021177201,-0.007079730,0.020872800,-0.011351500,0.007285670,0.016630599,-0.034883700,0.004669130,0.005465520,-0.025254000,-0.017814299,-0.017136900,-0.016383501,-0.050761700,0.001308380,-0.041760299,0.038653102,0.012908200,-0.029970299,-0.023910500,-0.026895700,-0.033429701,0.033026900,0.013634200,0.025871299,-0.050950300,
2.269249916,-0.963450015,-0.385372013,-0.017492799,-0.895655990,-1.338179946,0.452367008,-2.248879910,0.049947500,0.007307860,0.196087003,0.629462004,-0.034640800,0.174371004,-1.082880020,-0.294342011,-1.709959984,0.010577600,0.017286099,-0.775090992,0.617829025,0.160816997,-0.652279973,-0.031341702,-0.605181992,0.657562017,0.026112599,0.455054998,0.711786985,-2.958139896,0.907036006,2.018889904,0.365534008,-1.153429985,0.283962011,-0.023408700,0.030938100,-2.894469976,-3.135390043,-0.061577599,0.397821993,0.011570500,0.595072985,-1.118180037,-1.115149975,0.027997401,-0.883364022,1.403900027,-0.015604900,1.825309992,
-0.674135029,-1.307690024,1.139129996,0.028403699,0.359759003,-1.822710037,-0.804619014,-0.104617000,0.026029600,-0.462893009,0.993557990,0.279709995,-0.044252299,0.308344990,-0.722029984,1.189270020,-0.259030014,-0.039229099,-0.036076602,0.973142982,0.513158023,-1.705119967,0.170527995,-0.032138400,1.030949950,0.963236988,0.036240701,-0.906753004,-1.913370013,-1.389520049,-0.608557999,3.808419943,1.325999975,-0.409034014,-1.317409992,-0.030542200,0.028862299,-0.686106980,0.895030022,1.937500000,0.573743999,0.030334599,-2.513180017,-0.768172026,0.403264999,-0.007260590,-0.417519987,0.074030302,-0.005881780,-1.484249949,
0.713379979,-0.212889999,-0.027035400,0.040195599,0.106265999,-1.432690024,0.019212900,1.201629996,-0.153790995,-1.208480000,-0.267111003,0.634307981,-0.039652500,-0.065580502,0.675391972,-0.159290001,0.326496005,0.038451001,0.037862498,-0.165767998,-5.423049927,0.545617998,0.165882006,-0.017209200,-0.141369998,-0.228467003,-0.476716995,0.007200430,-0.828324020,0.730139971,0.083745100,-3.594510078,1.605649948,0.080187097,-0.019388100,-0.018588301,0.031097200,0.488400996,-0.741379976,-4.253139973,-0.085619397,-0.042911500,4.023620129,-1.318629980,-0.345387012,-0.044279300,-0.625455976,0.410207003,0.036935899,0.376094997,
0.332203001,-0.806675017,-1.162989974,-0.001721990,-0.115915999,-1.188639998,-0.104723997,0.190142006,0.252038002,-0.058687601,-1.668969989,-0.486860007,-0.013541900,-1.188009977,1.113940001,1.432629943,1.182090044,-0.039183699,-0.021391699,-0.892048001,-0.530358016,-0.154901996,0.250010014,0.033268500,0.082811199,0.093371101,0.479546010,-0.117048003,1.410590053,-0.645853996,0.108046003,1.925169945,0.500353992,-2.926120043,-1.839470029,0.006983270,0.007324360,-0.794061005,0.130767003,-3.431780100,-3.189409971,-0.017412201,0.989785016,-0.605214000,-6.345990181,0.018361401,-0.224106997,1.363409996,0.045032699,1.539010048,
-0.329154998,-0.040431000,-2.156919956,-0.037564501,0.480603009,-0.463344991,0.730709016,0.678411007,-0.734448016,1.464010000,-0.190002993,-0.901347995,-0.033494301,-2.554759979,-0.801720023,-0.335734010,-0.105258003,-0.020599199,0.014180900,-0.120443001,0.074335001,-0.549610019,-0.393068999,-0.017038099,0.791953027,0.126274005,-0.490343988,0.910540998,0.311376989,0.023151200,-0.404814005,-0.268958002,0.070723198,-1.744300008,0.688251972,0.005129470,-0.030994600,0.878069997,-0.676568985,-1.354750037,0.253740996,-0.032039698,1.596799970,-1.278059959,-4.576600075,0.030308200,0.870275021,-0.072616600,0.004178480,1.406659961,
0.165435001,-0.026813900,0.118515000,0.001442460,0.212687001,-0.143573999,-0.278245002,0.427700013,-0.190443993,0.402303994,-2.394550085,0.265336990,0.045196898,-0.213214993,-0.292246014,0.415560007,0.831866980,0.016543999,0.041608199,-0.382838994,0.313163996,0.437207997,0.968433022,0.027377900,0.710817993,0.014544100,0.378466994,-0.204510003,0.719910026,-0.198093995,0.307366014,0.814682007,0.806259990,-1.119840026,0.461677015,-0.006605950,0.050475400,-0.572176993,0.908572018,-1.171759963,-1.176110029,-0.035135798,0.329223990,-0.111038998,0.562429011,-0.031398401,-0.413958013,-0.005944220,-0.031631298,0.383049995,
0.082742102,0.067099199,-1.107499957,-0.014097800,0.529309988,-0.284036994,-0.191915005,0.758517981,-0.086796097,1.192939997,0.547227025,0.630681992,-0.036245301,-0.482818007,-0.328007996,-0.302713990,0.232704997,-0.047789101,-0.011290400,0.557839990,0.123597004,-0.303649992,-0.342676997,0.049290400,-0.612798989,-0.091304302,0.252099007,-1.298079967,-0.169223994,0.702614009,-0.397172004,-1.420590043,-0.352517992,2.044049978,0.542012990,0.043059900,-0.003844220,0.175188005,-1.600239992,-1.475870013,-0.359934002,0.036800701,-8.422710419,0.018972000,-2.647160053,0.035459299,0.589497983,0.186568007,0.023213301,0.932334006,
0.919604003,-0.192827001,1.835129976,-0.011592700,0.341089010,0.328036010,-0.617935002,0.570064008,0.173212007,0.208557993,0.487742007,-0.240664005,0.025710000,0.399908990,-0.670071006,-0.294254988,-0.662060976,-0.019899599,-0.050255600,-0.532010972,0.370168000,0.274257004,0.343870014,0.000877059,0.319723010,0.239265993,0.389670014,-0.106674001,-0.040083401,0.463941991,-1.124420047,-0.247304007,-0.403073013,0.555329978,1.235100031,-0.033919100,-0.043208100,0.165408999,0.651564002,-2.056950092,-0.038627699,-0.032856099,-0.024859101,-0.030213799,0.906095028,-0.026023399,0.134893999,0.177812994,0.022585699,-0.279018015,
0.056176901,0.171931997,0.352418989,-0.043369800,0.500573993,-0.194313005,-0.361164004,0.538765013,0.340315998,1.004089952,-0.174184993,0.239372998,0.029054200,-0.533613026,0.477277011,-0.388572991,0.160381004,0.003207140,-0.035229601,0.506301999,-0.007491550,-0.107848004,0.091218099,-0.013167900,-0.202272996,-0.083370700,0.383172989,-0.110868998,-0.431313992,-0.037684601,-0.144127995,-1.941310048,1.569640040,0.668088019,0.350876004,-0.011173800,-0.026516300,-0.190666005,0.203355998,0.206770003,0.102190003,-0.001335200,0.210640997,-0.509346008,0.888837993,0.015127700,0.930055022,0.139780998,-0.020639401,-0.106380001,
0.997650981,-0.162854999,-1.682839990,-0.005981940,-0.225964993,-0.520986021,0.013137000,1.306519985,-0.152684003,1.648929954,-0.066148102,1.224339962,0.010925500,-1.138120055,-2.439140081,0.210713997,1.257310033,0.034802102,0.051628999,-0.907859027,-0.215648994,0.075860798,0.382407993,-0.012849200,1.326589942,0.041257501,0.829584002,0.545081973,-0.075257003,0.451321006,0.165612996,-0.214307994,-1.021399975,-0.303887010,-1.229799986,0.040750500,-0.011100400,0.109999999,-1.679119945,3.431220055,0.441637009,0.039047901,-0.272958010,0.070809104,-0.750759006,-0.035543300,0.165472999,1.206169963,-0.006439480,-0.287766993,
-0.054043099,-0.039601099,-0.037938699,0.033706300,-0.023518501,-0.045581900,0.019933000,0.034798000,0.009107120,0.025231799,-0.029428801,0.029209999,-0.001273020,-0.049635001,0.006864040,0.000386012,0.014534400,-0.040216599,-0.048794899,-0.021477999,-0.025570100,-0.053090300,0.034565199,-0.012453600,-0.011673800,-0.004223400,-0.010466300,-0.057818200,-0.009898290,-0.033090901,-0.015562200,-0.049010001,-0.017270399,-0.044551700,-0.032148998,0.004728370,-0.034103900,0.028755801,-0.042770300,0.026090400,-0.029024400,0.040332299,-0.050911900,0.029307101,-0.031139500,0.006787190,0.009555300,0.012099600,0.042850502,0.000433883,
0.597396016,-0.123811997,-0.873780012,0.025815800,0.187878996,0.319420010,0.487866014,-0.088131897,-0.233787999,1.267060041,0.684130013,-0.987039983,0.011871100,-0.940662980,-2.245199919,0.517241001,0.574087977,0.014903800,-0.045119502,-0.430274010,-0.493113011,0.196398005,0.851925015,-0.048916999,0.475668013,0.140806004,-0.558079004,-0.148687005,0.346269995,-0.063079000,0.029885501,0.355174989,0.515339017,2.212100029,0.290313989,0.030335400,0.024360100,0.127647996,0.795337975,-1.465630054,0.905206025,0.041787501,0.025160400,0.280196995,1.289729953,-0.028660599,0.494134009,0.054451399,0.025003200,-0.337754011,
-0.266267985,0.295691013,-0.103790000,0.020320300,-0.587037027,0.257845014,-0.119797997,-0.962181985,-0.091617703,-0.515504003,-0.778778970,0.278862000,0.028752800,-0.346322000,0.381509006,-0.108416997,-0.085426398,0.003563000,-0.022392301,0.451357007,0.008456430,0.090757400,0.093875699,0.031154500,-0.748364985,-0.067805000,-0.597499013,-0.122051001,0.518898010,0.437716991,-0.082379401,-0.879252970,0.051557999,1.614339948,-2.140150070,-0.043174699,0.054913402,-0.225168005,-1.197569966,0.587128997,0.225274995,0.038887002,0.345560998,0.487392008,-0.791127026,-0.005308470,-0.534509003,0.745018005,-0.017681699,-0.044101801,
0.330583006,-0.378042012,0.721045017,-0.029562900,-0.150438994,-0.301912010,-0.737079024,0.108677000,0.145769000,0.041808799,0.155102000,-0.093433201,0.019865099,0.127889007,-0.429699987,0.224259004,-0.596935987,-0.028156999,0.026888100,-0.547233999,-0.177568004,-0.633180022,0.093578100,0.047936600,-0.664002001,-0.264669001,0.369455010,0.016976399,-0.942147970,-3.526380062,-0.256047010,1.262269974,0.339767009,-2.208230019,1.056300044,0.046765700,-0.027127400,-0.069412403,-0.707682014,0.196980000,0.173394993,0.038711399,0.361373007,-0.145036995,-0.156152993,-0.030938201,-1.353520036,0.940364003,-0.031769302,1.280859947,
1.286499977,-0.177414998,0.604430974,0.038997199,-1.277680039,0.063380100,0.622700989,-1.099529982,0.120743997,1.864470005,0.792747974,0.984956980,-0.019530701,-2.095099926,0.268532991,0.361396015,2.100409985,0.051372401,-0.005324780,-0.239412993,0.419966012,0.341109008,0.524731994,-0.040780500,-0.211251006,-0.327239007,0.585186005,0.647625983,0.062014401,1.397179961,0.300112993,0.703342021,1.976310015,-1.040850043,0.779078007,0.044264901,0.020022700,-0.316839010,1.445999980,0.621690989,0.727642000,0.044778898,0.517225027,-0.661094010,0.602966011,0.025970200,-3.170490026,0.947232008,-0.025800301,1.533579946,
0.003334900,-0.016751399,0.003312070,0.045757402,0.028472999,-0.033553500,-0.026331700,-0.019845599,-0.013281300,0.009729880,0.012645100,-0.017252101,-0.038074099,-0.020302299,-0.029691000,-0.021310899,0.011815500,0.016593400,0.042388801,0.014491300,-0.042486101,0.000953986,-0.024437301,-0.014470800,-0.002658750,-0.033057801,-0.016440300,0.014009800,0.027352599,0.041489899,0.019518999,-0.026031701,0.034351099,0.046455801,0.008751830,0.048149899,0.008476430,-0.022267399,0.008251020,-0.042669099,-0.007268790,-0.042874899,-0.004679310,-0.044277400,-0.036082800,-0.019468701,-0.035919800,-0.051323298,-0.018456001,-0.046310998,
-0.058707200,0.126489997,-0.432855010,0.041156799,-0.350795001,-0.451817006,0.028809300,0.232059002,-0.147477001,0.078567304,0.083207697,-0.489046007,0.029866301,0.169496000,-0.146308005,0.353877991,0.147979006,0.023536300,-0.008660190,-0.245839998,0.150686994,0.021654701,-0.540865004,-0.009502160,0.400218993,0.278468013,0.104324996,-0.130735993,0.060247701,0.402038008,-0.100174002,-0.061915800,-0.644622982,-0.215894997,0.590932012,0.007909780,0.006452110,0.214838997,0.000415669,-2.349709988,-0.681091011,-0.008731070,0.232985005,0.141593993,0.092732199,-0.014757200,0.740495980,0.141248003,-0.042253099,0.101742998,
0.401571006,-0.397895992,0.890841007,0.005761060,-0.098838300,0.891444981,2.134200096,-1.062489986,-1.314710021,0.507988989,0.184502006,-0.375546992,-0.053000301,0.570375979,1.643380046,0.365723014,0.312994987,-0.025583699,-0.042388901,0.045059498,-0.518307984,0.018342201,0.427044004,0.002715890,1.623720050,-0.237175003,-0.010439100,0.338183999,-1.247069955,1.076509953,-0.407436997,0.779191971,0.719017029,2.273849964,-0.458447009,0.004330030,0.002140490,0.648235977,0.661410987,3.928499937,2.699650049,0.027352000,-6.286260128,0.123088002,2.109879971,0.022091400,1.027439952,-0.099201903,0.044736300,0.407285988,
0.709743023,0.033183102,1.986500025,-0.009479720,0.191578999,0.191113994,0.520323992,-0.029380901,0.295893997,1.630419970,-0.118804000,0.626663029,-0.024053400,0.296106011,1.218680024,-0.453231007,0.954352021,-0.008516220,-0.034625400,-0.773473978,-0.409801006,-0.322939008,-0.037754599,0.022578301,0.458799005,-0.223239005,0.805058002,0.103120998,-0.329625010,-1.815909982,0.470575005,-1.693019986,1.496449947,1.589130044,1.179080009,-0.007232240,-0.014882200,-0.458364010,0.199765995,-0.454338014,0.622209013,0.007839590,-0.390792996,-0.814592004,0.327502012,-0.013110500,-0.132633001,0.184652999,0.049019501,0.354182988,
0.996250987,-0.403380990,0.182064995,-0.001715920,-0.238741994,0.025154499,0.199385002,1.166910052,-0.122694001,0.604623020,0.418758988,0.114430003,-0.030600799,0.232539997,-0.358081996,-0.028930901,-0.486847997,-0.036410902,-0.012165200,0.761790991,-0.528923988,0.035309400,-0.123558000,-0.028237300,-0.245664999,-0.120894998,-0.248799995,0.004559030,-0.357547998,-0.562093973,0.164936006,0.801252007,-0.302513987,2.397130013,1.151970029,0.020048700,0.006834050,0.091616601,-0.402520001,0.240727007,-4.418529987,0.050748099,1.135759950,0.436897010,0.004372600,-0.027102200,0.253286004,0.254191011,0.008191060,-0.590439975,
0.355733991,-0.767300010,0.114111997,0.045211699,-0.978613019,-1.351650000,-0.343295008,0.294396996,0.219207004,0.595106006,-0.313158005,1.154770017,-0.034821201,0.421792001,-0.098832302,0.194773003,-1.053369999,-0.033963900,0.003010960,-1.256270051,1.056409955,-0.416673988,-0.901296020,-0.037531301,0.268828005,-0.129185006,-0.107070997,-0.400272012,0.195681006,0.807685971,0.511780024,-1.225579977,0.819576025,-0.325085998,-1.024500012,0.027574200,-0.012028500,0.483837008,0.684866011,0.198418006,-0.159691006,-0.011815700,2.275460005,-0.180065006,0.036952700,0.023331100,0.642657995,1.688629985,-0.007841980,0.723482013,
1.139359951,-0.325199008,-2.603290081,0.017648000,0.054547299,0.460857004,-0.192717001,-0.735090017,-0.053935699,-1.356320024,0.372570992,-0.365034997,-0.002742160,0.512185991,-0.592747986,-0.075096697,-0.297012001,-0.002803840,0.029741300,-0.464235991,0.729775012,-0.532326996,0.508490026,-0.010660400,0.896768987,0.515196979,0.246062994,0.306023002,0.852267027,0.070747800,-0.048634700,0.165793002,-0.778738022,2.458389997,0.737406015,0.021639099,0.026932901,0.214603007,0.513466001,-5.894470215,-0.896942019,0.049338900,1.599670053,-0.328756988,-0.355358005,-0.005657460,-0.631078005,0.549062014,-0.030115500,-1.674960017,
0.483590007,-0.302709997,-0.901742995,0.044144500,0.358763993,-0.192451999,0.301770985,1.049250007,0.184374005,0.575183988,0.127287000,-0.050728101,0.007742620,0.044065099,0.471192986,-0.070196003,-0.559147000,-0.005060510,-0.010506400,1.038589954,0.196214005,-0.414510012,0.183488995,0.016202500,-0.681905985,-0.320883989,0.115676001,-0.141689003,0.722666979,0.746078014,0.149795994,1.382850051,0.540283978,1.081609964,-0.109503999,-0.049203999,0.014517000,0.285349995,0.266734987,1.101999998,0.204769000,0.002338060,1.136719942,-0.903240979,1.798099995,0.018687701,0.777050972,-0.437855005,0.015423000,-0.551208019,
-3.453160048,-0.398990989,-2.054080009,0.045250099,-0.115015998,-1.398329973,0.966881990,-3.666440010,0.008915210,0.103583001,0.562757015,-1.800220013,-0.008627740,-0.271916002,0.079786599,1.038980007,-0.262329996,0.034417398,0.042778902,-0.497828990,-1.845209956,-1.356799960,-0.478884012,0.015375400,-0.271869004,0.083368398,0.532276988,0.812965989,-0.995064020,-1.038319945,-0.194892004,1.071709991,-1.284960032,-5.726520061,0.057346102,0.006803330,-0.042887900,-0.827022016,0.189258993,-0.423146009,0.022617601,0.032536101,-0.556927979,1.034690022,-3.058710098,0.036967799,-2.270159960,-1.682109952,0.009835500,0.534283996,
0.794266999,0.251002014,1.347569942,-0.013970300,-0.314094007,0.464767009,-0.118878998,0.051181100,-0.238712996,-0.037447602,-0.326400995,-1.655189991,-0.034681000,0.109995000,-0.817031026,-0.244766995,1.112980008,-0.038355902,-0.049803499,-0.710093975,-0.109454997,0.185383007,0.768019021,0.026134100,-1.261309981,0.161175996,-0.890525997,-0.231570005,1.334200025,0.580922008,-0.492505014,0.243887007,-2.713799953,-4.491849899,0.822290003,-0.019180000,0.012491000,-0.124228001,1.158020020,-5.184239864,-1.104449987,-0.046342101,-0.459078014,-0.398474991,-0.417275012,0.041030400,0.252505988,-0.188199997,0.006357070,-1.127310038,
-0.340703994,0.244893998,-0.228021994,-0.020437300,0.317779988,0.058275599,-0.018637801,0.106411003,-0.083559401,0.294268012,-0.087476097,0.207978994,0.016971800,-0.076957300,0.415363997,-0.046810001,-0.004739660,-0.044282101,0.038559798,0.666589975,0.366133004,0.005351580,0.321871996,0.038704101,-0.263799995,-0.239666998,0.291725993,-0.259112000,-0.482353002,0.284882009,0.165470004,-0.588514984,0.201824993,1.016299963,-0.862403989,-0.020126499,0.013629500,0.354400992,0.146711007,-1.736889958,0.978448987,0.000224719,1.229410052,-0.446357012,0.450755000,0.020355400,0.956794977,-0.677341998,0.046723198,0.219727993,
-0.278317004,0.171439007,0.342703015,0.014617900,0.054426599,-0.195592001,0.063116401,0.063901797,0.089127399,0.009927930,-0.111377001,-0.389075994,0.017409900,-0.199979007,-0.159018993,0.001977730,-0.350728005,0.022115000,-0.039341599,-0.044676401,0.661755025,-0.278892010,-0.042157099,-0.000014346,-0.299620986,0.035103898,0.275536001,0.367119998,0.356097996,-0.293514013,-0.060636699,-0.389562011,0.049226999,1.236189961,-0.027276300,0.042037301,0.052776400,0.146102995,-0.401973009,-0.917560995,0.670997024,0.028516700,0.094289199,0.136694998,-0.375503987,0.010048000,0.028894600,-0.931477010,-0.015980000,-0.089257099,
0.028660800,-0.073166102,0.707262993,0.028635200,0.218051001,-0.313261986,0.033909898,-0.079110697,-0.487800986,0.685360014,0.565074980,-0.194124997,0.013345200,0.332165986,-0.246048003,-0.049441200,0.772486985,-0.041042902,-0.038699299,0.193559006,0.222977996,0.118395999,-0.054267500,-0.041473798,0.364524990,-0.247915998,-0.457076013,-0.498169005,0.047854200,-0.000247958,-0.342056006,0.494538993,-0.336685985,0.903452992,0.589210987,0.024482099,-0.023571201,0.527622998,-0.078602202,0.948028982,1.109490037,-0.027572200,1.011420012,0.275310010,0.423040003,0.022923701,0.503242016,-0.430743992,0.009422280,-0.038515400,
0.536219001,0.089633599,-1.010939956,0.002738360,0.631595016,0.720287025,0.399690002,0.271205008,-0.498452008,1.327049971,0.216147006,-0.079480097,-0.038473800,0.994897008,0.596337974,-0.545901000,1.233010054,-0.012888400,0.037165001,-1.144459963,0.248524994,-0.179977000,0.848185003,-0.041922100,0.093157999,0.074194402,0.023607999,0.063125901,0.859162986,0.067534201,0.438594013,1.595209956,0.360300004,0.877858996,-0.443257004,-0.004268320,-0.030732900,0.998567998,1.807890058,-1.108710051,-1.328840017,0.028883100,1.007619977,-1.112149954,1.613309979,0.007052560,1.395200014,-0.256671011,-0.012812900,0.067888901,
0.786019027,-0.499574006,2.018260002,0.033736099,0.546549976,0.081338897,-0.120255999,0.283183008,0.727267981,-0.255423009,1.808979988,0.667818010,-0.004116440,0.051301099,0.392053008,-0.144821003,-0.397377998,-0.025456499,0.039305400,-0.978281021,-0.304596990,0.347092986,0.233429998,0.044970799,-0.652754009,-0.312548995,0.290246010,-0.242952004,-0.118731000,-0.306995988,0.321494013,-0.354930013,2.957370043,0.222354993,1.410760045,0.034754101,0.028165400,0.303276002,1.665050030,0.445998013,0.052239802,-0.025810700,-1.277250051,-0.224610999,0.083593503,-0.024705200,-0.203325003,0.531901002,0.036528200,0.022854900,
-0.020558899,-0.968396008,1.160590053,0.010663000,0.276666999,0.359308004,-0.399356991,-1.370620012,-0.006718310,-1.240010023,-0.206820995,0.561499000,0.036168501,-0.146176994,0.516735971,-0.045077201,-0.207131997,-0.046395801,0.028360499,0.004364120,0.933611989,-0.865341008,-0.357665986,-0.044896100,-0.342819005,0.169678003,-1.434880018,-0.679548025,0.486981004,-0.933166027,-0.078367598,-2.123070002,1.505079985,0.938943028,-0.934428990,-0.043915600,0.025608400,-0.951677978,-0.203810006,-0.631262004,-0.161192998,0.001921600,1.702319980,0.756578982,1.203930020,0.037203401,0.106995001,-0.833854973,-0.001486520,-0.901633024,
0.654479027,0.049810901,-1.393589973,0.000925600,0.581367016,0.160146996,-1.533740044,0.721724987,0.433290988,1.615630031,-0.021950601,-1.038720012,0.005378640,0.376639009,0.659900010,0.263707012,-0.018542700,0.001709130,-0.034495700,-1.192610025,1.358129978,0.469116002,-0.086540997,0.040904801,0.121823996,-0.023305500,-1.172049999,-0.075151399,0.563449979,1.443670034,1.141180038,-1.557690024,-0.404614002,0.463907987,0.364504009,-0.024341000,-0.045767900,0.329703003,0.117486000,-0.929885983,-1.782490015,0.000900553,0.134623006,0.879006982,0.595965028,-0.041073501,0.559840977,2.082319975,-0.029293500,-0.467887014,
-0.918331027,0.762126982,-10.667699814,0.044885099,3.031250000,0.838536978,0.354167014,-1.570479989,0.140490994,-3.483180046,-1.754629970,-3.173870087,-0.033732101,-0.470571011,-2.368940115,-0.972948015,-1.306280017,0.043127902,0.007794470,0.463851988,0.347077012,0.574283004,0.077790901,0.045934699,0.426818013,0.230186999,-0.556595981,-1.371680021,-1.597339988,0.339708000,0.330303997,-1.946779966,-1.311560035,-1.783030033,-2.471859932,-0.037998799,-0.001539800,-0.302713990,-5.312139988,-7.990550041,0.799578011,-0.034817599,0.268812001,0.027509701,-2.173120022,-0.016144300,-3.896680117,0.177607000,0.031725701,-0.378821999,
0.541954994,-0.289357007,0.748205006,0.013735500,1.716510057,0.185816005,-0.049871501,0.609699011,0.033015601,1.192059994,0.067674302,-0.522539020,-0.037630700,0.329988986,0.566188991,-0.035976399,0.269228011,-0.041422699,-0.015296300,0.314830989,-0.331339002,-0.182227001,-0.054676000,0.015680101,-0.820775986,1.421049953,0.796885014,0.122488998,0.258372009,0.466901988,-0.030017400,0.315131009,-0.296445012,0.877372026,1.242550015,0.011455400,-0.024042500,0.132213995,0.916184008,-1.178509951,0.530206025,-0.004484450,-0.111146003,-0.450718999,0.411731988,-0.051607300,0.118413001,-0.091878600,-0.008933970,-0.840924025,
-0.094622701,-0.131704003,0.964797020,0.010558900,-0.665495992,-0.532512009,-0.426548988,1.521870017,-0.273508012,0.262077004,0.158556998,0.195714995,-0.009874170,0.793083012,-0.188685998,0.051140402,0.013994900,0.041535702,-0.018277001,-0.951710999,-0.160565004,0.262629986,-0.085155897,-0.024173301,0.049730700,0.336881012,0.385416001,-0.261330992,0.083978698,-0.782242000,-0.128013000,-0.453642011,0.190598994,-0.135983005,-1.059810042,-0.038374402,-0.001636120,-1.876979947,0.753682017,0.052503001,0.872313023,0.013615400,-0.979013026,0.043886900,-1.068760037,0.028405000,-1.068310022,0.251459002,-0.038385399,0.469262004,
0.002485470,-0.185477003,-0.011278800,-0.017896900,0.015617500,0.013301600,0.033207800,-0.017320501,0.057866201,0.043606602,0.007837010,-0.007972360,0.012831700,-0.047363799,-0.036444198,-0.014047200,-0.016179699,-0.006492740,-0.026076101,-0.056485999,-0.017626900,-0.138787001,-0.130934998,-0.036750600,0.026499299,-0.093215697,0.052875001,0.076062597,-0.064302899,-0.065789998,-0.072992302,0.024487199,0.017215000,0.051594999,0.054570898,-0.039058302,0.049655899,-0.032221500,-0.030432001,0.173204005,0.109165996,0.004992070,-0.029500300,0.003214760,-0.006358390,0.048809499,-0.001923170,0.048329901,0.002782380,0.033580199,
-1.428320050,0.917608023,0.741577029,-0.001574220,-0.285995007,0.545509994,0.569939971,-0.658704996,-0.732513011,-0.408091009,-0.977955997,1.128059983,0.038361799,-0.580551982,-0.005484260,-1.158650041,-0.427877992,0.019311201,-0.027100200,-1.102800012,0.409714997,-0.107327998,0.261400998,-0.007584460,0.147276998,1.042050004,0.415719986,-1.199679971,-0.504051983,1.019639969,0.049411800,-1.023560047,-0.516969979,0.231854007,0.158043995,0.010230700,0.044089001,0.071910903,-0.002459930,-0.468237013,-0.142511994,-0.031654298,0.856813014,-0.568729997,-0.800213993,0.031092200,-1.202469945,-0.354312986,-0.025220901,0.119257003,
-0.042560499,-0.037116501,0.016131099,-0.010741800,0.007578380,-0.042356301,0.015086300,-0.023248199,-0.055095602,0.039946500,0.044786599,-0.029391799,0.041052502,0.011244200,-0.030911500,-0.046368100,-0.046727899,-0.035351001,0.042099599,-0.020108800,-0.009495700,-0.037443899,-0.027415000,-0.049160901,-0.007118980,-0.034906901,-0.047858201,-0.049824201,0.013223500,-0.048449501,0.002836230,0.015362600,-0.003288020,-0.007364290,0.006101140,0.013666700,-0.004065170,-0.005999570,-0.043801699,0.001901660,-0.048500199,-0.004461760,-0.015916999,-0.015256000,-0.054094199,0.009026590,0.022781599,-0.004141000,-0.024316801,-0.018941000,
1.092689991,-0.260529995,-0.065393597,0.040043999,1.012380004,0.298855007,-0.251511008,0.814127028,-0.007965110,1.002769947,0.536022007,0.031200700,-0.050175600,0.331310987,-0.427313000,-0.167040005,0.174944997,-0.047454700,0.009836340,-0.252225995,-0.089370802,0.016635600,0.134353995,0.031055000,0.533401012,-0.245856002,0.064053103,0.010965000,0.128338993,-0.297080994,0.975977004,0.091888703,0.621742010,0.496740997,-0.354036987,-0.016205300,0.005607230,0.396308005,1.003559947,-0.696913004,0.048647299,0.000692215,-0.201769993,-0.282231003,0.611543000,0.037579998,0.765645027,0.005386350,0.011688700,-0.131573007,
-0.039276801,-0.167761996,-0.684538007,-0.007276640,0.207172006,-0.153989002,0.230110005,0.989791989,-0.859923005,0.292553008,0.420814008,-0.236580998,-0.016855801,0.051054299,0.358135998,0.077903800,0.153855994,0.030611400,0.024422400,0.921213984,0.225508004,-0.140763000,0.141011000,0.024771299,0.290325999,-0.386918008,-0.306836009,-0.362838000,-0.353774011,0.687929988,0.465348989,2.366379976,0.462639987,1.031399965,0.807959020,-0.019468000,0.041407101,0.093614101,-0.474783987,-0.653849006,1.014379978,-0.013210300,0.426210999,0.306672007,0.767268002,-0.002711220,0.093259901,0.366623998,-0.045345001,-0.185679004,
0.540248990,-0.160632998,-0.449375987,0.020992899,-0.254375011,-0.088220596,-0.133763000,0.782335997,-0.223814994,-0.191055998,0.183644995,0.584931016,0.021519201,-0.005437170,0.213800997,-0.156975001,0.813268006,0.003504280,-0.009709460,-0.101455003,0.441291988,-0.235712007,0.576815009,-0.043758798,-0.326312989,0.771127999,0.095826402,-0.659455001,0.352840990,0.352196991,0.291090012,-0.027864199,-0.389137000,0.949818015,0.194478005,0.029951900,0.007706020,-0.663055003,-0.564926982,0.203534007,-0.809041977,-0.039881900,1.547799945,-0.268137991,1.920400023,0.028147999,-0.033503301,0.359373003,-0.025952900,0.415630996,
-3.019269943,-0.579726994,0.052128602,0.015361500,0.771645010,0.354519010,0.410701990,0.329894006,-1.024189949,0.130301997,0.298094988,0.206123993,-0.047350399,-0.099946402,-0.296254009,0.183239996,0.022162501,0.007658350,-0.014229900,-0.718361974,-2.029320002,0.019399500,0.078156702,0.008930020,0.227506995,0.038950700,1.438269973,0.267785996,0.158381000,0.270942986,0.670863986,1.847040057,-1.235509992,-1.237619996,0.155846998,-0.027443400,0.003112660,0.181510001,0.435297996,-2.624819994,1.747699976,-0.053073902,1.135480046,0.521425009,0.185196996,0.022384901,0.039865602,-0.534637988,0.022795400,-0.776601017,
0.660534024,-0.036970299,0.928281009,0.007953920,0.491477996,0.579096973,-0.395390987,-0.148288995,-0.302940011,-0.228774995,-0.521050990,0.575007975,-0.030138699,0.780668974,0.260455012,-0.968308985,0.143152997,0.023514099,0.026301300,-1.060690045,0.236061007,-0.127008006,0.352445006,-0.028583501,1.181339979,0.041606400,0.004140860,-0.338306010,0.089386299,-0.731940985,1.339120030,-0.059620101,-0.276556998,0.847476006,0.595071971,0.048321299,-0.005600470,-0.242759004,0.365983009,-0.276477009,0.618354976,-0.006510080,0.569828987,-0.698293984,0.178302005,0.018197799,-0.645555973,-0.594115019,-0.018438401,-0.045268301,
-0.215161994,-0.223857999,-4.531159878,0.023670800,-0.825668991,-0.095806099,0.708711982,0.386999011,-0.102798998,0.354418993,0.338515997,1.850039959,-0.039011799,-0.928390980,0.334434003,1.081730008,0.370467991,0.002916840,-0.019306500,0.314173013,-0.322609007,0.368398994,0.337276012,-0.017802499,1.443150043,0.315618992,-0.699072003,0.199146003,-0.662312984,0.407335013,-0.312112004,1.492030025,0.699990988,0.117013998,-0.829809010,-0.024189800,0.025434500,-0.332637012,-0.986070991,4.488309860,-2.703639984,-0.046863299,0.770851016,1.024989963,0.453669995,0.010375500,0.264827013,-0.220443994,0.038019400,1.896029949,
-0.481453001,-0.201086000,-0.011440200,-0.047224600,-0.558672011,-0.202363998,0.224634007,0.592827976,0.324903995,0.574212015,0.460171014,0.048894498,-0.013152500,-0.262638986,0.559844971,-0.181345999,-0.401275992,0.043859702,-0.042621098,0.557734013,0.428638011,-0.311533004,0.143803000,-0.022768700,-0.264573991,-0.062270202,-0.073567800,0.041991498,-0.747457981,0.442526996,-0.417714000,0.098019399,0.884180009,-0.999388993,-1.081689954,0.021617699,-0.001003050,0.432379007,-0.037907101,-0.400388002,0.420394003,-0.022765899,1.064290047,0.496262997,-0.554229021,-0.037397500,0.765821993,-0.629656017,0.027170500,-0.147660002,
1.306660056,0.030099999,-3.016900063,-0.000157440,-1.228479981,-0.627241015,0.501942992,1.511369944,-0.109393999,2.478549957,0.400128007,1.513190031,0.001033840,-2.216670036,0.250853986,0.995121002,-0.006399730,-0.012218500,-0.048192900,-0.002148930,-0.490996987,-0.349660009,0.110625997,0.026906500,-0.209456995,-0.160669997,0.912726998,0.478552997,0.078183800,0.747875988,-0.395419002,1.376289964,-0.030152701,0.608298004,-5.470469952,0.034453802,-0.015307500,0.326963991,-1.671139956,-6.047619820,0.526721001,-0.009199420,1.070930004,0.734893024,1.792140007,0.000768610,-0.506718993,-3.468549967,-0.024987601,0.598662019,
0.108033001,
-0.234986007,
-0.639329016,
-0.005685060,
0.105587997,
-0.323882997,
1.251070023,
-1.575860023,
0.117486998,
-1.782590032,
0.049596298,
1.766059995,
-0.171536997,
-0.179977000,
-0.024822300,
-1.566130042,
0.623247981,
0.297679991,
-2.108439922,
-0.018301699,
-0.323563993,
-2.538510084,
-1.224410057,
-0.498295009,
-0.176107004,
-0.510348022,
-0.407577991,
-0.045254901,
0.060115699,
-1.416470051,
-0.034410700,
-1.061859965,
0.275597990,
-1.568820000,
-0.188391998,
-2.753139973,
1.845160007,
-0.362484992,
-0.087820403,
-0.112328000,
1.043699980,
-0.002944990,
-1.681059957,
-0.652005017,
1.070590019,
-0.319741011,
-0.178674996,
-1.280840039,
-0.634810984,
-1.520400047,
0.118656002,1.258669972,-0.589151978,-0.013321800,-0.310299993,0.280755997,0.355158001,0.543911994,0.014339600,-0.483633012,-0.556626976,0.358702987,0.609336972,-0.673294008,-0.005573070,0.112530999,0.089650199,1.682909966,0.906883001,0.041412398,0.604184985,0.338140994,-0.886887014,0.111647002,0.271385014,-0.178053007,0.605009973,0.311309010,0.124541000,0.594087005,0.019403201,-0.553413987,-0.654123008,-0.595435023,-0.636942029,-0.226023003,-0.315694988,-0.360386014,0.043080099,-0.025175100,-0.032766800,0.012917600,0.364544004,0.538097024,0.497431993,-0.333375007,-0.746721029,-0.169552997,-0.164955005,-1.442669988,
0.994154990,-1.782220006,-1.396289945,0.005430600,1.881690025,-0.674475014,2.525079966,-0.381410986,0.341329008,0.119414002,-0.746236026,0.636596978,-2.553349972,0.311257005,0.029255001,-1.018949986,-0.966046989,0.165126994,-0.762658000,-0.068108097,-0.156268999,-0.798442006,-0.862742007,0.084551901,-0.181967005,1.226369977,-0.578900993,1.044929981,0.243061006,-0.579519987,-0.957203984,-1.174749970,0.607354999,-0.278342992,0.387282014,-0.354140997,0.730066001,1.440690041,-1.237609982,0.043193001,0.965044022,0.035944000,1.085989952,-2.046849966,-0.569707990,-1.569139957,-2.423039913,-1.058750033,1.818709970,0.103868999,
0.275002986,0.724466980,-0.070332199,-0.030913601,0.198861003,0.195272997,-0.230981007,0.470972002,0.448038995,-0.250286013,0.134491995,0.131595999,-0.113944001,-0.094377898,0.005358030,-0.403510988,0.017192800,-0.288816005,0.013043800,0.002420180,0.803207994,-0.108158000,-0.239187002,0.667801023,-0.244983003,-0.315843999,-0.134407997,1.518849969,0.288343012,-0.100878999,0.521788001,0.788106978,0.369167000,-0.155238003,0.477681011,-0.017484101,0.377786011,0.252986014,0.944369018,-0.016326200,0.059073899,0.025188699,-0.067389801,-0.275606990,-0.086476803,0.228275001,-0.334657997,0.050220899,-0.082046598,-0.578981996,
-0.745356977,0.927043021,0.067205898,-0.036173899,-0.386833996,0.534675002,0.246342003,-0.226999998,0.384481996,-0.567049026,0.435562015,0.006635580,-0.114318997,0.288134992,-0.029306700,-0.232571006,0.312893003,-1.669970036,0.096613199,0.032101698,-0.291446000,-0.185908005,0.150506005,0.634711981,-0.580322027,-0.175337002,1.770599961,0.260890990,0.695428014,-1.103180051,0.459071994,1.036380053,0.023054600,-0.266534001,0.133405998,0.630222023,0.682567000,-0.953676999,0.398535013,0.087050602,-0.405568004,-0.014272200,0.973321974,0.060014900,-1.322669983,0.920095026,0.786759019,1.061159968,-0.244127005,-0.088053800,
-0.163799003,0.396461010,0.503538013,-0.000190517,0.554897010,0.031846698,-0.232776001,0.521745026,0.421701998,0.042208798,0.071547098,-0.059535600,0.583835006,-0.012626700,-0.016840501,0.056277100,0.023213400,-0.781819999,-0.166017994,-0.006709750,0.177119002,-0.203795999,-1.942669988,-0.162759006,0.170989007,0.026820900,-0.099156499,-0.658380985,-0.272745013,-0.050698701,-0.584246993,0.107432999,0.052862499,0.376731992,-0.342877001,0.062959298,-0.234668002,0.203685999,-0.600687027,-0.032195602,0.044181202,-0.040223900,-0.814031005,0.330942005,-0.489298999,0.736703992,0.238177001,0.082367800,-0.176121995,-0.220780000,
-1.965209961,-2.182810068,-0.331230998,0.048165899,-0.546988010,1.104429960,-0.807596028,0.028181000,-4.037970066,-2.524319887,-2.464230061,0.997376978,0.107561998,-1.796190023,0.007697030,-3.295109987,-1.504150033,0.138900995,-0.470304012,-0.018507000,-2.401649952,-0.865350008,-0.260152996,-2.586169958,-0.568618000,0.890751004,-1.142379999,1.614770055,0.021408999,-1.323719978,0.478498012,0.097940199,0.820568979,-0.583519995,-0.289321989,-0.874529004,-1.177230000,0.930458009,-0.359867990,0.014592100,-1.753039956,0.001447930,1.117969990,-1.915169954,1.011459947,0.728442013,-1.530609965,-0.471244991,-1.298130035,-0.517324984,
-0.636713982,0.454755008,-0.354961991,-0.010386800,0.562021971,0.193494007,0.713612020,-0.222165003,-0.532077014,-0.131126001,-0.203832999,0.492938995,-0.478453994,-0.330017000,0.010990100,-0.509640992,0.016908601,0.976127028,-0.305992991,-0.002911940,0.371484011,-0.152943999,0.023399699,-0.786886990,0.069735698,0.475136995,-0.031404901,0.580309987,0.210723996,0.122326002,-0.500553012,0.617546022,0.600759983,-0.037786201,-0.195706993,-0.282799989,0.478606999,0.323601007,0.066131003,-0.015099400,0.033183198,-0.042344000,-0.251453996,0.180408999,0.037916400,-0.111396998,-0.095453598,-0.036726899,-0.131142005,-0.581719995,
-0.198524997,1.516970038,0.313587010,0.031871900,-4.368710041,0.078078002,0.313627005,-0.092419103,1.355389953,-0.047534298,-1.359240055,0.146342993,0.916014016,0.394924015,0.005312060,0.383323997,-0.005420060,-0.927048981,-0.790867984,0.022923900,-0.852479994,-0.095154800,1.073160052,0.483741999,-0.080762900,0.424596995,-1.152559996,-1.043859959,-0.087725699,-1.790889978,-1.272119999,2.076809883,0.749399006,-0.217327997,-0.110223003,-0.739112973,-0.108672000,-0.868858993,-0.183053002,-0.003495970,0.184448004,-0.019478999,-0.035640199,-0.273692012,0.403636009,-0.523581982,-1.266939998,-0.341232002,1.040639997,0.813897014,
-4.060770035,2.914069891,1.344300032,-0.033814099,-0.022920400,1.934829950,-6.334219933,1.947450042,-4.764959812,-1.319489956,-4.403279781,-0.435456991,-3.726030111,1.612619996,-0.022839600,0.149515003,-2.120909929,-4.364490032,-1.087790012,0.044068798,-0.111570999,-1.161329985,5.733200073,-0.371084005,-0.840210974,-0.314700007,-3.226039886,-1.094630003,-1.000259995,3.199470043,-2.353310108,-4.147429943,-2.209800005,-3.630219936,-4.822279930,-0.397460997,-1.629979968,0.958545983,-2.103919983,-0.012989300,-1.183949947,-0.027222499,-2.515939951,-2.992710114,0.125189006,-1.102030039,1.610329986,1.770990014,-4.927239895,-0.469446987,
-0.167034999,-0.629252970,0.228309005,0.045154601,0.042898700,0.305372000,-0.099426404,0.599358022,-0.012052700,0.577713013,0.166935995,-3.054419994,-2.304300070,-0.265731990,0.012965200,-1.126240015,0.091328204,-0.089669801,0.338966012,0.038408000,-0.534893990,-0.143283993,0.839765012,-0.669583976,0.338905990,-0.073252901,-0.813827991,0.722410977,0.050166700,-1.277410030,-0.828599989,2.013580084,1.337399960,0.722487986,0.678816020,0.483485013,0.035861801,-0.860508978,0.095542297,-0.035671402,0.160344005,-0.019130200,1.939309955,-0.732272983,0.853359997,-0.163570002,1.020429969,-1.248540044,0.650072992,1.078420043,
-0.451173007,0.670948029,0.486606002,0.015745500,0.081582099,0.176146001,-0.165566996,-0.682767987,0.106830999,-0.197062999,0.340602010,0.421337992,2.268860102,0.492823988,-0.025642900,0.289018005,-0.015655801,0.788380027,-0.226140007,-0.042332299,-0.200308993,0.105991997,-0.558233976,0.595481992,0.013985900,-0.326045990,0.272343993,-0.123357996,-0.196402997,0.550468981,-0.130919993,0.434392989,-0.638523996,0.736608028,0.817614973,0.110163003,-0.506775022,-0.528351009,0.328336000,0.059459802,0.320385993,0.014201500,-0.149579003,0.633735001,0.118725002,0.527713001,0.126599997,-0.121746004,0.153355002,1.195940018,
-0.199068993,0.307415009,-0.130465001,0.029537501,-0.068118498,0.029014099,-0.018581100,0.029015400,-0.037385400,-0.270853996,-0.084594399,0.026527900,-0.813634992,-0.203891993,-0.042377502,-0.335132003,-0.128746003,-0.159576997,0.046129700,-0.004764440,0.143653005,-0.324781001,0.643233001,0.005619420,0.037753399,0.077020399,0.584146976,0.227672994,-0.087558202,0.316011012,-0.279365987,0.212586999,0.205432996,-0.053892300,0.145160004,0.044592701,0.031812400,-0.375600010,0.098905303,0.018798100,-0.073011503,0.032937799,0.464464992,0.254878998,-0.577247024,-0.207130998,0.044668201,0.160019994,-0.260089993,-0.266404986,
-0.131944001,0.225047007,-0.004082890,-0.018392401,0.606824994,-0.415134013,0.099394903,0.378663987,-0.277413994,-0.469935000,-1.119819999,-0.594273984,1.532580018,-0.260818005,-0.004537500,0.459062994,0.359670013,-1.283959985,0.004034760,0.005670550,0.314734012,-0.143658996,-0.034792900,0.019447099,-1.121019959,-0.359014988,-0.343245000,0.841413975,-0.094207197,-0.383291006,-0.081153698,0.215072006,0.212874994,-1.031540036,-0.111204997,0.326377988,0.538542986,-0.294678003,0.952234983,-0.010038300,-0.272431999,0.009858350,-0.267069995,0.456838995,0.309671998,-0.404509008,0.605363011,0.081716798,0.767189026,0.455695987,
0.091941103,-1.992159963,-0.395366013,0.023759400,0.804040015,0.130544007,0.190740004,-0.170194000,0.316639006,-0.402534008,0.009093930,-0.188489005,-0.775647998,0.160026997,0.033133999,0.322834015,-1.253450036,0.458577991,-0.188575000,-0.071274400,0.409862995,0.159807995,0.742525995,-1.617030025,-0.415787011,0.686233997,-0.284267992,0.396412998,0.315663993,0.095162898,0.139749005,1.160390019,-0.163427994,0.619135976,1.007200003,-0.185136005,-0.055897899,0.438993990,-0.324043989,0.092536800,0.624139011,0.045691598,-0.611536980,-1.162500024,0.742523015,-0.305375010,-0.605515003,-0.338656992,0.226346999,0.207653999,
-0.214955002,-0.319068998,-0.778481007,0.023919400,0.089562699,-0.012739600,-0.906937003,0.511071026,1.674520016,-0.153172001,0.767255008,-0.085564598,1.305840015,-0.388628989,-0.029052500,0.613035977,-0.450857997,-0.663415015,-0.129611999,0.038404901,0.540192008,-0.162413001,-0.688373983,0.952008009,-0.595324993,0.389577001,0.077946603,-1.163110018,-0.081923999,-3.750010014,0.056596600,-0.420973986,-0.182634994,0.381990999,0.783191025,0.228905007,-0.108802997,0.397311985,0.185168996,0.025965801,-0.288477004,-0.023016199,-0.639702976,-0.521956980,-0.361337006,-0.463822991,1.198549986,0.600081980,0.316049993,-0.501028001,
-0.149259999,0.459832013,-0.270805001,0.030509600,-0.289891988,-0.076167502,-0.053176802,-0.522472978,0.265767008,-0.047620200,0.633746028,-0.223289996,0.342337012,0.117408000,-0.028984500,-0.384277999,-0.175961003,0.941505015,-0.103866003,0.011570200,-0.311185986,0.206479996,-0.246105999,-0.367229015,-0.155318007,0.247593001,0.049366798,-0.185332999,0.047172800,0.640160024,0.391561002,-0.557482004,-0.536062002,0.337013006,-0.142123997,0.264853001,-0.120040998,0.368037999,-0.048057102,0.019893700,-0.036465600,0.041224301,-0.443444014,-0.231703997,0.653355002,0.560672998,-0.198166996,0.240716994,0.194674000,0.198831007,
0.089942999,0.560042977,0.180715993,-0.020219600,0.506604016,0.229192004,-0.095517799,0.151554003,0.314258993,-0.140816003,-0.324580997,-0.620715976,0.614923000,-0.055846602,-0.043388799,0.272830009,-0.028940100,0.427543014,-0.091063403,-0.029117700,0.102303997,-0.061718799,-2.500329971,0.176065996,-0.257191002,0.141294003,-0.027075300,0.699056983,-0.098163202,0.039992198,-0.649106979,-1.429260015,0.031983100,-0.151879996,0.027399199,0.254514009,0.108770996,-0.498593003,0.357199997,-0.004807460,-0.140857995,-0.039029200,0.067976303,-0.241899997,-0.087212101,0.336618006,0.024560200,-0.370736986,0.201057002,0.136270002,
-0.246021003,-0.269742996,0.059724499,0.015756899,0.523680985,-0.156817004,-0.023389200,-0.794575989,-0.604098976,-0.226987004,0.202700004,0.442710996,0.478967994,0.130553007,-0.011772700,0.573670030,0.203198001,-2.524230003,-0.278650999,-0.019299701,-1.385949969,0.213379994,-0.610314012,-0.649156988,-0.737793982,-0.233732998,-0.114408001,-1.080860019,-0.414986998,-0.141966999,-1.044489980,-0.383154988,-0.323343009,0.386622995,-0.035747401,-0.226114005,-0.188830003,-0.217399999,-0.894129992,-0.044918500,0.482831001,-0.048644800,-0.447827011,0.301450998,0.821506977,-0.948170006,-0.210860997,-0.115567997,-0.051820301,0.319750011,
-0.031166000,0.179233998,-0.129346997,0.024472101,-0.159214005,0.231564000,-0.283399999,0.423617989,0.202458993,-0.614941001,0.216887996,-0.162856996,0.071085297,-0.079050697,0.031644799,-0.571022987,-0.983289003,-0.034944899,0.453518003,0.033744700,0.272733003,-0.118963003,-0.057094201,-0.567516983,0.015887899,-0.002120990,0.195544004,-0.095681697,0.222440004,-0.033800200,0.575586975,0.383985013,0.113273002,-0.478744000,-0.126867995,0.125102997,-0.049469199,0.119534001,0.444554001,0.023074999,-0.380409986,-0.011129300,0.161679000,0.123464003,0.051385898,-0.056242999,0.135851994,0.072339199,-0.070761599,0.453240991,
-0.441349000,1.664350033,1.039759994,0.038750399,0.850700021,0.117145002,1.164440036,0.574898005,-1.852329969,0.464112997,-1.568490028,-0.207188994,-0.484638005,0.396604002,0.009844090,-0.485029012,-1.308400035,0.762784004,-0.482805997,-0.047269002,1.481500030,-0.055584300,1.515660048,-0.729466975,-0.380676001,0.194475994,0.807299972,-1.566570044,0.578862011,0.121385999,-0.557599008,1.520159960,0.108043000,0.390201986,1.022459984,-0.415596992,0.526785016,-0.943352997,0.850628018,0.040128902,-0.050111800,0.002147250,0.794375002,0.426104993,-0.385437995,0.340649992,1.006430030,-0.375872999,-0.222708002,-0.614565015,
1.759819984,0.438154012,0.269477993,0.037877601,-0.119570002,0.089899696,-0.033622202,0.455000013,0.530381978,-0.170141995,0.255409002,-0.300485998,1.662179947,-0.143582001,-0.006159400,-0.077169597,-0.399861991,-0.321687996,-0.018220801,-0.033665299,0.166703999,0.380814999,-0.243552998,0.081936300,0.700648010,-0.045091901,-0.698303998,-0.661212027,-0.031772900,-0.161083996,0.252716005,-0.765725017,0.407207996,-1.053189993,0.420515001,0.007222040,-0.322885990,0.431326002,0.638029993,-0.013840400,-0.216718003,-0.032426201,-0.332711011,-0.369982004,-0.038829599,-0.296555996,-0.034902401,0.287342012,0.741828978,0.136627004,
-1.077370048,0.336084992,0.419279009,0.000240789,-0.107326001,-0.215351000,-0.210959002,0.272455990,0.617308021,0.286989003,0.047592800,0.423209995,1.067049980,-0.041826900,0.025133699,0.025502199,0.339578003,0.079023898,-0.097999401,-0.037952501,-0.137033999,-0.173428997,-1.898699999,0.251334012,-0.365204990,-0.383837998,0.549476981,0.256262988,-0.411702007,-0.083000898,-0.677480996,0.066517502,-0.058723200,0.205467999,-0.061249800,0.182047993,-0.037961401,-0.406378001,0.480996013,-0.003721960,-0.271093011,0.009577660,-0.173739001,0.464895993,-0.409081995,0.011187500,-0.232304007,0.302576005,-0.369127989,-0.040444400,
-0.278876990,0.143324003,0.473118991,-0.042817801,0.072704896,-0.109385997,-0.399610996,0.299378991,-0.196587995,0.120406002,-0.193743005,-0.023851199,0.108911000,0.112350002,0.018430000,-0.354326993,0.101140000,-1.217290044,0.240537003,-0.024006100,0.324483991,-0.072806597,0.256653994,0.047668301,0.121720001,-0.030523401,-0.133596003,-0.408219010,0.004340750,0.298655987,0.392899990,0.268528998,-0.156343997,0.319914997,0.058348801,-0.194353998,-0.197347999,-0.267383009,0.071090601,0.081348903,-0.008607370,-0.022772400,0.382743001,0.076355398,0.061452799,-0.029667700,0.012985800,0.214522004,-0.367805988,-0.352353990,
-0.074579202,0.028339701,-0.059714299,-0.007083800,0.002109110,0.041306600,-0.038506899,0.009996840,-0.003318420,-0.031857301,-0.018323701,-0.080247201,-0.009207120,0.060618799,-0.032979600,0.034879301,-0.067788802,0.009708530,0.035482399,0.013283300,-0.079639599,-0.063505001,0.049485698,0.025708800,0.033194002,-0.016313700,-0.055421200,-0.024905300,0.062153701,-0.047704101,0.035845499,0.019062700,-0.166569993,-0.018459501,0.011665300,0.043946799,-0.025514601,-0.020550201,0.005712420,0.044366799,-0.053404801,0.021732099,0.039358500,-0.011599800,-0.045447201,0.004014260,-0.003782620,-0.004567140,0.038905401,0.035236500,
-0.043381099,0.020350100,0.018654799,-0.015783301,0.006462550,0.014109400,-0.006499550,-0.022344699,-0.039333999,-0.013178100,-0.028807400,-0.021449700,-0.046857901,0.001553470,0.041989900,0.039480999,-0.045714900,0.027034000,-0.004619330,0.002792820,-0.027124600,-0.031118300,0.003515680,-0.004142050,0.006257260,-0.014126600,-0.007629960,0.026637999,-0.050462600,-0.047824599,-0.053743199,-0.029161099,-0.018351400,-0.011745700,0.013888400,-0.003703580,-0.017039301,-0.016147001,0.020827901,-0.000252082,-0.004711770,-0.022451600,-0.008417330,-0.035334900,-0.035951000,0.009933100,0.040446099,-0.027331000,-0.011377400,-0.043318201,
-0.384351999,1.015869975,0.300249010,0.052853800,0.222889006,0.058832701,0.203997999,-0.485276014,-0.258161992,-0.136793002,-0.569606006,-0.595013976,0.659937024,0.243328005,-0.015467900,0.822712004,-0.160863996,0.582624018,-0.402907014,0.050420601,0.928834975,-0.265112996,1.112730026,0.170835003,-0.355912000,0.207707003,1.148540020,0.470256001,0.358956993,1.737679958,-0.105741002,-0.994302988,-0.751797974,-0.142827004,0.781961977,0.167061001,-0.079484001,-1.609899998,0.353179008,0.102173999,-0.341623992,-0.019360600,0.879980028,1.154899955,-0.832240999,0.833929002,0.195134997,0.286237001,-0.144650996,-0.203323007,
-0.663331985,-3.546950102,-2.833610058,-0.003844940,0.703715980,-3.423259974,5.330389977,-1.973749995,2.660300016,1.139320016,-1.231359959,-0.952507019,-3.283710003,-0.359582990,-0.014342800,1.078099966,1.533409953,-0.324010015,-0.162051007,0.010609800,-3.702589989,-0.796702027,-0.008412340,-1.372020006,0.824009001,-0.457399994,-7.553649902,-1.969089985,0.129195005,-3.338890076,0.805592000,1.267030001,2.268569946,-2.478230000,-0.070020102,-0.713642001,-2.748939991,-0.823879004,0.487060994,0.016080100,0.630886972,-0.046753500,-2.119970083,-0.451833010,-0.048175398,-4.648779869,-0.975890994,-0.592969000,0.205532998,-1.236330032,
-1.524369955,0.476648986,-0.157691002,0.029844200,0.592332006,0.013107200,0.168219000,0.222929001,1.123960018,-0.554024994,-0.482841998,-0.147284999,-0.382090002,0.090225197,0.041232899,-1.326040030,-0.696519017,0.476554006,-0.546591997,-0.031206399,0.234047994,-0.302208990,0.760598004,-0.358633995,0.015745200,0.082909100,0.341093987,1.334750056,-0.326135993,-0.484055012,1.571130037,1.364169955,0.613973975,0.973002017,-0.063362502,-0.089968704,0.528234005,-0.221094996,0.068041399,0.098648697,-0.344940990,-0.014879000,-0.093386702,0.194431007,0.408206999,0.083515503,-0.399473011,0.433737010,-0.961342990,-0.686591029,
-0.226294994,-0.417739004,-0.354885995,0.000718449,0.083383404,0.079000503,0.002306500,-0.007637250,-0.240829006,-0.089369997,0.318756998,0.104746997,-0.100661002,0.055727102,0.012631400,0.096342199,-0.070067398,-0.574259996,-0.145068005,-0.044413000,0.246426001,-0.155799001,0.302794993,-0.134628996,0.131577998,-0.122202002,-0.138178006,-0.112395003,0.011052100,-0.184024006,0.216273993,-0.958607972,-0.060550701,-0.147719994,0.183712006,-0.060698900,0.036058798,0.198947996,-0.331829011,-0.006580420,0.054434702,-0.030687900,0.306412995,0.053570300,-0.222035006,0.034931902,-0.367366999,0.066616401,-0.200313002,0.221881002,
0.004364000,0.747168005,-0.230194002,-0.012089300,0.207926005,-0.237852007,0.730659008,-1.287700057,-2.427279949,0.036772899,0.278026998,0.435622007,-0.940156996,0.163140997,-0.002198880,-1.630429983,-0.365646988,-2.644680023,0.046118300,-0.041400600,-0.173314005,-0.212271005,0.321327001,0.493584007,-0.348087013,-0.307547987,0.028553599,0.127253994,0.317618012,-4.772069931,-1.583729982,0.941277027,-0.162066996,0.460296988,-0.428256005,-0.139807999,0.851227999,-0.311933011,0.197978005,0.035566799,0.055261999,0.028570401,-0.685032010,-0.065108299,0.402637005,0.617826998,0.139347002,-0.394874007,0.640892982,0.769681990,
-0.357744008,0.067690201,0.061471101,-0.029728200,-0.159618005,-0.414321005,0.569751024,-0.882641971,0.170745000,-0.324986011,0.090729699,0.272643000,0.117550001,0.154636994,0.027719000,-1.756270051,-0.358682990,0.484266013,0.424557000,0.000855479,-0.901192009,-0.126940995,0.380596995,0.037904799,-0.730539024,-0.197690994,0.260690987,-1.256250024,-0.449827999,0.196680993,-0.282846004,-0.253502011,-0.798704982,-0.067928798,-0.404087007,0.526130021,-0.163686007,-0.172856003,-0.638876975,0.118049003,-0.367119014,0.001026430,-0.243798003,0.656719029,-0.133339003,0.435981989,0.630492985,0.326512992,-0.763092995,-0.782739997,
1.081910014,-1.534890056,0.169750005,-0.049447801,0.408928007,0.497433990,1.407379985,-0.100642003,-1.187000036,-0.464249015,-0.336885005,0.317660004,0.275866002,0.985143006,-0.028006800,0.220330998,1.137390018,-1.652699947,0.082087100,0.029670799,-1.148669958,-0.416027993,-0.165948004,-0.808016002,0.108663000,-0.060201999,-1.221199989,-1.994660020,-0.012069800,-1.771919966,-0.041574001,-1.012420058,-0.229301006,0.738788009,-0.214704007,-0.881972015,-0.351049006,-0.166333005,-1.032610059,-0.044175401,0.847124994,-0.006420360,0.013642100,-0.217639998,0.473257005,-3.636090040,-1.178699970,-1.055580020,-1.663869977,0.201150000,
0.086540297,0.287310988,0.106960997,-0.039851502,-0.478329986,-0.002312200,0.149540007,1.400269985,-0.883876026,1.368989944,0.091857597,0.220075995,2.495029926,1.307469964,-0.026736200,0.569109976,0.591688991,-1.421630025,0.626010001,-0.021105699,-0.732994974,0.402913988,-1.287840009,0.928888023,-0.261216015,0.634028018,-0.180292994,-0.008502120,1.289809942,2.028140068,-0.329822987,-4.622360229,-1.285650015,-2.589420080,1.253020048,-0.047595400,-0.859162986,-0.284238994,-0.652414978,0.024690500,0.495050997,-0.021107100,0.293273985,0.214607000,-0.286624998,0.011261800,0.428535998,-0.076382101,0.520745993,0.710075021,
1.038869977,0.856321990,-0.623090982,-0.036060099,0.856356978,0.262944996,0.138350993,0.310640007,0.074321002,0.822829008,0.069803298,-1.554499984,0.046156000,-0.148803994,-0.017603500,0.308717012,-0.779329002,-0.646669984,-0.182187006,0.009540280,0.105181001,-0.085682400,-0.797381997,0.035621598,0.049245700,0.819734991,-0.080723204,1.272760034,0.756864011,1.346099973,0.459105998,0.197362006,0.206396997,-0.013349500,0.624889016,-0.075160801,0.602536023,-0.493811995,0.994921982,-0.000045350,0.266952008,-0.035798799,1.428879976,0.497119993,-0.247610003,0.157256007,-1.276999950,-0.144648001,0.491560012,-0.011211900,
0.129721001,0.380997002,-0.134683996,0.040109601,-0.993970990,0.457031995,-0.807298005,-0.750989974,-0.283749014,1.254619956,-0.049930099,0.136510000,2.276010036,-0.088876203,-0.055408701,0.812507987,0.401782006,0.958738983,0.950362027,-0.033258799,0.723408997,0.624155998,-0.008399360,1.239099979,-0.551178992,-0.463990003,0.171895996,0.315492988,0.084270403,-0.166978002,0.155358002,-0.324221998,-1.110200047,-0.020518400,-0.141631007,-0.211346000,-0.708778024,-0.053404301,0.210361004,0.028881799,-0.331566006,-0.037574802,-0.633112013,-0.279855013,0.369291008,0.303528994,0.209077999,0.559467018,-0.389528006,0.650897026,
0.308429003,-0.784788013,0.113127999,0.009765580,0.662995994,0.558449984,0.250223994,-0.826162994,0.782626987,0.375194997,-0.263920993,-0.668655992,-1.103870034,-0.328814000,-0.046069801,-0.345396012,0.496223003,-0.312669992,0.038404401,0.045019701,0.538631022,-0.366268009,1.255220056,-4.738949776,-0.348904014,0.900484025,0.436185002,0.829360008,0.716782987,1.961779952,0.380786985,-0.922477007,-0.485446990,0.544874012,-0.982003987,-0.284732997,0.017556800,-0.647002995,-0.240824997,0.075738102,0.420664996,-0.027876500,0.107964002,0.422849000,-0.136024997,-0.509328008,0.827378988,0.763455987,1.143579960,1.501989961,
0.329614013,-2.817049980,-1.001950026,-0.002195410,-0.234005004,-0.104813002,2.201639891,-0.509912014,-0.233412996,-0.845714986,-2.377290010,-0.610956013,0.589394987,-0.109425999,-0.025798099,-4.504429817,0.361470014,-0.145639002,-1.413460016,-0.015067200,-1.218600035,-0.029832100,-3.184930086,1.775179982,0.811317980,0.176375002,-0.571040988,0.165950000,-0.214844003,-3.361419916,0.669607997,1.078130007,0.360659987,-0.636566997,0.021564299,0.130987003,0.406118006,0.317939013,-0.183516994,-0.035228901,-1.196040034,0.024134200,0.442824006,0.044008400,-0.392926991,-0.557950020,-1.180289984,0.585062981,-1.792219996,-1.264199972,
-0.322387010,-0.154765993,0.492339998,0.000927737,-0.055517599,0.041508999,0.488669991,0.354939997,-0.213937998,0.754284978,0.929768026,0.279525995,0.688606977,-0.135998994,-0.033188201,0.752471983,0.619929016,-0.602470994,0.649591982,0.004096980,0.944600999,0.388891995,0.591843009,2.012809992,-0.078452297,-0.504163027,-0.350248009,-0.207525000,0.601908982,0.526937008,0.333332986,-0.943589985,-0.452039987,0.589618981,0.770120978,-0.342101991,-0.420334011,-0.206881002,-0.585611999,0.076051697,0.155062005,-0.037407301,-0.810258985,0.664258003,-0.305027008,-0.301813990,-0.640590012,-0.090629302,-1.245370030,0.292735010,
0.025478899,0.743272007,-0.325163990,0.054195099,0.209331006,0.339650989,-0.109384000,0.085265502,-0.309231013,0.008298510,-0.449910998,-0.175542995,0.570263982,-0.022566400,0.025023401,0.452225000,-0.295569003,-0.136145994,-0.153088003,0.041721299,-0.154781997,-0.251210988,0.376800001,0.110339001,0.043657899,0.171385005,-0.020529499,-0.368461996,0.412355989,0.753615022,-0.047094200,-0.501363993,-0.220819995,-0.142574996,0.621523023,0.066368103,0.485206991,-0.468409002,-0.017709300,0.033304799,-0.417490989,0.053277601,0.532204986,1.042080045,-0.199011996,-0.034456901,0.179918006,0.116383001,-0.355006009,0.846478999,
-0.041910902,-0.000692210,-0.079686902,-0.032848101,0.012098100,0.040203899,-0.010980000,-0.008748460,-0.046575900,-0.003037640,-0.030672500,-0.043224301,-0.059819099,-0.019339500,-0.028604399,0.039779000,-0.041786801,0.044859901,0.026248300,0.004486320,-0.111106001,-0.011710800,0.023725200,0.039014500,0.009710880,0.014545600,-0.082406104,-0.041912001,0.029082200,0.017835399,0.044551499,0.098189399,-0.132721007,0.030724199,-0.014147700,-0.031862900,0.010071700,-0.079264998,-0.035582501,0.069047101,-0.084341198,-0.024395600,0.012137600,0.001951530,-0.101636000,-0.015862400,0.029433301,-0.021917600,-0.017710799,-0.032689501,
-0.832870007,1.323899984,-0.262001008,0.022114400,0.057853401,-0.317371011,-1.116170049,-0.453132004,-0.303663999,-0.215540007,-0.362275988,-0.044948298,-0.175806999,-0.738969028,-0.004161950,0.738906980,-0.241686001,0.187433004,-0.155865997,0.020322399,0.213854998,0.034992602,-1.202080011,0.097365603,-0.665360987,-0.435292989,0.027972400,0.468266994,-0.016772600,1.463199973,0.233305007,0.206714004,-0.732913971,0.180877998,0.228360996,0.013611100,-0.214699000,0.271001011,0.179534003,-0.004336080,-0.251608998,0.041470900,-0.493393987,-0.054403398,0.687399983,0.782478988,0.328399986,0.178907007,0.499383986,-0.333357006,
-1.964419961,-1.193740010,0.316946000,0.032991700,-1.374510050,0.554718018,-0.104253002,-0.819010973,-0.956466019,0.111601003,-3.048340082,0.823108017,-2.187979937,-0.914107025,0.016068900,-0.086918198,-1.096740007,-2.658489943,-1.560209990,-0.034072999,-2.020139933,-0.292367995,2.059210062,-3.748430014,0.704793990,1.004539967,0.584989011,0.810702980,-0.120082997,0.168328002,-2.196609974,-2.239099979,-0.107725002,0.727643013,-3.570930004,-1.254420042,-0.727580011,-0.452749014,-2.820480108,0.044334698,-0.164049998,-0.005708820,-1.844329953,-0.495251000,1.547989964,-2.148309946,-0.667779028,-0.476806015,-3.300559998,-1.312780023,
0.417483002,1.982040048,-0.521091998,0.017423401,-0.451979011,0.016350999,-0.674544990,-0.823743999,-0.648418009,1.079059958,1.765789986,0.271784991,1.174870014,-0.279181987,-0.004353660,1.520290017,0.140695006,-0.710968971,-0.076656103,-0.027356001,1.061400056,0.207660004,0.804591000,1.560340047,-0.451882005,-0.116057999,0.730005980,0.010872700,0.235073999,2.187410116,0.981530011,-2.649420023,-0.900148988,-1.641270041,-0.220599994,0.622928023,-0.189986005,-0.506078005,0.536597013,0.030750500,-0.195363998,0.007528900,-0.452805012,-0.849824011,-0.488595009,0.747076988,1.762959957,0.559360981,0.907507002,-0.113261998,
-0.106774002,-0.020687900,-0.091702797,-0.016614201,0.068807602,0.023679500,-0.032366600,0.090812601,-0.010258500,-0.027554700,-0.028913099,-0.063698500,-0.046362799,0.005360600,-0.047656499,0.005722620,-0.017659500,0.053787000,-0.012249700,0.049469698,-0.142312005,-0.022572000,0.008254970,-0.039619900,0.043473899,-0.067672104,-0.054467302,-0.024193799,-0.029610500,-0.049028799,-0.025347400,0.074398004,-0.142185003,-0.004043230,-0.033100698,-0.016727000,-0.041028898,-0.038252398,-0.040174499,0.067662202,-0.068497799,-0.003740120,0.061069299,-0.071593396,-0.100877002,-0.045870699,0.063209899,-0.020502700,-0.014483400,-0.017486800,
-1.076850057,0.160886005,0.423126996,-0.046543501,-0.419102013,0.205403000,-1.232890010,0.313611001,-0.223920003,0.124279000,-0.877152979,0.023931701,-2.008179903,-0.435892999,-0.034839898,0.357510000,-1.475669980,-0.534747005,0.394106001,-0.025988599,-0.354395986,-0.592765987,1.297600031,-0.666808009,0.064892597,0.645644009,-0.799973011,-0.894410014,0.075075403,1.535920024,-0.915435016,-0.985244989,-0.940195978,1.012959957,-0.376047999,-0.444593012,-0.714412987,0.960327029,1.382539988,0.024710899,-0.509815991,-0.000419807,-0.606543005,-0.206678003,0.054642599,0.224816993,-0.062981099,0.844004989,-0.827354014,0.843034983,
-1.208660007,-0.890429974,-0.015518700,-0.026457099,0.078648299,0.185440004,-0.772373021,1.003890038,-1.065549970,-0.610372007,-0.656574011,0.675557017,-1.063570023,0.277018994,0.051883999,0.379437000,-1.419499993,-0.169708997,0.150757000,0.010874300,-0.242471993,-0.278670013,-1.195269942,-1.842530012,0.215652004,1.133129954,0.363880992,-0.167567000,-0.221169993,1.593899965,-0.935207009,1.424939990,-0.262623996,-0.779330015,-1.928329945,-0.093071900,1.241950035,-0.190472007,-1.359189987,-0.010534500,0.124668002,-0.034086902,0.569751024,2.115149975,0.196083993,-1.453050017,0.593125999,0.434704006,-2.717149973,-0.664171994,
1.131549954,1.110870004,-0.330918014,-0.040863100,0.667548001,0.686330020,1.959660053,0.405757010,-0.441148996,-0.939624012,1.925040007,-0.303112000,-0.952188015,0.576633990,-0.045201700,0.093536898,-0.252602011,1.386710048,-1.221379995,0.029045399,-1.820840001,0.712418973,-0.008138090,0.558292985,-0.268583000,-1.103410006,0.591901004,0.416559011,-0.134549007,-0.617406011,0.700762987,-0.847446978,-0.188686997,0.227331996,-0.248200998,0.092879601,-0.342864007,-0.974857986,0.072488397,0.026437299,0.748727024,-0.014302600,-0.663133979,-0.671693027,0.127012998,-1.924450040,0.438719988,0.583656013,0.204150006,0.577278972,
-0.595296979,-0.441839010,1.085970044,-0.048980199,0.225418001,0.121088997,-2.479850054,0.397819012,0.206156999,0.803961992,0.626249015,0.136409000,-1.540300012,-0.067560203,-0.052488901,-0.224117994,0.700221002,-0.313573986,0.707354009,0.038700402,1.124490023,0.587698996,1.050140023,0.559615016,-0.701098025,0.088908598,-0.116691999,-0.290978014,0.932745993,-0.114735000,-0.768015027,-3.889980078,-0.861527026,-0.389346004,-0.497381985,0.454068989,-0.056743301,-0.735436976,0.570021987,0.079603203,-0.765895009,0.004890560,0.034977701,0.324883014,0.180543005,0.121767998,0.911212981,-0.803099990,1.525679946,-0.792388976,
-0.074478999,0.001630500,-0.045018598,0.030365800,0.040813599,0.063672498,-0.041304000,0.011772000,0.007372570,-0.008723930,-0.012710100,-0.083105899,-0.036766499,0.051845200,0.039366800,0.042874798,-0.011000500,-0.030269301,0.027964400,0.001184970,-0.074073203,-0.043615200,-0.007532630,0.002276740,0.036744799,0.045964099,-0.017283000,-0.048959199,0.069005102,-0.065334097,-0.013837500,0.025699999,-0.152530000,0.028783999,-0.047843602,-0.007293910,-0.045392100,-0.115177996,-0.017672099,0.054754101,-0.148666993,0.026658799,0.016075300,-0.037589401,-0.110602997,-0.001715640,0.051018398,0.008013080,0.021804500,0.022079701,
-0.238850996,0.620649993,0.402823001,0.009490470,-0.376832008,-0.473551005,-0.204328999,0.599705994,0.427906990,0.420020998,-0.614381015,0.350879014,0.468703002,0.365604013,-0.049145699,-0.927240014,0.032207400,-0.176436007,-0.183091000,0.039649598,-0.138667002,-0.140887007,-0.253564000,0.715309978,0.793025017,-0.887145996,0.530377984,-0.000125303,-0.244679004,0.873606026,-0.845927000,-1.122949958,-0.812148988,-0.367098004,0.321081012,0.245067000,-0.225791007,-0.438544005,0.278380007,-0.035230100,-0.280811012,0.009016910,0.612709999,0.797529995,0.019030700,0.475980014,0.363314986,0.079310797,-0.198746994,-0.896278977,
-0.036469299,
-2.012320042,
-1.868129969,
0.839098990,
-0.544950008,
0.254119009,
-0.994807005,
-0.226318002,
0.093010798,
-1.685700059,
0.343113989,
2.160530090,
-0.887516022,
